nep4 1 C 
cutoff 8 4 414 44
n_max 12 10
basis_size 12 10
l_max 4 2 0
ANN 30 0
 -1.7704641e-02
  6.7948075e-03
  2.2942028e-03
  5.1517147e-03
  2.3896571e-03
 -4.2855423e-03
  2.1877650e-02
 -4.0143775e-03
 -2.6477139e-02
  1.0673304e-02
  4.9051037e-03
  1.0343287e-02
  1.1184512e-03
 -9.9497484e-03
 -2.5102897e-03
 -2.7680555e-03
  1.5505193e-02
 -1.5980192e-02
 -1.1081947e-02
 -2.2340659e-02
  5.5565201e-02
 -9.3498025e-03
  2.1630207e-02
  2.6329927e-02
 -1.0888864e-02
 -6.7465985e-03
  1.9800229e-02
  2.4912234e-03
 -4.0104795e-02
  8.4585706e-03
 -2.4961929e-03
 -4.5768162e-03
 -4.6674602e-02
 -1.1864351e-02
 -1.6933385e-02
 -1.3119578e-02
  1.6086816e-03
 -1.9779936e-03
  7.2092079e-02
  2.1923626e-02
  2.6615620e-02
  4.4420953e-03
 -1.6083759e-03
 -3.6453556e-03
 -7.8254212e-03
 -5.5325981e-03
  4.9118274e-03
 -3.5558918e-01
 -2.1043923e-02
 -2.9526111e-02
  3.1885069e-02
  3.3849012e-02
  1.3714015e-02
 -1.5881732e-03
  2.2076476e-02
 -2.3750044e-02
  9.6359132e-03
  6.2279077e-03
  1.8447166e-03
 -5.5815037e-03
  3.1439848e-03
 -9.8417224e-03
 -9.9345739e-04
  3.0245520e-03
 -6.0475892e-03
 -2.6367307e-02
  1.5317610e-02
  2.0218421e-02
 -4.3028537e-03
  1.0106377e-02
  2.0477243e-02
 -1.0513848e-02
 -1.7316428e-03
  4.2704260e-03
 -5.9267648e-02
  1.7269785e-03
  8.0552148e-03
 -4.5934687e-03
  2.2795517e-03
 -1.5328811e-02
  7.4455868e-03
 -1.4636620e-02
  4.6627112e-03
 -5.6982841e-03
  2.1063957e-02
  2.6191350e-03
  6.9450960e-03
 -1.0165127e-02
  1.4518216e-02
 -1.9989327e-02
 -7.1222018e-03
  1.1064265e-02
 -5.7674996e-03
 -6.0583018e-03
 -1.9656487e-03
  8.9291930e-03
  5.6876247e-03
  4.5831287e-03
 -8.5127698e-03
 -2.4094619e-02
  1.0191016e-02
 -9.9641802e-03
  2.8647078e-02
 -2.6257688e-02
  1.7778166e-02
  4.0945113e-03
 -3.9794732e-02
  1.1806286e-02
 -6.8303660e-02
  3.4525525e-03
  1.6452845e-02
 -2.0952460e-03
  4.7398196e-03
 -2.8065774e-03
  4.1972776e-03
 -5.7975892e-03
  8.8239787e-03
  1.4870712e-02
 -1.5603233e-02
  1.4707141e-02
 -1.7221341e-02
 -3.6522109e-02
  3.9545220e-04
  1.0395660e-02
 -7.1357777e-03
  5.5630844e-02
  1.5414722e-03
  4.1562091e-03
 -2.9168639e-02
  7.5094029e-03
  6.0613565e-03
 -1.0394023e-02
 -9.7210100e-03
 -7.3668803e-03
  3.4134113e-03
 -1.8057115e-02
 -9.9510066e-03
  4.2584147e-03
  4.9723028e-03
  1.6689586e-02
  3.2993089e-03
 -1.3559261e-02
  1.1564737e-02
  5.2869758e-03
  5.5106236e-03
  7.5914515e-03
  1.5343330e-02
 -6.3003749e-03
 -1.9211002e-02
 -2.3823053e-02
 -4.6353828e-02
 -3.0135121e-03
 -5.0808442e-01
 -1.1646481e-02
 -8.1280246e-03
  1.9106878e-02
  1.6342187e-02
 -1.5060685e-02
 -5.2262094e-02
 -7.2938609e-03
  1.5595473e-02
 -2.3188761e-02
 -5.5720042e-03
 -1.7799718e-02
 -6.7839660e-03
 -6.2067071e-03
  7.0357304e-03
  1.8518319e-03
  1.7910330e-03
 -3.5948727e-02
 -1.5995973e-03
 -3.2001920e-04
 -2.8427888e-03
 -3.4332427e-03
  2.6056794e-02
  3.0206812e-03
  3.5815291e-02
 -8.9999950e-03
 -3.1640794e-02
  1.3397840e-02
 -2.1757402e-02
 -3.0085143e-02
 -2.6530005e-02
 -2.1252288e-03
  3.4959864e-02
  2.9924933e-03
 -8.4778043e-03
  7.2753971e-04
 -2.4746219e-04
 -1.4737720e-02
  2.4386514e-02
  5.3968737e-03
 -1.4330692e-02
 -2.6855752e-02
 -8.7705965e-05
 -2.4183953e-02
  7.9619242e-03
 -3.8418114e-02
 -9.7213784e-04
 -1.2937043e-02
 -8.6165462e-03
  4.4210330e-03
 -1.8516150e-03
  1.9587612e-02
 -3.0578632e-02
  8.4413569e-03
  9.5226364e-03
  8.3534764e-03
 -1.4231505e-04
 -2.0231761e-02
 -8.6752800e-03
 -3.2830920e-02
 -5.5477205e-03
  1.9079316e-02
 -4.1417642e-03
  9.4507188e-03
 -4.6131290e-02
 -8.8823941e-03
 -1.8793235e-02
 -1.8164782e-02
 -3.4272501e-01
 -9.1084665e-01
 -8.2539432e-03
 -3.1015619e-03
 -1.2042021e-03
  1.2139288e-04
  1.8607926e-01
 -8.0625422e-02
  5.0416896e-03
 -2.8466713e-02
  1.4351757e-02
 -6.9553452e-03
 -1.1004687e-02
 -1.5135250e-02
 -7.1677398e-03
  3.2294698e-02
 -1.9873530e-02
  1.3561926e-02
  7.8987619e-03
  4.1265464e-03
  2.6260909e-02
 -3.1353999e-02
 -9.2831664e-03
 -8.7434414e-04
  8.8379122e-03
  1.8825788e-02
  4.2942283e-03
  1.6739106e-02
  3.1993294e-01
  1.3666064e-02
 -1.9124314e-02
 -8.0941524e-03
 -3.0175857e-02
  7.7279871e-03
 -1.1554213e-02
 -2.8691171e-02
 -7.9508154e-03
  6.8354500e-03
 -8.1983646e-03
 -2.4616392e-03
  2.3773732e-02
 -1.6106588e-03
 -8.4824971e-04
 -1.3146364e-03
 -6.2272530e-03
 -3.4170793e-03
  2.6208367e-03
 -3.7934743e-03
 -1.2543565e-03
 -2.9792248e-03
  1.5346222e-03
 -2.0319350e-02
  7.9422621e-03
 -2.2354699e-03
 -3.2423115e-03
 -6.6247066e-03
  2.1116263e-03
 -1.2247727e-03
  2.6187644e-04
  1.9530015e-02
  3.7340964e-03
  1.8846870e-03
 -1.3206145e-02
 -1.6109582e-02
  2.3622185e-02
  7.7136997e-03
 -3.4004203e-03
  2.5606666e-02
  1.0568957e-02
  1.8271940e-02
 -5.8931122e-03
  2.6828680e-02
 -4.0388303e-03
  3.3543970e-02
  4.5196763e-03
 -3.7126741e-01
  3.1436920e-02
 -3.9040152e-02
 -4.2353034e-02
 -1.6148195e-02
 -1.2593326e-03
 -9.3052601e-03
 -3.5453796e-02
 -1.9296883e-03
 -1.3987591e-02
  1.2926757e-04
 -9.9462019e-03
  7.1300860e-03
  1.2172159e-02
  1.2415106e-03
  3.0399742e-02
 -2.3558283e-02
  5.5339618e-04
  3.7155606e-02
 -1.3837174e-02
 -2.3154482e-02
  8.2873432e-03
  9.0987247e-04
 -1.4034364e-02
 -9.6721575e-03
  1.6353644e-02
 -3.0884834e-03
 -1.8947098e-02
  3.3659628e-03
  1.5199740e-03
 -6.7847501e-03
 -1.1919690e-03
 -1.1943313e-03
  6.0510146e-03
  3.1911468e-03
  1.7766854e-02
  1.0616397e-02
  8.8031366e-03
 -2.3333640e-03
  8.2120430e-03
  7.5227637e-03
  1.1359725e-02
 -7.3392596e-04
  4.8339553e-03
 -1.4719005e-02
 -1.0084035e-02
  4.1402578e-03
  1.1750882e-02
  6.8715750e-03
  5.6341970e-03
  1.3712098e-02
  8.0096815e-03
 -1.2992414e-02
 -5.0863950e-03
 -6.5883757e-03
  1.6567746e-02
 -1.8107784e-03
  5.4120510e-03
 -2.1965330e-02
 -4.4079339e-03
 -2.5846660e-02
  4.9893466e-01
  2.4672592e-02
 -2.4642156e-02
  3.2344419e-03
 -1.0145296e-03
  1.1803163e-02
  1.0618904e-03
 -4.1924074e-04
 -3.6968184e-03
  1.0874250e-03
  1.8010745e-02
  4.6118337e-04
 -8.6262599e-03
  6.2922984e-02
 -1.9346509e-02
 -1.6352851e-03
  7.0574373e-04
 -2.5783561e-04
 -2.7593188e-03
 -1.8918397e-02
  1.4659181e-02
 -9.9532015e-04
 -6.3663252e-02
 -1.3075803e-02
  5.9639752e-01
  6.7378255e-03
 -3.5052546e-03
 -3.7630383e-02
  1.3436427e-02
 -9.3791857e-03
  1.6001286e-02
  3.8503736e-02
  1.9033144e-03
  1.1070117e-02
 -3.2849357e-02
 -5.8374419e-03
 -3.2074349e-03
 -9.3139242e-03
  5.0489191e-04
  3.8652711e-02
  3.7836002e-03
  2.3421075e-03
  1.4617983e-02
 -1.0501415e-02
 -4.4144737e-05
  1.6826408e-02
 -2.4738992e-03
  1.4803167e-02
  6.8961005e-03
 -1.4623892e-02
  1.1328658e-02
  1.6647786e-02
 -6.5370775e-03
 -4.1286736e-03
 -4.1487668e-02
 -2.3070276e-02
 -6.2758802e-03
  1.2497640e-02
  9.2066433e-03
 -1.9845420e-03
 -6.1309244e-03
 -1.5169573e-02
  9.9892197e-03
  2.3288433e-03
 -2.2901371e-02
 -2.7229812e-03
 -9.4826752e-03
  5.3522587e-03
 -2.2468077e-02
  4.8989737e-03
  5.3455746e-03
 -4.6346977e-02
 -1.9309234e-02
  5.3041759e-03
  2.0015141e-02
 -2.0568151e-02
  2.2004861e-02
 -2.5205151e-04
 -1.0548260e-02
 -1.9327963e-02
  8.3266115e-03
  1.5405182e-02
  3.4305047e-02
  7.7171060e-03
  2.5113407e-03
  1.3468444e-02
 -2.8584590e-02
 -9.7518442e-03
 -3.2141481e-02
 -1.5857244e-02
  4.4235475e-03
 -1.3998930e-03
  5.3777420e-03
  8.0650030e-03
 -6.5219481e-03
 -3.9929545e-01
  4.2143941e-02
 -1.1822819e-02
  6.0733333e-03
  1.3935239e-02
 -5.6205187e-03
  2.8180590e-02
  5.5511040e-03
  2.8614901e-02
 -1.0883856e-02
  2.3012594e-03
 -6.9755372e-03
  8.7663991e-04
  1.3709483e-02
  2.6469203e-03
 -1.6569177e-02
  2.9907256e-02
 -1.7522007e-03
  2.9252528e-03
 -2.4488209e-02
 -3.9201509e-03
  3.9038826e-02
 -1.6786349e-04
  1.1286256e-02
 -1.8453777e-03
  2.6754122e-02
  6.1448369e-02
  1.5628669e-02
 -7.9090903e-03
  4.8692305e-02
 -1.0946305e-02
 -2.4837648e-02
 -1.4375188e-02
 -3.2522243e-02
  4.0736541e-02
 -1.7083719e-02
 -3.7542728e-03
 -2.6362782e-02
  1.4551009e-02
  3.3234213e-02
 -6.3339651e-02
 -1.7115511e-02
  1.7605370e-02
 -1.4549896e-02
  1.3148741e-02
  8.2571376e-03
 -3.7532426e-02
 -6.1826315e-04
 -6.1190729e-03
 -2.1225107e-03
  5.6828675e-04
 -2.8055141e-02
  2.9224351e-02
 -5.9178170e-02
 -4.4949502e-03
  9.5390752e-03
  1.0349099e-03
 -9.6945167e-03
  7.3119919e-03
  2.3737041e-02
  1.1997261e-02
 -6.6123591e-03
 -7.1049347e-03
  8.5917093e-02
  1.8506311e-02
  1.1785050e-01
 -9.1745546e-03
  6.1048470e-03
 -6.4177103e-02
  5.5971090e-03
  3.4367061e-01
 -8.2969563e-03
  6.6960580e-03
 -3.1836146e-01
 -7.2884038e-03
 -1.1402983e-02
  1.3215579e-02
  3.3270344e-02
 -3.8060192e-03
 -2.2623148e-02
  3.1825025e-03
 -4.2312790e-02
 -1.8777624e-02
 -2.2185536e-02
 -8.0227572e-03
 -3.9953772e-02
 -2.6032461e-02
  6.2731779e-03
  7.2148861e-03
 -6.7896966e-04
  1.2237298e-02
  3.9233193e-02
  3.9260481e-03
  8.7231450e-04
 -2.5267636e-02
  9.4836364e-03
  1.5666251e-03
 -6.2952396e-03
 -5.2989740e-03
  9.4205262e-03
  9.1508850e-03
 -9.2134019e-04
 -1.4918116e-01
 -1.8998142e-03
  4.6682805e-03
 -5.8431003e-02
 -2.6980266e-02
 -3.9719986e-03
  1.2144332e-01
  4.2347163e-02
 -6.8019050e-01
  8.4696078e-01
  4.7977793e-01
 -7.0043774e-03
 -1.9481845e-01
 -2.4160845e-02
 -3.6324184e-02
  2.1300223e-03
 -1.9585231e-02
 -2.7968960e-02
  6.4760172e-03
 -1.3026033e-02
 -3.0026549e-02
  1.1033112e-02
  9.1590080e-03
 -5.4083876e-03
  1.2050668e-03
 -2.8013505e-02
 -8.7449756e-03
  1.9670954e-02
 -3.2513965e-02
  4.9099281e-01
  3.5853070e-01
  1.7469691e-01
 -4.0949047e-01
  1.3259169e-02
  3.4703031e-02
 -1.8514262e-03
 -8.8239104e-01
 -6.7635896e-03
 -1.8979198e-03
 -1.2903982e-02
  1.0358030e-01
 -1.3937448e-03
  2.9440291e-02
  4.4663347e-02
  8.5668308e-01
  2.4568632e-02
 -1.0132161e-02
 -5.4199351e-03
 -1.2807888e-02
 -2.2879381e-02
  4.8420373e-03
  4.6179835e-03
 -1.6891196e-02
 -1.7453054e-03
  8.4482236e-03
 -2.1206278e-03
  2.5607631e-02
  3.1462680e-03
  1.6373530e-02
  8.2357358e-03
  9.1811651e-03
  5.2748504e-03
  4.5188060e-03
  1.0980044e-02
 -7.4725645e-03
 -1.2189961e-02
  8.7721285e-04
 -2.0388744e-03
  1.3561775e-03
 -2.9517127e-02
  6.1623463e-03
 -1.5643628e-03
  2.1974552e-02
 -2.2076648e-02
 -1.5063451e-02
 -7.7030100e-03
 -1.6158151e-03
  4.5586727e-03
 -6.7665661e-03
  1.1240461e-02
  2.4339791e-01
 -7.4314242e-03
 -7.0705637e-03
 -7.4917939e-04
  1.0223630e-02
  1.3413239e-02
 -2.9622100e-03
 -1.1232921e-02
  7.0774956e-03
 -2.0339739e-02
 -8.7291198e-03
  4.0773530e-03
  3.5743516e-02
  2.9505396e-01
 -4.5220442e-03
  8.5241999e-03
 -2.2559293e-02
 -1.4537464e-02
 -3.2628845e-02
  5.2567273e-03
 -1.9204107e-03
  4.0900991e-03
  5.3159455e-03
 -8.7164789e-03
 -4.2420751e-03
  1.0010041e-03
  9.5726328e-04
  3.5411259e-03
  1.2742666e-02
 -7.8766383e-03
  1.6545620e-02
 -5.1222919e-03
  5.1363447e-04
  5.7161553e-03
 -5.5680182e-03
  6.3194036e-03
 -2.7650190e-03
  2.3201225e-02
 -8.4779412e-03
 -8.9022366e-04
  7.3643331e-03
  6.3252762e-02
 -1.7913463e-02
 -5.5812108e-03
 -9.0516433e-03
  1.4034908e-01
 -9.0093194e-03
  8.3738258e-03
  2.4957336e-02
 -2.9095680e-02
 -1.4516955e-02
 -6.8266444e-02
 -8.5234456e-03
 -1.8810042e-03
  1.1144949e-02
  9.2928417e-02
 -3.2507974e-01
  1.6932266e-03
 -3.0030608e-02
  3.0162116e-04
 -1.1374438e-02
 -3.3384892e-01
 -8.1852213e-02
  4.5998892e-01
 -2.6306134e-01
 -4.1918424e-01
 -3.4523979e-01
  3.9912975e-01
 -1.3357729e-02
  4.8000207e-03
  1.2445381e-01
 -1.1008536e-02
  4.5531536e-03
 -1.6999489e-03
 -1.8752506e-03
  9.4870100e-04
 -5.3229567e-04
 -1.4978198e-02
 -3.8434775e-03
 -1.1845338e-02
  1.8022263e-02
 -1.1616634e-02
 -1.8679524e-02
 -1.2987126e-01
 -2.7799232e-02
 -6.1712857e-02
 -2.1633377e-02
  6.7256588e-01
  3.0197421e-01
 -7.9284463e-04
 -4.0062312e-02
 -1.4487286e-02
 -3.1867775e-03
  6.8475403e-02
  2.5517171e-02
 -3.5144307e-02
 -2.7424980e-02
  1.3489545e-02
  1.1680248e-02
 -3.0236475e-03
 -2.0367969e-03
  9.4991247e-04
 -6.5499529e-02
  3.2102950e-02
  1.2684932e-02
  1.1529357e-02
  2.6397115e-02
 -1.0365280e-03
  7.2902612e-02
 -5.1397663e-02
 -1.4054662e-03
  1.2933365e-03
 -2.8055839e-03
  1.1767520e-04
 -1.7759988e-02
  1.5925286e-02
  9.3738362e-03
  2.3831442e-02
 -4.1423757e-03
 -1.7658215e-02
 -2.3328139e-04
  3.7207478e-03
  7.1224305e-03
  1.3217106e-02
 -2.3676729e-02
  4.3696906e-02
 -2.4922322e-03
 -2.3272188e-02
  2.2593064e-02
  8.3510631e-01
  5.1856868e-02
  1.8131600e-01
  1.6231370e-01
 -9.4906613e-02
  1.7650150e-01
  3.1022206e-02
 -6.0262698e-01
 -5.1342663e-03
 -2.7400028e-02
  1.2946227e-03
 -1.2159945e-02
 -1.8278232e-02
 -2.4091713e-02
 -3.9440366e-03
  9.5371008e-03
  9.1169961e-03
 -4.0187132e-02
  1.2358630e-04
  2.9830977e-03
  2.5874828e-03
  6.2433630e-04
  6.4357027e-02
 -2.8059348e-03
  3.2037455e-01
  2.7970818e-01
  1.7016223e-01
  1.9804038e-02
 -4.6330187e-03
 -4.3568897e-01
  9.5073605e-04
  2.1350409e-03
 -4.6084472e-04
 -3.3810325e-03
  1.0396747e-03
  1.4548464e-01
 -4.3084407e-03
  6.9261547e-03
 -1.0824738e-02
  1.5886772e-02
  1.7989969e-03
  1.6523218e-03
 -1.4387820e-02
 -2.0968890e-02
 -1.4012763e-02
 -3.0551183e-03
  8.4814979e-03
 -7.1033090e-02
 -5.1622023e-04
 -5.6821615e-03
  1.8890905e-03
 -1.0956173e-01
 -7.5929598e-03
  6.5050647e-02
 -1.7628117e-02
 -4.9336776e-02
  5.6270175e-03
  1.6010825e-02
  1.8575215e-03
 -7.7555040e-03
  9.5786713e-04
  2.0520721e-02
 -4.0736300e-01
 -5.7851956e-03
 -1.5792133e-02
  2.1936251e-02
  2.4742670e-03
  2.1292374e-02
 -2.3833208e-01
  7.3233726e-03
 -3.9663616e-01
 -5.4819542e-03
 -4.7600953e-04
 -1.0925573e-02
 -6.8247025e-03
 -9.9166250e-03
  4.0548313e-03
  4.7799638e-03
  2.3178238e-02
 -9.1310507e-03
 -1.6271394e-02
 -1.2531766e-03
  1.3668360e-03
  2.9266938e-03
 -2.3733689e-02
  1.1710556e-02
  1.1341658e-02
  3.7708618e-02
  6.9970591e-03
  8.8405265e-03
 -1.7967148e-02
 -5.4458417e-02
 -7.0437440e-03
 -4.9505853e-03
  2.9455762e-02
 -3.0684313e-03
 -1.5778536e-02
  1.0341957e-01
 -3.5542611e-02
 -8.4813116e-03
  2.8730673e-01
  1.4731514e-03
 -4.9126977e-03
  1.8303532e-03
  7.6288722e-02
  7.7208793e-03
 -8.4165214e-03
 -1.7501133e-02
 -6.0770363e-03
  5.1600887e-03
  8.4073720e-03
 -5.9410422e-03
 -2.2353044e-02
  1.3809514e-01
  1.5485641e-02
  7.4078483e-03
  4.5490131e-02
  1.4936391e-02
  8.8516260e-03
 -1.3852899e-03
 -4.6320083e-03
  6.9293096e-03
 -2.3554344e-02
  3.7692587e-03
 -4.9483366e-03
 -1.2944116e-03
  3.8608054e-03
  1.9075280e-02
 -2.2089216e-03
 -1.1282355e-02
 -3.2509065e-03
 -1.1841788e-02
 -1.6408181e-02
  1.1084597e-02
 -1.3422925e-02
 -2.9048445e-02
 -2.3104548e-03
 -1.5885642e-02
  3.2437739e-01
  1.1866298e-02
 -2.2321541e-02
 -3.4529648e-03
  6.6084247e-03
  2.4447087e-02
  1.0202442e-02
 -9.1019421e-05
  1.6709525e-02
 -9.6161785e-03
 -1.3979677e-03
  4.4846024e-02
 -1.6285883e-05
 -1.3700088e-02
 -3.6621818e-03
 -2.8904082e-02
  1.4422492e-02
  9.1996725e-04
 -5.8722552e-03
 -1.3680850e-02
 -3.9413612e-02
 -3.1275270e-03
 -3.6338143e-02
  4.5313102e-01
  9.7605120e-04
 -1.1203983e-01
  3.4683533e-02
  7.5954303e-02
 -5.2274894e-03
 -8.9580594e-03
  2.1370838e-03
 -5.4733106e-03
  1.0546082e-02
 -3.5048459e-02
 -1.3461584e-04
  2.8183445e-02
 -2.7262361e-03
  6.5257610e-04
 -1.4535644e-02
 -2.7409929e-03
 -1.8580353e-02
 -3.8458101e-02
  8.1815924e-03
  4.8713785e-02
  3.5478391e-02
  5.5569131e-04
 -1.0417848e-02
  9.4136801e-03
 -6.1766634e-04
 -4.7209645e-03
  7.4111740e-04
 -2.0624515e-02
 -1.0591138e-01
 -2.2752924e-02
  4.9832735e-02
  8.8685742e-03
  2.9125851e-01
 -1.2135326e-02
  7.0420098e-03
  1.0669761e-02
  1.1661188e-03
  2.4690095e-04
  1.4728082e-02
  1.6805626e-02
  1.3609853e-02
  1.0166771e+00
 -9.7023278e-02
  8.4116748e-03
 -6.0779124e-01
  1.1713435e-01
  8.2099724e-01
  3.5707098e-02
 -1.3848004e-01
 -3.9637360e-01
 -4.3007906e-04
 -3.1928000e-01
 -1.9217292e-02
 -9.9041278e-04
 -1.0976187e-02
  1.6322287e-02
  1.5590229e-02
 -4.5282181e-02
  5.8305068e-03
  1.0242912e-02
 -3.5322804e-02
 -3.6731279e-03
  7.5612821e-05
 -1.1056062e-02
  1.6129051e-01
  2.3421291e-01
 -4.4312906e-01
  6.0804778e-01
  1.7030041e-01
 -1.0789646e-01
 -1.3073939e+00
  3.1677246e-01
  5.3917956e-02
  5.2682018e-01
 -6.1166971e-03
 -9.3835797e-03
 -8.0755204e-03
 -4.0652906e-03
 -1.0577020e-03
 -2.3356875e-02
 -4.3495987e-02
 -2.1638483e-02
 -2.7813172e-02
 -2.8029284e-03
  1.0673224e-02
  2.4913032e-02
  8.2617374e-03
 -3.1041006e-02
  5.1490497e-02
 -1.6785243e-01
  1.0989895e-01
 -8.6340690e-03
 -1.1885591e-02
  3.6873195e-02
 -5.4104608e-03
  1.1961820e-02
 -3.8707696e-03
  1.1621066e-02
 -5.9174486e-03
  8.9305959e-04
  7.5715943e-03
  1.3616175e-02
 -7.6526431e-03
 -1.6704727e-02
 -2.7605824e-03
 -1.4298126e-02
  4.6114689e-03
 -9.1047613e-03
 -1.6185926e-02
  5.4627704e-04
  4.3117157e-03
  3.1636354e-02
 -7.5466476e-02
  2.3496486e-02
  5.4284494e-02
 -3.4297993e-03
  4.4729165e-04
 -3.5861251e-03
 -7.4946475e-03
 -3.8651098e-03
 -1.5772913e-02
 -2.5120168e-03
 -1.5818560e-02
  4.0304374e-02
 -8.6779809e-03
  9.8624248e-03
  2.7218111e-02
  2.6337883e-02
 -2.7018385e-02
  6.9402885e-03
  7.0817559e-03
  1.3085198e-02
 -3.9786324e-02
 -3.1188503e-04
 -1.0338821e-02
  8.9359498e-03
 -1.0145459e-02
  7.2894210e-05
 -4.4593057e-03
  6.7148544e-03
 -1.6416637e-02
 -2.5460925e-02
 -1.4507520e-02
 -3.5387317e-03
  3.2222655e-03
 -6.3593825e-03
 -1.4584115e-02
 -8.5885050e-03
 -2.7587434e-05
 -2.7761287e-03
  9.0003991e-03
 -1.6251419e-02
  4.0362153e-02
  1.5047042e-02
 -1.0246231e-03
  5.5398922e-03
 -4.5438446e-03
  8.7713767e-03
 -8.1074955e-03
  4.3031909e-02
 -6.8536876e-03
 -1.9356009e-02
  7.3113167e-03
  3.3996759e-03
 -2.5168026e-04
  4.5762397e-03
  1.9582789e-02
  3.4476414e-02
  1.6311563e-03
  7.7022677e-03
 -8.1009688e-03
 -3.0906461e-03
 -3.3804584e-02
  6.8736207e-03
  7.5038997e-03
 -4.4342061e-04
 -4.0453400e-02
  1.7491147e-02
 -3.6452316e-02
 -3.2036021e-02
 -3.0962309e-02
  1.4738539e-02
 -3.7028904e-03
 -5.2662357e-03
 -2.7663274e-02
 -1.9038374e-02
 -8.0715623e-03
 -1.1959892e-02
 -5.4159696e-04
 -6.0125561e-03
  2.3986397e-03
  8.7135710e-04
 -4.2277919e-03
  8.6694909e-03
  4.8284471e-02
  2.3295691e-02
 -1.2145416e-02
  1.8482605e-02
  5.5320941e-02
  5.6868135e-03
 -1.9960783e-02
 -5.6742977e-02
  1.6004007e-01
  1.8312930e-01
 -1.3542974e-01
 -3.2084588e-02
 -8.5902336e-04
 -4.8011709e-03
  1.0026842e-02
 -2.4568394e-04
 -6.4525530e-03
 -5.4912851e-03
  4.8752096e-03
 -4.3971986e-03
  1.7870622e-02
  9.3784546e-03
 -3.2506965e-02
 -8.2545495e-04
 -6.2356871e-03
  2.8224168e-02
 -2.1816086e-02
 -1.2158546e-02
  6.5685646e-03
 -2.8322833e-03
 -5.3275898e-03
 -2.4554232e-02
  1.6295265e-03
 -1.5378909e-03
  2.7113624e-03
 -4.5493256e-02
  3.4830520e-01
  3.5426404e-02
  5.5789281e-02
  6.9474864e-01
  3.1106123e-01
 -1.1717361e+00
 -1.3995168e-01
  1.8737289e-01
 -1.3538428e-03
 -2.4337065e-01
 -1.7067784e-01
 -4.4861153e-02
 -8.9026382e-03
  1.6701758e-02
 -3.7268043e-01
 -3.5655859e-01
  1.8560533e-01
  8.9855433e-02
  3.0375406e-01
 -5.4365486e-01
  1.2133291e+00
 -6.7110801e-01
 -4.0043047e-01
  4.3829191e-01
 -1.3510926e-01
 -1.1304615e-01
  5.5603944e-02
  1.1085745e-02
  2.9973142e-02
  2.1160860e+00
 -2.0619187e-01
 -2.5928119e-01
  3.0399609e-01
  6.1478311e-01
 -1.1017714e-02
 -1.0845129e-01
 -9.8391742e-01
  4.1847683e-02
  7.3401403e-01
  5.4871476e-01
 -2.0232283e-01
 -1.5758692e-01
 -9.7955424e-01
  9.4101465e-01
 -2.1125773e-01
  8.6994922e-01
 -3.1289944e-01
 -4.2210999e-01
 -4.7861803e-02
 -3.0700645e-01
  6.9986576e-01
  3.6812267e-01
 -6.8721227e-02
 -4.8479879e-01
  1.2495599e+00
 -3.3915010e-01
 -4.3608749e-01
 -3.7195683e-02
 -1.1726156e+00
 -8.6038392e-03
 -1.1041284e-01
 -5.2768284e-01
  6.2232697e-01
 -1.0086423e+00
  3.9841866e-01
  1.8940330e-01
 -4.2311866e-03
 -2.2621662e-03
  5.9381649e-03
  1.2671366e-01
 -5.1614665e-03
 -4.3625631e-03
 -3.1411007e-01
 -6.3981704e-02
 -7.8226948e-01
  2.5906789e-01
  2.8995611e-02
 -1.3784049e-01
 -9.0827383e-02
 -1.4411472e+00
  1.2251968e-02
 -5.4981645e-02
 -1.5051151e-02
 -1.7823823e-02
  4.0971336e-04
 -2.5106737e-01
  2.0615065e-01
  1.2097750e-01
 -1.4324688e-03
 -1.5400109e-01
  6.3359004e-01
  5.6295717e-01
 -5.9751697e-02
  1.7438957e-01
 -4.6597593e-02
 -2.2084735e-02
  5.3282864e-03
 -2.1654109e-03
  9.8654789e-01
  1.1906760e-01
  7.2257720e-02
 -4.8982430e-01
 -4.3601966e-03
  1.9799922e-02
  2.1492995e-02
  9.7798407e-03
 -5.7685560e-01
  4.8835218e-02
  3.6414725e-01
 -5.7072908e-01
  4.2647745e-02
 -2.1880572e-01
  9.2596853e-01
 -2.9351449e-01
  1.6187739e-03
  2.9633522e-01
  3.3645622e-02
  5.5107124e-02
  4.5460593e-02
 -1.6496276e+00
 -1.0740001e-01
 -3.7109977e-01
  2.4624152e-02
  1.7230496e-01
 -2.1627863e-01
 -1.2402193e-02
  1.3815719e+00
  3.3147410e-02
 -9.2474539e-03
  2.6529929e-01
 -3.3597033e-02
  1.0559039e-01
 -7.6749071e-02
  6.7824274e-03
  1.7587490e-02
 -2.2013713e-02
  1.0079863e-02
 -7.7745639e-02
  1.7231874e-02
  3.3891368e-01
  4.3321573e-03
  1.1064585e-02
  7.1488887e-01
 -8.5579827e-03
 -2.8140130e-03
 -7.0466041e-03
 -1.3283521e-02
 -1.2216230e-02
  1.4609427e-02
 -7.3513254e-03
  2.8749323e-02
  6.3520251e-04
 -1.0023654e-01
 -6.1307726e-03
 -6.3276196e-01
 -2.4466909e-02
 -5.4348754e-03
 -2.4165612e-01
  6.3001886e-03
 -1.5806094e-01
 -2.3915751e-02
  3.7663836e-02
 -3.1021323e-02
  3.5600163e-02
 -1.5157124e-02
  3.6657505e-02
  3.7482506e-01
  1.4074852e-02
 -2.0764489e-02
  2.7442409e-02
  2.2430145e-03
  3.1301824e-04
 -5.6371083e-03
  1.0400479e-02
 -1.4336680e-02
 -8.3927056e-03
  5.3940237e-01
 -6.1048275e-01
 -2.5805590e-01
  1.7965117e-01
  2.9306309e-02
 -7.1672192e-03
 -1.3280797e-02
  1.2884533e-01
  7.6863817e-03
  7.1667992e-02
 -6.8203332e-03
  1.2729003e-04
  8.7233311e-01
  4.0060021e-03
 -2.1641854e-02
  3.3018056e-02
 -4.4821929e-02
 -1.0912129e-01
  4.8420588e-03
 -1.9093029e-02
  2.6547356e-02
  5.6433752e-02
 -2.9118464e-03
  3.0728918e-01
 -9.6963137e-02
  1.6715641e-03
 -3.5487108e-02
 -2.3823885e-02
 -6.1505232e-03
 -1.3419931e-02
  3.8712749e-01
  3.5891950e-02
  4.8752302e-01
  3.3821681e-01
  5.0033238e-02
 -3.7918709e-02
 -3.6140527e-03
  1.7907842e-01
 -9.1003753e-02
  5.5284661e-01
 -1.9912622e-03
  4.6621401e-02
 -4.7922242e-01
 -7.9138887e-01
 -1.4517255e-01
 -4.7910202e-01
  3.0491766e-01
  1.1695254e-02
  4.3222941e-02
 -1.7475173e-01
 -4.9799135e-01
 -5.6810462e-01
 -1.8338734e-01
 -4.2386085e-02
  4.9289413e-02
  4.1036668e-01
 -6.4700410e-02
 -5.8781970e-02
 -4.0592301e-01
  2.0059735e-01
 -2.4746394e-01
  4.1574769e-02
  4.7152898e-01
  5.0540519e-01
 -4.9426898e-02
  1.2612747e-01
  1.2840638e-01
 -2.6458323e-01
 -7.0140564e-01
  2.7356789e-01
 -2.8874496e-01
 -3.6392382e-01
  7.3209733e-02
  3.1422287e-01
 -2.7129856e-01
 -4.9597707e-01
 -1.7875147e-01
  4.9182916e-01
 -2.9842257e-01
  1.0194601e-01
 -1.1874880e+00
  1.4125532e+00
 -5.7287675e-01
 -2.4838650e-01
  1.2444702e+00
  2.7439609e-01
 -4.3686652e-01
  1.7257947e-03
 -8.8154383e-02
 -1.3656002e-01
  8.9662010e-03
 -7.9140568e-01
  1.9668490e-01
 -1.4578499e-02
 -1.2195130e-02
 -2.2689905e-02
  9.3970113e-02
  2.7307549e-02
  3.3301958e-03
  4.5144060e-03
  6.5435248e-04
 -6.3742949e-03
 -5.2224684e-01
 -2.2515815e-02
  5.3235102e-03
  3.2735553e-03
 -7.9701841e-03
 -9.7852768e-05
  1.5867803e-02
  5.1913657e-03
  3.2631744e-02
 -1.8327931e-01
  7.4220548e-04
  5.5008632e-01
 -3.2906920e-02
  2.2005849e-01
  6.6046834e-02
 -2.3211142e-01
  1.2283657e-02
  3.2547551e-01
  5.1063951e-03
 -6.2058652e-03
 -1.1007100e-02
  5.0723283e-03
  2.0313563e-02
 -3.5108060e-03
  1.0511283e-02
 -7.7717821e-04
  6.8827793e-03
 -5.9684985e-03
  8.2953088e-03
 -4.4891067e-02
  2.0317370e-02
  5.3853295e-03
 -2.3428405e-02
  3.2182115e-03
 -7.7268958e-02
 -1.3297601e-01
  4.8437920e-01
  7.0026559e-03
  2.2752196e-02
 -1.9477557e-02
  1.2270097e-02
  8.6750899e-04
 -1.6827744e-02
  1.3046274e-03
  6.2501105e-03
 -5.0334260e-02
  2.2743645e-03
 -3.5507651e-03
  1.6789678e-03
  1.2448153e-02
 -1.6944567e-02
 -4.2986181e-02
  5.2353013e-02
  1.0459425e-02
  1.6672870e-02
  5.1154934e-02
 -5.0322567e-03
  7.0766889e-02
  1.1433975e-02
  1.8762544e-02
  1.0837805e-02
  4.8794128e-02
  2.4215311e-03
 -3.3214632e-03
  2.1365980e-02
  2.5843611e-01
 -1.6372813e-03
  3.1366674e-03
  1.2675440e-01
  9.5462361e-03
  2.7830806e-04
  3.0739786e-02
 -2.7236497e-02
  4.0631518e-03
 -2.4371424e-03
  1.3385309e-02
  2.8721783e-03
 -5.5872859e-03
 -9.7356610e-02
  7.3353499e-03
  9.6516663e-01
  8.0447067e-03
 -7.9179905e-02
  2.7806640e-01
  1.0071927e-02
 -2.7943019e-02
 -5.1462157e-03
 -6.9092736e-03
 -1.0584620e-02
  2.0851150e-02
 -1.8302322e-03
  9.8316465e-03
 -2.9898298e-03
  1.2115631e-02
  1.2004415e-03
 -1.0548540e-02
 -3.4343787e-03
  4.2938078e-03
 -9.1018882e-03
  2.6743488e-02
  2.9497214e-03
 -2.6035836e-05
 -3.6082956e-01
  3.2127924e-02
 -3.9271879e-01
  2.4308516e-03
 -1.6352173e-02
  3.4722287e-02
 -1.4214739e-02
  7.2282618e-03
 -4.0329136e-02
 -1.7976619e-02
 -2.1801941e-02
  2.0348635e-02
 -5.3437008e-03
  1.8023355e-02
  5.2638529e-03
 -1.2646423e-03
  2.1837806e-02
  1.2988030e-02
 -2.5831286e-03
 -1.6173126e-02
  1.5487172e-02
 -1.0851027e-02
  1.1419505e-02
 -5.8696029e-04
  8.4125586e-03
  1.0399995e-02
 -6.1967866e-03
 -9.2616454e-03
  1.6780339e-02
 -7.9236826e-04
  1.9978261e-01
  4.4963819e-01
 -2.1351705e-01
  1.1427308e-01
  1.5593842e+00
  4.6367669e-01
  3.6585742e-01
  7.8208409e-02
  1.0561448e-01
  7.0740461e-01
 -4.9838919e-02
  1.0834135e-03
 -1.0000183e-02
 -1.2336554e-01
  3.1886631e-01
 -1.1830219e+00
  1.3100089e-02
  8.7357812e-02
  1.1458801e+00
  1.9936614e-01
 -5.9792376e-01
  1.2661020e-01
 -1.3159834e-01
 -3.1206954e-02
 -1.2464890e-02
 -5.7218772e-01
  1.3647729e+00
  2.0744769e-01
  8.3072937e-01
 -4.3617595e-02
  5.0355566e-01
 -7.9941750e-01
 -2.4861075e-01
 -1.1548483e-01
  6.0548226e-04
  1.3889011e-02
 -5.2388102e-02
 -9.4575101e-01
  4.8427594e-01
 -1.6290849e-01
  5.1212251e-01
  3.3296809e-01
 -4.8675448e-01
 -1.0916734e+00
 -7.8800100e-01
  3.3343095e-01
  1.3688013e-01
 -1.1986511e-01
  1.6460951e-01
 -1.1217053e+00
  6.9487739e-01
 -1.7735055e-02
  1.5057310e-01
  3.5023943e-01
 -8.2684088e-01
 -2.8991595e-01
  1.0082228e-01
  4.8237606e-03
  5.1667113e-02
  1.9023336e-04
 -1.7868000e-01
  5.7431513e-01
 -7.3433645e-02
 -2.4536893e-02
 -6.9158515e-03
  7.6359850e-03
 -2.2984028e-02
 -6.3973218e-02
 -2.1680202e-02
 -3.6892131e-02
  4.3371454e-02
 -3.5292062e-03
  2.0676840e-02
  2.5807261e-02
 -4.6292148e-03
 -6.7200489e-02
 -3.6985144e-02
  6.6433414e-03
  2.5752818e-03
  2.7600541e-03
  9.1781951e-03
 -1.0495179e-02
 -2.8114865e-02
  5.7217591e-02
  5.0322586e-03
 -1.2784066e-03
  3.2440629e-03
  1.1170689e-02
  1.9160748e-03
 -5.0539784e-02
  1.5957523e-03
 -3.5645518e-02
 -2.5591640e-02
  4.5325518e-02
  1.4706705e-03
 -3.7564046e-03
 -2.4439687e-02
  2.1049157e-02
 -2.2945967e-02
 -8.3336316e-04
  3.0359304e-02
 -1.1485228e-03
 -2.6359684e-03
 -1.5865717e-02
  4.1615561e-02
 -2.0606010e-01
  8.6646414e-01
  1.0456868e-01
 -5.2612156e-01
  3.0193124e-03
  1.9836666e-02
 -2.4629887e-02
 -1.0803423e-02
 -2.0411693e-02
  3.5888846e-03
 -1.0105004e-02
  7.3829710e-02
 -4.4121654e-03
 -1.6522674e-03
 -8.2931649e-03
  1.2283335e-02
  1.8956658e-04
  8.6232536e-03
  2.1903419e-03
 -3.9310351e-02
 -4.1856016e-03
 -3.1947396e-03
 -1.5471219e-02
  4.0549524e-02
 -3.0062854e-02
  3.0120499e-03
  1.1324899e-03
 -3.6416228e-03
  1.2389694e-03
 -4.6973690e-04
 -2.0503774e-02
 -2.8568374e-02
  3.0095699e-01
 -1.3137291e-01
  4.7915912e-01
  3.4099454e-01
 -5.0726220e-02
 -3.4568158e-01
 -2.0819137e-01
  3.8094044e-01
 -8.3046846e-02
 -6.3406094e-03
 -3.4277830e-01
 -9.8483402e-01
  1.1723927e+00
 -1.2606316e+00
  4.2737225e-01
  1.3337423e-01
  7.4958891e-02
 -6.6933066e-01
  5.1974315e-02
 -7.2139508e-01
 -2.0783445e-01
  4.0542203e-01
 -1.4853974e-01
 -7.3376763e-01
 -8.8517696e-01
  6.2410557e-01
 -8.0172390e-01
  3.7615556e-01
  2.5247967e-01
 -8.1118770e-02
  2.6135489e-01
  1.2114832e-02
 -2.0734310e-02
  6.2920427e-01
 -3.0276839e-02
 -8.1455386e-01
 -9.8829859e-01
 -2.8039366e-01
  4.6837375e-01
  9.5977992e-02
 -5.6417920e-03
  9.5291066e-01
 -2.8540507e-01
 -4.5556855e-01
  9.7014373e-03
  4.5242429e-01
  5.5666661e-01
  3.6472243e-01
 -1.5814074e+00
  4.5748642e-01
 -1.9756090e-02
  2.1218735e-01
 -1.1587963e-01
 -9.1016138e-01
 -5.6008410e-02
  1.1232779e+00
  5.4288683e-03
  7.2052699e-01
  1.1310424e+00
 -5.1946038e-01
  2.0018776e-01
 -8.8756490e-01
  5.0519560e-02
  1.1948945e-03
  9.0552568e-02
  1.0741921e-03
 -4.6600837e-01
 -1.2203030e-02
 -1.6624162e-03
  5.9653595e-03
  5.1223185e-02
 -2.5337529e-01
 -7.0976540e-02
 -5.2941758e-03
 -2.7651624e-03
  3.7078196e-03
  4.8248708e-01
  6.0049542e-03
 -8.3377473e-03
 -2.5240377e-02
  3.5266665e-01
 -6.0072100e-01
  1.6757017e-01
 -1.6595875e-01
  1.3538013e-01
  3.7390804e-01
 -1.2167849e-01
  2.1440437e-02
 -1.4543585e+00
 -2.0883216e-02
 -1.5203675e-02
 -1.2942280e-02
  8.7734265e-03
 -1.0810734e-01
  1.0456491e-03
  8.8083722e-02
  2.6220655e-02
 -5.2447978e-02
  3.0457068e-02
 -9.3607474e-03
  1.8121800e-03
  2.1524236e-03
  1.2268894e-05
  4.0260155e-02
 -9.3951911e-01
 -2.9114857e-01
 -3.5842139e-01
 -5.7218975e-01
 -1.1914811e-01
 -2.4514228e-02
  7.2625530e-01
  3.0423142e-02
  5.4138559e-01
 -5.4494504e-02
 -3.4521544e-01
  2.4467468e-02
  8.3892189e-02
 -5.7044350e-02
  6.2392820e-02
 -1.0365847e-02
 -3.7954669e-02
  8.7311752e-02
 -6.8939547e-03
 -1.5470113e-02
 -2.8809207e-02
  1.1620882e-03
  4.2068452e-02
  8.1592845e-03
 -5.6740046e-02
 -2.5789745e-04
 -2.1776082e-03
 -3.0192027e-03
 -1.4521991e-02
  6.0236696e-03
  1.2195148e-02
 -7.0884787e-02
  3.4808138e-01
 -6.4442866e-03
  1.4928998e-03
  2.0863479e-01
 -1.0463130e-01
 -8.7614149e-05
 -3.5306969e-01
 -9.1703674e-03
 -2.4504704e-02
 -1.0198277e-01
  1.6726581e-03
 -2.9857585e-01
  6.2647498e-01
 -6.2501127e-01
 -1.8333524e-01
 -2.2735934e-01
  4.9601115e-02
  9.5026749e-01
  6.2970036e-01
 -6.8564594e-01
  6.6397369e-01
  2.3679651e-01
 -1.0614984e-01
  2.3040280e-01
 -1.1506602e+00
  7.6815069e-01
  1.4554200e+00
 -1.8021077e-01
 -3.3640364e-01
  2.1605346e+00
  2.2902330e-02
 -1.1312734e-01
  1.4817995e-02
  2.9549426e-01
  2.5798220e-02
  2.4364130e-01
  3.3417335e-01
  9.8173487e-01
 -8.6244965e-01
 -1.4909669e+00
 -2.7845305e-01
  6.3636863e-01
 -1.9654305e+00
 -1.1546746e+00
  4.5745417e-01
 -1.7790873e-02
 -1.4552172e+00
  8.8091385e-01
  4.8741332e-01
 -2.3676090e+00
  2.1548808e+00
  5.3175676e-01
 -2.8452598e-02
 -1.0537434e-02
 -1.5235816e-01
 -7.5845227e-02
 -4.9885303e-02
 -1.4254966e-01
 -5.5140907e-01
  1.0775038e-01
  1.0741935e+00
  1.1056961e-01
  5.9124631e-01
 -1.4775627e-02
  4.5329221e-03
 -1.9259959e-04
  8.7806858e-02
  8.2453422e-04
  6.5231216e-03
  6.4075007e-03
 -7.6251882e-03
 -1.5516808e-02
  2.3747676e-03
 -3.3586985e-03
 -2.0151334e-02
  9.8172039e-01
  9.6718660e-03
 -4.2716521e-03
  1.8774142e-02
 -8.6766493e-04
 -8.7897852e-03
  1.6003478e-02
 -8.4560262e-03
 -1.5379182e-01
 -2.3249572e-03
  4.9178682e-02
  8.9620706e-04
  1.0199108e-02
  1.8685555e-02
 -1.6095502e-02
  6.7386045e-03
  1.0045876e-02
  2.9879972e-02
 -2.4329606e-02
  9.3056550e-03
  1.2633448e-02
 -7.7483854e-03
  1.4673412e-02
  1.5715014e-02
  4.8989113e-02
 -3.1902418e-02
 -8.3980858e-03
 -2.5781270e-03
 -2.0964444e-02
  6.8009176e-06
  8.7597575e-03
 -1.8616030e-02
  5.3601835e-02
  7.8472383e-02
 -1.1529191e-06
 -8.7329866e-03
 -3.5222270e-02
  3.1232683e-03
  3.0586218e-02
  6.3336892e-03
  1.0770554e-02
  4.6131792e-03
  2.7340394e-03
  1.9062700e-02
 -1.9708736e-02
  3.2748062e-02
  1.1146610e-03
 -8.5831694e-03
  1.5956014e-02
 -1.7675685e-02
  2.4367442e-02
 -1.0294952e-02
  5.5812909e-03
  6.0780202e-03
 -1.9645760e-02
 -1.5376747e-02
  1.8828858e-03
 -1.6057560e-02
  4.0500900e-03
 -9.8151946e-03
 -5.0534960e-03
  1.1800230e-02
  1.6281247e-02
 -1.0148441e-02
  2.2981530e-02
  6.6532693e-03
 -1.8403495e-02
 -2.2557743e-02
  2.3259132e-03
  1.0201539e-02
 -2.9036084e-03
 -9.6642002e-03
 -1.1562437e-02
 -5.3558134e-02
  7.0315320e-04
 -1.0271484e-02
 -9.7859763e-03
  1.2543441e-03
 -7.6245600e-03
 -2.1470215e-02
 -2.9092422e-03
  1.4611193e-03
 -8.0637773e-03
 -7.8129293e-03
 -1.8356285e-03
 -1.7195420e-02
 -2.1993152e-03
 -1.3528165e-02
  7.3672137e-03
  1.1538814e-02
  2.8053274e-02
  4.9379459e-03
  2.3262159e-03
  2.1582780e-02
  1.2136739e-02
 -9.2709213e-03
 -1.2902603e-02
  8.0669113e-04
  1.1672832e-02
 -1.5813169e-03
  1.2916022e-03
 -1.1757475e-02
 -1.6557434e-01
 -5.6206770e-03
  6.9327224e-03
  7.2662085e-03
 -2.8245621e-03
  5.0635845e-03
 -2.5349702e-03
  1.5800614e-02
  1.5718391e-03
 -3.6412587e-03
  5.5036955e-03
  1.0479392e-02
 -9.0804063e-03
 -4.3376898e-03
 -6.8016713e-03
  2.0401576e-03
  2.6520083e-03
 -3.2939173e-02
 -7.5850724e-03
 -3.7860125e-05
  2.3876303e-03
  8.4226849e-03
  2.0529805e-02
 -8.0773933e-03
 -1.3600214e-02
  1.0211512e-02
  1.4625099e-02
  1.4546035e-02
 -1.3191528e-02
  4.1076952e-01
  4.4833049e-02
 -1.0568445e-02
  3.9680026e-04
  6.1353315e-03
 -4.3600717e-01
  7.8085004e-03
 -9.0359241e-02
  1.9782376e-02
  1.8688502e-02
 -8.4370159e-04
  4.4959188e-01
 -9.7640860e-04
  2.0884430e-02
  4.4674802e-01
  1.5503514e-01
  9.6880996e-01
 -2.9520784e-03
  2.3837705e-01
  2.2909024e-01
 -4.4441932e-01
  1.1306553e-02
 -2.8678340e-01
  4.7090611e-01
 -2.3468694e-01
 -1.2911478e-01
 -2.0987041e-04
  7.3029488e-02
 -4.6376988e-02
  6.5586120e-02
  6.3305438e-02
  5.2149943e-04
 -5.1324796e-02
 -4.3695819e-02
  1.0854790e-01
  2.3411317e-01
 -4.1768007e-02
 -3.2124305e-01
  1.3411310e-01
  7.0890576e-02
 -8.0250487e-02
  2.2537908e-01
 -4.5886062e-02
  1.0716466e-01
  1.2900982e+00
 -4.6236488e-01
 -3.1250444e-01
  8.1750333e-01
 -1.1651486e-01
  1.5603098e-01
 -7.3166591e-01
  1.1654369e-01
 -1.1733810e+00
  6.5845287e-01
  5.9610617e-01
 -4.8965707e-02
 -9.9509172e-03
  5.7049360e+00
 -1.6572019e-01
  1.0386811e-01
 -1.0147553e-01
 -1.0351652e-01
  1.0194430e-01
 -1.0766044e-01
  1.0097787e-01
 -1.0385332e-01
 -1.0962958e-01
  1.0921043e-01
 -1.0936374e-01
  1.0000260e-01
 -1.0003611e-01
  1.0022956e-01
 -1.0002239e-01
 -1.0165438e-01
  1.0002801e-01
 -1.0000886e-01
  1.0090008e-01
  1.0188322e-01
  1.0232445e-01
 -1.9142289e-01
 -1.0749310e+00
  1.0153783e-01
  1.0116675e-01
 -1.2480222e-01
 -8.1465399e-01
  2.0233464e-01
 -2.9676244e-01
 -1.0039283e-01
 -2.8160310e-01
 -1.4742933e-01
  5.2480918e-01
  5.7560420e-01
  1.7763331e+00
  1.0821407e-01
 -1.0113979e-01
 -7.4054289e-01
  1.5664136e-01
 -8.1297779e-01
 -7.2292447e-01
 -3.0899367e-01
  9.2205578e-01
 -1.2435713e+00
 -2.8540692e-01
  1.2880948e-01
 -2.7840889e-01
 -4.1107240e-01
  5.7557452e-01
  1.3784316e+00
  1.3223930e-01
  2.1167478e-01
 -3.5462254e-01
  1.0079994e-01
  5.8395916e-01
 -8.9730275e-01
 -6.3344759e-01
  4.6326089e-01
  4.6462429e-01
 -1.4618706e+00
 -1.3723010e-01
  4.6449217e-01
  1.0014344e-01
 -4.2488432e-01
  3.5708591e-01
  8.7786466e-01
 -1.0850970e-01
  1.0048717e-01
 -1.6233829e-01
  1.0139273e-01
 -2.1631697e-01
 -2.6111323e-01
 -1.0172873e-01
 -1.8807152e-01
  1.7155211e-01
 -1.0090654e-01
  1.9234079e-01
  1.1560944e-01
  1.0054730e-01
 -1.0001590e-01
 -1.0050382e-01
 -1.0321862e-01
  1.1312435e-01
  1.1734097e-01
 -1.0253707e-01
 -2.0068477e-01
  1.0773180e-01
  1.0591505e-01
  1.0724936e-01
  1.0025897e-01
 -3.9905187e-01
 -6.8352258e-01
  1.0460123e-01
  1.0009684e-01
 -1.0007909e-01
  1.0076274e-01
 -1.6653973e-01
  1.0537096e-01
 -1.0430647e-01
  1.0133002e-01
  6.5164161e-01
  1.0608673e-01
 -1.0006294e-01
  1.1121103e-01
 -1.0362433e+00
 -6.9463670e-01
  1.1908253e+00
 -1.6308293e-01
 -5.2426445e-01
 -2.2149569e-01
  4.2433852e-01
  3.7026110e-01
  7.7345312e-01
  2.3214740e-01
  6.7241061e-01
 -4.9333271e-01
  3.4313983e-01
 -6.1532104e-01
  1.0451727e-01
 -8.6267376e-01
  5.0517654e-01
 -2.7683985e-01
  7.5101286e-01
 -6.8082583e-01
 -2.3475936e-01
 -1.2684809e+00
 -7.0455998e-01
  7.2595954e-01
  2.4754295e-01
  7.1546453e-01
  7.0021594e-01
 -1.1252112e-01
 -3.1835890e-01
 -1.0268272e-01
  1.1718426e-01
  1.0034519e-01
 -1.0191831e-01
  1.0752292e-01
 -1.0272526e-01
 -1.0015041e-01
 -1.0006828e-01
 -1.0046915e-01
 -1.0077497e-01
 -1.2214383e-01
 -1.0058759e-01
 -1.6375464e-01
  1.0168404e-01
 -1.0027169e-01
  1.1331506e-01
  1.0002463e-01
 -1.0631712e-01
 -1.0000046e-01
 -1.0495331e-01
 -3.0480388e-01
  1.0968716e-01
  6.0367489e-01
 -8.2159799e-01
 -1.0925564e-01
  6.2095141e-01
 -1.0201110e-01
  1.0006548e-01
 -1.2073162e-01
  4.2674458e-01
  3.8084352e-01
 -1.2416088e-01
  2.5940421e-01
 -1.0062016e-01
 -2.4407455e-01
  1.0212459e-01
 -1.4615446e-01
 -1.0000278e-01
  6.2665689e-01
 -1.6610925e-01
  2.4973029e-01
 -1.3456085e-01
 -3.1309569e-01
 -1.0127938e-01
 -1.5763295e-01
  2.8640839e-01
  1.2829416e+00
  3.2025042e-01
  1.2447555e+00
  1.0066717e-01
  5.2742708e-01
  1.9732618e-01
 -1.0003722e-01
  5.2217519e-01
 -7.9194099e-01
  3.2780316e-01
  5.7972193e-01
 -5.0704175e-01
 -6.7186046e-01
 -1.0592663e+00
 -3.8531369e-01
  6.7202532e-01
 -1.0191908e+00
 -8.7555104e-01
  1.4945462e+00
 -4.1248930e-01
  2.9344204e-01
 -4.5499602e-01
 -4.8303306e-01
  1.1088986e-01
 -2.4767190e-01
 -1.7172843e+00
 -2.7694905e-01
  1.1824105e+00
 -1.0283468e+00
 -1.2805550e+00
  1.5604204e+00
 -2.3882082e-01
 -1.3211146e-01
  1.0575274e+00
  2.4397239e-01
  9.9762082e-01
  1.0065085e-01
  1.2626734e+00
 -1.1582228e+00
  1.1335639e-01
  2.9556978e-01
  9.2865634e-01
  8.9030558e-01
 -7.2628349e-01
  1.0017457e-01
 -4.0507209e-01
 -3.6376247e-01
  1.3754158e+00
 -1.2208326e+00
 -7.7193189e-01
  7.9912037e-01
 -3.9115670e-01
 -1.1310775e+00
  2.2928059e-01
  2.0266974e-01
 -3.5127458e-01
 -3.9154285e-01
 -1.0090456e-01
 -1.0011026e-01
  7.0427233e-01
  5.1466107e-01
  8.5257518e-01
 -1.5424575e+00
  1.1951733e+00
  1.2898656e+00
 -1.9324594e+00
 -1.3823569e-01
  2.6717561e-01
  1.0756142e+00
 -4.2202109e-01
 -1.7025156e-01
  7.3907053e-01
 -2.0778990e+00
  7.3910022e-01
  1.1197976e-01
 -7.8449452e-01
 -1.2669852e+00
 -3.7706736e-01
 -8.5263526e-01
 -1.1289366e+00
  1.3030233e+00
 -6.0341227e-01
  8.6844343e-01
  7.6826996e-01
 -8.0009019e-01
 -4.1824025e-01
  5.1154411e-01
 -5.2846855e-01
 -5.0771219e-01
  5.3291005e-01
 -1.0067825e-01
  1.0653446e-01
  1.2336498e+00
  1.4431912e-01
 -1.0374666e-01
  4.0960097e-01
 -2.4010688e-01
 -1.0000463e-01
 -1.0003996e-01
  1.8342713e-01
  1.5809377e+00
  2.9910815e-01
  1.0000525e-01
 -6.5068477e-01
 -3.5690403e-01
 -7.7428490e-01
 -1.0013524e-01
 -2.1193171e+00
 -1.2792311e+00
 -1.6582176e-01
  8.3798671e-01
  2.6006608e-03
  2.6006608e-03
  2.6006608e-03
  2.6006608e-03
  2.6006608e-03
  2.6006608e-03
  2.6006608e-03
  2.6006608e-03
  2.6006608e-03
  2.6006608e-03
  2.6006608e-03
  2.6006608e-03
  2.6006608e-03
  3.8411114e-01
  3.8411114e-01
  3.8411114e-01
  3.8411114e-01
  3.8411114e-01
  3.8411114e-01
  3.8411114e-01
  3.8411114e-01
  3.8411114e-01
  3.8411114e-01
  3.8411114e-01
  1.3797166e-02
  1.3797166e-02
  1.3797166e-02
  1.3797166e-02
  1.3797166e-02
  1.3797166e-02
  1.3797166e-02
  1.3797166e-02
  1.3797166e-02
  1.3797166e-02
  1.3797166e-02
  4.5933060e-02
  4.5933060e-02
  4.5933060e-02
  4.5933060e-02
  4.5933060e-02
  4.5933060e-02
  4.5933060e-02
  4.5933060e-02
  4.5933060e-02
  4.5933060e-02
  4.5933060e-02
  1.0000877e-02
  1.0000877e-02
  1.0000877e-02
  1.0000877e-02
  1.0000877e-02
  1.0000877e-02
  1.0000877e-02
  1.0000877e-02
  1.0000877e-02
  1.0000877e-02
  1.0000877e-02
  6.6600130e-03
  6.6600130e-03
  6.6600130e-03
  6.6600130e-03
  6.6600130e-03
  6.6600130e-03
  6.6600130e-03
  6.6600130e-03
  6.6600130e-03
  6.6600130e-03
  6.6600130e-03
