nep4 3 B C N 
cutoff 8 4 414 46
n_max 12 10
basis_size 12 10
l_max 4 2 0
ANN 80 0
 -1.6223134e-01
  1.6075417e+00
  4.8048010e-01
  8.2641535e-02
 -3.3098435e-01
 -2.5481250e+00
 -1.0794119e+00
 -1.3525088e+00
  1.0090671e+00
 -5.5179727e-01
  6.5874738e-01
 -2.7262995e-01
 -9.4754004e-01
 -1.1183560e+00
  2.6806355e-01
 -4.2271557e+00
  7.9651475e-02
  8.5116887e-01
 -5.0343871e-01
  1.5957333e+00
  1.9248281e-01
 -1.1734072e+00
 -9.9929804e-01
  4.4801824e-02
 -3.9642113e-01
 -1.0893615e+00
 -1.7529162e+00
  4.4338912e-01
  8.8985455e-01
  5.8250874e-01
 -7.6235133e-01
 -1.0373284e+00
 -1.3664421e+00
  2.6365259e+00
 -3.1841332e-01
 -2.8488928e-01
 -1.8779540e+00
  1.0265349e+00
  4.1813260e-01
  3.4732908e-01
 -9.3757987e-01
 -4.3643910e-01
 -1.0851272e+00
  1.1687150e+00
 -4.8449457e-01
 -1.9387937e-01
  8.5979456e-01
  1.4234358e-01
 -4.7510457e-01
  2.1544278e-01
 -9.2154425e-01
 -2.8037078e+00
 -1.0163954e+00
 -6.4351149e+00
 -8.7916529e-01
 -2.3656152e-03
  1.2380271e-01
 -5.9268886e-01
 -6.1279319e-02
 -1.0907536e+00
 -9.1235407e-02
 -4.9953797e-01
 -2.3549981e+00
  2.2564603e-01
  1.7050389e+00
 -9.7987682e-02
 -1.6229376e-01
  5.1290464e-01
  3.9349464e-01
  3.7017450e-01
 -1.2513398e+00
 -9.4784349e-01
 -1.0768409e+00
  1.8222610e+00
 -2.9935998e-01
 -2.4400016e-02
 -1.0857642e+00
 -1.1940666e+00
 -5.7955064e-02
 -1.0389646e-01
  1.4881301e+00
  1.3405551e-01
 -9.9385357e-01
 -1.1847996e+00
 -6.8753976e-01
  1.4124629e+00
  1.7297819e+00
 -1.6288139e+00
  7.9761857e-01
 -1.8536142e-01
 -7.1563733e-01
 -9.2239583e-01
  3.2499403e-02
 -1.1673361e+00
  2.6166094e-02
  9.2079192e-01
 -2.2418802e+00
 -6.6943252e-01
 -2.9660100e-01
 -1.0811107e+00
 -3.5534978e-01
 -3.7759918e-01
  1.1633414e+00
  1.2764011e-01
  2.7416736e-02
 -3.7246698e-01
 -1.2067481e+00
  2.2844975e+00
 -8.4081274e-01
  9.3250847e-01
 -1.3165739e+00
 -2.6359168e-01
 -7.3655289e-01
  1.1179335e-01
 -2.4538809e-02
  1.7310068e-01
  2.8174311e-01
 -3.0977508e-01
  5.9211558e-01
 -1.1982289e-01
  7.6359969e-01
  1.1713742e+00
 -5.5050541e-02
 -1.2140280e+00
  5.0918335e-01
  9.4231087e-01
 -4.8870936e-01
  1.1113428e+00
 -1.2562922e+00
 -4.1396135e-01
 -1.0450742e+00
  8.3453912e-01
  1.7807459e+00
  4.5324150e-02
 -8.1603771e-01
 -6.0988718e-01
 -1.4771409e-01
 -4.9175143e-01
  3.7838408e-01
  5.0760937e-01
 -3.4668081e-02
 -8.0030912e-01
 -1.9258603e-01
  3.7327859e+00
  4.8342543e-03
  4.0982294e-01
  3.9829895e-01
 -2.8797102e-01
  2.6344395e-01
 -1.0429288e-01
 -5.3900871e-02
  5.4570961e-01
 -9.8233148e-02
 -1.2773212e+00
  2.6601108e-02
 -2.1798146e+00
 -2.1341283e+00
 -9.8780781e-01
 -1.3063896e+00
  5.4571295e-01
  3.5932000e+00
  2.9120320e-01
  5.7307184e-01
  6.0857441e-02
  3.7126116e-02
 -4.3177998e-01
  2.3575062e-02
 -5.5498040e-01
  6.6429466e-02
 -3.4689122e-01
  1.0285684e-01
 -7.1313083e-01
  7.5369775e-02
 -3.9314699e+00
 -9.6856028e-01
  2.3097394e-01
  3.2755965e-01
 -5.9988983e-02
  4.2933993e-02
 -1.4172022e+00
  1.0733332e-01
 -9.0315717e-01
  4.3158866e-02
 -5.6682371e-02
  4.9561077e-01
 -1.7743070e-01
 -2.0290081e-01
 -7.9637744e-02
 -1.3165309e-01
  2.6783121e+00
 -3.3516061e-01
 -8.9267778e-01
  1.0670471e+00
 -6.5811187e-02
  4.7930604e-01
  8.0565631e-01
 -1.0931451e+00
 -1.5368392e-01
 -3.4464175e-01
 -4.3965483e-01
  9.4988781e-01
  1.7582169e-01
 -4.6351567e-01
 -2.8133209e+00
 -3.1133386e-01
 -4.4619718e+00
  2.2912788e+00
 -1.2900408e-01
 -1.7432063e+00
  7.8022838e-01
  2.8746769e-01
 -1.9327315e+00
  1.8812087e-01
 -8.8225669e-01
  8.4433323e-01
 -3.5751790e-01
 -2.9902115e-01
  5.1937348e-01
  4.0229127e-01
  1.4359437e-02
 -2.9749617e-01
 -3.0112541e-01
 -3.1744722e-01
 -6.7455824e-03
  2.0971920e-01
  3.9895901e-01
 -1.3946877e+00
  1.8207872e-01
 -1.6130891e-01
 -1.3812551e-01
 -1.1209463e+00
  1.0230991e+00
 -2.1199422e+00
 -2.3887050e-01
 -1.9441786e+00
  6.7477977e-01
  1.9082085e+00
 -1.2966835e+00
  1.0234401e+00
 -1.9961576e+00
 -2.0389907e-01
 -2.3675203e+00
  1.4588376e+00
  1.1994456e+00
  9.6533972e-01
  4.8736610e-02
  8.3848315e-01
 -1.1088595e-01
  8.4305340e-01
  3.8793162e-01
  6.6307336e-01
  3.2348089e-02
  5.7738084e-01
  1.4519210e-01
 -2.7908790e-01
 -1.7350772e-01
  1.7434354e+00
 -2.0998575e-01
  9.7558284e-01
 -1.6055799e+00
 -4.8055845e-01
 -8.0256557e-01
  1.3892027e+00
  2.6495007e-01
  7.4010652e-01
  4.8881242e-01
  8.8093567e-01
  4.6332833e-01
 -1.8876393e+00
 -1.0237111e+00
  5.3426492e-01
  1.1426098e+00
  4.9848983e-01
  1.0091995e+00
 -2.4784654e-01
  9.6483958e-01
  6.4503402e-01
 -6.6551328e-01
  9.9109489e-01
  1.5868019e+00
  1.1283141e+00
  2.5124720e-01
 -3.6993157e-02
  1.5428536e-01
  4.0816563e-01
 -5.8040679e-02
 -9.5116697e-02
  1.7841225e+00
 -5.2118772e-01
  1.7000245e-01
  1.1398011e+00
  2.4026659e+00
  4.6181342e-01
 -2.5405595e+00
 -1.3614552e+00
  1.6063967e+00
  1.7574853e+00
  6.2860143e-01
 -2.1760644e-01
  3.2361743e-01
  3.9003363e-01
  1.4498012e+00
  3.3270842e-01
  4.2889819e-01
  9.4637997e-02
  1.7987399e-01
  4.0155816e+00
  7.6216239e-01
 -1.3082331e+00
  1.1064109e+00
  2.7310857e-01
  2.0663009e+00
 -9.9250495e-02
  1.9390010e+00
 -5.3966789e+00
  3.2381713e-01
 -4.5758498e-01
 -2.7494283e+00
  1.8407144e-01
 -9.0788931e-01
 -3.8526136e-01
 -3.9298400e-01
  1.6424829e+00
 -4.0368590e+00
  1.2795498e+00
  4.0630633e-01
 -7.4981131e-02
  7.6054418e-01
 -1.1167060e+00
 -1.3128558e+00
  6.3169199e-01
 -6.0832149e-01
 -2.6105857e+00
 -1.0075805e-01
  1.4843715e+00
  9.4922411e-01
 -1.8945439e-01
 -2.9310303e+00
  2.0935319e-01
 -2.4333736e-01
 -4.0001316e+00
  2.3311727e-01
 -1.1918264e-02
  1.1873460e+00
  4.1063154e-01
  4.3559483e-01
  2.0553719e-01
 -1.3265314e+00
  2.0367885e-01
 -8.1668955e-01
  3.8077855e-01
  1.9579725e+00
  9.7335863e-01
  7.1541476e-01
 -9.9556166e-01
  6.6931427e-01
 -9.8315275e-01
  1.2234941e+00
  4.4647002e-01
 -7.3407048e-01
 -3.7849233e-01
 -2.0723408e-01
  1.7469095e+00
 -4.8854333e-01
 -4.0576506e+00
  8.1288630e-01
 -4.7364789e-01
  3.6478283e+00
  5.7170302e-01
 -4.9997783e-01
  3.9307141e-01
 -4.8937898e-02
  3.0094552e-01
  5.3562135e-02
 -3.7536595e+00
 -7.4794835e-01
 -7.2575623e-01
  3.8913536e-01
  3.8921022e-01
  1.3487512e-01
  1.6694807e+00
  1.7233147e-01
  6.1431307e-02
  9.4846934e-01
 -8.9702979e-02
 -9.0990049e-01
  2.6013199e-02
  7.8075755e-01
  2.2438633e+00
 -5.1287842e-01
  2.5152856e-02
  1.1890385e-01
 -8.8203877e-01
  2.1636198e+00
 -3.1373448e+00
 -2.8682414e-01
  7.0367831e-01
 -3.5116434e-01
  4.6169452e-02
  6.3562679e-01
 -7.0249814e-01
 -1.2996787e-01
 -3.0547371e+00
 -3.4157889e+00
  8.5445750e-01
 -4.5216426e-01
 -1.6126122e+00
  1.8135501e-01
  3.0387229e-01
 -1.2838330e+00
 -1.9372055e-01
  4.0612858e-02
  8.8358849e-02
  1.3953093e+00
 -2.4502966e-01
 -2.9747221e-01
  5.7818890e-01
 -5.8422732e-01
 -6.6420066e-01
  4.1611844e-01
  7.7581292e-01
  5.8011329e-01
  2.2742355e+00
  8.3041549e-01
 -7.4502879e-01
 -1.3618734e+00
 -2.3113123e-01
 -1.0917625e-02
 -2.6953719e+00
  7.4850583e-01
  1.7678685e-01
  5.7780510e-01
  3.4308326e-01
 -1.1776958e-01
  9.6324337e-01
  2.6593704e+00
  2.6834133e-01
  1.0547096e+00
  7.3745936e-01
  2.1087371e-01
  1.1007918e+00
  5.7671422e-01
 -3.0579317e-01
 -3.0679398e+00
  2.0659690e-01
 -1.9226115e+00
  9.8217976e-01
 -5.8714294e-01
 -2.2160926e+00
 -5.0865918e-01
 -4.5454493e+00
  8.3281505e-01
 -4.6868596e+00
  1.0801446e+00
 -7.6845139e-02
  1.3652679e+00
  3.6558068e-01
  2.1440275e+00
  5.9954208e-01
 -1.1572602e+00
 -3.2683921e-01
 -4.5105767e-01
  8.4961915e-01
  6.4967942e-01
 -7.0941038e-02
 -1.8893589e+00
 -1.0244346e+00
 -1.2141445e+00
  3.3493921e-01
  6.6088879e-01
 -5.9347719e-01
  9.1737521e-01
  2.6578432e-01
  8.3300930e-01
  1.5649929e+00
 -6.4312533e-02
  2.3841651e-01
  1.1715320e+00
 -2.5871181e-01
  6.3606071e-01
  4.1233197e-01
  1.7716502e-01
  2.7382758e-01
  1.4922456e-01
  4.3081504e-01
  3.8330820e-01
  8.0905937e-02
 -2.6106107e-01
 -9.3126798e-01
  2.9234776e-01
  6.1333287e-01
  3.8273680e-01
 -8.9043498e-01
 -5.1969397e-01
  1.1688763e-02
 -1.8563598e-01
 -1.0526943e+00
  2.3432844e+00
  1.3781145e+00
 -1.2598197e+00
 -2.1782167e-01
 -1.4868140e-01
 -1.0311605e+00
 -3.8366053e-02
 -2.3907436e-01
 -2.1807820e-01
 -2.8231961e-01
  8.0309069e-01
  6.8712726e-02
  7.7011399e-02
  4.4377154e-01
 -2.5383530e+00
  2.0302130e-01
 -1.5630779e+00
 -6.5222901e-01
  1.3789161e-01
 -4.4192004e-01
  1.2783434e+00
  1.3245040e-01
 -6.4903986e-01
  4.0751863e+00
 -3.7782139e-01
  2.8140898e+00
 -7.3600359e-02
  4.9645644e-01
  7.7705228e-01
 -3.0079424e-01
  1.6733841e+00
 -8.4143573e-01
  9.3804049e-01
  1.1189805e+00
 -1.5482628e+00
  3.1816638e-01
  2.2204256e-01
 -7.2366035e-01
  8.7336642e-01
  1.1029571e+00
  3.5337949e-01
 -1.1538112e+00
  1.8828669e-01
  1.9363728e+00
 -1.6198149e+00
 -2.9852572e-01
 -4.9411401e-01
  7.0257103e-01
 -2.8333333e+00
 -1.2529992e+00
  5.4504257e-01
 -1.7727247e-01
 -1.0396209e-01
 -2.2598518e-01
 -2.4741867e-01
 -1.6429920e-01
 -2.8408095e-01
 -7.6887202e-01
 -1.1747744e+00
  3.6829299e-01
 -5.2928102e-01
 -4.9126834e-01
  2.6636624e+00
 -1.8431922e+00
  7.1190619e-01
 -5.5937183e-01
 -9.9109858e-01
 -1.0236359e-01
 -1.7602831e-01
 -3.7583303e-01
  2.3121156e-01
 -4.0645590e-01
 -2.3470461e-01
  1.6205484e-01
 -2.3241993e-02
 -4.7527242e-01
 -2.8774649e-01
  8.1491280e-01
  1.2933598e+00
 -9.7443271e-01
 -3.5490665e-01
  1.3216053e+00
  2.3084683e+00
  4.5642209e+00
 -4.0341178e-01
 -1.4125806e-02
 -1.0123662e+00
  4.6824157e-01
  2.5899687e-01
 -4.0874463e-01
 -1.7409997e-01
  2.0768523e-01
 -5.7348361e+00
 -4.4291716e-02
 -1.7296806e-01
  3.7359712e-01
  4.4178307e-02
  4.2337975e-01
  2.3754349e+00
  4.0446523e-01
 -5.9921175e-01
  4.4284187e-02
  8.2384878e-01
  3.2269752e-01
  1.6748338e+00
 -8.8882869e-01
 -1.5249456e-01
  1.3850194e+00
  1.9392346e+00
 -1.0233917e+00
 -2.1061977e-02
 -5.2239936e-02
 -1.6597220e+00
 -1.4184142e+00
 -8.0455965e-01
  8.0699527e-01
 -1.1953946e+00
 -6.4088947e-01
 -7.0301437e-01
  4.9444479e-01
  5.2119368e-01
  8.6516696e-01
 -1.0786022e-02
  3.1362295e-01
 -2.3297834e-01
  9.6174890e-01
  1.4793556e-02
  1.6696165e+00
 -1.3975174e+00
 -5.0467271e-01
  2.6092818e-01
  6.6952050e-01
 -1.1579023e-01
  7.7625239e-01
 -6.3495708e-01
 -2.3441675e-01
 -2.7953461e-04
 -1.0227958e+00
 -2.8489167e-02
  1.9599395e+00
 -6.1936803e-02
 -2.1236080e-01
 -9.5724809e-01
  1.4538664e+00
 -1.5542820e-01
 -9.0395880e-01
  1.7060701e+00
 -7.7894670e-01
 -9.0569198e-02
 -1.9498977e-01
 -2.7100861e-01
 -2.5938642e+00
  1.1562046e-01
 -1.9474065e+00
 -5.2368510e-01
  1.1968008e+00
 -9.8971879e-01
  2.6551205e-01
 -7.7708453e-02
  1.1388586e+00
 -8.1200010e-01
 -2.7676024e+00
  6.1276042e-01
  3.9784350e-02
  6.1834770e-01
  8.1489635e-01
 -1.6943847e+00
  2.4021692e+00
  7.6921874e-01
  1.5497670e+00
 -1.7543709e-02
  1.1796045e+00
  7.8667301e-01
  4.3013263e-01
 -1.1993928e+00
 -2.6882100e-01
 -1.4047772e-03
  2.2822189e-01
 -3.4247378e-01
 -4.3300532e-02
  1.4525414e+00
 -5.8375442e-01
  1.8638813e+00
 -8.7377441e-01
  7.1736026e-01
 -2.4752879e+00
 -5.2365845e-01
  1.0933387e+00
 -1.7007779e-01
 -4.8219040e-01
 -3.2697666e-02
 -8.5765326e-01
  3.0371934e-01
  8.3422744e-01
  4.1147435e-01
 -6.5943736e-01
  4.3393168e-01
  6.1604941e-01
  8.4417081e-01
  2.3302670e+00
  2.4642038e-01
 -8.1464213e-01
  9.7179425e-01
 -1.7662301e+00
  1.3876860e+00
  2.7533716e-01
 -4.6931207e-05
 -6.2259823e-01
 -2.5372973e-01
  1.7124717e-03
  4.4857714e-01
 -8.0910093e-01
 -9.3816233e-01
 -8.4167588e-01
 -3.7602761e-01
 -7.3144966e-01
  4.0133935e-01
  9.1388988e-01
 -5.2061653e-01
  2.7601414e+00
  1.0518522e+00
 -7.6199955e-01
 -1.8999614e-01
 -3.4970742e-01
  2.8360257e-01
 -3.9055184e-01
 -2.4577794e+00
 -8.5675168e-01
  8.0352479e-01
  9.0557599e-01
  2.9201903e+00
 -8.7645775e-01
 -1.8714470e+00
 -1.1729052e+00
 -5.3448707e-01
 -6.3035065e-01
 -2.8527123e-01
 -5.7572615e-01
 -7.2934145e-01
  5.1367468e-01
 -7.1015203e-01
  1.9998723e-01
  1.6488683e-01
  3.3167696e+00
 -1.6642177e-01
  1.7547309e-01
 -6.3827097e-02
  1.2959813e+00
 -1.8965231e-01
  6.3671150e+00
 -1.0893414e+00
 -5.3540474e-01
 -2.0813808e+00
  9.9937499e-01
 -6.0983336e-01
 -1.5965100e-01
  2.9693511e-01
  1.9498879e-01
 -1.0938581e+00
 -1.2720571e+00
  1.9590278e+00
  3.3104244e-01
  1.3436000e+00
  7.9611737e-01
  1.6754405e+00
  4.9665874e-01
 -7.6768182e-02
 -1.5594854e+00
 -4.8914236e-01
 -3.2964754e+00
 -3.5208330e-01
  3.4444410e-02
 -9.3427169e-01
  1.6090834e+00
  1.1680069e+00
 -1.3116723e-01
 -2.7685398e-01
  8.7376291e-01
 -9.5729506e-01
 -1.9154438e-01
 -2.1105674e-01
 -4.2245331e-01
  1.0459570e+00
  7.6497167e-01
 -1.0407859e+00
  3.7700412e-01
  1.0251650e+00
 -1.1535897e-01
  1.9186707e+00
  2.0491381e-01
  5.6966215e-01
 -2.3729789e-01
 -5.6276774e-01
  3.7514663e-01
  9.9605568e-02
  2.9835525e-01
  8.2537913e-01
 -9.5229530e-01
 -3.4918261e+00
 -5.2952111e-01
  1.1780927e+00
 -1.4268203e+00
 -1.5539965e-01
  1.4128889e+00
 -3.6477613e-01
  4.5459233e-02
 -1.6487987e+00
  2.0229784e-01
 -5.6183159e-01
  1.7157928e+00
 -7.2013903e-01
  6.2099481e-01
 -7.1202004e-01
  3.2642096e-01
  3.8466918e+00
 -2.5605779e-02
  3.0432851e+00
 -2.2701815e-01
 -2.4347198e+00
 -1.6900554e+00
 -8.0385500e-01
 -1.6381355e-01
 -6.8002826e-01
 -1.1553465e+00
  1.9721472e+00
  1.9964153e+00
 -1.5866036e+00
  8.0462819e-01
  1.4584775e+00
  9.4813776e-01
 -2.6551193e-01
 -1.2479159e-03
  2.0135081e+00
  1.6375359e+00
  5.5440950e-01
 -2.0111173e-02
  1.9583441e+00
 -5.2912486e-01
 -1.9938464e+00
 -1.3859179e+00
 -2.5853789e+00
 -8.1231636e-01
  1.3950583e+00
 -1.1697228e+00
 -3.0556840e-01
 -1.1838658e+00
 -7.5324601e-01
  1.6361607e+00
 -1.1505473e+00
  2.0165474e+00
  1.1623955e+00
 -1.1900485e+00
 -5.2671999e-01
  2.4819751e+00
  4.8119268e-01
 -2.5623024e+00
  1.3899021e-01
 -5.6812155e-01
 -1.7919077e+00
 -1.2426107e+00
  2.1177724e-01
 -9.1617532e-02
  5.4852724e-01
  5.0769007e-01
  9.5475054e-01
 -1.9397351e-01
 -2.3036644e-01
 -1.0624305e+00
 -1.5123702e+00
  6.7753166e-01
  1.6033808e+00
 -1.9999555e+00
 -1.9661074e+00
  3.2941201e-01
 -4.3931419e-01
 -4.0408807e+00
 -1.1664834e-01
  1.8298460e+00
 -3.8460150e-01
  1.1167216e+00
 -1.6429384e+00
 -1.1251725e+00
  7.7706730e-01
 -1.8791716e+00
  3.5373363e+00
 -2.0723203e-01
 -2.7963715e+00
 -9.5818430e-01
  1.0494624e+00
 -6.2131661e-01
 -1.3343929e+00
 -3.7344801e-01
  5.8178649e+00
  1.3231963e-02
  2.7213531e+00
 -1.4268082e-01
  2.5101614e-01
  5.9578192e-01
  1.0880640e+00
 -2.0556612e-01
  1.3703878e+00
 -1.9585810e+00
 -1.0252903e-01
  2.3286235e-01
 -8.2086787e-02
  8.3221537e-01
 -2.5011122e+00
 -1.1064303e+00
 -1.1658859e+00
 -1.9605562e-01
  1.8464747e-01
 -6.5727466e-01
 -9.4682820e-02
 -2.1806800e+00
  1.8824290e+00
  3.1153083e-01
  5.4046440e-01
 -2.2786114e+00
  4.5163384e-01
 -2.2716725e+00
  2.0893683e+00
  2.6336560e-01
  1.2212747e-01
  5.6640702e-01
 -7.9317218e-01
 -1.4021834e+00
 -3.0341470e-01
 -6.3461739e-01
  2.6608852e-01
  5.5384421e-01
 -1.1675955e-01
  3.4604595e+00
 -1.3128837e+00
 -2.9935572e-01
  7.1575135e-02
 -6.0352314e-01
  2.4475028e-01
  1.0173853e-01
 -2.5749281e-01
 -2.7180296e-01
 -1.2355340e-02
 -3.1837377e-01
  7.4290979e-01
  2.1051157e+00
  1.4003184e+00
 -1.4259063e+00
  3.0220401e-01
 -1.3254766e+00
  5.5465645e-01
 -2.3471344e-02
  6.0576206e-01
  2.1379843e+00
 -3.4833714e-02
 -8.4066343e-01
  2.6338908e-01
 -2.0210171e+00
 -4.3157908e-01
  3.4425123e+00
 -6.7301333e-01
  7.3831761e-01
 -4.0696897e-02
 -8.5293072e-01
 -5.3943612e-02
  2.6130527e-01
 -2.4052474e+00
  6.1111087e-01
 -1.4636286e+00
  1.0706143e+00
  1.6009649e+00
 -3.3339697e-01
  3.2233534e+00
  8.9262933e-02
  8.9898908e-01
 -1.2779922e-02
  1.4024284e-01
  7.7531976e-01
 -1.0365155e+00
 -1.8894377e-01
 -4.1305512e-02
 -7.7411950e-01
  7.8145677e-01
  8.6890829e-01
 -7.9983962e-01
 -1.5326899e+00
  2.6790565e-01
  2.3829260e+00
  1.3654163e+00
  5.7482481e-01
 -1.4695740e+00
  5.3556484e-01
 -5.6216985e-01
 -5.8030391e-01
  1.4374931e-01
  6.6772771e-01
 -4.5219326e-01
 -2.2201784e-01
  3.4735182e-01
  3.1357404e-02
  6.5774840e-01
  9.9321556e-01
 -9.0373427e-02
 -1.0305996e-01
  1.2977195e+00
  1.2972385e+00
 -7.7246380e-01
 -5.2157795e-01
  1.2464581e+00
 -3.5242414e-01
  3.5718496e+00
 -1.0870525e+00
 -5.1150519e-01
  4.7875082e-01
  5.5842370e-01
 -4.0168154e-01
 -5.1175791e-01
 -6.2964761e-01
 -2.2465711e+00
  2.6445177e-01
 -3.9565250e-01
  2.0906098e-01
  7.5206943e-03
  5.7812661e-01
  2.3588049e+00
  2.3011170e-01
 -6.6533583e-01
  9.2570609e-01
  5.7674557e-02
 -6.9156981e-01
 -5.6794548e+00
 -1.6167910e-01
  4.9975342e-01
  1.0173485e+00
  1.0665734e-01
 -9.4543540e-01
  2.1913286e-01
 -1.6103959e-01
  2.1714199e-02
  2.2288167e+00
 -1.4813091e-01
  1.6926539e-01
 -9.0530294e-01
  2.1852842e-01
 -5.1032257e-01
  1.6693124e-01
 -8.1761695e-02
  6.0419869e-01
 -1.6688213e+00
  1.7420362e+00
 -1.3949105e+00
 -2.7798319e-01
 -4.9156955e-01
 -1.1067061e-01
 -2.9969351e+00
 -2.1082482e-01
 -4.9316767e-01
 -1.4059876e+00
  6.3814086e-01
 -5.8218205e-01
 -1.6689949e-01
  4.6931577e-01
  3.3983934e-01
 -1.2461645e-01
 -3.9272830e-01
 -1.0530620e+00
  2.0361617e-02
  1.7065737e+00
 -2.8035691e-01
 -9.0083247e-01
  2.2926135e+00
  3.8648504e-01
 -1.5552816e+00
 -3.5690916e-01
 -7.1225381e-01
 -6.0580581e-01
 -2.7782035e+00
  2.4600796e-01
  4.4404495e-01
 -5.0289512e-01
 -2.2247159e+00
  1.3175309e-01
  1.4953431e+00
  1.9697720e+00
 -1.4452844e+00
  6.7363691e-01
 -1.0397530e-01
 -4.7963524e-01
  1.1897084e+00
  4.4272745e-01
  7.6645923e-01
 -6.4815950e-01
 -5.4177731e-01
  1.2273761e+00
 -3.4600794e-01
  9.2986703e-01
  1.4559388e+00
  1.7839077e-01
  8.4352654e-01
 -2.5513786e-01
 -1.0311284e+00
 -2.8128773e-01
  2.5486699e-01
  1.7163857e+00
  3.9093742e-01
 -1.0418881e+00
  5.8228236e-01
 -1.7154914e+00
 -7.7062070e-02
 -1.2896103e-01
 -9.0123832e-01
  2.6582736e-01
  5.3387904e-01
  2.3631752e-01
  9.9190891e-01
  1.6915158e+00
 -1.3469025e-02
 -5.3009290e-01
 -1.2130976e+00
  2.8114170e-01
 -5.0459278e-01
 -2.7430053e+00
 -2.6563146e+00
 -2.7947764e+00
 -1.3931109e+00
  8.9058077e-01
 -7.9409398e-02
  5.6319445e-01
  5.0731575e-01
 -4.7917083e-01
 -2.0616596e+00
 -5.1867552e+00
  2.5539501e+00
  4.1801366e-01
 -6.5399539e-01
 -1.2256477e-01
 -1.8228532e+00
 -5.8541438e-03
 -5.1950884e+00
  1.4015982e+00
 -4.5501393e-01
 -4.5570165e-01
  4.3601015e-01
 -3.5278913e-01
  1.0127184e+00
  6.2902492e-01
  4.1929510e-01
 -1.8380909e-01
  8.3877110e-01
  3.0560613e-02
  4.5495656e-01
  4.1045552e-01
  4.9376360e-01
 -7.7891338e-01
  3.2005689e-01
 -6.5473050e-02
  2.2350372e-01
 -1.6366930e-01
  1.5801993e-01
 -2.7213957e+00
 -5.0018132e-02
 -2.0820372e+00
  4.2018127e-01
  7.6232731e-01
  1.5470934e+00
  1.1550943e+00
 -7.6662570e-01
 -3.1903510e+00
 -1.6633149e+00
  4.8166648e-01
  2.2304513e-01
 -1.6325940e-01
 -1.3182606e-01
 -2.7842135e+00
 -9.8957384e-01
  9.8916072e-01
 -3.8862474e-02
  2.0817387e-01
 -2.5127726e+00
  5.1620282e-02
 -6.0295653e-01
 -5.3528821e-01
  4.7366685e-01
  1.2300085e+00
  1.9642049e+00
 -1.5824813e-01
  1.4892492e+00
 -1.3438199e+00
 -8.0161893e-01
 -8.1299984e-01
 -1.7009555e-01
  4.0736561e+00
 -1.4068214e+00
 -1.1795567e+00
  2.9728290e-01
 -1.5354893e+00
 -1.3431664e+00
 -9.3557453e-01
 -7.8356296e-01
  4.4926096e-02
 -2.3204647e-01
 -6.7591441e-01
  7.9775763e-01
 -3.3943048e-01
 -5.6186634e-01
  4.3957445e-01
  2.0176050e-01
  1.4447851e-01
  1.7196618e+00
 -1.1728938e+00
 -7.9621959e-01
  1.4926381e-01
 -2.6934767e-01
  4.0193796e-01
 -1.8289312e+00
  2.7310812e-01
 -2.3089068e-01
  6.6014498e-01
 -1.3825175e-01
 -6.0754474e-03
  1.3969963e+00
 -8.0091888e-01
  9.3419021e-01
  1.6675718e+00
 -1.9710730e+00
  1.5701799e+00
 -2.3198144e-01
 -4.6949396e+00
  1.2095058e-01
 -7.0099837e-01
  5.6116384e-01
 -2.2860888e-01
 -7.6948121e-02
 -6.0773325e-01
 -8.1257707e-01
 -5.9714895e-01
 -6.4277005e-01
 -3.1306100e+00
  3.8816270e-01
  5.7766587e-01
 -1.2017714e+00
 -4.7356143e+00
  7.4088000e-02
 -6.5991747e-01
  3.2364140e+00
 -1.0118717e+00
 -1.0640248e+00
  3.3072251e-01
 -1.0970958e+00
  5.0311214e-01
  2.7366465e-01
 -3.6848575e-02
  1.2132720e+00
 -1.0377884e+00
  4.3174610e-02
  3.4488100e-01
  3.9183950e-01
 -3.0280873e-01
 -3.8854071e-01
 -7.1320832e-02
 -4.7882593e-01
  8.2359809e-01
  6.3044168e-02
 -2.0294321e+00
 -1.3784782e+00
 -2.5092673e-01
  1.9462641e+00
 -4.8949361e-01
  1.4771582e-01
 -7.8485620e-01
  5.2908272e-01
  1.9124708e-01
  1.2205837e+00
 -4.7731373e-01
 -2.5379044e-01
 -7.2259301e-01
 -1.1513728e-01
  8.0291137e-02
 -1.7727561e+00
 -1.4176061e+00
  4.8341787e-01
 -2.6863604e+00
  1.9563895e-01
 -9.6430313e-03
 -8.4058660e-01
 -1.5681571e-01
  1.0317624e+00
 -1.3373290e+00
  1.1461362e+00
 -2.2741112e-01
 -1.0886062e-01
  1.1057281e+00
 -1.1696180e+00
  6.7068845e-01
  1.3476016e-01
  1.4336764e+00
  1.1416104e+00
  6.2871024e-02
 -1.3476324e+00
 -1.2428660e+00
  1.2134807e+00
  1.7574304e+00
  2.8155529e-01
  3.4304816e-01
  1.4517175e+00
 -1.6173688e+00
 -1.3328099e+00
  1.0955480e+00
  3.0146483e-01
  2.9991469e+00
 -1.3646166e-02
  1.2309672e+00
 -2.8628099e-01
  2.3640050e-01
 -1.4625141e-01
  6.0195720e-01
  2.0136225e+00
  1.0326556e+00
  2.8505975e-01
 -3.5564858e-01
 -1.4870316e-01
  8.7316617e-02
  1.2561170e+00
  1.1158327e+00
 -8.8594633e-01
 -4.7845718e-01
 -2.7986255e-01
 -3.5647649e-01
 -1.4029722e-01
  1.8099888e-01
  6.3313520e-01
  2.4461448e-03
 -3.1101871e-01
 -6.0036253e-02
  3.0483661e+00
  1.1525713e+00
  2.6044530e-01
 -1.2751046e-01
 -6.3148129e-01
 -2.0852013e+00
  1.1136277e+00
 -2.3530070e-02
  1.7776117e+00
  1.1448574e+00
  1.1583943e+00
 -5.9808239e-02
 -1.6040976e+00
 -1.4665642e-01
  1.1762221e-01
  1.8995141e+00
 -4.3717120e-02
 -6.8752718e-01
 -8.2547113e-02
  1.6603347e+00
 -2.4577899e-01
 -1.0053135e-01
 -2.6129346e-02
 -4.3765387e-01
  2.4145548e-01
 -4.4518462e-01
  1.5930054e+00
  3.4139939e-02
  1.3773911e-01
  1.7007804e-01
  5.4684597e-01
 -7.4572223e-01
 -7.0205480e-01
  1.7771305e-01
 -2.8975216e-01
  4.4296005e-01
  6.8866426e-01
  1.1028565e+00
 -1.2355134e+00
  1.3938808e+00
  1.9110434e+00
 -1.1218761e+00
  2.5568885e-01
  2.0946133e-01
 -1.0074486e+00
  2.4320261e+00
 -2.1078494e-01
  1.9404171e-01
 -3.5282114e-01
 -2.8026545e-01
  5.9255916e-01
 -8.8118541e-01
  4.3881333e-01
  1.3307957e-01
 -2.5672624e-01
  9.5104843e-01
  2.8801084e-02
  2.1009599e-01
 -2.0429168e+00
 -2.2762226e-01
  6.0745090e-01
 -3.3882102e-01
 -5.4006040e-01
  2.5815800e-01
 -6.3497019e-01
  1.8148878e+00
  4.3278161e-01
  1.7823701e+00
 -7.0436752e-01
 -2.4524605e+00
  2.0581266e-01
  7.9250908e-01
  6.9049346e-01
  6.8762809e-01
 -1.2876722e+00
  1.3548383e-01
  1.4225051e+00
  4.4397676e-01
 -9.0338483e-02
 -2.5497697e-02
 -1.4809949e+00
 -1.1940949e+00
 -1.4305966e-01
  1.7259889e+00
  1.4575322e+00
 -8.1453550e-01
  1.2514864e+00
 -8.7887371e-01
 -5.6053448e-01
 -1.3309476e+00
  1.2632307e+00
 -1.0171497e+00
  1.0076588e+00
  1.8965580e+00
 -4.6602160e-01
 -2.2890010e-01
  2.8783634e-01
 -1.2831278e-01
  1.7919773e-01
 -8.2001603e-01
 -9.4264370e-01
 -4.4335270e-01
  4.8896307e-01
 -1.7183155e+00
  1.9691138e+00
 -4.9055003e-02
 -2.0417290e+00
 -9.3497992e-01
 -4.1167364e-01
  7.1975130e-01
 -2.0014434e+00
  4.1915145e+00
  4.5105252e-01
 -1.1376286e-01
 -1.6754936e-02
 -8.7847155e-01
  5.1558304e-01
 -8.1999081e-01
 -8.5642570e-01
  9.2449480e-01
  5.9611022e-01
  2.1245804e+00
 -1.4807627e-02
  5.2613467e-02
  1.6374098e-01
 -4.5786440e-02
 -2.0263404e-01
  7.3883772e-02
  6.7902452e-01
 -5.3348786e-01
 -4.6586284e-01
  1.4248280e-01
 -9.4485462e-01
 -9.9364018e-01
 -7.5745471e-02
 -1.0149673e+00
  3.4344129e-02
  1.2720205e+00
  1.1851105e-01
  3.5681796e-01
 -3.6012163e+00
  1.4864446e+00
 -6.3494653e-01
  9.1495991e-01
 -5.2732718e-01
 -1.3731310e+00
 -1.5113099e+00
 -3.7835629e+00
  6.9841999e-01
 -1.8352166e-02
  9.6970445e-01
 -6.6624540e-01
 -2.8530405e+00
 -8.2035965e-01
  2.7328694e+00
 -1.5778486e-03
  3.4124520e-01
 -1.1621434e-01
  7.6925218e-01
  1.2669708e-01
  1.9528179e+00
  3.0933705e-01
  2.7483542e+00
  8.5035734e-02
 -8.1710482e-01
  2.4421105e-01
  2.2108127e-01
  1.6836336e-02
  3.0355170e-01
  2.8482964e+00
  1.7659298e+00
 -1.2108102e+00
  2.1357336e+00
  7.8659540e-01
 -3.1271248e+00
  7.3697817e-01
 -7.7552652e-01
  1.6445897e+00
  2.3773775e+00
  9.9918795e-01
 -5.3835124e-01
  4.2585149e-01
 -2.0322181e-01
 -3.8060471e-01
  2.6724412e+00
 -2.5725162e-01
 -4.3200973e-01
  5.4451376e-01
 -2.3681338e-01
 -8.7778598e-02
 -3.0578066e-02
  3.5733002e-01
 -2.6309435e+00
 -2.7173545e+00
  3.7738442e-05
 -1.1015148e+00
 -1.1530986e+00
 -1.2236088e-01
  1.0286154e+00
  1.6430544e+00
  7.7778459e-01
  5.1148075e-01
  5.6436795e-01
  4.1482580e-01
 -3.5405090e-01
  1.8861581e+00
 -4.2254839e-02
 -1.1061542e+00
 -2.5051339e+00
 -2.3010157e-01
 -2.2769429e-01
  1.2287148e+00
  7.1736813e-01
  2.3525035e-01
  2.3802805e-01
 -5.2482218e-01
  2.7643626e+00
 -6.5142378e-02
 -7.2084892e-01
  1.7538062e+00
  1.6588303e+00
  2.9237266e+00
 -1.4979166e+00
  8.0640501e-01
  1.3378960e+00
  1.0842581e-01
 -2.2037714e+00
  1.3263474e+00
 -7.0969179e-02
 -1.0703681e+00
  1.3556391e+00
  8.1690955e-01
  8.9314538e-01
 -2.6297641e-01
 -5.1386368e-01
 -9.0075797e-01
 -2.7289081e-01
 -1.2987101e+00
  4.0445182e-01
 -5.9311993e-02
  2.5059015e-01
  1.4012112e-01
 -9.2430484e-01
 -3.3800942e-01
 -1.0556793e-01
 -2.3751295e+00
  1.3606834e+00
 -1.7912728e+00
 -1.0761730e-01
 -2.9242495e-01
  1.7916100e+00
  3.4407097e-01
  1.1013963e+00
  2.0326781e+00
  1.1888120e+00
  1.0733986e+00
  5.2168971e-01
 -2.4310809e-01
 -1.7433963e+00
 -6.9136328e-01
 -6.4842159e-01
  2.3795971e-01
 -1.7043683e-01
  2.0149435e-01
 -1.0426718e-01
 -7.2689188e-01
  1.7079389e-01
 -6.4006501e-01
 -9.9967492e-01
 -1.2100086e+00
  2.0770392e+00
  8.9470416e-02
 -6.6760983e-03
 -9.3277216e-01
  1.1283190e+00
  1.4733713e+00
  1.6906693e+00
  9.1481906e-01
  1.8725510e+00
 -2.6433187e+00
  1.6946766e-01
  1.6245799e-01
  5.5564904e-01
 -1.1659079e+00
  1.3125868e-01
  4.8978982e+00
 -1.4478797e+00
  1.3600189e-02
  3.0472360e+00
 -3.7384912e-02
  4.4188470e-01
  3.3999398e+00
  1.1818258e-01
  3.1809717e-01
 -1.3862931e+00
 -2.5855091e-01
  7.6475763e-01
  7.7229530e-01
  1.1229336e+00
 -7.2493917e-01
 -1.7329599e-01
  6.3871264e-01
  3.4756711e-01
  1.2563856e+00
  9.7682261e-01
 -4.3584552e-01
 -8.8401355e-02
 -2.3480327e-01
  1.1683333e+00
  1.8937685e-01
  1.1223074e+00
  1.9155041e+00
  3.7304434e-01
  1.3859701e+00
  6.6208357e-01
  8.6327767e-01
 -1.2200570e+00
 -4.6801975e-01
  1.5878879e-01
 -6.2343228e-01
  5.2043492e-01
 -1.1938591e-01
  3.5630885e-01
 -1.2881919e+00
 -2.2373006e-02
 -1.3665400e+00
  2.2963829e+00
  1.5767128e+00
 -8.4472460e-01
  9.8115695e-01
 -1.5323088e+00
 -5.4687496e-02
  1.0750011e+00
 -6.4712703e-02
 -6.6788185e-01
  1.5337675e+00
  5.5294102e-01
 -1.9164495e-01
  5.1351118e-01
 -9.7295709e-02
 -2.3067997e+00
 -2.1986884e-01
 -6.8230934e-02
  1.4530718e-01
 -1.1575299e-01
  4.4667307e-01
 -5.8691925e-01
 -1.6480052e-01
 -3.0911013e-01
  1.9321189e+00
  1.6378251e-01
  8.7091535e-01
 -1.1950251e+00
 -2.2425601e-01
  7.3355061e-01
  3.5767790e-02
 -7.1388954e-01
  1.3203543e+00
 -4.4217891e-01
  5.1165760e-01
 -2.4534534e-01
 -1.1698043e+00
  3.5376954e+00
  2.3444963e-01
 -3.2421085e-01
 -2.3935439e-01
  2.5859530e+00
 -1.4915046e-01
 -9.5826173e-01
  2.8965178e-01
 -2.3152745e+00
  1.4060429e-01
  2.5795383e+00
 -1.9473258e-01
 -1.5252775e+00
  6.7813426e-01
 -5.2652460e-01
  8.5083932e-02
  1.6554314e+00
 -3.8964021e-01
 -1.3576270e+00
  1.5807157e+00
 -3.3671672e+00
  2.0283055e-01
 -1.7770375e+00
  8.9368981e-01
 -1.0313871e+00
  6.4541721e-01
 -2.0523912e-01
  2.9002860e-01
  2.3954242e-01
  6.0538709e-01
 -6.1781816e-03
 -1.0987524e+00
 -8.4093593e-02
  7.8551471e-02
 -7.7376217e-02
  3.7400472e-01
 -1.0824691e+00
 -2.9439825e-01
  2.1349893e+00
  6.4273155e-01
  7.3239517e-01
 -6.2225688e-01
 -1.1636900e+00
 -5.7391411e-01
  1.9884975e-01
  1.9203445e+00
 -9.7060895e-01
  2.0430851e+00
 -1.2658158e-02
 -4.7401432e-02
  2.0032744e+00
 -9.4265765e-01
 -5.0007808e-01
 -5.9151149e+00
  1.3367490e-01
 -7.0220590e-01
 -1.0608636e+00
 -2.1949947e+00
 -2.1954477e+00
  7.1726754e-02
  2.4034975e+00
  1.0601494e+00
  6.3661493e-02
 -1.2694011e-02
 -6.7678297e-01
 -8.1746995e-01
  3.8170737e-01
  3.1440187e-01
 -8.4938193e-03
 -1.7337393e+00
 -2.8013000e+00
 -4.7354054e-01
 -6.2003267e-01
  1.2223910e+00
 -8.1859094e-01
  1.6308365e+00
  8.2430142e-01
 -3.8778720e+00
 -1.4726684e+00
 -4.6089038e-02
 -1.5749369e+00
  1.1761106e+00
 -2.7007067e-01
 -5.0490659e-02
  4.2032671e+00
  8.1465274e-01
 -2.9173815e-01
 -7.8305018e-01
  8.9299130e-01
 -3.5924911e+00
 -1.8579962e+00
 -7.2000533e-01
  2.6466683e-01
  8.0191958e-01
 -4.9387902e-02
 -9.3254673e-01
 -5.3166527e-01
  6.0499579e-01
  9.0948534e-01
  8.5060167e-01
  1.2873217e-01
  4.4486547e-01
  1.2039982e+00
 -2.1944450e-01
 -6.0624868e-01
 -1.0205061e-01
 -1.9919515e+00
 -2.7709591e-01
 -3.3992643e+00
  9.1688991e-02
 -7.0257914e-01
  1.1508162e-01
 -2.1369915e-01
 -3.2924876e-01
 -2.5849020e-01
  4.6737888e-01
 -1.4085798e+00
  6.9756404e-02
  1.2966996e+00
 -6.3505031e-02
  3.0289459e+00
 -1.0294162e+00
  7.9254353e-01
 -6.5384442e-01
  5.0452673e-01
 -9.8474574e-01
  1.3781211e-01
 -1.4322441e+00
 -3.5048087e+00
 -1.2273668e+00
 -1.3378546e-01
 -8.9089346e-01
 -9.6132022e-01
  1.5367585e+00
  1.2782810e+00
  7.0156437e-01
  8.4077919e-01
 -1.2244560e-01
 -8.7764478e-01
  2.2802095e-01
 -1.0101489e+00
  1.6396151e+00
  4.6905816e-02
 -2.7769411e-01
 -4.3993406e-02
 -5.5249745e-01
  1.9874560e+00
  2.2412565e+00
 -1.9521649e-01
  4.9182853e-01
 -1.2098051e+00
 -4.3660811e-01
 -2.7853165e+00
  1.0542856e+00
  2.7627120e+00
  1.1154225e+00
  4.5813799e-01
 -1.9709967e-01
  7.2656341e-02
 -1.8078018e-02
  3.9949197e-01
 -9.6926522e-01
  8.8627636e-01
  2.3185058e+00
 -6.4873272e-01
  3.4573185e-01
 -3.9048812e-01
  3.0935720e-01
 -8.5901223e-02
 -6.0321647e-01
  3.1447116e-01
  1.2105621e+00
  5.9282237e-01
  2.9476449e-01
 -5.5727816e-01
  1.9991270e+00
 -2.0767878e-01
 -9.1338050e-01
 -9.9526480e-02
 -1.4665264e+00
 -1.8931739e+00
  7.3937315e-01
 -1.1568000e+00
  3.2815793e+00
 -6.2717742e-01
  5.8688188e-01
 -4.1424575e-01
 -3.0996293e-01
 -2.5871975e-02
  1.1958801e+00
  1.1211524e+00
  5.7259417e-01
 -1.4261106e-01
  1.3872932e+00
 -1.8474398e+00
  4.7920355e-01
 -2.9426438e-01
  3.1055303e+00
 -5.3517461e-01
 -5.0237280e-01
 -7.2982645e-01
  7.4207924e-02
 -9.8926634e-01
 -3.4272024e-01
 -4.2113379e-01
 -1.1394946e-01
 -7.9718924e-01
  2.3222516e-01
  2.9617256e-01
 -1.2325865e+00
 -2.0287864e+00
 -1.1176238e+00
  1.5006790e-01
  2.1266279e+00
 -3.8062626e-01
  8.0704093e-01
 -9.0979314e-01
  2.8502768e-01
 -2.0474318e-01
 -1.1374928e+00
 -1.6348147e-01
 -9.8589158e-01
  1.5703663e-02
  2.8650334e-01
 -1.2566115e-01
 -2.7816188e+00
  1.1587172e+00
  1.5751858e+00
  1.2397304e+00
 -4.8820272e-01
 -1.4379613e-02
  5.8938265e-01
  8.4847435e-03
 -3.6934453e-01
 -3.0342062e+00
  1.5385169e-01
 -5.4318439e-02
  2.0142643e-01
  1.5595571e+00
  2.4234803e-01
 -2.9910022e-01
  1.1560907e+00
  2.1002598e+00
  1.1782256e-01
 -6.6293573e-01
 -1.2356157e+00
 -3.1298137e-01
  2.9003814e-01
  5.5007029e-01
 -8.3828557e-01
 -1.7996565e-01
  1.6664901e+00
  3.9704826e-01
  8.6289638e-01
  1.1065298e-01
 -1.1869175e+00
 -1.3499181e+00
 -1.1965153e+00
  7.4693531e-01
  5.6673074e-01
  8.2420546e-01
 -5.3357828e-01
  8.6236984e-01
  1.1896399e+00
 -1.9902366e-01
  1.0902305e+00
 -1.8384809e+00
 -5.1131958e-01
  6.7958552e-01
 -1.4392248e+00
  2.0439273e-01
  6.1245239e-01
  2.9638271e+00
 -7.9778083e-02
  1.6117452e-01
  4.4750279e-01
  6.0535461e-01
  8.4755532e-02
 -6.4033508e-01
 -4.4328880e-01
  4.4985285e-01
  3.6778319e-01
  1.9282744e+00
  3.3516148e-01
  9.6216723e-03
  9.8305708e-01
 -1.2206205e+00
  1.9622957e-02
  9.4102919e-01
  2.2788258e-01
 -8.2101494e-01
  2.9794225e-01
  3.9827961e-01
  2.5492516e+00
  2.2923551e-01
 -1.5362576e+00
  7.0533431e-01
 -6.0449874e-01
 -3.6097941e-01
 -4.7133514e-01
 -6.6198148e-02
  1.2105942e+00
  1.8874085e+00
 -1.4616193e+00
 -2.4259701e-01
  1.8083754e-01
 -8.6906183e-01
 -3.8346118e-01
  1.2149658e-01
  1.4428200e+00
 -1.5146133e+00
 -1.0805917e+00
 -2.7852151e-01
  5.0006646e-01
  1.4464706e-01
  8.7262668e-02
  2.6573617e+00
  1.5125505e+00
 -8.2216316e-01
 -2.0315455e-01
  8.3843756e-01
 -1.5551232e+00
  3.1187847e-01
  1.0821109e+00
  5.2393728e-01
  3.9620462e-01
 -7.8221232e-01
 -9.3829483e-02
 -1.5409194e+00
 -6.3260418e-01
 -1.5667810e+00
  8.0575585e-01
 -5.7542855e-01
  3.8742682e-01
  7.8864890e-01
 -9.4737434e-01
  6.9365180e-01
  3.7125111e-01
  1.3401497e-02
  2.4244435e-01
 -1.1755276e-01
 -1.6557631e+00
  2.7005151e-01
 -5.8633933e+00
 -2.9441810e-01
  4.9628592e-01
 -1.3186572e+00
 -2.5650625e+00
 -9.6958451e-02
  6.4361489e-01
  1.9652355e+00
 -3.0141938e+00
 -1.1429213e+00
 -9.7383279e-01
 -4.7315219e-01
 -9.3358554e-02
 -2.5131732e-01
  1.7789562e-01
  1.3059479e+00
 -1.0245942e+00
 -8.5850036e-01
  1.4498591e+00
 -1.5015115e-01
  4.6375865e-01
 -1.5340143e+00
 -8.4671867e-01
 -1.3511478e+00
 -5.4713148e-01
  6.1346400e-01
  5.5077767e-01
  1.8002976e-01
  7.3590659e-02
 -4.3401685e+00
  6.6434699e-01
 -3.7499779e-01
 -1.1176627e+00
 -2.4548644e-01
 -3.7505999e-03
 -4.7527170e-01
 -3.5119835e-01
 -4.3269825e-01
 -7.5052220e-01
  9.1100675e-01
 -1.8372394e+00
  7.2359198e-01
 -4.6789902e-01
  1.0384498e+00
 -1.9248438e-01
  3.2123876e+00
 -2.3099969e-01
  8.3229464e-01
  3.4469545e-01
  1.0997851e+00
  7.9194719e-01
 -1.4312989e+00
  4.1188410e-01
 -2.6175549e+00
 -1.7095363e+00
 -2.5241692e+00
  1.2473658e-01
  1.9827308e-01
  1.0394810e+00
  6.1334825e-01
 -2.5923732e-01
  8.6481237e-01
  6.5666020e-01
  5.9118181e-01
  8.5708983e-03
  1.2525184e+00
 -5.5090174e-02
 -7.1583641e-01
  4.8752204e-01
  2.2408135e-01
  4.1576672e+00
 -1.7927153e-01
 -2.9587176e-02
  1.3556718e+00
  1.4315861e+00
  2.1560090e+00
 -1.1243200e+00
 -4.4198227e-01
  7.7408457e-01
 -1.8047193e+00
 -4.5445049e-01
 -2.5293511e-01
 -4.5157534e-01
 -1.1565679e+00
 -2.7104238e-01
  5.1313818e-01
  1.1028015e-03
  5.8118200e-01
  5.2756435e-01
  6.5666240e-01
 -3.8818032e-01
 -9.7765642e-01
 -1.1287060e-01
  2.6070058e-01
  1.6379544e+00
 -4.9760213e-01
 -7.4459435e-03
 -2.9640868e+00
  7.0525116e-01
 -2.0007961e+00
  2.2802799e+00
 -6.1015928e-01
  8.4884733e-01
 -1.4663142e+00
 -5.8578882e-02
  1.6569221e-02
  1.5988731e+00
 -2.4680036e-01
  1.7574183e+00
 -4.7780180e-01
  1.1587601e+00
  1.6467322e+00
  3.5592917e-01
 -9.8826516e-01
 -2.3597608e+00
 -4.3450946e-01
 -1.8685380e-01
 -2.2221923e-01
  6.5956742e-02
 -2.3373836e-01
  4.3273383e-01
 -1.5262811e+00
 -3.2266524e-02
  4.1662768e-02
  2.3540248e-01
  7.3045450e-01
 -1.2302501e-02
  1.4128547e+00
 -1.4748435e-01
  1.4293145e+00
  2.0139685e+00
  1.6451681e-01
 -7.0527524e-01
  1.3482234e+00
 -1.5495802e-01
  3.1345787e+00
 -2.5540037e+00
 -1.3001025e+00
 -7.5707617e+00
  5.0360936e-01
 -2.8056400e-02
  1.2217209e+00
  1.6356464e-01
 -3.8646104e+00
 -4.6274883e-01
  7.1509248e-01
 -2.5793369e+00
  7.5377733e-01
 -2.3771335e-01
  2.0536325e+00
 -2.7706209e-01
 -2.0822885e+00
 -7.6130104e-01
  2.3545538e-01
 -3.3825475e-01
 -6.7823547e-01
  7.8352386e-01
  5.6136531e-01
 -4.3604277e-02
  1.0396265e+00
 -1.1029105e+00
  1.1402309e+00
  1.0925829e+00
  7.0794404e-02
 -1.1422668e+00
 -3.4173694e-01
  1.0073745e+00
  3.3894128e-01
  6.1376119e-01
  4.9515542e-01
  1.6443133e-02
 -8.1346959e-01
  2.4092207e+00
 -6.1055064e-01
  1.6082486e+00
  5.3449976e-01
  3.5055864e-01
  1.4444712e+00
  3.5637693e+00
  4.6799332e-01
 -6.2673354e-01
 -8.4818393e-01
 -6.8899184e-01
 -7.3314601e-01
  6.5565497e-01
 -7.4870682e-01
 -2.1973157e+00
 -1.1822484e+00
 -2.9236674e-03
 -5.8679020e-01
 -3.0474353e-01
 -1.1436026e+00
  3.7376910e-01
 -1.7943857e+00
  7.8387892e-01
  2.7110410e+00
 -8.1245041e-01
 -1.2531959e+00
 -1.5534009e-01
  3.1743762e+00
 -9.2278343e-01
  7.0558983e-01
  1.0137459e+00
  5.8820480e-01
 -6.9886580e-02
  1.6034850e-01
 -1.2303069e+00
 -9.5804185e-01
  6.2166947e-01
  5.6287932e-01
  4.9449474e-01
 -4.1994035e-01
 -1.6112325e+00
  2.0241988e-01
  5.4603213e-01
 -4.4038975e-01
  4.5162478e-01
 -1.4880563e+00
 -6.5892321e-01
  8.9211327e-01
 -3.5285237e-01
 -1.8015665e-01
 -7.7134264e-01
 -9.8618788e-01
 -4.1302368e-01
 -8.8341886e-01
 -1.4081520e+00
 -2.7323239e+00
  9.1400903e-01
  1.8999334e-01
 -8.6178660e-02
 -1.9557784e+00
  1.4130394e+00
 -1.0916135e+00
  1.0229043e+00
  1.0121953e+00
 -9.4544792e-01
 -2.8507763e-01
  8.5251099e-01
 -1.3155495e+00
  2.1411723e-01
 -6.4157867e-01
 -5.5449777e+00
  1.4538048e-01
  2.0490795e-01
  3.6123598e-01
  1.5764500e-01
  7.6687381e-02
  1.1158155e+00
  5.2310997e-01
  1.4485595e-01
  1.3154236e+00
 -9.2471874e-01
  5.0474340e-01
 -6.7184329e-01
 -1.7955908e+00
 -7.6737118e-01
  5.5622268e-01
 -2.9248020e-01
 -1.2257002e-01
  2.1886268e-01
  3.7497699e-01
 -1.3086894e-01
  4.4031769e-02
 -5.8078331e-01
 -1.0527881e+00
 -3.6017567e-01
 -6.5268952e-01
  6.6264307e-01
 -4.8444681e-02
 -3.3236258e-02
  1.6322759e-01
 -1.6418211e+00
  3.9592823e-01
 -6.5624249e-01
 -3.8958311e-01
  7.1963459e-01
  3.0138853e-01
 -1.3705829e+00
  9.9727415e-02
  5.4507428e-01
  9.0434313e-01
  9.0264487e-01
 -1.5959119e-02
  3.4661832e-01
  7.3596001e-01
  4.7103974e-01
  3.3431607e-01
 -4.2532402e-01
 -4.6685475e-01
  4.1669449e-01
  1.2232814e-01
 -2.1321528e-01
  3.2959712e-01
  2.6869266e+00
 -2.6418599e-01
 -3.3621988e-01
 -1.9145052e-01
 -6.0705775e-01
  1.7419840e+00
  1.7682080e-01
  9.3759555e-01
 -1.4162499e+00
  9.5967543e-01
  1.2286541e+00
  2.6019418e-01
  1.3687080e-01
  1.6376819e-01
  2.0099473e+00
 -2.8712157e-02
  1.9986169e+00
 -1.5433705e-01
 -2.6871352e+00
  1.3843186e+00
  1.1221738e-01
 -7.1213233e-01
 -1.1340615e+00
 -9.8927635e-01
  2.7096418e-01
 -7.0534253e-01
  1.0434324e+00
  3.4659791e-01
 -3.9799935e-01
  4.3217662e-01
  3.5866827e-01
  8.7841934e-01
 -1.1673410e+00
 -4.5937744e-01
 -4.3434635e-01
  7.9422690e-02
 -2.4151543e-01
  1.2075062e+00
  1.0211977e+00
  1.0184612e+00
  1.3216425e+00
 -6.3339812e-01
  1.3851473e+00
  9.4044542e-01
 -5.2820814e-01
  3.5801110e+00
  8.3698839e-01
 -6.0684748e-02
 -6.4348048e-01
  7.5493455e-01
 -2.7099621e-01
  2.9931162e-02
 -2.0252473e+00
 -2.9692235e+00
 -8.0483145e-01
 -1.4150409e+00
 -2.3144689e+00
  1.4488057e+00
 -2.2442608e+00
  4.9331981e-01
 -1.4452312e+00
 -1.5498334e+00
 -5.6285375e-01
  5.1374459e+00
 -3.3420151e-01
 -4.4475856e-01
  1.5484960e+00
  7.7323437e-02
 -5.2690439e-02
 -1.3542451e-02
  1.2548045e+00
  4.2977837e-01
  1.6676992e-01
 -1.7642403e+00
  1.2751786e+00
 -4.7962269e-01
 -1.2030131e+00
  6.3869613e-01
  5.2337867e-01
 -1.5995212e+00
 -3.6643559e-01
  5.6831038e-01
 -1.2466792e+00
 -9.2340934e-01
 -4.2468548e-01
 -1.1581836e+00
 -4.1200006e-01
 -3.1340715e-01
 -5.4107375e+00
  1.3733925e-01
 -1.1425022e+00
 -9.4248813e-01
 -4.0700044e-02
  6.6295063e-01
 -1.1043801e+00
  3.0337615e-02
  4.5858753e-01
 -1.1354034e-01
 -3.7532921e+00
 -1.2014499e+00
  4.9450463e-01
  8.0107903e-01
 -3.9713129e-02
 -1.8809100e+00
  2.4137273e+00
  1.0849146e+00
  2.0773752e+00
  1.7998892e+00
 -2.4377014e-01
 -2.1117370e+00
  8.2407796e-01
 -9.6280599e-01
 -1.1613882e-01
 -1.8167741e+00
 -7.2426111e-01
  3.0034542e-01
  2.4060509e-01
  2.6194081e+00
 -1.2684646e-01
 -1.0654010e+00
  1.7859172e+00
  1.4779953e+00
  6.6452658e-01
  1.3523753e+00
 -5.5416428e-02
 -2.0155288e-01
 -1.3464686e+00
  1.7128617e+00
  2.9387254e-01
  1.5867141e-01
 -3.6987400e-01
 -7.0427418e-02
  3.6448977e+00
 -1.1637855e+00
  4.5967910e-01
  5.5581880e-01
 -8.7509084e-01
  7.9036194e-01
  2.8653586e-01
  2.8042681e+00
 -6.5827601e-02
  2.2256982e+00
  2.8994900e-01
 -3.4504907e+00
  1.1295036e+00
  9.4142362e-02
  3.6455068e-01
 -8.6677648e-02
  8.3421089e-02
 -3.8044736e-02
 -2.9238176e-01
 -3.0268550e-01
  1.0933281e-01
 -2.6345160e+00
 -6.3429996e-02
  1.0368188e-01
  8.3529848e-01
  6.4080417e-01
  2.2988050e+00
 -7.0061153e-01
  7.5965896e-02
 -8.3769567e-02
 -1.2166055e+00
  6.1954480e-02
  1.0645894e+00
 -3.3528879e-01
 -2.8275311e-02
  4.1350195e-01
 -8.2086451e-02
 -2.1193328e+00
 -7.4655414e-01
 -2.1256879e-01
  2.6544565e-01
 -7.6679319e-01
 -3.3456090e-01
 -1.4085844e-01
  7.9339689e-01
  1.2707417e+00
 -1.2032717e+00
  3.7406722e-01
 -3.4883791e-01
  3.0843467e-01
 -9.1879928e-01
  1.0044674e+00
 -4.0652761e-01
 -2.2254322e+00
  4.7979853e-01
  6.5276265e+00
  1.3635181e+00
 -4.0485904e-01
  1.2250936e-03
  9.2708123e-01
  1.0512669e+00
  1.8316916e-01
  1.6600728e+00
  4.2472148e+00
  5.6946611e-01
  9.0835208e-01
  7.0468396e-01
 -9.4720250e-01
 -9.9124521e-02
  2.3263633e+00
 -3.7209105e-01
 -8.7397295e-01
 -2.6335758e-01
 -2.0365033e+00
 -9.4274467e-01
  1.8553808e-01
  9.4289488e-01
 -1.7185849e-01
  2.4029789e+00
 -3.0265269e+00
  1.1251183e+00
 -8.9020824e-01
 -2.0941479e+00
 -4.8115990e-01
 -3.0480096e+00
 -4.3907443e-01
  9.3327194e-01
 -4.6798375e-01
  4.7856608e-01
  3.1483313e-01
  6.0826612e-01
  2.5725079e-01
  2.3827965e+00
 -7.1150845e-01
 -1.8632390e+00
 -4.4411603e-02
 -1.1105866e+00
 -5.8301932e-01
  1.4586235e+00
 -4.4678110e-01
  6.2534481e-01
  2.8179741e+00
  6.3686743e-02
  1.1196002e+00
  4.0250772e-01
  4.1525817e-01
 -4.2414311e-01
  1.6632859e+00
 -8.6933398e-01
  1.7577410e+00
 -8.8575602e-01
  3.5708413e-01
  1.7686127e+00
  8.1645823e-01
 -1.3470097e+00
 -2.8457928e-01
  4.2671680e-01
  4.2079678e-01
  8.9871682e-02
 -6.6436934e-01
  3.0615112e-01
  5.2535200e-01
 -2.3025791e-01
 -1.3261145e+00
 -1.1039368e-01
 -5.2658021e-01
  1.4417753e+00
 -1.5817060e-01
 -8.8354677e-01
 -4.1610834e-01
 -4.3906710e-01
  2.4882336e+00
 -2.7111785e+00
 -1.6202140e-01
 -1.3526016e-01
 -2.2133934e+00
 -9.7427733e-02
 -8.2807027e-02
  5.8495877e-03
  2.8348565e-01
  3.2868419e+00
  1.6964252e-01
  4.9949530e-01
  2.5808918e-01
  1.2935270e-02
 -7.5055403e-01
 -2.5170588e+00
 -2.1532103e-01
  4.4037759e-01
 -1.2453359e-01
  1.8050511e-01
  9.7149171e-02
 -5.6171131e-01
  3.9364657e-01
 -5.9554958e-01
  1.0846677e+00
  6.7063284e-01
 -1.2613459e+00
  1.3096406e+00
  8.4237462e-01
  5.0868684e-01
  8.6670184e-01
 -9.1857463e-01
  8.5711110e-01
 -5.0534880e-01
  8.4062231e-01
  1.7876662e-02
  5.2093965e-01
  1.8107200e-01
 -6.1161661e-01
 -1.4792774e-02
  6.5453899e-01
 -3.8253036e-01
  1.0573349e+00
 -1.3745836e+00
  3.9444384e-01
 -1.2406125e+00
 -1.3449526e+00
 -1.1790551e+00
  4.1933370e-01
  1.7309701e+00
  1.6885389e+00
  8.3767682e-02
 -1.2147982e+00
 -3.9814347e-01
 -1.9795295e+00
  2.4145271e-01
 -1.6682836e+00
 -1.7891181e+00
  1.6247486e+00
 -1.0870180e+00
  1.9364495e+00
  6.3054425e-01
  6.4057958e-01
 -5.1803070e-01
  1.3111299e+00
 -2.9196694e+00
 -2.7916652e-01
 -1.9883205e+00
 -2.3654203e+00
  1.6066875e+00
 -4.2882290e+00
 -1.7001314e-02
 -1.5672837e+00
  2.4392152e+00
 -9.5370501e-01
 -3.1846878e-01
 -2.4662817e+00
  6.0439187e-01
 -1.1850835e+00
  1.5783138e+00
  2.3613491e+00
 -1.7067751e+00
  1.7987182e+00
 -4.3966749e-01
 -3.8272574e+00
  1.4226665e-01
 -1.1368033e+00
  1.8049266e-02
  4.0370014e-01
  3.7167087e-01
  1.6128758e-01
  1.7003769e+00
 -3.7008834e-01
  1.5580707e+00
 -8.2896841e-01
  1.3472989e+00
 -8.7031916e-02
 -3.2955047e-01
  7.2847873e-01
 -2.1981016e-02
 -1.2054038e+00
  4.0916696e-01
 -7.6193416e-01
 -9.6560788e-01
 -1.6309497e-01
  8.5289550e-01
  2.8415313e-03
 -5.1763821e+00
  5.5038309e-01
 -4.5127970e-01
  4.9705210e-01
 -1.1310825e+00
  9.7844166e-01
  7.0983368e-01
  9.7748436e-02
  2.9459388e+00
  2.0344453e-01
 -3.7526515e-01
 -1.0050038e+00
  2.2533995e-01
 -8.1541705e-01
  4.3763369e-01
 -2.5694597e-01
 -1.2677408e+00
  2.4234007e-01
  2.6601216e-01
 -2.0706029e+00
 -4.2885995e-01
  6.4514808e-02
  9.5130485e-01
  1.7022949e+00
  5.3312129e-01
  1.1651382e+00
  7.3656934e-01
  4.4751287e-01
 -2.0008597e-01
  1.3516613e+00
  4.1724727e-01
 -2.3944025e-01
 -1.1083476e-03
  2.5103435e-01
 -1.5868636e+00
  1.9511341e-01
 -4.5122725e-01
 -2.6594064e-01
  8.0946958e-01
 -2.4893892e+00
 -8.9031696e-01
  8.1688613e-01
 -5.9158635e-01
  6.9519508e-01
 -1.6140698e+00
 -2.0414196e-01
  7.2683275e-01
 -5.0387502e-02
 -2.9116756e-01
 -3.4193805e-01
 -8.1082714e-01
 -5.2867693e-01
 -2.0353358e+00
  2.8998011e-01
 -3.1585723e-01
 -3.0822802e-01
 -8.8534594e-01
  3.2799208e-01
 -4.2585292e-01
  8.6323172e-01
 -8.9395463e-01
  3.4979227e-01
 -3.3299437e-01
 -3.4643078e-01
  9.1695714e-01
 -9.5088430e-02
  2.0227122e-01
  2.8223281e+00
  1.0082039e+00
 -1.1634997e-01
 -3.4389329e-01
 -5.3603953e-01
 -2.0338550e-01
  5.3637255e-02
 -1.0215626e+00
 -5.1593423e+00
 -7.9592985e-01
 -3.2934472e-01
  2.3366730e+00
 -4.8791647e-01
  2.1062591e+00
 -2.5744479e+00
  4.4587398e-01
  1.3195673e+00
 -1.1980957e+00
  1.3158194e+00
 -5.1529127e-01
 -4.7440797e-01
  1.7148142e-01
 -1.4401041e+00
 -5.1112437e-01
  4.5229563e-01
 -4.5785907e-01
 -7.6087910e-01
 -3.7707818e+00
  2.3352997e+00
  5.3197169e-01
 -6.2503904e-01
  2.2228236e+00
  2.2941466e-01
  1.4333469e+00
  2.4486348e-01
 -2.8401858e-01
  3.1758597e-01
  1.6257925e+00
  3.3503997e-01
 -4.9434075e-01
 -1.2580581e-01
  6.0447389e-01
 -1.7205788e-01
  6.3998479e-01
 -5.8379877e-01
 -2.0635352e+00
  6.3329726e-01
 -1.9246785e-01
 -2.6120543e-01
 -4.0067425e-01
  6.3628227e-01
 -3.8825515e-01
 -8.9560503e-01
 -2.0065935e+00
  1.3348000e+00
  1.5271833e+00
  1.0514224e+00
 -7.8744215e-01
  3.7508473e-01
 -1.4687674e-01
 -8.0081755e-01
 -3.6198897e+00
  9.5193160e-01
 -4.0356654e-01
  1.7968849e+00
  3.5051343e-01
 -8.0339581e-01
 -7.4272954e-01
 -1.0037898e-01
 -8.9795604e-02
  1.4799923e-01
  2.0384373e-01
 -5.5136204e-02
 -5.4254740e-01
  7.1389675e-01
  3.0836597e-01
 -5.1222712e-01
 -9.5039743e-01
 -4.2081261e-01
 -9.2149431e-01
 -5.8182549e-01
  8.6322683e-01
 -6.8515204e-02
  2.1652722e+00
 -7.9527038e-01
 -3.6985138e-01
  1.8314831e+00
  1.5214864e+00
  1.0761669e+00
  1.2635380e+00
 -1.9796073e-01
 -2.5225024e+00
 -1.2828490e+00
 -4.2594790e-02
 -1.0625105e+00
 -3.8656723e+00
 -2.6877086e+00
 -5.4818168e+00
  1.5505914e-01
 -6.0134500e-01
  2.3653667e+00
  1.4625355e+00
  2.0025277e+00
  2.9699895e-01
 -1.9996346e+00
 -9.7566968e-01
  1.3087822e+00
 -2.4726591e+00
  5.2089339e-01
 -2.0906317e+00
 -2.4204019e-01
  8.2364380e-02
 -1.7360526e+00
  7.3738813e-01
  3.6849782e-01
 -1.3689468e+00
  1.5822660e+00
  5.8625692e-01
 -1.6029422e+00
  6.7384148e-01
  8.0262017e-01
  2.1463847e+00
  9.3603992e-01
 -3.2027917e+00
  8.2439935e-01
 -2.3497900e-01
 -2.0003603e+00
 -6.4448494e-01
  5.9929669e-01
 -1.9107608e+00
 -2.0342241e-01
 -7.8493458e-01
  4.1685567e+00
 -7.1282417e-01
  1.1777110e+00
 -1.5631119e+00
  1.5350743e-01
 -4.9350676e-01
 -2.0169935e+00
 -4.5274356e-01
 -2.6919906e+00
  1.0365534e+00
 -4.2212087e-01
 -3.6172873e-01
  1.2490501e+00
 -1.7017024e+00
  8.0285847e-01
 -3.3774570e-01
 -3.0728936e-01
 -7.1888936e-01
 -2.4695218e+00
  1.2579397e+00
 -1.4653610e-01
  1.1790078e-02
 -1.7432295e+00
  8.4708054e-03
 -1.6410557e+00
  1.3024579e+00
  9.0553164e-02
  4.6099886e-01
 -1.3645896e+00
  1.7975645e+00
  3.3254445e-01
 -8.8833922e-01
 -2.7267532e+00
  4.6718970e-01
 -4.5785403e-01
  6.4706761e-01
 -2.7463517e-01
  2.0133672e+00
 -3.2449176e+00
  9.9279982e-01
  1.7481194e-01
 -2.7012476e-01
 -1.4559634e+00
  1.0764029e-01
 -7.3034602e-01
 -3.6254370e-01
  1.0890173e+00
  9.7637907e-02
  2.1322210e-01
  6.9531672e-02
  3.8838613e-01
  4.6716964e-01
  3.9073604e-01
 -1.0746788e+00
 -2.9963458e-01
 -9.3749791e-02
  3.0537191e-01
 -2.2083911e-01
  1.3510724e+00
 -6.0699475e-01
  4.3599144e-01
  6.0040910e-02
 -4.1047624e-01
  3.2970393e-01
  4.2106187e-01
  9.4363791e-01
 -2.5574489e+00
  8.9978653e-01
 -6.1863232e-01
  8.2697409e-01
 -3.8149071e-01
 -8.0905223e-01
 -1.4775898e+00
 -1.2267998e-01
  7.8596125e+00
  1.8010363e-02
  9.4404101e-01
 -1.0430399e-01
 -7.4622077e-01
 -1.8801695e+00
  1.5443623e+00
  1.0498649e+00
 -9.9592960e-01
 -1.1385777e+00
  6.0260254e-01
  4.7497728e-05
  7.3929572e-01
  3.1725806e-01
  1.6396645e+00
  2.0342134e-04
 -1.9360017e-03
 -4.4122741e-01
 -1.2380005e+00
 -2.7775908e-01
  2.2214825e-01
  8.1610650e-01
 -7.7246569e-02
 -5.0383925e-01
  1.6571568e-01
 -4.3342993e-01
 -5.4547721e-01
 -9.0238261e-01
 -1.0352999e+00
 -2.3310784e-02
  1.1234416e+00
  3.0777026e-02
  9.2871296e-01
  1.7036188e+00
 -1.5330502e+00
  1.4505396e+00
 -3.0522718e+00
  2.6925549e-02
  8.6533445e-01
  1.9374578e+00
 -5.4250854e-01
  2.4161518e+00
  4.6083197e-01
  1.8702390e+00
 -4.0166864e-01
 -1.5377462e+00
  3.0341479e-01
  1.0879914e+00
  1.3012677e+00
 -8.0232732e-02
  2.3517476e-01
  3.7430096e-01
 -2.2209046e+00
  6.5747827e-02
  6.7145526e-01
 -5.5631465e-01
 -7.0277578e-01
  1.7862968e-01
  1.4414124e+00
  3.2642469e+00
 -1.8604512e+00
  6.5327460e-01
  1.4488710e+00
  8.2278347e-01
 -2.3198566e-01
  9.5053583e-01
 -6.1403918e+00
  4.2096812e-01
  4.0186417e-01
  2.5799826e-01
 -3.1659311e-01
 -5.7065511e-01
  3.4357974e-01
  5.0697227e+00
  5.0812685e-01
  7.4599981e-01
  4.7323900e-01
 -7.8525656e-01
 -1.0057417e+00
 -1.5719056e+00
 -3.8802099e-01
 -3.6839092e-01
 -1.9414005e+00
  1.8588622e-01
  1.5287118e+00
  1.2701596e-01
  4.2505154e-01
  3.0130651e+00
 -4.3818244e-01
 -3.8035297e+00
 -4.9536388e-02
  5.6059724e-01
 -5.9926862e-01
 -3.4837756e-01
  1.4663024e+00
 -2.9283769e+00
 -1.3994390e+00
 -6.4404890e-02
  5.0803804e-01
 -2.2585025e-01
  3.0273864e+00
  1.2353812e-01
 -4.6885699e-01
 -1.3268538e+00
  9.6052033e-01
 -2.7551860e-01
 -9.8917449e-01
  1.5465541e+00
  8.2047302e-01
  7.6185651e-02
  6.2245947e-01
 -1.2510378e+00
 -2.5668499e+00
  1.9025655e+00
  8.5066825e-01
 -4.1338488e-01
 -4.7928938e-01
  6.8349636e-01
 -1.5588049e-02
 -2.1058512e+00
 -1.4882717e-01
 -4.2612806e-01
  6.8865734e-01
 -1.3027641e+00
  1.2316294e+00
  2.0737112e+00
 -1.5034053e+00
 -1.7684411e+00
 -8.4645838e-02
 -3.0457884e-01
  1.3733501e+00
 -1.7844039e+00
  2.2197819e+00
 -1.0531025e+00
 -8.6863297e-01
  2.1132760e-01
 -1.8702923e+00
 -3.2059908e-02
 -7.7868313e-01
 -3.9923206e-01
 -1.2650702e+00
  3.6058044e-01
 -8.3683109e-01
  1.6555156e+00
 -5.9967566e-01
 -1.1122555e+00
 -5.1892571e+00
 -6.1469495e-01
 -4.0715528e-01
 -5.7768619e-01
  1.2239347e-01
 -1.1031057e+00
  1.4268450e-01
 -1.9703114e-01
  1.0077294e-01
 -1.2808165e-02
  1.3193967e+00
  4.5446116e-01
  5.4902780e-01
 -4.1950774e-01
 -8.0327022e-01
  3.5949460e-01
 -5.8188784e-01
 -1.4452910e+00
  1.1443834e+00
  2.6848590e-01
 -2.4543407e+00
 -5.1308489e-01
  1.2612214e+00
  4.5208803e-01
 -1.5640445e+00
  5.8507591e-01
 -4.5432977e-02
 -3.8343243e-02
  7.8705791e-03
  2.6862353e-01
  7.7277607e-01
  3.1217043e+00
  1.0153059e+00
  1.3144616e+00
  8.6655617e-01
 -6.5811992e-01
 -3.2316989e-01
  2.7771037e-02
  1.2194467e+00
  8.8333005e-01
 -1.1712209e-01
  1.3618839e+00
 -2.5321710e+00
 -4.9424949e+00
  1.0058999e-01
 -1.1370937e-01
 -3.1950760e+00
  1.7968081e-01
 -6.1042005e-01
  3.7910008e-01
  9.1826236e-01
  1.7537399e-01
  1.6891662e+00
 -4.9536723e-01
 -2.8250268e-01
 -2.0140293e+00
  1.2451320e+00
 -4.0470588e-01
 -8.5939664e-01
  5.3034854e-01
 -7.7484232e-01
 -4.8040557e-01
 -6.8095160e-01
  8.4067905e-01
  1.0171615e+00
 -3.7604096e+00
  5.5401206e-02
 -4.4130462e-01
  1.8827473e+00
  8.1664181e-01
 -1.4537141e+00
 -3.4699443e-01
 -1.8402595e-02
  4.8042798e+00
 -3.6851886e-01
 -2.3241116e-01
 -3.7883532e-01
  6.4896828e-01
  2.1594265e+00
  2.6292887e-01
  2.0807943e-01
 -1.8336920e-01
 -1.9499139e+00
  1.2279243e+00
  1.0752044e+00
 -1.3445969e+00
 -1.8048776e+00
  3.3137667e-01
 -7.4315232e-01
 -1.2708822e+00
 -1.6868497e-01
  4.4605836e-01
 -5.5907106e-01
  1.1803124e+00
  9.1127567e-03
 -2.8152576e-01
 -2.6516855e+00
 -2.1212737e-01
  1.3904640e-02
 -1.3884046e+00
 -5.5496097e-01
 -9.7391385e-01
 -7.6373339e-01
 -1.5535122e-02
  9.0060055e-01
  9.6790321e-02
 -3.1177840e+00
  1.1755340e+00
 -4.4947127e-01
  4.5852646e-01
 -1.4821979e-01
  2.5651090e+00
 -6.7507136e-01
 -6.6296735e+00
  1.6033640e+00
  2.9558837e-01
 -4.1395688e+00
 -1.1288176e+00
  1.6228920e-01
 -1.4409734e+00
 -1.1988324e-01
  8.7425925e-02
 -2.0344729e+00
  5.3470200e-01
 -3.1169643e+00
 -1.3385960e+00
 -1.0060948e-01
 -1.7330232e+00
 -2.3577759e+00
  2.1250932e-01
  1.4170611e+00
  9.0548402e-01
  1.9462982e-01
  6.6982174e-01
 -1.2736624e-01
  1.3395065e+00
 -1.3008844e+00
 -5.8535591e-02
 -5.7279158e-01
 -2.3716021e-02
 -2.3680729e-01
 -2.1805406e-01
  1.1486224e+00
  7.1072751e-01
  3.4154472e-01
  6.7989433e-01
  2.3589507e-01
  2.6413207e+00
  5.7698731e+00
 -3.8009498e-01
 -1.0379134e+00
  4.4683707e-01
  1.0507421e-01
 -4.0465036e-01
 -1.6583421e+00
  2.5345781e-01
 -2.5523061e-01
  1.3203887e+00
 -1.8578722e+00
 -1.3584473e+00
 -1.2319516e+00
 -5.9996235e-01
 -2.7254933e-01
  2.5279727e+00
  6.6613853e-02
  1.8032572e-01
  2.7374184e+00
 -2.4537829e-01
 -8.3790570e-02
 -1.8468435e-01
  2.3971164e-01
  1.7216315e+00
 -3.8841164e-01
  2.3357964e+00
 -5.5970576e-02
  3.0486268e-01
 -4.6674013e-01
  1.3576858e+00
  5.5673075e-01
  1.7078710e+00
 -1.2804076e-01
 -6.2614340e-01
  6.2879872e-01
  5.4347492e-03
  1.1451415e+00
  1.7581742e+00
 -3.1774744e-01
  1.2704930e+00
 -3.9399502e+00
 -1.5500739e+00
  1.3806033e+00
  2.0358407e+00
 -2.1197303e-01
 -2.4164965e+00
  4.4082918e+00
 -7.2447604e-01
 -5.8724391e-01
  3.6630428e-01
 -5.5825663e-01
  3.6308241e-01
  1.1268219e-01
  1.7935610e+00
 -2.8625865e+00
 -4.3093121e-01
 -1.7931384e+00
 -2.3773612e-02
  3.4896088e-01
 -9.1344520e-02
  3.1441861e-01
 -4.5510331e-01
  1.5906820e-01
 -3.3839408e-01
 -1.3372797e+00
 -1.6655563e+00
 -5.6892926e-01
 -8.5618630e-02
 -4.3697697e-01
 -1.2488148e+00
 -1.5700583e+00
 -1.7475240e+00
 -8.7598991e-01
 -1.5489314e-01
  5.4888451e-01
  1.8938482e-01
 -2.8238342e+00
  1.1466330e-01
 -7.2738566e-03
  8.1703025e-01
 -2.4091633e-01
  3.4578182e-02
 -1.2136853e-01
 -5.2275610e-01
  2.5374514e-01
 -1.7740768e-01
  1.3052233e+00
  8.7711948e-01
  1.5296406e+00
 -1.1408918e-01
 -9.5724100e-01
 -1.0132418e+00
  6.4987731e-01
  5.2478766e-01
  2.6488808e-01
 -5.4809272e-01
 -2.5702868e+00
  1.6656402e+00
  1.5688660e+00
 -7.5283319e-01
  1.6824921e+00
 -2.1284863e-01
  2.0821550e+00
  1.6832024e-01
  2.1739694e-01
 -2.5521728e-01
  3.2952306e-01
 -1.3886648e+00
 -3.1705629e-03
  8.1269836e-01
 -1.2457298e+00
  8.0452424e-01
  2.9333332e+00
  2.2628305e+00
 -7.0712233e-01
 -1.0061146e+00
 -1.2846181e-01
  9.2741370e-01
 -8.6242169e-01
 -1.2086438e+00
  3.5239974e-01
  8.4845597e-01
 -5.8751374e-02
  1.0537409e+00
  2.0180228e+00
  4.3207154e-01
 -1.1088037e+00
  3.4731388e-02
 -1.8440902e+00
  8.4303027e-01
 -5.6237233e-01
 -9.9207366e-01
  9.9425399e-01
 -5.5617094e-01
  5.8700836e-01
  5.9588056e-02
 -1.5738087e+00
  1.3857867e+00
 -5.9634531e-01
 -2.4281600e-01
 -4.7625083e-02
 -1.3136848e+00
  1.1323875e+00
  2.3351852e-02
  4.0213728e+00
 -2.7889895e-01
 -5.2751843e-02
  5.8990985e-01
 -1.3766629e-01
 -1.1130111e+00
 -1.9733159e-01
 -1.2782673e+00
  4.4917867e-02
 -9.3707552e+00
  5.9868479e-01
  8.1795715e-02
 -5.0165737e-01
  3.3098772e-01
  2.4109444e-01
 -1.0350227e-01
  1.1279647e+00
 -1.7438449e-01
 -1.0029637e+00
  1.0333195e+00
  3.9009333e-01
 -9.3746036e-01
  1.0868157e+00
 -1.8714571e-01
 -3.7079421e-01
  4.7765481e-01
 -1.8873664e-02
 -2.0618264e-01
  1.6421869e+00
  3.2223560e-02
 -2.4744223e-01
 -3.0342755e-01
  9.7294426e-01
  1.3258132e+00
 -6.8356538e-01
 -2.2440463e-01
  7.6707810e-01
  3.3787522e-01
  2.7210441e-01
  4.4624108e-01
 -3.7350762e+00
  2.4819091e-01
 -6.0548407e-01
  1.0673823e-01
  3.5543784e-01
  1.3448468e-01
 -4.8333436e-02
 -2.2594488e-01
  1.4454392e+00
  2.6867637e-01
 -5.6044829e-01
  3.5140690e-01
  4.6788234e-01
 -2.7307120e-01
  2.1821666e+00
 -1.1809882e+00
  8.2973152e-01
 -7.1316040e-01
  2.6808396e-01
 -2.5077608e-01
  3.1809801e-01
  2.0165153e+00
  1.2502350e+00
 -8.1845254e-01
 -6.5918773e-01
 -4.5120502e-01
  9.1675836e-01
 -9.9799109e-01
 -5.0824422e-01
 -9.2878252e-01
  2.5483724e-01
 -2.6942189e+00
 -8.8931739e-01
  8.6943567e-01
  3.6536342e-01
  2.4870615e+00
  3.7615955e-01
 -2.2461064e+00
 -2.2033837e-01
  1.6910036e+00
  1.2155501e+00
  1.9152656e-01
 -7.3172170e-01
 -4.8055214e-01
  6.6200095e-01
  8.4875655e-01
  8.7774450e-01
 -9.5649058e-01
  3.4201014e-01
 -2.5763025e+00
 -6.2154835e-01
  8.0713445e-01
  3.0413875e-01
 -1.6488930e+00
  1.9841376e-01
  6.1209822e+00
 -8.7356436e-01
  5.5055666e-01
  1.9028178e-01
 -4.6457994e-01
 -4.7015703e-01
  2.1834381e+00
 -2.9655573e+00
  2.2902811e-01
  9.8235998e-04
  2.6392021e+00
  5.1756840e+00
 -8.6000097e-01
  1.3256499e+00
 -6.6055459e-01
 -9.9073398e-01
  1.9401240e+00
  1.7062303e+00
 -5.9948504e-01
  1.9507118e-01
  3.4485957e-01
  1.4729214e-01
 -3.0958138e+00
  2.1146053e-02
  3.8490936e-01
 -4.6340767e-01
 -1.3205110e-01
 -3.8250946e-02
  7.2408217e-01
 -4.2196751e-01
 -4.7011775e-01
  9.5748141e-02
  2.7190495e-01
  1.0556653e-01
 -3.7965221e+00
  9.3044084e-01
  2.6520665e+00
  3.1386176e-01
  6.7322820e-01
 -6.3928252e-01
 -1.1549206e-01
  1.2454996e+00
 -1.1175559e-01
 -1.3864495e-01
  2.6656065e+00
 -2.3858845e+00
  1.7453466e-01
  2.0128600e-02
 -6.2784070e-01
 -2.4488006e+00
 -1.4107097e+00
 -1.3151633e+00
  9.9352419e-01
  1.7615081e+00
  1.2713245e+00
  7.1754366e-01
  7.5353116e-02
  4.3829110e-01
 -1.4039584e+00
 -1.0267763e+00
  2.3201432e+00
 -1.0587161e-01
  5.9571777e-02
  1.3524288e+00
 -1.4061518e+00
 -2.8016629e+00
 -3.7852889e-01
 -1.4663826e+00
 -8.1361336e-01
  2.9605999e+00
 -1.3855613e+00
  8.1649071e-01
  1.4082566e+00
 -5.8128927e-03
  9.4486779e-01
 -1.9408169e-01
 -6.8196291e-01
 -2.9438180e-01
  7.3183006e-01
 -9.8372501e-01
  2.4093168e+00
 -1.1093564e+00
  3.6441377e-01
  5.3787851e-01
  4.9764240e-01
 -1.2119696e+00
 -6.9707453e-01
 -1.3604873e-01
  4.8096299e-01
 -8.7084579e-01
  5.4232633e-01
  9.5045435e-01
  7.6680028e-01
  1.4378779e-01
 -3.0504549e-01
 -9.3579602e-01
 -1.8404454e-01
 -2.0085456e+00
  3.2036343e+00
  1.0113798e+00
  1.2479089e+00
 -7.7508891e-01
 -1.1914047e-01
  9.0977734e-01
 -2.1223896e+00
 -3.6468235e-01
  1.1228009e+00
  8.7043875e-01
  5.1338154e-01
  1.8587980e+00
 -6.1194545e-01
 -1.2394531e+00
 -1.9810102e+00
 -7.4030763e-01
  7.3330128e-01
  1.1230907e+00
  1.1449987e+00
  1.2408807e+00
 -2.0278234e+00
 -2.2673759e+00
  6.2851131e-01
  5.7866015e+00
  3.4899640e-01
  1.6230083e-01
 -2.2199705e-01
  7.9025930e-01
  1.3799775e+00
 -2.9053662e+00
 -1.8525146e-01
 -3.8053152e-01
 -8.8759685e-01
  3.7232268e-01
 -1.1778754e-01
 -2.0794683e+00
 -2.3736765e+00
 -1.0707798e+00
  2.2995195e-01
 -3.4231108e-01
  2.9567292e-01
 -1.8887104e+00
 -7.0318472e-01
 -8.0840483e-02
  2.3027344e+00
 -4.8896679e-01
 -2.2433469e+00
 -1.9045062e+00
 -4.1583252e-01
  8.1012118e-01
 -7.3179573e-01
  1.0954300e+00
  3.1924528e-01
  4.2343974e-01
  1.4731032e+00
  4.9534902e-01
  3.0216706e-01
  4.9609932e-01
  7.3901409e-01
  3.2494706e-01
 -2.9442945e-01
 -2.0480225e+00
 -3.1844863e-01
  2.3309599e-01
 -3.6291835e+00
  6.7508411e-01
 -2.3245020e+00
 -9.7425210e-01
 -6.4321861e-02
  8.4960294e-01
 -4.1175979e-01
 -1.8145932e+00
 -2.7101308e-01
  1.5229645e+00
 -2.0662904e-01
 -5.7305837e-01
 -1.4176528e+00
  5.5465557e-02
 -8.3900809e-01
 -2.3960178e-01
 -9.6582174e-01
 -1.6666248e-01
 -4.0483859e-01
 -7.1608201e-03
 -2.6569160e-02
  4.2867422e-01
 -2.6180309e-01
  2.0885396e+00
 -3.0551794e+00
  7.8324723e-01
  6.0982567e-01
 -8.8394973e-03
  7.0590138e-02
 -1.3725689e-01
  7.2681880e-01
  5.9267157e-01
  9.3200010e-01
 -6.5921858e-02
  1.0367346e-01
  2.2007975e-01
 -1.8402289e+00
  1.7214874e+00
 -8.1155825e-01
  1.5615967e-01
  8.4512092e-02
 -9.9233776e-01
  1.2961769e-01
  1.3594565e+00
  1.0463630e+00
 -1.1389824e-01
 -2.7653128e-01
  4.1368896e-01
  1.6370541e+00
 -2.1216048e-01
 -8.6199683e-01
  4.7054434e-01
 -2.8414459e+00
 -2.7812678e-01
  4.1294163e-01
  1.2036957e-01
 -3.0293587e-01
 -1.4099358e+00
 -1.1521965e+00
  2.7285528e-01
 -6.3652754e-01
  9.0671897e-01
 -1.4578898e-01
  3.2200903e-01
 -1.6479707e-01
  1.9058114e-01
  2.5546968e+00
 -1.1439512e+00
  1.0151052e-01
  2.1126807e-01
  3.5580730e+00
  9.6641921e-02
  1.2576196e+00
 -3.2180795e-01
  1.2288616e+00
 -1.7238265e-01
 -1.6971813e+00
 -2.9801798e+00
 -4.6690349e-02
 -1.4326272e+00
  1.5544702e-01
  3.1875914e-01
 -1.1686631e-01
 -3.0794766e+00
 -2.6802464e+00
 -1.9344772e-01
  2.7726004e+00
 -7.2622848e-01
  1.8876390e+00
  1.2343383e+00
 -8.9649969e-01
 -2.1667845e+00
  3.7162963e-01
 -2.6157415e-01
  1.2606976e+00
  7.3420584e-01
 -1.3093742e+00
  2.7286664e-01
 -1.1117584e+00
  1.2567320e+00
 -1.9050528e-01
  7.3162013e-01
  7.1436286e-02
 -6.9135910e-01
 -2.4062629e+00
 -2.7771875e-02
 -2.3656409e+00
 -1.0300227e-01
  5.5294198e-01
  5.5830628e-01
 -6.7072248e-01
 -6.8879390e-01
  6.6228010e-02
  1.1045190e+00
  1.3376265e+00
  1.2450289e-01
 -3.2983133e-01
 -1.5866611e+00
  2.6204278e+00
 -1.2971337e+00
  4.3854675e-01
 -1.1204885e-02
 -1.9185725e-01
  1.3825023e+00
 -1.5473775e+00
  2.4904770e-01
  2.2843840e-02
 -1.1554809e+00
  1.3869424e+00
 -2.2334630e+00
 -1.6932007e-02
 -2.3232242e-02
  9.3056065e-01
  4.6814471e-02
  8.4005445e-02
  3.6616927e-01
  9.9877220e-01
 -6.0519586e+00
  1.6560768e+00
 -1.6918501e+00
  5.7864201e-01
 -3.7905583e-01
  9.1144943e-01
 -3.0980250e-01
  9.6887118e-01
  1.0713785e+00
  1.5878470e+00
  1.7042949e+00
 -2.4909721e-01
 -3.3076563e-01
  1.8003789e-01
  1.2344385e+00
  1.0603930e+00
  3.8388500e+00
  8.0301505e-01
  9.8219383e-01
  7.4753207e-01
 -7.7859062e-01
 -6.9251579e-01
 -4.2690343e-01
  1.1054497e-01
  1.1138148e-01
 -9.1191798e-02
  2.3526525e+00
  5.8758110e-01
  2.5433109e+00
  2.1233478e-01
  9.0135328e-02
 -1.0181538e+00
  1.3367448e+00
 -3.8853731e-02
  7.0643884e-01
 -6.2603675e-02
  4.8934229e-02
 -1.4166346e-01
 -1.4244995e+00
 -6.1217785e-01
 -1.9315274e-01
 -1.6104779e-01
  1.7282221e+00
 -2.7684820e-01
 -1.0291295e-01
  1.4148505e-01
 -1.0773236e+00
 -6.4161256e-02
  9.6282492e+00
  9.2141807e-01
  3.2379985e-01
  1.1669816e+00
  3.5234368e-01
  1.1480348e+00
  1.1801795e+00
 -1.0365850e+00
  3.7930980e-01
 -1.3079306e+00
  1.6385000e+00
  1.3532628e+00
  4.4007850e-01
  1.1299778e-01
  1.9959728e-01
  8.5115932e-02
 -7.6210029e-02
  2.0327108e+00
  1.4324720e-01
  9.6316174e-02
  3.4320292e-01
  1.3292636e+00
 -3.3500871e-01
  9.6724063e-02
 -1.5200379e+00
 -4.3619117e-01
  5.2383397e-02
  3.5664204e-01
  1.3526584e+00
  2.3578188e+00
 -1.0452732e+00
 -7.2004125e-02
  1.3263663e+00
 -8.1527632e-01
  1.4566382e+00
 -2.1527581e-01
  4.8979226e-02
 -1.0131637e+00
  1.2362230e-02
  5.5354989e-01
  1.3212378e+00
 -1.3812599e+00
  1.8199449e+00
 -1.1755821e+00
  7.3665857e-01
  2.0286262e-01
 -4.5054257e-01
  1.4300535e+00
  1.8216236e-01
 -2.2480498e-01
  8.9706808e-01
 -8.3076489e-01
 -1.1674262e+00
 -7.1592706e-01
  5.3757936e-01
 -1.5154036e+00
  6.1412954e-01
  9.5995539e-01
 -3.0712273e+00
  6.5006024e-01
  9.0050116e-02
 -2.0523651e+00
 -1.8820343e+00
  5.9436234e-03
  1.7386559e+00
  4.1017982e-01
  8.7634218e-01
  4.4501882e+00
  1.4361157e+00
  4.0578845e-01
 -8.7580934e-02
  3.9388782e-01
  8.4539288e-01
 -3.0118680e-01
  1.5925723e+00
  1.6844698e+00
  2.1939519e-01
  1.9809881e-02
 -1.8835734e+00
  6.3420844e-01
 -6.6361135e-01
  2.7582855e+00
  4.8690769e-01
 -1.4782269e+00
  1.1070106e+00
 -1.4906245e+00
  1.1274469e-01
  5.9099412e-01
  6.8419415e-01
  8.8667053e-01
  1.1726123e-01
 -1.5016197e+00
  7.0829594e-01
  4.9178757e-02
  5.3628051e-01
 -1.9962140e+00
  6.6809410e-01
 -3.5753304e-01
 -1.3906046e+00
 -3.1922097e+00
  1.0802735e+00
  9.5569439e-02
 -1.7679033e+00
 -1.0310320e-01
 -4.6469414e-01
  1.6886647e+00
 -1.1294547e+00
 -2.5084836e+00
  1.4526813e+00
  5.4210052e-02
  4.9594042e-01
 -1.4974023e+00
  6.1394644e-01
 -1.3690100e+00
 -4.7168899e+00
  2.2865856e+00
  9.5235752e-03
 -4.6103746e-01
 -3.5802841e-01
 -1.9087999e+00
 -5.1501465e+00
  8.0538809e-01
  1.7565566e-01
 -7.2604932e-02
  2.0157897e-01
  5.0051868e-01
  7.7872515e-01
 -3.0055624e-01
  1.0796456e-01
 -1.2680782e+00
 -1.8681110e+00
  5.4701453e-01
  1.5375812e-01
  4.2761415e-01
 -2.8083631e-01
  9.8690760e-01
  1.4447632e+00
 -7.3488277e-01
 -2.0887485e+00
  1.6947665e+00
 -1.1441071e+00
  2.7396917e-01
 -2.1169915e+00
 -1.7943035e+00
 -1.5641034e+00
  1.9926538e+00
  1.0667187e+00
  2.9759309e-01
  4.2422450e-01
  7.4222994e-01
 -2.5090306e+00
 -1.9982034e-02
  2.0861652e+00
 -2.9372232e-02
  5.6239867e-01
 -8.3551753e-01
  1.0391558e+00
 -7.2943467e-01
  3.0682999e-01
 -4.6914134e+00
 -1.6188164e+00
 -1.2941549e+00
  1.5361273e+00
 -6.6544724e-01
  5.1343966e-01
  4.1961467e-01
  2.0169199e-01
  7.2231567e-01
  2.3413641e+00
  2.0868139e-01
 -1.4134558e-01
  2.2524700e+00
 -6.8924702e-03
  3.2513914e+00
 -1.5915067e+00
 -2.5866953e-01
 -9.2521232e-01
  1.4193525e+00
  8.6747363e-02
  1.5381593e+00
 -7.2317280e-02
  1.6493633e+00
 -2.9451213e+00
  9.5445216e-01
 -1.4423405e+00
 -1.4071463e-01
 -7.4235708e-03
  9.2372380e-02
  3.4888291e+00
 -4.1625226e-01
 -1.5760657e-01
 -3.5011277e+00
 -4.0869679e+00
 -7.9003215e-01
  2.6262873e-01
  6.1218882e-01
  2.8252181e-01
 -2.1237493e+00
  4.1486791e-01
 -1.7235036e-01
 -5.3236514e-01
 -8.0629252e-02
  2.9896313e-01
  2.5090261e+00
  6.3541234e-01
  2.8757778e-01
 -6.8713403e-01
  1.4267129e+00
 -8.9996643e-02
  1.4133179e+00
 -1.8661315e+00
 -4.8166379e-01
 -2.6850671e-01
  2.7390604e+00
 -3.1454948e-01
 -1.0143077e+00
  1.5040208e+00
 -1.6465412e+00
  4.3018371e-02
 -2.8645280e-01
  6.3350320e-01
 -1.4941628e-01
  3.1186095e-01
  9.3567424e-02
  8.6121148e-01
  2.0019672e+00
  1.5196021e+00
 -1.8056916e-01
 -3.5910146e+00
 -2.5648921e+00
  1.0392904e+00
 -8.8624299e-02
 -5.0788198e-02
 -1.4724050e+00
 -7.7599949e-01
 -1.9948987e+00
 -2.3337922e+00
  1.6501211e-01
  3.3531070e+00
 -8.5716081e-01
  4.2896688e-01
  1.1159333e+00
 -3.0081010e+00
  1.3395762e-01
  5.0657630e-01
  3.2345438e-01
  7.1299821e-01
  3.4181604e-01
 -1.5705285e+00
 -2.6725082e+00
 -3.7024760e-01
  1.0812114e+00
  2.4068587e-01
 -1.0563523e+00
 -3.8206711e+00
 -1.3440762e+00
  1.9907104e+00
  3.1450024e+00
 -6.0227227e-01
 -8.5904968e-01
  8.2489711e-01
  1.0515787e-01
 -7.1943104e-01
  6.4742666e-01
 -4.4949493e-01
 -5.6735659e+00
 -1.7001957e+00
  1.4990425e-01
  1.0215204e-01
 -1.0404127e+00
  1.7934121e+00
 -2.5440962e+00
  2.9222171e+00
  4.6380332e-01
  6.5080088e-01
  2.7276662e-01
  3.1248391e+00
 -1.2856642e+00
 -2.2747643e+00
  6.6359520e-01
 -7.4485987e-02
 -8.3599257e-01
 -3.1785861e-01
 -1.4823886e+00
  1.2065138e+00
 -4.7632724e-01
  2.2002101e-01
  1.8334906e+00
  6.5160356e-03
  1.6143061e+00
  8.7123203e-01
  3.6711023e+00
 -2.5477695e-01
 -2.9974738e-01
 -4.7064683e-01
 -4.0297174e+00
 -5.6438518e-01
  1.1854614e+00
 -1.6408615e+00
 -8.9365137e-01
 -1.7673374e+00
 -4.3363900e+00
  1.0260808e+00
 -5.1680404e-01
  1.6813992e+00
 -8.5117984e-01
 -5.5422068e-01
 -5.8453119e-01
  1.6438477e+00
 -1.3048104e+00
 -7.4495173e-01
 -9.6068239e-01
  1.8982296e+00
  1.7287828e+00
 -6.8439566e-02
  6.8127096e-01
  2.5879970e+00
 -1.1563922e+00
 -2.4866444e-01
  6.1012393e-01
  7.4441358e-02
 -4.1889629e+00
  7.9936230e-01
  3.4455195e-01
  4.4850033e-02
  1.6248336e-01
  1.2699916e+00
  5.0531983e-02
 -2.2582121e-01
 -9.5203722e-01
  4.7502785e+00
  3.0439355e+00
  9.2562869e-02
  4.4378396e-03
  8.4119684e-01
  1.8388605e+00
 -2.8336398e-02
  1.8122277e+00
  8.1599325e-01
 -3.0629638e-01
 -1.1876062e-01
  4.4344425e-01
  7.4935740e-01
  4.6623878e-02
  4.6468496e-02
 -2.8738776e-01
 -5.5444050e-01
 -1.3561374e+00
 -7.5801474e-01
 -2.3774180e+00
 -1.6990529e+00
  2.5175232e-01
 -8.5124016e-02
 -1.8169465e+00
  1.2043305e-01
 -9.5423496e-01
 -4.9896967e-01
  2.7137434e-01
  4.5300350e-01
  2.3279178e-01
 -1.2057674e+00
 -3.4940398e-01
 -8.4960693e-01
 -2.2181372e-01
 -1.4708918e-01
 -9.6931112e-01
 -1.7400336e-01
  2.3977566e-01
 -3.3729145e-01
 -1.2897905e+00
 -1.3866684e-01
 -4.0974057e-01
  1.1466597e+00
 -1.4106002e+00
 -5.5803078e-01
  7.7594370e-03
 -3.9233351e-01
 -2.3661649e-01
  2.3918678e-01
  2.6810403e+00
  1.2874792e+00
 -2.1153688e-01
 -4.6855491e-01
 -5.9943640e-01
 -1.6889213e+00
 -1.3823447e+00
 -2.1431170e-01
  4.4114656e+00
 -2.1808818e-01
 -3.9387429e+00
  3.8913574e+00
  2.7513435e-01
 -2.4570649e+00
  9.8106730e-01
 -1.3907650e-01
 -1.4563315e+00
  1.2419415e-01
  3.2923598e+00
 -1.4298993e+00
  4.3539429e+00
  3.4154487e+00
 -1.8669959e+00
 -4.4222072e-01
  3.1236861e+00
 -2.5640637e-01
 -5.1385301e-01
  1.0008789e+00
  3.2516708e+00
 -2.0222920e-01
  3.3029243e-01
  1.8040127e+00
  6.5931761e-01
  3.4006420e-01
 -3.7637100e-01
 -3.4104390e+00
 -7.0902151e-01
 -2.7787111e+00
  5.7868040e-01
  2.4002606e-01
  2.6293957e+00
 -1.5528531e+00
  1.5447824e+00
  7.2826609e-02
 -4.0578586e-01
  6.2627280e-01
  8.3770818e-01
 -2.0342221e+00
 -1.4520639e-01
 -1.8805176e+00
  2.5999286e+00
  4.2644677e-01
 -4.0145722e-01
  3.6462584e-01
  1.3099355e+00
  1.5991429e+00
 -1.4640422e+00
  1.0313704e+00
  2.9502590e+00
 -5.3150910e-01
 -7.4125946e-01
 -8.4982568e-01
  4.2353615e-01
 -2.4398334e+00
 -5.8466554e-01
 -2.6128230e+00
  2.1439497e+00
  7.1173489e-01
  6.3586098e-01
 -3.6206147e-01
 -1.3177918e-01
  5.9048533e-01
 -2.8671116e-01
 -1.0958985e+00
  2.2906387e-01
  1.1762893e+00
  6.6733617e-01
 -4.2624250e-02
  1.6141379e+00
 -1.4299021e+00
  1.8130516e-01
 -2.3234453e+00
  1.4537419e+00
 -1.1469631e+00
 -1.8344417e+00
  6.3744193e-01
  2.0517988e+00
 -5.6372458e-01
 -1.8704525e-01
 -5.3551668e-01
  9.1628838e-01
  1.9847211e-01
  5.6470364e-01
  7.5065628e-02
  7.3008907e-01
 -1.6450450e-01
 -9.7488654e-01
  1.5568920e+00
 -1.4739313e+00
 -6.9953710e-01
  5.4709709e-01
  3.0380814e+00
  1.4004112e+00
 -6.8834436e-01
  5.9175942e-02
  3.2728126e+00
 -1.0595050e-01
  3.5228398e-01
  2.5016899e+00
  2.4906383e-01
  5.0619677e-02
 -1.1788584e+00
 -1.3717990e+00
 -5.8103740e-01
 -6.7157316e-01
  1.7869794e+00
  1.5281470e+00
 -1.3227898e-01
  2.1142046e+00
 -5.4852843e-01
  1.3860633e+00
  3.7740785e-01
 -6.6824675e-01
  1.2684311e+00
  1.8095171e+00
  3.4130895e-01
 -6.7122400e-02
  2.5891278e+00
 -2.2520204e-01
  2.0434434e+00
  2.8478605e-01
 -1.2979118e+00
 -1.0371337e+00
 -1.6373757e-01
  1.0915608e+00
 -6.7126006e-01
  6.6521567e-01
  6.6803491e-01
  2.2442617e-01
  6.0903037e-01
 -8.0338752e-01
 -1.7655588e+00
  7.6330349e-02
 -4.5748672e-01
 -5.1176929e-01
 -1.3069230e+00
 -4.4549141e+00
 -4.4855613e-02
  1.0006302e-01
 -1.5217707e-01
  9.2662311e-01
 -1.0364631e+00
 -1.3122424e+00
  4.0038657e+00
  2.0664766e+00
  3.2290751e-01
  2.7238765e-01
  9.5517153e-01
  9.5023477e-01
 -6.1179656e-01
  3.8378253e+00
  9.6370421e-02
 -5.3385365e-01
  2.5448841e-01
  2.0233305e+00
 -1.0072858e+00
  1.7823104e+00
  2.7487195e+00
  1.6885175e-01
 -1.4916091e+00
 -7.6443148e-01
  2.4556288e-01
  1.7553555e+00
 -1.9106092e-01
 -1.2921341e-01
  1.5286756e+00
 -1.4900876e+00
  7.5585723e-01
 -6.4136249e-01
 -8.0087382e-01
 -3.3633962e-02
 -1.0986453e+00
 -1.8388924e-01
  8.3867496e-01
  1.1345714e+00
 -4.4603533e-01
 -1.1284159e+00
  9.9471992e-01
  8.1745034e-01
 -7.0889366e-01
 -1.2728608e-01
 -4.7675845e-01
  1.2319411e-01
 -1.1138897e-01
  3.8649002e-01
 -4.9224079e-02
  1.9075069e-01
  1.7905535e+00
 -6.6269836e-03
 -9.7970009e-02
  1.3600267e+00
  7.2716884e-02
 -6.1937654e-01
  8.0805711e-02
  2.1750629e-01
  1.2758707e+00
 -2.4188481e-01
 -1.2006299e+00
  4.5550087e-01
  3.0303395e-01
 -1.6625468e+00
 -5.4708939e+00
 -9.4675732e-01
 -1.5968481e+00
  1.2228194e+00
 -2.8109583e-01
 -9.6303284e-01
  3.7139624e-01
  1.7087172e+00
  5.2023810e-01
  2.0775671e-01
  5.1105696e-01
  5.2725571e-01
  8.8606966e-01
 -4.2874500e-01
  2.1351552e+00
 -7.8843844e-01
  6.9108373e-01
  4.3913910e-01
  6.1636978e-01
  6.4237243e-01
  8.8232988e-01
  4.9412233e-01
  4.4115591e-01
  1.7958720e-01
 -6.4194518e-01
  2.0017190e-01
  8.5171616e-01
 -4.9808112e-01
  2.4066098e-01
  6.9034535e-01
  1.4380863e-01
 -7.7387321e-01
  1.1831652e-01
 -2.2945800e-01
 -1.0715900e-01
  3.0811857e-02
 -1.6252147e-01
  4.4215977e-01
  1.8607441e+00
 -1.5454972e-01
 -1.9109993e+00
  6.1264209e-02
 -3.9546818e-02
  1.0568994e+00
 -1.0736469e+00
 -7.6943532e-02
  1.7096287e-01
 -4.2457190e-01
  1.3896972e-01
  9.5782161e-01
 -1.1630703e+00
 -1.4751563e-02
 -8.2456100e-01
  1.3954170e+00
  6.9196057e-01
  2.1462603e+00
 -4.9164914e-02
  3.9888442e-01
 -1.8513504e-01
  2.9942232e-01
 -5.6215227e-02
  1.5413157e+00
  1.2032822e+00
 -7.1090204e-01
  1.5871190e-02
  6.5448457e-01
  4.0398118e-01
 -6.1573142e-01
  4.4073954e-01
  1.8677347e+00
  2.7251378e-01
 -9.0336388e-01
  1.2549940e-01
 -9.1971025e-02
 -1.3382053e+00
  4.6874709e-02
  6.6271737e-02
 -1.6310231e-01
  4.5210689e-01
  1.9759046e+00
  4.4090342e-02
 -1.2534516e+00
 -1.9158228e-01
 -3.1592432e-01
 -1.9515303e+00
 -2.8567843e-02
 -8.7811595e-01
  4.6816489e-01
  1.1101798e+00
  8.9784819e-01
  5.2056724e-01
  8.9033002e-01
  8.6176640e-01
  3.0131716e-01
 -1.6899557e+00
 -1.6105448e+00
 -1.0521113e+00
 -2.4126998e-01
 -2.4781862e-01
  7.3430634e-01
 -4.9916238e-01
  8.5684192e-01
  2.4955704e+00
 -9.7485411e-01
 -3.0121544e-01
  5.6124175e-01
 -1.4416246e-01
 -4.7248337e-01
  9.7360715e-02
 -1.0616347e+00
  9.4446993e-01
 -2.0700692e-01
  6.0454440e-01
 -1.0514888e+00
  4.8260984e-01
 -1.2714913e+00
  6.0708863e-01
  2.6129961e+00
  7.3628348e-01
  2.1189644e+00
 -1.1836619e-01
 -4.0648380e-01
  6.1728275e-01
  2.2140291e+00
 -1.1644566e+00
 -3.8221514e-01
  1.0283591e+00
 -2.0131981e+00
 -4.8270524e-02
  3.9767048e-01
 -2.8511366e-01
 -4.0630800e-01
 -5.4883295e-01
  2.0892370e-01
 -1.1461393e-01
  5.0849479e-01
 -1.9747332e-01
 -2.3233824e+00
  8.9360988e-01
  1.3681191e-01
  1.1946875e+00
 -5.5779886e-02
 -2.6328480e-01
 -8.8441366e-01
 -2.0020688e+00
  1.1008768e+00
  9.6940696e-01
  1.9954033e+00
  3.4608305e-01
 -1.3447355e+00
  2.3251162e+00
  2.5990931e-02
  4.7861418e-01
 -4.3828972e-02
 -2.3626602e+00
 -6.6240704e-01
  4.8920780e-01
  2.2769229e+00
 -1.9000454e-01
 -1.6105238e-01
  1.3724172e+00
  7.4769318e-01
 -4.3493724e-01
 -1.7884368e-01
  2.0768194e+00
 -1.0293900e+00
  1.3654710e+00
 -1.0726471e-01
 -1.2170374e+00
  3.8639274e-01
 -1.7379553e+00
 -8.1690282e-01
  7.2686899e-01
 -1.4818528e+00
 -6.4630389e-02
 -3.9179593e-01
 -5.0510969e-02
  6.4797258e-01
 -4.7159475e-01
  5.7084280e-01
 -7.6511389e-01
  4.8155569e-02
  1.4818857e+00
 -2.2111042e-01
  3.8794527e+00
 -9.1980702e-01
  9.0586662e-01
  1.3777597e+00
 -2.4938032e-01
  8.3027166e-01
 -1.2952288e+00
 -2.2936890e+00
  2.0717582e-01
  1.0112913e-01
 -5.7138753e-01
 -1.4112827e-01
  8.1318581e-01
  9.9966282e-01
  9.0823573e-01
  2.2831503e-01
  5.2270639e-01
  9.3949693e-01
 -1.3758206e+00
 -4.6697703e-01
  7.0399985e-02
  2.0205338e+00
  1.6645013e-01
  1.8995188e-01
 -1.2757847e-01
 -1.4899518e-01
 -1.6590260e+00
  3.4802502e-01
  1.8424609e+00
 -3.8585398e-02
  1.1176219e+00
 -2.0303555e+00
 -8.9509225e-01
 -2.9645379e+00
 -1.2918382e+00
 -1.0340502e+00
  9.6424550e-02
  4.3895341e-02
 -2.6104753e+00
 -4.0491876e-01
  2.6005669e+00
 -1.2336590e+00
 -3.1323889e-01
  9.5271498e-01
 -1.3757479e+00
 -2.8687635e-01
 -2.1872621e+00
  9.4150180e-01
  1.2873790e-01
 -9.7405022e-01
  4.1313466e-01
  9.0977144e-01
 -3.2919142e-01
  1.0089964e+00
 -1.9016086e+00
  1.8124455e-01
  1.4895245e+00
  6.3394940e-01
  1.4503652e+00
 -5.8636928e-01
 -8.9153513e-02
 -7.2891191e-02
 -9.0224946e-01
  5.2691031e-01
  3.1920949e-01
  1.1128659e+00
  3.0798552e+00
  2.5203757e+00
 -7.7012527e-01
 -8.2518858e-01
  3.5391781e-01
  1.0085129e-01
  1.5807362e+00
  6.2378949e-01
  1.4943043e+00
  1.4868811e+00
  1.5016426e-01
  4.4837654e-01
  6.4667374e-01
 -3.3453593e+00
 -1.5806749e+00
  4.0348115e+00
  2.7731499e-01
 -3.4525773e-01
 -1.3619832e+00
  5.0222147e-02
 -2.8340447e-01
 -7.2236344e-02
 -4.2123011e-01
 -1.4302461e+00
 -1.7134972e+00
  3.1377766e-01
 -1.4441290e+00
  6.4127862e-01
  1.3516413e-01
 -3.5054510e+00
 -6.4870089e-01
 -3.0406487e-01
 -9.2720824e-01
 -3.4775054e-01
  4.5011491e-01
 -1.0436871e+00
 -4.3203941e-01
  1.8313137e+00
 -1.1748005e+00
 -4.3759382e-01
  8.9212799e-01
 -1.7810838e+00
  1.4875925e-01
  3.4644696e-01
  6.1116481e-01
 -8.6670178e-01
 -4.9387112e+00
  1.7481852e+00
  1.2256533e+00
  2.0563300e+00
  2.0691210e-01
  2.8047830e-01
 -4.7767097e-01
 -1.5923308e-01
 -1.8339097e+00
  4.2300187e-02
  2.2157702e+00
  9.2982811e-01
  5.8561814e-01
  3.3368456e-01
  8.6739558e-01
  2.9782221e+00
  3.5599995e+00
  3.6402565e-01
  4.5005564e-02
  5.5552834e-01
 -1.5582970e+00
 -8.5850820e-02
 -1.0120566e-01
 -1.6686423e+00
 -3.3303186e-01
 -1.3680812e+00
 -9.0478700e-01
  1.9754982e+00
 -8.6166698e-01
 -8.5022730e-01
 -1.1900694e+00
  2.4729535e-01
  8.5621572e-01
  5.5450723e-02
 -2.3512585e-01
  5.6730378e-01
  7.4342597e-01
 -1.5147226e-01
 -9.5646179e-01
  8.5981116e-02
 -2.3870966e+00
  5.8599794e-01
 -3.4344482e-01
  7.5708932e-01
  5.3104138e-01
  2.6085433e-01
 -3.5445631e-01
  3.2741064e-01
  1.0325168e-01
  7.6058215e-01
 -1.4650859e+00
  3.9266326e-02
 -1.4298958e+00
 -1.4375308e+00
  1.0330761e-01
 -2.1963813e+00
  3.7149343e-01
 -8.7546849e-01
  1.3695595e+00
 -3.7732791e-02
  8.0105275e-01
 -2.2466645e+00
 -7.6136035e-01
  3.8336903e-01
  1.4601442e+00
 -2.8424153e-01
  8.1458348e-01
  2.1164167e+00
  5.5439737e-02
 -4.1668648e-01
  1.9874446e+00
 -2.4477409e-01
 -3.4556580e-01
 -1.1148305e+00
  2.7731962e+00
  3.3530557e-01
 -9.8838758e-01
  2.6386206e+00
  6.3037574e-01
  2.4628494e+00
 -1.0607521e-01
  3.1511062e-01
 -5.9494364e-01
 -2.4863444e-01
 -6.2020934e-01
  2.4865109e-01
  1.3609067e-01
  7.3473322e-01
  1.6264683e-01
  2.3220243e-01
 -1.6011766e+00
  6.3057125e-01
 -7.4627095e-01
 -6.0774225e-01
 -4.0758128e+00
  1.9355316e-01
 -1.2221669e-01
 -8.5245341e-01
 -1.2179503e-01
 -5.2433503e-01
  6.1942482e-01
 -1.4716628e+00
  4.4460900e-02
 -1.1014662e+00
 -1.9378629e+00
  8.1461716e-01
  1.0369456e-01
  5.0567591e-01
  9.7438669e-01
 -1.0866060e+00
  3.5413966e-01
  3.9198697e-02
  1.5013652e+00
 -3.5549325e-01
 -3.5486653e+00
 -3.8264450e-01
  1.0123634e+00
  5.1744157e-01
 -5.6297499e-01
  1.1445162e+00
  5.0972694e-01
  9.0268925e-02
 -9.8820263e-01
  2.4921564e-02
 -1.3229464e-01
 -3.0103561e-01
  4.2665210e-01
 -3.7830457e-02
  2.1251941e+00
 -4.0854037e-01
 -5.4100561e-01
  2.5915205e-01
 -1.7569598e+00
 -2.5396231e-01
  6.6875201e-01
  9.8344564e-02
 -9.0410514e-03
 -1.9155267e+00
 -4.4846475e-01
  1.4806511e+00
 -1.2125835e-02
 -3.7622228e-01
  1.8582108e+00
 -6.0378492e-01
  4.2879168e-02
 -6.4366853e-01
  3.5677230e-01
 -1.7421763e+00
 -8.5032254e-01
  2.2039917e+00
  2.3594747e-01
 -1.1360218e-01
  3.5634365e-02
 -3.2831329e-01
 -7.9345143e-01
  5.7976475e+00
 -3.6001003e+00
  1.0154037e+00
  9.3248379e-01
 -3.1369999e-01
 -2.8221004e+00
 -5.1685905e-01
  1.3414377e+00
  1.1818010e+00
  1.2110187e+00
 -2.4540241e+00
  6.3866213e-02
  1.1745507e-01
  1.3670827e+00
  1.1878332e+00
 -8.7895936e-01
  2.7889397e+00
  6.2197369e-01
 -5.2403450e-01
 -1.6153157e+00
  7.5758135e-01
 -3.1280750e-03
 -3.8361263e-01
  3.1433299e+00
 -1.1696782e+00
  1.1691899e-01
  8.6296326e-01
 -1.6666913e+00
  1.2270011e+00
  7.7503228e+00
 -1.0759428e+00
  1.4622282e+00
  1.7280586e-01
  1.2041085e+00
 -2.3107630e-01
 -3.2254100e+00
 -7.8654373e-01
  2.7619648e+00
  3.5616655e+00
 -7.3468494e-01
 -4.5508814e+00
  4.3893023e+00
  4.5038533e-01
  2.6911211e-01
 -4.5654121e-01
  6.9121502e-02
 -7.8277701e-01
 -9.7865564e-01
  4.5792010e-01
  7.3249292e-01
 -1.1651090e+00
  5.5484259e-01
 -4.7101672e-03
 -3.5290126e-02
  6.3993491e-02
  1.7545639e+00
 -2.7120432e-01
 -3.3826029e+00
  1.9667904e-01
 -1.2234086e-01
 -1.1886372e-01
  2.6901331e-02
  1.8901198e+00
  5.2988309e-01
 -6.7232686e-01
 -3.7813672e-01
  1.3473769e+00
  6.0464102e-01
 -1.9100329e-01
  1.2334304e+00
  1.0597070e-01
  4.8849189e-01
 -5.6218249e-01
  1.5740414e+00
  5.5090076e-01
  6.1315757e-01
  2.1748541e-01
 -4.1428769e-01
 -2.8821516e-01
  2.4047832e-01
 -2.7287668e-01
  2.6310280e-02
 -1.3847364e+00
 -1.1566855e-02
  2.4771917e+00
  5.5066723e-01
 -2.1823220e-02
  9.0713859e-01
  8.7693912e-01
  1.1695940e-02
 -9.4722919e-02
 -2.4991641e+00
  1.5030077e+00
 -6.2780392e-01
  1.8372332e+00
 -1.6382211e+00
 -1.0034047e-01
  1.7762303e+00
 -4.5080715e-01
  1.3266054e+00
 -1.4467600e-01
 -3.2291934e-03
  1.5927133e-01
  2.3486902e-01
  6.7064241e-02
  2.1252279e+00
 -6.7411000e-01
  3.7743407e-01
  1.3077296e+00
 -2.2042154e-01
  3.7573823e-01
  9.9018252e-01
 -6.5273433e+00
 -2.4265303e-01
  1.7725859e-02
 -5.1463902e-01
 -8.5179901e-01
 -4.8569199e-01
  1.0836303e+00
  1.6570970e-01
 -6.3935500e-01
  1.2378774e+00
 -4.1073349e-01
 -8.7560958e-01
  7.5073373e-01
  5.1319617e-01
 -2.4957025e-01
 -6.6143043e-02
  1.3753000e+00
 -2.9810280e-01
 -3.5268998e-01
 -5.3654861e-01
 -1.6514812e+00
 -1.0390837e+00
 -1.0913560e+00
 -2.0140805e+00
 -2.4183190e-01
  6.7667037e-01
  8.5724425e-01
  1.8514173e+00
  3.1139833e-01
 -1.6454338e+00
 -1.0679393e+00
 -2.8893685e-01
 -3.4498259e-01
  9.3869233e-01
 -2.1817473e-01
  7.3729616e-01
 -2.0081711e-01
 -1.5400599e+00
  7.5519276e-01
 -5.7002002e-01
  2.2093997e+00
  1.2731394e+00
 -4.3449715e-01
 -1.0807663e-01
 -2.9843861e-01
  1.3079603e+00
  1.2046603e-01
  1.5449645e-01
  1.0024190e-01
 -4.4894710e-01
  1.9955540e-01
  4.8998666e-01
  1.1570735e+00
 -4.7310543e-01
  9.9417603e-01
 -4.0015212e-01
 -4.7006264e+00
 -1.2928522e-01
  9.2939538e-01
 -1.2843530e-01
  1.9384539e+00
 -2.2752358e-01
  3.6043274e-01
 -2.0308976e-01
  9.2777759e-02
  8.0682099e-01
 -1.6212422e-01
 -1.9939364e-01
  1.6218004e+00
  5.8363384e-01
  1.0759991e-01
  1.2210940e+00
 -1.0718716e+00
 -1.9298158e+00
  3.5405225e-01
  2.9324111e-01
  6.6755038e-01
  5.3694493e-01
 -2.6753362e-02
 -9.8305857e-01
 -6.4401090e-01
 -1.7611178e+00
  1.3407960e+00
 -9.7420253e-02
 -6.1924613e-01
 -8.4565747e-01
  6.8219610e-02
 -1.3607935e+00
  4.4712746e-01
  4.9883805e-02
  9.4113845e-01
 -9.4000465e-01
 -8.5616171e-01
 -2.7457535e+00
 -7.0347685e-01
  4.2743722e-01
  1.7967975e+00
 -6.2870827e+00
 -3.3216182e-02
 -1.3816488e-02
  1.3548478e+00
 -1.5111576e-01
 -8.7387455e-01
 -2.3127947e+00
  1.4564114e+00
  5.1613498e-01
 -2.7846533e-01
  5.2152704e-02
 -1.8377053e+00
  1.8290784e+00
  2.4362638e+00
  7.8643739e-02
  1.3278793e+00
  2.1252167e-01
  6.3150990e-01
  7.9877967e-01
 -3.4756771e-01
 -9.6872973e-01
 -1.3667981e-01
 -1.3707372e+00
  2.3767965e+00
  4.7345725e-01
  6.0498829e+00
 -2.9161847e+00
 -6.4609334e-02
  6.7463171e-01
 -2.9577560e+00
  7.7344573e-01
  3.9663213e-01
 -9.9618274e-01
  9.2493057e-01
 -9.1989452e-01
  1.9140786e-01
 -5.0001967e-01
  1.7834905e-01
  1.0516659e+00
  7.9576707e-01
  6.9919008e-01
  1.6879793e+00
 -1.3499510e-01
 -3.2805684e-01
 -7.9811364e-02
  1.5232062e+00
 -8.2012737e-01
 -6.5728664e-01
 -6.6350448e-01
 -7.6954514e-01
 -3.9707014e-01
 -1.8383794e+00
 -1.2902473e+00
 -1.6365178e+00
  1.1153963e-01
 -7.5635600e-01
 -1.2148850e+00
 -1.4336729e+00
 -8.6754374e-02
  7.2850335e-01
  5.6020266e-01
  6.2795740e-01
 -7.0627499e-01
 -2.3741791e+00
 -3.9221275e+00
 -1.3312213e+00
  6.9540942e-01
  1.1303309e+00
 -2.7553203e+00
  6.3861430e-02
  3.8431501e-01
  2.9586717e-01
  4.3128562e-01
  8.0570841e-01
 -1.1168672e+00
 -2.7131426e-01
  6.5501779e-01
  6.0897440e-01
 -1.9473979e-01
  1.7092774e+00
  3.6557265e-02
 -1.1624657e+00
 -7.9697639e-01
 -2.6294699e+00
 -2.2795560e+00
 -3.4091514e-01
 -4.8695266e-01
  7.7805229e-02
  4.9933068e-02
 -8.9180994e-01
 -7.0173167e-02
 -3.1963125e-02
  3.8759431e-01
  2.0803075e-01
  8.1303853e-01
 -2.9108569e-01
  1.8462948e+00
 -9.1883683e-01
  3.8012149e+00
 -2.1864176e-01
 -2.2248805e-01
 -1.9908279e+00
  7.8727104e-02
  2.1749035e-02
 -2.8931195e-01
 -1.8179525e+00
 -7.9011962e-02
  5.3101373e-01
  8.1891012e-01
 -2.8159785e-01
  5.0069785e+00
  9.8500401e-02
  6.9537336e-01
  1.0167668e-01
 -6.9662285e-01
  5.1218325e-01
 -6.4876723e-01
 -5.1004636e-01
 -2.5463805e-01
  1.5679112e-01
  1.4615181e-01
  2.5482357e-01
 -5.3886825e-01
  1.6495557e+00
  2.9991028e-01
  2.0356303e-01
  8.2019436e-01
 -3.7267223e-02
  4.5951077e-01
 -3.3733975e-02
 -3.3326772e-01
  2.2737858e+00
  3.6608222e-01
 -3.2406753e-01
  3.4145308e-01
  4.3732566e-01
 -7.3242652e-01
 -1.0691622e-01
 -8.0224502e-01
 -1.7108501e+00
  7.9309893e-01
  1.0841136e+00
  3.9472124e-01
  3.1313998e-01
  1.8930160e-01
  2.2969275e+00
  1.2490710e+00
  1.0245928e+00
  9.7354418e-01
 -3.1366524e-01
 -5.7363540e-01
 -1.8883357e+00
 -3.8395277e-01
  1.2580100e+00
  3.3903381e-01
 -2.9741490e+00
 -2.3263195e+00
  1.9737563e-01
  3.2041681e+00
  1.3623953e+00
  5.1871896e-01
 -4.3273225e-02
  1.5679722e+00
 -2.3098513e-01
 -1.5680351e+00
  1.3865018e-01
 -1.8588679e+00
  2.2915375e+00
  5.2220803e-02
  2.2270346e+00
  5.5575746e-01
 -1.2377682e-02
 -1.6839526e+00
  2.5694657e-02
  2.0219994e+00
  3.2575886e+00
  5.0687408e-01
  3.3169496e-01
 -7.2351718e-01
 -1.2550443e+00
  6.6143376e-01
 -2.3983839e-01
 -2.8876936e+00
  8.9264840e-01
 -1.4054912e-01
  1.1189687e+00
  7.7464819e-01
 -1.0484910e+00
  8.2404745e-01
  6.5902501e-01
  5.7306892e-01
  7.6448458e-01
 -3.7717247e-01
 -2.3665020e+00
 -1.3703518e+00
  3.8292271e-01
 -1.0893489e-01
 -7.3099613e-01
  1.8492970e+00
 -1.8582189e-01
  3.0802600e+00
 -1.2368904e+00
 -3.4307018e-01
  9.1435659e-01
 -1.2633647e+00
 -1.3247888e+00
 -1.6359550e+00
  1.5281382e+00
  6.3639417e-02
  3.2874885e-01
 -6.9451690e-01
  7.6661283e-01
  8.4760010e-01
  2.5128826e-01
 -5.7061785e-01
  3.0787556e+00
 -3.5276315e-01
 -1.7150201e+00
 -2.3766227e+00
 -2.2875319e+00
 -1.4016683e+00
  1.3285605e+00
  1.0411575e+00
  1.9407647e+00
  3.8840144e+00
  8.8133365e-01
 -7.5559437e-01
  1.2695558e-02
  2.3699937e+00
  7.9998112e-01
  2.1917689e+00
  5.2401304e-01
  2.5432234e+00
 -3.4352234e-01
 -3.5281199e-01
 -8.0805682e-02
  4.9525362e-01
 -6.5163273e-01
 -9.8195843e-02
 -1.9004875e-01
 -2.2299478e+00
  8.4959656e-01
 -1.0358255e+00
 -4.1654909e-01
 -3.1895271e-01
  1.5835254e+00
 -7.2487038e-01
  1.2070453e+00
 -1.0210821e-02
  1.8576112e-01
  1.7484410e-01
  6.0515188e-02
 -9.2260784e-01
  4.1358647e-01
 -1.8482063e+00
 -3.8967317e-01
 -7.0963979e-01
 -5.2832395e-01
  1.1452913e+00
  1.5071073e+00
  9.9811241e-02
 -1.2412599e+00
  8.1205940e-01
  3.1923309e-02
 -1.8266290e-02
 -4.1420707e-01
 -3.3851618e-01
 -1.2182404e+00
 -1.3175392e+00
 -7.1355581e-01
 -1.9399960e+00
 -1.8234071e+00
  2.3172374e-01
 -1.8559889e+00
 -2.8330079e-01
 -1.3180391e+00
 -1.2589540e+00
  2.8264444e+00
 -2.0160460e+00
 -8.0990833e-01
 -3.2464319e-01
 -1.0686253e+00
 -8.1451035e-01
  2.5286674e-01
 -2.9532123e-01
  9.3125391e-01
 -1.7173440e+00
  3.2168388e-02
 -6.3483781e-01
  8.0893762e-02
 -5.3007609e-01
  3.3605995e+00
 -8.4929597e-01
 -2.3293622e+00
  2.3282860e-01
 -5.8394837e-01
  4.5008436e-02
 -3.7898204e-01
 -3.2213610e-01
 -1.6543901e+00
 -1.6977161e+00
  1.4518683e+00
 -4.7318655e-01
  1.5879157e+00
  4.5853572e+00
  5.3617567e-01
  2.2660530e+00
 -9.9729323e-01
  1.0793264e+00
 -6.6885638e-01
 -5.6542587e-01
  3.6924284e+00
 -2.3480456e+00
  3.9934659e-01
 -8.6728191e-01
 -7.1672820e-03
 -4.3174189e-01
 -9.7030565e-02
  1.8560663e+00
 -2.7712178e-01
  1.3267238e-01
 -6.1158888e-02
  5.5338883e-01
 -1.2964445e+00
 -1.5601416e-01
  3.2576981e-01
  6.4265144e-01
  4.8415583e-01
  9.3166895e-02
 -4.1180107e-01
 -1.1235256e+00
  2.3774767e-01
 -9.8162127e-01
  1.1174428e+00
  2.0110095e+00
  2.6173329e-01
  1.6134837e+00
 -1.2359064e+00
 -1.1794801e+00
  1.6438389e+00
 -1.8761210e+00
  3.1017518e+00
 -4.6487933e-01
 -5.3633666e-01
 -1.8989064e-01
  4.9160752e-01
  3.2274306e+00
 -1.0224074e+00
 -1.6245568e+00
  5.6818497e-01
 -1.0091724e+00
  1.4653131e-01
  4.2982584e-01
  2.2408842e-01
  2.7329128e-02
  6.3259315e-01
  3.2268959e-01
 -1.6011001e+00
 -4.9139506e-01
 -2.5566134e-01
  2.3942102e-01
 -5.0081080e-01
  3.6084649e-01
 -1.2991545e+00
  1.2779367e+00
 -1.3798811e+00
  1.5240097e-01
  1.8779532e+00
 -1.2813140e+00
 -1.6001289e+00
 -1.0355998e-01
 -4.8369223e-01
 -1.1366438e+00
  1.9431795e+00
  4.1991037e-01
  2.6177533e+00
  4.2451274e-01
 -3.7670493e-01
  1.1344254e+00
  1.2387962e-01
  1.1772729e+00
 -2.0924939e-01
 -1.1271038e+00
  3.7401274e-01
  1.1682999e-01
 -2.3324082e-02
  1.4787489e-01
 -1.0355295e+00
 -5.2828431e-01
 -2.5753562e+00
  1.5620464e+00
  5.0086373e-01
 -7.4526511e-02
 -3.2955068e-01
  7.0659214e-01
 -1.4356855e+00
 -3.3227965e-01
 -1.5343225e-01
 -2.2096491e-01
 -1.4471551e+00
 -8.8024855e-02
  1.0021026e+00
 -6.4291734e-01
 -1.8227675e+00
  4.1776400e+00
 -6.6212434e-01
 -1.1553910e+00
 -7.7368706e-01
 -4.6973398e-01
  8.3411759e-01
  6.9893593e-01
  2.2289285e-01
  2.6180708e+00
 -9.9221557e-01
 -1.8588589e-01
 -7.5219792e-01
 -1.4038654e-01
  1.6196359e+00
  8.7313658e-01
 -9.7759092e-01
 -3.6606923e-01
  1.0466907e-01
 -2.2693604e-01
 -6.5282756e-01
 -1.1697593e-01
 -5.8780424e-02
 -5.5043083e-01
  1.7258076e-01
  3.1922075e-01
  9.1251534e-01
 -4.0245837e-01
 -8.8970387e-01
 -2.9017627e-01
  3.5780570e-01
  1.5699834e-01
 -9.0653330e-01
 -5.6072637e-02
  3.6830228e-02
 -1.8852991e-01
 -5.3425599e-02
 -4.9561518e-03
 -8.0446291e-01
  4.6858624e-02
  2.3057070e-02
  1.4247357e+00
 -1.0837919e+00
 -4.1365138e-01
  7.2372961e-01
 -1.0414339e+00
  1.0463315e-01
 -1.0382311e-01
 -3.9374292e-02
  8.7404020e-02
 -4.8840705e-01
 -2.9681063e-01
  3.7525055e-01
 -9.9014592e-01
 -3.8503054e-01
 -3.6615971e-01
 -1.4585369e+00
 -5.6048259e-02
  1.0583471e+00
 -3.2669805e-02
 -8.5822392e-01
 -1.5668508e-01
  4.6942726e-01
 -1.5795262e-01
 -3.7211367e-01
  1.0433410e+00
 -5.3644929e-02
  7.0721054e-01
  1.7378983e+00
  5.6608152e-01
  3.9193541e-02
  1.4333695e-01
 -9.9103534e-01
  5.8906198e-01
 -6.9679606e-01
  1.1027133e+00
 -3.4354201e-01
 -3.4698555e-01
  5.8337623e-01
  1.7118567e-01
  9.0732735e-01
  3.1631371e-01
 -7.8061342e-02
  1.3936963e+00
  5.0729323e-02
  4.3429619e-01
 -2.7115902e-01
 -1.8566193e-02
  3.0840194e-01
 -6.0504937e-01
 -5.7585186e-01
  2.7631521e-01
 -1.6916645e-01
 -3.5141501e-01
 -2.9283059e-01
 -4.5664868e-01
 -7.8730211e-03
  2.1204367e-01
  2.7808459e+00
 -2.2263199e-01
  6.1041516e-01
  1.5814117e-01
 -3.5296965e-01
 -5.6082660e-01
 -1.0099787e+00
 -1.6470319e-01
 -1.1026957e+00
  2.9859558e-01
 -6.2494820e-01
 -2.8543413e-01
  2.2690021e-02
  3.2282111e-01
 -2.9953830e+00
 -3.5498536e-01
 -3.4082475e-01
 -1.0574346e+00
  3.4588652e+00
  5.5928004e-01
  1.4301188e-01
 -4.4032717e-01
  1.8521218e+00
 -3.8497910e+00
  8.8751495e-02
  2.0766434e-01
  2.2853889e+00
 -9.7944677e-01
  1.0089443e+00
  2.4912627e+00
 -7.0641167e-02
 -2.3920631e+00
 -8.4946799e-01
 -4.3739888e-01
 -1.2395608e+00
  9.2434511e-02
 -1.3331130e+00
  3.1792545e+00
 -2.4286776e+00
  1.2840348e-01
  6.2663662e-01
  1.3649372e+00
  1.4687213e+00
  3.4322276e+00
 -1.8254718e+00
 -2.6545641e-01
  3.4298506e-01
  1.8477093e+00
  3.2041163e+00
  5.6966966e-01
 -2.2459593e+00
  1.2335166e+00
 -1.8827357e+00
  2.2191279e+00
  8.4972811e-01
 -1.0704580e-01
  2.6364988e-01
  1.6449928e-02
  6.8739796e-01
 -2.3537779e-02
  2.2479050e+00
  6.6510516e-01
 -1.8292061e+00
  1.5400451e-01
  1.6560385e+00
 -1.6361246e-01
 -7.3456043e-01
  9.6172374e-01
 -2.3198509e-01
  7.9201800e-01
  1.6523540e-01
  4.0630364e-01
  9.8250225e-02
  1.5187576e-01
  1.5740766e-01
 -1.4264026e+00
 -2.5088167e-01
  4.7854879e-01
 -1.1523192e-01
 -1.9212641e+00
  3.8546675e-01
  1.4872304e+00
  1.5125348e-01
  1.0605605e+00
 -8.9649099e-01
 -5.3768724e-01
  1.7101642e-01
 -1.4882985e+00
 -1.3224076e+00
  1.8859833e-01
 -9.7867861e-02
 -7.7013367e-01
  2.6441318e-01
  3.6267579e-01
 -1.9143528e+00
  9.3173826e-01
  1.2174867e-01
 -9.4469315e-01
  7.0855331e-01
  3.9217547e-01
 -2.4512542e-02
  2.1600628e+00
  1.0861298e+00
  1.0243032e+00
 -5.7330191e-02
 -1.8846149e+00
  8.8218462e-01
  1.0889555e+00
 -3.4048989e-01
  1.4715483e+00
  3.6194837e-01
 -5.6085598e-02
 -6.3981266e+00
 -8.3323467e-01
 -1.9313638e+00
  1.1457615e+00
 -6.5479018e-02
 -8.2811558e-01
 -8.0505604e-01
  4.2793646e-01
  2.7370298e-01
 -2.4724983e-01
  1.4964594e+00
 -2.0179795e-01
  9.0851498e-01
 -3.3096102e-01
  1.3593037e-01
 -2.0406647e-01
 -6.2760699e-01
  6.8782461e-01
  1.0359156e+00
 -9.5289016e-01
  3.1044260e-01
 -5.2373254e-01
  1.2266464e+00
 -3.3713996e+00
  2.4579011e-01
 -6.9753140e-01
  4.4396633e-01
 -9.6513703e-02
 -2.2011502e+00
 -1.6448895e+00
 -3.4533286e-01
 -6.3126826e-01
 -1.7510253e+00
 -2.5961918e-01
  2.3896381e-01
 -2.4153380e-01
  9.1247135e-01
 -1.5741508e+00
  9.1892219e-01
  2.2154646e+00
 -1.0361282e-01
  6.7522919e-01
 -1.1195097e+00
  1.5001830e-01
  1.3952158e-01
  1.6844584e-01
  3.3715722e-01
 -3.3944771e-02
  1.0375936e+00
 -1.0452249e+00
  1.6800221e+00
  2.7570474e-01
 -1.9373386e+00
  6.7905232e-02
  1.0693026e+00
 -1.3812361e+00
  6.0134679e-01
  1.4970702e-01
 -2.8008959e-01
 -4.7114991e-02
 -5.4352355e-01
 -1.6645159e+00
 -1.3797046e-01
  1.2348855e+00
 -7.0100641e-01
  1.8364581e-01
  6.1113602e-01
  9.5780259e-01
 -2.9742715e-01
  2.9220724e-01
 -1.0717690e+00
  3.6848581e-01
 -8.7813985e-01
  1.7822822e+00
  5.5641288e-01
 -2.2683612e-01
 -6.1681205e-01
  7.4206635e-02
 -1.6602370e+00
 -1.3116898e-01
  1.4203097e+00
  1.6041018e-01
 -1.5427228e+00
 -3.6813483e+00
 -3.7838688e+00
 -1.3191409e+00
  5.1101512e-01
 -1.8594757e-02
 -9.0139109e-01
  7.3871815e-01
  7.8153044e-01
  1.0208172e+00
 -2.6216676e+00
  2.8434436e+00
 -2.2608796e-01
 -1.5341978e+00
  3.6239755e+00
  2.0940557e+00
  2.9513288e-01
 -4.6870136e-01
 -9.9647403e-01
  2.0233703e+00
  1.0723470e+00
 -2.4280532e-01
  1.0470934e+00
 -8.3909905e-01
 -1.0888698e-01
  1.1254681e+00
 -1.4949530e+00
 -1.0364984e+00
  6.1096066e-01
  8.9673924e-01
  3.3762820e+00
  3.6387131e-01
  9.6418929e-01
  3.5919806e-01
 -3.6313136e+00
  1.2256759e+00
  5.2678072e-01
 -8.7262374e-01
  3.3850563e-01
  1.5496741e-02
 -1.0063781e+00
 -6.3426197e-02
  7.8603971e-01
  4.1860766e+00
 -1.1054031e+00
 -5.1003639e-02
 -1.3226395e+00
  3.2930535e-01
 -2.4828928e+00
 -5.6948191e-01
  1.3012342e+00
 -2.6679257e-01
 -9.6980453e-01
 -5.4397196e-01
 -1.2728410e+00
  4.3358917e+00
  1.6725937e+00
  5.6939787e-01
 -3.3364525e+00
 -2.8613059e-02
 -3.5989967e-01
 -3.1123701e-01
  1.5835321e+00
 -1.2976608e+00
 -2.7119482e+00
 -5.0699681e-01
  1.6001972e+00
 -2.3951993e+00
 -4.2996728e-01
  2.8292656e+00
  2.4026203e-01
  1.3920729e+00
 -7.8084499e-02
  2.9482087e-01
 -3.3334839e-01
 -1.3081250e+00
 -3.4624124e-01
  5.9804457e-01
 -4.8731083e-01
 -4.3487199e-02
 -1.8684220e+00
  4.8104638e-01
 -5.8390045e-01
  3.9463738e-01
 -9.0059251e-01
 -2.4425519e+00
  1.9313626e-01
 -4.2926267e-01
  3.4828070e-01
  1.0856947e-01
 -1.1641005e+00
 -4.6947780e-01
  1.3333818e+00
  1.3175983e+00
  2.0229917e+00
  5.9711534e-01
  8.2566947e-01
  4.9399617e-01
  7.7239788e-01
  1.6477656e+00
 -7.4944055e-01
 -3.9455920e-01
 -3.4875712e+00
 -3.1107528e+00
 -1.2773446e+00
 -5.8317906e-01
  1.3564814e+00
 -1.8759722e+00
 -6.7279994e-01
  5.5338877e-01
  9.5461190e-01
  6.8727350e-01
  5.8845091e-01
  2.6070446e-01
 -2.0570374e-01
 -1.9112974e-03
  1.3879088e+00
  8.2730740e-01
  3.0231812e+00
 -1.7264957e+00
  1.8452723e+00
  1.0033238e+00
 -8.2731828e-02
  1.6127242e-01
  1.3321062e+00
 -1.3841623e-01
 -3.4895518e-01
 -2.0031786e+00
 -8.6211103e-01
 -1.0592303e+00
 -2.1997755e+00
 -2.6231389e+00
 -1.3202772e+00
  9.7997718e-02
 -5.0959211e-02
 -1.4354172e+00
  6.1196792e-01
  1.2396584e+00
 -1.2982951e-01
  1.6609963e+00
 -2.3366292e-01
  2.6728113e+00
 -2.5311780e-01
 -2.7130738e-01
  9.1226393e-01
 -1.4183176e+00
  9.0747952e-01
 -3.5530311e-01
  2.3451343e+00
  1.6326634e+00
  6.1601883e-01
 -6.2826920e-01
 -2.1164908e+00
  3.5189230e+00
 -6.7140323e-01
  1.2699941e+00
 -1.0959839e+00
 -8.0816877e-01
 -1.9198295e+00
  7.7489048e-02
 -1.8378621e+00
  2.0096378e-01
  8.7306315e-01
  2.7932804e+00
 -2.5932612e+00
 -1.1656843e+00
  1.8728458e+00
 -3.6186473e+00
 -1.3552289e+00
 -2.0207148e+00
 -2.4991390e-01
  1.8595603e+00
  2.7219090e-01
  1.3729376e+00
  3.2825072e+00
 -5.7500619e-01
 -1.3121672e+00
  1.3307602e+00
  2.8717294e-01
  4.5880942e+00
  5.6679219e-01
 -1.5996806e-03
 -5.1770443e-01
  3.5513321e-01
 -5.1967824e-01
 -5.4262418e-01
 -4.4214630e+00
 -6.5689802e-01
 -6.5560663e-01
  7.0463639e-01
 -1.0473365e+00
 -2.1237152e+00
 -1.4652987e-01
 -5.2593952e-01
 -9.0665317e-01
  3.2413003e-01
  5.1539803e-01
 -2.9712362e+00
  6.9061881e-01
 -6.6826597e-02
  2.0465693e+00
  7.5232148e-01
 -8.0513990e-01
 -7.1781367e-01
  1.5926145e+00
  3.3976091e-04
 -9.5931447e-01
  3.5095266e-01
 -7.3112172e-01
  1.9006072e-01
 -4.9591716e-03
  2.7845473e+00
  6.6802746e-01
 -1.7814637e+00
 -6.1574680e-01
  3.2268450e-01
  6.7144060e-01
 -3.8441411e-01
 -4.8324682e-02
  9.3140282e-02
  3.0301759e+00
 -7.3465604e-01
  2.4278378e+00
  2.8257200e-01
 -1.9137315e-01
  4.5245194e-01
 -9.1855395e-01
 -3.2089725e+00
 -1.1224536e+00
  2.1196224e-01
 -1.4410238e+00
 -1.6351731e-01
  3.5782948e-01
  3.6102027e-01
 -4.5415005e-01
 -1.4591967e+00
 -6.8965870e-01
  1.9293642e-01
  1.7838554e+00
 -2.0307598e+00
 -1.0276186e+00
  1.1921591e+00
  9.7414845e-01
  2.7540013e-01
 -5.6355584e-01
 -7.2565305e-01
 -2.5810841e-01
  5.1038861e-01
  6.7473733e-01
  1.0616802e+00
 -2.2338440e+00
 -3.3617651e-01
 -2.6803115e-02
 -7.1404803e-01
  4.1319570e-01
  1.6968699e+00
 -7.0440316e-01
 -8.0669975e-01
  1.3206360e+00
 -2.8212330e-01
 -1.4977846e-01
 -4.2028412e-01
 -2.6925821e+00
  1.3861899e-01
 -3.6873236e-01
 -1.5494953e+00
  6.0241364e-02
  7.8169286e-01
  4.1531304e-01
  6.9607812e-01
 -9.9289286e-01
 -4.6971089e-01
  3.5511118e-01
  1.0168362e+00
  2.0280665e-01
  1.0281299e+00
  3.7213525e-01
 -4.9114922e-01
 -1.5688411e+00
 -5.5965638e-01
 -2.2532915e-01
  1.5386350e+00
 -7.3082708e-02
  6.0591832e-02
  1.1340860e+00
 -3.4541264e-01
 -6.1920130e-01
  6.3179719e-01
 -3.4986286e+00
 -1.3772777e+00
  1.2573770e-01
  1.0870200e+00
  1.0959939e+00
 -1.5053291e+00
 -1.0108563e+00
  7.5787646e-01
 -5.2643847e-01
  1.1028653e+00
 -5.3423262e-01
  6.2581874e-02
  6.4506764e-03
  7.3082812e-02
 -4.6173245e-01
 -8.2737738e-01
 -1.3264928e+00
  5.6312925e-01
 -2.8935003e+00
  1.2894057e+00
  2.7023273e+00
  1.2719890e-01
  5.1044750e+00
  2.0316371e-01
 -2.0985709e-01
 -3.5374552e-01
  2.4984814e-01
  1.3788818e+00
  1.1545885e-01
 -1.8882495e+00
 -7.9616025e-02
 -1.3953651e+00
  1.6774343e+00
  9.1331452e-01
  5.0971985e+00
  2.8607137e+00
 -2.9954627e-01
  2.9348159e+00
  9.2016625e-01
  9.9347389e-01
 -3.6561267e+00
 -6.8598354e-01
 -1.9202055e-01
  4.8719269e-01
 -2.1955563e-01
  1.0696366e+00
 -7.8946404e-02
  7.3984605e-01
 -7.7769041e-01
 -2.3633906e-01
  2.4551941e-01
  8.3062446e-01
  1.4232359e+00
  1.0880077e+00
 -1.6626786e+00
 -6.0626245e-01
 -3.6626041e-01
 -2.2276817e-01
 -2.5458232e-01
  1.8545876e-01
 -3.0169547e-01
  6.8591565e-01
  1.4084190e+00
  5.5301132e+00
  1.8481871e+00
 -1.6011670e-02
  2.2818372e-02
  1.0346384e-01
 -2.0806435e-01
  1.6454015e+00
  8.2088733e-01
  1.9129535e+00
  2.6299734e+00
  4.5524257e-01
 -1.2787174e+00
  1.9541641e-01
  1.9225905e+00
  5.4701895e-01
  6.1400902e-01
  2.2485466e-01
  4.9619980e-02
  1.5549748e+00
 -6.6635591e-01
  6.9086313e-02
  4.7136134e-01
  2.1244577e-01
 -8.2654405e-01
 -6.6296506e-01
 -7.4903131e-02
 -4.7988084e-01
 -4.6446615e-01
 -1.6923641e+00
  2.7630475e+00
  3.9447549e-01
 -6.7296410e-01
  5.5433357e-01
  4.2812984e-02
  4.5808393e-01
 -3.5126352e+00
 -7.1757436e-01
  2.3397310e-01
  9.0551621e-01
  7.9783350e-02
  1.2058432e+00
 -1.0977554e+00
 -1.2517689e+00
  2.3532070e-01
 -1.3499627e+00
 -5.7782924e-01
 -1.0573800e+00
 -5.5652509e+00
 -2.2542086e-01
  1.0373467e+00
 -1.5723287e-01
  2.5145710e-04
 -1.4855503e+00
  6.6853583e-01
  5.0189054e-01
  1.0977031e-01
  2.3893496e-01
  6.5197989e-02
  1.4370948e+00
 -1.0183395e+00
 -2.6181018e+00
  9.1426156e-02
 -1.5398431e-01
 -8.7770514e-02
 -1.8906011e-01
  6.8278867e-01
  5.5932388e-02
  1.1524123e-01
  3.6223173e-01
  2.2195394e+00
  1.0567510e+00
  5.0883603e-01
 -1.0070297e-01
  1.2960038e+00
 -7.7456778e-01
  1.1461123e-01
 -1.2387673e+00
 -8.7002784e-02
 -1.4711120e+00
  2.3535997e-01
  4.8875239e-01
 -1.7056183e+00
 -5.7110292e-01
  1.5969253e+00
 -1.4235934e+00
  1.0526186e+00
 -5.2908522e-01
  4.4233003e+00
 -2.9161006e-01
 -1.3183103e+00
  3.9125007e-01
 -8.7078631e-01
 -1.5778059e+00
 -1.4551642e+00
  7.9626626e-01
 -3.0357197e-01
  2.6780105e-01
