nep4 2 O Si 
cutoff 6 4 136 48
n_max 8 8
basis_size 8 8
l_max 4 2 0
ANN 80 0
  1.2451993e-01
  1.4636196e-01
 -1.2667009e-01
 -1.0770988e-01
  2.9330458e-05
  1.7730777e+00
 -2.3765650e-01
 -7.5808348e-06
 -6.8536850e-05
 -1.9652145e-04
 -6.7557496e-01
 -1.7945520e-05
  1.5507915e-04
 -6.9298416e-01
 -1.3687220e-01
 -6.5377855e-05
 -9.1133073e-02
 -5.0133422e-05
 -1.8178987e-04
 -4.1558087e-05
  2.3973174e-05
  7.3117291e-05
  9.2168211e-06
 -5.0807130e-06
  1.5318254e-05
 -2.1359576e-05
 -1.5687858e-05
 -1.0592150e-05
 -8.5076201e-05
  8.5025495e-05
 -1.5986632e-04
  1.8917532e-04
 -1.7110684e-05
 -3.1745942e-05
  4.9712435e-05
  8.2334836e-06
 -3.0254109e-06
 -2.0657791e-04
  5.0827068e-05
  7.9802439e-06
  1.0273172e-04
 -3.8844373e-05
  2.2171052e-05
 -4.5672128e-05
  5.7294073e-07
 -2.3623509e-04
  5.2479299e-06
 -5.1214836e-05
 -3.2960103e-05
 -8.3170380e-07
 -3.2906648e-04
  3.5409867e-05
 -4.9473642e-04
  7.3669471e-06
  8.8833702e-05
  3.5378656e-05
 -2.0807980e-05
  5.9407466e-06
  5.7757188e-05
  5.8812806e-05
 -3.6841966e-02
  1.2892197e-04
 -2.9829980e-05
 -1.2838734e-04
  3.0896099e-05
  2.2125358e-04
  8.7252600e-05
  5.0566406e-03
  9.2543662e-05
  2.6893301e-04
 -1.8647680e-04
 -8.3502571e-05
 -2.2780881e-04
 -3.6154710e-05
 -6.4946280e-06
  1.3263342e-04
  1.8185234e-05
 -1.3795451e-04
 -8.4454121e-05
  3.9649367e-05
 -2.4701700e-05
 -3.5210545e-05
  8.6052669e-06
 -1.5833028e-04
 -8.8330917e-06
  2.4965721e-05
 -5.2507585e-05
  7.5004891e-06
  1.4861778e-04
 -3.2668650e-05
 -1.0890035e-04
 -2.3891329e-04
 -1.1356812e-04
  3.1503543e-05
 -5.3006963e-05
 -7.9882368e-05
  1.3753620e-04
 -4.0212517e-06
  1.2041550e-02
  7.1612085e-05
  1.1262522e-05
 -1.1412914e-04
 -2.9516697e-05
  1.1946647e-04
 -3.0805302e-05
 -9.2811017e-05
 -1.5452266e-05
  2.5038337e-04
 -6.3016015e-01
  1.8687469e+00
  4.1019242e-02
  1.9469231e+00
 -1.0710136e-03
  1.1676778e+00
  7.4334735e-01
 -1.1884571e+00
 -1.7590207e+00
 -4.0043778e-05
  8.0942002e-05
 -8.4339053e-04
 -2.2412206e-03
 -1.6824564e-05
  1.2258633e-01
  4.4506305e-07
  5.2209976e-05
 -4.3198097e-04
 -1.0436878e+00
 -8.9822774e-05
 -1.4237956e-04
  1.7556394e-04
 -3.9463692e-05
  2.0397817e-04
  2.0293249e-02
  5.0305776e-02
  4.4630942e-05
 -1.4469482e-04
 -1.2038792e-04
  3.3445722e-05
 -6.4528654e-06
  3.7213440e-06
  1.4797744e-05
  5.6823563e-05
 -8.1118107e-01
  2.1125854e-04
 -1.6765929e-04
  6.7276386e-07
 -5.9817899e-03
 -7.2826171e-01
 -4.8984792e-05
  2.8563481e-05
  2.7386972e-05
 -1.6601472e+00
 -1.9969849e-01
 -2.0303830e-04
  1.3467309e-04
 -2.1905375e-04
  1.0001723e-04
 -3.1899737e-05
 -3.6711317e-05
 -3.2218923e-05
  5.2742055e-04
 -8.2779216e-06
 -1.1962029e-04
  7.2956020e-05
 -2.3381783e-05
  8.5082174e-05
 -1.6500364e-01
  1.9818300e-02
  2.4622086e-02
 -3.8142673e-05
  7.6007665e-05
 -1.7599738e-04
  1.3894858e-05
 -1.1590777e-05
  1.7434199e-05
  3.6451123e+00
  7.7669218e-05
 -1.9092309e-05
 -3.1885173e-02
 -4.2669148e-05
  4.2866912e-05
 -2.0940111e-04
  4.4144697e-05
 -1.9618912e-04
  4.7332163e-05
  1.3561643e-04
  7.8319143e-05
 -5.1267434e-05
 -1.4667395e-04
 -2.6323360e-06
  3.3539409e-06
  4.6285972e-05
 -1.9435798e-04
  2.5527602e-01
 -8.2630453e-05
 -8.4753061e-05
  3.9580347e-05
  2.1870264e-04
  4.6368867e-05
  2.5130208e-05
 -2.8162374e-05
  2.3757309e-05
 -6.3054780e-05
  6.8665970e-05
  2.1205160e-05
  6.1834796e-04
 -4.6957634e-06
  3.3032411e-05
  8.2413710e-05
 -6.6127912e-05
  6.1594883e-06
 -1.4529729e-05
 -2.1828305e-02
 -5.9778231e-05
  7.8934085e-05
 -1.9095540e-05
  1.9298633e+00
 -6.2244523e-01
  6.1978304e-01
  2.6674552e+00
 -7.8260899e-01
 -2.1502101e+00
 -3.2081802e+00
 -2.8259680e-01
 -3.2781851e-02
  7.4089807e-01
 -5.3239344e-03
  1.3152274e-03
 -3.4798357e-01
  1.7137559e-02
 -2.5119985e-05
 -1.6029631e-03
 -5.4401231e-01
  1.9318764e-01
  3.2544139e-01
  1.9632216e-01
  2.8263321e-05
  1.7481693e+00
 -4.1411983e-04
  6.5159690e-01
  1.6021656e-04
  2.2713139e+00
  4.3378004e-01
  7.2162247e-01
  1.6559698e-01
 -2.9923898e-01
 -8.4012634e-01
  4.2991273e-02
  1.2427760e+00
 -2.0703012e-05
  1.1329503e-02
 -7.2824575e-02
  8.8867953e-04
 -1.2213862e-04
 -2.1956778e-04
 -5.5524528e-01
  6.2568367e-02
  3.8551938e-05
 -1.0717706e-01
  6.7311388e-01
 -9.0232992e-01
 -1.2421634e-05
 -8.8363036e-04
  7.8571058e-05
  1.8652154e-05
 -2.9943656e-04
 -4.9793172e-05
  1.2211713e-05
  5.4788166e-01
  1.0272708e-04
  1.8252652e+00
 -1.8719639e+00
 -8.8986123e-01
 -1.9171059e+00
 -6.4516153e+00
  1.1238732e+00
  4.2669458e+00
  3.9558119e-01
 -4.1841288e+00
  7.5234348e-01
 -3.1974337e+00
 -2.3894511e-01
 -4.1135281e-01
 -1.3009819e+00
 -2.8608358e-01
 -2.1715780e-01
  1.7149419e+00
 -7.5890414e-02
  2.6348003e-03
 -9.2645830e-01
 -2.5009520e-05
 -1.1790329e-04
 -6.6276622e-01
 -6.1795858e-05
  9.9089075e-06
 -1.8165016e+00
  1.4162671e-03
  1.0475462e-04
 -3.9209679e-01
 -7.5075942e-01
 -2.7827573e-01
 -3.0267894e-01
 -7.9291029e-04
 -1.5657799e-02
 -7.3393178e-01
 -3.5024412e-05
  7.1963936e-05
 -1.5514482e+00
 -3.5182398e-02
  1.5585835e-02
 -1.0896412e+00
 -5.2421745e-02
 -7.7148691e-02
 -4.5517519e-01
 -2.5034076e-05
  3.1572956e-05
 -4.3298554e-05
 -1.6305248e-05
  7.5435935e-04
  1.3583680e-04
  3.8435050e-05
  4.2043754e-05
 -2.3755998e-05
  1.6748311e-04
 -1.0871207e+00
  1.3916969e+00
  1.7575452e+00
  6.6530961e-01
 -1.7516072e+00
  2.2591038e+00
  1.7677531e-01
  9.8273700e-01
 -7.9367459e-01
  2.2576902e+00
 -7.2681987e-01
 -1.3927761e+00
  2.2774664e-04
  4.9440175e-01
  4.3585029e-01
 -2.2621191e-01
 -6.4649673e+00
  9.8067087e-01
  1.4312358e+00
  5.9165281e-01
 -4.8926058e-01
 -1.2463737e+00
  9.2110044e-01
  3.2114985e+00
 -2.4195201e+00
 -2.9594262e+00
  7.4492294e-01
  8.8349879e-01
 -1.4996302e-03
  7.0337385e-02
 -9.9163914e-01
 -1.8200597e+00
  1.2306572e+00
 -1.1773684e+00
 -2.5775242e-01
 -3.1586373e-05
  8.2437551e-01
 -2.8344860e-02
  4.7839461e-07
 -8.8202149e-02
 -1.0050738e+00
  1.0175730e+00
 -5.8308262e-01
  1.9335029e-01
  1.3622855e-04
  2.8770151e-05
 -5.7482899e-05
  9.4168389e-04
 -1.2505257e-04
  2.7259288e-04
 -9.6250187e-05
 -5.1186287e-01
 -3.7352415e-04
  2.7845291e-04
  7.9132307e-01
  2.3106563e+00
 -8.4656596e-02
 -7.1975845e-01
 -6.7494988e-02
  7.3928201e-01
  8.0955632e-02
 -2.8044407e+00
 -3.4780744e-01
 -3.3501044e-02
 -1.9408216e-01
 -3.2869753e-04
  9.2627294e-02
 -1.6393640e+00
  2.5223009e-04
  3.8084824e-04
  5.0229454e-01
  1.1363571e-04
 -1.4769009e+00
 -1.9307037e-01
 -2.2100510e-01
 -5.3839123e-01
 -4.7165453e-01
 -1.9002492e+00
 -9.4388646e-01
 -8.9414090e-01
 -2.0655484e+00
 -9.1695346e-02
 -3.8389069e-01
  4.9272022e-01
  6.6976144e-04
 -1.1952521e-02
 -1.5764195e-05
  2.8669598e-04
 -7.0368499e-01
 -3.7546894e-01
 -4.5743018e-02
 -1.0250526e-03
  2.5476682e-05
 -2.1326046e+00
  4.5912794e-04
  3.8287184e-01
 -6.9796732e-03
 -7.2129631e-01
 -5.5991924e-01
 -1.7783073e-05
  2.0505606e-05
  9.9120522e-04
 -1.3449314e-04
 -2.4328401e-04
 -6.3818619e-02
 -8.6347169e-01
 -7.2788531e-01
 -7.4825145e-02
 -1.0126898e-01
  5.7546928e-04
  1.6765977e-04
  1.1477493e+00
  5.5384051e-05
 -3.2208329e-01
  2.7999446e+00
  5.9148439e-05
  8.5805559e-06
  1.4726016e-04
  9.0275556e-01
  6.8714917e-06
  4.4488683e-01
  1.2356137e-02
  2.2668799e-05
  5.4059641e-05
  8.2482284e-01
 -2.1709493e-06
 -1.1867702e-06
  3.1134719e-04
 -1.1567675e-04
  7.8129073e-05
  1.5934953e-02
  7.0562863e-05
 -1.4002284e-04
  4.4693303e-01
  1.2273149e-04
  4.8397989e-05
  1.3871680e-04
  3.9780480e-06
 -6.0615741e-05
 -1.3716166e-03
  9.2384194e-05
 -3.3027593e-06
 -1.0793896e-05
  2.8061082e-05
 -9.3104580e-05
  6.1370047e-05
  1.4412944e-04
  1.6741284e-04
 -1.1168203e-04
 -4.7518951e-01
 -2.0595656e-03
 -5.9268335e-05
 -8.2908329e-05
  8.1564693e-05
 -3.1278335e-04
 -2.9527419e-06
 -2.9685973e-05
  1.4898651e-04
  3.5604145e-04
 -9.3271410e-07
 -6.0679868e-04
 -1.6553644e-05
 -3.0321436e-04
  2.1395179e-04
  2.4670924e-04
 -4.4278513e-05
 -5.7735633e-05
  2.8440611e-05
 -1.1106400e-04
  3.7379592e-05
  1.4268006e-04
  7.9687430e-05
  8.3679981e-05
 -4.3744863e-06
 -2.3164233e-05
  2.7831513e-04
 -4.2065752e-05
 -5.0930221e-06
 -7.6491349e-05
 -2.7065058e-05
  9.3634539e-05
 -1.6570411e-05
 -3.7897673e-05
 -5.6405046e-05
  7.8821548e-05
 -8.4177700e-06
 -8.5323692e-05
  3.9921004e-05
  5.8916507e-05
 -1.4002803e-04
  1.5308509e-05
  8.4848187e-05
 -1.3706378e-04
  3.4891687e-05
 -5.8344565e-05
 -2.9318398e-05
 -3.8484581e-05
 -7.2381685e-05
  1.9631760e-05
  1.0072867e-04
  1.3636936e-05
 -1.0056273e-04
  6.5387554e-05
 -3.9712762e-05
 -5.7266379e-04
 -4.6717694e-05
  6.5510772e-05
  9.5293057e-05
 -6.5117216e-05
 -7.5940443e-05
  4.6455680e-05
  9.7287957e-06
 -4.8284390e-04
  7.4704221e-05
 -1.4763003e-05
  5.3767490e-06
  4.3091461e-02
 -4.6120164e-01
  5.5038105e-05
  7.6104549e-04
 -5.2101154e-06
 -2.1556574e-04
  5.1476419e-01
 -2.6989394e-01
  1.2884589e-01
 -3.5358182e-06
 -2.1862816e-05
 -1.2219882e-04
  1.3974546e-05
  4.8663187e-01
  4.1234638e-05
  2.0806596e-04
  1.3330150e-04
  1.1370936e-04
  1.8748895e-05
 -8.0653357e-05
  6.0990580e-05
 -6.9437447e-05
  1.1389884e-04
  3.1659711e-05
  6.0341055e-05
 -3.9590217e-05
 -5.4153015e-06
  2.8345716e-04
  1.2289581e-03
 -1.7645716e-04
 -4.4282801e-06
 -1.8272036e-05
  5.9519880e-05
  5.1698786e-05
  1.6574660e-01
  3.4417695e-05
  7.5882995e-06
 -1.6079357e-04
  7.1018141e-05
 -1.0923154e-03
 -6.3847525e-05
  2.2011234e-05
 -2.4750672e-01
 -4.3782417e-04
 -1.8638902e-04
  5.5358836e-05
  3.2009535e-05
  8.2093866e-05
  4.8223381e-05
  2.1082606e-06
  1.1111393e-03
 -4.7280462e-04
  2.3229135e-05
 -8.5145635e-05
 -2.5241268e-05
 -3.6206788e-05
  6.7073494e-01
  2.9417865e+00
 -9.0663161e-07
 -1.2156429e+00
  7.7357388e-01
 -2.5310977e-05
 -7.6937824e-05
 -6.6296845e-05
  1.8311794e-04
 -1.7713735e-04
 -4.3102442e-05
  3.1975248e-01
  4.3867840e-05
 -6.6981476e-05
 -2.5834355e-03
  6.7723580e-05
  2.2497587e-05
  6.8848917e-06
  4.0334766e-05
  5.4734082e-05
  4.6423538e-05
  3.6147816e-05
  8.0770493e-05
 -1.1607083e-05
  1.1111770e-05
  7.9876354e-06
  6.3659412e-05
 -1.4357481e-05
  7.1477487e-05
  1.6157111e-04
 -1.4380773e-05
  4.7119047e-05
 -2.9890418e-05
  1.8559778e-04
  3.2560092e-07
 -3.5676014e-05
  1.2844830e-04
 -2.7237169e-05
  1.7499898e-04
  1.0558931e-04
 -3.9753992e-05
 -8.4610901e-06
 -7.5027710e-05
  1.4817357e-04
 -2.3927704e-04
  1.5832158e-05
 -5.5148575e-06
  4.2662054e-05
 -2.0999511e-04
  2.9614237e-05
  2.1907150e-04
 -5.5272918e-05
 -2.3543605e-05
  6.5891659e-06
  1.0765289e-05
 -4.3847260e-01
  2.8661427e-05
 -8.6350483e-01
 -5.7200003e-01
  6.5676164e-04
  3.5644880e-05
 -5.0633560e-05
  8.8218359e-05
  3.3089044e-04
 -3.5108653e-05
 -2.8243899e-01
 -1.1011108e-04
  1.0755071e-04
 -1.2044995e+00
 -7.8819387e-05
  1.4303518e-04
  1.0108116e-05
 -2.6272969e-06
  2.4767840e-05
 -2.6769188e-05
 -1.0556872e-04
  5.0173749e-05
 -1.4139678e-04
  4.7470316e-05
 -1.5763905e-04
 -1.1533785e-05
  1.5441258e-04
 -3.2831605e-05
  1.0416420e-04
 -4.4509594e-05
  1.2864931e-04
 -6.1744180e-02
 -2.9020288e-05
 -3.4032382e-05
  1.1291592e-04
  2.1878137e-04
  3.7456193e-04
 -3.0904081e-05
 -2.2385613e-05
  6.0001128e-07
  2.6656848e-05
 -1.7298324e-05
 -1.6927428e-04
  2.5615533e-05
 -2.1913092e-05
  6.5126340e-05
 -1.7097039e-04
 -1.0597061e-05
  9.0062813e-06
 -1.9107989e-05
 -2.3702944e-04
 -5.0859515e-05
 -8.1392300e-06
  5.2939169e-05
 -4.0834267e-02
  6.9413290e-05
 -2.7110487e-05
 -2.5110874e-01
  2.4366636e-05
  5.3239644e-05
 -2.4459501e-05
  2.5327932e-05
 -5.0475672e-05
 -7.0085394e-01
 -1.1706735e+00
  2.1644109e-06
 -1.3889128e-04
 -6.8582842e-05
  1.5680175e-04
 -7.1157810e-05
  2.6234986e-05
  7.1329603e-05
 -1.5891184e-05
 -1.9540032e-04
  1.6044120e-04
 -3.0980931e-04
 -1.8548410e-04
 -1.9383740e-05
 -7.5548975e-05
 -1.6840557e-05
 -1.8588760e-05
 -1.2091844e-04
  1.0494587e-04
 -8.7939634e-04
 -5.7207006e-05
 -8.2973027e-05
 -4.0486004e-05
  5.3991993e-05
 -4.6722625e-06
 -1.1259403e-05
  1.3954531e-04
 -6.7839777e-05
  1.4982992e-04
  3.5289995e-05
 -1.0517269e-04
 -4.6416726e-06
 -4.1894309e-04
  5.5585715e-05
 -1.7752468e-04
 -1.0977985e-04
 -9.1103111e-06
  6.2375984e-05
  3.9655719e-05
  5.3268541e-05
  2.5591869e-05
  3.5039857e-01
 -3.2463417e+00
 -1.7690446e-02
 -5.0176376e-01
  1.1399166e-02
  3.4583244e-01
 -8.7708598e-01
 -1.7363502e+00
 -3.3567473e-01
  8.9986529e-03
 -1.2329706e-06
  2.5267613e-05
  3.2931764e-04
  4.1375652e-01
 -5.3659014e-02
  3.6523563e-01
  2.2233434e-01
  2.4292684e-01
 -7.5984322e-02
  9.8744673e-01
  8.9796653e-05
  4.8865318e-01
 -2.4721843e-01
 -1.4516638e-01
  1.7074191e-04
  5.0489235e-01
 -1.6948633e-01
 -1.0119196e+00
  5.1275659e-02
 -5.2339748e-02
 -1.3287358e-01
  4.6276477e-01
  7.9783589e-05
  1.0064265e-05
  9.0683244e-02
  4.3555838e-01
  1.7610724e-01
  2.3923969e-01
 -3.3600607e+00
 -1.6762668e-01
  9.3123483e-05
  3.9477032e-02
  1.1911536e+00
  1.5838239e+00
  1.5691422e-01
 -1.4920953e-04
 -3.9819945e-04
 -1.0310292e-06
  5.8178566e-03
 -1.1542914e-04
  4.9127768e-05
  1.9906567e-02
  8.3504226e-03
  1.0332434e-04
 -2.7070722e-01
 -1.1336923e-04
  8.0397347e-04
  7.7279156e-01
  1.6019476e-04
 -9.7485757e-01
  2.5425324e+00
  1.4015861e-04
  1.6028363e-05
 -2.4685352e-05
 -1.7557877e-01
 -4.0204631e-04
  9.5357783e-02
  3.9252818e-01
  4.6393317e-05
 -2.5683330e-05
  2.2906437e+00
 -2.4035300e-05
 -8.8574941e-04
  2.5956494e-01
 -1.1519220e-05
 -2.1383858e-07
  6.5625578e-01
  6.6186041e-02
  3.0312758e-05
  7.8713435e-01
  1.1264631e-04
 -3.4049558e-04
  5.4890315e-06
 -1.1634581e-04
  6.5572294e-06
 -3.1346313e-05
 -2.4765675e-05
  4.8838243e-05
  4.1682939e-05
 -3.6074780e-05
 -2.0066061e-04
 -4.4595421e-05
  7.3917523e-05
 -7.0272181e-06
 -1.9182847e-04
 -8.9048579e-02
 -1.9220609e-03
 -1.3885269e-04
 -2.9827963e-05
  3.0559841e-05
 -6.0686460e-05
  1.0103583e-04
  1.0268272e-04
  4.5263443e-02
 -2.1650021e-04
  1.1632932e-05
 -1.0572785e-01
 -3.1413998e-05
 -1.8863370e-04
  9.3190113e-07
  4.0353038e-06
 -5.0649326e-04
  2.7109360e-05
 -4.5784942e-05
 -3.7763223e-01
 -2.5071925e-04
 -1.3050566e-05
 -9.5502466e-05
  6.8550311e-05
  2.4293180e-05
 -2.3636993e-04
 -1.3481775e-04
  1.4650878e-04
 -8.0839396e-05
 -2.9837549e-05
 -1.0257250e-04
  1.0566696e-04
  7.0127113e-05
 -7.5344233e-06
 -2.2329603e-05
 -8.1415696e-05
  1.3548245e-04
  1.6130651e-04
 -1.5766531e-05
  5.0511004e-05
 -4.2668880e-06
 -4.5199580e-05
 -9.9235076e-05
 -3.1697648e-05
  2.1926567e-06
 -3.4874192e-05
 -3.0008503e-04
 -6.4593194e-05
  2.1416552e-05
 -2.3101737e-05
 -4.6616237e-06
 -1.2913729e-04
  1.9478262e-05
  2.4821480e-05
 -8.0564314e-05
  7.5336669e-05
  4.0870166e-04
 -2.0499661e-05
 -2.1772787e-05
  8.5523010e-05
  7.8577592e-05
 -2.5512782e-05
 -1.7792712e-05
  2.3382005e-05
 -3.6387309e-04
  2.6738533e-04
 -7.6925942e-05
  1.4039753e-04
 -1.9705340e-05
 -2.7332973e-04
 -6.8364593e-06
 -5.6737343e-05
  3.6106367e-06
  9.8883293e-06
 -3.4013210e-05
  9.5958574e-05
 -1.2388136e-04
 -2.7776230e-05
  1.5785650e-04
 -1.6033690e-04
 -1.1697866e-06
  4.0297749e-05
  1.7847276e-04
 -8.6884560e-05
 -4.3648561e-05
  1.4900598e-04
  2.7286651e-04
  1.4235277e-04
 -1.3678207e-04
  8.0968457e-05
 -7.1356750e-05
  6.8237423e-05
  8.3914827e-05
  4.4911256e-05
  2.1150819e-04
  6.9328911e-05
  7.0953984e-06
  6.4628017e-05
  2.4194804e-05
 -4.2959167e-05
  1.0290148e-04
  1.2376874e-05
 -2.4335795e-05
  2.2738244e-05
  9.0667163e-06
  3.2309308e-05
  2.3492117e-04
  5.0721566e-05
  2.2043560e-06
  3.6862715e-05
 -1.7097632e-04
 -6.5771026e-05
  9.7384967e-05
 -2.6252970e-05
  8.7680804e-05
 -1.3827844e-05
  1.7297883e-04
 -2.7448539e-05
 -7.9175989e-05
 -4.8605722e-05
 -1.3997653e-04
  3.3844747e-02
 -6.2324420e-05
 -2.2566973e-04
  2.2356288e-04
 -6.9466472e-01
  8.8950314e-05
  9.2136838e-02
 -1.2928543e-04
  1.9696250e-05
  6.5109060e-05
 -1.1400119e+00
  2.7274375e-04
  2.3090102e-05
  1.2893538e+00
  6.7855971e-04
  4.0148789e-05
  4.3168230e+00
  8.8679910e-05
 -3.3729564e-05
 -1.2147260e-04
 -4.7371763e-05
 -1.5173059e-04
 -5.0745297e-05
 -3.7973081e-05
 -1.9328685e-04
  1.2744310e-04
 -1.5683896e-05
  1.0090127e-04
  1.2578473e-04
 -5.6635265e-05
  1.2575668e-04
  1.1842203e-01
 -1.4250318e-04
 -4.4262386e-05
  1.9984192e-05
  1.5310934e-04
 -7.0682625e-05
  2.6334457e-03
  1.0764736e-04
  7.0147442e-05
  4.7990912e-01
  3.1626743e-04
  2.4745972e-05
  1.9807923e-03
  6.3734777e-05
  1.4210054e-05
  1.8478409e-04
  1.9403468e-04
 -4.0913354e-05
  2.2405435e-05
 -8.9280569e-05
 -9.6095864e-05
  5.1529014e-07
  5.5959299e-05
 -3.0014196e-05
  6.1034551e-04
  1.2199009e-04
  1.5644340e-05
  2.5574866e-04
  8.5834581e-05
 -1.2609287e-04
 -2.1061009e-05
 -1.6582526e-05
 -2.6576972e-04
 -7.7415105e-05
 -3.4971934e-05
  2.1885837e-05
 -1.1307491e-01
  5.6933964e-06
  1.5617340e-04
  2.5933386e-07
  6.0239545e-05
  6.8017354e-05
  4.4386397e-06
 -1.6304929e-04
  1.1943628e-06
 -3.3890748e-05
  1.8230153e-04
  1.2621163e-04
  1.1314698e-04
 -5.1282699e-05
  4.2818301e-05
  7.2445955e-06
 -1.1123518e-04
  4.5182191e-05
 -1.9875559e-05
  6.2746520e-05
  3.1093197e-05
  6.7540139e-05
 -4.1053634e-05
 -1.6438073e-04
 -9.5560965e-05
 -1.6153384e-05
  1.1800163e-03
 -1.9455889e-05
  8.5693442e-05
  3.0790904e-04
  5.4533783e-05
 -1.0096067e-04
 -7.4154035e-05
  1.5802523e-05
 -6.6938403e-05
  2.0553602e-04
  3.9008559e-05
  8.7088694e-05
  1.9628031e-05
  1.2795575e-04
 -7.7329336e-05
 -6.1179947e-02
  3.2002509e-01
  1.2994042e-01
  2.1832056e-01
  1.2464171e-04
  2.2689302e-02
  4.1474760e-01
  6.4711118e-01
 -1.6461708e-01
 -8.7747641e-05
  5.1752275e-05
 -1.1620475e-04
  1.0079189e-05
 -1.8648338e-05
  3.3327742e-04
  5.9256799e-05
 -6.8566281e-01
 -3.1124568e-05
  1.9915355e-03
  9.6534233e-05
 -1.7261143e-04
 -1.3502176e-04
  4.1225969e-05
  2.2522269e-03
  9.1401824e-05
  1.3878426e-05
  7.1141845e-01
 -8.1256485e-06
 -4.7157783e-04
 -1.2018237e-04
 -3.3373348e-05
 -2.3595068e-04
  5.4414788e-05
 -3.8222624e-06
 -1.1073467e+00
  1.1850132e-04
  3.1616230e-04
 -8.1553117e-05
  7.5704826e-05
  1.4595179e-01
 -4.7024264e-04
  8.2795690e-05
  1.3320975e-04
  4.1838753e-01
  5.7612175e-01
  4.1484411e-05
  3.1446270e-04
  9.2362301e-05
  1.8166988e-04
 -3.6442736e-05
  5.4591173e-06
  1.5351217e-05
  9.0096699e-05
  5.4020311e-05
  3.5443607e-01
  4.2539320e-04
 -7.5435397e-05
  1.1604266e-05
 -5.2502168e-05
 -1.1850350e+00
  3.1171898e-05
 -9.7367392e-06
 -4.3594689e-05
 -7.8451485e-06
  2.0298397e-05
  2.6518581e-04
  1.4352887e-05
 -1.6915737e-05
  6.4912841e-05
 -6.9342597e-05
 -1.1426733e-03
 -1.0864944e-04
 -1.4958771e-05
 -1.5149188e-05
 -9.4921168e-05
 -1.0778719e-05
 -1.8481172e-04
 -2.8555010e-05
 -3.4649878e-05
  6.6387263e-05
 -7.2452622e-08
  7.5567291e-06
 -1.5424973e-04
  4.9662907e-05
 -5.9588674e-05
 -3.6330202e-05
  1.0451092e-04
 -6.2950953e-06
 -1.0345699e-05
 -6.4639833e-05
 -1.9788649e-05
 -1.7953860e-05
  5.2151790e-05
  2.0832149e-04
 -1.7454042e-04
  2.2018948e-04
 -6.1177394e-05
  1.3783395e-05
  1.0169114e-01
 -1.0982874e-05
 -1.9285810e-05
  2.1193953e-06
 -9.8229531e-05
  2.3753964e-05
 -2.7868504e-05
 -2.9126248e-05
  2.9446100e-04
  6.1814761e-05
  2.1461636e-04
 -1.6136601e-04
  1.2693497e-05
  3.1334486e-05
  1.6556369e-05
 -3.4216876e-04
  6.8832174e-05
  1.2911141e-06
 -8.6866501e-05
  4.6324705e-05
  1.3833144e-04
  1.4165480e-04
 -5.8850183e-05
  2.4813267e-05
 -1.3262181e-05
 -7.1655799e-05
  5.2127461e-06
 -1.0240826e-05
 -1.1654166e-04
  9.1711354e-06
 -2.0185612e-06
 -4.6693156e-05
 -2.8684633e-05
 -4.4417222e-05
 -9.8539036e-05
 -1.5601987e-04
 -1.8486484e-04
  1.3301376e-04
  2.1096019e-04
  8.4769763e-06
  1.6516906e-05
  2.2694717e-04
 -4.1419979e-05
  4.8545189e-05
  9.6918906e-05
 -2.6366769e-04
  6.1643739e-05
 -1.8033423e-05
  1.2476741e-04
 -2.2183008e-04
  3.2125481e-05
  9.2134542e-05
 -6.7771084e-06
  1.8637676e-05
  1.7772388e-01
 -3.6964295e-05
 -4.9531536e-05
 -2.4153487e-05
  4.8157621e-05
  2.1939943e-05
 -2.9141058e-05
 -1.4466426e-04
 -1.9710782e-04
 -3.8857128e-05
 -2.0572633e-02
 -1.7660439e+00
  5.5327103e-04
  1.3531663e+00
  3.9018214e-02
  1.1680826e-05
 -1.9687824e+00
 -3.6431199e-01
 -1.0158106e+00
  1.1999131e-05
  1.4665512e-04
  3.0682949e-04
 -1.8921502e-04
 -9.0278894e-01
  3.2041210e-04
  1.5842121e-05
 -1.0142734e-02
 -2.1136757e-05
  3.7791770e-02
  1.0103540e-04
 -1.3015568e-05
 -1.0601962e-04
  1.2618770e-04
  6.9018541e-05
  1.4013307e-05
  1.1961177e-04
  9.4736373e-05
  2.3091650e-04
  1.5240374e-04
 -4.9324223e-04
 -1.5799351e-04
  1.2646343e-04
  9.2702881e-05
 -1.3485031e-04
 -1.5486381e-05
 -9.2397113e-06
  1.0191481e-04
  1.7931195e-01
 -1.1595956e-04
 -9.8037141e-05
  1.9604765e-01
  1.6121278e-04
 -3.9762286e-05
  3.7306005e-03
  1.1731839e-04
  1.1896270e-05
  1.9945581e-05
  7.4488999e-05
  2.1373222e-05
 -1.3602080e-04
  1.5077119e-04
  7.3732081e-05
  8.4191248e-05
  3.9021727e-02
 -9.6474205e-06
 -9.5825046e-05
 -3.4216784e-05
  4.0396799e-06
 -1.2538976e-05
  2.0292925e-04
  1.5006986e-04
  5.2998774e-05
  3.9064340e-05
 -4.9770912e-05
  7.7915529e-06
 -7.1719687e-06
 -1.2718501e-04
  2.7301791e-04
 -1.3286967e-05
  1.5297296e-04
  4.6652451e-05
 -2.9571532e-04
 -1.1527709e-05
  1.3860902e-04
  2.1823811e-04
 -3.4190121e-05
  8.6306363e-06
 -1.3506557e-04
  2.0747485e-04
 -1.8806654e-04
  5.4166389e-06
 -2.3561943e-05
 -1.1065806e-04
  1.6979637e-05
  1.6438038e-05
  1.6660350e-04
 -1.7475135e-04
  2.7446504e-04
 -5.0853778e-05
  3.1350824e-05
 -5.2410596e-06
 -3.9603761e-05
 -1.2737066e-04
  2.8782093e-04
 -9.1636328e-05
  8.5794352e-05
 -2.7676397e-06
  1.0905876e-05
  2.5935889e-05
  2.0088035e-05
  5.8026519e-05
 -3.2068216e-05
 -3.2412252e-05
  2.2690512e-04
 -7.0386479e-05
 -1.2472732e-05
  5.6028384e-05
  4.8834896e-05
 -2.9722638e-03
  5.6380621e-04
  2.5085448e-05
  2.2180707e-03
  3.8920633e-05
  8.8429289e-05
  2.2505215e-01
  1.5421028e-04
  5.1545403e-06
  3.3928529e-05
  2.6510521e-05
 -8.5958847e-05
 -7.0724658e-05
  1.9901512e-05
  3.1354523e-04
  9.3328308e-06
 -1.3001372e-05
 -4.9940741e-06
  1.2848053e-04
 -8.3219835e-05
  9.2299280e-07
  2.7485556e-05
  1.6861373e-05
 -1.0521753e-05
 -1.0903359e-04
  1.6085133e-04
  4.8187459e-05
 -4.5595325e-06
  2.8929697e-05
 -4.1116163e-04
  1.5638550e-04
  3.2431049e-05
 -2.7578430e-05
  1.7766535e-05
  6.4970045e-05
  3.5623187e-05
 -1.0351789e-04
 -5.0770697e-05
 -5.7260666e-05
  1.2175933e-04
 -2.8346984e-05
 -9.7729549e-05
  5.7341185e-05
 -1.6157030e-05
 -1.5410202e-04
  2.0136606e-05
  3.9063528e-04
 -1.2244860e-05
 -3.1745527e-05
  1.4907971e-04
 -1.9217943e-05
 -1.1544306e-04
  5.3483025e-05
 -4.0504481e-05
  2.4448822e+00
  6.6410856e+00
 -1.0472127e+00
  1.2083576e+00
  4.1479287e+00
 -1.7450839e+00
  1.1964595e+00
 -2.6376767e+00
  9.9689007e-01
  1.4331043e-01
  1.1196305e-05
 -1.3925608e-04
 -1.5765399e-05
 -1.4249781e-03
  1.9350743e+00
 -6.0672827e-02
 -1.3822598e+00
  4.9779349e-04
  1.9250982e+00
 -7.5555865e-05
 -8.5828599e-04
 -1.2417206e+00
  7.4255413e-01
  3.1410668e+00
  7.4679822e-02
 -3.4081091e-05
  1.0732602e+00
  1.3042180e-02
  2.6670252e-03
 -2.5642037e-02
  3.8854307e-01
 -2.8933632e-01
 -2.3947883e-05
  1.2379108e-04
  6.1178064e-01
  7.8589350e-01
 -5.3753793e-02
  1.3563549e-03
 -6.1495833e-02
  8.0179656e-01
  2.2079168e-04
  9.9410278e-01
 -1.7293650e-01
 -1.4260467e+00
 -9.6497393e-01
 -2.0128419e-04
  6.6355092e-04
  7.5985568e-05
  1.4097604e-04
  3.8108898e-05
  6.3455132e-05
 -1.7260656e-05
  2.7131229e-05
  1.9311238e-04
  1.0491961e+00
 -2.5575547e+00
  8.5899848e-01
  1.5618676e+00
 -1.3795297e+00
  1.4687930e-01
 -2.0447466e+00
  2.0019461e-01
  3.4836382e-02
 -1.0921155e+00
  7.9779631e-01
 -4.4058152e-02
  1.2383064e+00
 -4.1094723e-01
  1.3152504e-01
  9.7177334e-02
  7.8615648e-01
  4.1862279e-01
  4.4717655e-02
 -2.1397192e-03
 -6.1009461e-01
 -7.3730940e-01
  5.0235200e-03
  4.1429630e-01
  7.2938812e-05
 -1.3621956e+00
  3.1419046e-02
 -1.7034139e-01
 -1.4888409e-01
 -7.8859240e-02
  2.1039488e+00
 -1.7020941e-02
  3.8255399e-04
 -1.7182285e-05
 -6.5294987e-01
  3.0860475e-01
  5.2736634e-01
 -1.0547909e-01
 -4.2508304e-01
  3.0637494e-01
 -2.9441048e-04
  3.8140512e-01
  4.9719692e-06
 -1.7139088e-01
  3.0403030e-01
  1.2358913e-01
  1.0891462e-02
  1.2482228e-04
  5.3223739e-05
  4.6044934e-04
  3.2457279e-05
  4.4508494e-04
 -1.7988928e-01
  4.7412395e-05
  4.6392347e-04
 -1.0089108e-01
 -3.3531232e-05
  6.4614805e-04
  1.0510626e-04
 -3.3410084e-03
  1.2994958e-01
 -5.1299683e-03
 -1.0742787e-04
  4.4742981e-05
  2.0720529e-04
  1.8826348e-04
  1.9024419e-04
 -2.3730458e-05
 -3.9754639e-05
  2.3579806e-04
  6.4235492e-06
  1.9285052e-04
  8.6684675e-05
  4.8051555e-05
 -5.1199295e-05
  4.5056280e-04
 -2.8817525e-05
  8.1878075e-05
 -4.6135788e-06
  3.4524237e-05
 -5.4216511e-05
  9.9904122e-05
  5.7142322e-05
 -2.6454141e-05
 -1.1959446e-04
  9.7141601e-05
 -1.5942851e-06
 -1.6783779e-05
  3.9910205e-06
 -2.8162458e-04
 -1.0396878e-04
 -3.3968836e-06
  3.3336524e-05
 -3.4564509e-05
  1.2752932e-04
 -1.7710723e-04
 -3.0003981e-05
 -6.8058270e-01
 -2.3540375e-05
  6.8000278e-05
  4.5148194e-05
 -8.8367196e-05
 -5.0667051e-05
  2.4444213e-05
 -2.6457374e-06
 -2.1369899e-05
 -4.0668642e-04
 -8.6478240e-06
  5.6400986e-06
 -2.2420267e-04
  1.2005803e-04
 -1.4532017e-04
 -4.2576838e-05
  1.3786003e-04
 -4.0207757e-05
  5.9989507e-05
  8.9760739e-05
 -5.5453929e-06
  1.3293169e+00
 -2.1725838e-05
  4.0947314e-05
  4.7702273e-05
 -1.2254146e-04
  6.0710285e-05
 -3.4558314e-05
 -1.4918223e-04
  6.0236038e-05
 -1.6100932e-06
  1.6582393e-04
 -1.2013963e-05
  1.3762343e-04
 -1.4352817e-04
  1.1298760e-05
  2.3284427e-05
  3.5756817e-05
 -1.3001142e-05
 -2.1556721e-04
  9.1231806e-05
  3.5512770e-05
  8.3203966e-05
  2.5760142e-05
 -1.0042865e-04
  1.5251780e-05
  1.8770746e-05
  6.3241299e-05
 -2.9143045e-04
  1.2889043e-05
 -5.9724087e-05
 -1.7017774e-06
  4.3762657e-06
  5.5892026e-05
  2.1804030e-04
 -2.1754556e-04
 -6.1201345e-06
  4.2939493e-05
  2.1384355e-06
  3.9690160e-05
  2.6543634e-05
 -3.7543432e-04
  1.8683940e-04
 -8.9886256e-05
 -2.1227263e-04
 -2.1741412e+00
  2.4900391e+00
  7.1851000e-02
 -8.1210089e-01
  4.4872086e-05
 -1.6943984e+00
 -2.7283289e+00
  1.2236971e+00
  1.5570733e-03
 -4.6198609e-05
  7.2992480e-05
  1.2688614e-05
  4.4901477e-05
 -1.0913498e-05
 -4.2104039e-06
 -1.9712609e-04
 -4.1933291e-04
 -1.1257642e-04
  7.0719259e-05
  6.0974155e-05
  6.4285305e-05
 -3.5612593e-05
 -4.7458732e-04
  8.5080123e-05
 -1.5204235e-04
 -9.9976955e-05
 -6.4321948e-06
  4.6187357e-05
 -5.0281829e-05
  3.5893702e-04
  2.3466714e-01
 -3.0303640e-05
 -3.4914319e-05
  4.3014890e-05
  3.7077719e-01
 -1.0330133e-04
  8.1037215e-05
 -6.7049790e-05
 -2.7361946e-06
  2.8794184e-01
 -2.6973364e-01
 -4.5765377e-05
  3.0049376e-04
  1.6015650e-01
  4.3025982e-04
  1.9453230e-04
  1.1432597e-04
 -1.5955498e-05
 -1.3311597e-04
  2.8821158e-05
  1.8884912e-04
  5.5510220e-05
 -9.9073113e-06
 -1.8407225e-05
  7.1991640e-01
 -1.3679726e+00
  1.5561916e-05
  1.4960195e+00
 -1.2579185e-02
  1.4734511e+00
  4.8390760e+00
 -1.1782017e+00
 -1.4873368e+00
 -3.0974513e-01
  3.0603449e-04
  2.1360839e-04
  4.9854785e-05
  1.3450252e+00
 -3.7151913e-04
  9.2252428e-03
  4.9082813e-04
 -4.5465764e-05
 -4.6058172e-01
 -3.6882418e-05
 -5.2308656e-05
 -3.4972131e-01
 -1.4171291e-04
 -3.1250247e-03
 -1.0157605e-04
 -6.5296084e-01
 -1.0077248e+00
  1.1721077e-04
 -8.1505263e-05
  3.3679862e-05
 -2.7100848e-05
  7.2685216e-05
  5.3494823e-05
 -6.6761124e-05
 -2.3932239e-02
 -1.6374208e-01
 -2.1866473e-04
 -4.3141981e-06
 -1.6033016e-04
 -5.1491981e-05
 -1.1768970e-04
 -7.1708986e-05
 -1.6490976e-06
 -4.2249430e-03
 -2.6581198e-01
 -6.3010622e-05
  1.5605698e-04
 -4.4651433e-06
  6.8870918e-06
 -1.5333680e-04
  3.1663316e-05
 -3.3836614e-04
  7.0191672e-05
  3.5021047e-05
 -1.1531407e-02
  3.2817177e-05
  2.9917258e-06
 -1.2429623e-01
  3.0585055e-05
 -2.0318084e-05
  1.1179662e+00
  2.5480177e-04
 -4.8387046e-05
  2.9333569e-05
 -1.0853424e-04
 -3.5227484e-05
 -1.6800577e-06
 -1.0460710e-04
 -3.4448880e-05
 -6.4278131e-05
 -2.9056901e-04
 -1.5844422e-05
  1.8750956e-05
 -2.1776743e-05
 -1.6633763e-04
 -8.1404141e-05
 -2.3063065e-05
  1.2907223e-04
 -1.7810544e-05
  2.8986211e-05
 -3.8326973e-05
 -1.9432996e-06
 -1.3132127e-05
  1.5094734e-04
  9.4069714e-05
 -3.8787130e-07
 -4.8876835e-05
 -2.2563505e-05
 -4.7860700e-05
  2.3959333e-04
 -4.7410995e-06
 -4.0978903e-01
  1.6530351e-04
  1.2246442e-02
  5.7074935e-06
  8.0821650e-05
  1.6577256e-05
  1.5192658e-04
  1.0264337e-05
  3.2956952e-05
 -1.3564783e-04
  3.6768752e-06
  1.6812392e-05
 -6.7523952e-06
 -1.6243416e-06
  4.5559926e-05
 -5.6261006e-06
  3.6142308e-05
 -4.0008979e+00
 -5.3119805e-02
 -3.6210898e-01
 -1.5091897e+00
  3.2231595e-02
 -2.5006399e+00
  2.8659931e-01
 -1.7407829e+00
 -5.9224772e+00
  2.7276021e-01
  2.8530858e-04
  2.2661554e-04
  3.3152772e-03
  3.5915118e-01
 -3.3102664e-05
  6.0746202e-06
  1.6739950e+00
  5.0914572e-03
  2.1450100e+00
  1.0037705e-05
 -3.0366960e-04
 -1.6421311e-02
  2.4379110e-01
 -3.1984382e-06
  1.6954119e-04
 -3.9889687e-01
 -2.0357347e+00
  2.6671487e-04
  1.4946314e-03
 -7.1252859e-04
  1.1993220e-01
  5.5115783e-05
  9.6702875e-05
  3.1478275e-04
  8.4527016e-01
  1.5864761e+00
 -4.5293182e-02
 -7.7528137e-05
 -2.8815362e-04
 -2.6688080e+00
  1.5714578e-01
  1.0124846e-04
 -2.1948013e-04
  2.0461903e+00
  9.1436106e-01
 -3.0733936e-05
 -1.6448322e-04
 -1.1561379e-05
 -1.0602480e-04
  1.2881702e-04
  7.8504592e-05
  1.8070505e-05
 -9.7492186e-05
  2.0106114e-05
  4.3849000e-01
  1.1663934e+00
  7.3476276e-06
 -6.1958975e-01
 -3.7064597e-01
 -1.1113868e+00
  6.5920748e-02
  9.1921225e-02
  2.3776633e-04
  6.2687778e-01
  8.0121018e-02
 -5.2459247e-05
  6.5943648e-05
 -3.3200400e+00
 -7.3177427e-01
  1.0413427e-04
  1.4102787e+00
  1.7835407e-01
 -2.0954480e-04
  7.6698899e-01
  1.6791675e-04
  3.1051269e-01
  9.0097412e-05
  1.5270489e-01
  1.0102237e-05
  1.2486657e+00
  1.1312124e+00
  3.4381319e-05
  2.3176259e-04
 -2.4964152e-07
 -5.9241533e-01
 -6.4792090e-05
 -7.8977382e-06
 -3.1914181e-04
 -1.7606471e+00
 -2.8412031e-02
  5.9027369e-03
 -2.8799703e-05
 -1.6709202e-04
 -1.1784087e-02
  2.1789027e-05
  2.7444778e-04
 -3.7700397e-06
 -4.2859994e-02
 -2.0866265e-04
 -1.1432064e-04
 -2.5921263e-04
 -1.2882731e-05
  2.6573951e-05
 -1.1518225e-05
 -3.9719271e-05
  2.4818233e-04
 -1.1713799e-04
  6.0503971e-04
  2.0369168e-04
  1.6110033e-06
 -1.7586146e-05
  8.7420602e-05
 -3.1563832e-07
  5.5563429e-05
 -4.0474693e-05
 -3.4483543e-05
 -7.8026911e-05
 -1.1434646e+00
 -1.4476685e-05
  1.0405472e-04
  9.1670910e-05
 -7.1640592e-05
  4.9359696e-05
 -3.6890124e-05
  3.0468591e-05
 -1.2286223e-04
  3.6727393e-05
 -5.1037248e-05
 -5.0770337e-05
  4.6743538e-02
  2.4133476e-05
  1.3924591e-05
  9.2853879e-06
  4.9730937e-05
  8.9284302e-05
  5.1154260e-05
  2.8275192e-04
 -2.2055356e-05
  3.3944752e-07
  2.0019952e-06
 -3.6334222e-05
 -3.3633842e-05
  2.4829613e-05
 -1.0631420e-05
  4.8107209e-05
 -9.2316041e-06
  8.8682064e-06
  6.3244760e-04
  1.0872701e-04
 -2.2109354e-05
 -1.6797726e-06
 -4.2991280e-05
 -4.1575535e-05
 -4.6368445e-05
  1.2964527e-04
 -6.7394270e-05
  1.2375200e-04
 -3.3761949e-06
 -1.4828821e-04
 -2.4826362e-05
 -2.7746340e-05
 -3.1668395e-05
  5.8274396e-04
 -3.1878561e-05
 -1.4505048e-04
  7.6623495e-05
  6.1897394e-05
  3.7087717e-05
  1.7883390e-01
 -8.2509461e-05
 -1.1607395e-04
 -8.0421931e-05
 -8.9286994e-05
  1.8955177e-07
  1.7073141e-04
 -5.7903304e-05
  2.8009301e-05
  1.2815405e-04
  9.8229409e-04
 -2.2444425e-05
 -1.3692972e-04
  1.0307131e-06
  7.2011360e-05
 -4.9763476e-05
 -3.9503939e-05
  1.1638246e-04
 -8.0437261e-05
 -8.8689667e-06
  1.2126836e-04
 -3.7607679e-05
  4.5477584e-05
 -1.5326248e-05
 -4.9203782e-06
  1.1562713e-04
  5.4393407e-05
 -2.7532966e-05
  2.1303172e-04
 -2.3165603e-04
  4.0334409e-05
 -1.6981355e-04
 -8.7774097e-05
 -8.7710687e-05
  5.3575975e-05
 -2.3290314e-04
  2.7572974e-05
 -1.5494536e-04
  3.8760892e-05
 -4.3871103e-05
 -4.1268740e-04
 -2.1333170e-05
 -8.5324362e-05
 -3.7185664e-06
  2.5868809e-04
  1.2570222e-04
  1.9661769e-04
  1.4047606e-05
  3.4556972e-06
  1.5688525e-05
 -1.5762669e-04
 -1.0469998e-05
  4.6159381e-05
 -6.7669302e-05
 -1.0941233e-05
  2.3722383e-05
  1.2293382e-05
  2.8838675e-05
 -7.1583250e-05
  4.2911339e-05
 -3.4213543e-04
 -3.9422390e-05
  5.7542998e-06
 -8.5376181e-05
 -1.6422974e-04
 -2.3425537e-05
  3.1024282e-04
  5.2772657e-06
  1.3761017e-04
  1.0042125e-05
  4.6294688e-05
 -6.4454689e-05
  2.4076959e-05
 -2.0453419e-05
 -7.9353369e-05
 -1.4512359e-05
 -8.3635641e-05
  3.4248995e-05
 -3.6880985e-05
  3.3379656e-05
 -6.8723799e-05
 -1.0845187e-04
 -2.3916329e-05
 -4.6444027e-05
  1.3489280e-05
  8.0054881e-05
 -2.2538513e-04
 -1.2304012e-04
 -2.9602343e-05
 -1.8495908e-04
 -4.7524118e-05
  1.2959662e-04
 -1.7523543e-04
 -2.1856702e-05
  9.7968499e-05
 -4.9859364e-06
 -2.1629101e-04
  9.6646372e-06
 -7.4503871e-05
  7.3829462e-05
  9.2530492e-05
 -1.6097882e-05
 -3.6861678e-05
 -1.3610163e-05
  4.5408622e-05
  1.1168984e-01
  2.3931034e-04
 -2.9378173e-01
 -3.3470397e+00
 -3.5227221e-01
 -6.6186744e-03
  2.0775469e-01
  1.4038457e-01
 -1.2277943e-04
  7.1774707e-06
  3.9693790e-05
  8.0609194e-04
 -1.0665533e-04
  2.3189335e-01
  3.6335437e-04
 -1.7034992e-05
  2.5847131e-01
  2.1205324e-05
  6.5847480e-01
  2.6312602e-05
 -8.3352572e-01
 -3.1792960e-04
  1.4581648e-04
  1.2479063e-05
  1.1631804e-04
  2.3728567e-06
  1.2436383e-04
 -2.2880793e-04
 -3.3834342e-05
  4.3072805e-04
 -2.3237595e-05
  3.0317124e-02
  2.3052042e-05
 -4.9993290e-05
 -2.8704045e+00
  9.8626559e-05
 -3.7256733e-02
  5.8277186e-05
 -2.6046910e-04
 -1.9860774e-04
 -1.0035959e-03
 -1.1173794e-04
 -3.5729634e-05
  1.7644015e-07
  6.5738459e-05
 -6.6107255e-05
 -1.3985159e-04
 -3.4066988e-04
 -8.1586724e-05
  1.4447905e-05
  4.6729128e-05
 -4.4177556e-01
  1.4100488e-02
  8.9798137e-05
 -3.4634725e-03
 -8.9612140e-06
  1.9798545e-02
  1.4927231e-01
  2.9022541e-02
  1.9904987e-06
 -4.0234198e-04
 -9.0952257e-05
 -3.7517680e-06
 -8.2431472e-04
 -9.0938820e-06
  9.6014404e-04
 -1.5415408e-04
 -6.2162083e-02
 -3.6663224e-04
  1.0120723e-03
  4.9780396e-05
 -1.0007654e-04
 -1.5051382e-04
  1.8167852e-05
 -4.5970879e-05
  6.4435939e-04
 -8.0052239e-05
  1.4717290e-04
  1.3273577e-05
 -1.4151756e-05
 -4.8679878e-05
  5.0858431e-04
 -1.0882070e-04
  6.9635214e-05
  7.9540943e-05
 -1.1823382e-04
  4.4738068e-03
 -1.5136386e-05
 -1.0711490e-05
  1.4375198e-05
  4.9341313e-04
 -4.9767299e-05
 -2.0765172e-05
  2.8411607e-05
  7.0359361e-05
  4.6733068e-04
  3.7040407e-04
  5.0664751e-04
 -2.8105211e-05
 -2.7646840e-04
  6.9754392e-06
 -1.3778759e-05
  8.6547341e-05
  3.3176730e-05
  6.0456601e-05
 -1.5999476e-04
  1.0787484e-01
 -7.1103022e-07
 -1.8837712e-04
  9.0183776e-06
  6.7984820e-07
  7.4653712e-05
 -3.1210744e-04
 -2.0749958e-05
  2.8072760e-04
 -1.0070506e-04
 -5.6111061e-05
  1.9082105e-04
 -1.9473246e-04
  2.8354829e-04
 -1.1320736e-04
  1.8260480e-06
 -2.4959046e-04
  4.7472749e-05
 -8.0940345e-07
 -1.7947826e-04
 -3.4315908e-05
 -6.2259038e-05
  1.5814854e-05
  1.5811584e-04
 -3.2907221e-04
  2.9016726e-05
  3.3708720e-06
 -1.0190349e-05
 -9.9161807e-06
  1.6019898e-05
  1.6448254e-04
  9.0289141e-06
  5.4968848e-05
  4.7170128e-05
 -4.9018145e-05
 -2.9729452e-05
  9.6587028e-05
 -2.8322698e-05
  7.1416784e-05
  8.8994930e-05
  5.7216594e-06
 -3.5749898e-05
 -2.6184029e-04
 -2.1925713e-04
  2.6937269e-06
 -2.8941923e-04
 -1.2348526e-05
  4.0090137e-05
  3.5172347e-06
  4.2572385e-05
 -2.2519793e-04
 -3.7982097e+00
  1.5093965e-04
 -9.0345925e-01
 -1.1261549e+00
  2.9002690e+00
 -7.2438991e-01
  4.9841601e-02
 -1.2646660e+00
  1.0700521e+00
  4.1691742e+00
  3.1029043e+00
  8.7442684e-05
  4.1767013e-05
 -2.9528791e-01
 -3.9841335e-02
 -6.2354106e-01
  8.5080922e-01
 -1.1120400e-04
 -1.2422698e+00
 -6.8787284e-02
  5.9903568e-01
 -5.7809777e-04
  4.0088964e-04
  1.9269791e-01
  1.1575145e-04
  3.0035046e-01
  1.1905129e-01
  1.6536231e+00
  3.1882112e+00
 -5.6621077e-05
 -7.4715436e-02
 -2.5220556e-04
  4.1259721e-02
 -2.2190616e-06
 -4.6344143e-05
 -1.3765054e-04
 -6.7515648e-03
  3.5521572e+00
  9.3077552e-03
  1.1668215e-03
 -8.1126799e-04
 -4.2499876e-01
  7.4910076e-08
 -5.1578613e-06
 -4.6674081e-06
  6.5724546e-01
  4.0361706e-02
  5.5860750e-05
  3.1966140e-06
  4.2568645e-05
 -2.2815957e-05
  8.9298381e-05
  8.6159074e-05
  2.5542936e-04
  6.6533248e-05
  6.2348363e-07
 -1.2335043e-04
  4.0322448e-05
  2.9739438e-04
 -2.5255725e-04
 -1.3201437e-05
  2.5732446e-04
 -2.1154329e-01
  1.9403543e-04
  2.3472146e-04
 -2.6422056e-05
 -3.0987055e-04
  1.0875357e-04
  7.5507410e-06
  2.5824926e-05
 -9.1980924e-05
  1.7057473e-04
 -1.8719316e-04
 -7.3800889e-05
 -4.0003855e-05
  3.1816689e-05
 -4.3307908e-05
  1.0145356e-04
  4.0456114e-05
 -2.8348670e-05
 -2.6036965e-05
 -8.6176387e-06
 -2.2089171e-04
  5.0923809e-05
  3.2050710e-05
 -1.4131339e-04
 -1.0223311e-04
  7.7753859e-05
 -2.4398349e-05
  2.0948211e-04
 -5.4463389e-04
  1.2017357e-04
  1.1023548e-05
 -9.0465197e-05
 -4.4916531e-05
 -3.0469539e-05
  2.0838492e-05
  7.2419214e-05
  9.4294028e-06
 -5.3122239e-06
  9.8542565e-05
  3.1265110e-05
  4.1868032e-05
 -3.9591596e-05
  8.7628112e-05
  3.9918805e-06
  1.3298653e-04
  7.8198187e-05
  8.1466322e-05
 -9.9265904e-05
  2.3456494e-05
  5.8975331e-03
  1.1452448e-04
  1.3186718e+00
  2.3392554e-02
 -2.1640359e-01
  2.5745783e+00
 -3.1747340e-04
 -1.6229894e-04
 -6.8721594e-05
 -1.8952032e-04
 -5.3050429e-05
  1.0360225e-04
  1.3482830e-01
 -4.3052310e-06
 -2.0745003e-05
  3.0481389e-03
 -2.1424730e-05
 -4.8706988e-06
  1.0655934e-04
  7.3749281e-05
  7.7953657e-05
  9.0616471e-05
 -1.6864959e-05
 -8.0748097e-05
  7.1581766e-05
 -1.3321586e-04
  8.5023039e-06
  5.0678904e-05
 -6.6824222e-04
  4.2242522e-04
 -2.1310162e-04
  4.2189931e-06
  2.8623346e-05
  6.4424664e-04
 -2.6997161e-05
 -1.8125908e-04
  1.1986926e-05
 -4.6684445e-04
 -2.0983945e-04
  4.5635365e-06
 -3.8972248e-05
 -7.7087659e-04
  4.9068925e-01
  3.3137572e+00
  2.1899079e-05
 -9.9844226e-05
  3.8801860e-05
  5.7481986e-01
  1.0844349e-05
 -1.5261717e-06
 -2.5416814e-05
 -3.2713684e-05
  8.5101547e-06
  1.1251779e+00
 -3.4559798e-01
 -1.4909053e-01
 -8.4810221e-01
  4.5373435e-03
 -9.4178498e-01
 -1.0759603e+00
 -2.5536335e+00
  7.5545484e-01
  7.8482472e-04
 -1.2578952e+00
 -3.4439706e-06
  5.7721897e-03
  7.0264125e-01
  5.6648564e-01
  1.5810378e+00
 -4.2637447e-01
  1.3350360e+00
  2.6267650e+00
  6.6003853e-01
 -8.4507046e-06
  5.4926835e-02
  1.0487946e-01
  1.0578865e-03
  6.4110756e-01
 -3.5962123e-01
 -7.6721972e-01
  4.3813223e-01
  3.7686786e-01
  8.4882390e-01
  3.2015994e+00
  1.9400945e-04
  1.5911822e+00
  1.0351571e-01
  9.0246308e-01
 -2.7878158e+00
  5.9367245e-01
 -2.7860708e-03
  6.0409684e-02
 -2.8840926e+00
 -9.2574060e-02
  2.6578093e-01
  1.2277157e+00
  4.1210505e-01
  4.1791525e-02
 -5.6573102e-05
 -1.1233617e-01
 -3.7027457e-05
  2.5601580e-04
 -2.6393260e-05
 -1.1751534e-04
 -7.2209623e-05
 -5.1484321e-04
  3.5165295e-01
 -1.2193509e+00
  6.2372934e-02
 -1.8953179e+00
 -1.7246461e+00
 -2.6101887e+00
 -2.7651365e+00
  6.9921243e-01
 -3.3601975e+00
 -2.9146848e+00
 -3.1301194e-01
  1.2485407e-01
  3.9326189e+00
  4.6924058e-01
  5.0869411e-01
  3.2885561e+00
  4.0982276e-02
  6.5952450e-01
 -9.9083251e-01
  4.5460802e-01
  2.3308096e+00
  1.8926483e-01
 -1.1671593e+00
  1.7965797e+00
  6.6282439e-01
  4.1695428e+00
  1.9037937e+00
 -1.0852016e+00
 -7.0938468e-01
  3.8836942e+00
  4.6914604e-01
  2.1521120e+00
  1.9021950e+00
 -1.1028050e+00
  2.2497811e+00
 -2.6141250e+00
 -1.8310155e+00
 -1.1018901e+00
 -1.3445282e-01
 -1.5376313e+00
  2.4416499e+00
  5.1313269e-01
  1.8235991e+00
 -3.3626246e-01
 -9.7696316e-01
 -2.6087053e+00
 -2.8376821e-01
 -1.1385081e+00
  4.0719271e-01
  4.9815360e-02
 -4.9607003e-01
  2.0072522e+00
 -3.1988043e-01
  1.6298505e+00
  4.3250784e-01
 -1.1884803e-04
 -3.2382892e-04
  7.3307630e-05
 -1.1475317e-04
  1.3399220e-04
  3.1330852e-05
  2.8690025e-05
  4.3731921e-05
 -1.2274370e-04
  3.0296153e-05
  5.6862027e-05
 -2.1303395e-05
  4.0570714e-05
  5.7103643e-06
 -1.8072573e-05
 -6.5130162e-06
 -4.0596100e-05
 -5.3190979e-05
  1.4429212e-04
  1.5001866e-04
 -1.8538944e-05
  2.0543479e-04
  5.5784767e-05
  1.5964154e-06
 -4.5620302e-05
  2.0946066e-04
 -3.3708540e-05
  1.4563870e-04
 -1.6317015e-05
  2.7879742e-06
 -1.3725553e-04
 -4.1540763e-05
 -2.2344969e-04
  9.5982708e-05
  1.3769027e-04
 -6.9381858e-05
  2.1278779e-06
  1.2999572e-04
  4.2884989e-04
 -1.2119144e-06
  7.7871002e-05
  6.9544963e-05
  9.2512091e-06
 -3.0916573e-05
  8.3737468e-05
 -1.4208171e-05
  1.7825069e-04
 -3.5461042e-05
  2.3386443e-04
  6.1119630e-05
 -2.8032046e-06
 -4.7407721e-05
  3.2608397e-04
 -1.0489734e-04
  1.5020035e-01
  6.0892706e+00
 -4.6671352e+00
  2.3927799e-01
  8.4334660e-01
  6.4674211e+00
 -1.7676145e-02
  1.1294017e+00
  4.5591059e+00
 -3.9857772e-01
  7.0444685e-01
 -1.0697916e-02
  1.7823999e+00
  1.0711454e-01
  9.1314721e-01
  2.5819913e-01
  8.4965628e-01
  2.8084651e-01
 -2.2507999e+00
  1.5777092e+00
  1.9384487e-04
  5.2687830e-01
 -8.3301216e-02
  9.0144747e-01
 -1.0383367e-01
 -3.5070774e-01
  2.7466738e+00
  9.0490311e-01
  3.3066113e+00
  1.0629005e+00
  9.9980843e-01
  4.6182555e-05
  1.1109118e+00
  1.4404986e+00
 -1.4958109e+00
 -7.2192758e-01
  1.3199733e+00
  1.0167038e+00
  1.5658679e+00
  2.3198686e+00
 -6.3335128e-02
 -3.6226222e-03
 -2.2053437e-02
 -2.2340374e+00
 -1.3818350e+00
  2.1721103e+00
 -2.5240591e+00
 -2.5954802e-04
  1.1976101e-05
 -8.7104551e-02
  1.8804429e-01
 -2.3024818e-01
  5.9244287e-01
 -1.5978806e+00
 -8.2822695e-02
  3.0142054e-04
  2.6220800e-05
 -5.6697283e-04
  1.3415908e-04
  5.9504700e-01
 -2.9023061e-02
  2.0086961e-02
  1.1146393e-04
  1.2135451e-05
  5.2428135e-05
  6.2102059e-05
 -8.5434252e-01
 -9.9932775e-05
 -5.7466728e-05
  1.9383775e-05
 -1.0296040e-04
  8.4538182e-04
  2.8499633e-05
 -5.4501084e-05
  1.5945921e-05
  2.2224067e-05
  1.5190139e-04
  2.5298417e-04
  1.7161031e-04
  5.7599980e-05
  5.7989429e-05
  3.8025685e-06
 -3.9050563e-05
  5.2726049e-05
  1.2379409e-04
 -5.3983624e-04
 -2.5824125e-05
  5.4269731e-05
 -3.2281063e-05
 -2.6741245e-05
 -9.0497429e-05
  1.2583326e-04
  1.3058574e-05
  9.7622687e-04
  4.8638733e-05
 -1.5110244e-05
 -8.5421707e-05
 -5.0875542e-07
 -1.2771604e-05
  2.7037837e-04
 -1.4963704e-04
 -5.3399799e-05
 -4.5445908e-05
  4.6569228e-04
 -3.7146665e-04
  3.1771207e-05
 -3.9468192e-05
 -7.8502972e-06
  2.2543521e+00
 -2.5505438e+00
  7.7046439e-05
  3.2418305e-01
  5.1187032e-01
  2.3836112e+00
 -1.4088231e+00
 -4.7736372e-05
  1.1694248e-01
 -3.3943346e-05
  2.6420990e-05
 -3.7365644e-05
  4.3303546e-05
 -2.6376894e-05
  2.6226707e-04
  1.6226358e-04
  4.3720883e-04
  3.1012038e-04
  1.8179029e-05
 -1.9302043e-04
  1.9868674e-05
 -7.9724712e-05
  4.4852536e-04
  8.2710074e-05
 -7.7308883e-05
 -1.0490879e-04
 -3.7349764e-07
  8.4226785e-06
 -2.4802104e-05
 -6.1875035e-05
  2.1510998e-04
  1.4820414e-04
  1.5314291e-06
 -1.1214201e-05
  2.0949011e-04
  2.5716776e-01
  3.7948172e-05
  4.5868041e-05
 -8.5905041e-05
 -1.5535593e-03
  5.3000997e-04
  1.0172948e-04
 -4.3794429e-05
 -9.5265184e-04
 -1.6397358e-01
  1.8526321e-04
  5.7972204e-05
  6.4805012e-05
 -1.9719273e-05
 -1.3933986e-04
  8.6448599e-05
 -2.0159017e-05
 -3.9535853e-06
 -1.1447839e-04
 -2.2507862e-05
  5.3434491e-01
 -2.6580482e+00
 -7.5214338e-01
  1.4620345e+00
  1.2813206e+00
 -7.3905385e-01
  1.5146443e+00
  4.1397957e-06
  3.7145236e-01
 -5.2768135e-01
  8.0061356e-05
  7.1078754e-04
 -2.5938663e+00
 -6.3035579e-05
  5.7354031e-05
  4.3248277e+00
 -4.0020968e-05
 -3.8387197e-01
 -3.3536686e-05
 -2.0765844e-04
 -2.9034296e-01
 -2.0255025e-05
 -1.5161434e-05
 -1.7775172e-01
 -6.8153811e-01
 -5.0872419e-05
 -5.2806336e-06
  1.8202441e-03
  3.1601932e-04
 -1.3999832e-04
 -3.5315519e-05
  1.2570299e-05
 -2.7026690e-04
  2.6963602e-05
  1.2478714e-04
  2.5247009e-05
 -1.3164719e-04
  7.5678450e-05
 -2.9774586e-04
 -2.4126709e-01
  1.2881325e-04
  2.2615444e-05
 -1.0742638e+00
 -2.1002841e-05
 -5.6343586e-05
 -1.4717161e-04
  1.0316213e-04
 -4.0347513e-04
  1.3644634e-04
 -1.7171128e-04
 -2.9497608e-06
 -9.9733879e-04
 -2.2978191e-05
  8.2907718e-05
 -2.7276583e-05
 -4.1543448e-05
 -3.7016074e-05
 -1.2328012e-05
 -1.0840917e-04
 -6.9342714e-05
  3.1866064e-05
 -2.1885867e-06
  1.2825818e-04
 -2.2487015e-05
  1.1343507e-05
 -8.4105290e-05
 -3.5396954e-07
 -6.4693704e-06
 -7.6479249e-05
 -1.6919803e-04
  1.0438341e-04
  1.3490561e-04
 -4.7327550e-05
 -5.7866500e-06
 -1.1538369e-04
 -1.0789195e-04
  1.0762989e-04
 -2.6181655e-05
 -7.2071387e-05
  1.0888609e-04
 -1.4237697e-04
 -1.7591392e-06
  9.1197944e-05
 -8.0369973e-05
  7.8632926e-05
  4.2486310e-05
  7.1642884e-05
 -5.9094513e-05
  4.6334058e-06
 -1.5916345e-05
 -2.4514110e-04
 -1.0683707e-04
 -6.3957210e-05
  1.4322496e-05
  1.6552197e-04
 -5.7143174e-05
  3.8009159e-05
  2.4766348e-05
  6.3058169e-06
  9.9389646e-05
 -9.1577778e-05
 -3.8566330e-05
 -1.0500070e-04
  3.0335532e-06
 -1.0957323e-03
 -9.8565542e-05
  2.8240818e-05
  4.0235546e-01
  5.8023812e-05
 -2.4571213e-05
 -1.1756836e+00
  2.3323239e-01
  4.9150681e-06
  1.2780091e+00
 -6.2846360e-05
 -4.6913183e-04
 -9.0077767e-05
  3.1783035e-05
  1.0529422e-04
  1.0561772e-04
  6.0153485e-04
  5.8728583e-05
 -2.8215129e-05
  8.9506957e-06
  7.1426024e-05
  6.2167178e-06
 -5.5335142e-05
 -1.1341974e-04
 -3.1568859e-05
  6.3696403e-05
  2.1524795e-05
  8.3615298e-05
 -1.1459406e-08
  3.5642461e-07
 -1.5975900e-05
  5.4173448e-05
  2.0179610e-05
  8.5848005e-05
  1.7126805e-04
  1.4655315e-04
 -2.7575601e-05
  1.7293918e-01
  9.3174822e-05
 -9.9310046e-06
  7.8132478e-05
 -1.7139702e-05
  7.0295959e-05
  5.1015071e-05
 -8.6743632e-05
 -6.5856380e-05
  3.3884841e-01
 -3.2090463e-04
  6.0034276e-05
 -4.3935601e-05
  2.1439928e-05
  5.5429606e-05
 -2.3524636e-04
  1.9090297e-05
  1.9488942e-04
  3.5293204e-01
  7.5549090e-01
 -8.5528380e-05
  2.7905729e-01
  7.1085771e-05
 -1.6347265e+00
 -1.8759481e-05
  8.9819196e-06
  5.3442204e-01
 -5.6516078e-06
  8.4202591e-05
  7.7001035e-04
  2.3008676e+00
  4.2443953e-05
 -4.8280378e-07
  3.0847805e+00
  6.9673097e-01
  2.4316786e-04
 -8.2749265e-01
 -7.6436601e-04
  9.5438401e-05
  7.8234208e-01
 -9.3846968e-05
  3.0036949e-04
  1.8976369e-03
  1.2416497e-03
 -8.5182262e-05
  1.8301394e-04
 -1.3234747e-04
  7.4812000e-05
  3.1332681e-01
  2.0149486e-05
  1.8333666e-04
 -1.3174450e-04
 -1.5360127e-05
  1.6936150e-05
  4.8913935e-04
  8.2180399e-05
  1.8281246e-05
  7.4119438e-05
 -9.1296250e-05
 -5.7912823e-02
  1.0381576e-03
 -5.4836200e-05
 -4.9720296e-05
 -5.3026761e-06
 -2.0383985e-01
 -2.9589921e-05
 -7.9879203e-05
  6.5565218e-05
 -1.6825923e-05
  1.3896392e-04
 -5.4625838e-05
 -3.5044970e-06
 -1.3117030e-05
 -1.1666769e-05
  7.9840219e-01
  1.9959550e-01
  2.8296381e-01
 -2.4212249e-01
  9.7931623e-01
  3.9358193e-01
 -3.0855646e+00
 -2.0430401e-04
 -9.2583685e-04
  4.9632078e-01
  2.3048266e-05
 -8.4980996e-04
 -5.7894136e-05
 -8.3352298e-01
  4.5318861e-04
 -2.4443993e-02
 -1.9292259e+00
 -1.4297265e-05
  5.7567865e-01
 -3.2117287e-06
  4.6187901e-04
  3.4184132e-02
  8.8550387e-06
  6.5264054e-02
  8.4805324e-05
  2.2837427e-04
  6.2266850e-01
  1.4906672e-01
 -1.3100749e-04
 -8.5349136e-05
 -2.0222599e-02
 -1.8960997e-04
  1.5505246e-04
 -2.0884781e-04
  5.2721898e-06
  1.5625487e-04
  1.0984750e-04
 -5.5192937e-05
 -3.0648774e-03
 -4.6157274e-02
 -3.9080402e-05
 -2.9663384e-05
 -3.5453462e-03
  3.4689024e-01
 -2.2334523e-04
 -3.4453671e-05
 -9.1063121e-05
 -1.2207548e-05
 -1.2492195e-04
 -3.2320077e-04
  5.5812288e-05
  6.7443805e-05
  8.0487815e-05
 -2.1485790e-05
  1.1558779e-02
 -6.7359382e-05
 -1.3399615e-04
  4.7320332e-02
  4.8648100e-04
 -1.2286400e-04
  1.0113971e+00
 -2.2585124e-02
 -3.5673255e-04
  6.5645290e-04
  2.4722146e-02
 -2.6603559e-05
  2.7349035e-04
  4.6726033e-01
 -1.7987053e-05
 -1.9216448e-05
  2.5230367e-04
  1.6940733e-04
 -1.1711045e-04
  3.3885951e-04
  1.2414562e-04
  1.6539557e-04
 -8.5716551e-05
  9.1728281e-05
  1.0560299e-05
  5.7437312e-04
  3.0607291e-04
  1.6388544e-01
  9.2455821e-06
 -1.8231121e-04
 -1.2784253e-05
 -6.3238413e-06
 -5.1517014e-05
  1.0602186e-05
 -9.0100903e-06
  4.9893697e-06
 -2.1830416e-05
 -2.0413274e-05
  2.6346568e-05
 -7.1974481e-03
 -6.1550003e-05
  2.6881999e-06
 -8.6888345e-04
 -9.4190351e-04
 -1.1567369e-04
  2.3897468e-05
 -1.1885296e-04
  6.3145810e-05
 -3.3600052e-04
  1.0106935e-04
  8.7016677e-05
  3.4954151e-05
 -8.4407293e-06
 -2.1126009e-05
 -9.3599498e-01
 -3.4997065e+00
 -1.2066991e+00
 -6.8489075e-01
  1.1275400e-02
 -4.2324533e+00
 -1.4082397e+00
  2.0467155e+00
  3.6424065e-01
  2.6687054e-04
 -3.3617674e-03
  4.5553981e-05
 -1.3361061e-05
 -9.4717121e-05
 -4.7836656e-04
  2.5095933e-06
 -9.1185233e-05
  5.1688738e-05
 -6.4458094e-05
  7.1604329e-05
  2.6020780e-05
 -5.9409755e-05
 -1.0734949e-04
  9.7092539e-05
 -4.5893375e-06
  6.8939007e-05
  3.1471836e-06
 -3.4358585e-05
 -3.6653539e-05
  5.1137200e-04
 -1.5351066e-05
 -1.8468078e-05
  1.5372209e-05
  8.1774015e-05
  4.1567173e-06
  2.6045916e-05
 -7.7463206e-05
  5.4147909e-05
  7.4057430e-02
  4.5340124e-01
  1.2442192e-04
 -1.0241121e-04
  6.8305038e-05
  8.4704423e-01
  2.1034968e-01
  1.5752146e-05
 -3.9805000e-05
 -7.1143413e-06
 -2.5787213e-05
  9.2175687e-05
  6.4279244e-05
 -8.4795276e-05
 -6.9214067e-05
 -1.5038349e-05
 -2.6046288e+00
  4.7936096e+00
 -2.4081355e-05
 -2.8654527e-02
 -7.5951168e-05
  2.1114029e-01
  1.4517146e+00
 -3.5775515e-01
  7.8803350e-06
 -8.7336135e-05
  1.8647737e-05
 -3.2082788e-04
  5.8404734e-05
  5.9282174e-04
 -1.9335870e-04
 -1.2328180e-04
 -3.5565572e-05
 -2.9048522e-04
 -4.0992585e-05
  8.3707011e-05
  4.6716530e-05
 -1.1946780e-04
 -5.7468889e-04
  8.5382519e-05
  3.1589054e-05
 -9.9902070e-05
  1.0039702e-04
 -5.8986021e-05
  2.8000752e-04
 -1.7137681e-06
  9.6564552e-05
 -3.1579646e-05
 -6.8706715e-05
 -5.7464058e-06
  2.7679797e-04
 -2.7856766e-04
  3.7491071e-05
  8.5844164e-05
 -3.8246002e-05
  1.2044391e-03
 -2.7306663e-04
  8.6477623e-05
 -1.8268704e-06
 -5.0778559e-05
  2.4345791e-04
  1.4590613e-04
  1.8797300e-05
  6.7352128e-05
 -7.0636990e-05
  1.2071277e-05
 -8.5446904e-05
 -2.0053401e-05
  3.0102281e-05
 -7.6429176e-05
  2.6120608e+00
 -2.9865214e-01
 -2.6436388e+00
  9.4659120e-01
 -4.4640665e+00
 -2.4887090e+00
  7.9145150e+00
 -4.5357251e-01
 -1.4331609e-01
 -2.4522033e-05
 -8.8306844e-01
  2.8856908e-05
 -1.5854405e-04
  3.3110455e-02
  2.5209200e+00
  4.1319112e-05
  4.8891425e-01
  3.7368820e-05
  1.4023712e-01
  1.6261682e-05
  3.5748795e-05
 -9.9934632e-06
 -2.6317179e-01
 -1.5275896e+00
  2.8411785e-05
 -3.5714433e-01
  2.3887023e-05
  2.9961769e-02
  2.0373132e-05
  9.7418088e-06
 -1.5322486e-04
  2.0139612e-02
  1.0079614e-04
 -1.3098604e-05
  1.2299892e-01
  1.0692232e-05
  2.4190149e-05
  5.9584755e-04
  5.1313131e-05
  3.3816448e-06
  5.3871864e-01
  4.6132028e-01
  1.1087072e-04
  7.5585762e-05
  7.6247583e-05
  3.6095080e-04
  3.3646291e-05
  3.2829659e-05
 -4.1598600e-05
 -2.6080635e-01
  2.0659418e-06
  4.5904559e-05
  2.5373995e-01
 -5.1921623e-05
 -1.5226688e+00
 -1.1679158e+00
  6.5208495e-01
  5.1728702e-01
 -7.4568719e-01
 -5.3797632e-01
  1.3252699e+00
 -3.0470837e-04
 -2.8676517e-05
 -8.5129177e-06
  2.3521643e-02
  1.0383197e+00
 -1.6834418e-01
  7.4181879e-01
 -6.0146070e-01
 -3.9447448e-05
  1.8743571e+00
 -1.9307550e-05
  6.0576510e-01
 -4.1060331e-03
 -4.5406545e-05
 -5.7364284e-04
 -1.2769002e-02
 -3.2507145e-01
  1.9463328e-04
 -2.6555732e-01
 -1.2160086e-05
  4.8876482e-01
 -2.5341549e-05
 -2.5346043e-04
  4.6470552e-03
  8.1627226e-01
 -1.0344473e-02
 -2.0273230e-05
  2.4167770e-01
  9.8312368e-05
  1.3875477e-03
 -3.1947082e-05
 -5.7618174e-05
 -1.1180695e-05
  1.2644920e-02
  6.9562298e-01
  5.5448610e-01
  1.8946359e-02
  9.0715237e-02
 -6.0647562e-06
  5.0034234e-04
 -7.1263559e-05
  3.8614664e-05
 -1.1019423e+00
  8.9210225e-05
  2.3516923e-05
  1.3348013e+00
 -2.4527089e-05
  9.2591232e-01
 -3.4693190e-01
 -3.3913988e-01
  2.5482380e+00
 -5.7830477e-01
  1.5214411e+00
  1.8734276e+00
 -7.0870596e-01
 -1.0359733e+00
 -1.2626822e+00
  5.6711779e-06
 -1.5825457e-05
  2.0275632e-04
  2.9187134e-01
 -2.0102534e-05
  2.1107207e-04
 -2.2470732e+00
 -5.2887476e-06
  7.7455275e-05
  1.1398562e-04
 -1.6268226e-04
  4.5435822e-06
  7.0470858e-05
  3.9644938e-06
 -3.2898533e-05
 -3.1060044e-05
 -4.4514930e-01
 -6.5403488e-05
 -2.9989347e-04
  1.3442576e-04
 -2.4931549e-05
  1.3179674e-04
 -1.4410682e-04
  1.1378818e-05
 -7.4435241e-04
 -1.2146503e-01
 -1.1039622e-04
  9.6372969e-02
  7.7178549e-05
  1.0766005e-05
  1.0797651e+00
  1.2683150e-05
  1.2379834e-05
  1.9391681e-01
 -7.5359610e-05
  1.8041768e-05
  2.2092140e-04
  5.8275335e-05
 -1.8762193e-04
 -9.5598698e-06
  2.1204943e-04
  1.1946358e-04
  5.0408707e-05
  6.9415255e-05
 -5.1076615e-01
  2.2367519e-01
 -3.3010467e-05
 -2.1923145e-02
 -1.2409166e-04
 -1.4265028e-01
 -7.2670084e-01
 -1.2442454e+00
  6.6071487e-05
 -3.0227837e-05
  5.1488964e-06
  1.4675050e-05
  1.0642420e-04
 -7.5412372e-06
 -5.6481935e-05
 -6.9546295e-05
 -1.5252235e-04
  8.7103329e-04
 -2.3182321e-05
  7.1859133e-05
  1.4123198e-04
  1.2725223e-04
 -7.2971008e-05
 -2.4814525e-04
  4.5084693e-05
  1.3551486e-04
 -2.4499117e-05
  1.4441032e-05
  5.1934010e-05
  4.7823891e-05
 -2.6730588e-05
 -2.5476977e-05
  3.0929077e-05
  1.7866460e-04
  3.8256729e-01
 -9.8289020e-06
  6.6004621e-05
  6.8162326e-03
  6.5413792e-07
  5.2315881e-05
 -8.9915753e-05
  1.2963809e-04
 -1.8736744e-05
 -1.9009781e-07
  2.5880134e-01
 -3.0543277e-05
  4.4584165e-05
  1.5587375e-05
  4.5933724e-05
  7.7810240e-05
 -6.3715139e-05
 -2.0575529e-04
  9.2764523e-05
  6.4795429e-05
 -3.1139655e-02
  3.7977644e-04
  4.3268956e-06
 -2.7027909e-05
  1.4726727e-05
  6.7029185e-05
  5.3714216e-02
  1.3432484e-03
  7.6213560e-06
  1.0171307e-04
  7.5158036e-06
  9.5112218e-06
 -2.2334784e-04
 -4.2206928e-04
 -7.6712844e-05
  1.8710971e-05
  1.0034279e-04
 -1.0315311e-04
 -1.4340202e-04
 -2.3117950e-04
  3.3130375e-05
  5.1979980e-05
 -1.7872355e-04
 -5.0603044e-06
  1.6095686e-04
 -8.3840489e-05
  1.1670240e-04
  7.9303682e-05
  9.7277392e-05
  1.7776814e-05
  7.6714205e-05
 -4.9084203e-05
  1.0512787e-04
  1.3143884e-05
 -8.3021419e-05
 -2.9342630e-06
  7.8213656e-05
 -4.8804596e-01
 -2.1230965e-06
 -1.1820554e-05
 -1.3515147e-04
 -5.3666054e-07
 -2.2119386e-04
  4.7304526e-05
 -2.2342278e-05
 -5.9751128e-05
  1.6404614e-05
  9.7362361e-05
  1.3233209e-05
 -8.4593732e-05
  7.1947507e-05
  7.7469318e-05
  7.4357117e-06
 -9.1219939e-05
 -3.5934675e-01
  9.8015562e-06
 -2.2141636e-05
  5.5649936e-05
 -2.2444335e-06
  3.5311634e-05
  6.4861393e-05
  1.3659381e-05
  2.3666198e-06
 -1.7092508e-04
  1.6042970e-05
  7.8583844e-06
  7.7328972e-05
 -3.2046133e-05
 -6.9217785e-06
 -1.4571531e-04
  7.3550960e-05
  1.1229095e-04
 -1.1088274e-04
  2.6339143e-05
 -2.2009060e-06
  5.2836705e-05
  8.1550592e-05
 -3.5636460e-06
 -1.9814435e-05
  4.2046366e-05
 -1.6554291e-06
 -1.5224135e-04
  1.0065200e-04
  2.7285176e-05
  1.1237068e-04
  1.5503625e-05
  1.6845076e-04
 -2.5668732e-04
  8.1602171e-05
  4.7858295e-05
  7.7162054e-05
 -6.4830645e-05
  4.7480389e-05
  1.4460937e-04
 -9.0341018e-05
 -2.5280595e-05
 -1.0803074e-04
 -9.7155172e-01
 -7.7137382e-05
  2.6187887e-05
  2.9241903e-05
  1.8554192e-05
 -8.2666543e-07
  5.1909528e-04
  3.1130556e-05
 -1.7499976e-04
  8.4405510e-05
 -2.0678563e-05
 -4.4023299e-01
 -1.4317287e+00
  1.3323347e-01
 -4.9894413e-01
 -4.3184182e-01
 -9.3269730e-01
 -1.1391760e+00
 -8.1980151e-01
  1.2666721e+00
 -6.7781366e-05
  1.3276136e-01
 -1.2334088e+00
 -1.1964700e-01
 -5.6596774e-01
  2.9840117e+00
  7.7944201e-01
  1.2415245e+00
 -2.8730202e-01
  9.7322494e-01
  1.4172511e+00
  5.6608021e-01
  6.5819442e-02
  3.4213316e-01
  1.9625047e+00
  1.8091998e-05
 -7.9306170e-05
  5.4230183e-01
  8.7520093e-06
  4.6692857e-01
  1.1917456e+00
 -8.5835986e-02
  4.2863142e-01
  1.4834046e+00
  6.8073589e-01
  3.0414513e-03
 -4.0037188e-01
  6.4166546e-02
  2.3348470e-01
  1.1649318e-01
 -1.2056493e+00
  2.0710933e-01
  1.3441997e+00
  7.7249825e-01
  2.1245534e+00
 -4.9653824e-02
  2.6917081e-05
 -1.7836461e-03
  3.9516599e-05
  6.5252745e-05
  3.3159018e-04
 -1.7883478e-03
 -9.0820962e-01
 -3.7876850e-01
 -5.4816401e-04
  5.0476975e+00
 -2.4232233e+00
 -2.5660012e+00
  2.2465389e+00
 -3.5498568e-01
  2.9289725e-01
 -2.7393751e+00
  5.8802271e-01
  2.4910983e-01
  2.4131476e-05
  9.5943415e-01
 -3.0716069e-04
 -1.0630307e-03
 -2.7095363e-04
 -3.9186294e-04
 -7.5465732e-04
 -2.7058115e+00
 -6.9690352e-05
  2.5685987e-01
 -1.2774684e+00
 -3.0764782e-01
 -6.1203814e-01
 -4.4942406e-01
  5.6042089e-05
 -8.9870446e-05
 -1.4465296e+00
 -1.5574733e-04
  6.7034131e-01
 -7.8732735e-01
 -2.2485729e-04
  3.2606294e+00
 -6.0640828e-04
  6.2377614e-05
  6.1286191e-05
 -6.1233151e-01
  1.2513633e+00
  7.6185733e-02
 -9.2272145e-01
 -3.2127909e-02
  5.1683819e-01
 -1.9734633e-01
 -1.2432961e-04
  7.4895703e-05
 -5.3993577e-01
  2.3206787e+00
  5.4996548e-04
  3.6439954e-04
  6.9249392e-05
 -3.1232976e-04
 -1.6158121e-04
  1.5588834e-05
 -2.3330225e-05
  1.0594200e-05
 -1.6933474e-05
 -2.0411375e+00
 -1.6000428e+00
 -3.9338179e+00
 -6.6248460e+00
  3.8387074e+00
 -3.2748213e-01
  9.0125400e-01
  8.8552636e-01
  1.4997669e+00
 -9.9908620e-01
 -2.1062637e-02
 -3.0884509e+00
  2.5774839e+00
  2.1925790e-02
 -3.4895861e+00
  2.6799420e-01
  4.2169948e+00
  7.8402543e+00
  1.8508333e+00
 -9.3397009e-01
 -4.2789569e+00
  2.0672767e+00
  1.8639978e+00
  9.0908599e-01
  3.1958599e+00
  3.2445590e+00
  5.6872263e+00
  1.4935652e+00
 -2.9356828e+00
 -5.1126194e-01
  2.8525262e+00
  1.1088394e+00
  3.3693705e+00
  1.7267792e+00
  7.5736195e-01
  2.6462343e+00
 -1.7500904e-01
 -3.0065551e+00
 -4.6747172e-01
  1.4469965e-01
  1.0660550e-01
  2.2510231e+00
  2.2996670e-01
  4.0937975e-01
  9.9301797e-01
 -1.1595895e+00
  6.4321089e-01
 -2.4293695e-01
 -5.0736610e-02
 -1.3864508e-02
  9.0762740e-01
  4.6019647e-01
 -8.9514673e-01
 -2.5996845e+00
  1.8837036e+00
 -1.7783815e+00
  7.7858143e+00
  5.5786300e+00
 -4.0832524e+00
 -9.5281515e+00
  1.6204059e+00
 -1.2632607e-01
 -1.1857878e+00
  2.7846369e-01
 -4.0665373e-01
  4.4193366e-01
 -2.8434965e-01
  9.2309314e-01
  5.2503030e-05
  2.5873516e-05
 -3.0221844e+00
 -5.1487813e-04
 -1.6919823e-01
  1.0849211e+00
 -1.7845163e-06
  1.1937631e+00
  2.7179123e-05
 -6.1441809e-01
  1.0671157e-04
  3.8154230e+00
 -2.0970667e-03
 -6.3000009e-03
  4.1229305e-01
 -1.0150363e+00
 -2.4273619e-04
  9.7601694e-01
 -1.4557625e-01
  1.2775439e-04
 -6.3467492e-06
 -4.0993247e-05
  1.2376639e-05
  1.1362674e+00
 -2.5223258e-01
 -5.0365514e-01
  1.5663434e+00
 -3.6892250e-01
 -1.8010095e-01
  1.4574031e+00
 -8.3603460e-01
 -7.1565601e-06
 -2.4136794e-05
  2.1666039e-05
 -3.0311936e-04
 -1.9954676e-05
  1.5216324e-06
  7.9502541e-05
  1.7551483e-05
 -8.7778513e-05
 -1.1900226e-02
  1.3327570e-01
 -6.1553830e-01
  4.2394872e+00
 -1.3058536e+00
 -2.8163227e-01
  3.6974096e+00
  2.0029461e-01
  2.6491859e-03
  1.4347634e-03
 -1.8899697e-01
  7.5840326e-05
 -1.6706987e-04
  2.7125916e+00
 -3.5534296e-02
 -1.9974092e-05
 -5.1841039e-02
  2.6605208e-04
 -6.9159520e-05
 -2.6010137e-04
  1.6440192e-05
 -7.9057791e-05
 -5.4301415e-04
  9.6849581e-06
 -3.1452157e-05
 -8.0581689e-05
  9.2304646e-05
  7.1576767e-05
  3.9445149e-05
  5.4499806e-06
 -4.2445408e-05
 -1.9529524e-01
  1.9043630e-04
 -1.5177742e-04
  5.0676907e-05
  3.4726781e-05
  8.7915549e-05
 -3.0797553e-01
 -8.3369610e-05
 -2.0215343e-04
 -2.2869247e-01
  3.3220622e-05
  3.7521077e-05
 -4.3149214e-02
 -6.7862959e-05
 -7.6857061e-05
 -5.7440797e-05
 -1.3453186e-04
  8.0924889e-05
  3.3960940e-04
  1.2896280e-04
 -5.7876459e-05
 -3.2607658e-04
 -2.1020738e-04
 -8.3123362e-01
  5.6558294e+00
  3.2088335e+00
  3.9254124e+00
 -2.3148863e+00
 -3.0223064e+00
  3.1490886e+00
 -1.2829009e+00
 -3.5976911e+00
 -7.2332484e-01
  1.4320920e+00
 -2.9714804e-02
  7.8400469e-01
  2.2090521e-01
 -2.8589916e-01
 -2.8847489e-01
 -1.7991247e+00
  2.2405405e+00
  2.0507832e-01
  4.0589924e+00
  1.9182442e+00
  5.4346073e-02
 -4.9370393e-01
 -1.2358874e+00
  1.3154578e+00
 -9.9864656e-01
  4.6793723e-01
 -4.4365966e-01
  2.7175778e-01
 -1.6204195e-04
 -2.3148808e-01
  4.1684812e-05
 -5.5570692e-01
 -7.7787393e-01
  8.7878507e-01
  3.4902120e-01
  7.1062243e-01
  1.2337953e+00
 -1.5507632e-01
 -6.4923072e-01
  7.8461535e-04
  1.4455012e+00
 -4.0313810e-01
 -4.4841957e-01
  1.7588109e-03
 -9.5214534e-01
 -1.5452188e-04
  1.0401334e-04
  1.7636081e-02
 -6.0338448e-03
 -3.2036710e-01
 -2.1803869e-01
  1.0742718e+00
  3.8800099e-05
 -1.2186667e+00
 -3.3135839e+00
 -3.1653082e+00
 -1.7016953e+00
  6.8241298e-01
  3.4701374e+00
 -1.0074306e+00
  1.6640871e+00
  9.5811663e-03
 -3.1506814e-04
 -5.5804911e-05
  1.0212437e-04
  8.3149122e-03
  6.6469932e-01
  2.3384340e-05
 -6.3655083e-05
  7.7570252e-02
  3.5381132e-01
 -1.3832697e+00
  4.1273281e-01
  3.1281269e-01
  1.4215209e+00
  1.4999729e+00
 -2.1140645e+00
  6.8560636e-01
  9.8890907e-01
 -7.4775678e-01
  2.7488647e+00
  1.7573003e+00
  4.3774497e-05
  1.9323486e+00
  1.5896956e-04
  1.3180445e+00
  2.0058613e-01
  1.6394807e-01
 -1.0039811e+00
  2.1438284e+00
  7.8218311e-01
  2.2853308e+00
  3.1052615e-02
  1.3136560e+00
 -3.7867892e-01
  1.7818893e+00
  1.5026636e-01
  4.6095409e+00
 -1.7529516e-03
 -5.1285900e-02
  3.3224649e-05
 -1.1597799e-05
  1.1454692e-04
 -1.1299945e-04
  1.4804126e-04
 -2.4298723e-05
 -2.7031878e-01
 -2.6646757e+00
  1.6221930e-01
  5.4365396e-01
  1.2211315e-01
 -1.8972993e-01
 -1.0391233e+00
  1.5489186e+00
  9.4754688e-02
  3.4220563e-04
  4.8131511e-01
 -1.5654446e+00
 -1.0173508e+00
  1.7070550e-01
  8.6736196e-01
 -2.1691704e+00
  8.3816783e-05
  3.3889372e+00
 -6.2351936e-01
 -4.0167072e-01
  5.9228748e-01
  1.2443586e-01
  1.0070847e+00
  9.1932017e-01
 -4.8281935e-01
 -6.9576795e-03
  1.2226677e+00
  4.3835449e-01
 -1.3448702e+00
 -3.2521033e-01
  7.0176658e-04
 -3.4708500e-01
 -8.5808998e-01
  2.2669554e-05
 -5.3147141e-02
 -1.1382705e+00
 -1.3048042e+00
 -1.9405982e+00
  5.3976529e-04
  4.1140050e-01
 -3.3206656e-03
 -1.3382393e+00
 -4.3201029e-01
 -2.4016358e-01
 -5.6308158e-02
  1.8266173e-01
 -1.3477261e-04
 -5.0956609e-05
  2.7885420e-05
 -1.2138326e-04
  1.1191434e+00
 -1.6754174e-04
 -1.7143724e-05
 -5.7375890e-01
  4.6542646e-05
 -1.2641841e+00
 -7.8069794e-01
  2.0179956e+00
  1.0895746e+00
 -3.7480271e+00
  1.7287877e+00
  1.6486381e+00
  5.5418384e-01
 -6.1184607e+00
 -6.0160303e-01
 -3.3973381e-01
  2.2072553e-04
  5.1420130e-04
  3.9119232e-02
 -1.5753679e+00
  2.4673580e-01
  3.5033084e-04
  2.7226745e-03
  2.6601121e+00
 -5.8312471e-05
 -2.7143184e-02
  6.0953659e-01
 -3.3530351e-02
 -4.2168546e-01
 -1.1612860e-05
  2.2513826e+00
  2.5941753e+00
 -2.5221569e-04
 -2.0631989e-05
 -8.0972724e-02
 -2.6211824e+00
  8.9574233e-04
  1.3228095e+00
  1.2838636e-01
  5.1631899e+00
  2.4345021e+00
 -9.8539881e-02
  5.4161592e+00
  7.4774605e-01
 -2.2585177e+00
 -2.2493836e-01
 -5.1565845e-02
  4.1917298e-02
  1.1790012e+00
  7.9602164e-01
 -4.3301505e-01
  4.9866114e-05
  7.3299198e-06
  5.9040736e-05
 -1.2752949e-03
 -1.3125184e-04
 -1.0636031e-06
  4.2240790e-05
  4.8074759e-05
 -7.9720390e-01
 -1.7333297e+00
  1.2839977e+00
  2.3203425e-01
  5.0368494e-01
  5.0530106e-02
 -1.4796848e+00
  9.4249018e-02
  1.1533583e+00
  1.7752913e-01
 -2.0717610e-01
 -1.0832396e+00
  1.6665179e-01
 -3.1063834e-02
 -2.1913020e-06
  1.5606681e+00
  2.3813042e-01
  8.4172374e-01
  3.9078838e-01
  9.3119109e-01
  4.4204714e-03
  6.8877733e-01
 -2.4088162e-01
  1.0071049e+00
  1.4689554e-01
 -1.6139606e+00
  4.5656383e-01
  1.3053151e+00
  1.2387005e+00
  9.6340674e-01
  7.1554464e-01
  3.7416652e-05
  1.5029422e+00
  2.3339751e+00
 -1.1738815e-02
 -5.6007199e-02
  3.5416114e-01
  6.3686281e-01
  1.6755899e+00
  2.3954654e-01
 -7.6135802e-01
  2.2750502e+00
  1.9140731e+00
  2.5553760e-01
 -9.0631318e-01
 -2.5609080e-04
 -6.7091972e-02
 -1.9884234e-05
 -1.2437624e-04
 -8.5992018e-05
 -1.7705241e-01
 -8.5843718e-01
 -5.8299574e-05
 -3.7932059e-01
 -2.6394429e-05
 -1.0280322e-04
  1.3009630e-04
  1.3122208e+00
  9.0865302e-05
  2.7957045e-05
 -1.1179354e+00
  4.0373162e-04
  5.3613534e-05
 -5.2451680e-05
  4.4926419e-05
  4.0799103e-04
 -3.5940324e-05
  4.3953478e-05
 -1.3925008e-05
 -2.5454292e-05
  3.0206555e-05
 -1.2436829e-05
 -4.6551377e-05
 -2.3040464e-05
 -1.3769507e-04
  4.4975232e-06
 -2.1087637e-05
  5.9174228e-05
 -2.8397240e-05
  1.3894212e-04
  3.9242623e-06
 -2.7746981e-04
  1.0283274e-04
 -3.7436508e-05
  2.9653712e-04
  1.4718053e-05
 -2.8303448e-05
 -1.5021481e-04
 -9.7916309e-05
 -5.5813842e-05
  4.4522923e-05
  8.0006057e-06
 -5.8993119e-05
 -1.6101854e-04
 -1.7568473e-04
 -6.3380721e-05
  1.0076400e-04
 -1.7482706e-05
  1.0773190e-04
 -4.3322856e-05
  1.9607464e-04
 -1.3826153e-04
  5.9010072e-05
 -3.9117713e-06
  2.3911569e-05
 -3.2252407e-05
 -3.7562480e-05
 -1.8210219e-04
  1.5679366e-04
  1.4895711e-05
  3.7152067e-06
  1.2800328e-05
 -2.0844203e-05
 -1.2535088e-05
  1.4330002e-05
  5.7638372e-05
 -5.8525413e-05
 -4.1344902e-05
  5.1155230e-06
  2.1326165e-05
 -5.3809061e-05
 -4.1802932e-04
  1.3837502e-05
  8.5396197e-05
 -5.0276958e-05
 -6.2876665e-05
 -4.4153585e-05
  4.2710413e-05
 -1.9883848e-05
 -1.1014316e-04
 -4.8803384e-05
  8.7249546e-06
  2.6457364e-04
  1.4820614e-07
 -1.3716408e-05
  1.3070424e-04
 -2.7671416e-04
 -9.3882845e-05
  2.4803387e-04
 -5.3450771e-05
 -2.8016648e-05
 -4.6096917e-04
 -6.1918699e-06
 -2.0981090e-05
 -1.2254699e-04
 -4.0917246e-05
 -2.8554507e-05
 -2.6231588e-05
  3.5590059e-05
  4.9471524e-05
  1.6019021e-05
 -4.1165684e-05
  3.7452948e-05
 -7.9787118e-05
  1.8933179e-08
 -1.1370257e-04
 -4.0423736e-05
 -4.0589544e-05
 -2.5718696e-06
 -4.3628705e-05
 -1.9393314e-04
  9.4000847e-05
 -2.3710561e-05
  2.6565778e-05
 -1.6764869e-05
 -7.5995384e-05
 -8.9317429e-05
  5.3798984e-04
  8.7381333e-05
  5.5012038e-06
 -2.3828012e-05
 -3.1972588e-05
  4.0911702e-05
 -1.1120119e-04
  1.5742258e-05
 -1.0776256e-04
 -2.1860986e-04
 -8.0581449e-05
  1.8075434e-04
  3.1630945e-05
 -4.7084024e-05
  5.9970749e-05
  1.3540436e-05
 -2.3166471e-05
  1.2052813e-04
 -4.7367485e-05
  9.3610543e-05
 -1.0790549e-04
  3.0339594e-04
  5.5243681e-06
 -8.7721775e-05
  2.2795740e-04
  2.1611212e-04
  6.3620228e-06
 -5.5545371e-02
  5.8836659e-04
 -2.4800311e-05
 -4.4427990e-05
 -2.0719946e-05
 -5.9241171e-05
 -1.3656570e-05
 -4.1821739e-05
 -5.4459659e-05
 -4.7548037e-05
  1.5456605e-04
  3.8366950e-05
 -5.9856620e-04
  2.4886717e-06
  5.4513122e-05
  1.0271980e-04
  5.8710786e-05
  4.1876221e-05
  3.7702864e-01
 -7.6335629e-05
  5.6262990e-05
  2.8406697e-05
  5.0449913e-04
 -9.8959857e-04
 -3.6800742e-05
  9.6136960e-04
 -1.6715421e-04
 -9.6681506e-05
  9.9358404e-01
  1.0166346e+00
 -5.4315744e-05
  2.6953369e-04
  4.0339477e-05
 -4.7446869e-05
 -2.9221606e-05
  8.0330050e-05
 -3.1819789e-05
 -3.7413312e-04
  5.1582477e-04
 -1.5060689e-05
  3.3599747e-05
 -4.6688943e-05
 -1.3993497e-05
  5.1991025e-04
  4.8041093e-05
 -1.5237943e-04
  2.6324844e-05
 -2.7297405e-04
  1.7063845e-05
 -1.7373126e-05
  2.5404390e-04
  7.4023146e-06
 -3.8248592e-05
 -8.4625517e-06
 -2.8047810e-04
  4.4543580e-05
 -2.8839069e-05
  4.6629350e-05
  3.1327792e-05
  1.1870779e-04
 -2.0580253e-05
 -1.6672499e-04
  1.4825324e-05
  2.5570991e-05
 -2.1079155e-05
 -3.2909204e-05
  4.3142369e-05
 -5.3591746e-05
 -3.9171486e-05
  4.6464127e-05
 -7.9033580e-06
 -3.6256835e-05
  1.1001474e-04
  4.2132662e-05
  2.6055603e-05
  5.9435632e-05
 -2.1671171e-05
  1.5123609e-04
  2.5721551e-05
 -1.5573596e-04
 -4.0044921e-05
 -1.6486821e-04
  2.9740966e-04
  2.1672080e-05
  2.7657381e-06
  4.2313568e-05
 -2.2998564e-05
 -1.4696631e-04
 -1.7857377e-04
 -7.7139732e-05
  1.4352960e-04
 -1.4457613e-04
  9.8859100e-04
 -5.7954727e-05
  4.7738002e-05
  1.7082752e-04
  2.4008086e-05
 -1.4430023e-04
  2.3236820e-04
 -1.7776727e-05
 -2.2306440e-04
  1.1656740e-04
 -2.9131879e-05
 -5.5923367e-05
  3.7377432e-04
  7.6612872e-05
 -2.3976620e-05
  2.6841916e-04
 -2.2962460e-05
  9.0917893e-06
  4.5743500e-06
 -8.6825159e-05
  4.9279765e-06
 -6.1493070e-06
  3.8208429e-05
 -3.4522825e-05
 -3.5366946e-04
 -1.4710351e-04
  3.4764380e-05
 -1.6845894e-04
  6.5153354e-06
  5.5130757e-05
  5.7742483e-05
 -1.8808407e-04
  2.9129615e-06
 -5.6178051e-05
  6.8751891e-05
  7.3450523e-05
  1.4031969e-04
  5.6926532e-05
  8.1294632e-01
  9.5240760e-01
  1.0654364e-04
 -2.7405248e+00
  2.9801053e-03
  2.5836360e-05
  3.6268606e+00
 -5.4478274e-05
 -5.1494513e-05
  1.6832324e-04
 -1.4203463e-01
 -1.9454157e-05
 -4.6528722e-04
 -8.0142516e-01
  3.8043901e-05
  1.4224648e-04
 -6.1272085e-01
  7.1204686e-06
  7.1154032e-03
 -1.7169611e-04
  1.3840750e-05
 -1.2008240e-05
 -1.0911025e-04
 -2.2530574e-05
  8.1305472e-05
 -1.1404085e-04
  6.4944680e-04
  9.9757868e-05
  5.3899999e-05
  3.8632777e-05
 -1.7107959e-04
  5.3014420e-04
  9.7387342e-04
  1.7920991e-04
 -1.0882736e-04
  2.2633769e-05
  1.7312511e-04
  2.1240625e-05
 -1.5389950e-04
 -4.2191328e-05
  2.2139791e-03
  2.2587701e-05
 -1.5918270e-04
 -6.6444140e-06
 -4.9981591e-05
  4.9892966e-05
 -5.0446237e-05
 -1.9037593e-06
  2.8788050e-05
  3.8878457e-05
 -1.1939090e-04
 -1.4602372e-05
  3.1343120e-06
 -1.9357594e-06
 -2.3617308e+00
  1.4589092e+00
 -1.6346580e+00
  1.6257415e+00
  1.0213517e-01
  5.6762416e-03
 -9.9257952e-01
 -1.8626643e+00
  8.4949231e-01
 -1.4432134e-04
 -1.1897862e-02
  1.3480010e+00
 -9.0815741e-01
 -1.6128070e+00
 -2.3463938e+00
  1.4528096e+00
 -1.5402619e+00
  1.8649328e+00
  1.8216625e+00
 -1.1384696e+00
  4.2826256e-01
 -1.0641050e+00
  1.9625585e+00
  1.6311262e+00
 -7.1269505e-02
 -1.0913135e+00
  2.3557050e+00
 -1.5031471e+00
  9.0692014e-01
  4.4927638e-05
  6.9198561e+00
 -1.3334445e+00
 -2.2369666e-02
 -2.7590060e-01
 -4.9340627e-01
  4.1498989e-03
  1.6062570e+00
  1.1479868e-04
  5.4159892e-01
 -3.2282677e-03
 -9.2769653e-01
  1.6250913e+00
 -1.9599931e+00
  2.9152304e-01
  4.7517365e-01
 -1.1216416e-01
  1.3677903e+00
  2.7079005e+00
  1.5547096e+00
 -2.4808083e+00
 -6.2759703e-01
  1.2066759e-04
  1.1935432e+00
  1.9499406e+00
  2.5153929e-01
  1.1259794e+00
  1.9506862e+00
  2.5709298e+00
  7.4336462e-02
  2.1467018e+00
 -2.1277526e-01
  1.5902258e+00
 -2.0331366e+00
  2.9701502e+00
  2.3018606e+00
 -1.4174668e+00
  1.3995047e+00
  2.4566483e-01
  2.9481339e-01
 -9.8073661e-02
  9.4686830e-01
  1.7546692e+00
 -1.1407681e+00
  1.8584687e+00
 -2.1422432e-01
  5.8220059e-01
  4.0358870e-04
  1.6459460e+00
  2.4868697e-01
 -2.4636667e+00
  2.5395381e+00
 -3.8969794e-01
 -4.2621556e-01
 -4.4617572e-01
  6.6111237e-01
  7.0706582e+00
  1.5955085e+00
  1.3113307e+00
  1.0957856e+00
  4.6345373e-05
  2.3516992e-01
 -7.4001431e-01
 -5.7653743e-01
 -6.4586729e-01
  3.5396869e+00
  1.5044914e+00
 -1.0944618e+00
  7.1897477e-01
 -6.8373334e-01
 -4.1509730e-01
 -3.9690238e-01
 -2.1306373e-01
  1.6707832e+00
 -1.7970562e+00
 -2.6049635e-03
 -3.9697111e-01
 -2.6136882e+00
 -1.7147421e+00
  5.6062734e-01
  1.1493409e-02
  1.4056386e+00
 -6.5324521e-01
 -1.8017308e-01
  4.0546754e-01
  5.7722729e-01
  4.1628156e-02
  1.1152223e+00
 -5.5436775e-02
  3.0125082e-01
 -3.8172969e-01
  3.4013712e-01
 -5.1456839e-01
 -1.8590542e+00
  4.3622181e-01
  8.2672048e-01
  2.9005418e+00
  3.6275324e-01
  2.7600331e+00
 -1.2474825e+00
 -5.4015189e-01
  6.2786555e-01
 -2.4000767e-03
  8.8065100e-01
  6.3765812e-01
  5.3452307e-01
  1.3859936e+00
  2.6347587e-01
  2.5380802e-01
 -1.6664087e+00
 -3.7865219e+00
 -1.0560864e+00
  4.2115003e-01
 -2.2044404e+00
 -5.1034017e+00
  1.8626691e+00
 -4.4824117e-01
 -3.2434886e+00
 -8.0832022e-01
  1.2737235e+00
  1.1183456e+00
  7.6499355e-01
  2.9620955e+00
  7.4029171e-01
  1.6547574e+00
 -9.9631973e-02
 -1.3681853e-01
 -8.6376845e-04
  1.7006781e+00
  8.9819446e-02
 -3.9618018e-01
  5.4866262e-04
  1.1526955e-04
  6.4549103e-02
  1.1023080e-04
  9.3075912e-03
 -8.9474727e-04
  3.6571819e-05
  5.9739901e-05
  2.4940400e-05
 -1.6201017e-04
  7.7847668e-05
 -1.5313081e-04
  1.6242352e-04
  1.1150623e-04
 -1.8987198e-04
 -4.7297850e-05
  4.4699889e-05
 -1.2256646e-04
  2.0241912e-05
  4.3405260e-05
 -1.4056471e-04
  5.4190128e-05
 -3.3517765e-05
 -1.6411557e-04
  3.7106820e-05
 -4.2282627e-05
 -1.2937316e-04
 -1.4733773e-04
  1.0171869e-04
 -8.7753884e-05
  2.9750181e-05
 -5.9436894e-05
  2.8063100e-06
 -1.0416363e-04
  2.5327290e-05
 -1.4069784e-04
 -3.1841020e-05
  1.8996806e-04
  1.1719594e-04
  6.1569694e-02
  1.6876147e-04
  4.0722887e-05
  3.3438526e-04
  2.5607977e-05
  8.4531843e-05
  1.6642510e-04
 -1.2071765e-05
  3.8624107e-04
  1.9702452e-04
 -1.9739220e-05
 -1.9139875e-04
  1.7690298e-05
 -6.6874942e-05
 -1.5536466e-04
 -1.0235684e+00
 -1.1187027e-01
 -2.7397463e-01
  6.3629341e-01
 -9.3950123e-02
 -5.7261638e-02
  1.0791910e-02
 -1.9922886e-02
  2.0931308e+00
  4.3997923e-05
  1.0767686e-04
  1.7127545e-01
 -7.8181538e-04
  6.7921363e-02
  4.6928802e-01
  1.6674043e-01
  2.0092204e-01
  9.3278475e-02
 -1.7969069e-05
 -1.0852646e-05
 -1.5491292e-04
 -1.3922391e-04
 -1.5044996e-03
 -4.0264115e-01
 -6.5411197e-04
 -2.4498886e-05
  4.8963702e-05
  4.7448424e-01
  1.9990472e-01
  2.7113169e-01
  9.7529858e-02
  4.0053543e-02
 -4.2421702e-01
  3.1081524e-01
  3.1306499e-01
 -4.4146159e-01
 -3.9495739e-01
 -2.9228458e-01
 -2.0206667e-01
 -3.7767005e-01
 -3.5193351e-01
  7.2684282e-01
 -3.3570872e-05
 -8.0705965e-01
 -1.7421867e-01
  6.2249792e-06
  2.0450604e-04
 -2.2255046e-05
 -2.5730481e-04
 -4.1769315e-05
 -3.2716137e-01
  4.0520015e-04
  5.4409313e-05
  5.1885744e-04
  2.2533760e+00
 -1.0319870e+00
  2.7000065e+00
  7.6969972e+00
  3.9327340e+00
 -1.1310401e+00
 -2.0191615e+00
 -2.1882524e+00
  4.5101447e+00
  1.9698313e-01
  1.8376546e+00
 -1.5924644e-04
  1.0024985e+00
  9.6865088e-01
  3.7522069e-03
  2.7079737e-05
 -8.1121480e-01
  4.3279009e+00
  2.1345605e-01
  3.1275085e-05
  6.6253752e-02
 -1.7766851e-04
 -3.9980751e-01
 -6.3165464e-02
 -9.8126065e-03
 -2.3465230e+00
 -1.0131480e+00
 -4.8747506e-02
 -4.0488452e-01
 -2.6129037e-05
  2.6683679e-01
 -3.7947205e-01
 -9.4204617e-01
  1.7748283e+00
 -1.1652166e+00
  1.1523098e-01
  7.6725262e-01
 -1.7621517e-01
  1.2651111e-04
  2.7390747e+00
 -1.5040172e+00
  7.0194060e-01
  1.0039330e-02
  2.9973078e-01
  2.6383772e-04
  3.7018221e-05
  6.4398127e-04
  8.7878670e-06
  1.4059991e-04
  8.0132112e-03
  1.4950229e-04
  1.7433820e-04
  1.4804349e-03
  1.1545981e-03
  2.2804606e-01
 -2.5685236e-01
  1.4330913e-01
  6.0498975e-02
  6.5429115e-01
 -1.9123583e-04
 -5.4951382e-01
 -1.3671644e-04
 -8.1003964e-01
  8.9150672e-06
 -7.5383694e-05
  6.0827206e-06
 -6.2642566e-06
  1.7129751e-04
  5.0203293e-05
  5.0990828e-05
  1.8996405e-05
  4.7735986e-05
  1.9284327e-05
  3.2326687e-05
  3.7839227e-06
 -3.4765540e-05
  5.8771715e-05
  4.9113631e-05
 -2.8742312e-05
 -1.5005679e-04
  1.7626901e-04
 -5.0746639e-06
  1.1513091e-06
  4.5057852e-05
  6.0191673e-05
  2.8530476e-04
 -8.0135003e-05
  3.0936397e-05
 -6.7606658e-01
  1.6750598e-01
 -2.0363143e-05
 -3.7096299e-05
  1.2338782e-05
  2.9536644e-05
  2.5612026e-04
  2.0338097e-05
  5.8516798e-05
  2.2025489e-04
 -2.9436656e-05
  2.5951060e-05
  1.0496168e-04
  3.2821688e-05
 -1.8315230e-05
  3.8027320e-05
 -1.0460581e-06
 -2.8817187e-05
  8.9742216e-06
  6.2590771e-05
  1.5068319e-04
  2.4113022e-05
  5.4817992e-05
  5.3576143e-05
 -1.2003190e-05
 -4.0006104e-05
 -3.8562681e-05
 -5.0627336e-06
  2.7163112e-05
  1.7713777e-05
  4.0455550e-05
  1.0151956e-05
  5.0437429e-05
 -5.1822219e-05
 -6.0355769e-06
  5.1499785e-05
  2.7352162e-05
 -4.7518130e-05
 -1.2701726e-05
 -1.8972468e-04
 -1.4307481e-04
  1.1595718e-04
  2.1393798e-05
 -1.2675835e-05
 -1.5904719e-04
 -4.1325940e-05
  5.4632990e-05
  8.9879162e-05
 -4.1728279e-05
  4.9608061e-06
  5.4568489e-05
  4.0619863e-05
 -4.1776715e-05
 -1.6294893e-04
  3.8085393e-05
 -6.7659514e-03
  4.5100733e-05
  1.0171080e-03
  4.6642435e-06
 -4.8987105e-05
  3.9827610e-05
 -6.4793145e-05
 -9.9476056e-05
 -1.6351134e-06
  2.9784100e-04
  4.7789585e-05
 -9.4564108e-05
 -4.0431489e-05
  3.3857687e-05
 -4.5530301e-06
  7.5747421e-06
 -3.3870587e-05
  5.1585201e-05
  8.9722207e-06
  8.0897576e-01
 -1.2122707e+00
 -3.5068369e+00
 -1.3713257e-01
 -1.2160137e-01
  1.6974721e-02
 -4.7289781e-02
 -7.7329198e-05
  4.7115827e-05
  3.3523509e-04
  1.0512756e-03
 -2.9847732e-05
  1.1564890e-03
  2.4357360e-05
  3.4999274e-04
  1.4406358e-04
  2.5662179e-05
  1.9709138e-05
  3.7997219e-05
  1.7797739e-04
  4.7032230e-05
  1.6479092e-04
  2.2911247e-04
  1.2404132e-05
  4.8412963e-05
  4.8198599e-05
 -4.2231983e-05
  8.1272144e+00
 -3.7450886e-01
  1.3334933e-01
  1.2069545e-04
 -1.4866236e-01
  3.7917602e-04
  9.0585228e-05
 -2.9373345e-01
 -1.4165576e-01
 -1.5630627e-04
 -5.6213881e-05
 -6.3378655e-05
 -1.3433835e-04
 -3.5128451e-05
 -8.0499103e-07
  2.7266055e-05
  1.5204394e-04
 -1.2670506e-05
 -1.3579072e-04
 -5.5998869e-05
  6.8034911e-05
  1.3389092e-04
 -3.8177175e-05
 -5.8835853e-05
  1.4948457e-05
  3.6626552e-05
 -3.8732029e-05
  2.6073374e-04
 -1.2914726e-05
 -3.1248823e-05
 -2.8155587e-04
  1.4478949e-01
  1.1009944e-04
  1.1388095e-04
 -2.6509035e-04
 -3.3084897e-04
  3.5573673e-04
 -3.6740414e-05
  4.5720721e-05
  8.1123778e-04
 -4.5137876e-06
 -1.3930675e-05
 -3.1518444e-05
  1.7079471e-04
 -3.3277011e-05
  4.9665556e-05
 -7.5497595e-04
  6.0632778e-05
  4.0911487e-05
  2.9741437e-05
  4.5982633e-06
  5.2419957e-05
 -2.0948619e-06
  2.3895103e-05
 -1.0191226e-05
 -3.8517854e-05
  5.1657440e-05
  2.5453623e-05
 -7.3921910e-05
 -1.8201408e-05
  1.2582637e-04
 -3.2429591e-05
 -1.8581628e-05
  4.5682504e-05
 -2.1773893e-05
  5.3615172e-06
 -2.7985854e-05
  5.5708064e-05
  2.1139735e-05
 -7.6927790e-07
 -3.8680263e-04
 -5.3278916e-05
  2.8292474e-04
 -3.4752014e-05
 -2.7832402e-05
 -8.0262485e-05
 -3.9033381e-05
 -2.5044712e-05
 -1.1266065e-05
 -3.2774216e-05
  1.3070035e-04
  8.4631890e-03
 -4.0880960e-04
  1.6690716e-01
 -1.6103630e-05
  6.2167805e-01
  3.4855162e-05
  1.7935387e-04
  2.9114870e-04
 -1.5763730e-03
  4.1626256e-05
 -5.4085936e-06
 -4.4628177e-05
  4.9095488e-05
 -8.0150494e-05
  4.9912800e-05
  3.2424079e-05
 -4.0533950e-04
  5.0138435e-05
  5.9487025e-05
 -2.9580960e-05
 -1.6474773e-05
 -6.4574153e-05
  1.1029652e-05
 -1.7185276e-04
 -2.3024008e-06
  3.2502861e+00
 -2.5956389e-05
  6.1899067e-05
  7.0839440e-03
 -4.1979380e-05
  4.0321148e-04
  1.0679169e-02
  4.6977941e-05
  4.8721115e-05
  4.4028800e-02
 -4.0391926e-02
 -1.3818058e-05
  3.5673560e-04
 -5.4908716e-05
  4.1661180e-05
  1.7435343e-05
  2.6703850e-04
  2.2805934e-06
 -5.2440000e-01
  4.6769762e-03
 -2.7171932e-06
 -1.6350488e-04
 -1.4058106e-04
  3.7569052e-04
  3.6115371e-04
 -3.8690119e-05
  3.1439482e-05
 -2.0548387e-05
  3.1020343e-01
  2.3208421e-02
 -8.1080012e-02
  6.8058443e-01
  1.3704394e-01
  3.8664401e-04
 -4.9319271e-05
 -7.5678818e-02
  1.0895779e+00
  9.3742557e-02
 -1.7658404e-05
 -2.2528284e-05
 -2.8047054e-05
 -4.2967997e-05
  1.7182158e-04
  2.8100008e-05
 -1.9243745e-04
 -1.4008500e-04
 -5.0315447e-04
 -1.5426407e-04
  6.0321181e-05
 -3.4362637e-04
  8.4689658e-05
  6.4256194e-05
 -1.6503272e-05
  3.9534767e-05
 -4.9071507e-05
  3.8791633e-05
 -5.4439752e-05
  6.6762477e-06
 -6.5711771e-05
 -1.5068067e-04
  5.8965074e-05
 -1.2026322e-04
 -4.6489704e-01
 -1.9708358e-01
 -6.6432230e-02
 -1.8214463e-04
  2.8878680e-06
 -4.2160482e-05
  4.1392108e-05
  2.8997820e-04
 -1.4390209e-04
 -2.0141020e-05
 -1.0285592e-03
 -6.4477877e-04
 -5.1809648e-06
 -5.3914711e-05
  9.1385278e-05
 -1.1456104e-04
 -3.0543870e-05
  1.3998928e-05
  5.5434493e-06
  6.9323163e-05
 -2.1511623e-04
  1.8047441e-04
 -1.8790187e-04
  6.1195901e-06
 -1.0909120e-04
 -1.4721529e-04
  4.0468462e-05
 -4.0903346e-05
 -3.5291232e-05
 -5.0626768e-05
 -3.9561677e-05
  4.9382306e-05
  5.0792913e-04
 -4.7198515e-05
 -2.0245051e-04
  9.8011064e-05
 -2.3177391e-04
  3.2687676e-05
  1.6258900e-04
  5.9667573e-06
 -1.7537794e-05
 -4.0911316e-05
 -1.7635545e-04
  1.2079174e-04
 -7.7051467e-05
  5.8715363e-05
 -3.3150165e-05
 -7.7134442e-05
  3.6644258e-05
  1.7400707e-05
 -2.9373684e-04
 -5.5605648e-05
 -1.8553866e-01
 -9.6312775e-05
  8.1643338e-07
  1.8250481e-05
 -1.4425688e-04
 -1.2308170e-04
  5.0939285e-05
  1.4347845e-05
  2.7836484e-05
 -3.2649346e-05
  3.1552481e-05
 -9.8932642e-06
  2.6822951e-05
  1.7427354e-05
  5.5943988e-06
  7.3431315e-06
 -5.6652956e-05
 -2.6447474e-04
 -2.3964283e-04
  8.7808105e-05
  2.3323213e-04
 -2.9597661e-04
  2.4773744e-05
  2.0011577e-03
 -4.6198067e-05
  2.7590001e-01
 -3.1961230e-05
  3.2991916e-01
 -2.2144388e-05
 -1.5508676e-05
  7.7624914e-05
  1.9264893e-01
  4.1224594e-05
  1.2810229e-04
  1.9418658e-05
 -5.5615317e-05
  2.6878675e-05
 -2.0464268e-04
  3.4554355e-04
  1.4358405e-04
 -4.3977776e-05
  1.3590493e-04
  4.7420144e-05
  4.8319107e-05
  3.7869569e-04
  5.6877241e-05
  5.9063808e-05
  5.3145515e-04
 -8.1735219e-05
 -4.0231334e-05
 -1.2726127e-05
 -8.3581035e-06
 -2.7258106e-04
  1.2557326e-03
  8.5154170e-05
 -1.7406896e-04
 -5.2409831e-02
  4.1872208e-05
 -4.0593215e-05
  3.6574274e-05
 -1.7580587e-05
  1.6066697e-04
  1.2792385e-05
 -2.8537831e-04
  2.9082870e-05
 -1.1925791e-02
  9.1237518e-05
 -4.9021262e-05
 -5.6270117e-05
  2.8256933e-05
 -8.3978775e-05
 -1.5344929e-04
 -3.4282727e-06
 -2.4592699e-05
  1.4499456e-04
 -2.6319274e-05
  3.1474195e-04
  2.5862272e+00
 -1.4014518e+00
 -4.7588267e+00
  5.8707404e+00
 -6.0374670e+00
  8.6096296e-04
  2.9355769e+00
  4.1886916e+00
  3.4003298e+00
  2.0938789e-05
 -1.7067570e-04
 -5.8161559e-06
  1.5918579e-04
  1.1272547e-04
  2.8793831e-04
  2.6799229e-04
  1.9506805e+00
 -1.5993467e-04
  3.7786078e-05
 -4.0833038e-06
  3.7245161e-05
 -7.7529323e-05
  7.1875373e-05
 -1.3131891e-04
  7.6476641e-02
  4.8193015e-05
  2.1799347e-05
  7.3053103e-05
  2.1036480e-05
  3.3078527e+00
 -1.5211446e+00
 -6.4762008e-01
 -3.9610523e-04
 -1.4261123e+00
 -5.4398004e-04
  9.6950367e-05
 -4.8240370e-05
  3.7163874e-05
 -2.7070027e-03
 -5.8495149e-05
 -3.5097619e-05
 -3.5369316e-01
 -8.5360855e-01
 -1.7145707e-05
 -7.6637498e-06
 -2.9537390e-04
  5.3608725e-05
  4.4488224e-05
  1.6679993e-04
 -1.1478548e-04
 -2.4971816e-05
  8.0204241e-05
 -7.8118479e-05
  3.4473651e-05
  2.1528742e+00
  4.9321643e-01
 -1.4494982e+00
  5.3015785e+00
  2.5314805e-01
 -1.1650530e-01
  2.9543209e+00
  7.8441590e-01
  2.3533199e+00
  9.5007854e-04
  1.8657650e-01
  3.4525359e-01
 -1.2108866e+00
 -4.8644704e-01
  4.6173251e-01
 -1.4139672e-01
 -1.4547055e-02
  6.2468582e-01
  5.4651004e-01
  3.0811353e+00
  1.3017282e-01
 -8.4679532e-01
 -8.1751519e-04
  2.6218460e+00
  2.3131708e-05
  6.1137182e-01
  1.2298645e+00
  8.4500945e-01
  8.0622751e-01
  1.3964200e+00
 -1.3008252e+00
  4.4781095e-01
  1.7093949e+00
  2.9817749e-02
 -3.8632759e-01
  1.8519570e-01
 -4.4768569e-01
  5.1580082e-05
  2.3548719e-01
 -1.2808964e+00
 -8.3695643e-02
  2.9862502e-01
  2.6476425e-01
  9.3926877e-02
  7.7327482e-02
  2.9299909e-04
  5.6203288e-01
 -1.7245129e-06
  3.4409830e-05
 -3.9358929e-05
  1.9711310e-01
 -1.2822349e-01
  9.5950318e-06
  4.2779613e-01
 -1.6488880e-02
  4.2580143e-01
 -5.7815737e-01
 -8.5669690e-01
 -2.0405814e-01
  1.7308866e-04
  1.5881483e-01
 -1.5958854e-04
 -2.3698728e-01
  3.9377122e-05
  3.2090789e-04
  2.7893629e-04
  9.8598912e-06
 -2.5112467e-02
  2.7906959e-04
 -1.5839352e-05
 -1.4006409e-04
 -1.7544073e-04
  7.0376220e-05
  3.2396914e-05
  1.8402147e-04
 -4.9060596e-05
 -1.0635477e-05
  9.1340393e-03
  7.0598669e-04
 -1.5199865e-04
  1.5725059e-04
  1.6388421e-04
 -2.9431372e+00
 -3.2136529e-03
 -1.0055583e-04
  2.6648624e-02
  1.4044039e-01
  1.8314733e-01
  2.9917288e-01
  1.9986494e-01
 -4.3837503e-05
  2.4859368e-05
 -3.5982981e-04
 -1.6158256e-04
  1.1451184e-04
  6.0667993e-05
 -5.5541099e-05
  4.8449427e-05
  1.6428792e-03
  1.7174208e-04
  5.8211499e-05
 -3.7681602e-05
  1.5186397e-05
  1.5357979e-04
  6.0964867e-06
 -1.6187296e-05
  4.6580906e-05
  4.6272235e-05
  1.4067628e+00
  5.1337796e-01
  6.3130322e+00
  1.0126143e-03
  8.3776172e-03
  3.1061638e-03
 -1.6286212e+00
  8.5122174e-06
  3.2041238e-03
  2.3821645e-04
 -5.7060748e-05
 -2.2125554e-05
 -1.3681702e-05
  3.1425854e-05
  1.2709972e-04
  7.8700032e-06
 -7.0914226e-05
  6.1475992e-05
 -2.4157547e-05
  1.3182833e-05
 -1.5457250e-05
  2.5509408e-04
  6.0108403e-05
  5.1927345e-05
 -3.8216254e-05
 -3.9026778e-05
  1.5947678e-04
  2.7996828e-05
  5.9585643e-01
  2.5165998e-04
  1.4525298e-05
 -1.4761163e-01
  3.9503229e-05
  3.1787777e-04
 -2.9744771e-03
 -1.2876183e-01
  1.3498637e-02
  2.1510963e-04
 -9.2341779e-06
  2.3133416e-05
 -3.2995980e-05
  1.4522553e-02
  2.2921761e-04
  8.0542150e-04
  8.9812320e-06
 -5.4247394e-05
 -1.7655828e-05
 -1.4677321e-04
 -2.1467809e-05
  1.3861624e-06
  4.0143175e-05
 -9.8511427e-06
  5.7679732e-05
  1.1762839e-04
  1.5656538e-02
  1.4058677e-04
  8.3908878e-02
  3.4979312e+00
  6.6431932e-02
  1.7899500e-01
  2.0684569e+00
 -8.7050576e-05
  1.5016621e-02
  2.5946258e-05
 -2.2977412e-05
  3.6316174e-05
  2.3318464e-05
  1.7491238e-04
 -2.9930778e-04
  5.1907385e-03
 -5.5071396e-05
  6.3358992e-04
 -1.1641475e-04
  9.9322478e-06
  1.5261434e-05
 -6.0992425e-05
 -7.0470007e-05
  1.3504349e-04
  2.5961308e-03
  6.0986800e-05
  4.6073976e-05
  1.6167162e-01
  2.0595246e-03
  2.2186369e-04
  9.4023362e-02
 -1.4037720e-02
 -1.6271953e-01
 -4.9632301e-05
 -7.1598214e-01
 -4.5243242e-01
  5.2168440e-02
  2.3353009e-02
 -1.5471647e-04
  2.7635270e-01
 -1.9709427e-04
  2.7240543e-03
  1.7930912e-04
 -5.9355050e-02
 -1.8315072e-01
 -9.5455383e-05
  3.2353774e-04
 -3.7857189e-05
  2.6196518e-05
  1.8102421e-04
 -4.9718456e-05
 -1.4257498e-05
  2.5966188e-05
  4.0744734e-04
  6.0597742e-01
 -1.4444326e+00
 -2.9442081e-01
 -3.4853047e-01
 -5.7952565e-01
  1.8877694e-01
  2.8272762e-03
  4.3717347e-04
 -7.2784591e-01
 -1.1962964e-04
  2.6942606e-04
  1.4686179e-01
  3.0436117e-02
  4.8488724e-05
  1.3670044e-03
  1.5662006e-01
 -1.7640238e-04
  1.4810234e-01
 -7.9645872e-01
  2.5680711e-04
  1.7844066e-04
 -3.0553812e-05
 -2.1003310e-05
  2.4523438e-06
  1.2620012e-04
 -1.0512787e-01
 -4.6763078e-05
  2.2498192e-01
  9.3542002e-02
  3.7943535e-02
  1.9316921e-01
 -3.0904958e-01
  9.1713950e-02
  1.0387576e-01
  1.6863631e-04
  1.4894030e+00
  1.9655381e-01
  1.6107129e-04
 -2.1478660e-04
  1.3442580e-01
 -1.3160349e-01
  8.1252272e-04
 -2.7924383e-04
 -3.4134635e-01
  2.4569729e-02
  4.3250111e-05
  6.6840264e-04
 -9.2972536e-05
  2.8941702e-04
  6.9298461e-05
 -3.7571128e-05
  8.1610733e-06
  1.5862415e-02
  2.5672159e-01
  1.1917765e-03
  2.9192370e-01
  2.9637372e+00
  1.4632840e+00
  1.5434544e-01
 -1.8613358e-05
 -1.0988925e+00
 -2.1732461e+00
  2.2234966e-05
  3.4482862e-05
  1.2145140e-04
  3.6133279e-05
 -9.7944721e-06
  3.6922171e-05
  4.1761588e-05
  1.6350734e-04
 -3.9615308e-05
  4.5701512e-04
 -6.9104266e-05
 -1.6601253e-04
 -4.5277648e-05
 -8.5053380e-06
 -1.6428932e-04
  1.0178291e-04
 -5.2574676e-05
 -5.6087160e-01
 -7.4421245e-05
 -5.0133585e-05
 -2.0781410e-05
  5.7163346e-04
 -3.1489679e-05
  9.3550470e-06
  7.5349053e-05
  2.4626309e-03
 -2.8348053e-04
 -1.8947802e+00
 -5.0444571e-05
  1.9947864e-04
  4.5847477e-04
 -2.0588295e-05
 -4.2651262e-04
  3.9730328e-03
  1.1200954e-05
  1.7739469e-04
  8.8548159e-06
  3.8956136e-06
 -1.5413349e-04
  1.5283644e-05
 -1.1177385e-05
  3.9442201e-04
  4.0546856e-05
 -6.3642525e-05
  3.0096488e-05
  1.6839935e-04
  4.5079489e+00
 -6.5002484e+00
 -4.8866506e+00
 -1.6382424e+00
  4.2291789e+00
 -8.9810477e-05
  2.6256281e-01
 -1.3978559e-01
 -2.4646793e-01
  5.0822110e-04
 -1.0875347e-05
  7.6180807e-04
  1.7457595e-04
  1.6289689e-05
  1.8960204e-04
 -1.7961505e-05
  1.9664716e-04
  1.6158727e-05
  2.2810866e-04
 -3.4966011e-05
 -2.5539728e-05
 -6.9222908e-04
 -1.0420962e-05
  4.0911644e-04
  1.3373405e-03
  4.0339932e-05
 -4.5182303e-05
  3.2649568e-05
  1.1934072e-04
 -1.9495709e+00
 -6.4267782e-03
 -2.1720932e+00
 -3.1340489e-01
 -2.3419094e-01
  2.4512514e-01
 -5.6155892e-05
 -2.4347451e-05
 -5.3736963e-05
 -3.6752953e-03
 -5.1125053e-02
 -1.4013382e-04
 -9.1620564e-01
 -7.3207408e-01
  7.9701704e-06
  1.1024162e-05
  1.1611868e-04
  3.0758594e-05
  9.2516211e-06
  1.2722239e-04
  4.6661389e-05
 -4.2094366e-04
  8.7792805e-06
  1.4693712e-04
  5.1844963e-06
  1.7877650e-05
 -1.6529351e-05
 -1.6546900e-04
 -9.4175739e-03
 -9.1403352e-05
 -5.5434284e-05
 -1.8155060e-05
 -1.8886736e-04
 -3.2406017e-05
  1.6052334e-04
 -1.4211812e-05
 -5.7340119e-05
 -1.5024350e+00
  3.7682046e-05
  1.2122051e-05
  9.3339659e-05
  1.2331303e-04
  1.3956995e-05
 -9.5539981e-05
 -4.3323766e-05
  2.0974494e-06
 -1.3945637e-04
  6.1902138e-05
 -2.6587630e-05
  4.5911733e-05
 -5.7079626e-05
  1.7045189e-04
 -7.3199357e-05
 -3.4100103e-06
 -5.2804997e-05
  1.2377273e-04
  2.4616947e-06
  1.0920284e-04
  7.3751675e-05
  3.5251356e-05
  5.3367377e-05
  7.9656573e-05
 -1.4663348e-04
  1.5576606e-04
 -5.1821437e-05
 -8.9817324e-05
  4.1199637e-05
 -3.7078946e-05
 -2.0527789e-04
  4.9764676e-06
 -5.7145524e-05
 -3.4516297e-06
 -3.3640681e-05
  6.8660624e-06
 -3.2756903e-05
 -5.6827073e-05
 -3.6641864e-05
 -1.7488749e-04
 -2.0095231e-05
  2.9677088e+00
 -6.9218451e-01
 -1.1222367e+00
  1.6278398e-05
  2.7032399e-01
  7.7525969e-05
 -8.9980227e-01
 -2.5327713e-04
  6.5397583e-03
 -1.4853505e-05
  8.6504842e-05
 -2.7836651e-05
 -2.8725675e-01
 -3.3324231e-05
 -2.1615151e-05
 -2.5506547e-06
  1.4538798e-05
  1.8169687e-04
 -2.5230416e-05
  3.6296493e-05
  1.1868309e-05
 -9.6090465e-05
  1.5619938e-04
 -3.7050933e-05
  3.7017096e-05
  1.3735263e-04
  5.5794593e-05
 -3.0873405e-05
 -9.3168972e-05
 -1.5876815e-04
  4.6059205e-05
 -4.4930905e-05
 -1.0342824e-05
  5.5190641e-02
 -3.7919730e-05
 -2.5053232e-05
  1.2616484e-05
  1.3341630e-04
 -4.6326324e-05
  2.3285701e-04
  1.1758565e-05
 -2.2724812e-04
 -1.3734402e-05
 -3.2985339e-05
  2.1995677e-04
 -3.2763033e-05
  4.8554408e-05
  6.7171286e-06
  1.0608247e-04
 -3.2809203e-05
 -2.6179416e-05
  8.4571031e-05
  9.8030432e-05
 -2.7859871e-05
 -5.4585773e-05
  2.8494576e-05
 -7.5664866e-05
  1.4250964e-04
 -1.8455452e-04
 -2.9123370e-05
  2.4808627e-05
 -3.2661756e-05
  2.5206544e-05
  3.3896100e-05
 -3.0876654e-05
 -4.7989448e-05
 -3.0476996e-05
  1.0927408e-04
  2.4849838e-05
 -2.4460457e-04
  1.3649538e-05
  1.6891766e-04
  3.8019953e-05
  4.5541135e-05
  1.0479665e-04
 -1.2736903e-04
 -6.8452595e-05
 -1.0976411e-04
  2.7125130e-05
  4.3243008e-06
  9.9863928e-07
  5.5116493e-06
  3.3085129e-05
 -8.9479676e-05
  3.5380643e-05
  5.5380075e-05
 -1.4794272e-05
 -6.4272586e-05
  1.8237212e-04
 -1.2957680e-04
 -1.0500930e-04
  3.0506802e-05
  3.2399410e-05
 -5.1925458e-06
  4.0145314e-05
 -5.7610156e-05
 -1.6034479e-06
  2.0236921e-05
  1.5801216e-04
 -7.6556367e-05
  1.0386045e-04
 -2.1157857e-06
 -2.3867022e-05
  2.4266897e-06
  3.6274254e-05
  2.3572806e-05
  2.5003214e-05
 -4.4708187e-05
 -2.1423423e-04
 -2.5406480e-01
 -2.7061880e+00
 -2.9250491e-01
  3.6205721e-01
  6.2852681e-01
  1.3698405e-01
 -1.0839101e+00
  2.6081485e-04
  8.5827438e-03
  2.0398334e-01
  2.2928917e-04
  1.6084171e-04
  1.2138163e-01
  1.5057287e-03
 -1.2173558e-05
  7.5428199e-04
  3.6785349e-01
 -2.2940406e-04
  1.1962344e-04
  1.9701733e-05
  7.6169317e-04
 -3.8128350e-05
  3.2796117e-05
  4.8515107e-04
 -1.7015522e-04
 -2.5457432e-04
  1.2886579e-04
 -1.7835245e-04
 -2.7187052e-01
 -1.0037883e-01
  4.9689828e-05
 -4.6658679e-05
  2.4717252e-03
 -8.4395833e-02
 -2.6442113e-04
  1.6008841e-02
  6.0000038e-01
 -1.3413547e-04
  3.4937367e-02
 -5.6082812e-05
  2.4254163e-01
 -2.9231947e-05
  2.7722967e-01
  6.8380408e-02
 -4.6136363e-05
  1.8332163e-05
 -2.4870722e-05
  6.0170942e-06
  5.4020729e-05
  5.5960252e-05
 -1.8555718e-05
  3.8480143e-06
  3.3207369e-05
  6.9034559e-01
  2.2972787e-02
 -4.9119363e+00
  5.2241242e-01
  4.7925544e-01
  1.0404680e-02
 -8.9929080e-01
  4.1320505e-05
 -2.8293612e-04
 -4.6034460e-05
  1.1750548e-04
  1.0011571e-04
  1.5434608e-04
 -2.0115627e-05
  9.9052275e-05
 -3.5406981e-04
 -2.7901087e-06
  5.2332238e-05
  6.5323710e-04
 -5.8642312e-05
  9.0902024e-05
 -1.4745876e-04
  4.2817323e-05
 -1.7198132e-04
 -1.5694024e-04
  2.0354164e-04
 -2.3324598e-04
 -1.4377217e-04
 -1.1102557e-01
 -7.2106114e-04
  1.3431831e-04
 -1.5548583e-02
 -2.7296302e-04
  5.7080018e-05
 -5.6097209e-01
 -6.7943341e-01
  5.7600572e-04
 -3.8441336e-05
 -1.3234623e-04
 -6.4184911e-05
 -4.3540906e-05
 -1.5536498e-04
 -2.0061523e-05
 -3.8886345e-05
 -1.0399233e-04
 -2.2614428e-05
  3.1650791e-04
 -7.2918134e-05
 -6.1992447e-05
  4.4434859e-05
  1.5986864e-04
 -5.3716059e-05
 -4.5887693e-05
 -1.3013426e-05
 -1.0086285e-01
 -6.5651833e-04
  6.4301774e-02
 -1.5105712e-01
  2.5944339e-02
  1.6291991e+00
  1.2394007e-01
  4.7504023e-02
 -6.9975256e-05
 -6.6238731e-06
 -4.3640557e-05
  3.3521006e-05
  2.3076462e-05
 -4.3617965e-05
  1.4187160e-04
  6.2436811e-05
 -2.0394564e-04
  5.4723201e-05
 -3.3202094e-05
  4.9700950e-05
  1.1483184e-04
 -3.3876517e-05
 -2.6447629e-05
  3.9860439e-05
  3.0488955e-05
  3.3730048e-05
  2.4377779e-05
  5.3537293e-05
  1.4160337e-01
 -2.1493874e-05
  3.3981826e-02
 -4.6955091e-05
  1.6252955e-02
  2.5069043e-02
  5.9857342e-02
  4.5011569e-02
  6.7372230e-07
  3.3653809e-03
 -7.3636256e-05
  2.5939995e-02
 -2.8966041e-03
  1.1636736e-05
 -3.7683869e-06
 -6.0335129e-05
  2.8477747e-03
  6.2763407e-05
  1.4103002e-04
  1.1335868e-04
  1.2537579e-04
  5.0642251e-05
 -1.8009523e-05
  1.7502756e-04
 -5.2479096e-05
  8.4838339e-06
 -2.2569780e+00
 -2.2296689e+00
  1.8315772e+00
  2.2020857e+00
 -1.9430094e+00
  2.9513814e+00
  7.3696005e-01
 -1.7358373e+00
 -4.9609736e-01
 -8.3687592e-01
 -1.4275861e+00
  4.8167768e-01
  2.2124165e-01
  5.3361214e-06
 -8.5306633e-01
 -9.0157145e-01
 -1.0105559e+00
 -4.7401163e-01
 -1.4419897e+00
  1.4329181e-03
  4.1876030e-01
  1.5983882e+00
  4.2175260e-01
 -1.8930150e+00
 -5.4372031e-02
 -7.3951310e-01
 -1.6005651e+00
 -2.4846916e-01
 -5.1324928e-01
 -4.4921234e-01
  1.1738586e+00
  7.9642129e-01
 -1.1992171e+00
 -3.8659364e-01
  2.4870500e-01
 -1.9187595e+00
  2.8555253e-01
 -1.0514971e+00
 -8.2152180e-02
  1.9364600e-01
  8.5457587e-01
 -4.5997611e-01
 -2.3693033e-02
  1.4799442e+00
 -3.7392113e-01
 -8.2886781e-06
  7.6410093e-04
 -2.1704024e-02
  2.1224063e-02
  2.3740815e-01
 -8.1078249e-01
 -1.8937358e-01
 -8.7639034e-01
  5.0054115e-01
 -7.2867704e-05
 -3.4279008e-05
  1.3736689e-04
 -3.6203044e-06
  5.3597203e-05
 -3.9359995e-05
  5.7632842e-05
  5.9526338e-04
 -5.4067306e-05
  5.5436751e-05
  2.0901949e-05
 -6.0256723e-05
  1.1574104e-04
  3.4120079e-05
  4.3830743e-05
 -8.9549336e-05
  7.8902735e-07
 -3.8140177e-05
 -3.9137097e-04
  4.9684102e-05
  1.9956848e-05
 -7.8862940e-05
 -5.4845292e-05
  1.5701672e-04
  5.9963433e-05
 -3.0987667e-05
 -3.1376294e-07
  4.9855225e-05
  1.4658301e-04
  1.4092390e-04
 -4.0639032e-05
  2.9750136e-04
 -1.0347520e-04
 -6.6925936e-06
 -4.0902869e-05
 -1.3192605e-04
  1.4858619e-04
 -2.7685057e-05
 -4.9723523e-05
  1.3377610e-05
 -4.7090107e-05
 -3.9686791e-05
 -4.7184003e-06
  1.0022174e-04
 -1.0842339e-05
 -5.2416137e-05
  5.7354489e-05
  1.5715992e-05
  5.4905333e-05
  1.2403593e-04
  1.1970831e-04
 -4.0104220e-05
 -2.9035483e-04
 -1.4353884e-05
 -5.1546651e-01
  6.7071533e-01
 -1.4196612e-01
 -4.0400189e-01
 -2.1122213e-01
  7.0086502e-02
  1.9802591e-01
  5.1036119e-02
  3.7334794e-01
 -1.7027677e-06
  4.1331044e-05
  4.8879981e-01
  3.6060917e-01
 -2.3388438e-05
  2.7849436e-02
  2.8217895e-02
 -5.1519532e-02
  9.1464892e-02
  5.9592629e-05
  2.1768445e-02
  1.0875537e+00
 -1.7152575e-04
 -1.7669083e-03
  4.1555606e-02
  7.0726252e-01
  1.0263580e+00
  1.1148043e-01
  8.3538604e-01
  3.8821673e-01
  4.6720871e-01
 -2.3311870e-02
 -3.2906532e-03
  1.1987629e-01
  6.4915997e-01
  8.2707644e-01
  9.0229817e-02
  2.5109771e-01
  3.3253949e-02
  3.0704847e-01
  3.2973111e-01
  3.5379883e-02
  2.5530192e-01
  1.5917473e-01
  8.1959173e-02
  1.9287223e-01
  3.1489617e-05
  1.3912753e-03
 -6.7991517e-02
  4.7817272e-03
  6.9688406e-04
  4.0156163e-05
 -4.2399106e-06
 -2.0821720e-02
  4.3035722e-01
 -2.8578259e-02
 -8.0797190e-06
  3.4543558e-05
  3.9296120e-01
  1.1437674e+00
  4.4491102e-05
  5.9464133e-01
 -1.0411113e-04
  1.0585301e-05
  1.6631755e-04
 -1.5481366e-05
  4.7752072e-04
  1.1585954e-04
  1.0805291e-04
  4.0117087e-05
  2.4074832e-02
 -1.1192336e-04
  3.0829666e-05
 -3.8305854e-05
 -2.1166485e-05
 -4.2443091e-05
 -1.4062151e-05
 -2.9513153e-04
 -4.1244140e-05
 -1.7332294e-04
 -1.0569688e-04
  1.6303668e-05
  1.1837600e-04
 -2.8307722e-06
 -1.5008861e-04
  7.9218494e-03
 -3.0381239e-05
  1.2980749e-05
  7.9120230e-04
  1.1343369e-03
  2.0353745e-01
  4.7738409e-05
  1.4150387e-04
  1.8474346e-06
 -5.4929184e-04
 -3.0525232e-04
  1.7091112e-05
 -1.2354121e-04
 -5.6751796e-05
  3.4697154e-05
  5.3438100e-05
  1.8659648e-06
 -2.5090863e-04
  5.3393509e-05
  5.0424685e-05
 -5.0358722e-05
  1.5456977e-05
  4.9469996e-05
  6.6469505e-04
 -6.6997808e-01
  8.8940901e-01
  7.5366199e-01
  6.1589760e-01
 -1.9118783e-01
  4.8792430e-05
 -4.5524076e-01
  1.0495475e-04
 -6.7508571e-02
 -4.2765965e-05
 -3.1322329e-06
  5.8212037e-05
  9.7371958e-06
 -5.3484371e-05
 -8.6167276e-01
 -3.6517897e-05
  1.7219236e-04
  1.6464588e-04
  8.4582016e-06
 -2.2317257e-04
  9.2168579e-05
 -3.3132026e-05
  1.5032334e-04
 -1.2459354e-03
  5.4362128e-05
  7.1860927e-06
  2.7737375e-05
 -3.3497097e-05
  7.0298074e-06
 -5.2491854e-05
  5.9532049e-05
  5.3187945e-05
  2.5671205e-04
 -6.4108558e-02
  1.3151875e-04
  8.0716098e-05
  8.9663044e-02
 -1.3250879e-04
 -3.3732875e-05
 -1.5819126e-01
  3.8665989e-05
 -3.8743932e-02
 -5.1051342e-05
 -1.8791990e+00
 -1.4549326e+00
 -4.1647472e-06
  5.6371566e-05
  3.6493046e-05
  1.7822320e-04
 -2.1320047e-06
 -6.0620314e-05
  2.7377700e-05
  9.3434610e-05
  3.8264523e-05
  2.7540410e-01
  5.5557710e-05
  6.7435972e-02
  5.6323257e-05
 -2.2036285e-05
  3.0294619e-05
 -4.1535903e-05
 -5.3224692e-05
  1.6680334e-04
 -1.3351798e-05
  1.6961283e-05
 -1.6991864e-05
  4.3794556e-05
 -4.8474426e-04
  5.6080869e-05
  6.3702064e-06
 -5.0587740e-05
  4.7053728e-02
 -7.8009659e-01
  3.6859958e-05
 -1.0097551e-05
 -1.9259699e-06
 -6.4827225e-05
  4.4615798e-02
 -6.3350148e-05
  2.8105878e-04
 -1.0604048e-04
  1.7179726e-04
 -1.3537066e-05
 -4.8438793e-05
  1.3334531e-05
 -1.5368591e-04
  6.5638873e-05
  1.6000162e-05
 -4.6985369e-04
  3.4096811e-05
  1.1411776e-06
 -2.1058859e-05
 -1.7147871e-04
  4.9414470e-05
  1.4704463e-05
 -1.1268022e-04
 -2.0599982e-05
  6.1586077e-05
  7.8711309e-06
 -9.5953612e-05
 -2.1988993e-05
 -3.5816090e-06
 -1.3955707e-04
  4.8043501e-05
 -1.2556982e-04
 -3.4874167e-05
  1.7526088e-04
 -3.0305667e-04
  3.7251684e-01
  2.1575887e+00
 -6.7223781e-01
 -7.5846541e-01
 -7.9143113e-01
  2.1896327e-01
  1.0141660e+00
 -4.1982968e-04
 -5.8939552e-01
 -3.9632322e-04
 -1.2991182e+00
  6.6087864e-02
 -2.6138048e-04
 -4.3701704e-04
 -5.5526609e-05
  1.2894655e+00
 -1.7678242e-03
 -3.7504531e-02
  7.6749484e-06
  7.3272623e-02
  8.6424910e-02
 -1.2855310e-03
  1.2425527e-01
  8.8400677e-02
  8.7101340e-05
  1.3894011e-02
  3.1345403e-01
 -6.6342553e-05
  1.8761669e-03
 -3.2931218e-01
  4.3924376e-01
  7.7135332e-02
  1.0270198e-01
  2.7753444e-02
  7.8163028e-01
  3.4266597e-01
 -3.5759814e-02
 -2.7280122e-01
  3.8373273e-02
 -2.8662852e-04
 -2.4594095e-02
  7.9019117e-04
 -1.7877270e+00
  1.8666826e-02
  3.0176121e-01
 -3.0508957e-06
 -2.7392556e-05
  2.9438377e-05
  4.8703136e-04
  3.7729529e-05
  1.4372216e-05
  6.3779720e-05
  1.5325213e-04
  6.6853107e-05
  1.2415667e-05
  6.1292536e-05
 -9.2653296e-04
  2.0558183e-01
  3.4855925e-03
 -4.4939083e-05
  2.4673033e+00
  1.5592802e-04
 -1.2102432e-03
  4.5814908e-05
 -4.1193125e-06
  3.5919715e-04
  2.0770876e-04
  3.9237882e-05
  1.6788892e-04
 -4.7979294e-05
  3.0738986e-05
  3.6611866e-05
  2.6379892e-04
  2.6784310e-04
  1.1775311e-04
  7.1598115e-05
 -1.3405535e-05
 -3.7802936e-05
  5.5568926e-05
  1.4338281e-04
 -3.0699142e-04
  1.1712441e-05
 -1.2422926e-04
  7.6546617e-05
  4.2435096e-04
 -1.3259547e-05
 -1.8742801e+00
 -1.3384281e-04
 -1.5185380e-04
  3.4415635e-01
  5.7744834e-05
