nep4 3 B C N 
cutoff 8 4 414 46
n_max 8 8
basis_size 12 12
l_max 4 2 0
ANN 50 0
 -7.7048260e-01
 -1.7089124e+00
  3.9315565e+00
  4.8655663e+00
 -5.1930151e+00
  1.1255512e+00
 -2.0088315e-01
 -4.6392879e+00
  9.7439070e+00
 -2.6910102e+00
 -2.1240590e+00
 -1.6786788e-01
  3.0940118e-01
 -1.4374549e+00
  8.2559806e-01
  1.9119586e+00
  2.1818767e+00
 -3.5483489e+00
  3.2592416e+00
  5.2291327e+00
 -5.4056454e-01
 -1.0672048e+00
 -8.0592012e-01
  2.0949831e+00
  3.7465227e+00
  1.8146168e+00
 -1.2593496e-01
 -8.5316765e-01
  2.6450295e+00
 -1.2629007e+00
  7.2167869e+00
  1.2365638e+00
 -2.5193727e+00
  2.7844543e+00
 -2.2808406e+00
 -1.8895873e+00
 -8.6976349e-01
  3.8641691e+00
 -1.7328842e+00
  5.0964510e-01
 -7.4696094e-02
  4.3556285e-01
  1.0233516e+00
 -1.7855024e+00
  9.5904171e-01
 -3.8301796e-02
 -4.6258235e+00
 -1.1734390e+00
  1.8625078e-01
  5.4155577e-02
  1.0465597e+00
  1.2560881e+00
  2.0350635e+00
 -2.7701485e-01
  1.6771865e+00
  3.6738365e+00
  1.0056017e-01
  2.5032709e+00
  4.2295590e-02
  3.9423575e+00
 -2.4625874e+00
 -2.5721005e-01
 -2.4441535e-02
 -5.0927963e+00
 -1.0866325e+00
 -1.5107691e+00
  3.4571415e-01
 -1.0759947e+00
 -2.6621656e+00
 -5.3985488e-01
 -2.2540414e+00
 -1.1309897e+00
  8.3950126e-01
  3.9803040e-01
  3.5419438e-02
 -1.3026937e+00
 -2.9892847e-01
 -2.2381554e+00
  3.0282632e-02
  1.7754948e-01
  2.6160640e-01
  1.3824669e+00
  3.2304570e-02
  8.0548990e-01
 -5.7966822e-01
  8.2296012e-03
  1.0832250e+00
 -5.8243752e-01
  1.9512054e-01
 -1.9398488e+00
 -7.3066038e-01
  2.1353915e+00
 -2.5642896e+00
  6.6017342e-01
 -2.5113244e-03
  2.4768503e+00
 -9.6153058e-03
  1.3294564e-01
  6.1326623e-01
 -2.1972878e+00
  7.6253161e-02
  4.0598863e-01
 -8.7454957e-01
 -1.0088621e-02
  1.8510927e-01
 -3.7547965e-02
  1.9902530e-01
 -2.0270848e+00
 -3.4128839e-01
 -4.8856539e-01
  4.1932277e-02
  2.9533263e-02
  5.0613511e-01
  5.4108847e-02
  1.1052784e-02
 -4.4520605e-02
 -1.7559242e-02
  3.3259809e-01
 -8.2389992e-03
 -1.5381234e-02
 -1.3341172e-02
  1.3810504e-02
  6.9829267e-01
  2.9098306e-02
 -9.9672750e-04
 -1.2141285e+00
  5.2797683e-03
 -5.7487679e-03
  4.5913281e+00
  1.8010883e-02
 -1.9686314e+00
 -1.1527776e-03
  1.1350887e-02
  2.5347983e-03
 -1.4593008e-03
 -1.7320209e-03
 -7.0759170e-02
  2.5379290e-03
 -3.4330007e-02
 -2.2084156e-01
  1.4479285e+00
 -6.3895124e-01
  6.4536831e-03
 -2.6934966e-02
  9.0451203e-03
  3.3105999e-02
  6.8346977e-02
 -1.9781411e-01
 -1.6133234e-02
  1.9549331e-02
  4.5671552e-02
 -6.8677199e-01
 -2.0154063e-03
  2.2445824e-02
 -4.4712402e-02
 -5.9904158e-02
 -7.0936091e-02
 -8.1533063e-03
 -1.6544245e-02
 -6.7958579e-04
  4.1763104e-02
 -4.0817823e-02
 -7.4804324e-01
 -4.5748572e+00
  9.3937032e-03
  1.5960850e-02
 -3.5798410e-01
 -1.9655222e-01
  2.0000100e+00
 -1.1625918e+00
 -6.1568409e-01
 -1.8458323e-03
 -3.4837420e-03
 -3.0546364e-01
 -3.1086067e-03
 -3.3219373e-01
  5.4831374e-01
  1.6717251e-01
  4.3476965e-02
 -1.8811400e+00
  1.5929849e+00
  7.0776951e-01
 -2.6333144e-01
  2.8025534e-02
 -3.1892743e-02
  2.1388710e+00
 -6.8836823e-02
  3.4842394e-02
  8.1349500e-02
  1.4042286e+00
  5.6535614e-01
 -5.5520380e-01
  2.0052142e+00
 -6.3851553e-01
 -1.9123334e+00
  1.0306199e-01
 -8.4606782e-02
  3.6460352e-01
  8.7361492e-02
 -2.4952743e-02
 -9.7579695e-02
  8.3082110e-01
 -1.1699042e-01
 -2.5863492e+00
 -1.4935024e-03
  3.2045516e-01
 -4.6497259e-02
  3.0109577e-02
 -4.2264946e-03
  2.4012162e-01
 -9.0426749e-01
  2.8426296e-03
  6.6213077e-01
 -3.6971398e-02
 -5.7361889e-01
  3.9968427e-02
  1.7290946e+00
  3.0348625e+00
  2.4222204e-01
  3.9793475e+00
 -1.4598304e+00
  1.4676023e+00
  4.7743243e-01
  5.9320651e-02
 -3.1875331e+00
  1.8292867e-01
  1.3602549e+00
  1.4060935e-01
 -4.0869263e-01
  1.0885237e+00
  2.2285116e+00
 -1.0889847e-01
  5.2834660e-02
 -1.5640016e+00
  4.0189156e-01
  1.4722667e+00
 -6.8690546e-02
 -7.1084476e-01
  4.4190246e-01
 -1.6604587e+00
  3.0049069e-02
  1.0335014e+00
 -4.7961220e-02
  1.4237119e+00
  2.7113094e+00
  1.4674923e-02
 -1.0371252e+00
 -3.2177457e-01
 -4.7988719e-01
 -4.0772784e-01
 -7.0758826e-01
  9.4530368e-01
 -1.7305467e-01
 -2.9278198e-01
 -9.4898105e-02
 -9.5732450e-01
  7.6262571e-02
 -1.0476497e-01
 -4.8540436e-02
  1.3564427e-01
  1.5001618e+00
 -9.3082376e-02
 -1.3946758e-01
 -6.9998193e-01
  4.5438286e-02
  2.5905378e-02
 -6.2386394e-01
  1.0355490e-01
  7.8909343e-01
 -8.1029020e-02
  3.2305489e+00
  1.1600829e+00
  3.8305503e-01
  1.8412087e+00
  1.4230259e-01
  1.4637985e+00
  8.0648893e-01
 -1.9216545e-01
 -9.3072928e-02
 -1.1751211e-01
 -5.1234709e-03
 -3.6170707e+00
 -8.0412822e-03
 -1.9315995e-02
 -7.1276426e-01
  1.0087975e+00
  5.7602525e-02
  3.4374449e+00
  2.6709962e-01
 -9.9225149e-02
  1.7504569e-02
 -1.1632778e-01
  4.3625364e+00
  4.3026237e+00
 -6.5950491e-02
  1.8781470e-02
 -2.9393783e-02
 -1.2549605e+00
  1.3165597e-03
 -2.2004366e-02
 -5.7645768e-01
 -6.7659646e-02
  3.2172921e+00
 -5.3092074e-03
 -1.0753789e+00
 -2.1412907e+00
 -5.5019708e+00
 -2.7819213e-01
  7.5826095e-03
 -5.5668205e-01
  4.1820914e-02
 -1.4591666e+00
  7.8341253e-03
 -3.5969794e-02
 -2.0790267e+00
  4.2440901e-03
 -4.1492942e-01
  1.6570099e-02
 -2.8143451e-01
  6.3747768e-03
  5.9444842e+00
 -4.2071291e-03
  1.3425201e-02
  7.1625798e-03
 -2.0747061e+00
 -2.1435137e+00
  1.7065351e+00
 -1.9000696e-01
 -1.6187589e+00
 -2.1815939e+00
  8.5666013e-01
  2.2019869e-01
  1.9287919e+00
  3.3463969e+00
 -9.3442164e-03
 -6.8949535e-02
 -1.1750194e+00
 -1.3342752e-01
  9.3572795e-01
  1.5507611e+00
  1.8731031e+00
  3.8293540e-01
  2.0516067e+00
  1.0383676e+00
  1.9900843e+00
  1.3594272e+00
  3.0490377e+00
 -4.3144092e-01
  3.6691892e+00
  1.3414445e+00
 -3.7007710e-01
  1.5747871e+00
 -1.7705681e+00
 -1.0791146e-01
  5.4082074e+00
 -4.8717779e-01
 -4.6085319e-01
  3.1863201e+00
 -1.7394346e+00
  1.6051494e+00
  4.9342122e+00
 -4.9154498e-02
  7.9996616e-01
 -1.4541171e+00
 -3.0651228e+00
 -1.3060322e+00
 -7.1763152e-01
  3.9524874e-01
  2.8426197e+00
 -4.0890798e-01
 -6.1810956e+00
 -4.0119376e+00
  1.2326598e+00
  4.2259078e+00
 -8.9395612e-01
  1.1669862e+00
  5.8457403e+00
 -1.7780923e+00
 -3.2462392e+00
 -9.9059305e+00
 -7.0252180e+00
 -2.9514155e-01
  1.1068538e-01
  5.8792892e+00
  3.6170454e+00
  4.4450545e-01
  7.4982017e-02
  3.9131377e-02
  1.3185158e-02
  1.2409126e-02
  3.9783013e-01
  1.7445337e-04
 -2.9528234e-02
  4.5531482e-02
 -1.2090613e-02
 -1.7128604e-02
 -4.3533005e-02
 -8.7775253e-03
 -1.2128027e-02
  1.4731161e-02
 -1.4936073e-01
 -1.5932709e+00
 -6.0554594e-06
 -3.0832954e-02
  2.3915814e-03
 -5.4414188e-03
  4.1492768e-03
  4.5018056e-03
  1.3287670e-03
  9.7745436e-01
 -5.7648844e-01
  3.6373134e+00
  6.5012023e-02
  1.8676553e-02
 -1.4207210e-02
  3.7366867e-02
  6.3707680e-04
 -2.1002801e-02
 -1.6576324e-02
  1.0429229e+00
 -1.4889206e-02
  1.1745384e-02
 -5.5130132e-02
  6.0446125e-02
 -3.5700724e-02
  2.6256934e-02
 -1.7289071e-01
  6.5016362e-04
  1.9294634e+00
 -2.4031125e-02
 -4.4213828e-02
  1.0824942e-02
 -1.8427270e-03
  3.1425548e-03
  3.3061761e-02
  4.3572243e-03
 -7.1064003e-02
  1.1543199e-01
 -2.6575899e-02
  1.3449134e-02
  1.4643418e-03
 -7.1042907e-01
 -2.6302462e-04
  4.5624922e-04
  6.0541615e-02
  2.0840238e-03
  2.8135832e-02
 -2.3195619e-02
  1.8830007e-01
 -9.9637517e-05
  1.9472301e-02
 -2.6326644e+00
 -1.0569197e-02
 -3.4244597e-02
 -3.9224073e-02
  1.2106738e-02
 -9.3096280e-03
  8.2229497e-03
  6.9692526e-03
  4.4128485e-03
  1.1596298e-02
 -1.3049911e-02
  1.6368398e-02
  2.1137074e-02
 -6.7554705e-02
  3.3550821e-02
 -4.4710748e-04
  4.0794956e-04
  2.9738089e-03
  3.1265260e-03
 -1.6278750e-01
 -1.1738465e-02
 -6.8718167e-03
  6.3157766e-03
 -4.3411657e-02
  5.4129213e-02
 -3.1910222e-02
 -9.4309943e-03
 -4.3827090e-02
 -1.7168924e-02
  1.9068381e-02
  6.5504394e-02
 -5.1268390e-03
 -2.7363013e-02
 -1.3874245e-01
 -1.0153683e-02
 -1.6176721e+00
  2.0724633e+00
  3.7139657e-01
  1.2999564e-02
 -1.2735991e-03
 -8.3403635e-01
  4.5602325e-01
  2.9794112e-01
 -3.4998268e-01
 -1.4686635e-01
  1.4979818e+00
 -1.4948025e-01
  3.8999030e-03
 -2.3650022e+00
  1.2365826e+00
 -8.5040331e-03
 -5.4793200e-03
 -1.9300545e+00
 -4.2267967e-02
 -1.0049776e+00
 -3.6134202e-02
 -5.3400427e-02
 -1.0400828e-01
  1.8002746e-01
  5.5389768e-03
 -6.7983836e-01
  2.2320592e-01
 -1.3605042e+00
  1.1691382e-02
 -4.8945364e-02
 -3.6338040e-01
  2.3228600e+00
 -2.3693089e+00
  5.4887552e-03
  6.6978661e-03
  5.6894746e-02
 -4.5047846e-02
 -2.7612699e-03
 -1.7714638e-01
  2.4704933e-01
 -1.5462117e-01
  9.4442260e-01
 -3.4828119e-02
 -1.8206425e-04
 -1.4917063e+00
  3.2446422e-02
  7.4101649e-02
  1.7818838e-02
  5.9134096e-02
  1.5022634e-02
  1.9344765e+00
  2.9609708e-02
 -2.2313206e-02
 -1.8478014e-02
 -1.5526706e+00
  1.0732163e-01
 -2.1142861e-02
 -1.1166762e+00
  8.0390829e-01
  5.4474759e-01
  3.4563032e-01
 -9.4166100e-02
 -2.3858211e+00
 -1.7978560e-02
  6.0058355e-01
 -1.1805260e-01
 -3.1545784e+00
  3.1147420e-03
  5.7642841e-01
  5.7499509e-02
 -8.8690352e-01
  3.0653292e-01
 -4.9174689e-02
  1.4228161e-02
  3.2528120e-01
 -1.4495307e-01
  8.8406526e-02
  2.0315689e-03
  1.9234498e+00
  3.5260534e-01
 -3.3135995e-02
 -3.6599968e-02
 -7.4245170e-04
  1.2678164e-01
 -1.3675923e-02
 -2.3340461e-01
  6.3801688e-01
  1.0948046e-02
 -1.1665618e+00
 -4.2458591e+00
 -1.9078318e-02
  4.9356750e-01
  4.0717220e-01
 -6.4855319e-01
 -3.2411849e-01
  5.9175420e-01
 -2.4662774e+00
  1.6848437e-01
 -5.2936697e-01
 -2.4848038e-03
 -1.8302742e-02
  2.7020089e-02
 -9.2833042e-02
  2.3692999e-02
  7.8257900e-01
  1.1566928e-02
  3.3360582e-02
  1.1133472e-02
  6.3711810e-01
 -6.7955995e-01
 -1.1927329e-01
 -2.3645360e+00
  2.8821750e+00
 -2.8446317e+00
  1.0140567e+00
 -4.1521095e-02
 -9.1366053e-01
  1.7798910e-02
  6.8688875e-01
 -2.2720507e-01
 -4.7141990e-01
 -3.5730645e-01
  5.0595789e-03
  1.4347461e-01
 -3.6393330e-02
  1.9608538e-01
  2.4180315e-02
  3.7703171e-01
  4.6478474e-01
  3.3737175e+00
  1.2638310e-01
  1.8070627e+00
  8.1655253e-03
  1.0276108e+00
 -2.5885892e+00
  4.5928791e-02
 -9.3887493e-02
 -4.8619819e-01
  1.0286711e+00
 -3.7306133e-01
  8.6395586e-01
  4.8733988e-01
  1.8276899e-01
  2.0707673e-01
 -5.1816363e+00
  2.5415221e-01
  2.7631092e+00
 -9.2553943e-03
 -2.0886812e-01
 -4.5803162e-01
  2.1119701e-02
 -4.3414805e-02
  4.7142780e-04
  5.8043238e-02
 -5.5899676e-02
  7.6252222e-02
 -3.4331348e-02
 -1.4135881e-01
 -7.2781426e-01
 -8.8090114e-03
  2.3579236e-02
  4.5458607e-02
  6.9482207e-01
  2.5958190e+00
 -3.2123041e+00
  5.8013737e-01
  6.2849741e+00
  1.1114126e-01
 -1.9696745e+00
 -2.3944461e+00
 -9.2530951e-02
 -4.1867619e+00
 -1.3083421e+00
  1.8993810e+00
 -3.6979105e+00
 -1.6789840e-01
  3.7040800e-01
  1.6692820e-01
  3.1190109e+00
 -2.8148678e-01
  5.0292897e+00
  2.6820130e+00
  1.6531928e+00
 -4.0524821e+00
 -2.6207535e+00
 -2.3611979e+00
 -1.3596627e+00
  1.9132434e+00
 -2.9667513e+00
  7.8067791e-01
  1.5706680e+00
 -6.2211494e+00
 -5.7262085e-02
 -4.4228700e-01
  2.9973358e-02
 -4.6697083e+00
  2.4283907e+00
  9.2052585e-01
 -1.0996212e+00
  2.4570518e+00
  9.4782627e-01
 -1.3288815e+00
  5.3229389e+00
  1.7188141e+00
  4.6429694e-02
 -4.7442460e+00
 -1.4614798e+00
 -1.5713986e-02
 -1.0747874e+00
 -2.1187150e+00
  2.1313775e+00
  1.2667012e-01
 -5.0545149e+00
  2.1993046e+00
 -1.9255117e+00
 -7.2962588e-01
 -1.3076842e+00
 -4.2477641e-01
 -5.8429163e-02
 -7.4444985e-01
 -5.8101493e-01
  6.7780691e-01
 -5.1583320e-01
 -7.0845950e-01
  3.4198961e-01
  2.3401484e-01
  2.3048015e-01
  2.0754902e-01
 -1.7906126e-01
 -5.9825671e-01
  1.3678089e+00
 -8.4766887e-02
 -9.4884343e-02
 -8.0355752e-01
  1.4233805e+00
  2.3127275e+00
  2.4906371e-02
  6.6338789e-01
 -2.7059603e-02
  3.9998138e+00
  1.8576801e-02
  6.1824077e-01
  5.7274926e-01
 -8.8880086e-01
 -3.6320698e-03
  2.0755053e-02
 -3.8168569e+00
 -4.0328991e-01
 -8.9715546e-01
  3.2321268e-01
 -4.3494707e-01
  4.9386227e-01
  1.3021002e+00
  1.8563282e+00
  1.5700765e-02
  1.4005728e-01
 -5.7440460e-02
 -4.4570890e-01
 -5.5991502e+00
 -3.4132965e+00
 -2.5059178e-01
 -4.2982072e-02
  6.6173337e-03
  6.8284124e-01
 -3.1333718e-02
 -7.1198389e-02
 -4.3101677e-01
 -7.1125664e-02
  2.5201252e-02
  2.4152151e-01
 -7.5318575e-01
  1.8252729e+00
  8.0134434e-01
  7.9052460e-01
 -7.6416844e-01
  2.7411668e+00
 -1.1268427e+00
 -1.7431746e+00
  9.9366279e-03
  3.2367060e-01
 -6.7471504e-01
  2.6648302e+00
 -1.0301196e-01
  1.4466153e+00
 -2.6475852e+00
  6.0041463e-01
  2.4222332e-01
  6.1801833e-01
 -2.2153521e+00
 -1.2415948e+00
  3.3991340e-01
 -5.4824057e+00
  5.2546066e-01
  2.5123351e+00
  6.0625080e-02
 -2.2928938e-01
 -1.1545336e-03
  6.7154700e-01
 -5.3914573e-02
  1.1521628e+00
 -5.7511073e-01
  8.3745411e-03
  1.1919222e+00
 -1.6296066e+00
 -5.2797765e-02
 -2.9032883e-01
  3.4992497e-02
  4.9266689e-02
 -1.1473806e-02
  5.2632970e-01
  1.1309636e+00
  3.8189821e-02
  7.9288445e-02
  1.7379237e-02
  1.3526523e-02
  8.6034089e-03
 -2.2315010e-04
 -3.3485655e-02
  3.5540946e-02
  1.6151202e-03
 -6.1994410e+00
 -9.9126846e-03
 -4.1194661e-03
  7.6950151e-03
  8.9713287e-01
  7.9833925e-02
  8.6602771e-01
 -3.7285440e+00
 -8.8316470e-01
 -1.0807996e+00
  2.8556871e+00
  4.2973828e+00
 -5.3733770e-02
  1.2914226e+00
  1.7298115e+00
 -4.4495118e-01
  5.0360638e-01
 -1.6278200e+00
 -6.8225190e-02
 -3.8859267e+00
 -5.1152248e+00
 -1.3870934e-01
  1.5201311e+00
 -4.1791563e+00
 -1.5462343e+00
  1.9936863e-01
  9.0538058e-03
  7.1388187e+00
 -2.3235223e+00
  4.8132874e-02
  2.0502455e+00
  9.1883343e-01
 -6.3328344e-01
  8.9588767e-01
  2.2163343e+00
  2.0691018e+00
 -8.5208535e-02
  5.6414356e+00
  8.0097240e-01
 -2.8533630e+00
  2.6591544e+00
 -2.3975191e+00
 -5.4052997e-02
  6.6917357e+00
 -1.3027596e+00
  1.5952491e+00
 -6.4330921e+00
  8.0221510e+00
 -4.2641625e-01
  1.1679132e-01
  8.9089200e-02
 -1.4457093e-02
  2.4161911e-02
 -2.3314033e-01
  4.7111368e+00
 -4.4757783e-01
 -1.0081608e+00
 -1.5214630e-02
  3.5249848e+00
 -6.3951144e+00
 -3.0999751e+00
  3.1210194e+00
  1.5533062e+00
  1.8185592e+00
  4.4745555e+00
 -2.6723943e+00
  4.4798341e+00
  1.0297413e-02
  1.6558388e-01
 -7.1281624e-01
  6.2918866e-01
  2.1388476e+00
 -1.7965430e-01
  6.9617298e-03
  1.3447089e+00
 -3.4179637e-01
  2.0971309e-02
  4.6136718e-02
 -1.2159075e-02
 -1.4801875e+00
  5.3932279e-01
 -6.2768116e+00
  6.6691852e-01
  3.6793536e-01
  4.1304108e-02
 -7.8504068e-01
 -1.1354339e+00
  7.9861134e-01
 -6.8849251e-02
  4.4133930e+00
 -5.7473975e-01
  6.8790877e-01
  1.4576614e-01
  8.2133913e-01
  5.5204601e+00
  1.1210780e+00
  8.7545194e-02
 -1.6139426e+00
 -1.5281471e+00
 -1.9517298e+00
 -5.1216274e-03
  1.3976527e+00
 -1.3533732e-01
  1.0488451e-01
 -3.0620929e-02
 -2.8490020e-02
  5.1471042e-03
  1.1252469e+00
 -4.4683652e+00
  2.6736144e-02
  9.0184622e-06
 -1.1234556e-02
 -4.4512194e-02
 -3.1089030e-02
  4.8727479e-02
  1.7619699e-02
  1.4090035e-03
  2.8694162e-02
 -1.7519889e-02
 -9.5759109e-02
  1.8393213e-02
 -9.7459266e-03
 -3.0494366e-02
  2.9723708e-02
 -7.3040202e-03
  1.2476754e-02
  7.5635021e-03
 -2.3652114e-02
 -2.6136929e-02
  2.4732467e-02
 -6.7549312e-01
 -4.2852731e-03
  8.3364062e-03
 -1.0080993e-02
 -5.4641580e-03
 -7.4800819e-01
 -5.2615441e-02
 -2.5434896e-02
  1.8003782e-02
  2.7565511e-02
 -3.7904391e-03
  9.7225532e-03
 -2.1718979e-02
  1.9021899e-02
  1.9969689e+00
 -9.0188265e-01
 -1.0388210e-02
 -1.6159968e-02
  3.0317396e-02
 -8.7491460e-03
 -1.9642841e-02
  1.6815770e-02
  5.8149991e+00
  5.4915819e-02
  5.0614378e-03
  9.2329597e-03
  5.7969891e-02
  2.9713526e-02
  4.4648895e+00
 -1.1879694e-02
  2.5447865e+00
 -1.4468802e-02
  4.5440331e-02
 -3.4518350e-02
 -1.7509520e+00
  1.8507389e-02
 -3.2915261e-01
  4.0076992e-01
  3.0711910e-01
 -7.6703489e-01
  3.2664230e-01
  7.2444367e-01
 -3.4283960e-01
 -3.2807924e-02
 -3.2417807e-01
  9.6565716e-02
 -1.5656291e-01
  2.5638962e+00
  8.1906760e-01
  4.4961697e-01
 -4.0549111e-01
  1.0431471e-01
 -4.6594497e-03
 -3.9660814e-01
  7.9009312e-01
  3.3561343e-01
  1.1417982e-01
 -3.9022899e-01
  4.2277157e-02
  1.1648107e-01
 -3.4063950e-02
  1.6244740e+00
  8.0172533e-01
  5.3888898e+00
  1.5332960e-01
 -2.0207670e+00
 -3.5448794e+00
 -4.0196380e-01
  2.5628430e-01
 -9.0123212e-01
 -7.9320347e-01
  2.6610127e-01
  1.4258860e-01
  1.3759152e-03
  1.3462999e-01
 -3.1795508e-01
 -2.5850717e-02
 -4.0252993e-01
 -4.7169105e-04
  4.7150380e-03
  2.9473186e-02
 -1.4490604e-02
 -1.3413009e-02
 -1.0450267e-01
  5.3327870e-01
  3.7543364e-02
  1.5253334e+00
  6.6694555e+00
  3.5255887e-02
  1.8805578e-02
  6.8241900e-01
 -1.5942705e+00
 -2.5475941e+00
 -1.6016990e+00
  1.1672046e+00
 -4.2038056e-01
  4.2780762e+00
 -9.0720749e-01
 -3.2137072e-01
 -2.2605179e-02
  5.1358514e-02
  1.7917782e-02
  7.6062374e-02
  5.7200205e-02
  4.6059053e-02
 -1.2819715e-02
 -8.7102884e-03
 -6.5585428e-01
 -4.9826071e-02
 -2.6234156e-01
  2.5210822e-02
 -1.1265137e-02
  1.2579221e+00
  2.6509473e-01
 -2.1300429e-02
  2.8523646e-02
  5.3592151e-01
 -1.5787175e-02
  2.1092668e-03
  4.5034485e-03
  5.5779178e-02
 -1.3295208e+00
 -3.4065154e+00
 -1.3699941e-02
  1.2032606e-03
 -2.2774382e-01
  1.0206608e-01
  5.3091483e+00
 -5.6371111e-03
 -1.7004602e-02
 -7.5374752e-02
  6.5112205e+00
  4.6734873e-02
  3.4720218e-01
  4.3569119e-03
 -1.8510899e-02
  4.8179924e-03
  4.8077494e-02
  3.1032834e-02
  3.3760210e-03
 -5.1976681e-02
  1.8621393e-02
 -1.7943615e-02
  7.1012813e-01
 -2.1190371e-02
  9.3732126e-02
  2.2967141e-02
 -5.4776790e-03
 -4.3065287e-02
 -3.4776665e-02
  9.5692836e-02
 -6.0425156e-01
 -4.5201778e-02
  1.0915311e-03
  8.9634456e-02
  3.3446539e-02
 -2.5864725e-03
  2.4408333e-02
 -7.8275381e-03
  5.8853678e-02
 -2.2431897e-02
 -2.5386654e-03
  5.3184200e-02
  1.3300027e-02
 -4.6279248e-02
 -1.7441070e-02
 -1.8283947e-03
  2.5923274e-02
  1.8418635e-01
  3.3515975e-02
  3.5746396e-02
  9.8555814e-03
  2.2649011e-02
 -2.9727431e-02
  3.3446431e-02
 -4.0418703e-02
 -2.0882006e+00
  6.2219859e-03
 -5.0497483e-03
 -1.0464603e-02
  8.6280880e-03
  5.8342773e-02
  1.0251272e-01
  1.4306623e-02
 -3.3540364e-02
 -8.1438285e-01
 -1.9667907e-02
  1.2225815e-02
  3.8466543e-02
  1.0036422e+00
  3.8619274e-03
  7.2151996e-02
 -1.6959019e-01
  2.6620217e-02
  1.6364601e-02
 -5.0813137e-03
 -8.2511138e-03
  4.0531824e-03
  1.6994513e+00
  6.5273903e-02
  5.9221625e-01
  2.2829692e-01
  1.8564267e+00
  3.9674306e-01
 -1.4826084e+00
 -2.4575222e+00
  1.4819037e+00
  5.1299953e-01
 -1.3793104e-02
  4.4502705e-01
 -3.1819753e-03
  1.1742389e+00
  2.4965289e-01
 -2.3892801e-02
  5.5720482e-02
  3.1036615e-01
  9.2788957e-02
 -1.4165915e+00
 -1.0603347e-02
 -1.0359980e+00
 -2.8037578e-01
 -1.6595945e-01
 -1.1209400e-01
  1.3897195e-02
 -6.7315218e-03
 -1.1686860e+00
 -7.6827258e-01
  2.7100116e-02
 -1.2036309e+00
 -3.4826773e-01
 -3.1406868e-01
 -2.1422079e-01
 -6.3990086e-02
  7.7681672e-03
 -2.0050915e-02
  9.5001364e-01
  7.4019194e-02
 -7.8457828e+00
  7.8660324e-03
 -3.5179824e-01
  6.1766792e-02
  6.0108197e-01
 -8.3170754e-01
  3.6094022e-01
 -3.1423308e-02
 -2.9679140e-02
  1.3347592e-02
 -5.5736870e-02
 -9.7700590e-01
 -1.8502135e-02
  1.6816962e-03
 -3.9869409e+00
  1.3248475e+00
 -5.0456452e-01
 -1.5944855e-01
  7.2334760e-01
  1.3639395e+00
 -1.1510278e-01
 -2.7146202e-01
 -1.1714172e-01
  2.0604064e-03
  7.6169467e-01
 -4.7158447e-01
  1.5990268e-01
  3.9412558e-01
 -1.0791346e+00
 -6.6115707e-01
 -9.9101074e-02
 -9.2828594e-02
 -1.3943235e-03
 -4.7745728e-01
  2.4709660e-03
  2.2439413e-02
 -8.0778754e-01
  3.7427504e+00
  1.6018915e-01
  9.6916801e-01
  6.7190605e-01
  2.7404761e-01
  2.7732155e+00
  1.1080103e-01
  1.1695619e+00
  1.4719268e+00
 -1.3787402e+00
 -2.0029988e+00
 -3.4884316e-01
  3.7433151e-02
 -1.6946303e+00
  4.2541146e-01
 -6.4401492e-02
  1.0192223e+00
 -4.0171662e-01
  6.0579026e-01
 -1.9847916e-02
  1.0915596e-01
 -5.1486987e-01
  5.3292030e-01
  1.5153408e-01
 -7.1630287e-01
 -1.2808319e+00
  1.8836988e+00
 -1.1656998e-01
 -2.9154079e+00
 -1.5780870e-02
  5.2606076e-01
 -7.4351645e-01
 -5.4501262e-02
  5.7760846e-02
  4.0169463e-01
  2.6834819e-02
 -5.4670668e-01
 -6.5222549e+00
  6.6499219e+00
  5.0817957e+00
 -2.0997646e-01
 -1.9922752e-02
 -8.2930543e-02
 -2.1891207e-02
 -1.0483455e-02
 -3.7489017e-03
  6.4218469e-02
  3.8678832e-02
 -5.3761430e-02
 -7.9633854e-02
 -2.7054090e-02
 -4.8979346e-02
 -5.4203264e-02
 -6.0219936e+00
 -6.2278989e-03
 -2.2294295e+00
 -1.6073096e-01
 -1.3353995e-02
  9.0761699e-02
  1.0142929e-02
 -9.6860183e-03
 -3.9166950e-02
 -9.6356772e-02
  1.0737071e-02
  1.3144195e+00
 -9.8320562e-01
 -7.9875030e-03
  8.1100024e-02
 -1.0605099e-02
  1.1206917e-01
  1.5856946e-02
 -1.2567770e+00
 -4.5902945e-02
 -2.2471447e+00
  3.0359736e-02
  2.1211468e-02
 -1.8586125e-02
 -2.2684757e-02
 -7.9629607e-02
  2.6828332e-03
 -5.3066304e-03
  7.7203885e-02
  5.2072215e+00
 -1.3533223e-02
 -1.1489361e-04
 -6.6702753e-02
  2.8156398e-03
 -2.2942813e-02
 -4.5506991e-02
  5.5744187e-03
  2.5404519e-03
 -1.1439030e-03
  4.4861501e-03
  4.3576140e-02
 -1.5170643e-02
 -1.4270241e-02
  6.9150850e-03
 -3.1899926e-03
 -2.0733273e-02
 -4.3059570e-01
 -2.9185653e-02
  2.3485227e+00
 -2.4622522e-02
 -2.2870528e-02
  2.3572112e-02
  1.0135584e-04
 -3.1646146e-03
  1.3964332e-02
  5.5807967e-02
  1.3619554e-01
 -4.2911423e-03
  2.4324920e-02
 -9.7835377e-02
 -4.4117575e-03
  6.4697035e-02
 -3.2806769e-02
 -1.4558483e-02
  7.1007047e+00
  1.2433301e+00
  4.3646630e-04
  2.2808544e-02
  1.8488350e-03
 -1.1008550e-02
 -1.3094785e+00
 -5.6496415e-02
 -9.8260827e-03
 -1.3456909e-02
  7.9692256e-01
  1.8939037e-02
  9.0590045e-03
  2.1479281e-02
 -2.4391636e-02
  4.0771607e-02
  1.8469893e-03
  5.1248956e-02
 -3.5589740e-02
 -1.2853267e-02
 -1.2712905e-02
 -8.9172116e-03
  1.4437600e-02
  2.3279960e-01
 -1.8241766e-01
 -7.4742995e-02
 -1.2980512e+00
  3.9447165e-01
 -3.3172449e-01
  3.3798816e+00
  1.7457315e-01
 -1.6373668e+00
  1.5888734e+00
 -3.9204739e-02
  4.7626656e-01
 -3.6912441e-02
 -5.4146576e+00
  2.7758080e-01
  5.1591732e-02
 -4.7176978e-01
  9.4930792e-01
  2.1431316e-01
  5.6086677e-01
  8.0169904e-01
  2.3747645e-02
  3.2920739e-01
  7.3560923e-02
 -2.0892510e-02
 -5.1257253e+00
 -4.3631285e-02
  1.3012148e-02
 -2.4609451e-01
  1.4176002e+00
 -8.8415343e-01
  8.5073948e-01
 -6.0184735e-01
  1.7924584e-01
  7.3580164e-01
  1.0864097e+00
 -8.9335749e-03
 -1.8750918e+00
  1.4973525e+00
 -5.6510752e-01
  3.2106152e-01
  4.1210303e-01
  4.9158121e-03
  8.2990903e-01
 -3.8782693e-03
 -3.5687301e-03
 -1.0102656e-02
 -3.1767216e-01
  3.9163104e-01
 -1.6920649e-02
 -1.1389272e-01
 -3.0752297e-03
  7.7576208e-01
 -1.0963049e-01
  2.8100178e-01
 -1.5128753e-01
  6.2746234e-02
 -5.7128195e-02
  4.2219624e-01
  9.6138149e-01
  1.9410092e+00
  1.3370615e-01
  7.7591553e-02
  3.7355187e+00
 -2.4151912e+00
  1.0802178e+00
  9.0855134e-01
  6.2701917e-01
  3.6398014e-01
  2.6871977e+00
 -1.5959129e+00
 -8.0399686e-01
  5.2173221e-01
 -2.5949457e+00
 -1.1524630e-01
 -4.2219653e+00
 -1.2908850e+00
  6.3410622e-01
 -7.3827976e-01
 -1.4042795e+00
  8.1195831e-01
 -6.2423730e-01
 -1.4612097e+00
  1.8809372e-01
 -1.1976683e+00
 -1.4590683e+00
  2.6279536e-01
 -5.9103101e-01
 -2.0369534e+00
 -8.7877221e-02
 -1.8974074e+00
  5.1185675e+00
 -7.0026273e-01
 -1.3074052e+00
 -1.3709381e-01
 -1.8970212e+00
 -3.1346181e-01
 -5.3973036e+00
  9.7507310e-01
  1.1595501e-02
  5.1343232e-01
 -1.1257731e+00
 -7.7074277e-03
  3.4706440e-02
 -6.0918427e-01
  4.1624662e-01
  6.5235451e-02
 -2.3299253e-02
 -3.3933342e+00
 -2.8103590e+00
  1.4081970e+00
 -1.1532818e+00
 -2.2433672e+00
 -1.7021763e+00
 -8.6200917e-01
  2.8305426e+00
  9.0527785e-01
  6.4995736e-02
  9.5214701e-01
  3.3856471e+00
 -1.4925505e+00
  1.8088723e+00
 -1.7511941e+00
  2.7500818e+00
 -1.6084421e+00
  3.7824085e-01
 -4.7447739e+00
 -2.9463854e+00
  2.8577774e+00
  3.2779939e+00
  2.7398777e+00
  2.3002856e+00
 -3.8916321e+00
  2.6838246e-01
  7.3750430e-01
 -1.6460199e+00
 -1.6851543e+00
  1.3061851e+00
  2.2239004e-01
 -1.1849041e+00
  1.3562229e+00
 -7.2335854e+00
 -2.0911834e-01
  4.0502352e-01
  9.5578480e-01
 -5.6969948e+00
  7.9616731e-01
 -1.1850022e+00
 -2.0861234e-01
 -2.3734946e+00
  7.2268109e+00
 -1.6705616e+00
  2.8211002e+00
 -3.2101002e-02
 -1.8670744e+00
  1.6168215e+00
  1.1692421e+00
 -1.8361405e-02
  3.2759385e+00
 -2.5616684e+00
 -4.2209644e+00
  4.0863472e-01
  2.8603172e+00
  5.5472355e+00
 -1.1673073e+00
 -1.0146035e+00
 -7.2755456e-02
  1.3339391e+00
 -2.2747221e+00
  1.3574736e+00
 -6.9087420e+00
  8.4021784e-02
 -1.5390178e+00
  4.3571576e-02
 -1.3183789e-01
  2.3373285e-01
  4.4658688e-01
  1.5403309e-02
  5.9688544e-01
  8.3612837e-03
  1.5803811e-01
  3.7823424e-01
  2.6299270e-02
  1.7937589e+00
  3.1427024e-03
  3.1327295e+00
  1.1976823e-02
  3.6972392e-01
  3.8863939e-01
  9.8461406e-03
 -2.3403975e-01
 -3.4123864e+00
  1.6355976e-01
  1.6715305e+00
 -3.3176038e-01
 -3.6287568e+00
  8.1884152e-01
  4.0450600e-01
  2.7480602e-02
  1.5916822e+00
  1.9355193e-01
  2.0282531e-01
 -7.2238520e-02
  9.9177545e-01
 -5.6651432e-02
  4.5744390e+00
 -1.4170101e-02
  1.4211686e-02
  4.0234439e-02
 -1.7536791e-02
  8.1472350e-03
  2.4518313e-02
  3.0464525e+00
 -8.4259855e-03
 -4.8492931e-02
  1.8815922e-02
  2.4966270e-01
 -2.2680540e-01
  1.2965778e-01
 -9.5187658e-01
 -6.6756946e-01
 -1.2662537e+00
 -1.5832264e+00
  9.5172536e-01
  9.1435082e-02
 -4.4059277e-01
  1.0108162e-01
  5.4010995e-02
  2.8613521e-02
  6.7494221e-02
  3.6118119e+00
  1.0344312e+00
  4.8081230e-02
  8.2836586e-01
  2.6788187e+00
 -1.0914299e-01
  6.4296265e+00
  4.8822857e-02
  1.4065380e-01
  9.3295443e-01
 -1.9597970e-01
 -1.5001027e-01
  5.7190794e-02
  9.8800771e-02
 -1.0695695e-02
 -2.6586744e-01
  1.6380753e-01
  7.3465192e-01
 -2.3137741e+00
  1.1089188e-01
  9.3761459e-03
  1.2151374e+00
 -6.9560868e-01
 -6.1892706e-01
 -3.2818124e-02
  2.2344221e-01
 -8.7455356e-01
 -2.6369560e+00
  2.1646954e-02
 -5.8234567e-03
 -1.7641293e-02
 -1.5567448e-02
  6.1905631e-03
 -7.3920570e-02
 -1.9955147e-02
 -4.8334608e-03
 -8.0242181e-01
 -3.3538774e-02
  2.0862000e-02
 -1.0624630e-03
 -3.1043811e+00
 -3.9736209e+00
  4.2612433e+00
 -3.3138371e+00
 -7.1791327e-01
  8.3993685e-01
  2.6216953e+00
  6.3612585e+00
 -4.8561531e-01
 -2.3302269e+00
 -1.0034927e+00
 -2.3475635e+00
  4.3301955e-01
  2.4884634e-02
  1.0497792e+00
 -3.2856023e-01
  6.2389374e-01
 -1.4709113e+00
 -2.8599484e+00
  7.0151913e-01
  2.5345344e-02
  1.4607836e-01
 -1.3011354e-01
  4.8706150e+00
 -6.3340619e-02
  1.4279940e+00
 -3.5876846e-01
 -3.4780711e-02
  1.6765372e+00
  1.6563885e-02
  3.4730206e+00
 -1.4552121e+00
 -3.6521294e+00
  8.3876686e+00
 -4.7582299e-02
 -4.3212805e+00
 -1.1054122e+00
  3.3100755e+00
 -1.5907092e-01
 -7.8440115e-02
 -1.5762529e+00
 -2.5844154e-01
 -1.7527807e+00
  8.8234246e-02
 -2.8810623e+00
 -4.0605374e-02
 -1.5067434e-02
  8.6870007e-03
 -2.5367489e+00
 -1.9225594e-02
  2.0154974e+00
 -3.1724963e-03
  3.3276426e-03
  8.4397145e-02
 -3.6043367e+00
 -1.4897267e+00
  9.9169952e-01
 -4.1870070e+00
  2.9885392e+00
 -2.5733807e+00
 -3.1651928e+00
  2.6196504e+00
  4.9439402e+00
 -8.5747308e-01
  5.3417516e-01
  1.0361151e-01
  2.9785290e+00
 -6.1593735e-01
 -5.1905932e+00
 -2.6076648e+00
 -1.4188285e-01
 -1.6101818e+00
  5.0584898e+00
  1.8422596e+00
  4.0091467e-01
 -1.2797199e+00
  2.8624335e-01
  2.8174629e+00
 -1.6749955e+00
 -8.5852152e-01
 -3.8623779e+00
  2.0222175e-01
 -4.1372451e-01
  2.4440557e-02
  9.6265447e-01
  2.9498000e+00
  1.2215146e+00
  2.5512447e+00
 -4.5437598e-01
 -8.1986320e-01
  5.5981917e+00
  1.4716840e-01
  3.2126315e+00
 -1.5908583e+00
  4.5523417e-01
 -1.4379996e+00
  1.8917226e+00
 -5.1776781e+00
  1.1450023e-02
  2.7849725e-03
  3.1471256e-02
  1.1591806e+00
 -6.7673427e-01
 -5.1794910e-01
 -1.9035389e+00
 -3.5856776e-02
  2.3328731e-02
  9.7586282e-02
 -1.1349842e+01
 -9.5224547e-01
  6.5051883e-01
 -4.6044340e+00
 -4.7603041e-01
 -2.9936239e-01
  8.6040372e-01
  1.0028839e+00
  1.2250654e+00
 -1.7331121e-02
  3.2277036e-02
 -1.2237760e-01
  5.7100531e-02
 -2.4039159e-02
  1.0434089e-02
 -2.0475757e-01
  7.7516533e-04
  7.2341388e-01
  2.4006689e-02
  1.3809901e-02
 -9.8999618e-03
 -1.3493768e-02
 -1.1581448e-02
  8.6531029e+00
 -1.1957687e-02
 -1.1077261e+00
 -5.0322846e-02
  1.7180794e-01
 -6.4626232e-02
  1.9633260e-02
 -3.8873248e-02
  2.3010710e-02
 -6.2927091e-01
  1.2237588e+00
  6.8900786e-02
  3.7555534e-02
 -7.3037863e-02
 -4.1392624e-02
  4.1003186e-02
  1.7766207e-02
 -3.4302115e-02
  1.9923687e-02
 -6.1491556e-03
 -7.2408831e-03
 -4.3375781e-03
 -4.8060128e-03
 -2.8444454e-02
 -3.8068507e-02
  2.4285968e-03
  3.6636719e-01
 -7.2573696e-04
 -4.2727235e-01
  2.0352691e-02
  1.0510964e-02
 -1.8629687e-02
  3.3963170e-02
 -1.3235411e-02
  1.8973518e-02
  7.9580992e-03
 -1.7181264e-02
 -1.1467302e-02
 -6.2723979e-02
  2.4217120e-03
 -2.3656413e-02
 -2.6637085e-02
 -3.6977148e-01
  6.4656377e-02
 -3.3042077e-03
 -7.1491189e-02
  1.2146965e-01
  9.2715602e-03
 -2.8601890e-02
  1.1911340e-03
  2.3620002e-02
 -3.1514004e-02
 -4.2366976e-04
 -3.6527045e-02
 -2.2475800e-02
  4.0269192e-02
  5.9662733e-02
  6.5527670e-03
 -4.4879848e-03
  3.6395051e-02
  3.6008088e-03
  3.3782613e-03
 -2.9179547e-02
 -8.0662632e-01
 -3.0770712e-02
  1.1449916e-02
  2.4864567e-02
  1.7031699e-02
 -1.3997149e-02
 -1.0868140e-02
 -6.8399183e-02
 -7.4114101e-03
 -8.2570195e-01
 -4.4619082e-04
 -2.3077663e-02
 -7.9304107e-02
 -8.2550608e-03
 -1.4036666e-03
  1.6719390e-02
 -1.3419719e-02
  2.7097343e-02
 -9.3991989e-03
  1.0489956e+00
  2.6418105e-02
 -1.1373723e-02
 -6.7142768e+00
 -1.0941303e+00
  6.1532877e-02
 -5.9316176e-01
  2.5574060e-02
  9.4373101e-01
 -2.1939196e-01
 -1.0462856e+00
 -8.7093540e-02
 -7.9229753e-03
 -5.4698337e-02
  4.4373617e-02
  1.1117447e-02
 -1.5473796e-02
  1.1044547e-03
  4.0078014e-03
 -5.9822496e-02
  1.0824053e-02
  1.3322786e-02
  7.0867091e-02
 -4.1735798e-02
  6.6818707e-02
  2.4599560e-01
  7.0124298e-02
 -2.6101466e-02
  1.6208948e+00
  5.1091596e-02
 -2.5749905e-04
  7.6811254e-02
 -3.4352262e-02
  9.0749003e-03
 -3.7096202e-02
  6.3029242e-01
  2.1619600e-01
 -4.8155539e-02
  8.3211167e-03
  2.3272598e-02
  1.2866251e-01
  1.2887116e-01
 -2.8296387e-01
 -2.3979524e-03
  3.1010132e+00
  5.4240271e-02
  2.9911863e-02
  5.5934899e-02
 -3.2848671e-02
 -4.2024897e-03
 -1.7944626e-03
  2.6499553e-02
 -1.3759656e-02
  4.9210660e-02
  2.7571959e-02
  1.0866665e-02
 -1.5179466e+00
  1.1248995e-01
  3.5655417e+00
 -5.2765834e-01
 -3.7120867e+00
 -2.5830829e+00
  4.7707958e+00
  3.8773868e+00
  1.3685403e+00
  1.9198750e+00
  1.4122678e+00
 -2.4260662e+00
  3.4746002e-02
 -7.8395385e-01
 -2.3598778e+00
  2.4135895e+00
  5.2310658e-01
  8.1168485e-01
  1.3943896e+00
  2.7547197e+00
  2.1800632e+00
 -6.5752533e-03
 -3.2694215e-01
 -9.4608867e-01
 -7.7642012e-01
  6.4466673e-01
  2.2414784e+00
 -1.0677512e+00
 -2.5987599e-02
  9.5054579e-01
 -1.8052956e+00
  2.9334369e+00
 -1.9162405e+00
  5.0667256e-01
 -2.4500945e+00
 -2.8563602e+00
 -5.5330167e+00
  6.0500488e+00
 -3.4658706e-01
  2.3266879e-01
 -1.3899591e+00
  1.4293454e+00
 -1.1703029e+00
  1.4787067e-01
 -3.2175548e+00
  3.6137421e+00
 -1.9814775e+00
 -3.5257607e+00
 -6.3307267e-01
  8.5937691e-01
  1.1522446e-01
 -2.6931055e+00
  4.0764391e-02
  1.3385271e+00
 -3.8433450e-01
 -3.7177961e-02
 -4.5583602e-03
  6.6541592e-03
  1.2921607e-01
  1.5825512e-02
  9.9693350e-02
 -8.1117742e-02
 -7.3235463e-03
 -8.7630600e-02
  4.2463947e-02
  3.0853655e-02
  3.9348903e+00
 -1.7673965e-03
  8.0436422e-04
  1.7279324e-01
 -9.3723647e-05
  1.5677445e-02
 -6.6760685e-03
  3.9080735e-02
  7.9072956e-03
  1.9759126e-02
 -6.3924911e-03
  2.8150309e-02
  9.0122046e-03
  2.5176498e-01
  8.2657924e-03
  2.6508879e-02
  6.2095011e-03
  4.2561065e-02
 -1.8205387e-03
  9.9027243e+00
 -5.0448608e-02
 -2.7105179e+00
 -1.9607967e-02
  8.1894048e-02
 -6.6720508e-03
  1.0009077e+01
 -9.7681463e-01
 -3.1642560e-03
 -2.5416397e-02
 -2.7500063e-01
  8.2405806e-03
 -1.0869387e+00
  2.1625489e-02
  1.2550185e-02
 -1.9619660e+00
 -9.7584594e-03
 -2.0361405e-02
  1.9522654e+00
 -5.8678992e-02
 -2.6028595e+00
 -7.8437226e-03
 -2.8445601e-02
 -4.7766585e-03
 -1.5375849e-02
  8.3835028e-02
  6.0466193e-02
 -3.7526157e-02
  3.9820631e+00
 -1.0585267e-02
 -6.6306209e-03
  8.5495465e-02
 -9.6248398e-03
 -4.9652208e-02
 -9.0576066e-03
  2.4500405e-03
  4.7884915e-02
  2.8369796e+00
  5.7278373e-03
  1.2488061e-02
  6.2284851e-03
 -3.5955146e-02
  1.7667529e-03
  2.5005713e-03
  9.1438536e-03
 -1.4020605e-01
 -1.1410538e-02
 -3.9643515e-03
 -4.7388539e-02
  6.0713948e-03
 -5.4068740e-02
 -6.3238345e-02
 -5.2606694e-02
 -2.4477692e-02
  1.2372424e-02
  1.7265791e-02
 -1.6610787e+00
 -1.6375851e-02
 -3.4393945e-03
  5.4100499e-02
 -5.9632593e-01
  6.6487432e-02
 -5.1771631e-03
 -1.1197921e-02
 -3.6387662e-03
 -1.3449756e-02
 -9.5430333e-03
 -6.6902945e-03
  7.0352688e-02
 -1.6272113e-02
 -6.5492867e-03
 -1.7490223e-02
 -1.7007425e-02
  5.4769531e-02
 -7.4051172e-03
 -2.8672621e-01
  6.4579450e-02
 -2.3107758e-02
  4.0279431e+00
  1.5838141e+00
  3.6414942e-01
  7.5278978e+00
 -2.3388655e+00
  8.0629778e+00
 -2.6035516e+00
 -4.8375626e+00
  5.0497093e+00
 -8.4466177e-01
 -4.8454752e+00
  2.7300096e+00
  3.1258309e-01
  3.6184137e+00
  7.8794354e-01
  4.2833538e+00
  3.3200769e+00
  1.9952780e+00
 -1.2617226e+00
  4.2382421e+00
 -3.2467175e+00
 -4.6864038e+00
 -2.2794435e+00
  3.3999419e+00
 -1.7698603e+00
  1.6864108e+00
  1.2596514e+00
  8.8162260e+00
  1.0120559e+01
 -5.2007675e+00
  2.3920054e+00
  3.4545956e+00
  8.0472237e-01
 -1.2786547e+00
 -6.7065492e+00
 -1.1149129e+00
  1.2570580e+00
  6.9945617e+00
 -6.3147621e+00
 -3.2905331e+00
 -1.7448329e+00
 -1.3193651e+00
 -1.9468634e+00
 -3.6508775e+00
  1.5167209e+00
  6.6216630e-01
 -4.0795097e+00
  9.4965672e-01
 -1.5819952e+00
  2.3543663e+00
 -1.9518223e+00
 -7.2097898e-02
  5.7953876e-02
  1.2135690e+00
  2.9845021e+00
 -4.6007568e-01
  6.8709648e-01
  6.9998980e-01
  4.8075367e-02
 -1.0985088e-02
  3.8293042e+00
 -6.3918881e+00
 -2.3925524e-02
  7.4826842e-03
  3.9563063e-03
 -5.1551219e-02
 -5.7921526e-03
  1.1308365e-02
 -1.1155596e-02
  4.8435997e-02
  3.8219057e-02
 -4.3125395e-02
  2.4177182e-02
  5.0227053e-02
 -8.1484842e+00
  6.7309596e-02
 -5.9817341e-04
  9.9578053e-03
  3.2510698e-02
  6.5839348e+00
  1.3945936e-02
  5.9051174e-01
 -8.0615714e-02
  2.6679604e+00
 -1.5241886e-02
  6.2074315e-02
 -4.0998423e-01
  5.5387713e-02
 -3.8349815e-03
 -5.9784488e-03
 -4.9397945e-01
 -2.4218233e-03
  3.1487867e-02
  1.3535462e-02
 -1.8107864e-03
  6.8976946e+00
  3.3707570e-02
  3.0558543e-02
  9.3967300e-03
  9.9696626e-04
  2.3865383e-03
  2.1844308e-03
  1.7996885e-02
  4.4636115e-02
  1.2395003e+00
  2.5454508e-03
  1.2335936e-03
  3.3040445e-02
  4.8637632e-03
 -9.3187727e-03
 -4.1706255e-03
  8.9575872e-02
 -1.4547588e-02
 -2.6844498e-03
  6.3472569e-02
 -8.0955096e-02
  3.0252868e-03
  2.5790954e-01
  1.5202219e-02
  1.4526002e-01
 -9.8603033e-03
 -3.2869137e-03
  2.6596222e-02
 -1.6472584e+00
 -7.8267846e-03
 -1.2093251e-02
  1.4626633e-02
  5.4769497e-02
  8.5756043e-03
 -1.0643383e+00
  7.4090473e-02
  7.0767719e-03
 -2.3511272e-02
  5.3355228e-03
 -4.6044188e-03
  4.1781645e-02
  5.0821458e-03
 -4.0430079e+00
  8.8686608e-03
  4.1137133e-03
  2.7814105e+00
  2.1291744e-02
 -5.0979238e-03
  1.0463777e-02
  4.9535751e-02
  1.4690847e-02
 -3.1167846e-03
  3.8977070e-03
 -2.1051783e-02
  7.8496598e-02
  1.7777078e-02
  2.2305880e-02
  3.3377234e-02
 -7.5458116e-03
  4.3931322e+00
  3.9904721e-02
  6.5611154e-02
 -1.0748508e-02
  4.0190523e-03
  2.6919995e-02
  6.0995970e-02
  3.9322771e-02
 -6.0822271e-02
  1.6954468e-01
  2.0224743e-02
  2.1032578e-01
  3.4929175e-02
 -1.8301771e+00
  4.0504766e-01
  4.6243435e-01
  5.4831535e-01
 -2.0350122e-01
  2.3627212e-02
 -1.7030250e-02
 -3.9834071e-02
 -6.7119174e-02
 -2.5649959e-01
  2.6208131e-02
 -9.4605424e-02
 -4.0413351e-03
  3.9478216e-01
 -2.3656990e-02
 -3.9050579e-02
 -1.6895548e-02
 -1.3115643e+00
  2.8113461e-01
 -3.1634975e-02
  1.3217632e-02
 -8.9402171e-03
 -2.8340900e-02
 -1.9693828e-01
 -5.9634063e-02
 -5.7078883e-02
  3.8325585e-02
  1.1344390e+00
  7.1538398e-03
  9.0166833e-04
  1.9048314e-01
  1.1902586e-01
 -6.3214642e-01
 -5.4428419e-03
 -5.4223519e-02
 -5.0866522e-02
  3.1483858e+00
  8.9094427e-04
  2.1144384e-01
 -6.5589081e-03
  4.1517541e-03
  1.5803246e-01
  4.2764945e-03
 -2.7030081e-02
 -1.0243901e-02
 -4.1637033e-01
 -3.6304202e-02
 -1.0737007e-01
  3.6925409e-02
 -1.6822133e+00
 -1.4940156e-01
  1.4750394e-01
 -6.9122568e-02
 -8.7196380e-01
  9.1287416e-01
 -4.2227083e-01
 -3.3592507e-01
 -2.7263346e+00
 -8.3069243e-03
 -1.9593062e-01
 -7.0094310e-02
 -3.3233542e+00
 -1.4387952e-01
  3.9285615e-02
 -1.9265646e-03
 -6.0860354e-02
  7.6566744e-01
 -1.1548737e+00
  1.2660358e+00
  3.4361645e-03
 -2.7308239e-02
  4.1060991e+00
 -1.3013253e+00
  8.8488467e-02
  7.4889986e-03
  3.9609706e-01
  3.2094367e+00
  2.5278299e+00
 -4.4112504e-01
 -1.8865696e-01
 -4.1234744e-01
  4.2499724e-01
 -7.5630283e-01
  3.1606708e+00
 -2.0457036e+00
  1.0653189e-01
  1.6136383e-01
  1.1353569e+00
 -1.1786708e+00
 -4.4784375e-02
 -3.7544119e-01
 -5.2557373e-01
  8.0149341e-01
  7.2566029e-03
 -5.2520391e-03
 -5.9312705e-02
 -1.0416687e-01
 -7.6060989e-03
 -3.5745800e-03
 -1.4935142e+00
 -3.3465363e-02
 -1.2458308e-02
 -8.5461447e-03
 -1.8713459e-02
  1.2685411e-01
  5.9686848e-03
 -1.8863959e-02
 -9.6856253e-03
  1.3493979e-02
  1.6903201e-01
  4.7216367e-02
 -1.1959838e-02
 -4.5973592e-02
  6.8338156e-02
  1.0404539e+00
 -1.5409477e-01
 -1.3870997e-02
  5.7635638e-03
 -1.0049481e-02
  2.3621408e-02
  2.2120934e-02
 -9.0362681e-03
 -1.5228558e-02
 -6.9784326e-03
  1.5756127e-04
 -2.7445493e-02
 -1.4283741e-02
  3.6339444e-04
 -3.3416819e-02
 -2.3354167e-02
  4.1843061e-03
  1.1710344e-01
  6.7683600e-02
 -2.1473113e-02
  2.5371833e-02
 -1.7964256e+00
  4.3719797e-03
  8.1508137e-02
  1.4906667e-02
  6.6137603e-03
  8.0864634e-03
 -2.9716324e-03
  6.5862401e-03
  1.0250547e-02
 -4.2639184e-04
  6.1991201e-03
 -7.0997863e+00
  1.1062562e-02
 -3.9901786e-02
  1.2741664e-01
 -3.0948019e-02
 -1.4186710e-02
 -1.4830266e-02
 -7.4612056e-03
 -2.1720156e-02
 -4.7189504e-02
  2.8186595e-02
 -2.7255409e+00
 -1.8708490e+00
 -2.9698798e-01
  8.2124227e-01
 -1.0224842e+00
 -2.7555573e+00
 -3.6672425e+00
  2.5929332e+00
 -2.6978631e+00
  4.3873432e-01
 -6.3760561e-01
  5.8786169e-02
  4.3609505e+00
  5.0381827e-01
  2.4840126e+00
 -1.0315804e+00
 -1.0718313e+00
 -3.6427277e-01
  2.4880104e+00
 -5.9151119e-01
  3.9286622e-01
 -2.6806734e+00
  1.0286206e+00
  2.0815632e+00
  8.7658012e-01
  2.1257176e+00
  6.6263759e-01
  7.5485271e-01
 -1.4012700e+00
  1.2952520e+00
 -8.1748378e-01
 -1.7587403e+00
 -1.9403116e+00
  3.2668927e+00
  1.2612164e+00
  3.7491305e+00
  7.4640965e-01
 -4.4513378e+00
 -1.8486636e+00
  1.4665343e+00
 -1.0447280e-02
 -2.0041687e+00
  9.4417590e-01
  2.5140052e+00
  7.0727944e-01
 -1.2041029e-01
 -4.3852904e-01
 -6.0420090e-01
  6.4624476e+00
  5.5452096e-03
  1.2549359e+00
  3.2493118e-02
  2.2038643e+00
 -2.2479041e+00
  1.9167967e-02
 -2.2093616e-02
 -6.5215401e-02
 -2.0652802e+00
  1.4864806e-02
  7.1996674e-02
  3.2963116e+00
 -2.5580424e-01
 -2.5939460e+00
 -1.4687172e-02
 -2.1243805e-02
  2.6952665e-02
 -9.2291832e-03
  2.7125262e-02
  1.5444813e-02
 -1.1184074e-02
  1.4718669e-03
 -2.4190631e-02
  5.6051630e-01
 -3.8348109e-02
  2.9121902e-02
  1.4102016e-02
  1.1736540e-02
 -4.9767271e-04
  2.5127837e-02
 -2.0277433e-02
 -9.0790661e-03
  4.3310630e-03
  1.8139564e-01
  1.2303497e-02
  3.4792960e-02
 -8.8636819e-03
  5.9603196e-01
 -1.9473703e-01
 -3.3020034e-02
 -1.1070152e-03
 -3.0961189e-02
 -1.0961617e+00
 -2.8698614e-02
 -1.9940384e-02
 -1.2292129e-02
  7.7729481e-03
  6.7936140e-03
  7.1436667e-01
  2.9338529e-02
  6.6609029e-03
  1.0368822e-02
 -1.0834854e-03
  2.8494794e-02
 -5.1021781e-03
  6.4324357e-02
 -4.4952560e-02
  1.4193873e-03
 -1.5015368e-02
 -2.9771912e-01
 -2.6481217e-02
 -9.0724938e-03
  2.5699031e-02
  4.7425568e-02
 -3.5255678e-02
  4.9108413e-01
  2.3318110e-02
 -2.0548484e-01
 -2.3342617e-02
 -3.6236152e-02
  1.7277348e+00
 -1.9900043e-02
 -2.1587622e-01
  3.9462005e-03
  4.4163186e-02
  1.5118836e-02
 -1.5223939e-02
 -2.5117189e-02
 -9.5494296e-03
  3.6982350e-02
  1.3132739e-01
  4.2823583e-02
  2.8993878e-01
  1.0248667e-02
  2.8251370e-02
  2.0903252e-02
  1.7411932e-02
 -1.1053683e-02
 -3.0763935e-02
  8.2524501e-02
 -2.6192904e-02
 -5.6137063e-02
 -1.0184992e-01
 -3.4549899e-02
  2.1131195e-02
 -3.0872561e-02
  3.5534870e-02
 -1.0566050e-03
 -9.5169330e-03
 -2.2671757e-02
 -2.4364281e-03
 -4.5343608e-02
  1.9267026e-02
  7.0114369e-03
 -8.3767083e-03
 -1.6839348e-02
  2.7123254e-02
 -1.7936725e-02
  3.6961666e-01
 -1.0726220e-02
  6.7951074e-03
 -1.5484909e+00
 -1.5212013e-02
 -1.8757977e+00
 -4.4840817e+00
  4.6494775e+00
  8.5644817e-01
  5.4063546e-03
 -1.8333733e+00
  4.2446556e+00
  6.6964883e-01
 -6.5993446e-01
 -1.0965393e+00
 -1.5136154e-02
 -2.1374362e-02
  1.5578534e-01
 -2.5821900e+00
 -2.7446491e-03
 -5.4199495e-03
  1.1529542e-02
 -1.3697814e+00
 -3.0916454e-03
  2.8180962e-02
  6.2452946e-03
  2.2900814e-01
  2.9045064e-04
 -2.2034545e+00
  3.1715740e-02
  6.7947201e-02
  1.9253483e-02
 -1.0939618e-03
 -5.1312406e-02
  6.6179270e-03
  5.4344978e-02
  1.0496786e+00
  2.5611429e+00
  2.4459928e-02
 -7.2416365e-02
  2.1998216e-01
  5.3206421e-02
 -7.1829475e-02
  4.1128490e-02
 -1.0382513e+00
  2.9301637e-01
 -2.3622611e+00
  1.1628586e-02
  8.7089092e-03
 -2.4402330e-02
 -2.9299418e-02
 -1.4077269e-02
  2.8294338e-02
  1.8701887e-03
 -4.5162544e-02
 -9.6549404e-01
 -5.9332930e-02
 -2.4233524e-02
 -3.9175607e-02
  5.1816398e-01
  1.8857385e+00
 -9.2314261e-01
 -7.6309286e-02
  7.2525561e-02
 -6.0296206e+00
  1.1756222e-01
 -3.6460164e-01
  1.1750671e+00
  8.3467442e-01
  7.4491121e-02
  6.0084045e-01
  3.0399544e+00
  1.1200366e+00
  6.9903934e-01
 -5.5593289e-02
  8.9358300e-01
  6.6317421e-01
  8.7063313e-02
 -5.4593235e-02
  9.7020855e-03
 -1.8693108e-02
  2.0470032e-02
 -1.1425168e+01
  1.0353073e-02
  1.8246138e-02
 -9.3107047e-03
  1.4804469e-01
 -3.8898548e-01
  3.9405443e-02
 -5.1009536e-01
 -4.0363584e+00
  2.1099100e+00
 -7.1982600e-02
  4.0098159e-03
 -8.6152554e-02
  3.8631907e-01
 -2.6774123e-02
 -5.8761179e-03
  3.7158206e-02
  6.7961849e-02
 -3.4761908e+00
 -6.9997595e-03
 -1.3670566e-02
 -1.4640911e-01
  1.6569771e-02
 -4.7019590e-03
 -4.5399386e-03
 -8.1510060e-03
  2.8096551e-02
 -6.1621785e-01
 -3.4876110e-03
  5.0648814e-06
  5.3241514e-03
  2.9084574e-02
  6.4666134e-01
  3.7929464e-02
  7.1542436e-01
  9.1131501e-02
  8.7597519e-02
 -1.0260341e+00
  1.1894047e+00
 -1.6900700e+00
  1.6591979e+00
 -1.0885502e-01
 -2.6174571e-02
  2.6374713e-03
 -1.4034923e+00
 -3.3201553e-02
 -1.0962020e-01
  1.3553001e-01
  3.9614522e+00
  1.1345702e-03
 -1.1766000e-01
 -8.3155677e-02
 -4.4097742e-01
 -5.1565999e-03
 -5.0506645e-01
 -3.8824016e-01
 -1.1081398e+00
 -2.3693873e-02
  4.7748250e-01
  6.1513124e+00
 -6.3228898e-02
 -3.0251262e-01
  1.4384016e-01
 -3.7334745e-03
 -1.2257372e-01
 -1.3915379e-01
  2.1543561e-02
 -1.2597976e-02
  5.7011158e-03
 -3.9795932e-01
 -2.0424154e+00
  2.3633911e-01
 -3.6656210e-01
  1.4199786e-02
 -4.1803968e-01
  3.4967843e-01
  4.5248125e-02
 -4.7506448e-02
 -4.4472005e-02
 -2.6746562e-02
 -5.5509146e-02
 -2.2033511e-01
 -3.1503532e-02
 -1.6326676e-03
 -9.8794609e-02
  2.3061676e-01
 -1.7783910e+00
 -1.8042454e+00
  1.1940008e+00
 -5.2164078e-01
 -1.2699050e+00
 -6.8193004e-02
  5.5785246e+00
  1.6641092e+00
 -2.0929705e-01
 -1.7365204e+00
  4.9632592e+00
 -1.9619185e+00
  1.9597620e+00
 -2.5831056e+00
  2.7136295e+00
  1.8351824e+00
 -2.1622827e+00
 -2.3580997e+00
 -5.5844822e+00
  1.7270757e+00
 -4.3043871e+00
 -3.2637915e-01
  7.0300466e-01
 -1.7667307e+00
  1.1491587e+00
 -4.1458321e+00
  7.0387566e-01
  2.6235092e+00
  7.0557374e-01
 -6.0243040e-01
  2.6505718e+00
 -4.1927676e+00
  1.7343721e+00
 -3.1106312e+00
 -1.5539805e+00
  5.1851362e-01
  1.6635718e+00
 -4.6234548e-01
  7.1928363e+00
 -1.2643008e+00
 -6.5182841e-01
 -2.2283087e+00
  1.5307426e+00
 -5.1581913e-01
 -3.7828562e+00
  2.5525327e+00
  1.7424009e+00
  2.0898693e+00
 -3.1841917e+00
  2.0526025e-01
 -1.8159586e-01
  4.5743928e+00
 -6.3792968e-01
  6.3335329e-01
 -2.3000495e+00
  2.6695776e-01
  1.0547697e-01
 -1.2962551e-02
 -2.7217391e+00
  3.1238160e-01
 -9.2707783e-01
  1.7170292e-01
 -7.2828740e-01
  1.0872476e+00
 -8.7624639e-02
  1.0268196e-01
  2.9654438e+00
  2.6139393e+00
  1.2698054e+00
 -1.6294030e+00
  4.1454582e+00
  4.3358195e-01
  1.5538571e-02
  5.6261045e-01
  9.1378796e-01
  4.8480153e+00
 -3.0753306e-01
 -1.0559293e+00
  4.9227217e-01
 -1.8749807e+00
 -6.7595616e-02
 -1.3961235e-01
 -5.2800792e-01
  4.5761023e+00
  1.4229792e-01
 -4.4322882e-02
 -5.3141129e-01
 -5.2469212e-01
  1.2120968e-01
  7.4853897e-01
 -1.9098226e+00
  3.4023279e-01
 -9.4096571e-01
  2.8850302e-01
  2.4519012e+00
 -5.4784542e-01
 -1.8161984e-02
  1.6642247e+00
  1.1545409e+00
  2.1018423e-03
 -2.5707584e-02
  1.4177926e-02
 -3.4062020e-02
  9.4718961e-03
 -3.6325812e-02
  2.9417055e-03
 -3.8591065e-02
 -3.4504998e-03
  6.9228173e-03
  1.1136430e-02
  9.7696409e-03
 -2.0375317e-01
  1.5664957e-02
  1.9860281e-02
 -6.2928712e-03
 -3.7602400e-03
  1.1833364e-02
  9.5025485e-04
 -4.2859749e-03
 -1.6760608e-02
  2.5672812e+00
  1.9391883e-02
 -2.9314512e-02
  2.0732509e-02
 -6.6750776e-03
 -5.3461744e-03
  1.8911729e-02
  1.1956106e-02
 -1.7450087e-02
  4.5694900e-04
 -1.1683132e-02
  5.1463914e-01
 -2.4652608e-02
  4.6664517e-02
  2.3283679e-02
  2.0167848e-02
 -1.4345667e-02
  2.1882368e-02
 -8.2731247e-03
  1.2504464e-02
  5.1687479e-02
 -8.9111291e-03
  7.7389516e-03
  7.9224962e-01
 -2.3672968e-02
  2.3026420e-02
 -2.3846659e-03
 -3.0599119e-02
  8.1525203e-03
 -7.7553657e-03
 -7.6304916e-03
  1.6570851e-02
  2.3104199e-03
  2.5650057e-01
 -1.6468215e+00
 -2.5378041e-02
 -1.9068378e-01
  8.0863208e-01
 -3.5152498e-01
 -2.9436341e-01
 -5.7306808e-01
 -2.0066410e-01
  2.9731283e-03
  5.9268229e-02
 -7.8494829e-01
 -4.0229052e-01
 -1.1402713e-01
 -2.8745239e+00
  7.3799062e-01
 -2.4119456e+00
  4.2993692e-01
 -3.6733729e-01
  2.1801993e-02
  7.4292161e-02
 -4.0989259e-01
  1.0792684e-02
 -6.2445635e-01
 -3.4025514e-01
 -2.8146913e+00
  1.0460840e+00
  2.4525833e-01
 -5.2226317e-01
  1.0710546e+00
  1.3804020e+00
 -6.5175325e-01
 -6.0451955e-01
  1.8071742e+00
 -3.4969337e+00
  5.6430310e-01
  2.0436473e+00
  2.0841995e-01
  3.9764291e-01
 -1.6591507e+00
  7.0894353e-02
 -2.4765307e-01
 -2.1888246e-01
 -9.9661620e-03
 -2.8281217e-02
 -3.4201625e-01
  3.1897467e-01
  2.1072280e+00
 -4.9453716e+00
 -2.4053443e-02
 -4.6316391e-01
  6.4267847e-04
 -2.3045525e-01
  7.3427075e-01
 -9.9491514e-02
  1.9922271e-02
 -1.9335989e-03
 -3.2396682e-02
  1.0442567e+00
 -1.3802172e-02
  1.8775763e-02
  1.2502717e-02
 -5.9190444e-03
 -3.0006506e-03
  7.7598721e-02
 -1.1738369e-02
  2.7853274e-03
 -2.9570125e-03
  7.7859324e-01
  3.4920439e-02
 -2.6934698e-02
 -1.6360870e-02
  1.1255002e-02
  8.6988816e-03
  7.3658912e-03
  6.3011947e-04
 -7.8870188e-03
  2.4805335e-02
  1.5390176e-02
  1.9632476e-04
  2.2109516e-02
  1.2539750e+00
  2.3022311e+00
  1.5531579e-02
 -2.9386722e-02
  3.7886519e-03
  9.3374692e-02
  1.4907150e-01
  2.2583327e-01
  2.9883171e-02
 -9.1714989e-03
  2.6215404e-02
 -2.7722690e-02
  1.0827615e-02
  9.1469940e-04
 -2.2446965e-04
  4.0190719e-02
  1.9571086e-02
 -1.7781772e-02
 -3.4073487e-02
  7.6117322e-02
 -1.8014826e-02
  3.3215187e-03
  2.9714089e-02
 -2.9133972e-02
  1.2930456e-02
 -1.4774258e-03
  3.4539014e-02
  5.9084117e-01
 -1.0667391e-02
 -7.7468020e-01
 -3.7948871e-01
  8.7310821e-01
  4.7512108e-01
 -1.7243769e+00
 -3.1886926e-01
  2.2279833e-01
  6.3054293e-01
 -2.5383036e+00
  1.1161084e+00
  1.2433023e-01
 -4.0678969e-01
  2.5472328e-01
  1.1328623e+00
 -4.5977205e-01
 -4.7010830e-01
 -1.0610913e+00
 -1.6010772e+00
 -1.3874893e+00
 -1.2661640e-01
  5.5249000e+00
  4.2744362e-01
 -3.8031155e-01
  2.1765091e+00
  2.7790890e+00
  1.5305963e+00
 -4.8472667e-01
 -1.3796966e+00
  2.4421053e+00
 -4.1399937e+00
 -3.8589311e+00
  3.6024992e+00
  3.2104412e-01
 -1.8255175e+00
 -4.1485181e+00
 -6.1429566e-01
 -6.5154836e-02
 -9.4746929e-01
  2.1993580e+00
  9.7565800e-01
 -4.3741407e+00
  9.2896628e-01
  3.1050825e+00
  4.7893539e-01
 -4.9273096e-02
 -1.2168478e+00
  6.2628192e-01
 -6.9743492e-02
 -1.1002676e+00
 -4.1782301e-02
  1.3000749e+00
  2.0631781e+00
 -2.0800784e-01
  1.1010098e+00
  2.0373034e+00
  3.6842504e-01
  8.9084119e-01
  1.0609646e+00
  5.3432745e-01
 -2.1514018e-01
  6.7745799e-01
  2.5730329e-02
  6.6178256e-01
  2.6298133e-01
  8.5961282e-02
  1.5035088e-03
  4.5107851e+00
 -1.7131567e+00
  7.6866537e-01
 -1.4022295e-01
  8.2238817e-01
 -2.2157793e+00
 -3.4037212e-01
  4.2648617e-02
  1.5384927e+00
 -6.1169803e-01
  1.1472950e+00
  3.8911097e+00
 -3.9251759e+00
  1.1882480e+00
 -4.7419980e-02
 -1.4305615e+00
 -9.3784070e-01
 -1.5297221e-01
  2.1216061e+00
 -1.9035034e+00
  7.8259617e-01
 -1.9587891e+00
 -1.5186411e+00
  2.7758615e+00
 -5.6951445e-01
  7.7748299e-01
  1.3364022e+00
 -2.4475460e+00
  1.1178517e-01
 -5.4021831e+00
  2.1979265e+00
  1.6779923e+00
 -9.1713446e-01
 -3.5977969e+00
  4.3865218e+00
  7.9501361e-01
  2.1229427e+00
  3.3647413e-03
 -4.6693934e-03
  1.8387977e-02
  1.0057612e-01
 -1.6952846e+00
  6.7056036e-01
 -2.0634460e+00
  2.9150143e+00
 -7.9262000e-01
  3.4983197e-01
  1.0405224e-01
 -3.8633060e+00
 -1.0493942e+00
  2.8192332e+00
  1.4261879e-01
 -4.5833259e+00
  1.7969373e-01
 -4.1532686e-01
 -3.9434591e-01
 -1.5113789e+00
  1.3971239e+00
  5.0379038e-01
 -2.9183269e-01
 -1.9171875e+00
 -4.4473389e-01
 -9.9425536e-01
  5.4803162e+00
 -2.0475334e-01
  9.5441435e-03
  2.3105224e-03
 -1.7997884e+00
 -1.3994699e+00
 -3.1730223e+00
 -1.6978637e+00
  3.1753316e+00
  3.3013179e+00
  4.9574512e-01
  5.6628239e-01
 -3.1393930e-01
  1.0510817e+00
  7.4196130e-01
  4.5247989e+00
  3.0578797e+00
 -3.0331409e-01
 -2.0093524e-01
 -7.3535568e-01
 -3.8190315e+00
 -3.7940700e-02
  1.4157820e+01
 -4.2892151e-02
  6.6529743e-02
 -1.9410679e-01
  1.5075694e-02
  7.1344478e-03
 -6.5166531e-03
  1.2675866e-02
 -3.8863620e-01
  5.8143488e-03
 -2.3518538e-02
 -1.1578282e-02
  2.4243522e-02
  4.9826357e-01
  1.8814199e-03
  4.2373553e-02
 -1.1318211e-01
  3.1175848e-02
 -1.5441149e-02
 -2.0154871e-01
  2.3177600e-02
 -3.7469648e-02
  3.2435603e-02
 -2.2347342e-02
 -1.5874049e-02
 -3.4103252e-02
  2.1713451e-02
 -3.4147883e-03
 -7.4552540e-03
 -1.8651161e-02
 -1.2259218e-02
  2.8228257e-02
  2.0860564e-02
  1.4782639e-02
 -2.0282535e-02
  2.4327978e-02
  2.5935138e-02
  4.3432574e+00
  3.1065026e-02
  1.9912412e-03
 -7.4160905e-03
  9.9948561e-01
 -1.0398901e-02
  1.1641659e-02
 -1.2146768e-02
  1.6911671e-03
 -1.4863379e-02
  1.0445734e-02
  5.8643822e-02
  1.5802827e-02
  3.9882450e-03
  5.0735460e-03
  3.1626243e-03
 -2.3206502e-02
  4.2022884e-02
 -2.3954818e-02
 -5.7436060e-02
 -4.8500155e-03
 -2.9098043e-02
 -2.9080646e-02
  4.4172872e-03
 -4.5092240e-02
 -1.7490201e-02
  2.6785681e-01
 -2.0221963e+00
  1.8795742e-01
 -8.4291317e-02
  1.4942559e+00
 -1.2840241e+00
 -8.4714359e-01
  3.0297115e-01
  4.6802390e-01
  2.3971539e+00
 -6.4019457e-02
 -3.5694304e-01
  2.2160995e-01
  1.0162916e+00
  2.1929417e+00
 -8.0898577e-01
  3.5550871e+00
 -8.8952148e-01
  1.9078311e+00
 -2.9160063e+00
 -2.1586196e+00
  3.9996071e+00
 -1.1158746e+00
  3.0489159e+00
  4.7779636e+00
 -4.4079552e+00
 -3.4451287e+00
  9.0655392e-01
 -1.3162947e+00
  1.2075043e+00
 -9.2101872e-01
 -9.3323827e-01
  3.0217656e-01
 -7.7803797e-01
  8.1914407e-01
  1.8059338e+00
 -4.2617157e-01
 -1.5081570e+00
 -1.1256077e+00
  3.8864508e+00
  2.8021177e-02
  1.6313275e+00
  1.4825575e+00
 -3.1741769e+00
  1.7438229e+00
 -8.5896664e+00
 -3.9879351e+00
 -3.2170069e+00
  7.8407777e-03
  2.8846824e-01
  3.7934887e+00
  1.5281198e+00
  4.5996079e+00
  9.0718565e+00
  2.4189609e-01
 -3.1085072e+00
  2.8813248e+00
  2.1016204e+00
  1.4368964e+00
 -7.9793394e-02
  1.4257349e+00
 -7.3575258e+00
 -6.5867047e+00
 -1.9723352e+00
 -3.0182340e+00
 -2.7588966e+00
 -7.9004331e+00
  1.9685298e+00
 -3.9046831e-02
 -2.0831048e+00
  1.6156932e-02
  3.2678831e-02
  2.1882043e+00
 -8.5256159e-02
  5.0970807e+00
  1.1754744e-01
  7.5673884e-01
  2.1163032e+00
 -1.0998519e-01
 -4.3469998e-03
  1.9578644e+00
  1.1963996e+00
  6.1558664e-01
 -1.0177790e+00
  1.4209932e+00
  1.6505022e+00
 -2.2104590e+00
 -4.8254070e-01
  5.9336480e-02
 -4.4488350e-01
  8.4542408e+00
  3.5531035e-01
 -1.6356041e+00
  3.9991477e+00
 -1.0972087e+00
  5.8134902e-01
  3.3774101e-03
 -1.5044154e-03
  1.6112010e+00
 -1.2152612e-01
  3.8494670e-01
  1.0362868e-02
 -4.9624690e-03
 -3.8009677e-02
  3.5110936e-02
  3.0268901e-03
  4.7944160e+00
  1.5198298e-02
  1.1724211e-02
 -1.9284033e-03
 -1.3353785e-02
  2.0706901e-02
  4.0239358e-01
 -2.6951376e-02
 -7.2530494e-03
 -4.0580649e-03
  3.5080165e-02
 -2.7936257e-02
  3.1941102e-03
 -6.9367975e-02
  7.7403733e-03
 -1.0263836e-02
 -7.0394985e-03
 -1.0578379e-02
  1.4673115e-02
 -3.5475329e-03
  5.7494920e-02
 -1.1928719e-02
  2.1977097e-02
 -6.7205336e-03
 -6.0321521e-03
 -5.8108494e-03
  1.9021342e-02
 -9.3018136e-04
 -1.7682370e-03
  5.0434368e-03
  5.5767376e-02
  2.2592559e-02
  1.1565663e-02
  3.5210382e-02
  8.6763787e-01
  1.3938268e-02
 -3.3578202e-03
  1.2367714e-02
  5.0773233e-02
 -2.0971941e-03
 -3.8157921e-02
  3.9456483e-02
 -8.3094276e-03
  4.0907902e-03
 -1.6077399e-02
  5.6140828e-03
 -7.6907612e-03
 -3.2691315e-02
 -2.1291515e-02
 -7.5139017e-03
  6.1049056e-03
  6.7832922e-03
 -3.4098286e-02
  4.8230379e-03
  1.3094326e-02
  3.8687870e-02
  1.2994613e-02
  5.3240838e-03
  3.0065902e-02
  2.7160831e-02
  1.0239709e-02
  3.1347927e-03
  1.4384232e-02
 -3.6701697e-03
 -1.5905796e-01
 -1.3749762e-02
 -7.6962281e-03
 -3.3134259e-02
 -3.7645493e-03
  6.0781715e-03
 -1.0320465e-01
  3.1748578e-02
  5.9009250e-03
 -2.6892444e-02
 -1.1064703e-02
 -3.1942625e-02
 -2.3090178e-02
 -1.5705433e+00
 -5.0812284e-03
  2.3712351e-03
 -1.2394968e-02
 -8.0762785e-03
 -1.9908996e-02
  3.3892795e-02
  6.3983942e-05
 -3.1215234e-02
 -5.5284962e-02
 -4.7281543e-03
  6.8702758e-04
  5.0349925e-02
  3.0182587e-04
  4.0766802e-03
  8.7214224e-02
  1.5489038e-02
 -1.0424424e-02
 -4.2310460e-03
  7.1306089e-03
 -1.7888561e-02
  2.5261268e-01
  3.3168374e-03
 -3.4788046e-03
  4.9469443e-03
  5.2695021e-02
 -1.3873171e-02
  2.6278865e-02
  1.5886951e-03
 -1.8313631e-02
  2.9514255e-02
 -1.3579982e-02
  2.0410085e-02
 -2.4843354e+00
 -5.5647869e-02
 -8.7351865e-01
 -1.7066140e+00
 -2.1014686e+00
  4.7925892e-01
  1.0575147e+00
  2.5100460e+00
 -5.2898121e+00
  4.0115499e+00
 -2.1935191e+00
 -4.5233788e+00
  1.0492109e+00
  9.1308661e-02
 -4.2269311e+00
  3.1195710e+00
  2.2245834e+00
 -4.3732343e+00
 -1.9267291e+00
  2.4191909e+00
  2.0812817e+00
 -4.5635281e+00
  8.0749226e+00
  9.0628262e+00
  1.3685608e+00
 -1.8949604e+00
 -1.4754509e+01
  1.4516358e+00
  3.1546330e+00
  2.0592258e+00
 -7.2340064e+00
  4.5898094e+00
  1.6522199e+00
 -7.2192221e+00
 -2.0357106e+00
 -5.3482637e+00
  2.2162192e+00
  8.6640614e-01
  2.9923527e+00
 -2.2437415e+00
  2.6189592e+00
 -7.0275360e-01
 -2.8193955e+00
  4.8129416e+00
 -1.8405484e+00
 -2.8986459e+00
  1.6945132e+00
 -7.8334346e+00
  7.8793907e+00
 -9.9817270e-01
 -1.9626745e+00
  2.6679203e-01
 -7.1277465e-03
  8.4521323e-01
 -4.0913704e-03
 -1.8283875e-03
 -6.3813562e-03
  2.7704725e-02
  1.7613466e-01
  3.6184064e-03
 -5.9845064e-02
 -8.4629953e-02
  3.8272396e-02
  1.4783714e-02
  3.4499681e-03
 -4.4976845e-03
  9.0158917e-03
 -4.3588290e+00
 -8.4432838e-03
 -1.6396802e-02
 -1.9647354e-02
 -2.7305411e-02
  1.0381863e-02
  5.8649359e-03
  9.5221978e-03
 -2.3566189e-03
  2.5525212e-02
 -2.0854339e-02
 -8.9404813e-04
 -1.3940258e-02
 -6.9056312e-03
 -5.8834101e-03
  6.8126172e-02
  2.1178694e-02
 -9.8153077e-02
 -9.0138451e-04
  1.0910294e+00
 -3.4290820e-03
 -1.3779620e-02
 -1.0435177e-02
 -9.3745172e-04
  3.2831408e-02
  9.2489878e-03
  1.4687416e-03
 -1.7364364e-02
  9.5715426e-02
 -1.4812608e-02
  2.5814339e-03
  1.9955257e-02
 -3.2454021e-02
 -1.3987591e-02
 -5.4303814e-02
  7.7741789e-03
 -2.8880925e-03
  1.4207740e-02
 -1.6564270e-05
  3.1142725e-04
 -2.4510590e-02
  1.4498862e+00
 -4.5322418e+00
  3.7927258e-01
 -1.2841201e+00
  1.8332801e+00
  2.0608933e+00
  3.4791800e-01
 -2.3310528e+00
 -2.6399362e+00
  3.3940649e-01
  1.3155376e+00
  9.8169780e-01
 -1.4096913e+00
  2.1077874e-01
 -1.5465813e+00
  1.1579480e+00
  4.0817335e-02
  1.4010198e+00
  5.6372499e+00
  1.3555149e+00
 -4.4534526e+00
 -2.0195177e+00
  2.5548599e+00
  1.7401404e+00
  2.1367052e+00
 -1.1741068e+00
 -1.8108907e+00
  2.9166725e+00
 -6.3188988e-01
  1.7141764e+00
 -1.6450636e-01
 -3.5683868e+00
  4.1804810e+00
 -2.3452063e+00
  2.2802908e+00
 -3.8147674e+00
  2.6973429e+00
 -1.4599375e-01
  8.2445329e-01
  1.3527964e+00
 -3.5927970e+00
 -3.0569723e+00
  1.2648953e+00
 -9.5246372e+00
 -7.3035640e-01
 -4.6419139e+00
  2.3389219e-01
  9.8028146e-02
 -1.6446539e+00
 -2.2619507e-01
  1.0776929e-01
 -1.2124380e-01
 -1.1651863e+00
  5.4706120e-01
  1.2437582e-01
 -9.7750418e-02
 -1.7262375e-01
 -6.5279102e-01
  3.5888165e-01
 -7.5001371e-01
  1.6873598e-01
 -1.1970668e-01
 -5.5769925e+00
 -5.0203449e-01
 -1.6602697e-02
  8.8471431e-01
 -2.8389275e-01
 -1.4305766e+00
 -1.1173993e+00
  3.0033595e-03
  1.6966328e-02
 -1.0114263e-02
 -1.4459451e+00
 -2.5162552e-02
 -5.0241738e-03
 -1.1685912e-02
  1.5212971e-01
 -2.9873293e-02
 -7.0511520e-01
 -8.8767499e-01
  1.3460498e-01
  6.1746418e-01
  6.3317478e-01
 -6.4891852e-02
  2.1864774e+00
 -1.4337347e-01
  7.1776204e-02
  5.2039599e-01
 -7.8585930e-03
 -2.3225027e-03
  4.7859025e-01
  4.8998771e-03
  6.6512838e-02
 -8.7882747e-04
 -2.4507740e-01
 -1.5556011e+00
  1.5152604e-03
 -2.2030814e-02
  3.3765804e-02
  3.8069086e+00
 -5.4142540e-03
  3.3665529e-01
  8.5809779e-01
 -2.0586586e-02
 -7.6267883e-02
 -1.6737519e-02
 -1.7009145e-02
 -2.6894586e-02
  1.8333807e-03
  2.9781833e-02
 -2.1703364e-02
  3.4659426e-03
  8.0692418e-02
  1.3159650e-02
  3.3535730e-02
 -2.4855681e-02
  1.4409358e-02
 -4.7904979e-03
  1.2858433e-03
  5.8082286e-02
  4.1216619e-02
  7.6732393e-03
  9.9172434e-03
 -7.6781535e-03
 -4.0573038e-02
  1.9796368e-02
  4.2144675e-06
  2.3907773e-02
 -7.7684526e-04
 -5.8197649e-04
 -1.6682879e-03
  2.2593044e-02
  5.2071386e-03
  1.4996784e-02
  8.0668302e-03
 -1.6622677e-02
  6.6298116e-03
  4.5401443e-02
  6.1257561e-03
 -1.3104856e-02
  2.5722799e-01
  7.4076839e-02
 -1.3616692e-02
  9.3276035e-03
  6.4594680e-03
  4.9663301e+00
  1.2317118e-03
  7.1131485e-03
  3.1356104e-03
  4.3545488e-02
  9.1620088e-03
  3.7069479e-03
  1.0794984e-02
 -5.8021765e-02
  4.7524809e-05
 -3.3178825e-02
 -6.2686880e-03
  3.7479419e-02
 -1.4209505e-03
 -8.1133798e-02
 -1.2943510e-02
  3.9187972e-02
 -6.3306256e-03
  1.2087696e-02
 -2.2749636e-02
  5.4650288e-03
  5.2459651e-01
  2.6079869e+00
  2.8296891e-01
 -1.2310008e-03
  8.9859940e-02
 -4.0458433e-02
  8.3252112e-04
 -2.0356378e-02
  1.0544396e-03
  4.5384921e-02
  1.0528538e-02
 -2.5006104e-04
  1.5559582e-02
  2.1513345e-02
  2.9857395e-02
  3.7562285e-02
  3.7671735e-03
  5.4344856e-03
 -4.2138851e-01
 -1.5325543e-03
 -1.0090565e-03
  4.5252994e-02
 -4.1862969e+00
 -3.3542369e-03
  1.4932010e-01
  3.7454735e-02
 -2.6167514e-02
  1.1712936e-02
  3.2070205e-01
  1.5027227e-01
  2.3336227e-03
  4.7843292e-02
  2.6376378e-02
 -1.8370165e-03
 -1.1786249e-02
 -6.1618076e-03
 -2.8604295e-02
  8.4217368e-03
  1.2513273e-02
  2.8921306e-02
 -8.5491361e-03
  9.9500567e-03
  1.1424186e-03
  2.0854022e-02
  4.2047561e-03
 -1.7385392e-01
  5.8742285e-02
  2.0133052e-03
 -2.6692659e-02
 -4.0515582e-03
 -3.1936844e-04
 -3.8205846e-03
 -5.7577841e-02
 -1.0120559e-02
 -3.7640873e-02
 -1.9345233e-02
  5.2094581e-03
  1.9724846e-02
 -2.6178600e-02
 -6.1341841e-03
  1.9887052e-02
  4.6051694e-03
 -2.4025492e-02
 -2.4388889e-02
 -5.6467373e-02
 -1.3152852e-02
 -1.4657787e-02
 -1.3887311e-02
 -1.1274419e-02
 -1.6310853e-01
  4.5460593e-03
 -3.0045727e-01
 -1.6165772e-02
 -8.4859217e-03
 -4.3459866e-02
 -2.9651071e-03
 -3.8093943e-02
 -1.6408591e-02
 -2.8526425e-02
  1.4583513e-02
  1.2933790e-02
 -3.6826320e-02
 -7.8056431e-01
 -2.6866663e-02
 -8.5234731e-02
 -2.0366762e-02
 -1.7427078e-02
  8.8648228e-03
 -1.9543641e-03
 -1.9384002e-03
  2.1307498e-02
 -2.4427054e-02
  3.4205343e-03
  4.6786591e-03
 -1.1397441e-02
 -2.5816327e-02
 -5.4953462e-03
 -1.6117211e-02
  1.1800412e-02
  2.7917697e+00
  2.1333182e-02
 -6.4496920e-03
  2.6329160e-03
  1.9933514e-02
 -1.7888089e+00
  5.6942356e-01
 -2.4715607e+00
 -1.6999979e+00
  7.3420429e-01
  8.7529701e-01
 -9.4899410e-01
  1.3293962e+01
  2.6037404e-01
 -3.2720390e-01
  4.4885406e+00
 -3.3071768e+00
  1.0795943e+00
 -8.4947598e-01
  3.6350181e+00
  1.6475420e-01
 -1.0444087e-01
  2.3161127e-01
  2.3137653e+00
  3.1124375e+00
 -3.0814227e-01
 -3.4280348e+00
  2.2667785e+00
 -5.3240108e-01
 -1.9746419e+00
  1.1662564e-02
 -4.1643534e+00
  2.0097208e+00
 -7.2904289e-01
 -4.3380985e+00
  1.3963029e+00
  6.6081223e+00
 -3.7069442e+00
  5.6898389e+00
 -8.7587899e-03
  8.2824125e+00
  3.6132720e+00
 -3.6202574e+00
  5.5124205e-01
  2.2593122e+00
 -6.2813673e+00
 -2.8464687e+00
  4.0633846e-03
  1.2193926e-02
 -1.9962782e+00
 -8.3285468e-03
 -5.8122732e-02
 -3.3175144e-02
 -1.2073792e-03
  8.9122131e-03
  2.9782801e+00
 -9.0383571e-03
 -3.2002719e-03
  1.0780094e-02
  7.0371574e-01
 -3.6628749e+00
  2.2333114e-01
  1.1728124e-01
  1.7929226e+00
 -5.3739638e+00
 -9.7343093e-01
  3.2056062e+00
 -1.4376315e+00
 -3.2430673e+00
  8.9346185e-02
 -4.1840991e-01
 -2.0256155e+00
  2.5595897e-01
 -2.1814531e-02
  9.0811043e+00
 -7.2759551e-01
  5.5004845e+00
 -3.7251942e+00
  1.3137852e+00
  4.3275528e+00
 -8.4633259e-03
 -1.0767233e+00
  9.9255192e-01
  9.7352308e-01
 -1.8806882e-01
  3.6565758e-02
 -4.9591880e+00
 -2.8161683e+00
 -7.0184892e-01
  2.2477536e+00
 -3.0441685e+00
  5.7037324e-01
 -1.0567138e+00
 -3.5773458e+00
  3.0984645e+00
  1.4691486e+00
  4.3441353e+00
 -2.2927072e+00
 -3.9236004e+00
  1.9627241e+00
  9.6164733e-01
  5.2412057e-01
 -2.2693470e+00
 -9.1640234e-01
  6.6711388e+00
  9.6716657e-03
 -2.5278814e+00
 -3.3581464e+00
  3.4859506e-03
 -6.2403671e-04
  2.4162995e-02
  1.5632257e-02
 -2.8657790e-02
  7.9305172e-03
  2.3001416e-03
 -1.5184517e-02
 -7.4736094e+00
  1.2297612e-03
 -3.7819118e+00
  1.0662538e-04
 -3.4241449e-02
 -5.4139543e-02
  1.4822866e-02
 -1.1176236e-02
 -4.5651361e-02
  1.7390591e-03
 -4.8717596e-03
  4.9634771e-03
 -1.3878287e-02
 -2.1917921e-02
  3.7767240e-03
  1.8557679e-02
  1.5661504e-02
 -3.4130688e-03
 -8.6061028e-04
 -1.8311158e-03
  1.6251048e-02
  6.5366114e-03
  5.0072126e-02
 -9.3120541e-03
 -1.0840065e-02
  2.5809230e-02
 -1.0442093e-02
 -2.0437301e-03
  1.2044697e-02
  1.9560256e+00
  7.9239860e-02
  5.2205995e-02
  5.3556450e-04
 -1.4437445e-02
  1.7876457e-02
  2.5162408e-03
  1.5204152e-02
 -5.9182486e-03
  1.7073597e-03
  5.0107236e-03
  7.3592286e-03
  2.1572923e-02
  5.8878455e-03
  8.5769333e-03
 -5.2428362e-03
 -1.0811185e-02
 -8.2482188e-04
 -1.4682061e-03
  3.5238173e-02
 -4.1852049e-03
  3.0975098e-02
  2.9654726e-01
 -8.9832522e-02
 -7.0362890e-01
  6.2494999e-01
  2.7221386e+00
 -1.0150793e+00
 -1.3707247e+00
  1.1417945e-02
 -3.1413472e+00
 -1.0907198e-02
  2.4178910e+00
  4.8883662e-02
 -2.4482205e+00
  2.6719719e-01
  2.8943236e+00
  1.8820879e+00
  8.0778182e-01
 -5.9357572e-01
  4.5359939e-02
 -2.3082125e+00
 -6.0488386e+00
 -1.0067767e+00
 -1.3428314e+00
  6.6967338e-01
  1.6125585e+00
  4.9675646e+00
 -6.4409927e-02
 -3.1979921e+00
 -2.0871680e+00
  4.0522395e-03
  3.9337928e+00
  6.5909853e+00
  2.0395279e+00
 -4.1075649e+00
  1.3546008e+00
  6.4118755e-01
  3.0977931e+00
 -3.0748796e-01
 -1.2485807e+00
 -1.4905868e+00
 -3.8356632e-02
 -1.7471662e+00
  2.4867640e+00
 -7.3577219e-01
 -3.8827348e-01
 -2.1756365e+00
  1.0972582e+00
  1.8569683e+00
 -1.4168365e-01
 -5.6987233e-03
  7.2257495e-01
 -6.8943230e-03
  1.9571569e-02
 -7.5087912e-02
 -3.0213988e-01
 -1.1071473e+00
  3.2492664e+00
  8.3130151e-01
  3.8523791e+00
  2.7943555e-01
 -5.5990243e-01
 -3.9895184e+00
  5.7455320e+00
  1.3625395e+00
  1.5611801e+00
 -1.8853294e+00
  3.0639167e+00
 -2.0946083e+00
 -7.4720716e+00
  1.9136307e+00
 -7.3298830e-01
 -9.9954510e-01
  2.7604403e+00
  9.0904242e-01
 -5.0494256e+00
  1.8605354e-01
 -1.9598204e+00
 -3.4581473e+00
 -1.2522699e+00
 -6.7600212e+00
  8.5855752e-02
 -4.1076964e-01
 -2.3597941e+00
  2.4845465e-01
 -7.7806668e+00
 -3.1048357e+00
  2.6712167e+00
 -8.0167503e+00
  2.2606950e+00
  5.0457853e-01
  3.5580940e+00
 -1.0521147e+00
 -2.1113844e-03
 -8.6858040e-01
 -9.3857698e-02
  1.8226347e+00
 -1.6186324e+00
 -2.0450232e+00
 -2.9049337e-01
  3.2148373e+00
  3.6102504e-01
  4.3491330e+00
  2.5942731e+00
 -8.7717913e-02
  1.0998814e+00
  1.9603491e-02
 -2.5311663e+00
 -6.7814910e-01
 -4.4664510e-02
  3.8464997e-02
 -1.2772447e-01
 -4.5269234e-03
  2.4699631e-01
  1.8253079e-02
 -2.4934361e-02
 -2.2982723e-01
  2.4408442e-01
 -2.6167430e-02
 -2.0034846e-02
 -2.2511305e-03
  8.1298864e-03
 -5.2403496e-04
  1.5334459e-02
 -8.5965740e-03
  1.7118067e-02
  1.2125348e-02
  5.0554825e-03
  9.6289376e-03
  1.6380040e-02
  1.7927051e-02
 -2.9468974e-02
  1.1076412e-02
  4.1848086e-02
  4.8769275e-03
 -6.5018921e-03
  5.0867083e-03
  5.7637674e-01
 -1.4410829e-02
  1.6315568e-02
  2.0262246e+00
 -2.3186882e-01
  1.8141322e-01
  3.8757075e-02
  2.4902776e-02
  5.4209409e-03
  2.8660927e-02
  3.3425592e-02
  4.4550681e-03
  2.9132836e-02
 -5.9669297e-03
  4.2139936e-02
 -8.9905765e-03
 -6.5230675e-02
  2.8990556e-02
 -1.8478239e-02
  1.9336386e-02
 -3.3845566e-02
 -5.8867078e-02
 -6.6569686e-02
  4.3453895e-03
  2.4260078e-03
 -1.0611436e-03
  2.1851859e+00
 -1.6399394e+00
  2.3603277e+00
  4.2159560e-01
 -4.2064147e+00
 -1.9764069e+00
  8.5995907e-01
  7.1262777e-01
  3.4558737e+00
  9.8847967e-01
  5.0101495e-01
 -4.0555245e-01
 -3.2742100e+00
 -2.4960802e-01
 -1.1804272e+00
 -1.1242073e+00
  4.2959447e+00
 -3.2006974e+00
  3.6005926e+00
  1.0192965e-01
 -2.7970855e+00
  1.1637926e+00
 -1.8299197e+00
  2.9316671e+00
  5.4789670e-02
  2.3525065e-01
  1.6129134e+00
  1.9685761e+00
 -1.6057670e+00
 -4.2329345e+00
  6.6008568e-01
  1.8735366e+00
  3.5718069e+00
  2.1310277e+00
  3.4335694e+00
 -4.1048598e+00
 -6.3583670e+00
 -5.2347624e-01
  1.0668745e+00
  4.8437282e-03
  9.6621758e-01
  2.0896206e+00
  4.4677202e-02
  7.3293209e-01
 -1.3436491e+00
  7.1835464e-01
 -2.3925968e-01
  7.2118449e-01
  2.1866684e+00
  1.0056934e-02
  7.7131766e-01
 -2.3152912e-02
  4.1867796e-02
  3.6697775e-02
  5.5474065e-02
 -3.2541320e-02
  2.9612843e-02
  2.0395842e-01
  4.2000040e-01
 -1.0032292e-02
 -1.1013361e-01
  9.1932509e-03
  8.1044046e-04
 -3.5924467e-01
 -1.3847673e-02
 -1.0707765e-04
 -7.2862349e-02
 -4.1693926e-02
  1.1568325e-02
  2.9543152e+00
 -3.7205592e-02
  9.8464154e-03
 -5.8704754e-03
  3.4318220e-02
  3.9679334e-03
 -8.0775283e-02
 -3.8111895e-02
 -1.3024044e-02
 -5.0325659e-03
 -2.0431257e-03
 -9.8971892e-03
  1.1732336e+00
  4.2402069e-03
 -3.4858086e-03
 -1.0126545e-02
 -6.6776037e-02
 -3.0857589e-02
 -2.2582011e-02
  2.5723607e-03
 -9.7958650e-03
  2.5637122e-03
  7.5581923e-02
  1.2037210e-02
  2.3688354e-02
 -4.4575781e-02
  1.5494015e-02
 -4.6902348e-04
  5.3997776e-03
  4.3384223e-03
 -7.0426669e-03
 -2.0596113e-02
 -1.4367244e-02
  7.3666446e-02
  8.4341057e-03
 -1.6164193e-02
  8.1201456e-04
  3.4572445e-02
 -4.6804626e-03
 -1.5149989e+00
 -1.0760924e-01
 -1.2312256e+00
 -1.0887539e+00
 -1.9385896e+00
  5.6399733e-01
 -1.2807078e+00
 -7.7083898e+00
  2.1421754e+00
  2.6529834e-01
  5.8098254e-03
 -1.3034261e+00
  1.0266989e+00
 -4.2835632e-03
 -1.4356817e-01
 -2.7959980e-02
 -4.5018277e-01
 -5.1301094e-03
 -8.0215114e-01
 -1.7033635e-01
 -1.1314870e-01
 -6.6493708e-01
 -6.0507315e-01
 -1.0098399e+00
 -1.8608440e-02
  4.0563125e-02
  2.6941866e-02
 -3.3411980e+00
 -3.2854030e-01
 -1.5906435e+00
  1.1678682e-01
  2.4298942e+00
  4.1939220e+00
  1.3621758e+00
 -4.1247241e-02
  5.5573028e-01
 -2.9444516e+00
  8.1820384e-02
 -4.2146726e+00
 -5.8405530e-02
  1.5221626e-02
  7.9710799e-01
  2.5011752e-02
  1.4895308e+00
  6.5759279e-02
  4.8555832e-02
  3.0649225e-03
  2.6858377e+00
 -1.5296416e+00
 -4.4834454e-02
  1.3030575e-02
  2.2071308e-02
 -1.3960303e-02
  1.1032155e+00
  4.2914009e+00
 -2.3955438e+00
 -3.5386553e-01
  4.3442092e+00
  7.1761054e-01
  5.3734207e+00
  4.5294886e+00
 -3.6588912e+00
  3.1056464e+00
  2.6794603e+00
  6.1181635e-02
  1.5440434e+00
  1.4157920e-01
  2.0543443e-02
  1.5592699e+00
  5.3869343e-01
  1.3296256e+00
  2.2943452e-02
  2.2253015e+00
 -1.2465678e+00
  6.0586232e-01
  4.2416101e+00
  1.1710417e-01
 -4.5626926e+00
  4.5564890e+00
  3.1159925e+00
 -2.5555952e-02
  4.5297861e+00
 -1.6321594e-01
  2.6731732e+00
  1.7072700e-01
 -6.9962864e+00
 -1.6000469e-01
 -1.1547755e+00
  1.8469818e+00
  3.0361319e+00
 -1.3423775e+01
  1.3168875e+00
 -5.8157539e-01
  6.5093513e+00
 -3.3094997e+00
  1.3951865e-01
  1.3530558e+00
  4.9679729e-01
  1.0621756e+00
 -2.1017350e-02
 -1.7535312e-01
 -4.2434484e-02
 -6.0002949e-02
  2.5992427e-02
 -1.2153839e+00
 -3.9865691e-03
 -6.5100556e-03
  8.2773175e-03
 -2.3692992e+00
  6.1836523e-01
  1.8974560e+00
 -5.0090438e-01
  6.6729045e-01
 -1.1571097e+00
 -2.3606563e+00
 -5.6833929e-01
 -1.0352123e+00
 -1.8041776e-02
 -6.2716973e-01
  1.7882453e-01
 -4.0011373e-03
  3.1395327e-02
 -2.8035517e+00
  8.8795843e-03
 -6.8225187e-01
  1.0518816e-02
 -1.3661547e-01
 -2.5939104e-01
  3.7625226e-01
 -2.7293813e+00
 -2.4097793e-01
  9.5531054e-02
  1.4617379e-02
 -8.3314794e-01
  1.9514495e-01
  2.2848293e-01
 -2.0481470e+00
  6.8833792e-01
  5.7043028e+00
 -1.2599454e+00
  7.7628173e-02
 -6.4997429e-01
 -6.2588620e-01
  1.0473605e+00
 -4.1363798e-02
  3.6168277e-02
 -3.8777265e-01
 -2.4479473e+00
  1.7688528e-01
 -5.3959996e-01
 -1.2439245e-01
  1.8900035e-01
 -9.5009841e-03
  4.8464406e-01
 -1.7285846e-02
 -1.1604771e-01
  8.1008637e-01
 -1.5811099e-01
 -3.9080824e-03
 -6.1502494e-03
  5.9342221e-03
  2.0072129e-02
  1.0731201e-01
 -9.8323449e-05
  1.7942516e-02
 -1.7281611e-02
 -3.0374281e-02
 -1.0010971e-03
 -6.9434814e-02
 -1.2321086e-02
 -1.3395871e-01
 -1.3654444e-03
 -9.9755470e-03
 -5.0120549e-03
 -4.8772722e-02
 -7.7701889e-02
  3.8081374e-02
  7.4811671e-03
  1.1722704e-03
  3.9848480e-02
  6.8392796e-03
  8.5232873e-04
 -1.6185863e-02
 -2.8313464e-02
 -4.6525975e-03
 -8.7859064e-02
  7.9612089e-03
  1.9031413e-02
 -3.8187958e-03
 -5.8373008e-03
 -1.2250501e-02
 -2.9463619e-02
  5.3510197e-02
 -5.8420047e-02
  4.9879141e-03
 -6.6397175e-02
 -7.1730302e-04
 -1.3510524e-02
  2.1822590e-03
  3.9247368e-03
 -4.5807675e-02
  3.7622988e-02
 -7.0121735e-03
 -6.0224179e-03
 -8.1548899e-02
  1.2531223e-02
 -3.6322768e-04
 -1.8622218e-02
 -3.4724601e-02
 -5.6297850e-02
 -2.5194867e-03
  4.7978754e-03
 -8.1073530e-03
  1.6067951e-03
 -5.0389729e-03
 -1.0926801e-02
 -1.1705956e-02
  2.5826101e-03
  2.5340933e-02
  1.3126922e-01
 -7.1406782e-02
 -6.4194901e-03
 -5.3257067e-02
  6.0323835e-03
 -3.1881277e-02
 -3.2983557e-03
  1.0272161e-03
 -2.2950491e-02
 -3.9547686e-02
 -5.7419753e-03
  2.1157671e-02
  5.1335380e-03
  2.3047963e-02
  5.3820382e-03
 -5.7309322e-02
 -1.2713441e-02
  3.7100543e-03
  2.2555746e-02
  5.9343323e-02
 -3.8549546e-02
 -1.5528120e-02
 -1.7134754e-02
 -3.6556493e-02
 -7.5734854e-03
 -2.5501041e+00
  9.9612493e-03
 -2.6204551e-02
  1.2380885e-03
 -2.6759069e+00
 -5.1948922e-03
  5.0492737e-02
  1.3836185e-02
 -2.6096745e+00
 -5.5704303e-03
  1.2911342e-02
 -3.6083839e-03
  1.5983831e-03
  1.1407112e-03
 -3.6120769e-03
  2.7053874e-02
 -1.3704433e+01
 -5.1110806e-03
 -2.5730286e-02
 -1.2225071e-02
  1.5343451e-02
  1.4854789e-02
 -5.3504612e-03
 -1.9411925e-02
  1.7804620e-03
 -4.5509715e-02
  8.6772013e-03
 -1.8437257e-02
 -2.1849200e-03
 -5.7102554e-03
 -1.6074540e-02
  1.4764445e-02
  8.9722681e+00
  1.3008186e-03
  6.0396753e-02
  6.3938946e-03
  5.6160174e-02
 -1.9865038e-02
  1.3773530e-03
 -4.3457989e-03
  9.5665008e-01
 -3.7002685e-03
 -1.9540926e-02
  1.5693661e-02
  2.5434862e-03
 -6.0331733e-03
 -7.0474003e-03
  3.9826352e-03
  1.9118700e-02
 -3.5500143e-02
  3.5282972e-03
  1.8978026e-03
  7.5342213e-03
  2.7617913e-02
  4.0703377e-01
  9.5744953e-03
  2.3155244e-02
  1.4795398e-02
  5.1728552e-03
 -2.1964911e-02
  1.3418639e-02
  1.0885239e-02
  7.5497843e-02
  3.4615111e+00
  2.4382982e-02
  1.1935841e-02
 -1.4341313e-02
 -1.0871465e-02
  3.3689462e-02
  4.3103859e-02
 -2.5543766e-02
  2.1560561e-02
 -2.7091824e-04
 -3.8467427e-03
  7.6652854e-03
 -1.2051447e-02
  8.0400836e-03
 -1.0602627e-04
  1.9817729e-03
  9.0397485e-03
  2.7175080e-02
 -1.2688194e-02
  5.7553884e-02
  2.5409670e-03
 -3.8549185e-02
  1.2751152e-02
 -7.3876265e-03
  1.2533101e-01
 -1.7545596e-02
 -3.4960189e-03
  1.9465119e-04
  5.7935198e-03
 -7.2751185e-03
 -5.4377993e-04
 -2.5505116e-02
  1.7796416e-02
 -7.2875605e-03
  2.8463807e-03
 -8.3302118e-02
 -1.1562646e-02
 -2.8613392e-02
 -2.6444288e-02
  7.2394949e-03
 -8.2995653e-02
 -2.0450031e-02
  2.4553018e-03
  7.8299660e-03
 -8.2987612e-03
 -4.5633003e-02
 -1.5740192e-02
 -2.9514331e-02
 -5.1241316e-02
 -8.9189672e-01
 -1.1627803e-02
  1.1761654e-02
 -2.4900109e-02
 -1.1975276e-02
 -8.7845800e-03
 -1.2527180e-02
 -8.9684511e-03
 -1.8391643e-02
 -4.0140342e-02
  1.8126405e-03
 -3.6732922e-03
  2.3064144e-02
 -1.5404425e-03
  1.2769278e-02
 -1.2215000e-02
  3.1712207e-03
  6.8415338e-03
 -1.2989140e-01
 -2.2045523e-02
  2.4208538e-03
  3.5906143e-03
 -1.4969020e-02
 -2.2661733e-03
  6.9501125e-03
 -2.4028486e-02
 -3.6625135e-01
 -6.3712648e-03
 -1.4697707e-01
  2.0707545e-01
 -1.1401782e-01
  2.6197881e-03
 -1.2455286e-02
  8.9626424e-03
 -1.9477733e+00
  8.8578155e-03
  1.0171253e-04
  3.7137363e-02
 -4.2907782e-02
  9.3002200e-01
  3.6378792e-03
 -2.4124533e-02
 -2.2586169e-02
 -1.5600817e-02
  2.5319401e-05
  2.2794090e-02
 -1.1142589e-02
  3.1126337e-03
  1.7982356e-02
 -1.2430694e-02
 -2.8186229e-01
  2.0439109e-02
  3.0441196e-03
 -4.1759413e-02
 -6.1341643e+00
 -4.0099263e-02
 -9.7518153e-03
 -2.3055866e-02
 -2.6794640e-02
  2.0346348e-04
  1.9598961e-02
 -1.5485741e-02
 -1.7271681e-02
  6.3539236e-03
  2.0919864e+00
  5.1368931e-03
  1.1240248e-02
 -7.0991982e-03
 -4.9239792e-02
 -1.3685383e-02
  8.9458175e-02
  3.1301249e-02
 -4.4136615e-03
  1.1104904e-02
  2.6788360e-02
  6.6812068e-02
 -3.2467148e+00
 -8.1732786e-01
 -2.6344984e+00
 -4.3919106e+00
 -6.8758597e+00
  5.9401195e-02
  1.0984774e+00
 -3.7087352e+00
 -2.0230737e+00
  2.3917534e+00
  5.4778781e-02
  2.6076856e+00
 -5.3984588e-01
 -4.2801385e+00
  6.1069241e+00
  2.3965843e+00
  1.9894445e+00
 -2.1243472e+00
 -5.0484376e+00
  3.0400160e-01
 -4.4048553e+00
  3.7402995e-02
  3.9078504e-01
  2.0093689e+00
  3.9197561e-01
  2.6912279e+00
  3.5312688e+00
  7.0281613e-01
 -1.6202298e+00
  2.2999725e+00
 -1.0487320e+00
 -3.9896917e-01
 -2.2641054e-01
 -4.6980224e+00
  7.3241687e-01
  8.3121377e-01
 -1.1213319e+00
  8.2917798e-01
  6.0979552e+00
 -2.5951703e+00
  1.6391684e+00
 -2.2190893e+00
  4.2190528e-01
 -4.5197155e-02
 -5.1741395e-02
  1.2719583e-02
 -4.4327203e-02
 -2.2473130e+00
  4.2825537e+00
 -1.6350018e-02
 -3.9313929e-03
 -1.5367214e-02
  2.1390365e-03
 -2.7889419e-02
  2.4698071e-01
  2.0172358e+00
 -6.6394424e-01
  4.3530068e-01
 -1.4378220e+00
  1.9428502e+00
  1.0754434e+00
  1.7180595e+00
  1.1896662e+00
  5.5682184e-03
  5.4483688e-01
  4.6284604e-01
 -6.6118127e-01
  4.8599127e-03
  1.7689107e-01
 -5.8504009e-01
 -1.9977549e+00
  3.6442764e-02
  3.4291479e-01
  6.0447580e-01
  7.0064825e-01
  1.7234992e+00
 -1.4270257e+00
 -1.9233286e+00
 -1.2527758e+00
 -6.5456164e-01
  3.8531992e+00
  1.1723920e+00
  2.2579629e+00
  4.2413397e+00
 -1.5222286e+00
  1.5534575e+00
  4.8615766e+00
 -1.1108824e+00
 -1.1994324e+00
 -5.5269547e-02
  3.5858014e+00
  2.0191405e+00
 -1.6590688e-01
  3.3603313e+00
 -1.9481544e-01
  9.1786605e-01
  1.0541780e+00
 -9.7913837e-01
  6.5002926e-02
 -4.5490056e-01
  4.0845507e-01
 -3.9872169e-02
 -3.3324084e+00
 -7.1013428e-02
  1.0451889e-03
  7.6367250e-03
 -1.3204741e-02
  1.1389182e-02
  1.2006379e+00
 -1.7472956e+00
  4.1788945e+00
 -1.3092167e+00
  7.8786570e-01
  7.9220443e+00
  3.4875505e+00
 -2.1959484e+00
 -4.2451215e+00
  6.4184651e-02
  1.8166089e+00
  4.4560208e+00
 -3.3796012e-02
 -1.4879438e+00
 -1.7817168e+00
 -3.8175067e-01
  1.3969355e+00
  4.8361546e-01
 -5.2215919e+00
  8.6966626e-02
 -3.7335670e+00
 -1.3074459e+00
  1.8900076e+00
 -2.0832062e+00
 -2.7924125e+00
 -1.9342637e-02
  4.4716701e-01
 -2.3172185e+00
  7.4053435e+00
  9.8032475e-01
  1.5231650e+00
 -3.5546130e-01
 -5.1920748e+00
 -1.6625339e+00
 -2.6138104e-03
  7.9592741e-01
 -4.1144452e+00
 -3.3579570e-01
  4.9497366e+00
  5.4104382e-01
 -3.5519215e-01
 -4.7858615e+00
 -2.6755901e-02
  1.6120465e+00
  1.2299453e+00
  2.6010120e+00
 -9.0267621e-03
  3.4637010e+00
  2.7411454e+00
  3.2449760e-02
 -1.7614201e-02
 -3.7845147e-03
 -1.8479280e-01
 -1.3840111e-02
  1.1994423e+00
  2.4055877e+00
 -2.6433784e-01
 -8.6411513e-02
 -4.8530278e+00
 -2.0517273e+00
  5.3486341e-01
 -9.5142812e-01
  9.3060656e+00
 -5.1083989e+00
  5.5592813e+00
  4.3154222e-01
 -2.4069958e+00
  9.6084577e-01
 -1.5293270e+00
  2.2953255e+00
  5.7828487e-03
  2.7102146e+00
 -3.0275011e+00
  1.5995618e+00
  4.0164013e+00
  2.2716746e+00
 -7.0006984e-01
 -8.5215998e+00
 -1.1732900e+00
 -4.1280708e+00
  2.6049870e-01
 -5.2108064e+00
  2.3726463e+00
 -6.0533972e+00
  1.4162270e+00
 -9.2818480e+00
 -1.1241390e+00
  1.2313128e+00
 -4.0472875e+00
 -7.2587973e-01
 -9.5881039e-01
 -3.5855350e+00
  6.4971626e-02
 -1.3433489e-01
 -1.7151194e+00
 -2.9733534e+00
  2.4254355e+00
 -1.8342693e+00
  2.3781595e+00
 -2.4232771e+00
 -4.0590100e-02
  1.2599865e+00
 -3.5328181e+00
  1.5719218e+00
 -2.6661679e-03
 -1.0053561e-02
 -1.2413520e+00
 -1.4587054e-02
 -2.1150999e-03
 -3.4991920e-02
  4.8745774e-02
 -4.0540332e-03
 -2.1030203e-01
  2.2644820e-03
  1.5485834e-02
 -6.7459028e-03
  1.4961790e-02
 -1.2891449e-02
 -7.7623650e-03
 -1.4940754e-02
 -4.4314578e-02
  8.8197468e-03
 -1.7302733e-02
 -1.9642416e-02
 -1.5656849e-02
  1.0276513e-02
  1.6592594e-02
 -3.7675449e-03
 -2.8031594e-03
  5.3504808e-03
 -3.9895274e-02
 -5.6885649e-03
 -2.7191699e-03
  2.3828510e-02
 -9.9963741e-03
 -2.5759613e-02
 -4.4861248e-01
 -1.0830567e-03
 -8.1115300e-03
 -4.7301133e-03
 -1.0299783e+00
  1.1419435e-03
 -1.0736490e-02
  2.1148453e-02
 -1.7543767e-02
 -1.1163875e-02
 -3.3143279e-04
 -8.2402509e-03
 -2.7708502e-02
 -1.4299199e-02
  1.0049255e-02
  2.4430659e-02
 -1.6580034e-02
  5.9779133e-03
  5.1626787e-02
  7.5645400e-03
  5.4118903e-03
  1.1292511e-02
  3.5597160e-02
 -8.4984470e-03
  7.7415835e-03
  3.4501169e-02
  1.0844359e+00
  7.1541888e-01
  2.9152560e+00
  1.3851324e-01
  2.4622431e+00
  5.1267090e+00
  1.7638386e+00
  1.0779737e+00
 -6.3753119e+00
  5.9222382e-01
  4.1205224e-02
  1.7629200e+00
 -5.1785961e-02
  3.3298871e-01
  1.9335949e-01
  5.0552363e+00
  1.8238510e+00
 -2.3177993e+00
  8.7147325e-01
 -3.6548358e-01
  3.7851648e+00
  1.0448017e+01
  5.0534220e+00
  2.9245369e+00
 -3.9022739e+00
 -1.9187495e+00
 -1.0295657e+01
  9.9696928e-01
  2.5243027e+00
  5.5070567e+00
  4.6684003e-01
  9.6266669e-01
 -1.3205981e+00
 -5.0976772e+00
  3.3015828e+00
 -5.3718179e-01
  1.1882334e+00
  6.6418308e-01
  1.0567784e-01
 -4.4102550e+00
  1.2110046e+00
 -7.9949749e-01
 -4.5773878e+00
 -9.8779058e-01
  2.1517017e-01
 -1.7802523e+00
 -3.8785648e-02
  5.6315709e-02
  8.7759948e-01
 -1.6301934e+00
  9.6785468e-01
 -2.2809802e-02
  1.8935803e+00
  1.8639628e-02
  7.9349847e+00
 -1.9157790e+00
 -3.2218423e+00
 -1.5217016e-02
  1.6177229e+00
 -7.4129081e+00
 -1.2178276e+00
  9.5635629e-01
  3.6132821e-01
 -6.1910469e-03
 -3.2130000e-01
  1.0292739e-01
 -7.4996334e-01
  1.3646521e-02
 -3.1400862e+00
 -2.2279871e+00
 -1.3981036e+00
 -4.2235932e+00
 -2.7810557e+00
 -2.3163126e-01
 -2.3598270e-02
 -4.1274406e-02
 -2.9710495e-01
 -2.4595851e-01
 -3.6809745e+00
 -6.4709172e+00
  9.4191003e-01
 -3.6818647e+00
  4.5729134e-02
  1.4145375e+00
 -8.6461729e-01
 -2.3465328e+00
 -3.0257961e-01
 -5.6585473e-01
 -1.1240349e+00
 -5.6856412e-01
  2.3094878e+00
 -6.2238816e-02
  1.4744183e-01
  2.6232483e+00
 -8.6623240e-01
 -4.5665279e-01
 -1.6828465e-01
  1.8029122e+00
 -3.8485477e+00
 -2.6168141e-01
  1.8608318e-01
  3.5151381e+00
 -2.0361741e+00
 -1.0155172e-02
 -2.2651042e-01
  1.1271400e-02
 -3.9178599e-03
  5.4453267e-03
  4.8827358e-02
 -1.6036221e-03
 -6.5229133e-02
 -2.6293078e-02
  8.2909450e-02
  4.7327774e-03
  2.0009296e-02
 -1.8757898e-02
  5.9080660e-02
 -4.7412100e-03
  6.0791471e-03
 -5.9829801e-02
 -9.4232662e-03
 -9.5834825e-03
  2.4336223e-02
  6.9261012e-03
  1.1179617e-02
  1.3179417e-02
  2.2531120e-02
 -1.3753762e-03
 -5.3233974e-02
  2.9161859e-02
  8.2421107e-03
 -4.6297126e-03
 -2.9820804e-03
  3.0017380e-02
 -8.3337566e-03
 -1.1878299e-02
  2.8619814e-01
  2.1240292e-02
  7.3981471e-03
  3.7311945e-02
  1.6221397e+00
 -1.3994407e-03
  2.3431734e-03
 -1.2708569e-02
  2.9043797e-03
  1.3432261e-03
 -1.7485593e-02
  9.2135268e-01
  2.9007616e-03
 -9.7441934e-03
  6.5600849e-04
 -3.3182174e-02
 -1.9070196e-03
 -3.5322628e-03
  7.4554570e-02
 -2.1398200e-02
  4.4038501e-02
 -3.0732071e-02
  2.3424052e-02
 -1.4669634e-02
 -4.5696390e-03
  1.0971547e-02
 -2.6026877e-02
 -4.8139743e-03
  3.9365500e-02
  6.9046589e-03
 -1.1175405e-01
 -2.1870290e-03
  1.2300871e-02
  6.7519973e-04
 -1.4630269e+00
  2.2164986e-02
  2.7573396e-02
 -1.8969789e-02
  2.3200005e-02
  6.0247467e-03
 -1.5935177e-02
  2.9467547e-02
 -7.0677456e-03
  2.3198085e-02
  8.8088261e-03
  3.0807782e-02
 -8.8948943e-03
  9.0049114e-03
 -1.4693385e+00
 -6.1745765e-03
 -2.9463394e-02
 -6.0914783e-03
 -1.0638925e-02
 -9.8673673e-03
 -1.3935408e-01
  7.5074561e-02
  1.9007195e-02
 -6.7690499e-03
 -1.3538386e+00
  5.3105247e-03
 -1.1426930e-01
  2.5852874e-02
  1.8884275e-02
  7.8973863e-03
  1.7824130e-02
 -9.9581107e-03
  2.9700298e-02
 -4.1396804e-02
  4.7004684e-03
  2.7651176e-02
  9.1251405e-03
  3.3433743e-02
 -1.7070435e-02
  3.3106465e-02
  4.2376053e-03
 -1.0524007e-01
 -3.7893569e-03
 -6.4581595e-03
  3.0734634e-02
  3.0603723e-03
 -2.2445781e+00
 -5.9373236e-01
 -4.7606471e-01
 -4.1478300e+00
 -2.9960263e-01
  4.2160196e+00
 -5.2754579e+00
  6.9677991e-01
  8.3029337e+00
 -2.6498265e+00
  1.7236083e+00
  1.4838958e-01
  2.5839558e+00
 -3.6320942e-03
  2.5104845e+00
  1.7232257e+00
 -4.1314583e+00
  2.1376045e+00
 -3.0862758e-01
  6.8654403e-02
 -1.6670637e+00
  8.5358423e-01
  6.2170137e-02
  5.5102596e+00
 -2.4099542e-02
 -5.7188344e-01
  8.5380347e-03
 -3.2428806e+00
  7.6854410e+00
  3.9502625e+00
  2.6283231e+00
 -1.3463024e+00
 -5.2804871e+00
  1.9828586e-01
 -1.1552209e-03
  1.0846300e-01
 -8.8610115e+00
 -6.3083675e-03
  1.7511650e+00
 -2.4054317e+00
 -3.6218936e+00
 -1.4309059e+00
 -6.7802101e-02
 -5.3511149e-01
  7.0008636e-03
 -2.2446138e-01
  8.6463206e-03
  5.1843714e-02
  3.9406482e-02
 -1.0054637e-02
 -8.2818913e-01
  1.5606305e-02
  2.4172757e-02
  2.9541343e-03
  1.1972101e+00
  5.8664405e-01
  4.1978815e-01
  2.3937356e+00
  2.0030398e+00
  9.6919495e-01
 -1.4783958e+00
 -1.0046322e+00
  6.7008430e-01
  3.3016434e+00
  3.8505200e-01
 -1.0033058e+00
  2.1327288e+00
  1.1634789e+00
  5.7367587e+00
  2.2035267e+00
  2.0000122e+00
 -4.3945050e+00
  2.1526713e+00
 -1.9640120e+00
 -6.5615797e+00
 -2.8555193e+00
 -2.6658707e+00
  7.0777702e+00
  1.6052452e-01
 -2.5335044e-01
 -2.9315609e-01
 -5.1822891e+00
 -5.5083060e+00
 -1.5680476e+00
 -1.2331703e+00
  3.9894950e+00
 -5.1705843e-01
 -3.3083799e+00
  6.3585556e-01
  9.7745161e+00
 -2.1265235e+00
 -2.0177014e+00
 -7.9911952e+00
  2.7530167e+00
  1.6290127e-01
  3.2529659e+00
  5.7229700e+00
  2.0299418e+00
  4.6436367e+00
 -2.0114620e+00
  8.1678562e+00
  3.9999881e+00
 -1.1744878e+00
 -1.4199480e-01
  3.6004601e+00
  5.8895149e-03
  2.9013234e-01
  3.8723114e+00
 -5.6365870e-02
 -2.3579041e-02
  1.3496851e+00
 -3.4054995e-02
 -4.2533383e-01
 -4.0464927e-02
  1.7731765e-01
  3.4514826e-02
  2.9466593e+00
 -1.2565182e+00
  6.4106551e-03
 -1.3745404e-02
 -2.1141630e-02
  1.5325710e-02
 -4.6545845e-03
 -1.8201240e-03
  1.0256640e-01
  1.3697881e-02
 -4.1884739e-02
  8.0536650e-03
  1.0307016e-03
 -3.7444413e-02
 -8.0291880e-03
 -1.5742211e-02
  1.3882922e+00
  5.8742091e-03
 -1.3714648e-02
  1.5872965e-02
 -7.5371736e-01
 -1.1460155e-03
  5.6857523e-03
 -3.9502461e-02
 -1.3435149e+00
  7.1904768e-05
 -9.7762078e-02
 -1.3553059e-02
  1.7052921e-02
  1.1547834e-02
 -1.4589481e-02
  2.3967857e-02
  3.8726802e-03
  6.5562795e-03
  7.8119226e-03
  1.2436288e-02
  8.6799171e-03
  4.5289997e-02
 -1.0512000e-01
 -5.5791903e-04
  7.5521722e-02
 -1.3723069e-02
  2.2645054e-02
 -6.1053991e-02
  9.6978303e-03
  1.4293193e-02
 -5.3944949e-02
 -3.8969114e-02
  7.8415107e-03
 -5.7332482e-02
  1.6889588e-03
  8.4831854e-03
  2.9755440e-01
  1.9810135e+00
  2.1217737e-01
  1.0349958e-02
  9.5057674e-03
 -1.3298706e-02
 -1.7264602e-03
 -1.2149588e-02
 -1.2354754e-02
 -9.4132675e-03
  1.7648768e-03
  1.6424196e-02
  5.6424965e-03
 -7.5118616e-04
  2.7535309e-03
  8.9273643e-01
  2.6469404e-02
  8.2666520e-03
 -2.4326280e-02
  1.9567549e-01
  9.2411833e-04
  1.2177427e-01
 -6.1863941e-01
  9.3986630e-02
 -2.1444094e+00
  6.6752172e-01
 -5.7988091e+00
  1.0715722e-02
  1.1844782e-02
 -1.2153467e-02
 -7.9857623e-03
  1.1580964e-02
 -7.9388842e-03
  1.1306655e-01
  7.8577138e-02
  3.1990055e-02
 -1.7076168e-02
  1.0406533e-01
 -1.4202746e-02
  1.8818893e-02
  2.5215078e-02
  2.0073192e-02
  5.4812776e-03
  1.3181530e-02
 -7.3572476e-03
  2.1717025e-03
  1.4794697e+00
 -3.5387387e-03
  1.2170860e+00
 -1.0217121e-03
  1.4175347e+00
  2.1232121e-01
 -7.2141045e-01
 -1.4723867e+00
 -1.2742556e+00
 -6.9456530e+00
  2.3791816e+00
  4.5202775e+00
 -2.0575156e+00
 -3.4080751e+00
  2.8024368e+00
 -7.0570272e-01
  2.6535884e-01
  6.1511149e+00
 -9.2050314e-01
  3.9784710e+00
  1.0163044e+00
  2.6841080e+00
 -2.4646645e+00
 -2.4579937e+00
 -8.6482968e-03
  1.3525887e+00
  1.7505096e+00
  2.3098493e+00
  5.5146127e+00
 -3.3447294e+00
 -9.8064244e-02
  1.2244737e+00
 -1.4641337e+00
  3.4475803e-02
  2.3842986e-01
 -9.7002429e-01
  3.2130222e+00
 -2.5755610e+00
 -7.4773407e-01
  1.0269384e+00
  6.1843014e-01
 -9.9760377e-01
  2.5535996e+00
 -3.1083500e+00
 -9.4458967e-01
  1.0240506e-01
 -1.3971491e+00
 -3.3166640e+00
 -2.1092147e-03
  6.8263304e-01
 -4.8858972e+00
 -1.1011219e-02
 -2.9350927e-01
  3.7836572e-03
  1.1169838e-01
 -8.4902253e-03
 -3.8088653e-02
 -5.6231529e-01
  5.4832947e-01
 -4.8414066e-01
  3.1386271e-02
 -1.3476840e+00
  1.4982453e-01
 -1.6136847e-01
  3.2188537e+00
  1.9639157e-02
  2.2666540e-03
  5.7631298e-03
 -2.6480928e-01
 -6.4939842e-02
  2.5133414e-02
  3.4480058e-02
  2.1740200e-02
  1.6481632e-03
 -3.7915979e-02
  4.0639769e-02
 -9.0576328e-02
  9.1206860e-03
 -1.6041365e-02
  8.5372776e-01
  8.2667574e-02
 -1.0248615e-01
 -3.1220967e-02
 -8.7671243e-02
 -6.4435488e-01
 -1.9161433e-01
  2.5819044e+00
 -6.4519487e-02
  7.6318398e-02
 -7.3243670e-02
 -1.3534205e-02
 -3.0528598e-02
 -6.0967840e-03
 -1.0282833e-02
 -1.5757140e-02
  5.5755109e-01
  5.9888180e-02
 -1.0060458e-02
 -2.8116632e-02
  5.5341709e-01
  2.0597186e-02
 -7.3635108e-03
  2.1269605e-02
  1.8566739e-02
 -5.0252434e-03
 -1.5976207e-02
  2.6401202e-03
  5.6939372e-03
 -6.8380185e-03
  1.4820437e-02
 -1.8404090e+00
 -6.5675533e-01
 -7.6850891e-01
  6.8475254e-02
 -7.1242768e-01
 -8.0820358e-01
 -3.5026448e+00
 -6.0099518e-01
  2.1740511e-01
  1.0547848e-02
  1.1968143e+00
 -1.4571900e+00
  3.3149996e+00
  6.4476967e-02
 -8.8398886e-01
 -4.0658993e-01
 -7.5629401e-01
  4.8791752e+00
 -2.3763609e+00
  2.2669304e-03
 -1.3897148e-01
 -3.4594624e+00
 -8.4091520e-01
  2.0114324e+00
 -1.7211490e-03
 -1.7763672e+00
  1.1719519e-02
 -6.2846317e+00
 -1.0773292e+00
 -2.0036806e-01
 -2.6431555e-01
 -2.0874708e+00
 -1.3040150e+00
  1.9658542e+00
 -1.1097591e+00
 -1.3543999e+00
 -7.2362643e-01
 -4.2915414e-03
 -3.0745164e-01
 -1.3919140e+00
 -1.2787875e+00
  1.9241415e+00
 -7.8662759e-01
  5.8915447e-03
 -4.0528587e-01
 -1.2970959e-02
  2.5783040e-02
 -1.5726412e-02
 -5.7376331e-01
 -3.1992754e-01
 -8.0584669e-01
  7.2865831e-03
 -9.9772587e-06
  2.3360898e+00
 -2.3500094e+00
  2.3499062e+00
 -2.6128342e+00
  5.1414633e-01
 -9.8815668e-01
 -1.5367061e-01
 -2.5948498e+00
  4.5359850e-01
 -8.6749679e-01
 -3.5299461e+00
  3.9242015e+00
 -1.3785182e+00
 -2.6553445e+00
  6.4474285e-01
  1.9564321e+00
 -3.8256159e+00
 -3.2736025e+00
  3.2768717e+00
  8.3455759e-01
 -3.8812270e+00
 -3.4534657e+00
 -1.9455676e+00
 -7.9874134e-01
 -6.1372418e-02
 -2.3422229e+00
  3.0463574e+00
  5.9666759e-01
  4.9570026e+00
  1.5291108e+00
  3.2700610e+00
  2.0244048e+00
 -3.6453338e+00
  3.4051473e+00
  2.6675260e-01
 -2.6547041e+00
  7.9823837e+00
 -2.2679593e-01
 -2.9934120e+00
  3.3007467e+00
  3.4071484e-01
  1.5400763e-02
 -2.8454211e+00
  2.6389189e+00
  2.8149316e+00
 -4.6702375e+00
  3.6385605e+00
 -2.1207131e-01
 -9.0157747e-01
  5.2420521e+00
  1.2448757e-01
  4.8876591e-02
 -1.4815567e+00
  4.7576037e-01
 -4.1936889e+00
  2.1991942e+00
 -1.2133366e+00
  1.4463723e+00
  5.9321678e-01
 -2.4612101e-02
  1.9552848e+00
 -1.1801153e+00
 -9.2828929e-02
  3.1628990e-01
 -4.7710836e-01
 -6.2781590e-01
  1.5809468e+00
  3.6542809e-01
 -9.1502106e-01
 -6.9001830e-01
  3.5117289e-01
  2.3714786e+00
  2.2603297e+00
 -1.1567436e+00
  4.6436200e-03
  3.7503436e+00
 -2.5577646e-01
 -1.3109038e+00
  4.8140135e-01
 -1.5800775e+00
 -3.5235536e-01
 -2.2821271e+00
  1.4022583e+00
 -1.2034909e+00
 -3.1647339e+00
  5.4745808e-02
 -1.0145735e+00
 -1.1096413e+00
 -8.2490295e-02
 -1.2746022e+00
  1.2469050e-01
 -5.5720132e-02
  1.1376247e+00
 -8.3347631e-01
 -7.0709693e-01
  4.1745406e-01
 -1.6880559e+00
 -3.5255239e+00
  2.0270260e-01
 -2.9235566e+00
 -1.4004687e+00
  2.1549663e-02
  4.7404093e-01
  2.6097712e-01
 -1.6679929e-03
 -6.6971284e-01
 -1.5389526e-02
  4.0430507e-01
 -2.0581624e-02
  2.5201410e-01
  2.1774920e-02
 -1.5931159e-02
  6.9905785e-03
  1.5609703e-02
 -1.4362230e-04
 -3.4896590e-02
 -9.5466925e-03
 -1.4666832e-02
 -1.1659640e-02
 -2.7804237e-03
  1.5743399e-02
 -1.0424408e-03
  1.6996522e-02
 -4.7948886e-02
 -7.1926892e-02
 -1.4914723e-02
 -2.0717666e-02
  3.6635362e-02
  1.9157372e+00
 -9.6020093e-03
  1.4097188e-02
  2.1296874e-02
  4.6537449e-03
  4.2152028e-03
 -1.5486457e-02
  5.5631006e-01
 -1.8327148e-04
  4.2543118e-03
 -1.9321571e-03
  2.8242528e-02
  1.4382708e-02
 -1.4293307e-02
 -2.2035621e-02
 -2.9454973e-02
  7.4330121e-02
  6.3529080e-03
 -6.4916693e-04
  6.2100803e-03
 -6.2269624e-03
 -1.4441805e-02
  1.6466940e-02
  2.5431106e-02
  3.8868906e-03
 -1.1466287e-02
 -4.7403742e-02
  2.5045387e-02
 -4.3516284e-01
 -9.0193294e-02
 -6.6148329e-01
  1.4060123e+00
 -4.1467991e-01
  4.7996230e-03
  7.2353974e-02
 -3.6454600e-01
  1.2815434e-02
  2.5889061e-02
  2.2724794e-02
 -5.0310488e-03
 -5.0124815e-03
 -3.1288002e-02
 -1.5247577e-02
  7.6387404e-03
  2.9900584e-02
  1.3050286e-02
 -3.8851969e-02
 -1.5033346e-01
  2.1103976e-02
 -4.8948999e-04
 -9.3584764e-01
 -2.7073327e-02
  2.7695289e-02
 -2.4632894e-02
 -1.2810372e-01
 -6.6011637e-02
  8.4277494e-03
 -1.7876061e-02
 -5.6597259e-02
  8.7212145e-02
 -1.1444779e-02
  1.8003726e+00
 -1.0531549e-01
 -1.0428101e-02
 -1.9350050e-02
  2.9787153e-02
  2.3203234e-03
  2.2363801e-02
  1.5723127e-01
 -1.8737465e-02
 -3.4422733e-02
  2.7660828e+00
  4.6754587e-03
  4.0093046e-02
  1.4965138e-02
 -7.3757008e-02
 -4.6976432e-03
  1.7687952e-02
 -8.9412704e-02
  2.9549992e-02
  4.9297777e-03
 -1.5176067e-02
 -1.6412897e+00
  1.0579924e-02
  1.7192543e-02
  8.7672081e-03
 -4.4528831e-02
  5.7528922e-03
 -3.1698924e-03
 -2.1328835e+00
  2.4245849e-03
  4.1376580e-02
 -2.4177127e-02
  4.7000352e-02
  1.4148146e-02
  1.7546818e-02
  8.7139219e-02
 -7.2456133e-03
 -3.1957928e-02
 -1.3059571e-01
  5.7627945e-03
 -2.0598665e-02
  6.4510316e-02
 -1.6086426e-02
  8.7153632e-03
  9.0046495e-02
 -2.3044092e-03
  7.8657731e-02
  8.5848598e-03
  1.0837098e-03
  8.2235068e-01
  2.5629425e-02
 -1.4609516e-02
 -7.6730279e-03
  7.3115597e-04
 -3.6213160e-01
  2.1332968e-03
  1.9115916e-02
 -9.2310971e-03
 -2.1084590e-02
 -1.7793203e-02
  1.2607484e-02
 -9.7930841e-03
  2.3841183e-03
 -4.4847034e-02
  9.4346523e-02
  3.0655032e-03
  6.1495304e-03
  2.4126949e-02
 -2.2971526e-02
  1.3935769e-03
  1.4311492e-02
  7.3407905e-04
  5.4587573e-03
 -3.0363139e-02
  3.6340251e-03
 -6.7938930e-01
 -6.9212563e-02
 -2.3098957e-02
 -1.3124275e-02
  2.4752374e+00
  1.0890588e-02
 -4.4934001e-02
 -1.2061741e+00
  1.2198638e-03
  1.3897818e-02
  5.1461749e-02
 -1.0365719e-02
  1.5767671e-02
  5.8395620e-03
  2.5625456e-02
 -3.1877272e-02
 -1.6870996e-02
 -4.4131532e-02
 -2.9035058e-02
  3.3595816e-03
  7.1432390e-03
  4.9159997e-03
 -1.6373608e-02
  1.0735159e-03
  9.8766014e-03
  1.6598007e-02
 -4.6549058e-03
  8.0979546e-04
 -1.3067651e-02
 -4.7916703e-02
  6.5834830e-03
  6.5238267e-02
  3.7250973e-02
 -4.4113106e-01
 -1.8053893e-02
 -7.9430770e-03
 -3.8330192e-03
 -4.2167520e-03
 -2.1485567e-02
  3.3644750e-03
  1.0363367e-02
  1.3683042e-02
 -3.3862418e-03
 -2.1781985e-02
  8.3536673e-03
 -1.2919748e-02
 -1.8815227e-02
  3.6933079e-02
  2.4520734e-02
  9.5660836e-03
  1.8798830e-02
  1.2520890e-02
  1.2910209e-02
  2.3671947e-02
  4.3930185e-01
 -7.5160958e-02
 -7.4315742e-02
 -1.4244359e-02
  7.8962171e-01
  2.7476302e-01
  1.2338549e+00
  1.0074051e-01
 -9.2511973e-04
 -6.1394271e-02
 -7.2972449e-03
 -5.8646128e-03
  4.5768987e-02
  1.8170504e-01
  2.1997539e-02
  1.1306781e-02
  1.1470343e+00
  2.3400087e-02
  9.1695143e-03
 -1.4863765e-01
 -2.3769413e-01
 -1.5516537e-02
 -7.0425626e-03
 -1.9566644e-02
 -1.9569052e-03
  3.8639195e+00
 -5.8368012e-02
  1.1439048e-02
 -1.1884464e-02
  1.1451134e-02
 -3.9015003e-02
 -7.3861298e-03
  4.2690691e-03
  1.5341017e+00
  3.1496694e-03
  2.4247007e+00
 -1.1466110e-01
  1.1318808e-02
  4.0081590e-02
  3.4637544e-02
  2.1171803e-03
  2.5675580e-02
  6.2856847e-01
 -1.2360082e-02
  1.7610371e-02
  4.0730853e-02
 -1.0806204e+00
  1.6153418e-02
 -1.0647496e-02
  4.9220659e-02
 -1.0344302e-01
 -4.2858999e-02
  9.3817338e-03
 -4.9050093e-01
 -4.6126958e-02
  3.5901541e-01
 -2.5556585e-01
  3.5800734e-01
  1.4400476e+00
  1.2331141e-01
  9.6314371e-01
  1.3817923e+00
  8.9671714e-03
 -6.0611373e-01
  9.5891505e-01
  5.6419206e-01
 -4.2449996e-02
 -6.3621449e-01
 -1.5787071e-01
 -1.2017611e-01
  1.8932538e-03
 -9.5161043e-02
  9.2854630e-03
 -3.6405370e-01
 -1.5572579e-01
 -4.6100065e-02
  1.1345457e-01
  9.8163239e-04
  2.6488390e+00
  5.8695245e-01
 -9.2630523e-01
 -5.7274956e-01
 -1.9122941e-02
  1.9135129e+00
 -2.1160409e+00
 -1.6807860e+00
 -7.0307326e-01
  2.2504148e+00
 -2.9690313e-01
  5.9961087e-01
  9.0220922e-01
  1.3132308e-01
 -7.8444612e-01
  2.1746161e+00
  3.4002479e-02
 -1.1152582e+00
 -1.2120310e-01
  3.6501354e-01
 -2.0398958e-01
  1.5631239e+00
  4.4144642e-01
 -7.2585508e-02
 -2.1053113e-01
 -4.0506832e-02
 -1.3397476e-03
  2.3927564e-02
  9.3299877e-03
  4.4066947e-02
 -1.5735449e-01
  5.7849353e-03
  2.0317744e-02
 -3.1587574e+00
 -3.7116022e-03
  3.7248820e-02
 -3.7950380e-03
  1.1364143e+00
  1.5298306e-02
  2.5476241e-03
 -6.6438861e-02
  3.2361872e-02
  2.1687593e-02
  2.1150518e-02
 -2.4574455e-02
 -7.7680708e-03
 -5.0364479e-02
  7.7887275e-03
  7.0570819e-03
  9.4864834e-03
  4.6280805e-02
  3.3830434e-02
 -1.1228311e-03
  1.8865883e-02
  3.1463340e-02
  1.3599328e-03
  1.7946001e-02
 -2.8628066e-02
  2.7340674e-01
 -5.2516870e-02
  1.8407471e-02
  8.1736706e-03
  3.6659237e-02
  7.0447385e-02
  1.5990043e-03
  3.1010248e-05
  4.8250519e-03
  1.2028306e-02
 -1.8776141e-02
 -2.7148381e-02
  2.9121496e-02
 -6.8447597e-02
  2.0760402e-02
 -2.0040027e-03
  4.7135774e-02
  8.8375863e-03
  5.8783360e+00
  9.7818397e-02
  5.0869174e-02
 -3.1048233e-02
 -1.5188036e-03
  2.3069042e-03
  6.9889612e-03
  3.5290046e+00
 -5.2150416e-01
 -9.8828876e-01
  2.3957968e-01
 -9.7330838e-02
 -8.5616611e-02
 -1.9655354e-01
 -5.6167293e-01
  6.5136030e-02
  4.5179434e+00
 -2.4348731e+00
  3.0877424e-02
 -3.4786545e-02
  8.5090643e-01
  1.1282774e-02
 -8.5422152e-01
  5.8977566e+00
  4.7856236e+00
 -1.4673737e+00
 -2.1294889e+00
  3.4911883e+00
  2.1141012e+00
 -1.2923858e+00
  8.3663240e-03
 -2.1820437e-02
  3.1157873e+00
 -4.2113741e-03
 -2.4050224e+00
 -1.0944509e-01
  1.6571821e+00
 -4.0168238e-01
  1.5814496e+00
  4.7355261e+00
  2.0549407e+00
 -3.1107640e+00
  2.7411107e-02
 -3.3619791e-02
  3.2661638e+00
  4.0741682e+00
  1.7622547e+00
  1.8840854e-01
  2.4201859e-02
 -1.8514939e-01
  1.6396940e+00
 -7.2663061e-02
  1.3285128e-02
  4.2121340e-02
  2.8239287e-02
  2.7548680e-02
  3.8258687e-01
  4.6004035e-02
  2.1165047e-02
  1.0317886e-02
  6.2857509e-02
 -2.2366389e-03
  5.0819266e-01
  3.5810519e-02
 -5.3277742e-03
 -1.8850988e+00
  3.7431613e-02
 -1.1045705e-02
 -7.2723655e-03
  8.2870156e-01
  6.2471554e-03
 -1.7213158e-04
 -2.5618370e-03
 -2.9398015e-02
 -1.7236458e-02
  2.6856060e+00
  5.2943537e-03
 -1.6384440e-02
 -9.6122855e-03
 -5.8184527e-03
  3.2123160e-03
 -1.1621621e-02
  2.1959767e-02
  3.6413334e-02
 -3.3696245e-02
 -2.7320599e-03
  1.8401179e+00
 -1.4489081e-02
 -9.6930545e-03
  1.0804315e-01
  1.9033570e-02
  9.0263048e-03
  1.2472349e-01
 -5.1061518e-02
  1.1731599e-02
  8.3053017e-01
 -1.3761322e-03
  2.6352445e-03
  2.4032269e+00
 -2.1327827e-02
 -3.6116995e-02
 -6.8566194e-03
  3.4776554e-03
  8.7539069e-03
  5.5071572e-04
 -8.9418903e-02
 -6.4533520e-03
 -1.4691819e-01
 -2.2582801e-03
 -1.5286613e-02
  1.4345950e-02
 -4.2116918e-02
  4.0272465e-01
 -2.0253556e-02
  5.6168374e-02
  1.9059954e-02
 -1.8717544e+00
  1.8755248e-01
  3.2220607e+00
 -8.3944130e-01
  9.8759800e-01
  4.4343007e-01
  4.1089849e+00
  1.1723751e+00
  3.5903120e-01
 -7.4023676e-01
  2.1547752e-02
 -4.3665990e-03
  6.2344664e-01
  3.2795925e-02
  1.7792211e-01
 -1.1492360e-01
  2.2927215e-02
  1.0356148e-01
 -1.8622706e+00
 -2.8521992e-02
 -2.2678846e-04
 -3.5706395e-03
  1.6004378e-01
  3.8130343e-02
 -9.2782006e-02
 -1.4440227e-02
 -4.9584661e-02
 -1.8930170e-01
 -8.4174052e-04
 -2.7345899e-02
 -5.9132957e-01
  7.2119288e-02
 -2.3620853e-02
  1.2666523e+00
 -1.1583484e+00
 -3.1856131e-02
 -1.8303862e+00
 -3.4902412e-02
  5.8413820e+00
 -1.6017936e-01
  7.1143158e-02
 -3.3087056e-02
 -1.5091519e+00
  4.3624337e-03
  1.0858201e-03
 -7.2613251e-03
  3.7707770e-01
  8.5817203e-03
 -1.4865936e-02
 -3.6760818e-02
  1.3333280e-04
  3.8451284e-02
  1.2178250e-01
  9.7345747e-04
  2.3034491e-02
  4.5131013e-04
 -1.9145866e-03
  2.1743521e-03
  2.2906008e+00
 -8.1662806e-03
 -3.6936741e-02
 -5.0316629e+00
 -7.1441485e-03
  4.9055543e-02
  7.9094730e-02
  4.1506238e-02
 -6.0092745e+00
 -5.4708797e-02
 -1.8888371e-02
 -4.3081176e-03
 -5.5103756e-02
 -4.6742898e-03
 -2.1892412e-02
 -2.3646703e-02
 -4.1086942e-02
 -2.8892400e-02
  8.7361643e-03
  3.1346787e-02
  2.7571529e-02
 -4.0988442e-03
  2.2734721e+00
  6.3548751e-02
  1.5488907e-02
  3.4095754e-03
  7.4006341e-02
  1.8268035e-01
 -3.0716423e-02
  4.3172669e-02
  1.9063899e-01
 -7.3595005e-03
 -3.4495194e-02
 -1.0254934e-01
  3.6283184e-02
 -3.7325021e-02
 -1.9205294e-03
 -1.4367035e-02
  3.1608500e-02
 -3.2774780e-02
 -8.4089153e-03
  5.7844646e-02
 -3.2998750e-03
  8.5547129e-03
 -1.0569683e-02
 -4.0913325e-02
  1.5869049e-02
 -3.0591384e-02
  3.1389803e-02
 -8.4085345e-01
 -1.0205860e+00
 -2.0029478e+00
  2.3697555e+00
 -4.0321717e-01
 -9.2519826e-01
  7.1062639e-02
 -4.0474830e+00
 -5.7657522e-01
 -1.3155607e+00
 -1.0089331e+00
 -6.1183125e-01
 -7.7498412e-01
 -3.2677727e+00
 -2.0500500e+00
  1.1376207e+00
 -3.4558611e+00
  4.3197763e-01
 -5.3822975e+00
 -1.6999561e+00
 -9.8519996e-02
  1.1471121e+00
  3.9006748e+00
  8.5447319e-02
 -5.4265161e+00
 -1.4112260e+00
 -1.2404195e+00
  7.9709160e-01
  2.5522876e+00
 -5.7564282e-01
 -8.1028360e-01
 -2.5048797e+00
  4.4495317e-01
  7.4809954e-02
  6.7458773e-01
 -3.6815586e+00
 -8.9755464e-01
 -1.5383712e+00
 -1.1348397e+00
 -2.9847506e-01
 -2.1383021e+00
 -1.8725017e-01
 -1.4677577e+00
 -3.1785256e-01
  1.4285423e+00
  3.2000518e-01
 -4.4665918e+00
  6.4679152e-01
 -1.4185386e+00
 -3.8354595e+00
  1.4257793e-03
