nep4 3 B C N 
cutoff 8 4 414 46
n_max 8 8
basis_size 12 12
l_max 4 2 0
ANN 50 0
 -7.3366237e-01
 -1.7467372e+00
  4.0377517e+00
  4.8377690e+00
 -5.4496617e+00
  1.0879877e+00
 -2.3174596e-01
 -4.6964655e+00
  9.7347803e+00
 -3.0016353e+00
 -2.4216661e+00
 -2.0365132e-01
  3.4083417e-01
 -1.3794496e+00
  9.3621200e-01
  1.9123702e+00
  2.5227330e+00
 -3.6014154e+00
  2.9586873e+00
  4.9861932e+00
 -8.4512122e-02
 -1.0285717e+00
 -9.0373969e-01
  2.0560117e+00
  3.9019370e+00
  1.7091779e+00
 -1.0730402e-01
 -1.1791357e-02
  2.5040612e+00
 -8.3584714e-01
  7.1365061e+00
  1.2318332e+00
 -2.5213542e+00
  2.4662235e+00
 -3.2220180e+00
 -2.1880944e+00
 -8.6491996e-01
  3.6443834e+00
 -1.3802450e+00
  6.5534347e-01
  8.1792468e-01
  4.9270764e-01
  1.1230233e+00
 -1.9831293e+00
  1.1855600e+00
 -7.4870940e-03
 -4.0857720e+00
 -3.2105759e-01
  1.9401890e-01
  7.5596303e-02
  9.9881065e-01
  1.8308893e+00
  8.4389490e-01
 -4.7799426e-01
  1.8829327e+00
  3.6621354e+00
  1.2687261e-01
  2.5164969e+00
  2.6120886e-02
  4.6709657e+00
 -2.8818173e+00
 -3.6769733e-01
  2.2121513e-01
 -6.0169291e+00
  5.8637995e-01
 -1.4585177e+00
  3.1314149e-01
 -5.3900173e-03
 -2.6513121e+00
 -7.6555133e-01
 -1.7520188e+00
 -2.4388969e+00
  1.0330762e+00
  1.5328227e-01
 -1.4137488e-02
 -1.4652632e+00
 -2.9242578e-01
 -2.2327881e+00
 -2.5544155e-01
  2.4732596e-01
  1.7002349e-01
  1.4431740e+00
  1.8481667e-01
  2.0536573e+00
 -1.9026418e-01
  2.3404467e-01
  1.1337920e+00
 -6.2061727e-01
  4.6420693e-01
 -2.4402125e+00
 -1.1645639e+00
  2.7511024e+00
 -2.6433868e+00
  6.4676332e-01
 -8.6322531e-02
  2.5798585e+00
  1.3695446e+00
  8.5250720e-02
  1.1670357e+00
 -2.8179410e+00
 -1.1840357e-01
  2.1016656e-01
 -1.2255242e+00
  6.8102293e-02
  4.4706306e-01
  3.3913918e-02
  9.3748200e-01
 -2.2395761e+00
 -8.5654944e-02
 -7.8522211e-01
 -1.1362614e-01
  3.6337298e-01
  4.5291704e-01
 -5.4730512e-02
 -8.6893342e-02
 -2.8385410e-02
 -3.5891771e-02
  3.8968738e-02
  2.5241795e-01
  1.0193241e-01
  3.2448815e-03
 -2.6468042e-02
  8.7226850e-01
  1.1197851e-01
  7.3241398e-02
 -1.5221218e+00
 -1.6020486e-01
  1.6759747e-01
  4.5965538e+00
 -1.7757409e-03
 -2.0726113e+00
  2.3535863e-02
 -2.4987149e-01
 -3.1602390e-02
 -2.7759492e-01
  1.8706314e-01
 -4.4619173e-02
  7.9235837e-02
 -1.9766366e-02
 -2.1389006e-02
  1.4948621e+00
 -8.7356299e-01
 -1.5009865e-01
  2.9435746e-02
  8.9970537e-02
  7.6606996e-02
  6.7496702e-02
 -1.6605292e-02
 -7.3504843e-02
  2.6276961e-01
  1.9309295e-02
 -5.9856076e+00
 -4.5865692e-02
  9.5104806e-02
 -5.1501110e-02
 -7.5645007e-02
  1.8399186e-03
 -5.5448357e-02
  3.2137096e-02
 -2.0844689e-02
  1.7742315e-01
  9.8568946e-04
 -6.5828186e-01
 -4.6453319e+00
  4.9237967e-03
  8.4287032e-02
 -3.6910057e-01
  1.0418621e-01
  2.1027699e+00
 -1.1820509e+00
 -2.6594098e+00
  2.2364911e-01
 -1.2319393e-02
 -4.1472518e-01
 -2.8414074e-01
 -4.0854004e-01
  2.9050502e-01
  3.3844140e-01
  1.7885488e-01
 -2.2271659e+00
  1.5897728e+00
  5.2265364e-01
 -1.4541365e-01
 -2.8634003e-01
 -1.3845746e-01
  1.9776539e+00
  3.9156247e-02
  2.6416540e-01
  8.6495385e-02
  1.4407470e+00
  2.2242959e-01
 -3.8650662e-01
  1.9649876e+00
 -1.0621271e+00
 -1.9639196e+00
  1.1494778e-01
  1.6141482e-02
  6.6446662e-02
 -3.9134283e-02
 -1.1409107e+00
 -1.5728587e-01
  4.3491501e-01
 -3.0590925e-02
 -2.4772735e+00
  2.3939684e-01
  1.8219620e-01
 -4.8787102e-02
  6.6389740e-02
 -1.9001289e-01
  2.9937014e-02
 -1.3514552e+00
 -7.0152707e-02
  4.9276447e-01
  4.3660801e-02
 -8.1677109e-02
  7.9468593e-02
  1.7313951e+00
  3.0530760e+00
  2.1479867e-01
  4.3059158e+00
 -1.4973366e+00
  1.6070926e+00
  8.3645737e-01
 -6.1668608e-02
 -3.6394680e+00
  1.8850966e-01
  1.7040513e+00
  6.3005060e-02
 -2.6622519e-01
  8.8173738e-03
  2.3216283e+00
 -5.9457269e-02
  2.2360697e-01
 -1.5827849e+00
  2.5621462e-01
  1.0955743e+00
 -2.1528709e-01
 -6.8386734e-01
  2.7995590e-02
 -1.6518675e+00
  5.3854682e-02
  6.2340051e-01
 -2.5563985e-01
  1.4102962e+00
  3.5796463e+00
  7.3797464e-01
 -1.6796936e+00
  2.4023026e-03
 -4.7910041e-01
 -3.1278428e-01
 -3.9586046e-01
  1.6854223e+00
  9.4489262e-02
 -2.0529023e-01
 -1.0165344e-01
 -1.1271912e+00
  1.0945985e-01
 -1.1879289e-01
 -1.1470427e-01
  6.6615969e-01
  1.5845127e+00
 -6.8930793e-01
 -1.4382342e-01
 -1.0666301e+00
 -4.9485224e-01
  1.0507105e-01
 -6.4193946e-01
  3.3441737e-01
  5.4027855e-01
 -3.4234233e-02
  3.3256917e+00
  1.1718204e+00
  3.3718273e-01
  1.7739909e+00
  1.2723513e-01
  1.6436665e+00
  7.3232806e-01
 -1.9713758e-01
 -3.2836545e-01
 -1.2489392e-02
 -2.9291693e-02
 -4.5520020e+00
  3.3495322e-02
  1.8004496e-01
 -7.0590287e-01
  1.0597411e+00
  7.4149370e-02
  3.8480835e+00
  5.7348901e-01
 -4.3874905e-03
  1.8848357e-01
 -1.2592551e-01
  4.3423319e+00
  4.5218563e+00
  3.1672668e-02
  7.3564106e-01
 -3.0444905e-01
 -1.3075136e+00
 -1.4274389e+00
  9.9325441e-02
 -2.4165566e-01
  1.5822257e-01
  3.2653034e+00
  1.5771970e-01
 -1.5411170e+00
 -2.5753877e+00
 -6.4682736e+00
 -2.0914026e-01
  1.5730184e-02
 -9.5080900e-01
 -8.9921206e-01
 -1.4421796e+00
 -1.0931233e-01
 -1.5609010e-01
 -1.0597006e+00
 -3.5489365e-01
 -5.5712509e-01
  1.1416775e-01
 -1.6549280e-02
  3.5074644e-02
  5.8589120e+00
 -8.5734073e-03
 -2.9247880e-02
  4.5889368e+00
 -2.1065474e+00
 -2.1408617e+00
  1.6982776e+00
 -1.7228115e-01
 -1.6270665e+00
 -2.1782312e+00
  8.7044197e-01
  2.2506741e-01
  1.9275546e+00
  3.3665283e+00
  9.3509346e-02
  5.2517083e-02
 -1.1657465e+00
 -1.5152025e-01
  8.6708456e-01
  1.5634912e+00
  1.9303956e+00
  3.6916682e-01
  2.0046108e+00
  1.0478600e+00
  1.9955014e+00
  1.4280304e+00
  3.2158742e+00
 -4.3077543e-01
  3.7293189e+00
  1.3646982e+00
 -3.5898116e-01
  1.5936923e+00
 -1.9462329e+00
  3.6894053e-02
  5.4817047e+00
 -4.7199544e-01
 -4.5952353e-01
  3.1851254e+00
 -1.7637902e+00
  1.6244322e+00
  5.1317306e+00
  2.0486167e-02
  8.1835979e-01
 -1.4510463e+00
 -3.0721900e+00
 -1.3010590e+00
 -9.0826082e-01
  4.0493914e-01
  2.8042061e+00
 -4.5917675e-01
 -6.2613187e+00
 -4.1735492e+00
  1.2467601e+00
  2.0057032e+00
 -8.9245427e-01
  1.3566331e+00
  5.8171558e+00
 -8.9668179e-01
 -3.3684359e+00
 -9.9430370e+00
 -7.3939261e+00
 -2.2278313e-01
  4.1381049e-01
  6.1172371e+00
  3.6201727e+00
  4.1602305e-01
 -9.0366146e-03
  7.3792738e-01
  3.9394185e-01
  1.2506116e-02
  5.2275360e-01
  2.5901937e-01
 -1.1933374e-01
 -2.8765902e-02
  1.8552886e-02
 -2.3320039e-01
 -2.7439305e-01
  1.1929873e-01
  8.6872220e-02
 -3.5489219e-01
 -1.5461192e-01
 -1.7543861e+00
  5.8545195e-02
  1.8838793e-01
  4.7981367e-02
 -6.0143817e-02
 -8.7804929e-04
  2.1833414e-02
  6.1444608e-03
  1.0886276e+00
 -5.9143698e-01
  5.3238692e+00
 -9.7816306e-01
  1.7288879e-02
 -9.6262231e-02
 -9.0182304e-01
 -7.0621043e-02
 -5.7463042e-02
  7.7594566e-01
  1.1863066e+00
 -8.5250335e-03
  2.3416859e-01
 -1.4253042e-02
 -1.5308979e-01
  8.0628350e-02
  4.7096517e-02
 -2.6258472e-01
  8.8330181e-03
  1.6815265e+00
 -6.7708790e-02
 -5.8128603e-02
  6.7120455e-02
  6.8815723e-02
  1.9525722e-01
 -1.9082403e-01
  2.1665510e-02
  5.7658751e-02
 -4.2448431e-02
  8.5284352e-02
 -8.8353075e-02
 -5.0613336e-02
 -3.4495900e+00
 -6.2512279e-02
  2.1376275e-01
  1.0110360e-01
 -3.5913168e-03
  3.2879120e-01
 -1.0770485e-03
  1.9354960e-01
  6.5942615e-02
  1.5215829e-01
 -5.5047312e+00
 -4.7523322e+00
 -2.0659328e-01
  1.6916816e-01
 -9.1089167e-02
 -4.1692597e-01
  3.7498392e-02
 -3.4146775e-02
 -7.1778871e-02
  1.1549871e-01
  5.5254020e-02
  3.4930384e-01
 -5.1449310e-02
 -5.0299275e-01
 -9.1076568e-03
 -1.2955613e-01
 -5.0869778e-02
  1.9629166e-02
  6.0478002e-01
 -3.0607638e+00
 -1.5088505e-01
  1.3524623e-01
 -8.1205674e-02
  7.9346873e-02
  1.1153574e-01
 -4.0523849e-02
 -2.9203318e-02
 -1.2384827e-01
 -1.0998543e-01
 -1.1454196e-01
  4.7853850e-02
  6.5643050e-02
  4.8768591e-02
 -1.5762639e-01
 -1.2295605e-01
 -1.6898144e+00
  2.0697429e+00
  4.8741317e-01
  1.7382197e-01
 -1.1997695e-01
 -8.7397361e-01
  3.2878089e-01
  4.2955515e-01
  3.6148436e-02
 -2.7886422e-02
  1.5496916e+00
 -1.4604266e-01
  1.3989136e-01
 -1.7660655e+00
  1.1042287e+00
 -4.5883138e-02
 -8.9809801e-03
 -1.6519307e+00
 -7.9155443e-03
 -8.8577712e-01
  1.1207229e-03
  4.7203332e-02
 -1.6357116e-01
 -2.4283187e-02
 -3.8113773e-02
 -3.5981846e-01
  4.5638627e-01
 -1.2009227e+00
  1.0108978e-01
 -1.3376555e-01
  1.5550859e-01
  3.0579333e+00
 -2.3823519e+00
  1.3778691e-01
 -1.6245747e-01
 -2.4256794e-02
  2.6356319e-01
  9.3850298e-03
 -6.3691390e-01
  1.4740257e-01
 -2.7082121e-01
  1.0014259e+00
 -3.6237936e-02
 -4.3743715e-02
 -2.6995437e+00
 -5.3973859e-03
  1.4305416e-01
  4.1101357e-01
 -4.6103796e-01
  2.3051876e-01
  1.5308962e+00
 -3.2942501e-01
 -3.2755193e-01
  2.2708663e-01
 -1.5246756e+00
  1.3014106e-01
  1.1167436e-01
 -1.2943525e+00
  1.1021196e+00
  3.7557703e-01
  3.1457865e-01
 -9.3624860e-02
 -2.4709284e+00
  1.6167632e-01
  5.9630090e-01
 -4.7392078e-02
 -3.2168787e+00
  1.2297717e-01
  6.1152661e-01
 -4.5677990e-02
 -7.9388750e-01
  5.6300551e-01
 -4.2403209e-01
  5.1193041e-01
  1.3783668e-01
 -2.9844999e-01
 -5.8240816e-02
  5.3922206e-02
  1.9169040e+00
  2.6330990e-01
 -4.6537891e-02
 -4.3758210e-02
 -5.0636772e-02
 -2.2123463e-02
 -1.3913977e-01
 -2.3453805e-01
  6.4923370e-01
 -1.1811698e-02
 -8.2890397e-01
 -4.4145842e+00
 -6.6434616e-01
  2.3768561e-01
  3.5910016e-01
 -1.7542401e-02
 -2.0407200e-01
  5.3370774e-01
 -2.4872243e+00
  5.3082511e-02
 -4.8326305e-01
  8.0569452e-03
 -9.8450303e-02
  9.2696384e-02
 -2.7712274e-02
 -2.1160679e-01
  7.8429484e-01
 -8.2378931e+00
 -3.1808771e-02
  5.4669369e-02
  6.7498398e-01
 -6.1895239e-01
 -1.0292522e-01
 -2.3915608e+00
  3.9665198e+00
 -2.8597333e+00
  1.0958138e+00
 -6.3379928e-02
 -9.6493161e-01
  7.7183807e-01
  6.1734128e-01
 -4.1903603e-01
 -3.8532402e-02
 -4.5642170e-01
  4.1005291e-02
  8.6053675e-01
 -4.6176049e-03
  1.6701578e-01
 -4.4460821e-01
  2.6122093e-01
  6.4838165e-01
  3.3203106e+00
 -5.0508060e-02
  1.8125228e+00
 -5.7895634e-02
  1.1629934e+00
 -2.6260502e+00
 -2.3424748e-01
 -9.8046504e-02
 -5.2236748e-01
  8.7233704e-01
 -7.7113014e-01
  8.5326272e-01
  6.1560947e-01
  2.6112251e-02
  1.1046828e-01
 -1.2118745e+01
  5.3011673e-04
  3.5210161e+00
  3.6263965e-02
 -4.1326264e-01
 -5.9504974e-01
  1.6515008e-01
  2.9911166e-01
  3.4053403e-01
 -5.5132147e-02
 -2.5901096e-02
 -2.2895474e-02
 -1.9870376e-02
 -1.1286346e-01
 -7.4516237e-01
 -3.4932166e-01
  1.8276648e-01
 -9.5222823e-02
  6.8853527e-01
  2.5949900e+00
 -3.2187574e+00
  6.0241705e-01
  6.3532038e+00
  1.0048880e-01
 -1.9013629e+00
 -2.3854597e+00
 -9.2489503e-02
 -4.3106122e+00
 -1.4857621e+00
  2.2658913e+00
 -3.7935681e+00
 -3.0807614e-01
  5.5805463e-01
  2.3335813e-01
  3.1505983e+00
 -2.7005571e-01
  5.2589197e+00
  2.7113578e+00
  1.7607899e+00
 -4.0079207e+00
 -2.5769153e+00
 -2.3557072e+00
 -1.3697356e+00
  1.9180886e+00
 -3.1446643e+00
  9.3573707e-01
  1.5589423e+00
 -6.5691624e+00
  8.9679070e-02
 -4.3800116e-01
  3.0083552e-02
 -4.7396455e+00
  2.7060487e+00
  9.1653627e-01
 -1.0442629e+00
  2.5532043e+00
  9.9593723e-01
 -1.3348545e+00
  5.3650422e+00
  1.7163420e+00
 -6.4960681e-02
 -4.8540058e+00
 -1.1382126e+00
  1.5768118e-01
 -7.2955489e-01
 -1.6256578e+00
  2.0621679e+00
  8.8373423e-01
 -5.0868974e+00
  2.2495167e+00
 -2.2929049e+00
  8.1476845e-02
 -1.2994282e+00
 -4.2102420e-01
 -5.5410591e-04
 -9.2416066e-01
 -5.2912366e-01
  6.6263509e-01
 -6.6522294e-01
 -6.8143666e-01
  1.4335756e-01
  4.2432955e-01
  3.8651863e-01
 -1.3688925e-01
 -3.0268446e-01
 -3.2147378e-01
  1.3129249e+00
  4.9694933e-02
 -2.5961295e-01
 -1.0379165e+00
  1.9073509e+00
  2.2247045e+00
 -9.0780072e-02
  6.5963978e-01
  3.4462231e-01
  4.0006847e+00
 -2.6769117e-02
  4.6425679e-01
  3.5178781e-01
 -8.9078945e-01
 -2.9889539e-02
 -1.7358311e-01
 -3.9916866e+00
 -6.6848558e-01
 -9.0545338e-01
  2.6721492e-01
 -5.6078088e-01
  5.3033674e-01
  1.4894923e+00
  2.1874528e+00
 -2.3696458e-01
  2.5649986e-01
 -4.5817341e-03
 -4.3177336e-01
 -7.4901123e+00
 -3.5773063e+00
 -2.2505592e-01
 -2.2950569e-01
  7.3364004e-02
  9.8660398e-01
 -8.5838428e-03
 -8.2531720e-02
 -4.4586974e-01
  6.4095855e-02
 -6.9973372e-02
  4.7789596e-02
 -7.7191722e-01
  1.8256792e+00
  9.0954494e-01
  7.3800564e-01
 -5.1208055e-01
  2.7427199e+00
 -1.1716410e+00
 -2.2671587e+00
 -2.1205874e-02
  4.0585276e-01
 -9.7559679e-01
  3.6071086e+00
 -2.0352320e-01
  4.6535107e-01
 -2.8595555e+00
  8.7006706e-01
  7.4609554e-01
  9.1221935e-01
 -2.3844831e+00
 -7.7997464e-01
  1.3848763e+00
 -5.9515429e+00
  5.4822892e-01
  2.5576847e+00
  5.4574925e-01
 -1.3398855e+00
 -3.2737490e-02
  4.1925326e-01
 -1.3492597e-02
  1.2118423e+00
 -2.7372122e-01
 -6.2818052e-03
  1.1945356e+00
 -1.9457864e+00
  3.9916968e-01
 -5.4448527e-01
 -2.8499097e-01
 -2.5190571e-01
  7.6580122e-02
  5.0377661e-01
  1.4563667e+00
  6.1167117e-02
  9.4002672e-02
 -6.4954899e-02
 -3.0585317e-02
 -2.8976887e-01
 -5.7238679e-02
 -2.1737975e-01
 -5.0315283e-02
  7.8637846e-02
 -6.3365011e+00
  3.1241782e-02
 -3.2624424e-02
 -1.5918164e-01
  8.9159644e-01
  1.0926894e-01
  8.3364862e-01
 -3.8897994e+00
 -8.6602134e-01
 -1.1122881e+00
  2.8763602e+00
  4.2968302e+00
 -8.6958990e-02
  1.2791891e+00
  2.0233271e+00
 -4.5909223e-01
  4.4075873e-01
 -1.7058719e+00
  4.4354701e-01
 -4.7724171e+00
 -5.3206935e+00
  1.0562681e-01
  1.6622206e+00
 -4.1188641e+00
 -1.6650422e+00
  8.3433896e-02
 -3.0107037e-03
  7.1539640e+00
 -1.8630906e+00
 -8.8676378e-02
  2.4682481e+00
  9.4704282e-01
 -6.3901734e-01
  5.7312757e-01
  2.5704248e+00
  2.6228800e+00
 -8.6780004e-02
  5.6776567e+00
  7.5350487e-01
 -3.1925433e+00
  2.6618948e+00
 -2.8347387e+00
 -7.0155047e-02
  6.6875362e+00
 -1.7477443e+00
  1.6224891e+00
 -6.8680568e+00
  8.2274408e+00
 -4.7884861e-01
  9.2121053e-01
  4.4087085e-01
  1.5536943e-01
 -4.2968251e-02
 -2.0126116e-01
  4.7468667e+00
 -1.2590213e+00
 -9.1081810e-01
  1.8528010e-01
  3.5602274e+00
 -6.3788261e+00
 -3.0810883e+00
  3.2705834e+00
  1.5150261e+00
  2.1241548e+00
  4.5047421e+00
 -2.6668310e+00
  4.5215135e+00
  2.4254659e-02
 -3.6770117e-02
 -4.5001674e-01
  6.1286646e-01
  1.9022208e+00
 -6.5759724e-01
  6.1104652e-02
  1.3465202e+00
 -5.8443719e-01
 -1.0459061e-01
  5.6844002e-01
  3.2776389e-02
 -3.3753791e+00
  1.9244962e+00
 -6.3133206e+00
  6.4058673e-01
  1.3491163e+00
  3.9985114e-01
 -3.1331038e-01
 -8.3918661e-01
  4.2876294e-01
 -8.2597978e-02
  4.5767317e+00
 -5.7653451e-01
  7.0413584e-01
 -6.1356775e-02
  7.7899349e-01
  5.8717141e+00
  1.4656233e+00
 -4.6578390e-03
 -1.6249437e+00
 -1.4718627e+00
 -1.9523417e+00
 -5.4021414e-02
  1.6143651e+00
  2.7383961e-02
 -7.2022088e-02
  5.5648539e-02
 -1.2900849e-01
  7.4104673e-01
  1.8952565e+00
 -4.5307670e+00
  8.9823604e-02
  8.7735979e-03
 -6.4680055e-02
  3.8853146e-02
 -2.0137738e-01
  6.3417792e-02
 -4.0253818e-01
 -7.2776824e-02
  2.6437545e-02
 -2.3172182e-01
  1.5867962e-02
 -1.5567417e-01
  2.4263937e-02
  1.8161159e-02
 -1.7685267e-01
 -2.7454410e-02
  7.0902444e-02
  1.0055128e-01
 -2.2772172e-01
  8.3497830e-02
 -3.6787152e-02
 -6.6722196e-01
 -1.9115828e-01
  2.5539322e-02
  8.3168775e-02
  2.7220469e-02
 -1.1352710e+00
 -2.6788265e-01
 -9.6084446e-02
 -2.5289733e-02
  1.9460774e-03
 -2.7468953e-02
  1.1033738e-01
  9.3069598e-02
 -4.1923359e-02
  1.9558215e+00
 -9.3760538e-01
 -2.2914059e-02
  2.3983292e-01
 -8.3157860e-02
 -1.1858591e-01
 -6.6823691e-02
  1.0414674e-01
  6.1187329e+00
  7.1592018e-02
  5.6550365e-02
 -1.3217628e-01
 -1.4809257e-01
  1.0412455e-01
  6.0732155e+00
  8.6529434e-02
  6.7012868e+00
 -4.4085577e-02
  9.3039155e-02
  5.3254526e-02
 -1.7512326e+00
  3.9471827e-02
 -2.7879742e-01
  3.4881660e-01
  2.3941232e-01
 -4.9720842e-01
  4.3294829e-01
  3.9067149e-01
 -2.5447524e-01
 -2.6786256e-01
 -3.6840901e-01
 -7.2254056e-01
 -4.0906832e-01
  2.6296835e+00
  2.5499296e+00
  1.8036915e-01
 -1.2442587e-01
  1.1133313e-02
  3.7389599e-02
 -1.3254758e+00
  6.0666150e-01
  6.5411353e-01
  5.1660020e-02
 -1.4850634e-01
 -1.7651841e-02
  2.3911536e-01
  1.6651530e-02
  1.6086121e+00
 -3.5968788e-02
  5.9110756e+00
  1.7404824e-01
 -3.1038525e+00
 -2.4261110e+00
 -4.4414308e-02
  2.6150203e-01
 -7.9903007e-01
  7.0275225e-02
  3.2654014e-01
  6.2568694e-02
  4.0455315e-02
  7.0988148e-01
 -1.4184526e-01
 -8.3071060e-02
 -4.0875262e-01
  4.9367737e-02
 -2.2747634e-02
  1.6064876e-01
  1.2687098e-02
 -6.9051206e-02
 -1.0358807e-01
  5.7151157e-01
 -2.4547613e-01
  1.9579072e+00
  6.8978443e+00
  3.9348613e-02
 -5.9898001e-01
  2.0618497e-01
 -1.6014503e+00
 -2.5823977e+00
 -1.5878055e+00
  8.5110271e-01
 -1.5848478e+00
  5.2766032e+00
 -3.1737363e+00
 -3.5634473e-01
  2.2927168e-01
 -2.8152652e-02
  3.4588253e-01
  7.8040391e-02
  1.8938622e+00
  7.1342498e-02
 -1.2993713e-01
  1.0296227e-01
 -4.2968383e+00
 -6.4813033e-02
 -3.3867237e-01
  3.6796350e-02
 -1.0271017e-02
  1.2645884e+00
  2.2494438e-01
 -9.2093825e-01
  2.0527323e-01
  1.1693635e+00
 -1.5387384e-02
  4.6859089e-02
 -1.2672161e-01
  6.0022410e-02
 -2.6775124e+00
 -3.4057226e+00
 -1.6913413e-01
 -1.6202193e-01
 -9.9291215e-03
 -8.8768095e-02
  7.9273105e+00
 -3.5678457e-02
 -1.3304174e-02
 -5.0940342e-02
  6.7465439e+00
 -1.1738524e-02
 -6.9833007e-03
 -3.5126075e-02
  8.3453571e-03
 -2.0030625e-02
 -2.4690686e-01
 -7.0330083e-02
 -5.1517345e-02
 -4.7161151e-03
 -5.3800396e-03
  4.5925498e-02
  7.4995548e-01
 -2.5160283e-01
  3.1497845e-01
 -5.7829689e-02
  2.2486280e-01
  5.4052118e-03
  3.4405477e-02
  1.9231293e-02
 -1.0706637e+00
  9.5780313e-02
  4.8012687e-03
  2.1407910e-01
  2.2859292e-01
  2.1013911e-01
  2.3403469e-01
 -7.5362250e-03
 -4.1804120e-02
 -1.4926415e-02
  7.8231342e-02
 -1.8718751e-02
  2.4449857e-01
  4.5814343e-02
 -6.3472725e-03
 -1.2401309e-02
  2.8211121e-03
  1.4346181e+00
 -2.4127488e-01
  7.1300425e-02
  4.3634649e-02
  3.5646509e-02
 -5.1508535e-02
  1.6430172e-01
 -3.2983837e+00
 -2.4166269e+00
  4.4074118e-02
 -2.0012224e-02
 -9.8744921e-02
  3.7435345e-02
 -1.2544557e-02
 -9.5905638e-01
  1.9103484e-02
  8.5548304e-02
 -7.9303843e-01
  3.2537684e-02
 -1.2397114e-04
 -8.2381226e-02
  1.0431228e+00
 -9.6846431e-02
  2.1942218e-01
 -1.9080096e-01
  6.1436838e-01
  9.4799273e-02
  4.4810474e-02
 -6.1860237e-02
  6.4834952e-02
  1.6705085e+00
  5.9066407e-02
  5.6244504e-01
  1.1591296e-01
  1.8659383e+00
  4.8226550e-01
 -1.5123590e+00
 -2.6300304e+00
  1.4896017e+00
 -2.1773192e-01
 -1.5497415e-01
  3.8479081e-01
  1.6952796e-01
  1.4604944e+00
  5.5633318e-01
  1.1573505e-01
  3.6884006e-02
  2.5854939e-01
  1.8981481e-01
 -1.3770945e+00
  8.2344013e-01
 -4.9660903e-01
 -2.6849824e-01
 -1.6300325e-01
 -2.8112364e-01
  1.2483659e-01
  5.9074059e-02
 -1.7650095e+00
 -2.2398474e+00
  7.0108920e-02
 -9.0599477e-01
 -3.8512060e-01
 -3.1215736e-01
 -2.5604591e-01
 -9.3971319e-02
  8.2175516e-02
 -2.0079296e-03
  8.4901011e-01
  6.0541004e-01
 -7.9307833e+00
 -4.8521093e-01
 -2.9783079e-01
 -1.3520775e+00
  1.1208572e-01
 -1.0034053e+00
  5.1049912e-01
  1.8601319e-01
 -2.6932562e-02
 -3.1278536e-02
 -1.0692414e-01
 -9.8523533e-01
 -1.7039487e-01
  5.9100967e-03
 -3.9719574e+00
  1.4289238e+00
 -4.8154575e-01
 -8.1952447e-03
  1.0372343e+00
  2.0992208e+00
 -1.1113328e-01
 -2.6640689e-01
 -1.4606197e-01
 -3.0214578e-01
  1.2787085e+00
 -2.8377271e-01
  4.1158956e-01
  7.9397267e-01
 -4.8956734e-01
 -6.0391885e-01
 -7.0415121e-01
 -2.6841721e-01
  4.4491604e-01
 -5.0313401e-01
  3.9552698e-01
  3.2163719e-03
 -1.0594350e+00
  3.5723233e+00
  5.2371252e-02
 -3.5007279e-02
  6.7617589e-01
  8.3120000e-01
  2.7853923e+00
  4.1651160e-01
  1.3680561e+00
  1.0155041e+00
 -9.6888977e-01
 -2.0045049e+00
 -3.7288463e-01
  1.3000372e-01
 -1.8659476e+00
  3.7283331e-01
 -6.1630033e-02
  9.6686387e-01
 -1.6972679e-01
  1.7238486e-01
 -2.7593300e-02
 -1.6668120e-02
 -7.1721733e-01
  6.4221978e-01
  8.1323683e-02
 -7.3085487e-02
 -2.7853456e+00
  1.5426763e+00
 -1.2821200e-01
 -2.9719343e+00
  6.4777792e-02
 -7.2524208e-03
 -6.9972312e-01
 -7.9778627e-02
  4.3852653e-02
  4.3596628e-01
 -4.8785827e-01
 -1.0015420e+00
 -6.8854418e+00
  6.8071513e+00
  6.0185261e+00
 -4.4833770e-01
 -4.9669629e-01
  6.7669332e-02
 -3.9301142e-02
 -1.3729487e-01
 -2.0702451e-01
  1.1721935e-01
  1.1853814e-02
 -8.5635886e-02
 -7.8293271e-02
  4.5797890e-03
 -1.5889043e-01
 -5.8534104e-01
 -6.1843619e+00
  2.4404174e-01
 -2.2370160e+00
 -2.7284496e-02
  3.6743693e-02
  5.6071925e-01
 -2.4779633e-02
 -5.6642729e-01
  2.2697800e-01
  3.9254025e-02
  9.6754491e-02
  1.3188764e+00
 -1.7099028e+00
 -1.6675529e-01
  4.9527141e-01
 -3.7686023e-01
  2.8820077e-02
  2.2238247e-01
 -1.2794784e+00
 -2.8125918e-01
 -2.2232056e+00
  1.9304557e-02
  2.0449097e-01
 -6.8437442e-02
 -5.4400778e-01
 -1.1618017e-01
  9.5620260e-02
  1.0740569e+00
 -6.3100070e-02
  5.3086042e+00
  2.9022923e-02
  5.0106585e-02
  8.9349374e-02
  1.0509667e-01
 -1.3721121e-02
 -9.6660018e-02
  4.1842986e-02
 -3.5287496e-03
  6.3714728e-02
 -1.2063459e-01
 -4.2391632e-02
 -7.5875002e-01
  1.9339128e-01
  1.8472548e-01
  2.5556788e-01
 -1.3725005e-01
 -5.5876410e-01
  1.1087633e-01
  4.0232215e+00
 -2.3935687e-02
  2.9944547e-02
 -2.1866567e-02
  7.7965364e-02
  2.9276172e-02
  1.9982228e-01
 -1.9117668e-03
  1.0305192e-01
  6.6882353e-03
 -1.4194220e-01
  4.3472707e-02
  1.2012540e-01
 -4.4305846e-02
 -1.0066229e-01
 -9.6908502e-02
  7.2799354e+00
  1.2755152e+00
 -6.3905947e-02
  2.3465273e-01
  1.6712816e-01
  2.4291098e-01
 -1.5633380e+00
  2.6579533e-02
 -1.7883042e-02
  6.6311553e-02
  2.2468922e+00
  8.6509986e-03
  2.2014523e-01
  1.6827583e-01
 -2.1882836e-02
 -8.5899327e-03
 -1.7598402e-02
 -8.9857556e-02
 -1.4569883e-01
  2.4579909e-01
 -2.2546941e-02
 -3.5858601e-02
 -4.9543232e-02
  5.9983883e-02
 -4.8906393e-02
  3.2304913e-01
 -3.9298141e-01
  1.7916536e-01
 -1.8369450e-01
  4.0551271e+00
  8.2531816e-01
 -1.2369311e+00
  1.2419205e+00
  3.2068151e-01
  4.2908236e-01
 -4.2989665e-01
 -5.4400611e+00
  2.5958711e-01
  2.5259236e-01
 -2.3085313e-02
  3.3671868e-01
  4.5322704e-01
  3.4983650e-01
  9.0188362e-02
  8.4417731e-02
  5.4588012e-02
  4.3132830e-02
  1.0159968e+00
 -5.2386556e+00
 -1.1409213e-01
  6.4928718e-03
 -1.7944876e-02
  5.0595284e-01
 -6.0800308e-01
  4.6572879e-01
 -6.0113710e-01
  3.2869048e-02
  5.3280693e-01
  5.7489032e-01
  2.5007986e-03
 -4.9193711e+00
  6.2639141e-01
 -4.5847407e-01
 -6.2680356e-02
  3.2516026e-01
  1.3134702e-02
  7.6444483e-01
 -5.5306636e-02
 -1.7907387e-01
  2.2050261e-01
 -1.2724864e-01
  1.5035993e-01
  1.4877819e-01
 -1.1710115e-03
  1.4155042e-01
  8.2712889e-01
  3.0929105e-02
  2.3931286e-01
 -1.5412949e-01
 -8.4769176e-03
  3.0100763e-02
  6.3650382e-01
  1.0472773e+00
  1.9397291e+00
  2.0725381e-01
  3.9479654e-02
  3.9702797e+00
 -2.3802197e+00
  1.3827277e+00
  6.6433835e-01
  5.3607827e-01
 -1.4750259e-01
  2.8261542e+00
 -1.6617881e+00
 -7.8069222e-01
  3.6035216e-01
 -2.0490923e+00
 -2.7498463e-01
 -4.0608778e+00
 -1.3613193e+00
  6.4480865e-01
 -6.6818744e-01
 -1.2975789e+00
  8.6080086e-01
 -5.8952731e-01
 -1.4840670e+00
  1.4258464e-01
 -1.3082336e+00
 -1.5631584e+00
  2.6104304e-01
 -5.9352225e-01
 -2.5436265e+00
  2.5208721e-01
 -2.0058880e+00
  5.4193025e+00
 -5.9511709e-01
 -1.3098388e+00
 -3.6743823e-01
 -1.9122536e+00
 -4.3113750e-01
 -5.4071617e+00
  9.5975804e-01
  1.1267610e-01
  5.6204188e-01
 -1.1373796e+00
 -1.6035091e-02
 -1.3873945e-01
 -6.9868195e-01
  2.5005343e+00
  3.5276055e-01
 -3.3413567e-02
 -3.3939517e+00
 -2.8071353e+00
  1.4101329e+00
 -1.1246843e+00
 -2.2249129e+00
 -1.7204013e+00
 -8.7793761e-01
  2.8354399e+00
  1.0293621e+00
  3.1700678e-02
  9.0276343e-01
  3.3965430e+00
 -1.5035322e+00
  1.8086207e+00
 -1.8140490e+00
  3.0512757e+00
 -1.6067339e+00
  3.8027173e-01
 -4.6929541e+00
 -3.0939789e+00
  3.0331783e+00
  3.0799375e+00
  2.9415028e+00
  2.2939696e+00
 -4.3448248e+00
  1.1715651e-01
  7.1127021e-01
 -1.6380116e+00
 -1.6384646e+00
  1.1078188e+00
  7.3552758e-02
 -1.2182007e+00
  1.3563652e+00
 -7.2560296e+00
 -2.7939466e-01
  4.8556447e-01
  9.5505559e-01
 -5.6894388e+00
  7.3452926e-01
 -1.1494315e+00
 -7.0337081e-01
 -2.3925931e+00
  7.0156054e+00
 -1.7677010e+00
  2.8975382e+00
  8.5044861e-01
 -1.9201542e+00
  1.8191156e+00
  1.2156254e+00
  7.5733358e-01
  3.2801898e+00
 -2.8901343e+00
 -4.7908692e+00
  7.7867694e-02
  2.8860917e+00
  5.5751820e+00
 -1.1267312e+00
 -1.0016752e+00
 -2.7800139e-02
  1.3369563e+00
 -2.5205052e+00
  1.6803329e+00
 -7.9059491e+00
 -2.3500827e-01
 -1.9715651e+00
  5.7629468e-03
 -1.2561626e+00
  4.1241241e-01
  9.0261638e-02
 -2.8786138e-03
  1.4772044e-01
 -3.6274452e-02
 -7.0925104e-03
  7.3090911e-01
  4.5824996e-03
  2.0052564e+00
  2.0103103e-01
  3.1793709e+00
  2.6245570e-01
  7.4240357e-01
  9.9927327e-03
  3.3092555e-02
 -1.0293192e-01
 -3.6117148e+00
  2.1189054e-02
  1.1583710e+00
 -3.2708836e-01
 -3.6500661e+00
  5.7056791e-01
  2.3303199e-01
  1.3105303e-02
  1.3511504e+00
  1.2771477e-01
  1.1406104e-01
 -2.4601954e-01
  1.0555849e+00
 -7.8959507e-01
  4.5782914e+00
  8.9727482e-03
 -7.2491303e-02
 -2.9562947e-01
  1.0271660e-01
  7.8042834e-03
  1.8159877e-01
  3.1203201e+00
  4.4962902e-02
 -1.3835081e-01
  8.2036093e-02
  4.1421884e-01
 -2.0912004e-01
  1.3223492e+00
 -4.9216887e-01
 -1.1573032e+00
 -1.5735469e+00
 -1.5843084e+00
  9.0767086e-01
  3.9283374e-01
 -4.0225276e-01
 -9.0095985e-01
  6.7943767e-02
  1.2111307e-01
 -2.8872362e-01
  3.8015552e+00
  1.4317048e+00
 -6.5602101e-02
  1.1962826e+00
  4.4779005e+00
 -2.1567849e-02
  6.6340375e+00
  4.5993030e-03
  1.8481444e-01
  7.6439166e-01
 -2.9375973e-01
 -3.0653518e-01
  7.3537357e-02
  1.3111708e-01
 -9.8965570e-02
 -3.0589357e-01
  1.2661175e-01
  3.0416903e-01
 -2.3154087e+00
  3.7732404e-01
  5.3247494e-01
  1.5463561e+00
 -3.1202096e-01
 -6.1018562e-01
 -3.0033067e-01
  8.2951087e-01
 -2.0192692e+00
 -2.6493151e+00
  6.7440264e-02
  2.4521679e-02
  1.5200892e-01
 -1.0289581e-01
 -4.6865437e-03
  3.9708827e-02
  1.1373082e-01
  9.4292447e-02
 -2.1802410e-01
  6.1572045e-02
  9.2308484e-02
 -1.5923481e-02
 -3.1742072e+00
 -4.0391555e+00
  4.2632852e+00
 -3.2274318e+00
 -6.9961125e-01
  7.8231555e-01
  2.4633055e+00
  6.6641889e+00
 -4.0479687e-01
 -2.6284690e+00
 -1.1878601e+00
 -2.3695257e+00
  4.6824190e-01
  5.0438460e-02
  9.6115792e-01
 -1.3348746e-01
 -7.1365222e-02
 -1.3567288e+00
 -2.7766452e+00
  7.0626098e-01
 -4.0828511e-02
  8.1122465e-02
 -2.0012109e+00
  4.9306445e+00
 -2.4496791e-01
  1.1108661e+00
 -1.2752243e-02
 -4.0276656e-03
  1.7434428e+00
 -4.4907168e-02
  3.3695285e+00
 -1.6403583e+00
 -3.6629975e+00
  8.3694153e+00
 -2.2818362e-02
 -5.0287914e+00
 -8.3853531e-01
  3.4621422e+00
 -1.2461144e-01
  9.0293592e-01
 -1.5555160e+00
 -2.0149784e-01
 -1.5991539e+00
  4.7991031e-01
 -3.9760818e+00
  1.5682374e-01
 -1.0502417e-01
 -4.6289485e-02
 -2.3870995e+00
  3.7748802e-02
  1.9245614e+00
 -3.3404022e-02
 -1.7092530e-01
 -1.0963483e-01
 -3.6216972e+00
 -1.4686601e+00
  9.9214894e-01
 -4.1639595e+00
  2.9884028e+00
 -2.8016229e+00
 -3.2563798e+00
  2.7233183e+00
  4.9448462e+00
 -9.2478484e-01
  4.7373527e-01
  7.3928468e-02
  3.0159993e+00
 -5.2551377e-01
 -5.2798123e+00
 -3.3669462e+00
 -1.4894170e-01
 -1.7181864e+00
  5.0717978e+00
  1.7850559e+00
  2.2911341e-01
 -1.6810384e+00
  3.0877137e-01
  2.8036163e+00
 -1.6944455e+00
 -1.3497009e+00
 -4.4221401e+00
 -1.2862642e-02
 -4.3641081e-01
  8.4495443e-01
  8.3540541e-01
  3.2764685e+00
  1.2215444e+00
  2.7578290e+00
 -5.2587479e-01
 -8.4262925e-01
  5.5952964e+00
  2.0417547e-01
  3.4764557e+00
 -1.6497890e+00
  7.8798878e-01
 -1.4624346e+00
  2.1668224e+00
 -5.1868744e+00
 -4.1602889e-01
 -3.9172256e-03
  9.4360784e-02
  1.2497368e+00
 -1.2649180e+00
 -6.0492629e-01
 -1.9014357e+00
 -3.1102970e-01
 -4.3666968e-01
  2.7755103e-01
 -1.1332047e+01
 -9.6614027e-01
  5.5371600e-01
 -4.6383486e+00
 -1.0343889e+00
 -7.6395088e-01
  8.0651897e-01
  8.8658553e-01
  1.5880224e+00
  1.1135981e-01
  4.1256156e-02
  2.8799759e-02
 -2.4985662e-03
 -1.7603555e-01
 -2.0765454e-01
 -6.1676431e-01
 -2.8586682e-02
  8.1255454e-01
  2.3197092e-01
  1.9032970e-01
  9.5793512e-03
  3.0542523e-02
  3.0079678e-01
  8.7533216e+00
 -1.7273600e-01
 -1.4955032e+00
 -1.3927321e-01
  1.7701757e-01
 -3.8140461e-02
  9.9536717e-02
  5.3441292e-03
  1.0893446e-01
 -6.3123959e-01
  1.5678792e+00
  5.0013983e-01
 -2.2194186e-01
 -1.8078744e-01
 -2.1530537e-01
 -3.6244247e-02
  2.6257360e-02
 -1.4650211e-01
  3.4494754e-02
 -3.5446912e-02
  2.9844090e-02
 -4.3017197e-02
 -1.6796544e-02
  1.0176311e-01
 -2.3547959e-01
  3.6709141e-03
  4.0589109e-01
 -1.3988735e-01
 -2.8011687e+00
 -1.1755716e-01
  1.0067676e-01
  2.1389493e-01
  9.7294971e-02
  8.1071526e-02
  4.9410816e-02
 -2.7171740e-01
 -5.9154008e-02
  2.0524118e-02
  7.2849661e-02
  6.9297943e-04
  1.2616828e-01
  3.6081992e-02
 -4.7008264e-01
 -6.1058849e-03
  2.6106074e-02
  3.6198746e-02
  7.2068661e-02
  1.3003165e-01
  1.3554813e-01
 -1.8067664e-01
  2.3999141e-01
 -4.3456547e-02
  2.3089200e-02
 -5.7701040e-03
 -6.7250095e-02
  4.1932240e-02
  1.0908589e-01
  2.4843407e-01
 -1.2180459e-01
 -4.7017723e-02
 -4.4740293e-02
  1.9776583e-01
  2.4107955e-03
 -1.4406824e+00
  6.7309588e-02
 -8.2067117e-02
  2.1045178e-01
 -5.4621477e-02
  1.0731732e-02
 -8.7156989e-02
 -1.5379784e-01
  1.3072026e-01
 -8.3176571e-01
  1.3197054e-02
  4.9005505e-02
 -2.5217565e-02
 -1.7435697e-01
 -1.1831087e-01
 -9.4252944e-02
  1.5002589e-02
  1.6656280e-02
  5.9391521e-03
  5.9982381e+00
  6.0325522e-02
 -5.1644111e+00
 -6.7860756e+00
 -1.0867873e+00
 -8.4414393e-02
 -7.9210836e-01
 -5.0491851e-02
  6.0520190e-01
 -3.9878520e-01
 -9.3992037e-01
 -3.8194668e-01
  6.0381722e-02
 -3.9569721e-02
  9.2237778e-03
 -5.2977506e-02
  3.4178197e-01
 -8.1127912e-01
 -7.9430714e-02
 -8.5898265e-02
 -1.2580675e-01
 -1.1768820e-02
  6.7059845e-02
  4.2615175e-02
 -4.3787874e-02
 -1.3092736e-02
  2.5738552e-01
  8.2609244e-02
  1.6243666e+00
  1.0622068e-01
  1.2220299e-01
  1.8654728e-01
  7.8965090e-03
  3.8467003e-03
 -4.9596438e-01
  6.2373239e-01
  4.7501087e-02
 -7.2845757e-02
  7.2193104e-03
  7.5636134e-03
  1.9744454e-01
  1.1971123e-01
 -1.0063816e+00
  6.9604319e-01
  3.2683301e+00
  3.1856121e-03
  2.1191767e-01
 -3.1496942e-02
 -1.5488973e-01
 -1.2830743e-01
 -9.6520416e-02
 -1.6425000e-01
 -4.5220815e-02
  1.4610411e-01
  1.3257769e-01
  2.2295509e-02
 -1.5149982e+00
  1.6176760e-01
  3.5577970e+00
 -6.1461699e-01
 -3.7595420e+00
 -2.5833287e+00
  4.8257422e+00
  4.0284157e+00
  1.4448532e+00
  1.9215682e+00
  1.6383377e+00
 -2.9216256e+00
  1.8453004e-02
 -2.7470595e-01
 -3.2021799e+00
  2.3811846e+00
  5.2131051e-01
  1.0581715e+00
  2.7960391e+00
  2.7513978e+00
  2.0107014e+00
  4.7154573e-01
 -1.2910526e-01
 -1.0073135e+00
 -7.6468760e-01
  7.2155797e-01
  2.5062544e+00
 -3.2913085e-02
 -3.2393165e-02
  1.0823845e+00
 -1.7288578e+00
  2.8272877e+00
 -2.8231244e+00
  5.0800771e-01
 -2.3776622e+00
 -2.9745154e+00
 -5.9148202e+00
  6.1022401e+00
 -1.3090780e+00
  2.6046208e-01
 -1.3203471e+00
  1.5581186e+00
 -1.2909837e+00
 -9.4383128e-02
 -3.6463556e+00
  3.8429263e+00
 -1.4770799e+00
 -4.8430691e+00
 -2.3983340e-01
  1.3895246e+00
  1.5302131e-01
 -2.7599137e+00
  7.7124584e-01
  1.7236826e+00
  3.6292948e-02
 -1.2320084e-01
  1.9723640e-01
  3.0345609e-02
  1.5564724e-02
  4.6649006e-01
  3.4815680e-02
 -4.4258218e-02
 -6.6249408e-02
 -6.5734424e-02
 -7.0777978e-04
  1.0502357e-03
  3.9352710e+00
 -7.7576444e-02
 -2.0759130e-01
 -4.8068654e-02
  3.0607337e-01
 -3.7774000e+00
 -1.3712344e-01
  9.1557905e-02
 -8.4246829e-02
 -6.5886319e-02
 -1.9528169e-02
  2.9598642e-02
 -6.6898480e-02
  2.8367540e-01
 -2.3865375e-01
  1.1737856e-01
  1.2028695e-01
 -5.5397253e-02
 -4.3353029e-02
  1.0160537e+01
 -4.6747473e-01
 -2.6781204e+00
  6.3734733e-02
 -3.2501757e-02
 -1.0604877e-01
  1.0104298e+01
 -1.0764714e+00
  1.1629978e-01
  1.4956121e-01
 -6.6822678e-01
 -1.9179225e-02
 -2.7691708e+00
  3.0648818e-02
 -4.1071076e-02
 -2.1560280e+00
 -7.7111758e-03
 -2.6281392e-02
  2.3693652e+00
 -4.6769641e-03
 -2.6683969e+00
  2.9821634e-01
 -8.2491249e-02
  2.3609729e-02
 -2.7750351e+00
  1.6120444e-01
  8.0368176e-02
 -3.1424910e-02
  4.1815395e+00
 -8.6041585e-02
  3.4428388e-02
  1.9505371e-01
  3.4278456e-02
  3.8420383e-02
  7.7427939e-02
 -1.1995071e-01
  1.0002915e-01
  2.8704352e+00
 -7.7324300e-03
  3.7896566e-02
 -2.0129945e-02
 -1.0642406e-01
 -1.5400318e-02
 -1.4182633e-01
 -2.4178792e-02
  2.2741204e-02
 -5.3512834e-02
 -4.8696972e-02
  4.8619874e-02
 -1.5697744e-02
  1.5912220e-01
  2.9333195e-02
 -1.3582803e-01
  3.7890926e-02
  2.0490646e-02
 -2.8353268e-01
 -1.7451617e+00
  6.4541362e-02
  6.4616792e-02
 -1.0220415e-01
 -1.4362996e+00
 -2.0382485e-01
  4.9564936e-03
 -7.7474505e-02
  4.9640039e-01
 -1.5664788e-02
  5.6704987e-02
 -1.7757234e-01
 -5.5815138e-02
 -2.1724425e-02
  3.1390202e-01
 -9.7785763e-02
 -1.7077101e-02
 -8.1336088e-03
  1.0441610e-01
 -3.9506415e-01
 -3.3286989e-02
 -9.3590185e-02
  4.0185618e+00
  1.5837244e+00
  4.4319987e-01
  7.5869741e+00
 -2.4737351e+00
  8.1339140e+00
 -2.6074774e+00
 -4.9175248e+00
  4.9437680e+00
 -1.1818839e+00
 -4.9692330e+00
  2.8084967e+00
 -6.0394108e-01
  4.1806293e+00
  7.0559204e-01
  4.3632817e+00
  3.0509388e+00
  2.2085183e+00
 -1.5314660e+00
  4.2850852e+00
 -3.3695624e+00
 -4.7272148e+00
 -2.2494354e+00
  3.4013426e+00
 -1.8184075e+00
  1.6639049e+00
  1.4335867e+00
  8.8305807e+00
  1.0629239e+01
 -4.9674954e+00
  2.1926992e+00
  3.4329729e+00
  8.0627084e-01
 -1.2337959e+00
 -6.4974413e+00
 -1.0992656e+00
  1.0298718e+00
  6.6990490e+00
 -6.3217664e+00
 -3.7473345e+00
 -2.0170054e+00
 -1.3243269e+00
 -1.9512259e+00
 -3.6907701e+00
  1.6069582e+00
  1.5320963e+00
 -3.6510918e+00
  9.4846660e-01
 -1.2872601e+00
  2.4967258e+00
 -1.9755954e+00
 -2.8933458e-02
  1.4599112e-02
  1.3265028e+00
  3.0160568e+00
 -3.7506232e-01
  8.4191209e-01
  8.2518923e-01
  4.6215382e-01
 -9.7395405e-02
  3.8343563e+00
 -6.8489046e+00
  1.4389316e+00
  2.6130146e-01
 -1.8489347e+00
  3.1113982e-01
 -6.6678010e-02
  3.7303120e-02
  1.4844815e-01
  3.0713262e-02
  5.5304371e-02
  8.0797076e-02
  1.6833127e-01
 -1.5654474e-02
 -8.1464348e+00
  8.9776985e-02
  7.9437479e-02
  2.0325486e-01
 -1.9783258e-02
  7.1391826e+00
 -6.6511966e-02
  2.8824933e+00
  9.4475457e-03
  2.7478366e+00
  3.0494276e-02
  3.3058333e-03
 -4.4078630e-01
 -3.1786233e-02
 -1.5386100e-01
  1.6762905e-01
 -4.3256408e-01
  2.0507142e-02
  1.1054682e-01
 -3.6824071e-01
 -1.2619703e-01
  7.1513801e+00
 -2.7790865e-01
  4.7448277e-02
  1.5882667e-02
 -1.1149681e-01
  5.9926946e-02
 -6.4744120e-03
  1.2245179e+00
  8.1385195e-02
  1.4247832e+00
 -3.0698303e-02
 -1.3068724e-02
  1.9847484e-02
 -4.1659348e-02
 -4.7325903e-01
 -2.1832159e-01
 -1.7887349e-01
  1.3501620e-01
 -7.1717083e-01
 -1.7006083e-01
 -3.7087373e-02
  1.9514161e-01
  8.8943921e-02
 -3.2909375e-02
 -5.6462204e-01
  3.9966475e-02
 -2.2949910e-01
  3.1483870e-02
 -1.6613069e+00
  1.1342555e-01
 -8.5969537e-02
  1.5049367e-02
  1.2238363e-01
  8.7396331e-02
 -1.3054802e+00
 -1.3179019e-01
  4.1103464e-01
  2.3653099e-01
  1.4431174e-01
  1.2796439e-01
  3.0220458e-01
  1.1731832e-01
 -4.0714784e+00
  2.0325026e-02
  2.1898066e-01
  2.8149743e+00
  2.0301652e-01
 -7.8204185e-01
  1.2210540e-02
  3.1136417e-01
 -4.6748068e-02
 -7.2711863e-02
  8.1348307e-02
  1.0854480e-01
  2.7471006e-01
  1.2964736e-01
  4.3718733e-02
  4.1676143e-01
  7.6961748e-02
  4.4132295e+00
  2.1470934e-02
  5.8584157e-02
 -8.5928716e-02
  5.2352615e-02
  1.1900419e-02
  7.7769175e-02
  5.2479398e-02
  5.9935334e-03
 -6.7997705e-03
 -3.6260588e+00
  1.0856473e-01
  5.6735873e-03
 -2.0483801e+00
  9.8903403e-02
  4.2349134e-02
  5.8247125e-01
 -2.4291915e-01
 -1.3648558e-01
 -5.7101872e-02
  4.8316482e-02
 -1.7257135e-02
  1.0116562e-01
  1.6434857e-01
  1.5948387e-02
 -5.3901874e-02
  2.1900678e-02
  2.1291636e-01
 -6.3184507e-02
  4.5141779e-02
 -6.9471989e-03
  6.6537247e-04
 -2.2416128e-02
  2.4462469e-02
  2.1597536e-01
  2.0975645e-01
  6.3744918e-02
  1.7629044e-02
 -2.0363327e-02
  2.2765175e-02
  1.0104811e+00
  2.3458351e-01
 -3.5403065e-02
  7.9597034e-02
  2.8762913e-01
  4.1529290e-02
 -1.4211589e-01
 -1.3057284e-01
  1.4030348e-01
  4.3771529e+00
 -3.0889783e-02
 -1.1028825e-01
  7.1491838e-02
 -1.0753221e-01
  6.5429039e-02
 -1.3994820e-02
  1.6496788e-01
 -1.9630516e-01
  2.4556682e-02
  3.4209013e-01
  1.4768864e-02
  1.6734974e-01
 -1.6934201e+00
 -1.6682157e-01
  1.5644704e-01
  3.6175013e-02
 -8.2832676e-01
  8.7064874e-01
 -4.2141435e-01
 -3.6092708e-01
 -2.6945693e+00
  3.7167594e-01
 -1.4181888e-01
  5.3943768e-02
 -3.3342211e+00
 -1.6015260e-01
 -6.5764785e-02
 -7.8669146e-02
 -3.5516717e-02
  8.1510007e-01
 -1.4223812e+00
  1.3172750e+00
  1.1679081e-01
 -2.1720981e-02
  5.6772256e+00
 -1.2504416e+00
  2.3654056e-01
 -7.9174176e-02
  3.3349609e-01
  3.3304639e+00
  2.4015107e+00
 -3.8842207e-01
 -2.1597695e-02
 -4.8288873e-01
  4.2524976e-01
 -8.5981971e-01
  3.1249096e+00
 -2.2007949e+00
  4.8092738e-01
  8.4455274e-02
  1.1081495e+00
 -1.1899639e+00
 -6.6424394e-03
 -3.5458136e-01
 -4.7359657e-01
  1.0665107e+00
 -4.9881181e-01
 -7.3029604e-03
 -4.3397903e-01
  2.0336308e-02
 -1.9024354e-01
  2.2508985e-01
 -1.4700688e+00
 -9.6382916e-02
 -2.7763709e-02
 -1.5842198e-01
 -2.0294759e-01
  5.9778830e-03
 -1.7624365e-01
 -1.2492434e-01
  1.2866476e-01
  1.4670095e-01
  1.2258545e-01
  2.2992468e-01
  6.7001909e-02
 -1.4549381e-01
  9.0765394e-02
  1.3382410e+00
 -1.8115060e-01
  7.8667112e-02
 -4.2531244e-02
  1.2618547e-02
 -1.8506056e-02
 -1.9175999e-01
  2.8019255e-02
  1.3285093e-01
 -3.0597387e-02
  2.6635846e-01
 -3.9892200e-02
  1.2589371e-01
 -1.0593025e-01
 -2.1599296e-01
 -5.2139433e-03
 -1.6683925e-02
  9.1535158e-02
  2.2279387e-02
 -2.1056829e-02
 -8.2031602e-01
 -1.6743776e+00
  5.7942532e-02
  9.2376374e-02
 -1.7226376e-02
  1.6617648e-01
  1.2418967e-01
 -1.5106897e-01
 -7.2794341e-02
 -5.1183321e-02
 -3.1951922e-01
  1.5180120e-01
 -7.1109233e+00
 -1.4202173e+00
 -2.2079108e-02
 -4.4282638e-02
 -2.2964615e-02
 -6.8102568e-02
  6.9152874e-01
  7.2997466e-02
 -1.2926242e-01
 -8.0176085e-02
  8.7672159e-02
 -2.7484334e+00
 -1.8673246e+00
 -2.9315621e-01
  8.1782162e-01
 -1.0321177e+00
 -2.7508657e+00
 -3.6819618e+00
  2.6220524e+00
 -2.6911576e+00
  4.7491652e-01
 -2.0683236e-01
  2.1195042e-01
  4.4831085e+00
  5.4882842e-01
  2.9651425e+00
 -1.0218772e+00
 -1.0490605e+00
 -3.8415861e-01
  2.9144754e+00
 -4.4716161e-01
  1.3865259e-01
 -2.7124059e+00
  8.0475563e-01
  2.0794473e+00
  9.9943811e-01
  2.1276085e+00
  6.5773863e-01
  7.8487271e-01
 -1.4095273e+00
  1.2662408e+00
 -9.3241787e-01
 -1.5856092e+00
 -1.9449993e+00
  3.2727959e+00
  1.6204033e+00
  4.0104880e+00
  7.8025591e-01
 -4.4114938e+00
 -2.5819509e+00
  1.4727936e+00
 -4.4261572e-01
 -2.0576482e+00
  9.4117272e-01
  2.6139123e+00
  8.4337229e-01
  8.2608557e-01
 -1.3318456e+00
 -9.4618380e-01
  6.4692540e+00
 -5.2547548e-02
  1.1149560e+00
  1.0504349e+00
  2.2380135e+00
 -1.1499870e+00
  2.9584116e-01
  4.5176581e-03
 -1.9069747e+00
 -4.6803617e+00
 -2.8410088e-02
  6.4961515e-02
  3.3749871e+00
  1.4968805e-02
 -3.0663056e+00
 -6.6705808e-02
  1.0866883e-01
  5.5198692e-02
 -3.9402108e+00
 -1.0051800e-01
 -1.5604756e-02
  8.2751207e-02
  1.8202282e-01
  2.3123731e-01
  6.6396129e-01
 -4.3991752e-02
 -1.4179510e-01
  1.1277199e-04
  2.0241256e-01
 -1.3113247e-01
  5.8912858e-04
  3.7837684e-02
 -3.8100231e-01
  1.0717923e-01
  8.6930496e-01
 -1.5297490e-01
 -7.3982857e-02
  1.4897486e-02
  4.8580888e-01
 -1.4039975e-01
  3.1672883e-01
  2.6198957e-02
 -7.2897375e-02
 -4.3497519e+00
  2.6227655e-02
  6.6751935e-02
 -5.8731042e-02
  3.5291058e-01
  3.2850064e-02
  7.1677208e-01
 -2.2386179e+00
 -1.3241638e-01
  3.5381934e-01
  7.8487536e-03
 -1.4334877e-01
 -1.7307669e-01
  1.7593093e-01
  1.1438122e-02
  8.0351613e-02
 -2.9255595e-02
 -1.9357009e-03
  1.5286681e-01
  4.9539927e-02
  1.2242629e-01
  3.1118153e-02
  5.5591106e-02
  1.1493689e+00
  5.9378916e-01
 -2.0665427e-01
 -1.3379211e-02
  8.1832819e-02
  1.8877791e+00
 -3.4512982e-02
 -5.3452116e-02
  6.6971883e-02
 -7.3238183e-04
  6.1651554e-02
  1.8200639e-01
 -1.1082758e-02
 -1.8800879e-01
 -7.1475893e-02
  1.1346273e-01
  3.5530493e-02
 -7.2023526e-02
  1.4877434e-01
 -1.5808210e-01
 -1.3306440e-01
 -5.4343928e-02
  1.0096718e-01
  2.1751054e-01
  2.6426325e-02
 -1.8558131e-01
 -9.6675523e-02
  6.1957560e-02
  2.5046194e-02
  5.8230523e-02
 -4.1616399e-02
  3.3306759e-03
  1.8272130e-01
  9.9265883e-03
  9.0321535e-03
 -1.3688180e-01
 -1.1231025e-01
  5.2425995e-02
 -4.2598184e-02
  1.5983485e-01
 -1.8098417e-01
  1.5827061e-01
 -8.9125812e-02
  8.5884410e-01
  2.3205243e-02
  3.3669090e-01
 -1.5495007e+00
  1.0544489e-01
 -1.4462092e+00
 -4.5633717e+00
  4.7798190e+00
  1.2608564e+00
 -1.6711470e-01
 -2.3749280e+00
  4.2582068e+00
  8.1152910e-01
 -4.3503487e-01
 -1.8561579e+00
 -7.7314582e-03
  2.8439321e-02
 -2.4712810e-02
 -2.9566605e+00
 -1.8496594e-01
 -1.0924311e-01
  1.3079784e-02
 -1.5696126e+00
 -3.3382248e-02
 -1.9677058e-01
  1.5895203e-01
 -8.2420610e-02
 -7.0139967e-02
 -2.4325221e+00
  5.5628885e-03
  1.1292085e-02
 -1.2116928e-01
 -1.4298558e-01
  1.6307142e-02
  1.4509848e-01
 -8.6786866e-01
  1.5108938e+00
  2.5828042e+00
  6.6696748e-02
  3.2954112e-01
 -1.7170821e+00
 -1.0866439e-01
 -1.4796743e+00
 -6.5967046e-02
 -8.8026869e-01
  3.2135546e-01
 -2.3810782e+00
 -8.3503142e-02
 -5.0600823e-02
 -3.9114811e-02
 -1.2044708e-01
  1.3245213e-01
 -2.6430815e-01
 -2.8737438e-01
 -3.4136372e-03
 -8.4819722e-01
 -5.0176475e-03
 -6.0038254e-02
  1.8165883e-02
  4.8622194e-01
  1.9949447e+00
 -7.2330862e-01
  3.3606029e-01
 -7.2228163e-02
 -6.5039210e+00
  4.0855074e-01
 -2.4101336e-01
  6.1039579e-01
  6.5132463e-01
 -8.7743461e-02
  5.1160419e-01
  3.7677386e+00
  1.5455869e+00
  8.2530692e-02
  8.6863585e-02
  4.9691793e-01
  3.7765920e-02
  2.6134541e-02
  9.1251485e-02
  1.9459012e-01
  3.5694009e-03
 -8.1081409e-03
 -1.1492635e+01
  1.5930511e-01
 -1.4333988e-02
  3.1187201e-01
  1.8823454e-01
  1.0703462e-03
  3.9209194e-02
 -2.0440826e-01
 -3.7291007e+00
  2.1155887e+00
 -9.3599804e-02
  2.7092244e-02
 -2.4047025e-02
  3.7138322e-01
 -2.9404923e-02
 -2.3290861e-02
 -5.9008315e-02
  1.4529838e-01
 -3.5608001e+00
  5.8014154e-02
 -7.7211158e-03
  9.6577657e-03
  3.7573241e-02
  1.7324090e-04
 -3.9269131e-02
 -3.4012068e-02
 -1.0027598e-01
 -4.7445875e-01
  2.1017212e-02
  1.0801513e-01
 -1.2421617e-01
 -1.9986005e-02
  6.3261414e-01
 -1.0786194e-01
  7.8502256e-01
  3.2819647e-02
  8.7624766e-02
 -1.0872811e+00
  1.2121767e+00
 -1.6819378e+00
  1.0233345e+00
 -2.7574791e-02
 -5.2557480e-02
  1.1165708e-02
 -2.1277723e+00
 -4.0711876e-02
  3.1709403e-01
  1.7818181e-01
  5.3003883e+00
 -6.6508986e-02
 -1.4116485e-01
 -4.4746790e-04
 -3.7043011e-01
 -1.1628008e-02
 -4.9993956e-01
  1.3688755e-01
 -1.4544177e+00
 -4.7050160e-01
  4.5609269e-01
  6.7893429e+00
 -7.8898057e-02
  4.7900176e-01
  1.6537385e-01
 -1.5641709e-03
  2.1136021e-02
 -2.8644186e-01
  3.7085229e-01
 -7.0177964e-03
 -5.7259060e-02
 -3.6556485e-01
 -2.4284680e+00
 -1.4914064e-01
 -2.5179726e-01
 -1.6067666e-01
 -8.0593944e-01
 -4.0545687e-02
  2.9389951e-01
  2.6811785e-01
  2.5003314e-02
 -1.6882211e-02
 -6.5456897e-02
 -2.0592271e-01
  3.6257589e-01
  1.9062986e-03
 -6.6089422e-02
  2.4526528e-01
 -1.7857225e+00
 -1.8820122e+00
  1.2243116e+00
 -5.2347386e-01
 -1.3187433e+00
 -6.9906063e-02
  5.6292338e+00
  1.7241833e+00
 -2.1373726e-01
 -1.7680241e+00
  4.9721756e+00
 -1.9661040e+00
  1.9557164e+00
 -2.5894775e+00
  2.7196817e+00
  1.8394361e+00
 -1.9483768e+00
 -2.3948395e+00
 -5.5841322e+00
  1.3709991e+00
 -4.3126388e+00
 -3.2615364e-01
  7.0254821e-01
 -1.8091611e+00
  1.1811197e+00
 -4.1357126e+00
  7.0391595e-01
  2.6254117e+00
  7.9852378e-01
 -6.2081456e-01
  2.6562140e+00
 -4.2002306e+00
  1.8685237e+00
 -3.0559933e+00
 -1.5639296e+00
  3.3884752e-01
  1.2518113e+00
 -4.5760369e-01
  7.1807795e+00
 -1.0395037e+00
 -6.5437967e-01
 -2.2246623e+00
  1.9061941e+00
 -5.1615828e-01
 -3.8527796e+00
  2.7217293e+00
  1.7158499e+00
  2.1014683e+00
 -3.1927786e+00
  2.0514943e-01
 -1.8170288e-01
  4.5746460e+00
 -6.3794070e-01
  6.3334960e-01
 -2.3007641e+00
  2.6856712e-01
  1.0546252e-01
 -1.3819993e-02
 -2.7213442e+00
  3.1220251e-01
 -9.2689830e-01
  1.7212577e-01
 -7.2773421e-01
  1.0868900e+00
 -8.7012835e-02
  1.0268205e-01
  2.9656968e+00
  2.6138031e+00
  1.2698098e+00
 -1.6292521e+00
  4.1453967e+00
  4.3319935e-01
  1.5755769e-02
  5.6233090e-01
  9.1433674e-01
  4.8478065e+00
 -3.0815828e-01
 -1.0559016e+00
  4.9262378e-01
 -1.8749851e+00
 -6.7617007e-02
 -1.4111960e-01
 -5.2683145e-01
  4.5758715e+00
  1.4227304e-01
 -4.4466365e-02
 -5.3140843e-01
 -5.2524805e-01
  1.2168992e-01
  7.4894279e-01
 -1.9103675e+00
  3.4038100e-01
 -9.4077289e-01
  2.8843322e-01
  2.4518595e+00
 -5.4779577e-01
 -1.7303625e-02
  1.6642145e+00
  1.1538420e+00
 -2.8289139e-01
  6.8310305e-02
 -9.0173692e-02
  7.7876687e-02
  2.7243397e-01
 -3.0054871e-02
 -1.2695632e+00
  2.0060179e+00
  1.8803503e-01
  1.3309737e-01
 -1.4461827e-02
  2.7362606e-02
 -2.5227284e-01
  1.6635754e-03
  5.9585072e-02
  9.0257786e-03
  7.5224541e-02
  3.3933684e-02
 -9.0348147e-02
  7.7715985e-02
  5.8820741e-03
  2.6111124e+00
 -8.7114021e-02
  3.6155388e-02
 -5.7385489e-02
  1.2519571e-01
 -2.3047145e-01
  4.9277443e-02
  1.1282723e-01
  1.4695579e-01
  4.6788570e-02
  6.4933851e-02
  6.5192276e-01
  6.9962037e-03
 -9.1220297e-02
 -4.4775426e-02
 -4.1244820e-02
 -3.4671828e-02
  3.7922151e-04
 -1.2000939e-02
  4.6991758e-02
  6.8046227e-02
  1.9025918e-02
  2.7900090e-02
  8.3040094e-01
  1.3118366e-02
 -4.2438000e-01
  1.1309528e-01
  8.7415449e-02
  2.2816900e-02
  1.1647131e-02
 -4.7174830e-02
 -3.7489928e-02
  1.6816938e-02
  1.5143615e-01
 -1.6424752e+00
 -2.8338894e-02
 -1.8978930e-01
  8.0639589e-01
 -3.5220644e-01
 -3.0727378e-01
 -5.7527286e-01
 -1.9493301e-01
  3.3309653e-02
 -1.4784813e-03
 -6.9935858e-01
 -4.1577435e-01
 -3.8231441e-01
 -2.6647260e+00
  6.4989531e-01
 -2.5245702e+00
  3.1844953e-01
 -4.4778121e-01
  3.5994489e-02
  1.1096154e-01
 -4.1530329e-01
  7.2110496e-02
 -5.2934134e-01
 -2.3666467e-01
 -1.4362439e+00
  9.7493732e-01
  2.3002276e-01
 -5.2128965e-01
  1.0411646e+00
  1.2873260e+00
 -6.5075517e-01
 -6.1319268e-01
  1.7268466e+00
 -3.1099923e+00
  2.6782122e-01
  2.0202732e+00
  2.0151356e-01
  4.3561578e-01
 -1.7153037e+00
  8.7677673e-02
 -2.0283379e-01
 -1.9122541e-01
  1.6120065e-02
 -6.7769952e-02
 -2.8468081e-01
  4.4967049e-01
  2.1913650e+00
 -5.2013884e+00
  3.2137092e-02
 -6.8681908e-01
 -2.1728176e-01
 -1.8512736e-01
  8.2470721e-01
 -1.2318925e-01
  8.8831428e-03
  4.0358999e-01
  1.3702200e-01
  1.4369515e+00
 -4.6664052e-02
  7.3156334e-02
 -6.6555566e-01
 -2.0290475e+00
 -6.5250085e-03
  3.5578296e-02
  1.1825003e-01
 -6.5037370e-02
  5.3381808e-02
  6.9857645e-01
 -3.0838806e-02
 -2.0266006e-02
  2.3106635e-02
 -5.5153411e-02
 -1.6019087e-02
  1.0465457e-01
  6.1433420e-02
 -7.8526407e-02
 -5.9396245e-02
  7.0274949e-02
  1.8340307e-01
 -8.6698562e-02
  1.3304788e+00
  2.3009152e+00
  6.0541239e-02
  1.5369789e-01
  2.2497588e-01
  9.5221832e-02
  8.5965991e-01
  2.6780203e-01
  4.8044410e-02
 -1.9566406e-02
  4.7866039e-02
  1.5085806e-03
  7.3861323e-02
 -1.3162790e-02
  4.9989030e-02
  3.2800888e-03
 -9.2812710e-02
 -3.1441078e-02
  7.3036104e-03
  3.7787929e-02
 -2.9763490e-01
 -7.7543169e-02
 -1.1561657e-03
 -7.2053671e-02
 -9.3358435e-02
  1.8187951e-02
  7.0841216e-02
  5.8308679e-01
 -1.6586490e-02
 -6.5779275e-01
 -6.2242001e-01
  8.5252243e-01
  5.9425968e-01
 -1.7278568e+00
 -3.2821488e-01
  2.0840894e-01
  5.6485158e-01
 -2.4973128e+00
  1.1792859e+00
 -2.3944771e-02
 -3.6364189e-01
  3.9255312e-01
  1.1444767e+00
 -1.4426923e-01
 -4.9593419e-01
 -1.0436509e+00
 -1.8035674e+00
 -1.4180852e+00
 -1.3149376e-01
  5.4681602e+00
  3.1936896e-01
 -3.5226816e-01
  1.9553263e+00
  3.7218888e+00
  1.4906434e+00
 -4.9810115e-01
 -1.3925557e+00
  2.3880558e+00
 -4.1516118e+00
 -3.8609538e+00
  3.6012971e+00
  3.3220321e-01
 -1.8235928e+00
 -4.0710835e+00
 -5.1539677e-01
 -7.9379380e-02
 -5.2842653e-01
  2.1709194e+00
  9.2222595e-01
 -4.5515528e+00
  9.7651917e-01
  3.1255498e+00
  5.3796059e-01
  3.4441318e-02
 -1.3632699e+00
  5.9555435e-01
 -4.4048302e-02
 -4.6874869e-01
 -2.0943705e-02
  1.4917171e+00
  1.0582671e+00
 -2.4384518e-01
  1.1069968e+00
  2.0316586e+00
  5.5922127e-01
  9.0124321e-01
  1.0969527e+00
  5.4445690e-01
 -2.0944457e-01
  6.8362588e-01
 -2.1201156e-02
  6.7255169e-01
  2.3769461e-01
  1.0651192e-01
  2.2864989e-03
  4.3994436e+00
 -1.7164032e+00
  7.8400034e-01
 -7.7589273e-02
  8.2316726e-01
 -2.3481915e+00
 -2.4740821e-01
  6.0564406e-02
  1.3961618e+00
 -6.4977747e-01
  1.0518928e+00
  3.4725571e+00
 -3.7915382e+00
  1.2312543e+00
 -3.5891067e-02
 -1.3603618e+00
 -9.0060717e-01
 -1.2743232e-01
  2.1273892e+00
 -1.8998232e+00
  8.0742604e-01
 -1.8491963e+00
 -1.5036408e+00
  3.2057965e+00
 -5.6604153e-01
  1.1146988e+00
  1.0107856e+00
 -2.4717329e+00
  2.0888399e-02
 -5.2424860e+00
  2.3653853e+00
  1.4954822e+00
 -7.2229707e-01
 -4.1108112e+00
  2.7660110e+00
  3.2532227e-01
  1.3843317e+00
 -2.7603235e-02
 -8.0857733e-03
  3.9244562e-02
  2.1965471e-01
 -1.7048495e+00
  7.0189923e-01
 -2.0780425e+00
  2.9081280e+00
 -8.3658838e-01
  3.6425072e-01
  7.8044161e-02
 -3.8642368e+00
 -1.0880622e+00
  2.7914011e+00
  1.2756304e-01
 -4.5941706e+00
  1.8053094e-01
 -4.4435892e-01
 -3.8520232e-01
 -1.5590725e+00
  1.1879923e+00
  5.5066907e-01
 -3.1568706e-01
 -1.8178211e+00
 -4.9867070e-01
 -8.3306593e-01
  5.6803665e+00
 -2.2573076e-01
  1.0097424e-01
  4.6360597e-02
 -1.7980431e+00
 -1.3874443e+00
 -3.1479294e+00
 -1.7273297e+00
  3.2488427e+00
  3.3007982e+00
  5.0457972e-01
  7.3020655e-01
 -2.2865593e-01
  1.0567697e+00
  7.8261250e-01
  4.5307484e+00
  3.0390871e+00
 -3.0266532e-01
 -2.0008834e-01
 -7.4698126e-01
 -4.0809789e+00
 -9.3266845e-02
  1.4191056e+01
  2.0635143e-02
  1.7659593e-02
 -3.2269198e-01
 -1.9289824e-01
 -3.8181129e-04
  1.3243403e-02
  1.1991610e-01
 -8.1761390e-01
 -5.7616875e-02
 -9.1934107e-02
 -3.6226492e-02
  5.8010329e-02
  6.9982354e-03
 -4.0572967e-02
  1.7101967e-01
 -6.6428512e-02
  1.3954434e-01
 -5.9527354e-03
 -1.9331459e+00
 -4.2354695e-02
  1.1628123e-02
  5.3636372e-02
 -1.1203989e-01
  1.1471917e-02
  1.6064198e-01
  4.6817243e-02
  3.8318891e-02
 -5.8536898e-02
  7.6722212e-02
  3.9745577e-02
 -9.0025226e-03
 -1.0250013e-02
 -2.0461705e-02
  2.3156229e-02
  1.8226070e-02
 -9.1471830e-03
  4.3510251e+00
  1.7659703e-01
  1.2932153e-01
 -8.1595890e-02
  9.4027865e-01
  2.2280987e-02
  2.3301471e-02
 -8.4280409e-02
  4.1488238e-02
  7.9008881e-03
  9.6513778e-02
  6.2353190e-02
 -7.1504973e-02
  1.5914125e-02
 -1.6753284e-02
 -3.2609373e-02
  7.3866889e-02
  6.0086334e-03
 -1.4453552e-02
 -2.4462287e-01
 -7.0788339e-02
  6.6932589e-03
  2.2123177e-02
  5.6074895e-03
 -8.8782972e-03
 -1.5482087e-01
  2.6695558e-01
 -2.0360243e+00
  1.8727112e-01
 -8.8239454e-02
  1.4947805e+00
 -1.2727712e+00
 -8.4394330e-01
  3.0478641e-01
  4.6779087e-01
  2.4266181e+00
 -4.7736373e-02
 -3.5945207e-01
  2.2693270e-01
  1.0783740e+00
  2.1908395e+00
 -8.1047106e-01
  3.6716828e+00
 -8.7832791e-01
  1.9034218e+00
 -2.9151492e+00
 -2.1617157e+00
  3.9952056e+00
 -1.1138002e+00
  3.0303645e+00
  4.7704067e+00
 -4.4689364e+00
 -3.4630184e+00
  9.0714800e-01
 -1.3163662e+00
  1.2115951e+00
 -9.3466103e-01
 -9.4322169e-01
  3.0236483e-01
 -7.7764720e-01
  8.2504648e-01
  1.8351877e+00
 -4.3010801e-01
 -1.5013087e+00
 -1.1306950e+00
  3.8907118e+00
  1.8598355e-02
  1.6378545e+00
  1.6562916e+00
 -3.1134493e+00
  1.7464305e+00
 -8.5939255e+00
 -3.9885345e+00
 -3.2322381e+00
 -1.6657855e-02
  3.1579968e-01
  3.8082647e+00
  1.5929848e+00
  4.9131947e+00
  9.1658125e+00
  2.4809763e-01
 -3.5930912e+00
  2.9405203e+00
  1.4199286e+00
  1.4417665e+00
 -1.9361255e-01
  1.4399158e+00
 -7.4097209e+00
 -6.5865207e+00
 -1.8344626e+00
 -2.8633032e+00
 -2.7688732e+00
 -8.6994267e+00
  1.9411733e+00
 -2.2520358e-02
 -1.8872291e+00
  1.2932785e-01
  3.5459798e-02
  2.2853086e+00
 -3.2147449e-02
  5.1644812e+00
  9.1542289e-02
  1.1462281e+00
  2.3100555e+00
 -7.0585549e-02
 -2.6233599e-02
  1.2570249e+00
  7.9929769e-01
  6.0889876e-01
 -1.1974552e+00
  1.5599258e+00
  1.8602589e+00
 -2.2225268e+00
 -5.0445837e-01
 -1.3157343e-02
 -8.7125707e-01
  8.4054689e+00
  3.6769333e-01
 -1.5801793e+00
  4.1181645e+00
 -7.7189350e-01
  4.4577694e-01
  3.7471097e-02
  5.1159173e-02
  2.1019585e+00
 -1.9759439e-01
  3.7020203e-01
  1.6616268e-02
 -1.2616587e-03
  2.5026178e-01
  1.7584457e-01
 -4.8748389e-02
  4.7901487e+00
  6.3779578e-02
  3.6064304e-02
  7.0985490e-01
  1.8365788e-03
 -7.9716099e-03
  2.2932936e-01
  7.9839230e-01
  6.5120004e-02
 -6.2840961e-02
 -1.0275344e-01
  1.8755343e-02
 -4.3401465e-02
  2.8926594e-02
 -2.4206907e-02
  2.8623661e-02
 -7.7111974e-02
  2.3482976e-02
 -9.2260115e-02
  5.8424091e-03
  1.6472644e-01
 -7.9532629e-03
 -1.9813122e-02
  5.2273232e-02
 -8.3183311e-02
  4.2331247e-03
  3.3467740e-02
 -7.5998902e-03
 -3.2218359e-04
 -2.1532869e-02
  7.5979191e-01
 -1.1546288e-01
 -6.5508317e-03
 -1.9977139e-02
  1.2366049e+00
  7.0334084e-02
  2.1860361e-01
 -5.5991486e-02
  1.5585643e-01
  1.1197796e-01
 -4.6661641e-02
  1.3223824e-01
 -1.1956378e-02
 -6.3152544e-02
  4.1171651e-02
  7.5088674e-03
  2.8279547e-02
  7.5488940e-02
  8.4980048e-02
 -2.4180349e-02
  2.4336737e-02
  1.4173592e-02
 -3.7379310e-02
  8.1917625e-03
  2.1610539e-03
  1.4365997e-02
 -9.3633560e-03
 -1.6965301e-01
  2.6130144e-02
  4.5014936e-02
 -1.0395725e-01
 -2.8068412e-02
 -1.1494218e-03
 -2.1433912e-02
 -1.5629049e-01
  6.4027309e-04
 -2.4210431e-02
 -2.9252213e-03
 -1.8209934e-02
  4.3705996e-02
 -5.9541643e-02
 -8.1509300e-02
 -8.8683506e-03
 -9.6650869e-03
 -1.7022928e-03
  4.7890704e-02
  2.7708076e-02
 -1.8884193e+00
 -4.4862144e-02
  1.4070149e-02
  3.3220038e-02
  4.5555566e-02
  9.5530234e-02
  1.0120530e-01
 -4.8849396e-02
  6.9732941e-03
 -2.0566589e-01
 -2.7791470e-02
 -6.6074304e-02
  9.9026740e-02
 -2.3561050e-01
 -6.7080930e-03
  9.5475107e-02
  1.9215859e-02
  1.6989831e-02
  1.6497923e-03
  2.1926416e-02
 -4.9577706e-02
  1.3023487e+00
  2.8276116e-02
 -1.1473595e-01
  1.0339631e-01
 -1.4413167e-02
  4.6640739e-02
  4.4815615e-03
 -6.4373411e-02
  5.5828616e-03
 -7.7471817e-03
 -3.1561937e-02
 -1.9397531e-02
 -2.5504453e+00
 -1.2714767e-01
 -8.7613481e-01
 -1.9608616e+00
 -2.1014657e+00
  4.4358537e-01
  1.0484251e+00
  2.5261047e+00
 -5.2938919e+00
  3.7006955e+00
 -2.1780250e+00
 -4.1689434e+00
  1.0593486e+00
  1.3622205e-01
 -4.0741997e+00
  3.1105564e+00
  2.5832350e+00
 -4.3469629e+00
 -1.9261190e+00
  2.3611827e+00
  2.0785160e+00
 -4.6516042e+00
  8.1003437e+00
  9.0747385e+00
  1.2794887e+00
 -2.0531459e+00
 -1.5124954e+01
  1.4510587e+00
  3.1553693e+00
  1.7666818e+00
 -7.2370291e+00
  4.6858535e+00
  1.6522737e+00
 -7.2143321e+00
 -2.0913401e+00
 -5.4318848e+00
  2.2659807e+00
  1.0876437e+00
  2.9894531e+00
 -2.2447710e+00
  2.5454741e+00
 -7.5205249e-01
 -2.6192648e+00
  4.6726422e+00
 -2.1156363e+00
 -3.1918654e+00
  1.9783087e+00
 -7.9274149e+00
  7.9262786e+00
 -1.6706998e+00
 -1.9633518e+00
  1.0310839e+00
 -7.5940385e-02
  5.8849895e-01
  3.8550079e-03
 -2.1409523e-02
 -1.0956419e-01
  9.6972445e-03
  2.3077239e-01
  1.1522733e-01
  1.9148597e-03
 -1.3801125e-02
  3.0510416e-02
 -8.4603116e-02
 -2.2507742e-01
  1.2694989e-02
  2.3915242e-01
 -5.9433699e+00
 -5.8826856e-02
  1.9103990e-01
  4.8347816e-02
 -2.8878916e-02
  4.4538606e-02
 -3.3197496e-02
 -2.0647503e-01
  3.2824606e-02
  5.4278653e-02
 -7.6131426e-02
  5.4624893e-02
  8.2604855e-02
  7.9604797e-06
 -1.4875045e-02
  1.4837679e-01
  1.8937893e-03
  2.6580194e-01
  2.0803520e-03
  1.2677518e+00
  1.8036112e-01
 -5.8494378e-02
 -4.4416554e-02
 -6.5209125e-03
  6.5196171e-02
  7.3808329e-03
  3.2521930e-02
 -3.2374874e-02
 -1.0285945e-01
 -5.5180240e-02
  7.0553971e-04
 -2.9687162e-02
 -4.5070134e-02
 -8.7052751e-03
 -7.7714361e-03
  6.6933110e-02
 -2.0572128e-02
 -2.1716066e-02
 -1.3636193e-01
  3.0411232e-02
 -9.6824281e-03
  1.4566677e+00
 -4.4923067e+00
  3.7356412e-01
 -1.1161863e+00
  1.8430182e+00
  2.0625300e+00
  3.4787112e-01
 -2.3735106e+00
 -2.6445374e+00
  1.5264128e-01
  1.2913120e+00
  9.0415335e-01
 -1.4297937e+00
  2.7356374e-01
 -1.5230280e+00
  1.3559998e+00
  4.8360281e-02
  1.4510362e+00
  5.6436863e+00
  1.3133955e+00
 -4.4655800e+00
 -2.0359299e+00
  2.4650590e+00
  1.7381426e+00
  2.1525846e+00
 -1.2818375e+00
 -2.1244366e+00
  2.9504561e+00
 -6.2209004e-01
  1.7330922e+00
 -1.8563893e-01
 -3.4911344e+00
  4.1842456e+00
 -2.3113251e+00
  1.9351108e+00
 -3.8039026e+00
  2.6908526e+00
  2.4590828e-01
  8.1836820e-01
  1.3296888e+00
 -3.6556642e+00
 -3.2999654e+00
  1.3573887e+00
 -9.6330948e+00
 -6.5639609e-01
 -4.9775715e+00
  9.1624057e-01
  2.5367129e-01
 -1.6647128e+00
 -5.9342033e-01
  5.2642774e-02
 -2.6867464e-01
 -1.1397386e+00
  6.2073803e-01
  1.0762077e-01
 -7.8018248e-02
 -9.2244841e-02
 -5.9798717e-01
  3.3288166e-01
 -6.5431499e-01
  1.1325242e-01
 -1.2557323e-01
 -5.6138463e+00
 -4.9562690e-01
 -7.5075850e-02
  7.0454973e-01
 -1.0312857e-01
 -5.1869941e-01
 -8.2846028e-01
  2.4152910e-02
 -7.1205013e-02
 -8.3821811e-02
 -1.4740057e+00
  3.5776019e-01
 -3.5125306e-03
 -1.9601621e-02
  7.1776405e-02
  8.1357127e-03
 -1.6396168e-01
 -4.9904352e-01
  8.3043598e-02
  3.4460476e-01
  6.1843884e-01
 -1.3335946e-01
  2.1667006e+00
 -1.5326811e-01
  6.1940979e-02
  4.5721269e-01
 -1.5858392e-01
  6.9907713e-03
  3.0767876e-01
 -1.4407893e-01
  1.0152046e-01
  1.2291829e-01
 -3.4434846e-01
 -1.0300534e+00
 -7.8365274e-02
 -2.4417944e-02
  2.0236549e-01
  4.3879228e+00
 -1.3245100e-01
  1.4936070e-01
  6.8858927e-01
  5.7243071e-03
 -4.8559859e-01
  9.3781557e-03
  3.0411629e-02
  1.4543986e-02
  3.6262330e-02
 -7.3604994e-02
 -7.4056044e-02
  1.7066668e-01
 -2.1795528e-03
 -1.9911779e-01
  8.0945551e-02
  1.8519025e-02
  1.1846869e-01
  2.6814470e-01
  7.5382404e-02
  9.9542946e-02
  2.5057515e-02
 -3.5699837e-02
 -3.3440594e-02
  3.5052337e-02
  2.9996107e-03
 -4.8420846e-02
  2.3562947e-02
 -1.0364525e-02
  2.2018850e-02
  9.7328303e-03
 -3.3550426e-02
 -8.8149365e-03
  2.1641143e-03
 -5.0476398e-02
  2.4015792e-02
  1.1185621e-02
 -1.2106609e-01
  5.1758081e-02
 -1.8755902e-02
  4.6397945e-01
  1.9558506e-01
 -8.1965409e-02
  7.0442840e-02
  7.5344615e-02
 -6.2274607e-03
  5.2704525e+00
  4.2244025e-02
 -1.3849814e-01
  8.4688701e-02
 -6.5279370e-03
 -6.5703556e-02
  1.7714201e-02
  8.4655590e-02
 -5.7361972e-02
  9.1075599e-03
  9.1456342e-03
  8.3748847e-03
 -2.0787057e-02
  2.5763877e-02
  2.5914809e-02
 -5.2171651e-02
 -2.3245400e-02
  2.7900403e-02
  1.6947158e-03
 -9.4276015e-04
 -6.2649831e-02
  4.6862176e-01
  2.9192190e+00
  1.3843210e+00
 -1.1623633e-02
  3.4577558e-03
  2.3081552e-02
  2.6400667e-02
  7.4072734e-02
  1.0231835e-01
  1.2691055e-02
  1.1601274e-01
 -5.7635317e-03
 -2.5322060e-03
  7.0229299e-02
 -6.9397027e-03
  6.9913223e-02
 -3.2725371e-04
 -5.1774971e-02
 -4.6151942e-01
 -2.3809453e-02
 -8.4820762e-04
  1.1856502e-01
 -4.2169123e+00
  8.0730999e-03
  1.1894633e-01
 -3.5389680e-03
  3.0796224e-02
  1.3889030e-02
  3.6265790e-01
 -2.2847127e-02
 -1.5893534e-02
  2.9064819e-02
  5.4021932e-02
 -5.0193176e-02
  1.3722096e-02
  9.8011680e-03
 -2.1358326e-02
  8.1250109e-03
 -4.3886673e-02
  6.6926859e-02
 -3.7291598e-02
 -1.0703420e-02
 -1.1525144e-01
  1.1678410e-03
 -7.2164019e-04
 -3.1730494e-01
  5.2561823e-02
  4.8780799e-02
  5.8572218e-02
  2.1283740e-02
 -2.8315566e-02
 -1.2847172e-02
 -1.6127247e-02
  3.7892949e-02
  4.1032609e-02
 -2.3207510e-02
 -1.3324043e-02
  7.2243176e-02
  1.0969851e-02
  4.5540676e-02
 -5.4856241e-03
 -3.1437042e+00
 -6.0660586e-02
  2.8288327e-02
 -6.0286358e-02
  4.0281586e-02
 -2.0836925e-02
  2.9894331e-01
 -1.4828234e-02
 -2.5073758e-01
 -1.2903907e-02
 -3.2489640e-01
 -1.0917446e-02
 -1.5773688e-01
 -8.4687071e-03
  5.2683139e-03
  1.7783849e-02
 -8.6972125e-02
 -1.2065080e-02
 -3.8072783e-02
  7.1917367e-03
 -1.1444332e-01
 -7.0185477e-01
 -3.4460504e-02
 -1.7036869e-01
 -3.9910179e-02
 -2.6514091e-02
 -9.8159008e-02
  1.7161395e-02
 -2.6655907e-02
 -1.1708775e-01
  2.4614722e-02
  1.6341347e-02
  6.4281151e-02
  6.0906816e-02
 -6.7757592e-02
  5.2993447e-02
 -9.4403312e-02
  5.5680249e-02
  2.8101737e+00
 -7.5943306e-02
 -3.8155157e-02
 -1.9455809e-02
  1.1770889e-01
 -1.8227298e+00
  5.1346916e-01
 -2.4754412e+00
 -1.9016703e+00
  7.4370575e-01
  8.4954572e-01
 -1.0250809e+00
  1.3325333e+01
  2.7588400e-01
 -1.9591159e-01
  4.5115252e+00
 -4.0516105e+00
  1.1153355e+00
 -1.8539377e+00
  3.5424311e+00
  2.1128796e-01
  3.7560299e-02
 -1.0901139e-01
  2.4084868e+00
  3.5911236e+00
 -9.5190801e-02
 -3.3640015e+00
  2.1796615e+00
 -6.4453137e-01
 -2.0392694e+00
  8.2720950e-02
 -3.2464237e+00
  2.0154228e+00
 -7.2514993e-01
 -4.9270740e+00
  1.5599207e+00
  6.9226146e+00
 -3.6960335e+00
  5.7946062e+00
  2.2745223e-01
  8.8666563e+00
  3.5849288e+00
 -4.1509943e+00
  1.0163369e+00
  2.2911420e+00
 -6.6004243e+00
 -4.1836004e+00
  2.3293735e-01
 -1.0743972e-01
 -2.3015881e+00
 -4.2488584e-01
 -8.7340450e-01
  7.7015050e-03
 -9.4939053e-02
  2.5657233e-02
  3.5389059e+00
  1.2380391e-02
  4.4700513e-03
 -1.0762277e-01
  6.3393241e-01
 -3.6955945e+00
  1.9914933e-01
  1.3394633e-01
  1.8043816e+00
 -5.4187608e+00
 -9.3627906e-01
  3.2326884e+00
 -1.4450176e+00
 -4.1408148e+00
  5.7669240e-03
 -3.1284335e-01
 -2.0251200e+00
  2.4625319e-01
 -1.2833731e-01
  9.6331625e+00
 -9.9246866e-01
  5.7727427e+00
 -3.8449888e+00
  1.2010204e+00
  4.4856219e+00
 -2.0237837e-02
 -9.8964208e-01
  1.0394655e+00
  1.3568186e+00
 -2.6313931e-01
  6.8531349e-02
 -4.9707375e+00
 -2.8287494e+00
 -6.8431050e-01
  2.2512970e+00
 -3.0444996e+00
  5.7651591e-01
 -1.0552042e+00
 -3.7786553e+00
  3.2619855e+00
  1.3856598e+00
  4.9952030e+00
 -2.2869911e+00
 -3.8867798e+00
  2.1872723e+00
  8.5484797e-01
  2.6002190e-01
 -2.4446373e+00
 -1.2578895e+00
  6.7702327e+00
  1.1845809e-02
 -2.5606351e+00
 -3.3051095e+00
  4.1694809e-02
  2.8574513e-02
  5.1035803e-02
 -4.4085914e-03
 -7.2071046e-02
 -1.5795767e-02
 -1.3282223e-01
  3.2688815e-02
 -7.5216589e+00
  8.6751103e-02
 -3.8876472e+00
  2.8518927e-01
 -1.2545334e-02
 -8.5778162e-03
  3.2912404e-03
  9.0560671e-03
 -1.0553231e-02
 -1.0740881e-02
 -6.3041054e-02
  6.6534184e-02
  2.6525265e-02
  1.4491348e-01
 -5.5787694e-02
  3.2213390e-02
  5.7697974e-02
  4.0131677e-02
  5.5356942e-02
  6.4617835e-02
  1.6214985e-01
  1.3805273e-01
 -2.8745435e-02
  1.4673206e-01
 -1.3488103e-01
  7.1976140e-02
 -5.5738143e-04
 -1.1326294e-01
  3.2318798e-01
  1.8991151e+00
  9.9920698e-02
 -7.1448013e-02
  2.5317086e-02
  3.4850031e-02
 -5.1829949e-02
  2.4193190e-02
  5.9701256e-02
  7.2866552e-02
  2.0072281e-02
 -1.1703366e-02
  8.8111833e-03
 -2.7579399e-02
 -2.6448986e-01
 -1.0351025e-01
  2.6139617e-04
  2.5759358e-02
 -2.1897322e-01
  3.5615657e-02
  4.4681832e-02
 -6.0205299e-02
  9.9428810e-02
  2.8726509e-01
  1.7764490e-02
 -7.0858204e-01
  6.2340146e-01
  2.7495954e+00
 -1.0228623e+00
 -1.3743964e+00
  3.1026663e-02
 -3.1395581e+00
 -6.4153641e-02
  2.3757310e+00
 -2.7090723e-02
 -2.5190308e+00
  1.3015738e-01
  2.9822812e+00
  1.9034513e+00
  8.6290461e-01
 -5.9644890e-01
  6.1193071e-02
 -2.2983844e+00
 -6.0418191e+00
 -1.0191530e+00
 -1.4260262e+00
  7.6177973e-01
  1.9304733e+00
  4.9921560e+00
 -7.6949850e-02
 -3.2240541e+00
 -2.0919938e+00
 -4.4051912e-02
  4.0277019e+00
  6.5948076e+00
  2.0390360e+00
 -4.1020875e+00
  1.4378470e+00
  7.6185244e-01
  3.1135685e+00
 -4.4038999e-01
 -1.2607294e+00
 -1.4259088e+00
 -5.4002784e-02
 -1.7225555e+00
  2.6824377e+00
 -4.5657146e-01
 -3.8719365e-01
 -2.3175824e+00
  7.5522810e-01
  1.9483259e+00
 -3.5706967e-02
 -1.3904434e-02
  7.0456159e-01
  1.5641250e-02
  4.8390888e-02
 -6.5168463e-02
 -4.3102413e-01
 -1.0951180e+00
  3.2566116e+00
  6.9586104e-01
  3.8534384e+00
  3.2343552e-01
 -5.8660704e-01
 -3.9682631e+00
  5.7888865e+00
  1.4095497e+00
  1.5452644e+00
 -2.0125933e+00
  2.9760273e+00
 -2.3036413e+00
 -7.4861312e+00
  1.9062780e+00
 -1.0958643e-01
 -7.4147576e-01
  2.7461536e+00
  4.9857646e-01
 -5.2578821e+00
  1.7060107e-01
 -2.3757012e+00
 -3.5007894e+00
 -1.2317011e+00
 -6.6316938e+00
 -1.6753066e-02
 -4.5834056e-01
 -2.3549569e+00
  2.5388879e-01
 -7.7988338e+00
 -3.0445132e+00
  2.6713057e+00
 -8.0236816e+00
  1.8299721e+00
  5.5857247e-01
  3.5212488e+00
 -1.3256004e+00
 -5.1301766e-02
 -8.4916681e-01
 -1.6484216e-02
  1.8016353e+00
 -1.5101247e+00
 -2.0809586e+00
 -3.3977768e-01
  3.2568150e+00
  6.0315984e-01
  4.5508142e+00
  2.5668895e+00
 -1.4000906e-01
  1.1404048e+00
 -9.2062980e-02
 -2.7216573e+00
 -4.3434322e-01
 -2.1727647e-01
  1.5860790e-01
 -5.3453796e-02
  4.8540249e-02
  4.5481011e-02
  1.8162316e-01
 -6.0053849e-01
 -1.7443429e-01
  2.1753766e-01
  1.8915664e-02
  8.2822479e-03
  9.1800794e-02
  5.9067090e-03
  1.4502156e-01
  4.8925903e-02
 -5.0966226e-02
  9.0067238e-02
  8.4653437e-02
  2.2867467e-01
 -5.5150729e-02
 -5.6974161e-02
  7.1812034e-02
  4.9815118e-02
  1.2689359e-02
 -2.0625154e-03
  8.4319733e-02
 -4.4644706e-02
  4.1676541e-03
  7.5637293e-01
  3.9407868e-02
  4.4890929e-02
  2.1831715e+00
 -4.7139293e-01
  5.3584799e-02
 -2.0370744e-02
  2.5677197e-03
  1.2457279e-02
 -6.6275962e-02
  7.5111397e-02
  8.8159546e-02
  2.9696074e-01
  1.1744475e-02
  9.4560776e-03
  5.5219483e-02
 -2.7952429e-03
 -7.6582581e-02
  2.4803936e-02
  3.7020765e-02
 -8.2412563e-02
 -1.1121412e+01
 -6.0804803e-02
 -4.1476525e-02
 -6.3072972e-02
  8.2361465e-03
  2.0734308e+00
 -1.7450247e+00
  2.3570883e+00
  4.3124107e-01
 -4.2077789e+00
 -1.9752572e+00
  8.6252642e-01
  7.2089291e-01
  3.4516871e+00
  8.9777184e-01
  5.1211154e-01
 -4.4652605e-01
 -3.2784905e+00
 -3.7409175e-02
 -1.1403146e+00
 -1.1526846e+00
  4.1430426e+00
 -3.5532043e+00
  3.6219335e+00
  1.0665413e-01
 -2.5834680e+00
  1.4016054e+00
 -1.8821695e+00
  2.9598038e+00
  7.2884075e-02
  2.3128219e-01
  1.9012105e+00
  1.9406793e+00
 -1.5995420e+00
 -4.2923393e+00
  6.9285935e-01
  1.8928956e+00
  3.5738189e+00
  2.1439452e+00
  3.5105205e+00
 -3.9518943e+00
 -6.4719210e+00
 -3.6917108e-01
  8.7926167e-01
 -1.2329729e-02
  9.6087050e-01
  2.4306753e+00
 -1.6889232e-03
  5.7971990e-01
 -1.3779781e+00
  6.3774598e-01
 -2.6475129e-01
  6.9190663e-01
  2.1503248e+00
 -4.0666284e-03
  7.6297939e-01
  6.4176507e-02
 -1.8361328e-02
  3.5140954e-02
 -1.8901278e-01
  1.1800919e-02
  2.9013224e-02
  2.4437410e-01
  2.1751676e-01
 -3.6466829e-02
 -2.5859392e-01
 -1.5755285e-02
 -2.9072873e-02
 -4.5239410e-01
 -7.0069693e-02
  1.6814314e-01
 -3.1447213e-02
 -5.5522829e-02
  6.6839550e-03
  3.1770718e+00
 -4.1039590e-02
  3.5686683e-02
  7.2974013e-03
  7.2944146e-03
  9.0944402e-02
  2.9205236e-01
 -1.0188109e-01
  6.1103124e-03
  1.1701330e-01
  3.3533528e-02
 -2.5413965e-03
  1.3025720e+00
 -1.6488013e-01
  4.7794066e-02
 -4.7300783e-01
 -4.4652630e-02
 -6.5381214e-02
  1.8480717e-01
  1.0363358e-02
  1.3399172e-01
 -7.7496603e-02
  5.5087663e-02
  2.4935450e-02
  2.2296067e-03
 -7.4189372e-02
  6.7022629e-02
  7.6505087e-02
  1.0549188e-01
  5.0867669e-02
  7.9310440e-02
 -4.8119228e-02
  8.6164713e-02
 -1.9729003e-02
  4.2487439e-02
  2.3854027e-02
 -6.3258126e-02
 -1.3623167e-02
 -1.1161488e-01
 -1.5336220e+00
 -1.0868388e-01
 -1.2699627e+00
 -5.8822793e-01
 -1.9322436e+00
  5.4979140e-01
 -1.2784187e+00
 -8.0842524e+00
  2.1565306e+00
  9.5555700e-02
 -3.0147981e-02
 -2.0365317e+00
  1.2423848e+00
  6.4366467e-02
 -2.3062181e-01
 -7.6175541e-02
  2.2933329e-02
 -8.8865921e-02
 -7.8899592e-01
 -3.3891897e-03
 -1.9576194e-02
 -6.9743663e-01
 -7.4465573e-01
 -9.1626048e-01
  1.1634617e-02
  1.6712217e-01
  2.4534839e-01
 -3.3470914e+00
 -3.1562337e-01
 -1.1822274e+00
  1.4815006e-01
  2.4672408e+00
  4.2089353e+00
  1.2366104e+00
  1.9881898e-01
  5.6816965e-01
 -2.8464103e+00
 -1.5298487e-02
 -4.2944398e+00
  9.9433243e-02
 -4.0970441e-02
  8.8733512e-01
 -4.4536427e-02
  1.2337776e+00
 -5.2410878e-02
  3.2612301e-02
 -1.7618476e-01
  2.4289017e+00
 -1.6920142e+00
 -1.7163765e-01
  3.4733724e-02
  1.3247056e-01
  1.2883651e-01
  1.2076493e-02
  4.3104830e+00
 -2.3861885e+00
 -3.5785183e-01
  4.3721194e+00
  7.1252584e-01
  5.5357776e+00
  4.5245008e+00
 -3.6394284e+00
  3.1012456e+00
  2.2566669e+00
 -1.5666623e-02
  3.8807356e-01
 -8.0301128e-02
  6.1666649e-02
  1.1922771e+00
  4.3519169e-01
  1.5997406e+00
 -1.4040817e-02
  2.3140793e+00
 -1.2508882e+00
  3.7165663e-01
  4.1806364e+00
 -7.9910986e-02
 -4.5648613e+00
  4.9146600e+00
  3.4020789e+00
  8.0996957e-03
  4.5162067e+00
 -1.9394074e-01
  2.5886893e+00
  1.3969085e-01
 -7.0665627e+00
 -1.7385651e-01
 -1.1921791e+00
  2.1772964e+00
  3.1073976e+00
 -1.3729070e+01
  1.3176459e+00
 -6.0529995e-01
  6.5213103e+00
 -3.3816617e+00
  9.6850127e-02
  1.3040380e+00
  4.9028221e-01
  7.7386820e-01
  4.6743117e-02
 -1.7152254e-01
  8.0961123e-02
  1.1033435e-01
  9.7330324e-03
 -1.1974757e+00
  8.8979490e-04
  4.7402024e-02
  6.8697184e-02
 -2.3364964e+00
  7.7103025e-01
  2.0074978e+00
 -4.3837363e-01
  6.4709967e-01
 -1.0802009e+00
 -2.4019268e+00
 -5.6960315e-01
 -1.0472325e+00
 -6.6676341e-02
 -2.2991881e-01
 -3.4677380e-01
 -2.9059133e-02
 -1.0930487e-02
 -2.7303677e+00
  3.4201764e-02
 -5.0877988e-01
  9.7557716e-03
 -1.2881789e-01
 -5.9269780e-01
  3.1899577e-01
 -2.8307173e+00
 -3.9185488e-01
  1.1484589e-01
  2.4296716e-03
 -8.7517059e-01
  2.1983117e-03
  2.2309351e-01
 -2.0642915e+00
  6.8615204e-01
  5.6421523e+00
 -1.2254908e+00
  7.0363387e-02
 -6.7654639e-01
 -3.4242705e-01
  1.0082766e+00
 -5.3047400e-02
  1.1541761e-02
 -3.2085717e-01
 -2.4252212e+00
  2.7707690e-01
 -4.6037751e-01
 -1.3882720e-01
  1.7471069e-01
 -1.1884721e-01
  5.9675062e-01
  1.8769503e-02
 -1.6220459e-01
  5.7295024e-01
 -9.2697807e-02
 -1.1595017e-01
  1.9580912e-02
  3.1732105e-02
  1.2815519e-01
  1.6061058e-02
  2.3390863e-02
 -4.2310365e-02
  2.2473094e-01
 -3.8563039e-02
 -1.2077965e-02
  8.3837174e-03
  1.2974685e-01
 -2.1262825e-01
  1.1483217e-01
  5.1020451e-02
 -5.9694808e-02
  6.9820881e-02
 -2.5157960e-02
 -1.8726786e+00
  1.4881290e-01
 -6.1927613e-02
 -9.3730897e-02
  3.5705399e-02
  4.4002041e-02
  1.0216218e-02
 -1.3405332e-01
 -1.3239878e-02
 -1.3430509e-01
 -7.6337084e-02
 -3.0085942e-02
  7.3923841e-02
 -3.5029657e-02
  1.1150099e-01
  6.3857026e-02
  4.3002330e-02
  9.6481247e-03
  1.2548344e-01
  5.5937923e-02
  1.4053023e-01
 -3.3956088e-02
 -9.8095937e-03
  3.6425330e-03
 -9.4285840e-03
 -2.3115966e-02
 -2.5091830e-01
 -1.4424883e-04
  1.9204620e-02
  2.7397845e-02
 -1.2188861e-02
 -7.3008295e-03
  3.9673574e-02
  1.7556120e-02
  2.6850305e-02
  1.6818313e-02
  2.2239802e+00
 -5.3435706e-02
  8.1265066e-04
 -3.2665823e-02
 -3.0008107e-02
 -1.1963852e-01
  3.1449024e-02
 -1.7487332e-02
 -1.5115902e-01
  7.9921044e-02
 -7.3055154e-01
 -3.7317842e-03
 -2.0837212e-01
  9.7284548e-02
  5.5375093e-01
  8.2954422e-02
 -1.2791198e-02
  7.6818004e-02
  2.7410554e-02
  3.2908939e-02
  9.8584823e-02
 -3.1908959e-02
 -1.4510887e-02
  1.3038970e-02
  3.4689980e-03
 -1.1525216e-01
  4.5019474e-02
 -2.6610505e-02
  1.8148836e-01
  2.7148496e-02
 -2.2327825e-02
  1.1771899e-02
 -2.5744669e+00
  4.6499446e-02
  4.8814468e-02
 -1.2855989e-01
 -2.5796509e+00
 -4.5747515e-02
 -2.2505870e-01
 -7.3232844e-02
 -2.8181708e+00
 -6.3529938e-02
 -2.5228966e-02
  4.5477398e-02
 -1.6654022e-01
  4.7945060e-02
  6.5623850e-02
 -5.7384469e-02
 -1.3766431e+01
  8.0528418e-03
 -5.7327431e-03
 -3.5751868e-02
 -1.3702966e-01
 -1.2116535e-01
 -2.8239865e-02
 -9.4203673e-02
  1.6680745e-02
 -9.5415413e-02
 -3.5860524e+00
 -8.3429096e-03
 -1.4849220e-01
  4.1596126e-02
  9.0071529e-02
 -1.3460016e-01
  8.9855518e+00
  1.2211676e-02
 -8.6013405e-03
  7.0293304e-03
 -6.4578086e-02
 -5.8285788e-02
  2.1786839e-02
 -2.4413787e-02
  1.0681667e+00
  1.1482455e-01
  8.4928662e-02
  3.7288088e-02
 -1.7623967e-03
 -1.1218780e-01
  8.2455724e-02
  5.3040475e-02
 -4.5532938e-03
  5.3881444e-02
 -1.2756860e-01
  5.5782642e-02
 -2.5620773e-02
  9.3607657e-02
  4.5060062e-01
 -3.5065129e-02
 -1.2310939e-01
 -5.0218768e-02
  9.2246970e-03
 -4.4469442e-02
 -2.0064952e-02
  4.7178157e-02
  5.8909059e-02
  3.4707708e+00
  2.5286108e-02
  6.1510470e-02
 -3.2134822e-03
  5.8881775e-02
  1.0316057e-01
 -1.5433152e-01
  2.5029305e-01
 -5.4808324e-03
 -7.4199308e-03
 -3.1947546e-02
  5.8256621e-03
 -3.4717478e-02
 -1.7298797e-01
  9.8291403e-03
  3.0592464e-02
 -1.6628067e-01
  1.0367888e-01
  1.9003369e-02
  1.0874648e-01
 -1.1978701e-02
 -3.8817495e-01
  1.5691312e-01
 -1.7700467e-02
 -1.9647370e-03
  1.8406403e-03
  6.2731519e-02
  1.1179714e-01
 -5.0717890e-02
 -1.6991422e-02
  1.8129813e-02
 -1.0893451e-02
  8.1497822e-03
  4.5590941e-02
 -7.0052240e-03
 -1.1654316e-02
  4.7186330e-02
 -2.4743533e-02
  3.4254147e-03
 -2.8308967e-02
 -1.5643950e-01
 -2.8086560e-02
 -7.0880782e-03
 -1.2189616e-02
 -7.6651454e-02
 -1.2419448e-01
  9.8089710e-02
  2.0856718e-02
 -6.8016708e-02
 -7.6110584e-01
  6.8317712e-03
 -3.7630600e-01
  1.1816227e-02
 -7.9066262e-02
 -2.6968267e-02
 -6.5322514e-03
 -4.5494460e-02
 -3.4208097e-02
 -1.2277614e-02
 -7.5156391e-02
 -2.4869399e-02
  2.4708077e-02
 -7.6738253e-02
  3.3840574e-02
 -1.5030894e-02
  2.0512737e-02
  1.2578863e-01
 -3.0802274e-03
  4.5167360e-02
 -3.2706551e-02
 -1.1282220e-01
  3.0305391e-02
 -6.8530954e-02
  4.3853819e-02
 -9.1698241e-01
 -2.0027418e-01
 -5.2286712e-03
 -1.1685042e-02
  3.0168214e-01
  8.0089755e-03
 -4.2976052e-02
  2.5622545e-02
  1.8355113e-02
 -1.9521185e+00
 -3.5546836e-02
 -4.5624129e-02
 -6.5545812e-02
  1.8359792e-01
  9.3702507e-01
  7.9671919e-02
  2.7348205e-02
 -3.4142844e-02
 -4.8543744e-02
  2.2132996e-02
 -9.6141677e-03
  7.9347432e-02
 -3.3130921e-02
 -8.6686075e-02
  7.8299731e-02
 -9.0906359e-02
  9.5761828e-03
 -3.2194849e-02
 -2.4881812e-02
 -6.8031678e+00
  3.9795369e-02
 -1.2976229e-03
 -1.4406738e-02
  2.3783591e-02
 -8.8974588e-02
  2.4083599e-02
  6.2998667e-02
  1.0874487e-02
 -1.2564176e-01
  2.1057158e+00
 -8.4891051e-02
 -1.4503471e-02
  8.4243752e-02
  5.5959583e-03
 -2.1960957e-01
 -8.7841200e-03
  4.2677380e-02
  8.4982313e-02
 -1.5260771e-02
 -4.5280281e-02
  1.2553910e-02
 -3.2602127e+00
 -9.1988915e-01
 -2.7456458e+00
 -4.3815403e+00
 -6.8900104e+00
  5.9404910e-02
  1.0832626e+00
 -3.3603988e+00
 -2.0277278e+00
  2.5587265e+00
  6.4819209e-02
  2.6006961e+00
 -5.1752943e-01
 -4.2769766e+00
  6.0920057e+00
  2.6993794e+00
  1.6364603e+00
 -2.3259354e+00
 -5.1749725e+00
  1.8204273e-01
 -4.4501519e+00
  4.8309855e-02
  5.9153265e-01
  1.9674784e+00
  3.8875580e-01
  1.9292064e+00
  3.5382481e+00
  7.3175907e-01
 -1.5828264e+00
  2.2542658e+00
 -1.0164454e+00
 -4.9249282e-01
 -2.2299764e-01
 -4.7530727e+00
  4.2790490e-01
  1.0849638e+00
 -1.0746663e+00
  9.0687120e-01
  6.2937555e+00
 -2.1265178e+00
  1.8334187e+00
 -2.2496474e+00
 -1.5749404e-02
  1.1811914e-02
 -5.6162363e-01
 -1.2264171e-01
  1.1809770e-02
 -2.2869036e+00
  5.4140916e+00
  7.1314074e-02
  5.9235478e-03
 -8.7506786e-02
  3.2253531e-01
  8.4765889e-03
  2.5516123e-01
  1.9466219e+00
 -6.8307006e-01
  4.5408714e-01
 -1.4547693e+00
  1.9689291e+00
  1.1148133e+00
  1.7522676e+00
  1.1975120e+00
 -3.4332044e-02
  5.2618247e-01
  1.0624827e+00
 -7.3595607e-01
  1.8155946e-01
 -9.3796980e-03
 -7.9720062e-01
 -2.1710875e+00
  1.9997570e-01
  1.3586879e-01
  4.1353393e-01
  5.7628924e-01
  1.6960719e+00
 -1.7407732e+00
 -2.0194685e+00
 -6.3124555e-01
 -5.3726035e-01
  3.6568387e+00
  1.1050739e+00
  2.2547905e+00
  4.2596130e+00
 -1.4568633e+00
  1.4699763e+00
  4.8575001e+00
 -1.0931718e+00
 -5.8165336e-01
  2.1987443e-01
  3.1951649e+00
  2.0912788e+00
 -1.6792969e-01
  3.0124371e+00
 -6.2505923e-02
  8.4821063e-01
  1.1929213e+00
 -9.8624802e-01
  4.7584173e-01
 -4.8797655e-01
  4.6052718e-01
 -1.6251808e-01
 -1.8216796e+00
  2.1673304e-03
  4.5771871e-02
 -4.0277589e-02
  5.7834558e-02
  6.2475577e-03
  1.2308167e+00
 -1.8239331e+00
  4.1554813e+00
 -1.0954994e+00
  7.8688371e-01
  7.9782653e+00
  3.5071008e+00
 -2.2053406e+00
 -4.2443790e+00
  7.7638309e-03
  1.3149054e+00
  4.2538342e+00
 -3.4117762e-02
 -1.4099295e+00
 -1.6790981e+00
 -4.4678715e-01
  1.5676703e+00
  1.7650712e-01
 -5.3103151e+00
  1.3586897e-01
 -3.7584224e+00
 -1.4938002e+00
  1.9131527e+00
 -2.1890292e+00
 -2.7704678e+00
  1.7508721e-02
  4.4836849e-01
 -2.3190954e+00
  7.4025025e+00
  1.0312301e+00
  1.4997617e+00
 -3.6231208e-01
 -5.1944146e+00
 -1.7151593e+00
  3.7957553e-02
  8.7025726e-01
 -4.1864929e+00
 -5.0819021e-01
  4.9664578e+00
  5.9997839e-01
 -3.4101725e-01
 -4.6969872e+00
 -6.2655292e-02
  1.6554346e+00
  1.3413471e+00
  2.6431835e+00
 -9.7438041e-03
  3.6835256e+00
  2.6827333e+00
  4.1353099e-02
  1.1336548e+00
 -3.9679945e-02
 -5.7793421e-01
 -3.5458099e-02
  1.4275751e+00
  2.3541067e+00
 -2.8298664e-01
 -1.5555124e-01
 -4.8610377e+00
 -2.4713137e+00
  5.3618664e-01
 -9.8902214e-01
  9.4492893e+00
 -5.2634568e+00
  5.5517306e+00
  5.1448584e-01
 -2.4571548e+00
  5.2892107e-01
 -1.3094980e+00
  2.3280590e+00
  1.9012557e-02
  2.9261217e+00
 -2.9001708e+00
  1.4285833e+00
  4.1636333e+00
  2.0475469e+00
 -1.0099663e+00
 -7.8419275e+00
 -1.4498218e+00
 -4.0283437e+00
 -5.3560650e-01
 -5.2549520e+00
  2.3782864e+00
 -5.9845543e+00
  1.6869348e+00
 -9.3559990e+00
 -1.1011742e+00
  1.2293591e+00
 -4.1609812e+00
 -8.2947344e-01
 -9.4560802e-01
 -3.5226221e+00
 -9.0558864e-02
 -2.6138493e-01
 -1.7337233e+00
 -3.3091865e+00
  1.1408010e+00
 -1.8330916e+00
  9.9032730e-01
 -2.2313361e+00
  1.6018078e-01
  1.2932159e+00
 -3.5694551e+00
  1.5073318e+00
  1.5201849e-01
  3.7548073e-02
 -1.7850311e-01
 -1.4058155e-01
  2.4460608e-02
  4.2561065e-02
 -3.0469250e-02
  1.0211398e-01
 -3.6806673e-01
 -1.4144839e-02
 -1.4846855e-01
 -4.2764276e-02
  8.3682626e-02
  1.5600051e-02
 -9.9499300e-03
 -1.1329764e-01
 -2.8812099e-02
  7.2167687e-02
  2.4743702e-02
  2.0094264e-02
 -3.2946538e-02
  1.6669504e-01
  2.7269026e-02
  3.2121673e-02
 -1.0657339e-01
  6.2340405e-02
  4.9932431e-02
 -4.9545068e-02
 -1.2464701e-01
 -1.3735339e-01
 -5.1161870e-02
  1.2618661e-02
 -4.5194185e-01
  2.5154859e-02
 -1.9991925e-01
 -6.4634107e-02
 -8.6956888e-01
  8.6468551e-03
  3.1691473e-02
  8.1612162e-02
 -7.1128691e-04
  3.6734737e-02
  4.7893040e-03
 -4.0435143e-02
 -3.4469258e-02
 -8.4248357e-02
  2.0162681e-02
  4.9261268e-02
 -3.8338751e-02
  2.7356125e-02
  6.9954030e-02
 -6.8559665e-03
  6.4143427e-03
  4.0685784e-02
  3.3651544e-03
 -6.2794201e-03
  1.6215526e-02
 -8.1754632e-02
  1.0332050e+00
  9.0813351e-01
  2.9182293e+00
  9.9317186e-02
  2.4696109e+00
  5.1321678e+00
  1.7552544e+00
  1.1070626e+00
 -6.4210525e+00
  3.9620537e-01
  7.6950215e-02
  1.8016427e+00
 -3.5584152e-02
  1.7113194e-01
  1.9128324e-01
  5.1158562e+00
  1.9533079e+00
 -2.2862167e+00
  7.8131002e-01
 -3.6188990e-01
  3.8213074e+00
  1.0542048e+01
  5.2153163e+00
  2.8603897e+00
 -3.9564435e+00
 -3.2678738e+00
 -1.0343635e+01
  9.9278939e-01
  2.5236664e+00
  5.6244068e+00
  4.6777639e-01
  9.6088260e-01
 -1.3204932e+00
 -5.1200557e+00
  3.5336180e+00
 -4.2543188e-01
  1.1231391e+00
  8.9002752e-01
  2.4106641e-01
 -4.4174104e+00
  1.1990085e+00
 -9.2245156e-01
 -4.2730298e+00
 -1.0402821e+00
  2.3996072e-01
 -1.7975572e+00
 -1.7646910e-01
  8.2662746e-02
  1.0372016e+00
 -9.4426239e-01
  1.0209227e+00
  1.0964902e-01
  1.6465513e+00
 -4.0909056e-02
  8.0224228e+00
 -1.9348080e+00
 -3.2089946e+00
  1.0016305e-01
  1.6091616e+00
 -7.4168086e+00
 -1.2453049e+00
  9.6672159e-01
  4.4249979e-01
 -2.9616669e-01
 -1.5525158e-02
  1.4803265e-01
 -8.6783922e-01
 -2.9850056e-02
 -3.0395415e+00
 -2.7081923e+00
 -1.4678183e+00
 -4.3540773e+00
 -2.7374759e+00
 -2.5152355e-01
 -3.4856360e-02
  1.3512690e-01
 -7.0954496e-01
 -2.2282678e-01
 -3.5077035e+00
 -6.7109451e+00
  1.0293969e+00
 -3.7079432e+00
  6.3608393e-02
  1.3910781e+00
 -8.3602315e-01
 -2.2462394e+00
 -3.0159062e-01
 -5.9694928e-01
 -1.3074929e+00
 -5.9842128e-01
  2.3211486e+00
 -1.0755230e-01
  1.2860002e-03
  2.8865712e+00
 -7.9969943e-01
 -4.7088665e-01
 -1.9148831e-01
  1.6154016e+00
 -3.8843143e+00
 -2.3762195e-01
  6.6288632e-01
  3.9924471e+00
 -4.3664126e+00
  2.2044292e-02
 -9.4572222e-01
  1.3133053e-01
  4.2381566e-02
 -9.4723506e-03
 -2.2038255e-02
  3.9475903e-02
 -8.2159832e-02
 -6.7899935e-04
  3.1171027e-01
 -1.7933002e-02
 -8.2749026e-03
 -8.9573717e-01
  1.6358255e-01
  6.5551646e-02
  8.8884428e-02
 -1.1595364e-02
 -1.0678549e-01
 -2.1018293e-02
 -7.6663002e-02
  8.7022349e-02
  3.5309758e-02
  1.8481670e-02
  4.0340651e-02
 -4.8652634e-02
  5.7520820e-03
  2.7924079e-02
  6.6157416e-02
  1.7458066e-02
 -2.5606951e-02
 -3.2910928e-02
 -1.9949522e-02
  7.1721599e-02
  2.5394675e-01
 -6.7675211e-02
  8.6756542e-02
 -4.7507539e-02
  1.6278460e+00
 -3.2971554e-02
 -2.2128528e-02
  1.2532226e-02
 -3.8417667e-02
 -1.5732944e-02
  1.1594500e-01
  1.0511861e+00
  5.9020454e-01
  1.2207627e-01
  3.4953613e-02
  4.0417910e-03
  1.1410980e-02
  9.3231555e-03
  1.3451394e-02
  1.5640274e-02
  1.7531542e-01
 -7.3720433e-02
 -4.3661334e-03
 -1.0577686e-01
  6.7242314e-03
  2.5140781e-02
 -5.3391930e-02
 -2.6041381e-02
  1.2310524e-01
  8.4869452e-03
 -3.0772907e-01
  7.3460881e-03
  5.2967045e-02
  6.3418142e-02
 -1.5049919e+00
  2.3962192e-03
 -1.4995338e-02
  5.6671448e-02
 -2.4199078e-02
  1.7882134e-01
 -6.0414370e-02
 -3.6505390e-02
  1.7705376e-01
 -1.0943328e-01
 -2.4235321e-02
 -4.1466448e-02
 -6.9117777e-02
  1.7026877e-02
 -2.1690366e+00
  4.0684836e-03
  2.4328582e-02
  5.6606099e-02
  8.5787466e-03
 -1.0085301e-01
  1.6255755e-02
  1.8421743e-02
  1.5550008e-01
  2.4552319e-02
 -2.0294013e+00
 -2.4648988e-01
  2.3084609e-02
  1.7955989e-02
 -6.9021344e-02
  6.0917896e-01
  1.2522076e-02
 -8.7352775e-02
  2.4970736e-02
 -1.3719875e-02
 -2.1440458e-01
  5.7959696e-04
  5.1875347e-03
 -2.4977129e-02
  1.2280031e-01
  7.8562889e-03
 -1.7161600e-03
  6.9414422e-02
 -9.5690032e-03
  6.8346076e-03
 -6.4040855e-02
 -8.3352022e-02
 -2.3208947e+00
 -6.4169568e-01
 -4.6574089e-01
 -4.4203277e+00
 -2.9976031e-01
  4.2290740e+00
 -5.2828231e+00
  7.3765010e-01
  8.2995634e+00
 -3.1982908e+00
  1.8935721e+00
  8.5918186e-03
  2.5919263e+00
  1.0944533e-01
  2.4655304e+00
  1.7034131e+00
 -4.1952677e+00
  2.1277039e+00
 -3.1520024e-01
  2.7323636e-01
 -1.6707398e+00
  8.5509944e-01
  7.9864949e-02
  5.6409249e+00
 -3.2681439e-02
 -8.2378662e-01
 -1.4521539e-01
 -3.2529037e+00
  7.6866226e+00
  3.9656754e+00
  2.6493137e+00
 -1.3364286e+00
 -5.2808399e+00
  2.0884703e-01
 -4.4562899e-02
  2.7383618e-02
 -8.9177933e+00
 -1.1835361e-01
  1.7417078e+00
 -2.5046179e+00
 -3.6843238e+00
 -1.4295247e+00
  5.0777681e-02
 -1.0226208e+00
  4.1124409e-01
 -3.0982924e-01
  1.4552078e-02
  7.1443774e-02
  5.2522980e-02
 -3.6767609e-02
 -8.3929420e-01
  1.0636263e-01
 -4.5083247e-02
  4.9937997e-02
  1.1937432e+00
  5.5069703e-01
  4.2953575e-01
  2.4585817e+00
  2.0027897e+00
  1.0277965e+00
 -1.4822989e+00
 -1.0133519e+00
  6.5899187e-01
  3.3240039e+00
  3.8695469e-01
 -9.7134864e-01
  2.2559276e+00
  1.9105142e+00
  5.6978340e+00
  2.2013149e+00
  1.9887227e+00
 -4.2545547e+00
  2.1740711e+00
 -1.8428526e+00
 -6.3765926e+00
 -2.8693242e+00
 -2.3824763e+00
  7.1280046e+00
  1.0422509e-01
 -2.1824217e-01
 -2.7827591e-01
 -5.2779398e+00
 -5.5128531e+00
 -1.5519990e+00
 -1.2359113e+00
  3.9924643e+00
 -5.1727909e-01
 -3.3102119e+00
  7.7439249e-01
  9.7888794e+00
 -2.1676121e+00
 -2.0713315e+00
 -7.9684367e+00
  2.8609924e+00
  1.5739346e-01
  3.2120347e+00
  5.9442396e+00
  2.2477312e+00
  4.2801423e+00
 -2.1507149e+00
  8.1804094e+00
  4.9652395e+00
 -6.8092555e-01
  6.6093519e-02
  3.8438261e+00
 -1.7988494e-01
  2.8026998e-01
  4.9305453e+00
 -7.5557637e-03
  1.0553030e-02
  1.3974680e+00
 -5.7488818e-02
 -6.1740416e-01
 -3.5979021e-03
 -3.2378390e-02
  1.8392641e-02
  3.8987873e+00
 -4.1791983e+00
  3.4200236e-02
 -1.1806889e-02
 -1.4109299e-01
  6.9885321e-02
 -1.0030083e-02
  5.2376185e-02
  4.4884626e-02
 -4.8110895e-03
 -4.6522994e-02
 -7.4321188e-02
 -2.4088953e-01
  2.0299958e-02
  4.0808596e-02
 -5.4683741e-02
  1.4582599e+00
 -9.7409561e-02
  1.0491236e-01
  1.9608285e-01
 -7.4036038e-01
 -6.2229149e-02
 -1.9602750e-01
 -2.5788593e-01
 -1.2627922e+00
 -2.1888393e-01
  1.5070407e-01
  8.3245952e-03
 -6.2552586e-02
  3.3494639e-03
  4.7119804e-02
  1.4343359e-01
  2.2944646e-02
 -5.7204468e-03
  7.4850574e-02
  2.1956185e-01
  2.2715008e-02
 -1.0026606e-02
 -1.2073896e-01
  1.8244550e-02
  1.0203343e-02
 -8.0966949e-02
  2.2014115e-02
  2.1335172e-02
 -3.5095565e-02
  4.6911798e-02
 -6.2522464e-02
  5.5772353e-02
  3.5180538e-03
  4.7241420e-02
  1.8378127e-02
 -9.0562001e-02
  9.8801799e-02
  2.0342872e+00
  4.9716391e-02
 -1.2301167e-01
 -7.9586521e-02
  2.8799193e-02
 -6.8803523e-03
  1.1055399e-02
 -1.4633693e-01
  1.0528930e-01
 -1.4445052e-01
 -4.9059670e-02
  6.5489307e-02
 -1.1298129e-01
  3.3235258e-01
  5.6532276e-01
  7.7514671e-02
  5.3603724e-02
  8.9402564e-02
  3.4472160e-02
 -8.4867798e-02
  1.1659185e-01
 -5.9881794e-01
  1.3739488e-01
 -2.5985107e+00
  1.1799036e-02
 -5.8135977e+00
 -4.6141408e-03
 -3.0038696e-02
  1.3299829e-02
 -3.5399580e-01
  3.8186673e-02
  7.1488827e-02
  1.3588943e-02
 -1.2788490e-02
  1.5136540e-01
  2.9175833e-02
 -4.0079933e-04
 -4.3317340e-02
 -6.1712195e-03
 -3.8163865e-03
 -1.7347750e-03
  9.9137940e-02
 -8.7272838e-02
  1.2878397e-02
  1.6386611e-02
  1.9398475e+00
  1.9735357e-01
  1.2115246e+00
 -1.0332782e-02
  1.4215574e+00
  1.9201319e-01
 -7.1783769e-01
 -1.4835395e+00
 -1.2684585e+00
 -6.9551253e+00
  2.3806579e+00
  4.3520312e+00
 -2.0344031e+00
 -3.6554317e+00
  2.8634102e+00
 -8.2156837e-01
  2.1737857e-01
  6.1023622e+00
 -1.0668733e+00
  4.3805327e+00
  1.0159875e+00
  2.9007845e+00
 -2.3235095e+00
 -2.4225862e+00
  5.9189763e-02
  1.3541819e+00
  1.5657643e+00
  1.6396157e+00
  5.6092978e+00
 -3.2957418e+00
 -9.7519025e-02
  1.2075164e+00
 -1.4537683e+00
  3.8555246e-02
  2.4065223e-01
 -9.7579485e-01
  3.1042364e+00
 -2.5718720e+00
 -7.4716216e-01
  9.3138361e-01
  8.2765454e-01
 -1.0015250e+00
  2.5859952e+00
 -3.1593623e+00
 -1.1314590e+00
  5.2987337e-01
 -1.3930147e+00
 -3.3998094e+00
 -2.6694030e-02
  7.0841157e-01
 -4.8404565e+00
  1.0577424e-01
 -8.7316751e-02
  2.0230354e-01
  1.9505008e+00
 -1.5932713e-02
 -3.9675206e-02
 -7.3933369e-01
  5.4638851e-01
 -5.1239151e-01
  2.5347006e-02
 -1.3429018e+00
  1.7724966e-01
 -1.9005978e-01
  3.2332318e+00
  3.0431177e-02
 -2.1389054e-02
  1.5862662e-02
 -3.8608477e-01
  2.4543574e-02
 -2.0041494e-02
  1.8897128e-01
 -4.3943986e-01
  6.6346445e+00
 -2.9425325e-02
 -3.6602940e-02
 -9.9050649e-02
  4.6711490e-02
 -4.6111576e-02
  8.8877851e-01
  5.2609194e-02
 -1.2974913e+00
 -1.8728955e-02
 -1.2178358e-01
 -7.4152410e-01
 -2.9521143e-01
  3.0599003e+00
 -8.8659421e-02
  5.9220720e-02
 -1.1279017e-01
  3.2617662e-02
 -1.2085591e-01
 -1.7306945e-01
 -9.3497492e-02
  4.6933211e-02
  3.9057672e-01
  7.0524320e-02
 -8.8228442e-02
 -3.8946226e-02
  4.3403512e-01
 -9.7013548e-02
 -8.4339581e-02
  1.6148455e-02
  1.2228248e-01
  1.1080871e-03
 -3.0854445e-02
 -1.0435372e-01
  3.2743786e-02
 -8.2806218e-04
  1.5751669e-01
 -1.8072358e+00
 -8.6141676e-01
 -7.6434851e-01
  1.7022075e-01
 -6.9841075e-01
 -8.3765787e-01
 -3.5279562e+00
 -6.4438707e-01
  2.1528356e-01
  6.9694564e-02
  1.1865845e+00
 -9.0946925e-01
  3.2664943e+00
  1.5298325e-01
 -9.1584867e-01
 -5.9575617e-01
 -7.4054390e-01
  4.6488032e+00
 -2.3449399e+00
  1.8053597e-01
 -1.0552138e-01
 -3.1456559e+00
 -9.8001271e-01
  1.9212325e+00
 -1.9570969e-02
 -2.2974138e+00
  1.6409263e-02
 -6.2901797e+00
 -1.0756208e+00
 -5.7741761e-01
 -3.9020488e-01
 -2.0750082e+00
 -1.3060236e+00
  2.0111151e+00
 -1.3739552e+00
 -1.4239324e+00
 -1.0215824e+00
 -3.6906477e-02
 -1.1487766e-01
 -1.5080229e+00
 -1.2658089e+00
  2.8817303e+00
 -1.3514264e+00
  6.1593328e-02
 -8.8747555e-01
 -1.1948804e-02
 -8.6437128e-03
 -1.5909879e-02
 -1.0994105e+00
 -3.2272038e-01
 -9.4281965e-01
 -8.4327437e-02
  3.3255458e-02
  2.3513823e+00
 -2.7342520e+00
  2.3551605e+00
 -2.3262966e+00
  5.2217448e-01
 -9.9186033e-01
 -1.6293062e-01
 -2.9084475e+00
  4.5414561e-01
 -8.5117358e-01
 -3.2029519e+00
  3.9057188e+00
 -1.3855495e+00
 -2.7571375e+00
  6.3987190e-01
  1.9718648e+00
 -4.1398907e+00
 -3.4123702e+00
  3.5237415e+00
  8.3292639e-01
 -3.8787341e+00
 -3.4594193e+00
 -1.9452642e+00
 -7.9822743e-01
  1.2110362e-02
 -2.3502321e+00
  3.1989455e+00
  5.8574671e-01
  4.9538269e+00
  1.5333308e+00
  3.3004298e+00
  1.5620961e+00
 -3.5649054e+00
  3.3292787e+00
  1.7202698e-01
 -2.6479843e+00
  7.9944863e+00
 -2.1801329e-01
 -2.9962318e+00
  3.3266613e+00
  3.5247055e-01
  2.1452583e-02
 -2.4833078e+00
  2.2294774e+00
  2.8139548e+00
 -4.6692209e+00
  3.6313276e+00
 -2.7098897e-01
 -9.0345818e-01
  5.2423444e+00
  1.2971695e-01
  4.8331078e-02
 -1.4814799e+00
  4.7565982e-01
 -4.1936688e+00
  2.1988637e+00
 -1.2136525e+00
  1.4461812e+00
  5.9264940e-01
 -2.3132617e-02
  1.9548967e+00
 -1.1796035e+00
 -9.2825800e-02
  3.1626403e-01
 -4.7783378e-01
 -6.2755072e-01
  1.5803703e+00
  3.6456403e-01
 -9.1482484e-01
 -6.8966526e-01
  3.5104409e-01
  2.3714170e+00
  2.2602270e+00
 -1.1571850e+00
  3.3081861e-03
  3.7500079e+00
 -2.5524956e-01
 -1.3108934e+00
  4.8160124e-01
 -1.5796173e+00
 -3.5171756e-01
 -2.2818985e+00
  1.4020123e+00
 -1.2034193e+00
 -3.1643817e+00
  5.4608282e-02
 -1.0135962e+00
 -1.1096431e+00
 -8.1961714e-02
 -1.2746215e+00
  1.2470133e-01
 -5.4539740e-02
  1.1372305e+00
 -8.3273602e-01
 -7.0698744e-01
  4.1728327e-01
 -1.6879689e+00
 -3.5252764e+00
  2.0051271e-01
 -2.9234817e+00
 -1.3999758e+00
  3.0768368e-01
  6.1514181e-01
  6.8528533e-01
 -3.2250647e-02
 -6.1842453e-01
 -1.3869832e-01
  5.9294307e-01
  4.5958143e-02
  1.7963944e-01
  6.2445544e-02
 -2.4652630e-03
 -3.3228781e-02
  6.6576123e-02
 -1.0254231e-01
  9.3499914e-02
  1.0788959e+00
 -2.1786626e-01
 -1.8395902e-01
  1.3715724e-02
  5.5454329e-02
 -3.6898685e-01
  2.2212733e-02
 -8.6860009e-02
  2.4562022e-01
  8.1127204e-02
  2.4288941e-02
 -4.4614896e-03
  2.6650207e+00
 -1.2266445e-03
  2.7027961e-02
 -1.2723012e-01
  4.5907885e-02
  2.7516559e-01
 -5.2445404e-02
  4.9435458e-01
  1.8998718e-01
  9.2125699e-02
 -8.3359443e-02
 -1.0830572e-01
  1.2622821e-01
  1.0327168e-01
 -1.5935455e-02
  3.5748743e-02
  5.0996240e-02
  2.1245319e-01
  8.9336507e-02
 -4.4750359e-02
  3.4795925e-02
  1.8428911e-02
  2.6047474e-01
 -2.5668407e-02
 -3.0318566e-02
 -3.2499306e-02
 -3.8551562e-02
 -3.9968893e-01
 -4.6118924e-01
 -1.1861032e-01
 -8.9719880e-01
  1.4196734e+00
 -6.2545770e-01
 -2.2951818e-01
 -2.4963276e+00
 -4.3703344e-01
 -3.4077969e-01
  5.9791092e-02
 -2.7982682e-02
 -1.2034129e-01
  1.5500329e-02
 -9.1388553e-02
  5.1201656e-02
  4.1214168e-02
  1.7364970e-01
  5.0700534e-02
  3.9350420e-02
  1.1287646e-01
  6.2811770e-02
  1.8236603e-01
 -3.2188845e+00
 -3.5076108e-02
  4.3433364e-02
 -8.1643127e-02
 -2.4619590e-01
 -3.3042431e-01
 -3.0779353e-01
 -2.9152798e-02
 -9.0033561e-01
 -1.1028630e-01
 -2.0243233e-01
  1.8008726e+00
  5.3195441e-03
 -1.0007074e-01
 -5.4620691e-02
  4.5232400e-01
 -1.1919115e-02
 -9.0856129e-01
  9.6261150e-01
 -1.2535043e-01
  9.9625848e-02
  5.3278232e+00
 -2.9428907e-02
 -4.1760445e-02
  3.1789118e-01
 -8.2676664e-02
  1.5787780e-01
 -1.0207337e-02
 -3.5650745e-02
 -3.0356808e-02
 -4.2321406e-02
  7.1700476e-04
 -1.9871147e+00
 -1.0041285e-01
 -1.2915511e-01
  1.7369883e-02
 -1.1652541e-01
  6.2152833e-02
  1.6251113e-04
 -2.1092675e+00
 -5.9287131e-02
  1.3195413e-01
  1.2699361e-01
  5.2414939e-02
  1.1139899e-01
  8.0543486e-03
 -1.3031227e-02
  1.5604469e-01
 -7.3040821e-02
  7.0411965e-02
 -1.0126705e-01
 -1.5617329e-01
  6.2039336e-03
 -2.8237355e-01
 -2.6624767e-02
 -2.9766703e-01
  2.3420408e-02
 -3.3403575e-02
  3.8917072e-02
 -1.5379065e-01
  8.6161637e-01
  2.5422493e-01
  1.9559953e-01
  2.8447831e-01
  6.6234566e-02
 -3.8773859e-01
 -1.3229170e-01
  1.4940763e+00
  1.9145502e-02
  1.2450174e+00
 -3.3803608e-02
 -1.9022752e-02
 -5.2137151e-02
  7.2695827e-03
 -2.5394227e-02
 -6.8890318e-02
  8.2074896e-02
 -2.2146986e-01
 -1.4255729e-01
 -1.7679043e-01
  1.4177799e-01
  3.7107268e-01
 -4.9383260e-02
 -9.2789561e-02
 -7.5910196e-02
 -1.0686158e-01
 -8.9890617e-01
  3.2696826e+00
 -1.4347233e+00
 -4.1597117e-02
  4.7413173e+00
  6.7151956e-02
 -7.2082868e-03
 -1.1982833e+00
 -1.0029329e-01
 -4.1675463e-02
 -1.0546103e-01
  3.7896075e+00
  7.8997150e-02
 -9.1288084e-01
  1.3185917e-01
  3.8767468e-02
 -1.1557887e-01
 -1.3685612e-01
  5.0830837e-02
 -3.6983266e-01
  3.4884978e-02
  5.2056074e-02
 -1.7966229e-01
  4.4938464e-02
  7.7556811e-02
  1.5667750e-01
  4.2531746e-03
 -1.1479519e-02
 -1.4680426e-01
  1.5972608e+00
  3.2541499e-02
 -5.3384650e-02
  1.2939939e-01
 -5.0711113e-01
  1.6713472e-01
 -1.0349263e-01
 -3.0479342e-02
 -2.6859418e-02
 -2.2407645e-01
  7.7364501e-03
 -5.3000230e-01
  5.6935746e-02
  1.9205964e-01
 -1.4811042e-01
 -1.3903012e-02
 -1.0621500e-01
  1.4101113e-03
 -1.8569048e-01
  1.9951755e-01
 -8.4231764e-02
 -4.3197379e-02
 -1.9694850e-02
 -7.0990399e-02
 -1.2560634e-01
  4.8108190e-01
 -1.6099140e-02
 -8.7712973e-02
 -6.8899550e-02
  7.3274791e-01
  2.7294570e-01
  1.5164346e+00
  3.6176539e-03
 -1.2394691e-01
 -3.4039563e-01
 -3.3918694e-02
  1.5508568e-01
  3.6091229e-01
 -4.6074897e-02
 -6.6467170e-03
 -3.9666165e-02
  2.0760691e+00
 -8.2830496e-02
  1.0875647e-01
 -3.3529833e-01
  8.3841048e-03
  1.3188687e-01
  2.0403354e-01
 -8.0624677e-02
  4.5651920e-02
  3.8507855e+00
 -2.9707870e-02
 -3.1851556e-02
 -4.8250765e-01
  9.9088505e-02
 -6.4689264e-02
 -1.0826716e-01
  1.1138722e-01
  1.6233727e+00
  3.1552076e-02
  3.7369227e+00
 -1.1420370e-01
 -2.0978771e-01
 -1.6024250e-01
 -1.9804631e-01
 -5.7403672e-02
 -3.4442898e-03
  1.1084738e+00
  2.2956541e-01
  2.0308173e-01
 -2.4829622e-02
 -1.5099270e+00
  9.3799576e-02
 -3.0020916e-01
  1.4827298e-01
 -1.4600981e-02
 -6.7178912e-02
  1.4553186e-01
 -4.7532523e-01
 -4.2247768e-02
  4.0554196e-01
 -2.5101206e-01
  3.5316554e-01
  1.4036907e+00
  7.1703717e-02
  7.4028432e-01
  1.3977100e+00
  2.7874224e-03
 -4.3112570e-01
  4.2057317e-01
  5.8233517e-01
  1.2168362e-01
 -1.7269654e-02
 -1.4793184e-01
 -1.5740947e-01
  2.4847038e-01
 -1.4186405e-01
 -6.3429721e-02
 -8.8437602e-02
  5.3463534e-02
  1.2448346e-01
  1.2545526e-01
 -3.6327207e-01
  2.6884258e+00
 -1.3994657e-01
 -9.6080047e-01
 -3.4687412e-01
 -5.9174669e-01
  1.9922621e+00
 -2.1297510e+00
 -1.5554082e+00
  9.8385006e-02
  2.2703545e+00
 -3.7639430e-01
 -5.7007603e-02
  7.5425798e-01
  2.7849188e-01
 -3.5137528e-01
  2.4553025e+00
 -4.9910964e-03
 -1.0657858e+00
 -8.0041990e-02
  4.9083543e-01
 -1.0180596e-01
  2.1569021e+00
  4.7549188e-01
 -1.8911704e-02
 -2.4733138e-01
  2.5348660e-01
  1.2027796e-01
  1.1911492e-01
  2.8630346e-03
 -5.9780650e-02
 -5.8719641e-01
  1.3098967e-01
  1.0127340e-01
 -5.9017272e+00
 -6.5334946e-02
 -1.3604063e-01
  9.2077762e-02
  1.2688154e+00
  1.3922965e-02
  7.6625288e-02
  1.1947443e-01
 -1.4208452e-01
 -8.5206531e-02
  3.0244652e-02
 -1.1561652e-02
 -4.1375138e-02
 -2.0003222e-01
  7.6459312e-01
  3.3541821e-02
  1.3940093e-02
  5.9001572e-02
  8.4099978e-02
  1.2261012e-01
 -1.4013607e-02
  1.8532120e-02
 -7.7899009e-02
 -3.0679160e-01
 -9.5742695e-02
  2.5901768e-01
 -2.2465028e-03
 -2.5827810e-01
  1.0750420e-02
 -7.0043921e-02
 -1.7962274e-01
  1.5014854e-01
  1.1136022e-01
  1.0906193e-01
 -2.7183781e+00
  1.7419448e-02
  2.5739825e-01
 -2.4499363e-01
  2.2316022e-01
  2.9663286e-01
 -1.2283738e-01
 -5.8927931e-02
 -9.2172742e-02
  5.9173069e+00
  8.9841634e-02
  2.3384483e-01
  4.4308372e-02
 -2.7543232e+00
  3.4830879e-02
 -1.7040563e-01
  3.5050826e+00
 -5.2276272e-01
 -1.1127174e+00
  2.6487678e-01
 -8.7266296e-02
 -4.3069232e-02
 -2.0627742e-01
 -8.9361703e-01
  4.9536761e-02
  5.4524627e+00
 -2.8343749e+00
 -1.3801562e-02
  7.7807635e-01
  1.1333424e+00
  2.1671890e-01
 -7.8265440e-01
  5.8831668e+00
  4.9535794e+00
 -1.8263727e+00
 -1.7488366e+00
  3.5053234e+00
  2.2689037e+00
 -1.3135231e+00
 -5.6393981e-02
  3.2151580e-02
  3.1573966e+00
  1.3815732e-01
 -2.4286730e+00
 -2.6469919e-01
  1.7123115e+00
 -4.3603060e-01
  1.6201236e+00
  4.7707310e+00
  2.5411909e+00
 -3.1486597e+00
  5.3003997e-01
  1.0249416e+00
  3.4504602e+00
  3.8682177e+00
  2.6113403e+00
  1.9962722e-01
 -9.6823014e-02
 -1.0327035e+00
  1.7811491e+00
 -2.1373938e-01
  9.4874017e-03
  1.3217933e-01
  1.0616533e-02
 -8.6415298e-02
  9.7536510e-01
 -4.8185059e-01
  6.7168914e-02
  6.4927727e-02
 -1.4670011e-02
 -6.1701156e-02
  5.2738971e-01
  1.6060688e-02
  1.3810582e-01
 -1.9453331e+00
 -6.7956924e-02
 -4.9364023e-02
 -1.8485020e-01
  8.3995408e-01
  7.0800409e-03
  8.8357657e-02
  4.4713266e-02
 -1.1382388e-01
  9.1942307e-04
  2.7290535e+00
  8.5696399e-02
 -1.0023157e-01
 -1.0423139e-03
 -3.4222856e-02
 -1.7448738e-02
  6.0685143e-02
  6.1300803e-02
 -1.6082236e-01
  1.6557537e-02
 -9.4327025e-02
  1.9629362e+00
  1.0974807e-01
  1.0110743e-03
  7.6762944e-02
 -5.7960019e-02
  1.4952870e-01
  2.4516796e-01
  9.3107432e-02
  7.0311141e-01
  1.2715926e+00
  9.3542747e-02
  1.2029437e-02
  3.1710794e+00
 -1.0613857e-01
 -1.2776476e-01
  1.5808228e-01
  5.7960149e-02
  7.1970277e-02
  2.5357902e-01
 -2.2278681e-02
 -1.2248955e-01
 -4.1628984e-01
 -9.7787552e-02
  8.2116090e-03
 -4.9330467e-01
 -3.3665020e-02
  4.2580667e-01
  1.0952897e-01
  1.8913336e-01
  9.4193500e-04
 -1.8880767e+00
  2.0856802e-01
  3.4058480e+00
 -8.4102803e-01
  9.3570769e-01
  4.2137650e-01
  4.1150737e+00
  1.1922919e+00
  1.6633388e-01
 -6.1102277e-01
  3.0117821e-02
 -1.0635605e-02
  7.8234088e-01
  2.5069383e-01
  4.8209958e-02
 -1.7409138e-01
 -1.8179864e-02
  2.0470366e-01
 -9.3791646e-01
  1.6822144e-01
  5.5656455e-02
  5.2563846e-02
  1.8863590e-01
  3.8923826e-02
 -8.1476822e-02
  2.5988847e-01
 -1.0587903e-01
 -6.1916506e-01
  2.8856033e-03
  1.6678900e-01
 -6.7934835e-01
  2.0022166e-01
  6.9849100e-03
  1.2463080e+00
 -1.5011663e+00
 -1.5369064e-01
 -1.8136709e+00
 -1.9133149e-01
  6.4998417e+00
  3.1562760e-02
  4.7746399e-01
 -2.9947612e-02
 -1.9846872e+00
  1.8163818e-01
 -5.6553341e-02
  3.4503818e-02
  1.0575485e+00
 -1.2010996e-01
  4.1054839e-01
  1.4002113e-01
 -1.6178617e-01
  6.1503876e-02
  5.6053251e-03
  1.0445271e-01
  1.5526432e-01
  1.8958539e-02
  2.5482124e-01
  2.9109886e-01
  2.5190454e+00
 -7.6668233e-02
  1.9891459e-02
 -5.2630930e+00
 -1.7093871e+00
 -8.4186912e-02
 -1.2312908e-01
 -8.3764233e-03
 -6.2073302e+00
  1.2813126e-01
  2.6302401e-02
 -3.7390091e-02
 -5.9345886e-02
 -2.3829973e-01
  2.1342444e-03
  1.6239998e-01
  1.7492722e-01
  7.0207469e-02
 -1.5201545e-01
  7.6342016e-02
 -3.6367398e-02
  2.3749877e-02
  2.4499006e+00
 -1.5459651e-01
  5.7176627e-02
  9.3769982e-02
 -4.0987097e-02
  1.9245301e-01
  7.7553421e-02
 -1.0118786e-02
  1.9100900e-01
  5.3351209e-02
  1.2723412e-01
  1.2296605e-01
 -1.9314967e-02
  2.8819910e-01
 -7.3678911e-02
  1.6556656e-01
 -9.5490869e-03
  5.6398585e-02
  9.0392649e-02
 -5.3812593e-02
  2.7146146e-02
 -3.5294808e-02
  3.8115069e-02
  8.1043519e-02
 -2.6024282e-02
 -8.3178759e-02
  1.1419173e-02
 -8.4073561e-01
 -1.0226082e+00
 -2.0039957e+00
  2.3675556e+00
 -4.0252149e-01
 -9.2392218e-01
  8.8028751e-02
 -4.0502605e+00
 -5.7882935e-01
 -1.4190729e+00
 -9.8919314e-01
 -3.9728251e-01
 -7.2802460e-01
 -3.2738366e+00
 -2.0030136e+00
  1.1230744e+00
 -3.5043211e+00
  4.3205318e-01
 -5.6981378e+00
 -1.5447025e+00
 -3.1053951e-01
  1.1563209e+00
  4.1998324e+00
 -1.2382047e-01
 -5.5407887e+00
 -1.4152924e+00
 -1.0463880e+00
  7.9928625e-01
  2.5251710e+00
 -7.4200714e-01
 -8.0987370e-01
 -2.5140240e+00
  4.3171966e-01
  2.2289842e-01
  6.7772239e-01
 -3.6856489e+00
 -8.6260128e-01
 -1.4345793e+00
 -1.2380602e+00
 -3.6102533e-01
 -2.3431091e+00
 -2.4105740e-01
 -1.4412296e+00
 -3.8969675e-01
  1.5023570e+00
  5.5142725e-01
 -4.7232819e+00
  6.5783560e-01
 -1.5975204e+00
 -3.9497895e+00
 -1.8074688e-02
