nep4 3 B C N 
cutoff 8 4 414 46
n_max 8 8
basis_size 12 12
l_max 4 2 0
ANN 50 0
 -5.4814672e-01
 -1.4542217e+00
  5.6158242e+00
  4.1157923e+00
 -2.8199260e+00
 -9.1626215e-01
  7.9867942e-03
 -5.0701146e+00
  8.1516428e+00
 -3.2183149e+00
 -2.6843452e+00
 -3.2384655e-01
  4.7855443e-01
 -3.1776438e+00
  1.7255642e+00
  6.3823462e+00
  8.8581600e+00
  1.2628505e+00
  2.8804851e+00
  4.6418381e+00
  3.1176314e+00
 -1.1844192e+00
  7.6019317e-02
  1.3677195e+00
  9.5110054e+00
  2.7951315e-01
 -1.6329949e+00
  4.4169335e+00
  6.0363212e+00
  1.4603413e+00
  6.8026052e+00
 -2.0309882e+00
 -2.8120611e+00
 -2.1458969e+00
 -6.3210740e+00
 -4.9294033e+00
 -1.3158871e+00
  1.2137395e+00
 -2.5638242e+00
  9.2210633e-01
  6.4226546e+00
  5.5638093e-01
  5.2362353e-01
 -3.3459148e+00
  4.9755840e+00
 -2.9828146e-01
 -1.2247006e+00
 -4.1186941e-01
 -2.4059842e+00
  2.0514061e-01
  3.7073833e-01
  5.5374461e-01
  3.0472713e+00
  2.9482681e-01
  2.0541279e+00
  3.3876648e+00
  4.0954641e-01
  3.5740848e+00
  3.0948347e-01
  4.3736181e+00
 -7.1704459e+00
 -7.2568387e-02
  1.8506082e+00
 -9.5294428e+00
 -3.1385460e+00
  2.4129379e+00
  9.0480709e-01
  2.3707504e+00
 -2.5352678e+00
 -1.6810150e+00
 -2.3625758e+00
 -4.5221372e+00
  1.7893044e+00
  2.1624083e-02
 -1.1533060e+00
  1.8893279e-01
  6.3052416e-02
 -3.4248588e+00
 -4.6629727e-01
  2.6832466e+00
 -2.4812925e-01
  1.7700615e+00
  3.4195295e-01
  1.9134506e+00
 -7.3178089e-01
 -1.1665825e+00
  1.2156332e+00
 -4.2057114e+00
 -1.6323721e+00
 -4.2243085e+00
  6.1116093e-01
 -5.1901227e-01
 -3.7613955e+00
  1.2888736e+00
  3.6381185e-02
  2.8269215e+00
  2.4879897e+00
  2.6562269e+00
 -4.7306949e-01
 -4.6908846e+00
  9.8902845e-01
 -1.0017494e+01
 -1.0516956e+00
 -1.4476825e+00
  5.1654124e-01
 -4.2251894e-01
  1.0243816e+00
 -2.1868362e+00
 -1.2292864e+00
 -5.9760702e-01
  8.9928168e-01
 -1.4010391e+00
  2.0682189e-01
  8.9584216e-02
 -7.7672046e-01
 -3.0001140e+00
  2.3768828e+00
  5.4244727e-01
  1.4140097e+00
  6.2702626e-02
  1.5684031e+00
  2.1437757e+00
  1.1024330e+00
 -1.3800167e+00
 -5.5243695e-01
 -1.3525555e+00
  4.2132506e+00
 -2.3468152e-01
  4.9047675e+00
  1.1420139e+00
 -2.1207085e+00
 -1.7376677e+00
 -3.0543475e+00
 -2.8416568e-01
  1.1697114e-01
 -1.5469496e+00
  1.5525821e-01
 -2.9373100e+00
  1.5979704e+00
 -1.4494191e-01
  1.6423423e+00
  3.4411886e+00
  3.3206089e+00
  2.8970444e-01
  1.5977775e+00
 -1.8012457e+00
  8.3649904e-02
 -8.5750449e-01
  4.4179158e+00
  2.0720444e+00
 -2.7635076e+00
 -6.5453358e+00
  4.0027657e+00
 -1.7781527e+00
  1.9666759e+00
 -4.4820428e+00
  7.2360296e+00
 -7.8956914e-01
  7.4839979e-02
  2.5493841e+00
 -7.1751720e-01
  1.9780548e+00
  7.9258782e-01
 -5.5728545e+00
 -3.2163829e-01
  9.9918053e-02
 -2.0788333e+00
  7.3245901e-01
  4.1375427e+00
 -1.6854086e+00
 -3.3155272e+00
  1.1497083e+00
 -2.8650366e-02
 -3.1372962e+00
  3.6823039e+00
  1.7401304e+00
  3.5604611e-02
  3.4444366e+00
 -3.3155074e+00
 -7.0268450e+00
  2.3290373e-02
 -1.5552529e+00
  1.6915438e-01
  5.9892237e-01
  2.1147373e+00
  2.0828302e+00
  1.1355083e+00
 -1.8697706e-01
 -1.2911682e+00
  1.1776319e+00
 -1.6018788e+00
 -1.8664978e-02
 -5.3059804e-01
 -1.1746184e+00
 -2.7365634e+00
 -1.2883756e-01
 -2.3420641e-01
 -1.7804005e+00
 -1.4235791e+00
 -4.5857539e+00
  1.5776217e-01
 -2.5386639e+00
 -4.6117908e-01
 -7.6584520e+00
 -1.3737196e+00
 -4.9638185e-01
 -1.9901728e-02
  1.1903151e+00
  1.9459933e-01
 -6.6338181e-03
 -2.8074057e+00
  2.0047100e+00
 -1.9762335e+00
  1.2180884e+00
  6.1658794e-01
  1.6170015e+00
  1.0661018e+00
  2.8981702e+00
  1.8545464e+00
  6.5255752e+00
  7.6420033e-01
  1.2914455e+00
  7.1981287e+00
  5.2278721e-01
 -5.6511950e+00
 -2.8664207e-01
  1.6886872e+00
 -5.2183032e-01
  2.0300319e+00
 -4.9342081e-02
  1.0166603e+00
 -3.7072711e+00
  7.9318756e-01
 -1.7515275e+00
 -4.1598964e-01
 -2.7107328e-02
  2.4943513e-01
  1.0393791e+00
  3.1291616e-01
  7.7689521e-02
 -3.7927620e+00
  3.2721007e-01
  8.0404714e-02
 -6.8603516e-01
  3.9848871e+00
 -5.2678078e-01
 -3.0048570e-01
 -2.3142488e+00
  4.3764591e-01
  9.5240259e-01
  1.1740531e+00
  2.2395079e-01
  7.4009448e-01
 -1.4872081e+00
 -5.9955454e-01
 -2.4484200e+00
 -4.3194935e-02
 -1.5988345e+00
 -1.9096051e+00
 -1.0773451e+00
 -6.3768244e-01
 -1.4325321e+00
 -1.8491198e+00
  1.8684279e+00
 -6.0776764e-01
  1.0699364e+00
 -2.4668890e-01
  9.3451869e-01
 -5.1561534e-01
 -2.0033627e+00
  5.3599992e+00
  7.0866644e-01
  1.5206342e+00
  1.7896371e+00
  6.6583186e-01
  2.3910573e-01
  1.6340275e+00
 -1.8615587e+00
  1.1164902e+00
  9.9992085e-01
  9.1812134e-01
 -4.8623204e+00
 -6.7201777e+00
 -1.2265782e+00
 -7.9001212e-01
  9.8494393e-01
  1.4905825e+00
  4.0217652e+00
 -5.1764333e-01
  1.2095550e+00
 -1.6545690e+00
  1.9066315e+00
  4.6532073e+00
  6.3845859e+00
 -1.2130051e+00
  2.2671361e+00
 -1.1161785e+00
 -4.1122255e+00
 -2.8013308e+00
 -1.2081153e+00
 -1.2475919e+00
 -2.0195315e+00
  3.0775571e+00
 -7.2339886e-01
 -2.7537434e+00
 -3.0426915e+00
 -8.0161982e+00
  2.6162643e+00
 -2.5174043e-01
 -1.4110056e+00
 -2.3657982e+00
 -2.1740060e+00
  3.4658879e-01
 -2.9616570e+00
 -4.2173889e-01
 -3.6505020e-01
  3.8178592e+00
  9.8288244e-01
  2.9278338e+00
 -6.5386945e-01
  5.5979900e+00
  4.9809861e-01
  1.2419032e+00
  5.5845966e+00
 -2.1671007e+00
 -2.1297379e+00
  1.6922739e+00
 -1.8802401e-01
 -1.7745363e+00
 -2.1875796e+00
  9.2639637e-01
  1.7908552e-01
  1.9089696e+00
  3.5510924e+00
  2.8966796e-01
 -4.3998441e-01
 -1.0323719e+00
  2.4713834e-01
  7.5584239e-01
  1.5956049e+00
  1.9607309e+00
  3.7283841e-01
  2.0289326e+00
  1.4288220e+00
  2.7779558e+00
  1.7834306e+00
  3.9828675e+00
 -4.1595742e-01
  4.5566750e+00
  2.0784466e+00
 -7.0308018e-01
  1.2098298e+00
 -2.3526959e+00
  3.1246695e-01
  6.7206192e+00
 -4.0176722e-01
 -4.4752750e-01
  3.2607472e+00
 -9.9454737e-01
  1.3973727e+00
  5.1700230e+00
  1.5207766e-02
  5.7490104e-01
 -1.3844503e+00
 -3.2993097e+00
 -1.3222899e+00
 -2.2554798e+00
  4.9834231e-01
  3.2823036e+00
  1.2328029e+00
 -9.5877924e+00
  3.3633178e-01
  1.2399674e-01
 -6.5737501e-02
 -9.3385327e-01
 -7.1362191e-01
  6.4866319e+00
  1.0982468e+00
 -3.3602786e+00
 -1.0671157e+01
 -7.9792175e+00
 -5.6122977e-01
  8.3315027e-01
  4.6407986e+00
  4.8773885e+00
 -6.2452242e-02
 -1.1482256e-01
 -4.9073148e-01
 -1.3667769e+00
  5.9444098e+00
  6.1692446e-03
 -1.1605455e+00
  3.6790097e-01
 -3.6461644e+00
  1.5662563e-01
 -1.9429474e+00
  1.3084766e-01
 -1.9662827e-03
 -1.9950300e-02
  1.8418145e-01
  5.3609486e+00
 -2.9962170e+00
 -5.8782578e-01
  4.5031252e+00
 -8.2195902e-01
 -1.4339895e+00
 -2.1099286e+00
  2.1909782e-01
 -2.5329733e-01
 -3.1043625e+00
 -6.1019349e-01
  6.6616416e+00
 -9.1139972e-01
  4.2225528e+00
 -1.2799909e+01
 -2.9542089e+00
  1.9507399e+00
 -8.2481474e-01
  2.5773053e+00
  1.7214462e+00
 -1.9740548e+00
  2.0967851e+00
 -6.8310833e+00
  2.5786853e-01
  2.4428813e+00
 -1.1303520e+00
 -5.4494947e-01
  7.8751481e-01
 -1.5209601e+00
 -1.7074052e+00
  1.3634773e+00
 -4.7073349e-01
 -1.5117867e+00
 -7.0035565e-01
 -2.4894290e+00
  1.4911416e+00
  3.6145335e-01
 -8.5996687e-02
  9.4679713e-02
  8.3355594e-01
 -6.4050281e-01
 -3.8628407e+00
  8.3725500e-01
  1.7093829e+00
 -3.4283838e-01
 -1.2074726e+00
  3.1651974e+00
  9.7685748e-01
 -1.2867864e+00
  1.8030956e-01
 -3.8108912e-01
 -6.4574337e+00
 -7.1709509e+00
  1.2860655e+00
  2.3006017e+00
  4.3555659e-01
  1.7987263e+00
 -5.6539953e-02
  4.2046341e-01
 -1.1772248e+00
 -5.3190136e-01
  2.2437160e+00
  6.7262399e-01
 -1.5670824e+00
 -8.7975937e-01
  1.3422899e+00
  1.7394282e+00
 -1.7204268e+00
  5.2961111e-01
  3.2866544e-01
 -7.0812459e+00
 -4.1490242e-01
  1.1500776e+00
 -7.3966914e-01
  1.2293398e+00
 -3.6306626e-01
  8.1205589e-01
  2.1880868e-01
  6.6808653e-01
  1.3506660e+00
  1.4474593e+00
 -5.0952978e+00
  1.9504841e-02
  3.2517588e-01
 -1.8873603e+00
 -3.7919566e-01
 -2.4037173e+00
  2.0726838e+00
 -8.9107305e-01
 -2.2731240e+00
  3.6156887e-01
 -3.4749752e-01
 -8.5874712e-01
  3.0318153e+00
  1.0009712e+01
 -3.6927712e-01
 -9.8080468e-01
 -5.1648325e-01
 -1.4819105e+00
  8.0724508e-02
 -8.5376644e-01
 -1.5514355e+00
  4.4794526e+00
 -3.0117277e-02
  1.3959364e+00
 -2.1222014e+00
  4.6987128e+00
  4.1618145e-01
 -1.5502239e+00
  6.0098863e-01
 -3.9625239e-01
  7.4730062e-01
 -2.2812538e+00
 -1.7350073e+00
  1.1542835e+00
 -1.3178896e+00
  8.0251396e-03
  3.7571158e+00
 -7.4048090e+00
 -3.7703899e-01
  6.7069989e-01
  1.7096591e-01
  1.4443929e+00
  1.8386896e+00
 -1.4218624e+00
 -6.0531819e-01
 -1.1143397e+00
 -2.8439777e+00
  1.7027805e+00
 -6.6371948e-02
 -6.3108044e+00
 -1.2778655e+00
  8.7937158e-01
  7.8045124e-01
  1.4019874e-01
  2.8378069e+00
 -2.2746325e+00
 -2.7571199e+00
  2.2696187e-01
 -4.7955852e+00
 -8.3745539e-02
 -6.4101234e-02
 -1.2724940e+00
 -1.7060162e+00
 -2.1280721e-01
 -6.0817188e-01
 -2.6230006e+00
 -1.4586866e+00
  3.0305108e-01
  9.2559046e-01
  4.5358397e-02
 -1.1923050e+00
  2.8581586e+00
  4.5850676e-01
  2.4586338e-01
  8.4215939e-01
  2.0033555e+00
  3.5997432e-01
 -2.6453415e-01
  2.4605777e+00
  7.6803694e+00
 -9.8383921e-01
 -1.3060853e+00
  2.9164987e+00
  2.7717669e+00
  2.5806160e+00
 -1.2901328e+00
  4.0096917e+00
  2.3244827e+00
 -5.8958573e+00
  1.7187558e-01
  1.8770685e+00
  9.0861130e-01
  2.2926837e-02
  2.2503859e-01
 -4.8456788e+00
  6.0432237e-01
  1.2262679e+00
 -8.6804886e+00
  8.4315181e-01
  2.3586023e-01
  4.0645361e-01
 -2.9555261e+00
 -1.1474148e+00
  8.3632022e-02
  3.2245073e+00
  3.2568166e+00
  5.5604428e-02
 -4.2799783e-01
 -1.0704153e+00
  3.6342728e-01
 -9.2290974e+00
 -1.7886851e+00
 -2.0753704e-01
  1.0344870e+00
  2.6944986e-01
 -6.2518644e-01
  1.2332079e+00
  4.8630924e+00
 -2.3293142e+00
  4.9799159e-01
  2.3929080e-01
  2.6601200e+00
 -1.9170146e-01
  3.5357612e-01
 -2.9674687e+00
 -2.5847085e+00
 -2.6665291e-01
  6.4736265e-01
 -5.8076084e-01
  7.4113476e-01
 -1.3916032e-01
 -8.6399102e-01
  2.0221014e+00
  3.1977260e+00
  1.5967897e+00
 -1.3058239e+00
 -4.7140625e-01
  2.4710815e+00
 -1.0273727e+00
  1.6475033e+00
 -1.5362352e+00
 -8.4038883e-01
  1.1232337e+00
  7.0493346e-01
 -2.1080868e+00
  5.8782154e-01
  6.1983120e-01
  3.3951095e-01
 -1.0123299e+00
 -1.4084426e+01
 -1.3922474e-01
  4.1112857e+00
  2.4419469e-01
 -6.1876631e-01
  4.5320889e-01
  8.0925202e-01
  6.8921614e-01
  7.8496981e-01
 -7.7126175e-01
 -1.6020199e+00
 -6.2633615e+00
 -5.2258110e-01
 -4.2712981e-01
 -9.3421036e-01
  8.2780838e-02
 -2.8243427e+00
  6.3113409e-01
  7.1634591e-01
  2.6455219e+00
 -3.3392587e+00
  5.8210039e-01
  6.2779489e+00
 -1.2846111e-01
 -1.7977114e+00
 -2.3162880e+00
 -1.6174432e-02
 -4.2605228e+00
 -1.1802174e+00
  4.2470460e+00
 -2.3499987e+00
 -1.4479301e+00
  1.9194754e+00
  2.0706731e-01
  4.1331725e+00
 -4.9862954e-01
  5.5145531e+00
  2.8354521e+00
  1.9121584e+00
 -4.1709003e+00
 -2.5356133e+00
 -2.2952988e+00
 -1.5480525e+00
  1.8932873e+00
 -3.5364056e+00
  1.1811252e+00
  1.7015558e+00
 -8.7388086e+00
  4.9666986e-01
 -2.4097076e-01
  8.5366508e-03
 -5.0532551e+00
  2.4904258e+00
  8.8261408e-01
 -1.2155632e+00
  3.2048829e+00
  1.9200368e+00
 -1.2922256e+00
  4.6855388e+00
  1.7728523e+00
  2.9265517e-01
 -5.0552530e+00
  1.4797513e-01
  5.9822154e+00
  2.2589253e-01
 -2.7267532e+00
  2.5455384e+00
 -3.9346996e-01
 -5.2925482e+00
  3.5551770e+00
 -4.7531924e+00
  8.7041563e-01
 -2.4749835e+00
 -5.4058971e+00
 -1.7861921e-01
  1.6232413e+00
 -1.3875641e+00
 -1.6489514e+00
 -4.6170190e-01
  1.7915222e-01
  5.9536353e-02
  2.4435978e+00
 -1.0860838e+00
  1.4980850e+00
 -1.5556251e+00
 -9.7197706e-01
  2.3395379e+00
  6.6494656e-01
 -3.6460468e-01
  2.6977975e+00
 -4.3410478e+00
  1.8333768e+00
  4.0174837e+00
 -7.5940467e-02
 -7.4462402e-01
  3.9263299e+00
  8.1080735e-01
 -1.8240980e+00
  7.3659277e-01
 -8.7601840e-01
 -1.1372494e-01
 -2.7159464e-01
 -3.9119995e+00
  2.9891989e-01
 -3.3088863e+00
 -2.9192901e-01
 -6.1043301e+00
 -2.6218743e+00
  4.3490613e-01
  7.5073326e-01
 -7.7250099e-01
  2.3960500e+00
 -1.2252202e+00
 -5.4944658e+00
 -8.8162012e+00
 -4.6141567e+00
  2.5628200e+00
  2.1737622e-01
 -3.0605924e-01
 -1.5231855e+00
  3.9834905e+00
  9.8656648e-01
 -2.3445767e-01
  1.8125933e-01
  2.0767386e-01
  3.0408533e+00
 -9.6044016e-01
  2.3226535e+00
  4.6613386e-01
  4.2659414e-01
  1.6409196e-01
  2.6284089e+00
 -7.7719355e-01
 -4.5557599e+00
  1.0457851e+00
  2.4231322e-01
  4.0081525e-01
  9.7481833e+00
  2.9065697e+00
 -1.7286044e-01
 -1.3332025e+00
  3.0237243e-01
  1.8916614e+00
  1.0122744e+01
 -3.9522231e+00
 -1.1667628e+00
 -2.6015088e-01
 -6.8606167e+00
  2.4917808e+00
  2.5661304e+00
  1.1838655e+00
 -1.4751956e+00
 -4.6587378e-01
 -1.6311926e+00
 -1.2366428e+00
 -3.1020224e+00
 -1.2223791e+00
 -2.6200312e-01
  1.3464459e+00
 -2.4729078e+00
 -6.6326988e-01
 -2.4582834e+00
 -1.4865924e+00
 -3.8100699e-01
 -9.2196918e-01
 -1.7663325e+00
  9.7362351e-01
  6.7554206e-01
 -2.9727018e+00
 -5.1079392e-01
  4.9469203e-01
 -4.7356763e-01
 -1.1537242e+00
  1.5711496e+00
 -1.9062434e+00
 -9.3794608e-01
 -6.4658155e+00
  2.1229135e-01
  1.4400876e+00
  4.6984905e-01
  8.4196872e-01
  6.8525642e-02
  3.6994934e-01
 -3.9195492e+00
 -5.7324916e-01
 -8.9453876e-01
  2.3614395e+00
  4.4652667e+00
 -3.0211735e-01
  8.8175213e-01
  2.5573273e+00
  1.6131263e-02
 -7.9198807e-01
 -8.5495627e-01
  1.4791124e-01
 -4.5211616e+00
 -5.9397912e+00
  2.0488539e+00
  4.4751763e+00
 -3.5587041e+00
 -4.7102055e-01
 -2.8963435e+00
 -1.7508404e+00
  6.9315782e+00
 -7.4082667e-01
 -8.7728739e-01
  4.6331606e+00
  3.3624585e+00
 -1.7148514e-01
 -3.4140787e-01
  5.9409220e-02
  5.0815988e+00
 -9.7337395e-02
  6.1694598e+00
  2.4052761e+00
 -3.0963330e+00
  3.5374534e+00
 -5.0552454e+00
  8.0745536e-01
  6.7587080e+00
 -2.4333169e+00
  1.8236979e+00
 -1.3402242e+01
  9.7610340e+00
 -1.2397336e+00
  2.0596244e+00
  4.2949576e+00
  2.3814785e+00
 -3.3963323e+00
 -9.8616719e-01
  5.1347785e+00
  5.1302135e-01
  3.1647508e+00
  2.3129146e+00
  3.8133872e+00
 -6.7027931e+00
 -3.1110055e+00
  2.7361600e+00
 -2.4949875e-01
  2.3417685e+00
  4.1246090e+00
 -2.2817600e+00
  4.3435459e+00
 -2.3045495e+00
 -6.3719064e-02
  1.7650907e+00
  8.9903474e-01
  1.2563679e+00
 -8.5431564e-01
  1.6702991e+00
  1.3869257e+00
  4.3696871e+00
 -3.9169186e-01
  4.4298272e+00
  4.3588972e+00
 -4.9020095e+00
  1.7290825e+00
 -6.3667502e+00
  1.1165386e+00
  4.0377722e+00
  2.2931075e+00
  1.9143448e+00
  3.6942508e-02
 -3.6036658e-01
 -1.0798078e+00
  3.4556844e+00
 -5.8002305e-01
  7.2290164e-01
 -1.1583862e+00
  2.4997959e+00
  6.6042547e+00
  2.6443377e-02
 -5.7438941e+00
 -1.7700361e+00
 -6.9725084e-01
 -2.2663708e+00
 -1.2880964e+00
  1.3829008e+00
 -1.5914389e-01
 -2.2851309e-01
 -1.5853696e+00
  2.4357624e+00
  7.4603724e-01
  8.2982187e+00
 -4.7716093e+00
  3.8032088e-01
 -1.3296503e+00
 -3.2054048e+00
  5.6920681e+00
 -2.1509376e+00
 -8.3915904e-02
  3.6302791e+00
 -1.5601214e+00
 -4.0505603e-01
 -2.3505795e+00
 -1.5894263e+00
  4.6704636e+00
 -1.4478672e+00
  1.6039648e+00
 -9.8457962e-01
  5.9029841e-01
 -1.1468109e+00
  1.4453095e-01
 -9.7446156e-01
 -2.3325349e-01
  1.8719743e+00
 -7.1968764e-01
 -2.4585490e+00
  1.6633780e+00
  9.7104371e-01
 -1.8073895e+00
 -2.2719665e+00
 -1.2203870e+00
  6.2608796e-01
 -1.6274225e+00
  6.0142150e+00
 -4.6848509e-01
 -5.9027898e-01
  5.3010300e-02
  2.6552692e-01
  1.5852038e-02
 -8.8127995e-01
  8.4371781e-01
 -3.8574311e-01
 -3.4299725e-01
  9.4679081e-01
 -4.6184406e+00
 -6.7767131e-01
  6.2577448e+00
  3.5017998e+00
  2.4772701e+00
  2.7114296e+00
  2.5016177e+00
  1.0712814e-01
  8.2063398e+00
  7.5492179e-01
  7.7605715e+00
 -2.2766927e-01
 -8.3588406e-02
 -2.8542974e+00
 -3.5665078e+00
  5.2967358e-01
  4.8298674e+00
 -1.8914667e+00
 -1.4732071e+00
  1.1731173e+00
 -5.1919889e+00
  1.4689796e+00
 -4.2272812e-01
  4.5732090e-01
  1.8692800e-01
 -1.1976962e+00
 -7.2133338e-01
 -1.2838709e+00
  3.4026632e+00
  2.8839111e-01
  4.7216749e+00
 -1.0604464e-01
 -3.6933551e+00
 -8.7129068e+00
 -4.3341565e+00
 -2.5096363e-01
 -7.5201482e-01
 -2.4706697e-01
  1.3753731e+00
  9.4562829e-01
 -1.1315551e+00
  3.1877716e+00
  9.7112879e-02
  7.6450901e+00
 -1.6067080e+00
 -3.1508455e+00
 -2.6789281e+00
  4.5963335e+00
  3.0077319e+00
  8.6609447e-01
 -5.1571721e-01
 -1.1036196e+00
 -8.7521094e-01
 -2.3485410e+00
 -1.0371875e+00
  9.8842233e-01
  5.7115660e+00
  3.5831755e-01
 -1.6696149e-01
 -3.5256237e-01
 -3.7007859e+00
 -1.4451044e+00
  2.7160027e+00
 -1.2871995e+00
  3.6721164e-01
  4.0670924e+00
  4.9332614e+00
  9.7154112e+00
  1.5941514e+00
  2.3365059e+00
 -5.1033962e-01
 -1.4868224e+00
 -1.6048834e+00
 -1.2395127e+00
  3.1427031e+00
 -3.4639611e+00
  7.3418460e+00
 -4.9040117e+00
  1.7571130e+00
  1.8913243e+00
  2.5264659e+00
  3.9144549e-01
  1.8272198e+00
  6.9215360e+00
 -6.5285616e+00
 -4.3387089e+00
  5.3852339e+00
 -4.4282756e+00
  8.0855483e-01
 -1.3618507e+00
  6.4141691e-01
  3.0382049e+00
  1.3582203e+00
  3.3298877e-01
 -2.6426082e+00
  1.5961177e+00
  9.9030137e-02
  7.2972107e+00
 -2.2902513e+00
 -6.2626009e+00
 -1.1166623e-01
 -4.7315822e+00
 -3.4466610e+00
 -1.2730908e+00
 -1.6406332e+00
  2.3299813e+00
  6.9475733e-02
  6.9427953e+00
 -7.5166065e-01
 -2.9673004e+00
 -5.6725281e-01
  6.6475859e+00
  3.8876258e-02
  4.3210025e+00
 -1.2898970e+00
  2.3142338e-01
  2.4890687e+00
  7.2033542e-01
 -2.3251557e+00
 -2.7303846e+00
  2.0382313e-01
  1.9281503e+00
  7.1940273e-01
  1.9883363e+00
 -3.5925767e-01
  2.2239079e+00
  2.6738317e+00
  2.4261858e+00
 -6.0506642e-01
  6.8818092e-01
  8.7803370e-01
 -2.1770244e+00
  1.8644823e+00
 -2.8413289e+00
  1.2193912e+00
 -1.2771256e+00
  8.4912390e-02
  1.0241915e+00
  1.4156273e-01
  7.0091496e+00
 -1.3153274e-01
  6.2267523e-02
  1.3956301e+00
 -2.8031092e+00
 -3.3502803e+00
  9.6683604e-01
 -1.9375573e-01
 -1.0116378e+00
  9.0740269e-01
  2.1088968e-01
  1.6627285e-01
  2.6061227e+00
 -6.9811788e+00
 -4.3573782e-01
 -1.3422458e+00
 -2.9979763e+00
 -3.6813726e+00
  4.8897442e-01
  1.3700005e+00
 -4.9073085e-01
 -3.1564734e+00
 -3.7706393e-01
 -2.2146373e+00
  2.3855417e+00
  3.9415731e+00
 -1.3773850e+00
 -1.8134308e+00
  1.5558337e+00
 -8.6241281e-01
  5.0702757e-01
 -9.3370700e-01
  1.0116143e+00
 -1.0711151e+00
 -6.6023695e-01
 -4.3173794e-02
 -3.2069179e-01
  1.5219022e-01
  1.1989305e+00
  3.3631928e+00
 -2.3668091e+00
 -4.8085151e+00
  7.1884090e-01
 -9.5862370e+00
 -4.9048099e-01
 -1.7584997e+00
 -2.5177381e+00
  8.2276946e-01
  1.6295376e+00
 -3.5814679e-01
 -2.0806580e+00
 -2.5828552e-01
 -1.3243065e+00
 -2.6424047e-02
  5.6898599e+00
 -2.9238597e-01
 -4.4834518e+00
 -2.8156823e-01
 -1.1235986e+00
  2.5692017e+00
  1.7530933e-01
  1.7233641e+00
  3.3407226e+00
 -1.6652257e+00
 -9.7875553e-01
  4.3746385e-01
 -2.3289831e+00
 -3.4405751e+00
 -6.6379768e-01
 -3.2446226e-01
 -1.0342563e+00
 -1.8348273e-02
 -1.8252524e+00
  1.0188746e+00
  4.1083336e-01
  1.5056187e-01
  3.5659057e-01
 -4.2726320e-01
 -1.0596149e+01
 -5.7132083e-01
  2.4189188e-01
 -1.3643481e+00
  2.0423102e-01
 -5.1285392e-01
  4.9358997e-01
  3.9030766e+00
 -1.7731547e+00
 -9.3274496e-02
 -2.9094243e+00
  6.9738668e-01
 -4.6333117e+00
 -2.3460363e-01
 -4.4586043e+00
  2.1037803e+00
 -9.1219127e-02
  5.7285810e+00
  5.7963336e-01
  8.0803651e-01
  4.6594444e-01
 -2.5375810e-01
  2.1891751e+00
 -2.6773996e+00
 -4.9141628e-01
  2.0872113e-01
  2.1861665e+00
 -3.9054525e+00
 -5.7262284e-01
 -1.9190428e-01
  6.6805953e-01
 -2.8478038e-01
  3.6925611e-01
  3.0897200e+00
 -7.2085166e-01
  2.6945004e-01
 -2.4066522e+00
  5.0132146e+00
 -1.6269265e-01
  3.5820377e+00
 -1.6364444e+00
 -5.6142988e+00
  2.7944753e+00
  1.7904867e+00
 -6.3931979e-02
  6.6648918e-01
  4.4789538e+00
 -2.7382059e+00
  1.1412791e+00
  2.9711165e+00
 -3.4410038e+00
 -6.2118834e-01
  2.2279644e+00
 -6.4931929e-02
  1.1581360e+00
  1.4851229e+00
  1.9763026e-01
  4.7444916e+00
  8.1001461e-01
 -3.4318464e+00
 -3.4637098e+00
  1.0448739e+01
 -2.6116269e+00
 -9.0156657e-01
  3.2301614e+00
 -2.7443569e+00
  4.4613990e-01
 -3.2476842e-01
  4.9382469e-01
  1.3604060e+00
 -4.9420580e-01
 -7.2221324e-02
  2.5512547e+00
 -1.2784801e+00
 -7.9703932e+00
  9.1812687e+00
  7.2282939e+00
 -3.1673062e+00
  4.7304067e-01
  1.2814684e+00
 -1.2638046e+00
  6.2722720e-02
 -1.3952270e+00
  1.0749774e+00
  3.9906153e-01
  3.4301114e-01
 -1.1954098e+00
 -2.4347522e+00
  4.9711680e-01
  1.4553879e+00
 -1.0109202e+01
  6.2025869e-01
 -2.4815156e+00
  2.5886328e+00
 -3.0064523e-02
  2.0753834e-01
 -4.0891829e+00
 -7.4978781e-01
  7.2318089e-01
 -3.2001650e-01
 -2.9640694e+00
  1.6190376e+00
 -2.6193607e+00
 -1.6389760e-01
 -5.8001466e-02
  8.7236184e-01
  2.0511281e+00
  6.9266331e-01
 -2.0229225e+00
 -4.2305119e-02
 -3.3912432e+00
  9.5969868e-01
 -3.8951337e-01
  1.3765100e-01
 -1.3440915e+00
 -4.9039662e-01
  1.6725632e+00
  1.1618098e+00
  4.2704439e-01
  6.5312452e+00
  1.6753814e+00
  4.0297732e+00
  8.4980473e-02
 -2.4126403e-01
 -2.6412337e+00
 -5.0407324e+00
 -8.4911662e-01
 -3.0252938e+00
  2.5815332e+00
  2.4133604e+00
  2.6916690e+00
 -3.3714843e+00
  9.6782917e-01
  3.1151778e-01
 -4.2492425e-01
 -6.2638175e-01
  3.1806982e-01
 -7.2105318e-01
  5.2722850e+00
  8.1583858e-01
  1.6285167e+00
  1.7642596e+00
  1.3148463e+00
  2.6352843e-02
 -2.1578438e+00
  1.4312940e+00
 -3.0345030e+00
  2.1819183e-01
  2.8155891e-02
  1.2183191e+00
  1.3940225e+00
  1.2665304e+00
 -8.1256878e-01
 -9.1725427e-01
  1.0442969e+01
  1.0592952e+00
  1.2154323e+00
 -1.7904809e-01
  2.9839683e-01
 -6.1492109e-01
 -1.4566106e+00
  6.6672355e-01
 -7.4233532e-01
 -1.0873162e+00
  2.3553290e+00
 -3.0621207e+00
 -2.1527044e-01
 -8.4195793e-02
  2.7794889e-01
  4.0173601e-02
 -5.3364635e-02
  2.2546856e+00
 -7.7425590e+00
 -3.6892736e+00
  2.4614534e-01
 -9.4829744e-01
  7.2112423e-01
 -7.9252654e-01
  7.3580754e-01
  2.2038600e+00
 -2.3321621e-01
 -1.9956846e+00
 -1.7334264e-02
  4.6806788e+00
  4.7589297e+00
 -7.0699781e-01
 -1.9713306e+00
 -3.9715281e+00
 -1.3148111e+00
  9.8564547e-01
 -5.4596586e+00
 -1.8683853e+00
 -7.2970152e-02
 -4.1214198e-01
  1.2165431e+00
  1.3331684e+00
  1.4822685e+00
  1.3614212e+00
 -3.4334464e+00
  8.8899577e-01
 -4.9351865e-01
  2.6018126e+00
 -6.2677279e+00
 -5.1168056e+00
 -5.1153541e-01
 -9.5769931e-03
 -4.5442448e+00
 -7.8831947e-01
  1.3697937e+00
 -3.5213605e-01
  1.3806366e+00
  9.4055727e-02
  7.3463690e-01
  2.3469644e+00
 -9.5508652e+00
 -1.4879084e+00
 -1.7499007e-01
  6.8867117e-02
  1.7265939e+00
 -1.5177317e+00
  1.3042006e-01
 -2.0416316e-01
  1.0648489e+00
  8.0692762e-01
  3.1764710e-01
  7.1614283e-01
  2.1948881e+00
  8.5727412e-01
  1.5001003e-01
 -9.3651474e-02
  3.5637081e-01
 -5.0660908e-01
 -9.2863029e-01
  4.0793896e-01
 -3.1426683e-01
 -1.1396152e+00
  8.1778979e-01
 -3.6213702e-01
 -2.5494719e+00
 -3.9442912e-02
 -1.6371378e+00
 -2.9647648e+00
 -1.0164492e-03
  3.3294113e+00
  1.9728138e-01
  1.0260745e+00
  8.0900323e-01
 -1.4818078e+00
  1.1152589e+00
 -3.7076349e+00
 -1.0408601e+00
 -1.5033860e+00
 -3.2808995e+00
  1.3949003e+00
  1.1785443e+00
 -1.6253515e+00
 -5.3035611e-01
  2.3538150e-01
 -1.2017184e+00
 -6.2007004e-01
 -6.7183495e-01
  2.0487068e+00
  1.0493586e+00
  1.5417342e+00
  4.1065609e-01
  9.0125173e-02
  9.4566000e-01
 -3.2177615e+00
  7.9538517e+00
  5.6268287e-01
  1.3308057e+00
  1.2833568e+00
  2.9202101e+00
  1.3147966e+00
  1.2807941e-01
 -2.4363539e-01
 -1.5041385e+00
 -6.5237296e-01
  4.3092883e-01
 -5.3017557e-01
 -1.3779676e+00
  2.1160533e-01
  2.7350907e+00
  2.2431459e+00
 -3.1245952e+00
 -3.4106083e+00
 -2.8020446e+00
  1.0633988e+00
 -1.1822419e+00
 -2.1494689e+00
 -1.7503361e+00
 -9.9465311e-01
  2.8466966e+00
  8.3147001e-01
 -3.7833536e-01
  6.6984534e-01
  3.4167266e+00
 -1.4133153e+00
  2.0345042e+00
 -2.6601012e+00
  5.6204262e+00
 -1.2659469e+00
  8.6533618e-01
 -5.5517392e+00
 -2.9240835e+00
  4.4871111e+00
  2.7084327e+00
  3.3594711e+00
  2.2771299e+00
 -4.3980460e+00
  5.8184858e-02
 -5.8887047e-01
 -1.7426636e+00
 -2.1930895e+00
 -1.5305521e+00
  6.9541508e-01
 -1.6291114e+00
  1.3546047e+00
 -7.6741261e+00
 -2.1089456e+00
  3.2657531e-01
  1.2176356e+00
 -6.1475019e+00
  2.8833869e-01
 -1.2744915e+00
 -8.0662298e-01
 -2.3609388e+00
  6.9929481e+00
 -2.0949380e+00
  2.5786116e+00
  1.7410381e+00
 -3.3853290e+00
 -1.4947960e-01
  8.3533283e-03
  1.0613766e+00
  3.3890431e+00
 -6.2930598e+00
 -5.1130524e+00
  1.3858839e+00
  3.4099996e+00
  6.4431844e+00
  2.2490326e-01
  1.3750792e-02
  3.7322385e+00
  2.0295067e+00
 -4.4120735e-01
  2.6684661e+00
 -9.1041603e+00
  3.9630073e-01
 -2.9836075e+00
  1.8486881e+00
 -9.9151337e-01
  7.9939502e-01
 -1.9263377e+00
  4.4988444e-01
  1.4719813e+00
 -9.4103104e-01
 -1.1408481e-01
  5.2680635e+00
  1.1234847e-01
 -2.8244743e-01
  2.2321527e+00
  3.5574021e+00
 -2.1992748e+00
 -2.4208291e-01
 -1.0406821e-01
 -4.3981290e-01
  2.2224244e-01
 -3.6104512e+00
  2.5604348e+00
 -1.3827534e+00
 -6.1327346e-02
 -4.0489883e+00
  4.3389497e+00
  1.4965681e+00
  7.4083662e-01
  6.8262017e-01
 -6.1869297e+00
  1.6737931e+00
  8.2163465e-01
 -7.1156287e-01
  3.2124582e-01
  4.7069273e+00
 -6.9942963e-01
  2.6255677e+00
 -9.5165288e-01
 -1.4766675e+00
  1.7094017e+00
  5.6811633e+00
  2.0417447e+00
  9.1135252e-01
  1.2560318e+00
 -5.9516635e+00
 -1.5426441e+00
 -1.7867276e-01
  3.2646170e+00
  2.4750056e+00
  1.2768376e+00
 -1.5172069e-01
 -1.8700233e+00
 -1.2298743e+00
 -5.1875299e-01
 -7.2617823e-01
 -1.6220732e+00
  2.1187279e+00
 -1.6639842e-01
  1.0549484e+00
  5.1492238e+00
  2.5278103e+00
  1.4644202e+00
  3.0122146e-01
  5.6180096e+00
 -1.2090718e-01
  7.4862032e+00
  1.7852226e+00
  8.9337632e-02
 -4.3827504e-01
 -9.3324178e-01
 -7.6526636e-01
  5.0562298e-01
  1.0147424e+00
 -7.9938227e-01
 -1.2510799e+00
 -2.4516718e+00
  1.8052022e+00
 -2.5901265e+00
 -2.8455341e+00
  2.6709223e+00
  2.2596309e+00
  4.6631867e-01
  4.6399698e-01
  1.5360257e-01
  6.1144769e-01
 -2.5011396e+00
 -2.7303386e+00
  5.2455192e+00
 -3.1266944e+00
  1.6447687e+00
  4.0384459e-01
  1.3858024e+00
  1.4341389e+00
  6.3640261e-01
  5.8935482e-02
 -8.1408954e-01
 -9.9311844e-03
  4.9385661e-01
 -2.0826631e+00
 -1.6996391e+00
 -4.3770552e+00
  4.8742938e+00
 -4.2571073e+00
 -5.7857913e-01
  4.0182223e+00
  1.9137794e+00
  8.4564238e+00
  9.2183000e-01
 -1.8958064e+00
 -1.1419358e+00
 -2.8672931e+00
 -1.9016670e+00
 -1.5258144e+00
 -1.9018917e-01
  9.4962734e-01
  9.2328346e-01
 -1.8772937e+00
 -2.2978747e+00
  1.8414855e-03
 -2.1839802e+00
  5.0458275e-02
 -2.5221283e+00
  5.1515899e+00
 -7.5977123e-01
 -1.4268197e+00
 -9.6396595e-01
 -8.9172983e-01
  2.7376246e+00
 -2.9014657e+00
 -3.1083792e-01
 -4.1733642e+00
 -3.6991591e+00
  9.2512150e+00
 -1.2948269e+00
 -3.8113065e+00
  1.1913813e+00
 -3.9375594e-01
 -2.0367825e+00
  1.5034430e+00
  1.8083841e-01
  4.6020344e-02
  2.8915858e-01
  1.5073593e+00
 -1.7626895e+00
  1.1089638e+00
  1.0685598e+00
 -2.9556239e-01
 -4.1334820e+00
 -1.1604238e+00
  8.8551295e-01
  1.9877136e-01
 -6.9426310e-01
  2.3452735e+00
 -3.6218135e+00
 -1.4890212e+00
  1.1287863e+00
 -4.5858469e+00
  3.1934006e+00
 -3.0632935e+00
 -3.7623992e+00
  2.7991564e+00
  4.9533806e+00
 -2.9500523e+00
  5.7255322e-01
 -4.3539090e+00
  3.0687065e+00
 -5.9796679e-01
 -5.1185966e+00
 -4.4202552e+00
 -3.8627717e-01
 -7.8571796e-01
  7.2400303e+00
  9.9447036e-01
  2.8005781e+00
 -3.9378107e+00
 -3.6320882e+00
  2.7850990e+00
 -5.9275073e-01
 -3.2160242e+00
 -6.1646171e+00
 -2.1146150e-01
 -5.8343019e-02
  6.3772202e-01
  9.7962868e-01
  5.7425437e+00
  1.2212318e+00
  2.7646401e+00
 -2.2391002e+00
 -9.4477421e-01
  5.3214045e+00
  1.3652121e+00
  3.7657070e+00
 -1.7330868e+00
  2.4726095e+00
 -1.5285575e+00
  2.1292603e+00
 -5.0888681e+00
 -4.1262550e+00
  8.8136709e-01
  4.2833239e-01
 -2.1215622e+00
  2.2831519e-01
 -9.3740928e-01
 -1.8169763e+00
 -2.9868504e-01
  9.5218587e-01
 -1.6383023e+00
 -1.1369600e+01
 -9.9386758e-01
  9.6342409e-01
 -5.0165477e+00
 -1.5455313e+00
  6.8341649e-01
  1.3756160e+00
  1.7224661e-01
  2.3877897e+00
 -3.5497947e+00
 -6.1873846e+00
 -4.2636788e-01
 -3.0953324e-01
  2.0015504e+00
  3.1866989e+00
 -4.7643328e-01
 -7.1987551e-01
  5.0854844e-01
  1.1998901e+00
  9.3253260e+00
 -4.5389214e-01
 -5.4142904e-02
 -3.2972236e+00
  9.6064396e+00
 -8.4323213e-02
 -1.6810510e+00
 -1.7191999e-02
 -1.8468722e+00
  4.6222937e-01
  3.5209119e+00
  1.1904862e+00
 -3.6544513e-02
 -6.0966355e-01
  2.6392636e+00
 -1.9696744e-01
  4.0118675e+00
 -2.8274336e+00
 -2.3638418e+00
  8.2988650e-01
 -3.7175996e+00
 -1.7570503e+00
 -1.0241859e-01
  8.2576126e-01
  2.2398384e+00
  1.2899028e+00
  2.2877147e+00
  2.7769911e+00
  9.0269178e-02
  1.7574058e+00
 -2.8972518e-01
  7.2414666e-02
 -5.6912041e+00
  1.7050457e+00
 -2.3579237e+00
 -3.6611102e+00
 -8.2878089e-01
  1.5825968e+00
  5.1360941e-01
  1.1597178e+00
  1.9055108e+00
  4.4238820e+00
 -8.3661866e-01
 -1.3906744e+00
 -2.8452597e+00
  5.9805665e+00
 -9.4016623e-01
 -2.9043654e-02
 -6.5804178e-01
  2.4393634e-01
 -2.6872650e-01
 -2.6549532e+00
  3.7688562e-01
 -8.7827122e-01
 -6.5203047e-01
 -4.8622531e-01
  1.4392009e+00
 -1.1978666e+00
  2.1829574e+00
  5.2895528e-01
  2.0550940e+00
 -5.9008300e-01
 -2.6569622e+00
 -5.8535057e-01
  1.3915336e+00
 -8.1192845e-01
 -2.9627178e+00
 -4.3170328e+00
 -6.2880524e-02
  4.8612624e-01
 -1.7719273e-01
  5.0826907e-01
 -1.3065739e+00
 -2.3708682e-01
  3.6268800e-02
 -1.1774459e+00
 -9.4346851e-01
 -6.4143682e-01
 -1.5263777e+00
 -1.0331958e+01
 -2.4164648e+00
  1.4265660e+00
  1.2610909e+00
  5.4358411e-01
 -5.4944320e+00
  3.0771651e+00
  6.2709942e+00
 -3.6805410e+00
 -1.2727106e+01
 -7.2341919e+00
 -4.0445012e-01
 -6.3407904e-01
 -2.9795197e-01
 -5.0896066e-01
 -1.5044384e+00
  8.9392656e-01
 -1.3348355e+00
  1.2607595e+00
 -3.2247717e+00
  1.4249678e+00
 -7.6654337e-02
  2.8460199e-01
  1.4341486e-01
 -7.0686924e-01
  1.6298059e+00
  5.2932918e-02
 -1.1294084e+00
 -7.7552419e+00
  1.8181649e-01
 -9.8261136e-01
 -1.5105329e-01
 -2.7312593e+00
  1.0328688e+01
  5.1832289e-02
  1.5794505e+00
 -3.1114763e-01
 -5.1143271e-01
 -1.1676960e+00
  2.4572797e+00
  8.4200346e-01
  5.3122151e-01
  5.2282089e-01
  4.2909414e-01
  3.2470208e-01
 -5.0146222e-01
  1.4296602e+00
  2.0435053e-01
 -6.1958039e-01
 -1.4704013e+00
  4.5764038e-01
  5.5255489e+00
 -7.1348155e-01
 -5.4164183e-01
 -7.3509312e-01
 -1.3211493e+00
 -1.8432456e+00
 -4.7298294e-01
 -6.2640009e+00
 -1.0025990e+00
  2.5893571e+00
  2.1121013e-01
 -4.1523232e+00
 -2.2385180e+00
 -6.5185271e-02
  3.8999190e+00
 -4.0437257e-01
 -4.8211689e+00
 -1.2803583e+00
  5.0587401e+00
  4.7582536e+00
  2.4147434e+00
  1.9233500e+00
  2.6496575e+00
 -4.4207582e+00
 -2.1282108e-01
 -6.4248186e-01
 -5.6306720e+00
  2.2189207e+00
  8.3968931e-01
  3.3180239e+00
  5.8005428e+00
  2.4970508e+00
  1.0168972e+00
  9.3482006e-01
  1.1488930e+00
 -5.6167102e-01
 -7.2684443e-01
  2.4445165e-02
  4.6337734e-04
  3.5608845e+00
 -1.3654084e+00
  3.2170138e+00
 -5.2321506e-01
  3.0947981e+00
 -7.1875477e+00
  4.8477426e-01
 -1.9217656e+00
 -3.0999184e+00
 -8.0565147e+00
  6.4847245e+00
 -5.3538332e+00
 -6.7882752e-01
  1.7726082e-01
  1.8232832e+00
 -1.4995664e+00
 -3.4238312e-01
 -5.3676329e+00
  3.4997149e+00
 -4.6113539e+00
 -8.8156166e+00
  4.5250401e-02
  1.5457236e+00
  2.6099496e+00
 -3.3626561e+00
  1.3120188e+00
  8.6966467e-01
 -2.4160795e+00
 -2.1035585e+00
 -2.4671011e+00
  3.1543782e+00
  5.2569747e+00
 -4.4242156e-01
  2.3628473e-02
  4.0353554e-01
  9.3395936e-01
 -2.1793003e+00
 -1.6512436e-01
  2.0884529e-02
  3.9490664e+00
  4.3375711e+00
 -5.6102300e-01
  6.8736732e-01
  7.4716650e-02
 -5.4787750e+00
 -2.4398845e-01
 -1.1233124e+00
  6.9655240e-01
  1.7173138e-01
  5.0837922e-01
 -3.2483941e-01
  8.8905567e-01
 -2.2365338e-01
  1.5390983e+00
  2.4229224e+00
 -5.1344347e-01
  2.1450239e-01
  2.5261424e+00
  1.0559624e+01
 -8.4770054e-01
 -3.0190499e+00
 -3.0279868e+00
 -2.0689702e-01
 -2.4737883e+00
  1.0076298e+01
 -9.1097820e-01
  3.5253260e-01
 -9.0735072e-01
 -1.4104788e+00
 -7.1409380e-01
 -2.8855197e+00
  1.9555972e+00
  3.1200294e+00
 -4.8016977e+00
 -1.9396305e+00
  3.5361164e+00
  3.8023629e+00
  5.7757244e-02
 -2.8880765e+00
  9.8465103e-01
  3.0701060e+00
 -1.7168566e+00
 -4.8148413e+00
  2.3349557e+00
 -2.1463519e-01
  1.8898473e+00
  8.1528902e+00
 -7.7010500e-01
  1.5828612e+00
 -1.3755660e+00
 -3.8257127e+00
 -2.7367477e+00
 -1.5633616e+00
 -2.0079298e+00
 -2.9739339e+00
  2.7017999e+00
 -1.0879178e+00
  2.3942907e+00
  9.8835915e-01
  1.9146397e+00
  5.0198728e-01
 -3.4900639e+00
 -1.1317925e+01
  5.4121897e-02
 -3.8249073e+00
  6.6653800e-01
  3.8832107e+00
  6.6992605e-01
  1.3100657e-01
 -1.6273108e+00
  1.3875009e+00
 -7.6183140e-01
 -2.2594490e+00
 -1.1683710e+00
 -2.4849308e+00
 -1.8874590e-01
 -1.8032746e-01
 -2.4746356e+00
 -1.5644290e+00
  1.3244078e-01
 -4.3407276e-01
  5.2398443e-01
 -2.0382303e-01
  1.8961214e+00
 -3.2440515e+00
 -1.4019704e+00
  1.1089071e+00
  1.6419418e+00
 -6.9928348e-02
 -2.2908468e+00
 -8.5401440e-01
  1.3654662e+00
  2.2144682e+00
  1.1879470e-01
  2.0384052e+00
  1.2164121e+00
  4.1225290e+00
  1.5642779e+00
  1.3971658e+00
  5.6508942e+00
 -9.3103939e-01
  8.7979708e+00
 -2.7765419e+00
 -5.3501725e+00
  2.5218177e+00
 -2.3341956e+00
 -4.5332398e+00
  3.9588132e+00
  6.0521507e-01
  6.7860723e+00
 -1.7115019e-01
  4.7903104e+00
  4.8111997e+00
  4.8275476e+00
 -2.8260856e+00
  3.1325803e+00
 -1.9534444e+00
 -3.5546572e+00
  5.2141941e-01
  3.6813486e+00
 -1.2725698e+00
  1.0844671e+00
 -2.2014134e+00
  9.0307941e+00
  1.0776358e+01
 -2.7336824e+00
  3.5491698e+00
 -1.1029531e+00
  7.9265946e-01
 -1.1136045e+00
 -6.4731359e+00
  8.4583741e-01
 -3.3527139e-01
  2.8800409e+00
 -5.3223319e+00
 -3.3969040e+00
 -1.9754914e+00
 -1.4454651e+00
 -2.8290095e+00
 -3.7184520e+00
 -4.7053248e-01
 -6.6481036e-01
 -2.0321507e+00
  6.6845572e-01
 -4.6693531e-01
  1.8822685e+00
 -1.9901106e+00
  1.7863123e+00
 -1.7575959e+00
  2.1385974e-01
  3.1866755e+00
  3.3486944e-01
  8.3977586e-01
 -2.2466853e-01
  1.2760479e+00
  3.8659897e+00
  4.0282598e+00
 -7.7208381e+00
  4.2776537e+00
  9.2426145e-01
 -1.9178534e+00
  2.3803096e+00
 -6.9007844e-01
 -1.9666504e+00
 -3.9272316e+00
 -9.3175954e-01
 -9.3689078e-01
  3.6907341e+00
 -5.3826702e-01
 -2.6367924e-01
 -8.0930901e+00
  1.6164814e+00
 -2.0969053e-01
  3.0000234e-01
  2.2147372e+00
  7.1799316e+00
 -9.9533433e-01
  8.7160702e+00
  4.7275627e-01
  4.7460885e+00
  3.6550016e+00
 -2.5579400e+00
 -3.1754419e-01
 -1.0123087e+00
 -4.4510230e-02
 -1.9658803e+00
 -1.7696530e+00
  1.8041298e-01
  1.9487699e+00
  7.3410053e+00
 -2.1477752e+00
  7.6133738e+00
  7.7642894e-01
 -5.5597972e-02
 -3.6134024e+00
  1.3330811e+00
 -1.9809675e+00
  2.5746276e+00
  1.4100438e+00
  1.0562530e+00
  1.3306980e+00
 -6.0064846e-01
 -1.0941434e+00
  1.7852208e-01
 -1.4727386e+00
 -7.2818071e-01
  2.2539414e-01
 -3.1734782e-01
  2.7257953e+00
 -7.0998985e-01
 -5.2851498e-01
  1.1364684e+00
 -6.6320360e-01
  1.6321030e-01
 -9.1763467e-01
 -3.5182631e-01
  1.6071746e-01
 -2.7404480e+00
  8.3119905e-01
 -1.6599711e+00
  2.4210334e+00
  1.7702197e+00
 -1.2550324e+00
  6.7555487e-01
  3.7736609e+00
 -1.4331934e+00
  5.2094617e+00
  2.3221385e-01
 -1.2539458e-01
 -6.6363675e-05
  1.3862019e+00
 -5.7316649e-01
 -1.8595083e-01
 -4.2817783e+00
  1.6757227e+00
  1.4582157e-01
  3.1119595e+00
  1.2730534e+00
 -3.6616542e+00
 -6.4271653e-01
 -1.3615928e+00
  5.9614635e-01
 -6.1999261e-01
  4.8868501e-01
  1.0568206e+00
  3.4918055e-02
  1.0170983e+00
  1.2576994e-01
 -6.9817984e-01
 -1.5112734e-01
  4.4590282e+00
  1.5917263e+00
 -5.8693743e-01
 -8.8809109e-01
  2.3225856e+00
 -2.5901350e-01
  1.3302187e+00
 -3.7261453e-01
  7.1184242e-01
 -9.0547889e-01
 -6.1972742e+00
  9.6037507e-01
  4.8398888e-01
 -2.6738191e+00
 -3.6224347e-01
 -6.0201389e-01
 -2.2229832e-01
 -4.0451413e-01
 -8.9103408e-02
 -2.8403342e+00
  3.2959470e-01
  7.9402184e-01
 -1.5287445e+00
 -4.0303159e-01
  1.4451460e+00
 -2.3177487e-01
  3.3228126e-01
  2.1373425e-01
 -1.3416466e+00
 -7.9630740e-02
 -3.5762846e-01
  2.6494479e-01
  3.6044490e-01
  8.8216805e-01
  1.3212551e-01
  1.4452678e+00
  2.6051226e-01
 -2.4701491e-01
  1.5447828e-01
  3.1915319e-01
 -4.4283012e-01
 -3.0282798e-01
 -1.0475665e+00
 -3.1775326e-01
 -2.1317163e+00
  5.3729820e-01
  1.2438380e+00
 -2.4761467e+00
  1.0115736e+00
  9.9866638e+00
 -4.4268789e+00
 -7.6705015e-01
  5.9031072e+00
 -6.7609811e-01
  1.9178414e-01
  5.1835351e+00
  3.6709435e-02
  1.0093691e+00
 -1.6553713e+00
 -3.2828829e-01
  1.0137671e-01
 -3.7456903e-01
  2.3047496e-01
 -1.6809363e+00
 -1.6260602e+00
 -5.4210693e-01
 -1.9824449e+00
  1.6097093e+00
 -2.2259307e+00
 -1.0268955e+00
 -4.6847424e-01
  4.5570102e-01
  9.4374883e-01
  3.4048522e-01
 -3.6946073e+00
  2.7858272e-01
  9.5910043e-01
  1.9578203e+00
 -1.6175346e+00
  1.8720524e+00
 -1.5803795e+00
 -1.7457870e-01
  5.7051226e-02
  2.7810957e+00
  8.5503693e+00
 -1.3982379e-01
  2.5152713e-01
  2.7940760e+00
  6.3019514e-01
  1.1161983e-01
  2.1356685e-01
 -1.9327089e+00
  4.9003673e-01
  1.2100767e+00
  3.7581167e-01
 -2.7653484e+00
  3.2500074e+00
  5.8612657e-01
 -2.9699979e+00
 -2.0339816e+00
  6.1162686e-01
  5.4210913e-01
 -7.1362484e-01
  1.1761265e+00
  2.7615803e-01
  2.6557217e+00
 -1.0840291e+00
  3.4337500e-01
  2.6801972e+00
 -1.7678485e+00
  7.1770161e-02
  1.3881052e-01
 -1.4906303e+00
 -3.7036911e-02
  5.7173228e-01
  2.9885280e-01
  1.1759657e-01
 -9.6560574e-01
 -5.3563249e-01
  2.2892714e+00
  1.6228328e+00
 -1.3203784e+00
 -2.3233990e-01
  1.1601272e+00
  6.2182605e-01
 -3.2796955e+00
 -4.5652288e-01
 -3.9084926e-01
 -1.8969560e-01
 -1.3459240e+00
  4.1017241e+00
 -2.0557094e+00
 -2.0000017e-01
  1.2171173e+00
  1.4539669e+00
 -3.1081623e-01
 -8.3068144e-01
 -3.3913510e+00
 -3.3766873e+00
 -1.6536284e-02
  3.5300753e+00
 -1.6300398e-01
 -1.1672672e+00
  8.0734193e-01
  2.5964874e-01
  2.2071943e+00
 -5.0139612e-01
 -3.8147240e+00
 -3.9870579e+00
  7.4928513e+00
  6.6318030e+00
 -3.4179521e+00
  4.4123197e-01
  9.3200493e+00
 -2.4425926e+00
 -1.4047615e-01
  6.1890721e-01
  7.5286850e-02
 -1.1593779e+00
 -7.1561232e+00
 -3.2765620e+00
 -7.0384538e-01
  7.1021581e-01
 -9.7693574e-01
  8.0073023e-01
  4.5315075e+00
  4.7100365e-01
 -1.1507625e-01
 -9.5535380e-01
  2.1568204e-01
 -2.6258156e+00
 -1.7309611e+00
 -2.4615350e-01
  1.0714872e+00
 -2.2624977e+00
 -2.5919106e+00
 -4.0916815e+00
  2.7380991e+00
 -2.5019310e+00
  1.2436036e+00
 -1.2177305e+00
 -2.3390341e+00
  5.8096972e+00
  1.3023946e+00
  3.3210938e+00
 -2.2211550e-01
 -1.6371538e-01
 -8.0750936e-01
  5.2027349e+00
  9.1703540e-01
 -1.0635505e+00
 -4.1388531e+00
  1.4610583e+00
  2.1570284e+00
  3.0427027e+00
  1.3948681e+00
  1.0195829e+00
  9.0618169e-01
 -1.6416980e+00
  9.4904250e-01
 -1.4762123e+00
 -1.3915774e+00
 -1.9692531e+00
  2.6610322e+00
  1.8429910e+00
  3.9855289e+00
  9.3728966e-01
 -3.6744850e+00
 -4.3253655e+00
  2.2189331e+00
 -2.7502687e+00
 -2.1441689e+00
  8.9397955e-01
  5.0498433e+00
  3.0256975e-01
  1.0432408e+00
 -4.7352548e+00
 -2.0473173e+00
  2.4992342e+00
  4.7617945e-01
  3.2823312e-01
  2.5743711e+00
  4.8229134e-01
 -3.9992714e+00
  3.3031693e+00
 -1.2780850e+00
 -2.2658293e+00
 -4.8476501e+00
  1.3770483e+00
 -4.3782053e+00
  2.9181764e+00
 -3.4914404e-01
 -3.3722820e+00
 -1.0986954e+00
 -2.3251307e-01
 -2.4431663e+00
 -4.1514401e+00
  7.3624693e-02
 -1.9346520e+00
 -5.2380258e-01
  8.8235158e-01
  5.4456264e-01
  4.6414723e+00
 -7.6782644e-01
 -4.6882353e+00
 -6.4606991e+00
 -1.8214487e+00
  1.5304469e+00
 -8.7646985e-01
  8.2254134e-02
 -1.5700080e-01
 -2.6032108e-01
  1.4227197e+00
  5.5885971e-01
 -1.1615216e+00
 -4.9761584e-01
  3.7143099e-01
 -2.0575981e-01
 -2.5630048e-01
  3.5236508e-01
  8.2713887e-02
 -8.1714058e+00
 -2.1341851e+00
 -4.9116659e+00
  9.2973149e-01
  2.4586949e+00
  1.7152393e+00
  6.2899458e-01
 -1.3803508e+01
 -9.9291205e-01
  1.7332069e+00
  4.6271899e-01
 -6.3643680e+00
  3.5529168e+00
 -1.4381447e+00
 -8.8097996e-01
 -2.5344515e+00
  3.1636209e+00
 -1.4430615e+00
 -4.5354086e-01
 -1.3471363e+00
 -3.7858872e+00
  2.9792295e+00
 -5.3436780e-01
  4.2884831e+00
 -3.9080468e-01
 -6.1536926e-01
  6.7179918e-01
  9.3201458e-02
  2.9427969e+00
  3.6648357e-01
 -1.1129442e+00
  3.6169362e-01
 -1.2621912e-01
 -8.8816899e-01
 -2.7101755e+00
  3.8974759e-01
 -1.1559602e+00
  2.1224718e+00
 -1.3642293e+00
 -9.3789166e-01
 -9.6094456e+00
 -1.2684779e+00
 -7.1398383e-01
 -3.2067904e+00
 -2.6262391e+00
 -9.0179563e-02
  1.2013482e+00
 -9.6384031e-01
  2.0164774e-01
  2.1777370e+00
  1.0537147e-01
 -4.5915637e-02
  4.9536592e-01
  3.2990995e-01
  4.5559579e-01
 -9.3747654e+00
  1.1630253e+00
  5.6093258e-01
 -1.3723743e+00
  9.6957606e-01
 -5.2120056e+00
  1.0593710e+00
 -2.9120412e+00
  1.9930030e+00
  6.0653347e-01
  1.9290509e+00
  8.1787318e-01
  1.3660390e+00
  3.2346697e+00
 -1.5425833e+00
 -2.7025087e+00
 -1.1334081e+00
 -4.6345654e+00
  4.6616163e+00
  3.7338510e-03
  1.5613049e+00
 -2.6643982e+00
 -5.4426068e-01
  1.1258405e+00
  2.1784778e+00
 -2.2146876e+00
  6.7878497e-01
  6.1791235e-01
 -3.1919265e-01
 -1.0912982e+00
 -1.6584027e+00
  3.2444477e-02
  7.8397799e-01
  1.0509956e+00
 -7.6591949e+00
 -1.1721396e-01
 -7.6714504e-01
 -1.7533275e+00
  6.7232962e+00
 -2.8417106e+00
 -3.1043882e+00
 -1.4851996e-01
  1.4896926e+00
  6.4890379e-01
  8.1060600e-01
  5.6341434e-01
  1.6105442e+00
  1.5425535e+00
  2.6075935e+00
 -9.1618371e-01
 -9.7823328e-01
 -4.5607457e+00
 -1.6039963e-01
 -4.3173867e-01
 -2.0077662e+00
 -1.8887713e+00
 -1.5078834e-01
 -1.6140801e+00
 -2.7161682e+00
 -1.5806391e+00
  1.1164733e+00
 -2.0950878e+00
  2.0563962e+00
  2.9953364e-01
 -1.2100586e+00
 -2.5583119e+00
 -3.4878454e+00
  3.8198760e+00
 -1.0616752e+00
  1.1300770e+00
  1.1836864e+00
  2.5105207e+00
  4.0948540e-01
  1.5736366e-02
  1.0608671e+00
 -8.5898390e+00
  2.0232840e+00
 -8.2515016e-02
 -4.0428400e-02
  1.7302940e+00
 -1.5080962e+00
 -2.2426033e+00
  4.3755531e+00
  1.1682811e+00
  9.4913316e-01
  1.5418608e+00
 -9.2066348e-02
 -9.0537086e-02
 -3.6338387e+00
 -3.5433507e+00
  8.4028494e-01
 -4.6899086e-01
 -6.0257602e-01
 -1.4940894e+01
 -1.5689728e-01
  5.5963784e-01
  2.6740365e+00
  5.7174546e-01
  8.5842133e+00
  1.9990408e-01
 -2.1724672e+00
 -7.8958893e+00
  2.3066828e+00
 -2.5490174e+00
  7.9051232e-01
  1.7960024e+00
 -3.8708196e+00
  2.5812894e-01
 -3.4530401e-01
  4.7422791e+00
  1.6573665e+00
 -3.5040472e+00
 -1.1708664e-01
  8.1502905e+00
  3.5502753e+00
  1.1483108e-01
 -2.3802731e+00
 -1.9433234e+00
 -1.0173142e+00
 -7.2455066e-01
 -3.0787878e+00
  1.3996631e-01
 -4.3178344e-01
 -2.9298656e+00
  9.9110685e-02
 -8.8023442e-01
 -4.0750709e+00
  1.7283069e+00
 -1.1370229e+00
 -4.1141397e-01
 -7.3417419e-01
  2.3384249e-01
  1.7824773e+00
 -1.8464378e+00
 -8.3787486e-02
  2.5164139e+00
  1.6564782e+00
 -2.1635668e+00
  1.8748711e+00
 -3.6676340e+00
  9.1538495e-01
  5.7263069e+00
 -2.9986100e+00
 -3.3507234e-01
  4.1222620e+00
 -7.8472817e-01
 -1.8442076e-01
 -1.2564912e-02
  6.3061470e-01
  1.1860489e+00
  1.0126244e+00
 -6.4559257e-01
  7.3333616e+00
  2.8618753e+00
  1.0716412e+00
  1.5486398e+00
  9.6127949e+00
 -1.1519822e-01
 -8.6560297e-01
  7.3752600e-01
  1.0265014e-01
 -2.9113746e+00
  3.8068781e+00
 -2.6069643e+00
  8.1199729e-01
 -2.3465614e+00
  7.3868990e-02
 -3.6100471e+00
  1.2408114e-01
  1.8995206e-01
 -1.0285363e+00
  7.5829387e-01
  6.4679474e-01
 -1.9871078e+00
 -2.5161531e+00
 -1.0217085e+00
 -3.0460507e-01
 -3.6970133e-01
  3.8374519e-01
 -1.7917745e+00
 -9.7978789e-01
  2.2694561e+00
  2.6673598e+00
 -1.3343796e+00
 -7.1359009e-02
  5.4179163e+00
  2.3111253e+00
 -5.6469095e-01
 -9.5855659e-01
  5.3468695e+00
 -2.0170190e+00
  2.6407878e+00
 -2.8891494e+00
  2.7390723e+00
  2.2310894e+00
 -3.0182228e+00
 -2.9047408e+00
 -5.4905677e+00
  8.9346391e-01
 -3.7925882e+00
 -2.8574851e-01
  6.7295992e-01
 -2.6481073e+00
  1.8735352e+00
 -2.1476889e+00
  7.2112924e-01
  2.6505065e+00
  8.9391392e-01
 -5.5057335e-01
  2.6651754e+00
 -4.2666154e+00
 -1.6725022e+00
 -3.3584194e+00
 -1.6602250e+00
  1.9157531e+00
  9.3666637e-01
 -5.1412582e-01
  7.2512074e+00
 -1.5553588e+00
 -4.2399144e+00
 -1.8274002e+00
  2.7917523e+00
 -4.8711160e-01
 -5.6071277e+00
  4.6911168e+00
  1.5396446e+00
  2.2698500e+00
 -8.5041685e+00
  2.0878306e-01
 -1.8138178e-01
  4.5737858e+00
 -6.3500321e-01
  6.3406551e-01
 -2.2994699e+00
  2.7212319e-01
  1.0509469e-01
 -1.4193063e-02
 -2.7204061e+00
  3.1307358e-01
 -9.2723030e-01
  1.7525253e-01
 -7.2726285e-01
  1.0912036e+00
 -8.3306521e-02
  1.0808585e-01
  2.9649591e+00
  2.6134009e+00
  1.2719090e+00
 -1.6313416e+00
  4.1502700e+00
  4.3397588e-01
  1.1584166e-02
  5.6456095e-01
  9.1257882e-01
  4.8463287e+00
 -3.1554312e-01
 -1.0503076e+00
  4.9347928e-01
 -1.8762742e+00
 -6.6170573e-02
 -1.3851318e-01
 -5.2440125e-01
  4.5747156e+00
  1.4283045e-01
 -4.0857542e-02
 -5.3281122e-01
 -5.2777237e-01
  1.2138898e-01
  7.4647653e-01
 -1.9136953e+00
  3.3142138e-01
 -9.4284028e-01
  2.8685004e-01
  2.4529641e+00
 -5.4449546e-01
 -1.0757656e-02
  1.6583877e+00
  1.1557268e+00
 -6.8384725e-01
 -1.8044046e-01
  4.6224225e-01
 -6.0775986e+00
  1.9090028e+00
 -1.1428044e+01
 -3.6225178e+00
  2.6257710e+00
  2.2535527e+00
 -5.3222194e-02
  6.9228888e-02
 -6.9281805e-01
 -4.5908771e+00
 -5.3149624e+00
 -2.1672338e-01
  7.8731638e-01
  2.9543877e-02
 -1.1886394e-01
 -2.0732713e-01
 -1.4948588e-02
  1.3194085e+00
  3.4340324e+00
 -1.8094170e-01
  1.4253287e+00
  3.2732193e+00
 -1.3279796e-01
 -3.2662717e-01
 -9.7037911e-01
 -3.5201019e-01
  8.5828811e-01
  1.0123889e+00
  4.4189507e-01
  2.9495221e-01
 -2.1617584e-02
 -1.4635889e-01
 -8.9215554e-02
 -3.0673939e-01
 -3.7081271e-01
 -8.8605493e-02
 -1.1220898e-01
 -4.1291583e-01
  1.2040557e+00
 -3.2749721e-01
 -2.6659653e-01
  2.8097889e+00
  7.2477007e-01
  8.2859613e-02
  1.6760360e+00
 -7.5342840e-01
 -3.6074847e-01
  1.3285363e-01
 -3.0796390e-02
 -2.1227067e+00
 -1.1919260e-02
 -8.0440056e-01
 -2.1652780e+00
  2.0894340e-01
 -1.0989161e-01
 -1.3258810e+00
  3.6608136e-01
  3.8443935e-01
 -2.8293967e-01
  1.2412949e-02
  6.2294835e-01
 -3.0752301e-01
 -4.6885943e-01
  2.9006787e-03
 -1.1311029e-01
 -4.1985786e-01
  8.1604278e-01
  4.6646386e-01
  5.6610569e-02
  2.1262640e-01
  9.9027169e-01
  4.6350482e-01
  4.1225758e-01
  1.3111345e+00
  1.1219741e+00
  8.6688167e-01
  4.9612603e-01
 -2.4404767e+00
 -5.7711178e-01
 -1.7218752e-01
 -1.0479411e+00
 -1.0045116e+00
 -6.2902683e-01
 -1.0250123e+00
  1.8130341e-01
 -1.5109856e+00
 -4.6377444e-01
  5.2525133e-01
  3.8855600e-01
  5.0429728e-02
  1.4428559e-01
  1.0028296e+00
 -1.9496850e+00
 -3.5296926e-01
 -3.8882256e-01
 -3.9594080e+00
  2.4029224e-01
  8.6486214e-01
 -9.1489948e-02
 -5.4542370e+00
 -2.1788619e+00
 -9.3723454e-02
 -1.4575500e+00
 -2.4277945e-01
  9.8342067e-01
  2.1876349e+00
 -3.9790547e-01
  2.9212952e-01
 -4.0930390e-01
  1.7446017e+00
 -6.4995581e-01
 -1.4658612e+00
 -1.6435134e+00
 -4.0378942e+00
  2.2339978e+00
  3.1658518e+00
  1.1787069e+00
 -6.8019074e-01
 -3.2630777e+00
  8.8979739e-01
  7.7795372e+00
 -5.1969248e-01
  1.0477842e+00
  5.2600962e-01
 -6.1762553e-01
  4.8941478e-01
 -1.8581753e+00
 -7.5237870e-01
 -3.1836890e-02
  9.2381418e-01
 -1.7533077e+00
  6.0704052e-01
  1.3823803e-01
  3.2286775e+00
 -2.4313912e+00
 -2.1645496e+00
  4.9729869e-03
  3.3425009e-01
  7.2645789e-01
  1.1406311e-01
  3.2242468e-01
 -5.9178211e-02
  3.2001895e-01
  5.8898389e-01
  1.7122113e+00
  6.2152901e+00
  1.9486012e+00
  2.9586872e-01
 -3.0569756e-01
  4.8382542e-01
  4.1331875e-01
  1.1826792e+00
 -7.7772272e-01
  6.6513076e-02
 -1.9857041e+00
 -6.0051680e-02
 -8.6159301e-01
  2.0395350e+00
  2.9085398e-01
 -1.4882135e-01
 -1.4128348e+00
  9.7477531e-01
  1.6241980e+00
  3.1311721e-01
 -9.2831510e-01
 -3.2938609e-01
 -2.6869455e-01
  2.3469661e-01
  1.3888661e+00
  4.7336597e+00
 -1.6991417e+00
  1.7761676e+00
  1.4941627e-01
 -1.8182412e-01
 -5.5600959e-01
 -4.4850349e-01
  6.0329165e-02
  1.3837802e+00
 -6.7882128e+00
 -4.7857552e+00
 -4.5600620e-01
  1.0396459e+00
  4.2848933e-01
 -2.8956267e-01
  4.8106518e-01
  3.8480999e+00
  2.2928743e+00
 -1.2589021e+00
  8.1992811e-01
  1.3991231e-01
 -7.2359819e+00
 -5.0471053e+00
  1.3463788e+00
 -1.3693018e+00
  3.4717679e-01
 -3.1322410e+00
  5.6949222e-01
 -1.2877721e-01
  3.8635612e-01
  2.4715650e-01
 -4.7895399e-01
  2.0519125e-01
  3.2876253e+00
  1.3340509e+00
  4.8340705e-01
  6.2987280e-01
  6.8430126e-01
 -3.9712265e+00
 -1.6659120e+00
  2.0499839e-01
  1.1282629e+00
  1.1825110e+00
 -2.9735422e-01
  1.2669263e+00
 -3.8561463e-01
  1.1602792e+00
  7.3504510e+00
  9.4498193e-01
  4.0626345e+00
  1.4842701e+00
  8.3046877e-01
  8.6050749e-01
  1.4754827e+00
  2.7257398e-01
 -5.9202242e-01
  9.0168458e-01
  1.5537667e+00
  3.6825562e+00
 -6.4003021e-01
  1.0061878e+00
 -1.1083758e-01
  1.9370854e-02
 -3.4420979e+00
 -1.3411783e+00
  3.1254625e+00
  2.2385899e-02
 -1.9221105e-02
 -5.7893622e-01
  1.1296077e+00
  1.9197701e+00
  1.7477591e+00
  1.7364333e+00
 -9.9354666e-03
  3.3469170e-01
 -2.0508523e-01
  2.1090319e+00
 -7.0180023e-01
 -3.1544948e-01
  1.3095733e+00
 -5.0728852e-01
  3.3316758e+00
 -2.4354133e-01
  7.7618092e-02
 -7.7224709e-02
 -1.3724786e+00
 -3.0192690e+00
 -7.4154935e+00
  6.3152385e+00
  9.0635145e-01
 -3.0590749e+00
  5.1119411e-01
 -7.3545629e-01
  1.9229455e+00
  8.9297086e-02
  6.5108305e-01
 -2.2128806e-02
 -6.9299167e-01
  2.0782056e-01
 -1.8602684e+00
  5.0517708e-01
 -4.9406548e+00
  2.8807509e+00
 -6.8758941e-01
  3.2691711e-01
 -4.9406946e-02
 -3.8616884e+00
 -4.4230723e+00
  2.7535045e+00
  2.4317763e+00
 -4.5729060e+00
  1.3354130e+00
 -9.7445899e-01
 -4.0928420e-01
 -2.0471847e+00
 -4.7119323e-02
  2.7744694e+00
  4.6990398e-01
  7.9428211e-02
 -3.6993742e-01
  7.3991217e-02
  6.0331669e+00
  3.7091678e-01
  1.4222765e-01
 -3.1939145e-02
 -1.4538678e+00
 -1.2694345e+00
 -3.0920305e+00
 -1.8400924e+00
  3.2513046e+00
  3.3315647e+00
  1.0239037e+00
 -4.5613837e-01
  1.3984106e-01
  2.4285648e+00
  1.0008672e+00
  5.7726293e+00
  2.5469759e+00
  4.9195054e-01
 -1.1565765e+00
  1.6987906e-01
 -5.5214863e+00
  8.8024437e-03
  1.4599339e+01
 -1.7400395e-02
  2.0738536e-01
  7.1167397e-01
  1.1528573e+00
 -1.3500690e+00
  1.8232644e-01
 -1.4134899e-01
 -3.9322698e+00
 -1.0134633e+00
 -1.6009603e+00
  2.6316364e+00
  6.9678664e-01
 -9.1517609e-01
  1.1910819e+00
  7.7531599e-02
 -2.8386214e+00
  1.0864046e+00
 -5.5318284e-01
 -2.3218334e+00
 -9.4436252e-01
  6.4439017e-01
  1.4396677e+00
  3.7865728e-01
 -1.4774365e+00
 -1.4923432e-01
 -1.3884364e+00
 -2.4649656e+00
  1.8409672e-01
 -2.5765121e-01
 -3.0319984e+00
 -7.5708622e-01
 -2.9840931e-01
 -5.7121718e-01
 -8.0709105e+00
  3.3973970e+00
 -5.6283479e+00
  4.0553079e+00
  8.1567001e-01
 -3.8827661e-01
 -5.9852762e+00
  4.1414905e+00
  1.8328920e-01
 -6.0748827e-01
 -1.4344832e-01
  3.3597663e-02
  7.8262973e-01
 -6.6954386e-01
  3.7012595e-01
 -7.0763868e-01
  1.0426370e+00
 -1.3019528e-02
 -1.8543339e-01
  1.1568669e+00
  2.4268177e+00
 -5.4738724e-01
 -9.9436462e-02
 -8.3855915e-01
  5.4414147e-01
 -7.3573545e-02
  1.6442831e+00
  1.6548239e-01
  5.0746232e-01
  2.4850315e-01
 -2.0304801e+00
  2.3027335e-01
 -6.8708308e-02
  1.4918619e+00
 -1.2289203e+00
 -8.4028214e-01
  3.3029401e-01
  4.5382249e-01
  2.4736156e+00
 -6.3585110e-02
 -3.0028108e-01
  2.8521734e-01
  1.5049821e+00
  2.0869672e+00
 -8.1165659e-01
  3.8415678e+00
 -8.7919891e-01
  1.8592798e+00
 -2.9175036e+00
 -2.1492717e+00
  4.0485640e+00
 -1.0883480e+00
  2.9688921e+00
  4.6985188e+00
 -4.6592727e+00
 -3.6766391e+00
  9.0398067e-01
 -1.3199267e+00
  1.2948399e+00
 -1.0384495e+00
 -9.9384278e-01
  2.9886401e-01
 -7.7761835e-01
  1.1224473e+00
  1.9612188e+00
 -4.8177841e-01
 -1.5686948e+00
 -1.1191652e+00
  3.8772786e+00
  7.4472189e-02
  1.7790744e+00
  1.6866953e+00
 -2.9374101e+00
  1.8060197e+00
 -8.7615595e+00
 -4.0060759e+00
 -3.0183213e+00
 -9.1120355e-02
  1.3503370e-01
  3.7860744e+00
  9.4365531e-01
  5.8184218e+00
  9.4542150e+00
 -7.6163620e-01
 -5.5131445e+00
  2.4493551e+00
  1.4766697e+00
  1.8351183e+00
 -1.7538850e+00
  1.6127636e+00
 -7.8779364e+00
 -6.8602715e+00
 -3.5433135e+00
 -2.9805577e+00
 -4.6136136e+00
 -9.3817816e+00
  4.6008199e-01
 -1.1689925e+00
 -2.3107898e+00
 -1.6624372e+00
  2.3351381e+00
  4.4002423e+00
 -6.6274846e-01
  6.7528877e+00
 -6.3577425e-01
  4.9110026e+00
  1.5992408e+00
  6.4473832e-01
 -4.8698604e-01
  3.2700117e+00
 -2.9015154e-01
  7.5730264e-01
 -8.8527840e-01
  1.8363919e+00
  2.3802381e+00
 -2.1846278e+00
 -1.7108783e+00
 -6.1492509e-01
 -1.3225298e+00
  7.3153129e+00
  3.1395268e-01
 -2.7323024e+00
  2.8685262e+00
 -5.4187961e-03
 -9.7079113e-02
  1.2245800e+00
  3.8384777e-01
  5.6072801e-01
  5.3670418e-01
 -3.3108583e-01
  9.4314432e-01
 -5.7963508e-01
 -6.1337596e-01
  2.2199887e-01
  2.7042106e-02
  7.0915990e+00
 -6.9935650e-01
  2.7307622e+00
  3.3129668e+00
 -6.1590433e-02
  3.4292731e-01
 -1.5565385e-01
 -5.7963617e-02
  4.1210442e+00
  1.0148188e-01
 -1.8303323e+00
  1.4422225e+00
 -1.7060533e+00
 -1.8509082e+00
  1.4827347e+00
  8.4894109e-01
 -7.1780986e-01
  2.4044429e-01
  7.6713282e-01
  2.7823465e+00
 -1.0367452e+00
  2.9603076e+00
  3.3658242e-01
 -5.8867589e-02
  6.1072378e+00
  4.4464603e-01
  1.4192533e-01
 -1.7587064e-01
 -1.1095801e-01
 -2.0832376e+00
  5.3007107e+00
 -3.9054790e-01
 -4.8565218e-01
  3.3562249e-01
 -1.8541637e-01
  1.2312872e+00
 -1.4914230e+00
  5.5454850e-01
 -5.7344846e-02
  2.2816732e+00
 -9.6493864e-01
  2.2011527e-01
 -9.8207402e-01
 -5.9566908e-02
 -1.1157529e-01
  4.3046257e-01
  1.1819737e-01
  1.0456897e+00
  3.7256601e+00
  4.0482014e-01
 -2.6001945e-01
  1.4611168e-01
  2.2555821e+00
 -2.4633093e+00
 -5.0727969e-01
 -1.5205940e+00
 -1.6451759e+00
  2.8854468e-01
 -2.9198372e-01
 -1.2281982e+00
 -6.3018925e-02
 -1.1410193e+00
 -4.7423244e-01
 -9.1624707e-01
  1.4302962e+00
  1.7954159e-01
  1.0173848e+00
 -7.7532381e-01
 -1.4679699e+00
 -6.1449356e-02
  1.8155858e-01
 -2.3473675e+00
  6.0804415e-01
 -4.8650052e-02
 -1.6699773e-01
  2.0484107e+00
  8.2161689e-01
 -5.3354888e+00
  3.0056027e-01
  4.0235396e-02
  9.2016459e-02
 -2.9253045e-01
 -3.2878268e-01
  1.3272043e-01
 -1.3458153e+00
 -5.7786357e-01
 -7.2141135e-01
  2.3941332e-01
 -1.7624458e+00
 -1.9990757e-02
 -4.7980890e-01
 -7.0927277e-02
  1.1693581e+00
 -8.0182862e-01
 -9.6750462e-01
 -8.9112675e-01
  5.0511837e-01
  2.3195479e+00
  2.0452361e+00
  2.0969200e-01
  2.6536846e-01
  5.2980286e-01
 -3.0008776e+00
 -1.0829680e-01
  2.5970536e-01
  1.3647306e-01
 -1.0954713e+00
 -1.5540990e+00
 -1.2502534e+00
 -8.6317259e-01
 -2.6416848e+00
 -2.8162026e-01
 -9.4319940e-01
 -2.7445900e+00
 -2.1336122e+00
  5.2199036e-02
  1.0463749e+00
  2.4832747e+00
 -5.1186919e+00
  2.0275631e+00
 -2.0954299e+00
 -2.0058477e+00
  1.1082805e+00
  6.9942182e-01
 -3.0370700e+00
  2.9226899e+00
  3.4036684e+00
 -4.0481296e+00
 -1.9656179e+00
  2.6299415e+00
  1.9607686e+00
 -4.7223878e+00
  8.9770155e+00
  9.2501383e+00
 -1.3246293e-01
 -3.4058812e+00
 -1.5616307e+01
  1.5037923e+00
  3.1590681e+00
  1.6360245e+00
 -7.4812632e+00
  4.9824920e+00
  1.6511732e+00
 -7.2106934e+00
 -3.8225977e+00
 -5.7060609e+00
  2.3294282e+00
  7.1516263e-01
  3.0219297e+00
 -2.5720277e+00
  2.1389465e+00
 -2.1812184e+00
 -7.5314337e-01
  5.1298251e+00
 -1.7093211e+00
 -4.1741757e+00
  4.9803257e+00
 -3.6970582e+00
  8.3753786e+00
 -6.3086241e-01
 -1.7831616e+00
  3.0435245e+00
 -2.6427448e-01
 -1.8778055e+00
  7.1199179e-01
  1.6812243e-01
 -2.5965044e-01
 -6.2713307e-01
  8.8524127e-01
  1.3316871e+00
  6.6170090e-01
 -2.0049569e-01
  3.8674837e-01
  3.6337972e-04
  7.2909623e-01
 -8.0090612e-03
  2.0783658e+00
 -9.1676807e+00
 -2.0603508e-01
 -7.4088871e-02
  1.7908373e+00
  2.3042262e-02
 -1.5483757e+00
  5.5718634e-02
  8.6385870e-01
  3.5711743e-02
  8.0808622e-01
 -7.2472024e-01
 -1.1018065e-01
  5.7798326e-02
 -2.8379033e+00
  5.0898278e-01
 -1.0645423e+00
 -1.4150669e-01
 -2.5507869e-02
  2.3514183e+00
  4.8888516e+00
  1.6921346e-01
 -8.0353773e-01
  2.7611089e-01
  2.7959594e-01
 -2.8312347e+00
 -2.9588850e+00
  2.3103914e+00
 -2.3645790e-02
 -5.8901024e-01
  6.1672902e-01
  6.2335151e-01
 -8.4746629e-01
 -4.8652145e-01
 -1.6786650e-01
 -3.4614679e-01
 -2.7176707e+00
 -6.8710977e-01
  1.1142194e+00
 -3.3025038e-01
 -2.0263569e+00
  4.9636233e-01
  1.4070457e+00
 -4.8258743e+00
  4.0313956e-01
 -2.7502206e-01
  1.8596054e+00
  2.1420407e+00
  3.5849503e-01
 -2.4205692e+00
 -2.6683881e+00
 -2.0110686e+00
  8.0279946e-01
  6.0935038e-01
 -1.5387142e+00
 -1.0014083e+00
 -1.3534712e+00
  6.9749302e-01
 -2.2173963e-01
  1.5172350e+00
  6.0324926e+00
  9.7914600e-01
 -4.5045433e+00
 -2.0301867e+00
  2.5159931e+00
  1.5890042e+00
  4.0555468e+00
 -1.4675612e+00
 -3.2677844e+00
  3.1649225e+00
 -6.0594910e-01
  1.9738014e+00
 -3.0627632e-01
 -2.9988801e+00
  4.1976981e+00
 -2.2018564e+00
  1.2581576e+00
 -3.5091562e+00
  2.9158247e+00
  2.8608018e-01
  7.4145526e-01
  1.2382686e+00
 -3.6817710e+00
 -3.6427550e+00
  1.3020697e+00
 -1.0854292e+01
 -7.8238457e-01
 -4.9169841e+00
  1.2330291e+00
 -3.6150715e-01
 -1.6903223e+00
 -3.2472961e+00
  1.6486460e-01
 -6.1040539e-01
 -1.2840815e+00
 -3.1842679e-02
  1.9210997e-01
 -5.4177886e-01
  2.7324039e-01
 -3.4283793e+00
 -4.1437817e+00
  6.6366208e-01
 -3.1338835e-01
  8.1189382e-01
 -6.6280179e+00
 -3.9186728e-01
  8.7562698e-01
  1.2212142e+00
  2.2892730e-01
  8.8476157e-01
  4.7760266e-01
 -7.7144694e-01
  2.7634493e-01
 -1.9913532e-02
  1.3141495e-01
  4.8592067e-01
  1.9265562e+00
  7.8064787e-01
  1.1124738e+00
 -1.1267424e+00
  4.5596975e-01
  6.8564477e+00
 -1.3595598e+00
  3.4096780e+00
 -4.4464779e-01
 -1.9153172e+00
  1.5568454e+00
  1.9500928e-01
 -1.3512447e+00
 -2.0470200e+00
  5.8408815e-01
 -1.0110573e-01
  6.7963284e-01
 -2.3272945e-02
  1.7596751e+00
  3.0043805e+00
 -4.5145470e-01
  8.7350345e-01
 -5.6457025e-01
 -1.6541668e+00
  1.3132448e-01
  5.3123217e+00
 -5.6914020e+00
  6.1125118e-01
  5.8334947e-01
 -9.1113120e-01
 -6.2221460e+00
  3.2360584e-01
  7.8148454e-01
 -9.3464363e-01
 -2.5812921e-01
 -3.9518353e-01
 -3.7117502e-01
 -3.0935553e-01
  5.8122277e-01
  1.4780685e-03
  1.8004788e-01
 -1.0921440e-01
  4.9248651e-02
  2.2221410e+00
  1.9055935e+00
 -5.4814506e-01
  3.1672567e-02
  3.6024293e-01
 -1.5817037e-01
 -6.0902536e-01
  9.4495431e-02
  2.1778081e-01
  1.0116036e-01
 -1.5856639e-01
  4.4507819e-01
 -7.2288319e-02
 -2.8305764e+00
  9.0359032e-02
  2.3461111e-02
  1.4996883e-01
  1.3243148e+00
  5.2742925e+00
 -2.7514890e-01
 -2.8587186e-01
  9.4688535e-02
 -6.1655207e+00
  1.4585258e+00
 -9.4690967e-01
 -2.7245082e-02
 -6.3375747e-01
 -1.5073280e+00
  5.9007640e+00
 -1.5228790e+00
 -1.0482656e+00
  7.8090639e+00
  5.1463664e-01
  6.9317693e-01
  3.3229911e+00
  4.4507986e-01
 -1.2219696e+00
  1.1942275e+00
 -2.5865119e+00
 -2.5862083e+00
 -5.6639045e-01
 -2.9839328e-01
 -2.8666633e-01
 -4.3266764e-01
 -2.2545228e+00
 -6.1282891e-01
 -3.3478361e-01
  1.4662285e-01
  9.2377782e-01
  1.2937350e+00
  3.0051198e+00
  4.4546990e+00
  1.7206445e-01
  3.7218888e+00
 -9.6265745e-01
  8.8082206e-01
  1.4888549e+00
 -6.2248772e-01
  5.8700579e-01
  4.5462251e-01
 -4.7487810e-01
 -6.7734033e-01
 -7.4688995e-01
  4.1638517e-01
  6.9548793e-02
 -3.4942633e-01
  1.0568681e+00
 -7.3505729e-01
  3.9873907e-01
 -1.8686811e+00
 -3.7343687e-01
 -4.3168950e+00
 -9.8970942e-03
  1.1258229e+00
 -2.5715959e-01
  1.4325300e-01
 -1.9716898e-01
 -3.2013770e-02
 -1.8429108e-02
 -1.0297390e+01
  3.1940264e-01
  3.8635933e-01
 -5.2692256e+00
  4.6777368e+00
  1.2636687e-01
  4.2684174e-01
  1.1764907e+00
 -5.6755626e-01
 -5.1163369e-01
  4.5704362e-01
  1.8878555e-01
 -5.6830730e+00
 -9.9093151e-01
  2.3445974e-01
 -2.8098053e-01
 -7.4672228e-01
  2.6375308e+00
 -2.0280573e+00
 -7.2309345e-01
  4.2210495e-01
  1.9547708e+00
  4.7231492e-01
 -1.9068521e-01
 -6.0392852e+00
 -5.6088305e-01
 -2.2538986e-02
  7.6844609e-01
 -6.4993495e-01
 -1.8268687e-01
  1.1818668e-01
 -4.2780256e+00
 -4.5666271e-01
  1.9611270e+00
 -1.0531876e+00
  9.5594633e-01
 -6.5009177e-01
 -4.9921373e-01
  1.7022356e+00
  1.6822840e-01
  3.8081141e+00
 -1.7310183e-02
  2.2801533e-02
 -1.9058409e+00
  2.2276405e-01
 -3.8234797e-01
 -6.3097751e-01
  1.1003244e+00
 -4.6562952e-01
  3.0194995e-01
 -2.9229884e+00
 -2.4631736e+00
  5.4370487e-01
  3.1956576e-02
 -1.0669044e-01
  3.6402407e-01
  1.7024469e-01
 -5.8174465e-02
  2.3066117e-01
  2.7795803e-02
  1.5435146e+00
 -6.5786111e-01
  2.6431184e+00
  2.6882446e-01
 -3.8473029e-02
  7.5189459e-01
 -1.3343792e+00
  6.0749221e-01
  1.6123675e-01
  2.8819461e+00
 -4.3696049e-01
  5.6936622e-01
 -3.3185422e+00
 -2.7595246e-01
 -2.2579556e+00
 -1.7820928e+00
 -2.2301953e+00
 -5.2880520e-01
  7.4532986e-01
 -1.6486156e-01
 -8.7887919e-01
  1.3765667e+01
  4.1644809e-01
 -3.8963890e-01
  5.1450872e+00
 -9.2067089e+00
  1.2221761e+00
 -2.4156792e+00
  6.2050128e+00
  2.7103755e-01
 -2.0173297e+00
 -3.9152844e+00
  4.2762518e+00
  3.9722416e+00
 -3.1817871e-01
 -5.2130151e+00
 -3.3295244e-01
  3.0890164e-01
 -6.1950785e-01
  1.6321445e+00
 -9.4899499e-01
  1.4096789e+00
 -7.3760068e-01
 -5.8398666e+00
  2.2482939e+00
  7.6055479e+00
 -3.6719038e+00
  7.1984501e+00
  1.5699391e+00
  1.2508348e+01
  3.0817895e+00
 -7.6799669e+00
  3.8781857e+00
  3.5967319e+00
 -7.6243424e+00
 -7.3639545e+00
 -2.2640455e+00
 -4.4004250e+00
 -4.7739067e+00
 -4.7459090e-01
 -1.8066547e+00
  2.6570051e+00
  1.4133031e+00
 -2.3429818e+00
  1.0894153e+01
 -8.2686067e-01
  8.5662824e-01
 -1.4687880e+00
 -2.8419547e+00
 -4.4237256e+00
  2.2987211e-02
  3.8414848e-01
  1.8292850e+00
 -6.2553530e+00
 -7.9003084e-01
  3.2148969e+00
 -1.4989522e+00
 -7.4663301e+00
 -1.3529912e+00
  2.2937553e-01
 -1.6867454e+00
 -1.1587505e+00
  1.1556189e-01
  1.1600694e+01
 -1.4508168e+00
  9.9477520e+00
 -4.2671142e+00
  1.5755018e+00
  6.1158919e+00
 -7.4012893e-01
 -2.2062480e+00
  1.5607235e+00
  1.1426367e+00
 -1.2873206e-01
 -8.5237765e-01
 -4.5442023e+00
 -2.8752131e+00
 -2.0142694e+00
  2.2024424e+00
 -2.8744948e+00
  5.7058299e-01
 -1.0394852e+00
 -6.1998162e+00
  5.3241153e+00
  2.1780978e-01
  6.9711461e+00
 -1.3895028e+00
 -4.8785629e+00
  2.5634637e+00
  1.5212470e+00
 -1.7479790e+00
 -3.0612142e+00
 -6.8834537e-01
  7.8634124e+00
 -7.0797763e+00
 -3.1519241e+00
 -1.2860683e+00
 -1.3711737e+00
 -3.0918913e+00
 -1.1272124e+00
 -3.1402162e-01
 -2.9234772e+00
  1.3689677e-01
 -1.7672986e-02
  9.9478072e-01
 -8.6436882e+00
  1.9272802e+00
 -3.8960624e+00
 -3.1826732e+00
 -1.0592432e+00
 -1.2343975e+00
  8.8633795e+00
 -1.7224257e+00
 -4.7370011e-01
  8.7512779e-01
 -3.5455084e-01
 -4.0904671e-02
 -4.7500879e-03
 -4.9359810e-01
  2.6325208e-01
  3.6662766e-01
  5.0832677e-01
 -4.1948625e-01
  2.3735543e-01
 -1.3391286e-01
 -2.9909977e-01
  4.5718899e-01
  3.7183769e-02
 -5.3586555e-01
 -4.1654387e-01
 -4.7769345e-02
  1.3832579e+00
 -5.7849765e-01
  1.8832881e+00
  5.9384794e+00
 -3.4005448e-01
 -6.6492373e-01
 -5.7210970e+00
 -2.1977811e+00
 -6.1252060e+00
 -2.1736857e-01
 -3.2457709e-02
 -9.6115120e-02
  6.1106801e-01
  2.0963559e-01
  2.9257441e-01
  3.3719815e-02
 -7.1368766e-01
  4.7375926e-01
  3.5636207e-01
  1.2639087e+00
  7.0137674e-01
 -1.0054647e+00
 -1.6993072e+00
  1.0900676e+00
 -1.0900755e+00
 -4.0582877e-01
  3.9153099e-01
 -1.0035616e+00
  1.1354982e+00
  3.0876589e+00
 -1.6508918e+00
 -1.5558100e+00
  4.6219009e-01
 -3.0602777e+00
  5.9209256e+00
  3.3030901e+00
 -7.1597898e-01
 -2.8319044e+00
  1.8467226e+00
  1.0066422e+00
  2.0771146e+00
  7.2132820e-01
  1.5207813e+00
 -1.3101232e+00
  7.8536814e-01
 -4.3854070e+00
 -1.6436516e+00
 -2.9765399e+00
  2.0273001e+00
  2.3999081e+00
  5.4231987e+00
  7.2006315e-01
 -3.6551023e+00
 -2.1554296e+00
  1.5050550e-01
  5.7078996e+00
  6.6578183e+00
  1.9604908e+00
 -3.0228138e+00
 -1.4089993e+00
  1.6546925e+00
  4.4517112e+00
  1.0746845e+00
 -1.2604376e+00
 -1.4655155e+00
 -5.0270188e-01
 -1.1607345e+00
  4.6575823e+00
 -9.5197135e-01
  6.2388164e-01
 -3.9251437e+00
 -1.1698106e-01
  4.6436911e+00
 -1.8480857e-01
 -3.8122599e+00
  2.0168820e-01
 -7.4636057e-02
 -4.7822285e-01
 -7.0705163e-01
 -1.8415030e+00
 -1.7777331e+00
  2.8942699e+00
 -1.3167180e+00
  3.8967175e+00
  2.4289595e-01
 -8.6208278e-01
 -3.6841190e+00
  5.8401937e+00
  1.1300414e+00
  4.0919590e-01
 -2.2415283e+00
  3.6175988e+00
 -3.4183018e+00
 -9.3359470e+00
  1.0691160e+00
  1.7070990e+00
  8.9871526e-01
  3.2180903e+00
  1.7632087e+00
 -6.4593668e+00
 -8.1380911e-02
 -4.0966206e+00
 -2.9544089e+00
  9.6279407e-01
 -1.9351311e+00
  3.2264304e-01
 -3.2426998e-01
 -2.2694468e+00
  6.4111775e-01
 -8.6739912e+00
 -2.5837500e+00
  2.6813424e+00
 -8.3786697e+00
  5.3729540e-01
  8.9182025e-01
  3.5264399e+00
 -1.8508418e+00
 -4.4340444e-01
 -1.8673822e-02
  1.0842868e-01
  1.1521698e+00
  5.4112405e-02
 -6.4324069e+00
  1.0246696e-01
  4.2525282e+00
  7.4476622e-02
  6.2646527e+00
  2.4490902e+00
 -5.5547512e-01
  4.3849045e-01
  7.5346190e-01
  4.1028571e-01
  1.2666397e-01
  8.0202746e-01
  7.7779686e-01
  1.1030178e-01
 -1.0509933e+00
 -5.0825161e-01
  1.6555566e+00
 -1.2848829e+00
 -5.4385179e-01
 -7.5629726e-02
  5.6109118e-01
  5.6893378e-02
  1.1903514e+00
  2.6098287e-01
 -1.4464196e+00
  5.7466159e+00
 -1.9515584e+00
 -4.8930830e-01
  5.2953267e-01
 -1.1451179e+00
  1.8685396e+00
 -1.0514407e+00
 -1.6875801e+00
 -2.3266282e+00
  7.3036194e-02
 -2.6470116e-01
  1.7896141e-01
  1.1629261e+00
  1.2880918e+00
 -4.2645693e-01
 -8.9933383e-01
  6.7069238e-01
  3.4017556e+00
  6.6210553e-02
  1.0255027e-01
  3.9571625e-01
 -7.4056678e-02
 -2.4621247e-01
  1.0689418e+00
 -2.2845057e-01
 -1.4419243e-01
  4.4976941e-01
  9.9055290e-01
  3.9392278e+00
  2.7058067e+00
  1.2457309e+00
  5.3788805e-01
  2.5291250e+00
 -8.5825896e-01
 -1.5092960e-01
 -1.3005457e+01
  7.3367186e-02
 -2.5861938e+00
  5.4944807e-01
  8.7450847e-02
  1.4827985e-01
 -1.3015419e+00
  2.6397920e+00
 -1.0797876e-01
 -4.1092243e+00
 -2.7262323e+00
  7.9134142e-01
  6.7742002e-01
  3.3206608e+00
  1.2377548e-01
  3.6161637e-01
 -2.3181280e-01
 -3.2763963e+00
 -3.2025316e-01
 -1.9485136e+00
 -1.1816742e+00
  3.1853175e+00
 -4.3631997e+00
  3.0012114e+00
  2.2341767e-01
  2.7215335e+00
  2.1586285e+00
 -1.5791863e+00
  3.4518323e+00
 -2.7157116e-01
 -6.3681540e+00
 -4.1798558e+00
  1.8397331e+00
 -1.5524137e+00
 -4.9691305e+00
  6.7078811e-01
  1.9130174e+00
  3.6490757e+00
  1.9500479e+00
  3.1594305e+00
 -3.6211131e+00
 -6.3878179e+00
  1.3207998e+00
 -1.3193806e+00
  2.0870938e+00
  1.7859119e-01
  2.1378636e+00
  4.4685945e-01
 -4.2123768e-01
 -6.3674092e-01
  1.3785840e+00
  5.0135458e-01
 -7.0269877e-01
  2.2612388e+00
  5.5901624e-02
  5.1325703e-01
  7.0523256e-01
 -7.7876735e-01
  1.5304464e+00
 -1.0948561e+00
 -2.0532051e-01
  2.3684558e-02
 -1.2038370e+00
 -6.5019810e-01
  3.9819986e-01
 -1.7870866e-01
  3.5039940e+00
 -3.9160755e-01
 -1.7760502e+00
 -1.3885186e+00
 -1.8608712e+00
 -1.6403366e+00
 -9.7420816e+00
 -7.2349274e-01
  6.1017170e+00
  5.3153354e-01
 -2.2195728e-01
 -3.2517779e+00
  1.5111725e+00
  4.3985191e-01
  4.9950261e+00
  1.0312595e+00
 -1.0624403e+00
 -8.3867991e-01
  2.3196375e-01
  1.7417425e-01
  1.3009548e+00
 -7.3066765e-01
  3.4319744e-01
 -1.5029086e+00
  1.4424167e+00
 -1.1040825e+00
  3.0098882e+00
  6.1222303e-01
 -1.0479219e+00
 -2.9155013e-01
  5.1084530e-01
  2.1297716e-01
 -5.3469734e+00
  5.9487319e-01
 -9.8070931e-01
 -1.9566871e-01
  5.2073234e-01
 -2.0570360e-01
 -2.4348021e-01
 -5.5841380e-01
 -4.8459530e-01
  7.2070370e+00
  1.4520800e+00
 -4.5176214e-01
  3.6329179e+00
 -7.4778891e-01
  4.6817410e-01
  3.7245074e-01
  1.3293660e+00
 -2.5159411e+00
 -3.4067816e-01
 -3.9509002e-02
  5.3755063e-01
 -1.4118556e+00
 -1.1623916e+01
  4.1769338e+00
  2.5451162e+00
 -2.0750497e-01
 -3.7172458e-01
 -5.0469214e-01
  3.0899787e-01
 -9.6812165e-01
 -3.0427732e+00
 -1.9092280e-01
  2.6977322e+00
  5.6599957e-01
  2.8533337e-01
 -2.2546953e-01
  8.1630290e-01
 -2.6366508e-01
 -6.6082910e-02
  9.2922461e-01
 -6.2039936e-01
 -4.5269384e+00
 -1.8401126e+00
 -6.7633188e-01
 -1.4195355e+00
 -9.3224734e-01
  5.9757547e+00
  4.8490357e+00
  6.9066024e-01
 -5.1129646e+00
 -1.9304693e-01
 -2.6679800e+00
 -6.0823023e-02
 -2.4015579e-01
  1.4194365e-01
  3.1849012e-01
  2.6433053e+00
 -1.1671919e+00
  9.0067130e-01
  1.2304779e+00
 -9.0797025e-01
 -1.0407988e+00
 -3.1154671e-01
 -4.0700965e+00
 -1.6046830e+00
 -4.2619691e+00
  7.7556825e-01
  1.2905167e+00
  9.7989857e-01
  4.2529469e+00
 -2.8883216e+00
 -3.2974151e-01
  5.4208946e+00
  7.4317044e-01
  6.0070386e+00
  4.5159774e+00
 -3.6538584e+00
  3.0994508e+00
 -6.0065144e-01
  8.5061449e-01
  4.1148472e-01
 -1.6283751e+00
 -2.2273946e+00
  1.0818752e+00
 -7.4448186e-01
  4.0412483e+00
  4.8542294e-01
  2.6511095e-02
 -9.6873742e-01
  1.4866555e+00
  3.3751736e+00
  1.3612070e+00
 -4.4328957e+00
  4.7799640e+00
  3.4798393e+00
 -3.0060482e-01
  4.5235076e+00
 -2.9472062e-01
  2.8928025e+00
 -6.0620904e-01
 -7.3544645e+00
 -2.4731587e-01
 -1.4006324e+00
  5.7115707e+00
  2.9635670e+00
 -1.4736371e+01
  2.1506560e+00
 -2.9909720e+00
  6.2049179e+00
 -5.3536406e+00
 -4.5609987e-01
  2.2797608e+00
  5.2341330e-01
  3.6208075e-01
 -1.0048089e+00
 -1.5690320e+00
 -1.5605736e+00
 -8.0281335e-01
 -9.8792195e-01
 -2.1467993e+00
  2.7343607e-01
 -2.0835483e+00
  1.9165389e-01
 -3.3006039e+00
  1.2645155e-01
  1.6549652e+00
  1.3783100e+00
  6.0742396e-01
  4.5146492e-01
 -2.8668621e+00
  1.8832103e+00
 -5.6426108e-01
 -2.1315868e+00
  1.0667923e-01
 -1.1673223e+00
 -1.2741401e+00
  2.0307684e+00
 -1.2610751e+00
  1.2296364e-01
  7.9096520e-01
  4.6570396e-01
 -1.0949025e-01
 -9.9437624e-01
 -8.1954622e-01
  6.9105089e-01
 -8.7834233e-01
 -1.0766181e+00
 -1.8502508e+00
 -1.2073367e+00
  5.9933019e-01
 -2.6045373e-01
 -2.5192034e+00
  1.7594244e+00
  4.7089567e+00
 -9.3134654e-01
 -2.7336188e-02
 -1.1939931e+00
 -9.0206593e-01
 -3.6644217e-01
  1.1652642e+00
  7.3708928e-01
  3.6561453e-01
 -2.6462209e+00
 -2.9823598e-01
  7.5524354e-01
 -5.7517648e-01
 -6.6705745e-01
 -5.6115639e-01
  5.5465060e-01
 -2.2485283e-01
 -1.1170238e-01
 -1.2345668e+00
  3.5004818e-01
 -1.8080555e+00
 -2.8341919e-01
 -6.3005495e-01
  2.1898141e+00
  2.9283180e+00
 -7.8105217e-01
 -1.0175354e+00
  1.6924293e+00
 -4.5669565e-01
 -6.4751677e-02
  4.5668918e-01
  1.1334290e-01
  1.6827652e-01
 -4.8080018e-01
 -9.9089795e-01
  8.0260116e-01
 -7.8858705e+00
  1.5801699e+00
 -3.7003810e+00
  2.3004431e-01
  1.1044495e+00
 -1.8087783e-01
 -1.1657333e+00
 -9.8707628e-01
  3.3199823e-01
  3.6457562e-01
  8.8563496e-01
 -1.4384848e-01
 -4.8992577e-01
  1.0943813e+00
 -9.2330122e-01
 -9.5972615e-01
 -7.9060614e-02
  1.0049273e-01
  8.7099284e-01
  8.2622105e-01
 -2.7568512e+00
 -5.9017545e-01
  7.8123653e-01
  1.8924222e+00
  5.2750832e-01
  1.7056342e+00
  4.1619021e-01
 -1.2816312e+00
 -2.8012438e+00
 -9.7387238e+00
  4.3451910e+00
  1.4191228e+00
 -7.4995351e-01
  2.3271008e+00
 -5.4092556e-01
  3.1887245e-01
 -9.2421615e-01
  5.1429904e-01
  3.4056478e+00
 -1.4456391e+00
  2.0613112e+00
 -1.0738689e+00
  1.1234902e+00
 -3.1876105e-01
 -6.9398940e-01
  4.2771846e-02
 -1.5136740e+00
 -2.2955797e+00
 -3.5980253e+00
  6.9348849e-02
  4.0447238e-01
 -8.4997833e-01
  4.8040837e-01
  6.5130562e-01
 -2.0957391e+00
  3.8693652e+00
  2.4019200e-01
  1.4688145e+00
 -2.1664684e+00
 -3.8289113e+00
  2.9190095e-02
 -2.9226393e-01
 -1.2013873e+00
 -6.8007171e-01
 -2.5197911e-01
  1.3701111e+00
  3.4717315e-01
  8.8780689e-01
 -2.4047968e-01
  2.2545528e-01
 -3.6634440e+00
 -1.2904599e+00
  8.6438906e-01
 -3.0308858e-02
 -3.5694790e+00
  1.4952663e+00
 -5.1952279e-01
 -1.5002689e+00
 -3.7152841e+00
  4.0315866e-01
 -1.3462739e+00
  2.8392909e+00
 -3.5209838e-01
 -1.3384954e+00
 -9.5578599e-01
 -6.7726409e-01
 -1.4403078e+01
 -9.0408808e-01
 -2.1391784e-01
 -7.1617854e-01
 -6.0141957e-01
  9.2204958e-01
  2.8235226e+00
  2.8013260e+00
  1.5776196e+00
  7.3288685e-01
 -6.0670567e+00
 -7.5298887e-01
  4.5343423e+00
  1.3229873e+00
  1.9969172e+00
  1.0816151e+00
  9.9479589e+00
  2.1632204e+00
 -1.5553024e+00
 -1.3536218e+00
 -5.4976535e-01
  7.7119565e-01
 -1.5996419e-01
  8.7608767e+00
  1.1365507e+00
 -2.4916129e+00
 -4.0869218e-01
 -1.0766046e-01
  5.9971714e-01
  7.8890723e-01
 -1.2073329e-01
 -2.8657782e-01
 -8.7679708e-01
  2.9692620e-01
 -9.9599290e-01
 -3.8523203e-01
  1.4610459e+00
  6.1460692e-01
 -1.8524407e-01
 -5.4500777e-01
  8.3434612e-01
  7.0995965e+00
 -6.0486365e-02
  9.1722810e-01
  2.3535426e+00
 -2.9269630e-01
 -2.1418396e-01
  3.3869801e+00
 -1.1311601e-01
  6.7659793e+00
 -6.0372591e-01
  5.2477890e-01
  1.1474113e+00
 -1.5847689e-01
  2.0686381e+00
 -3.0109996e-01
  4.7138605e-02
 -1.0270420e+00
  4.5246419e-01
  1.2261394e+00
 -1.2620775e+00
 -6.2337953e-01
 -7.5982112e-01
  5.4577017e-01
 -1.1255269e+00
 -5.1035404e+00
  2.5275365e-02
 -2.1153644e-02
  1.9117548e+00
 -6.7569226e-02
 -1.4589463e+00
  2.4749529e+00
  1.1303409e+00
  1.2536818e+00
 -2.6551099e+00
 -4.0421572e-01
 -5.3427559e-01
 -1.4318204e+00
  1.6376476e+01
 -1.5698628e+00
  2.0871551e+00
  5.3432530e-01
 -1.6307297e-01
  1.1255084e+00
  4.7484336e+00
  1.5806695e+00
  7.5550032e-01
 -1.1979457e-02
 -9.6907586e-02
  3.8998017e-01
  4.2955646e-01
 -5.5856528e+00
 -9.7937807e-02
  8.0496186e-01
 -1.5506305e+00
  1.2658347e+00
 -4.7587581e+00
 -1.5748398e+00
  1.4950452e+00
 -1.8015428e+00
 -5.0264847e-01
 -7.8629726e-01
 -1.5043275e-01
  1.0577283e+00
 -5.8510661e-01
  5.0749083e+00
  8.4070295e-02
 -8.7471902e-01
 -2.0036619e+00
  1.5697134e-01
 -1.1035544e+00
 -1.5360206e+00
  5.5656649e-02
  3.2211736e-02
 -1.4939361e+00
  1.2317146e+00
 -6.8377680e-01
 -2.2925580e+00
 -7.0207083e-01
 -7.5976199e-01
 -3.5802453e+00
 -3.3486049e+00
 -1.1035244e+00
 -5.4706961e-01
  3.2604495e-01
 -1.7461175e-01
  3.1262182e-02
 -6.8105474e-02
 -5.8007187e-01
 -2.1664913e-01
 -1.9368178e+00
 -6.1403954e-01
 -6.6382837e-01
 -1.8534265e+00
  2.6345603e+00
  9.3187386e-01
  6.9805241e-01
  1.9423436e-01
  1.3364646e+00
  8.5108680e-01
 -4.6430287e+00
  2.8793845e+00
 -8.6907768e-01
 -4.0810451e-01
 -4.2424989e-01
 -1.2451407e-01
  4.9900603e+00
 -1.1062238e+00
  1.1717885e+00
 -1.6788967e-01
 -7.8382187e+00
 -2.6600105e-01
 -7.5196594e-01
 -4.0331429e-01
  1.1942048e-01
  1.5520673e+00
 -3.0440891e-01
 -8.0593014e-01
  2.1164451e+00
 -3.7273708e-01
  2.3576400e+00
 -1.1818910e+00
  4.7754936e+00
 -1.4988358e+00
  2.2617456e-02
  4.1762370e-01
 -1.3860854e+00
  5.6514854e+00
 -5.2379065e+00
  2.5573170e+00
  3.1972766e+00
  1.3308914e+00
 -4.0633678e+00
 -2.6443653e+00
 -3.3432477e+00
 -5.1992021e+00
 -7.2926955e+00
 -1.1280870e-01
  1.2184491e+00
 -2.3902385e+00
 -2.0851409e+00
 -7.6596588e-01
 -4.6443418e-01
  3.5219502e+00
 -6.2332153e-03
 -2.5653541e+00
  4.4174185e+00
  3.3487427e+00
  3.8231258e+00
 -1.6347442e+00
 -6.7187719e+00
 -8.3408378e-02
 -5.0949225e+00
 -6.8599528e-01
 -2.7884373e-01
 -5.9936464e-01
  6.3525021e-01
 -3.2802694e-02
  3.7461600e+00
  4.7011059e-02
 -1.7738816e+00
  1.4765484e+00
 -8.7921299e-02
 -1.4066527e+00
 -3.8000029e-01
 -4.9935784e+00
 -4.1846542e+00
  1.9243070e+00
  8.6995952e-02
  3.5264904e+00
  1.1580330e+01
 -7.2973394e-01
  2.0012779e+00
 -2.5094209e+00
  6.3339591e-01
 -1.5656510e-01
 -3.2260981e+00
 -3.3119550e-01
 -6.5745711e-03
 -3.1329458e+00
  4.4781151e+00
 -5.0404744e+00
 -4.4430423e+00
 -1.3079704e+00
 -1.3486505e+00
  8.4609264e-01
  8.5232347e-01
  9.5986611e-01
 -3.2663810e-01
 -8.7218690e-01
 -1.7813910e+00
  3.2789583e+00
  6.3193387e-01
  1.8705890e-02
  9.8305172e-01
  1.0751443e+00
  1.0842912e+00
 -1.7978759e+00
 -5.1357996e-01
  5.5399432e+00
  3.3074382e-01
 -6.6402930e-01
 -2.9655769e+00
  1.1767431e-01
 -1.4274981e+00
 -1.0109082e+00
 -1.5546262e-02
 -1.3885033e+00
 -1.7630973e-01
 -6.5361512e-01
 -9.0331680e-01
  2.8364649e+00
  4.0284524e+00
 -8.2504153e-02
  1.9889423e+00
  4.2497287e+00
 -1.3104094e+00
  2.1519025e-01
  4.9397111e+00
 -6.3128531e-01
  9.3852341e-02
  3.0972917e+00
  2.3431504e+00
  1.8796337e+00
  2.2092142e+00
 -1.3437029e+00
 -4.9013770e-01
  1.0603471e+00
  1.6948737e+00
 -4.1373005e+00
 -7.7391922e-02
 -7.6388854e-01
 -4.3853319e-01
  4.3017003e-01
 -1.8557588e+00
  7.0146404e-02
  4.0081164e-01
 -3.7261325e-01
 -5.5815154e-01
  5.4833496e-01
  8.6548358e-01
 -2.5842438e+00
  4.3233538e+00
 -8.5665673e-01
  8.2813537e-01
  8.3280611e+00
  3.5598948e+00
 -2.0249050e+00
 -4.1785679e+00
 -2.6503859e+00
 -3.0917664e+00
  4.3292766e+00
 -3.1491652e+00
 -6.9669348e-01
 -3.6560020e+00
 -3.4281094e+00
 -2.0066103e-01
 -3.6061404e+00
 -5.4096594e+00
 -7.9608291e-01
 -4.3301969e+00
 -2.5705764e+00
  1.3978403e+00
 -2.1825688e+00
 -3.0596302e+00
 -1.1157427e+00
 -1.4816040e+00
 -2.2039106e+00
  7.4215736e+00
  1.7891493e+00
  1.2967826e+00
 -5.6377417e-01
 -5.2430291e+00
 -2.0666814e+00
  1.8495004e+00
  2.3748302e-01
 -4.3539262e+00
  1.2584099e-01
  2.7591281e+00
  9.8134929e-01
 -4.4691986e-01
 -4.1554084e+00
 -1.4523002e+00
  5.5952924e-01
  5.3507395e+00
  3.5398052e+00
 -7.6325841e+00
 -1.5819314e-01
  1.3357378e+00
  8.5988510e-01
  3.4127736e+00
 -1.9917955e+00
  2.6752634e+00
  5.7972735e-01
  2.3255830e+00
  1.2701864e+00
 -2.8943175e-01
  2.5781065e-01
 -4.8220305e+00
 -2.5492976e+00
  8.4924829e-01
 -1.1175873e+00
  1.0051175e+01
 -9.1607151e+00
  6.5538597e+00
 -1.1481142e+00
 -3.0742257e+00
 -1.9421117e-01
 -8.9741997e-02
  3.3884113e+00
 -1.1326097e+00
  4.3883519e+00
 -2.1792047e+00
  1.5202903e+00
  4.9107175e+00
  1.6078122e+00
 -1.7821906e+00
 -6.4782019e+00
 -6.0258498e+00
 -2.1399527e+00
  1.1606677e+00
 -5.1728988e+00
  2.4941797e+00
 -5.6019416e+00
  2.2458475e+00
 -1.0103093e+01
 -1.1090955e+00
  1.0862679e+00
 -4.2107401e+00
 -1.7782429e+00
 -1.0501229e-01
 -9.2952371e-02
 -1.1997095e+00
 -1.1746655e+00
 -2.1941779e+00
 -4.2401738e+00
 -5.2588530e-02
 -4.1831654e-02
 -7.5278348e-01
 -1.2524831e+00
  5.5713892e-01
  5.8950377e-01
 -1.2117971e+00
 -1.3388582e-01
 -4.7256055e+00
 -4.3653104e-01
 -1.0487465e+00
 -2.7025959e+00
  4.0203062e-01
 -1.3759890e+00
  1.8337837e-01
 -5.1156181e-01
 -3.1369925e+00
  1.4017959e-01
 -1.9850659e-01
 -2.1310076e-01
  4.8726070e-01
 -1.5100219e+00
 -2.4958711e-02
 -7.4373877e-01
  8.7364525e-02
 -1.6835429e-01
 -2.4001389e+00
 -1.8362578e+00
  1.9436221e-01
 -4.0998630e-02
  1.9274913e+00
 -5.1904783e+00
 -1.5053653e+00
  1.9257330e+00
  1.9940166e-01
 -1.5312555e-01
  4.1943258e-01
  7.8829688e-01
  2.2623861e-01
 -1.8154789e+00
 -7.2414029e-01
 -1.5990449e+00
  1.5088254e+00
  1.3395206e+00
 -2.1318200e+00
  6.1740142e-01
  1.7032361e-01
 -1.0747380e+00
  1.0543150e+00
  1.2822245e+00
  4.4152278e-01
 -1.6299894e-01
  5.4231167e-01
  8.1761146e-01
  1.4452654e+00
 -3.1049323e-01
 -1.5989420e-01
  3.1516212e-01
  3.4796149e-03
  5.8136821e-01
  1.2189769e+00
 -1.3612553e-01
  9.2032039e-01
  1.6374159e-01
  2.7534246e-01
 -1.1624842e+00
  1.0186042e+00
  1.2705042e+00
  2.9809105e+00
 -2.1611977e-01
  2.4100039e+00
  5.3268986e+00
  1.7609688e+00
  1.0406531e+00
 -6.4480686e+00
 -2.7095023e-01
  1.9156483e-01
  1.8724881e+00
 -1.0049880e-01
  1.0520357e+00
  2.5871309e-02
  5.4241767e+00
  2.1666322e+00
 -1.9129840e+00
 -5.1364750e-01
 -1.9882701e-01
  3.9737020e+00
  1.2540873e+01
  6.2552671e+00
  2.3038499e+00
 -8.1263447e+00
 -4.8781013e+00
 -9.9837475e+00
  4.2722142e-01
  2.5219948e+00
  6.1096787e+00
  6.8780482e-01
  7.9575825e-01
 -1.2974373e+00
 -5.1183662e+00
  4.5885773e+00
  5.9087377e-02
  3.9225721e-01
  8.9461684e-01
  4.4310164e-01
 -4.2036347e+00
  7.2994965e-01
 -3.3636534e-01
 -3.1409297e+00
 -2.2671516e+00
 -3.7737637e+00
 -2.1821463e+00
  1.8113163e-01
 -1.6251892e+00
  9.8960322e-01
 -1.0216558e+00
  1.4326229e+00
  5.0242624e+00
  1.1356525e+00
  2.0606831e-01
  8.4142857e+00
 -1.4330713e+00
 -2.8000002e+00
  1.8850178e-01
  1.5658312e+00
 -7.4140744e+00
 -1.5844470e+00
  1.2994260e+00
  5.7957101e-01
  3.0220276e-01
 -2.9238605e+00
  3.4739025e+00
 -1.7483761e+00
  1.4389216e+00
 -1.9281576e+00
 -2.6812901e+00
 -7.6022732e-01
 -6.1768928e+00
 -3.2303455e+00
  6.7330912e-02
  6.6985857e-01
  8.0637616e-01
  6.0377431e-01
 -1.8184507e-01
 -1.8185804e+00
 -5.7297926e+00
  2.4551566e+00
 -4.0015211e+00
  5.8121424e-02
  8.5429382e-01
 -1.0975914e+00
 -2.5879600e+00
 -3.7601587e-01
 -7.0230830e-01
 -2.3685548e+00
 -9.0890849e-01
  1.2314035e+00
  4.8697144e-02
  2.2111797e-01
  3.6621842e+00
 -6.9817364e-02
  1.1098140e-01
 -7.1046799e-01
  2.7836199e+00
 -4.1946101e+00
  2.4122910e+00
  5.1239681e-01
  2.7321057e+00
 -8.8711796e+00
 -4.2581758e+00
  1.9162050e-01
 -1.8237936e-01
  4.4679016e-02
  5.1710701e-01
  2.2869813e-01
 -1.1431922e+00
 -1.6850103e-01
 -3.9708781e+00
  2.3238007e-02
 -2.8301001e-02
  2.4859736e+00
 -4.4109602e+00
  8.4592722e-02
 -3.6729462e-03
 -5.0524032e-01
 -2.0540504e+00
  1.5668356e+00
 -2.4066074e-01
  4.4803697e-01
 -1.8870634e-01
  7.2668737e-01
  7.1625900e-01
  3.0333847e-01
  2.3754855e-01
  9.2652541e-01
 -5.7263337e-02
  2.3819849e+00
  5.0522780e-01
  6.3951707e-01
 -2.0795679e-02
 -5.3082132e-01
  1.7498307e+00
 -2.3259323e+00
 -1.7189897e+00
 -1.3670623e+00
  1.6092982e+00
  2.9990094e+00
  2.1987360e-02
  1.4500053e-01
  8.4904993e-01
  9.3208975e-01
  9.7296871e-02
  6.3802910e-01
  1.4342798e+00
  3.1510687e+00
 -2.3279963e-01
  3.4151967e+00
  6.2038779e-01
 -4.9091592e-01
  5.9894270e-01
  1.3139060e+00
  4.0660805e-01
 -4.1138780e-01
  2.1594696e-01
  2.3479962e+00
  2.4324708e+00
 -1.4431069e+00
 -3.2756751e+00
  5.4951805e-01
 -7.7357262e-01
  2.5256512e-01
  5.3095669e-01
 -2.2956316e+00
  1.2375632e-01
 -5.5230212e+00
 -6.0711074e-01
  1.3206245e+00
 -1.1409290e-01
  9.3317860e-01
  2.6435690e+00
  5.8294563e+00
  6.2807399e-01
 -6.2682372e-01
 -1.3376459e-01
  1.0725733e+00
 -4.0201053e-02
 -1.6352204e+00
  4.2354569e-02
  1.0779196e+00
 -2.7959824e-01
 -2.4457967e+00
 -1.1333723e+00
 -1.3910336e+00
 -1.2337747e-01
  1.5095827e-01
  4.0384628e-02
 -1.5384188e+00
  1.6433224e-01
 -2.0406085e-01
 -9.9240267e-01
 -4.1491532e+00
 -1.0493401e+00
  3.0336168e-01
 -6.1295360e-01
 -1.4391777e-01
  2.5136383e+00
 -9.5909815e+00
  8.9260980e-02
 -4.5250374e-01
 -1.9722193e-02
  7.5011998e-01
  1.6983945e+00
  1.5631290e-01
 -9.0043169e-01
 -4.2143828e-01
 -3.9980078e+00
 -5.9422898e-01
 -5.6412888e-01
  1.2384321e-01
  3.2103386e+00
 -1.3733321e+00
  5.4662240e-01
 -2.7163937e+00
 -2.1755369e+00
 -9.8374313e-01
 -4.6749554e+00
 -3.8321814e-01
  4.6535940e+00
 -5.2486558e+00
  8.8054824e-01
  8.4176044e+00
 -9.2400608e+00
  3.4225512e+00
 -2.0704253e+00
  2.5659184e+00
 -3.7710440e-01
  3.0721807e-01
  1.2824965e+00
 -5.6108761e+00
  1.7615540e+00
  7.3499757e-01
 -1.6430652e+00
  1.4223327e-01
  1.7389340e+00
  3.6803836e-01
  5.4827433e+00
  2.8905833e+00
 -3.1397827e+00
  1.7303479e+00
 -3.1963019e+00
  7.7071171e+00
  3.9402642e+00
  3.0188622e+00
 -8.0896211e-01
 -5.2382689e+00
  5.1786900e-02
 -3.0995176e+00
 -6.8006921e-01
 -9.5821867e+00
 -1.9673118e-01
  1.8954107e+00
 -2.5501857e+00
 -3.8321669e+00
 -1.1612400e+00
 -8.5901898e-01
 -1.6310548e+00
  3.8266292e-01
  2.7855392e+00
  4.6800822e-04
 -2.6209962e-01
  4.0735102e-01
  6.3234609e-01
  2.2367980e+00
  4.5955199e-01
  6.9646686e-03
 -3.3178134e+00
  1.2667123e+00
  7.8105742e-01
  5.6163609e-01
  2.8581598e+00
  2.0198765e+00
  1.2312567e+00
 -1.5499215e+00
 -9.9043953e-01
  5.9605509e-01
  1.3508675e+00
  3.7078249e-01
  8.4201740e-03
  6.5796947e+00
  3.6138436e-01
  5.7591877e+00
  1.2854315e+00
  4.5528305e-01
 -3.0769882e+00
  2.0711007e+00
 -9.5186919e-01
 -5.8873463e+00
 -2.6718462e+00
 -1.3449948e+00
  7.1516418e+00
  1.2529520e+00
 -4.7803128e-01
 -2.7448869e-01
 -5.6186790e+00
 -5.5125704e+00
 -1.4769428e+00
 -1.4013857e+00
  3.9592371e+00
 -5.6012326e-01
 -3.0918489e+00
  3.8186499e-01
  9.7462301e+00
 -1.9521904e+00
 -2.2084081e+00
 -7.7579255e+00
  2.8023372e+00
  2.7849972e-01
  3.1346889e+00
  7.6850300e+00
  2.5597138e+00
  3.7175546e+00
 -2.6776047e+00
  8.3362598e+00
  6.4988232e+00
  1.4617695e+00
 -2.1358099e+00
  3.7787280e+00
 -1.2989213e+00
 -1.8932992e+00
  6.5927172e+00
 -1.9056094e-01
 -2.3102460e+00
 -4.2908767e-01
  1.3850611e+00
 -1.3324425e+00
 -2.5420475e-01
 -1.0115036e+00
  3.4739082e+00
  7.0394721e+00
 -6.2688899e+00
  8.5005379e-01
  3.7764704e-01
  1.1262383e+00
 -8.3872682e-01
 -1.8145435e+00
 -8.3114392e-01
  5.8592212e-01
 -4.3546337e-01
 -8.0408204e-01
 -1.5440206e-01
  3.4042089e+00
 -3.1341845e-01
 -3.0340135e-01
  3.1856024e-01
  1.0573287e+00
  1.0878353e-01
 -3.3342621e-01
 -1.4102622e+00
 -3.0422385e+00
 -8.7376446e-02
 -1.2929115e+00
  2.0552695e+00
 -4.1259565e+00
 -2.8942177e+00
 -2.4761395e+00
 -9.8196834e-02
 -1.0218495e-01
 -1.5050647e+00
  8.5001057e-01
  2.9191110e-01
 -1.0962948e+00
 -3.3873641e-01
 -5.1244277e-01
  7.7598310e-01
 -1.3761958e-01
  2.9871303e-01
  5.6106830e-01
  6.6055101e-01
 -9.2361227e-02
 -1.6618170e-01
 -2.7251732e-01
 -5.9689200e-01
 -4.2042919e-02
  1.4660680e-01
 -1.3947868e+00
 -8.6226487e-01
 -8.4833753e-01
  9.8634325e-03
  4.2114657e-01
  8.4512490e-01
 -9.8510981e-01
  1.4573971e+00
 -1.4935204e+00
  3.2954502e-01
 -2.2344718e+00
  4.0674278e-01
 -7.2557271e-01
 -4.8531175e-02
  2.0931954e+00
 -2.9200747e+00
  1.0625772e+00
 -2.5123581e-01
  9.0709895e-02
  2.1467540e-01
 -1.3535182e-01
 -5.5631369e-02
  7.3614734e-01
 -8.8841259e-01
  4.0443796e-01
  1.5411696e+00
 -2.2677340e-01
  3.5388055e-01
  9.5320970e-01
  5.7877827e-01
 -3.8419874e+00
  8.1449240e-02
 -9.8071384e+00
 -1.0321133e+00
 -3.3749786e-01
 -1.0668674e+00
 -1.1673826e+00
 -1.6650215e+00
  4.2291528e-01
  2.5957641e-01
  6.2964386e-01
 -4.5291901e-01
 -1.7860775e-01
  1.6476599e+00
  4.3317137e+00
 -8.2551467e-01
  1.1652369e-02
  6.4147882e-02
 -9.6884394e-01
  3.8454211e-01
 -4.0183969e+00
 -1.6954811e+00
  1.5990480e+00
  5.0724137e-01
  9.8987415e-02
 -6.5123402e-02
  1.4754199e+00
 -9.9700981e-01
 -3.6113328e-01
 -9.6488702e-01
 -9.0088314e-01
 -9.7614851e+00
  1.7740965e+00
 -3.3876318e-01
 -1.5119848e+00
  5.0420320e-01
  7.6129936e-02
 -8.3362916e-03
  7.6996928e-01
  3.9151320e-01
 -1.0943626e-01
  1.1862541e+00
  9.5432740e-01
  4.6668467e-01
 -1.9963410e+00
  2.4561810e-01
  7.3243237e-01
  8.8754845e-01
  1.0728333e+00
  6.9342422e-01
  6.6033072e+00
 -2.2414155e+00
  2.4943389e-01
  8.2549316e-01
 -2.5747986e+00
 -9.1337435e-02
  6.9844532e-01
 -1.3149444e+00
  2.5536904e-01
 -5.9240776e-01
 -3.7903017e-01
 -1.8924697e-01
 -1.3317902e-01
 -1.1498415e+00
 -4.5949519e-01
 -1.0178502e+00
  3.7134299e-01
  2.2790937e+00
 -3.4978889e-02
 -3.7126284e+00
  1.3225534e+00
 -3.4130409e-02
 -7.3998260e-01
  1.3633256e+00
  6.6854602e-01
  1.2086840e+00
  8.1049433e+00
  4.3613163e-01
  5.5599821e-01
 -6.3962460e-01
  9.0271407e-01
 -8.3690137e-01
 -2.4420756e-01
 -2.3363020e+00
 -9.5422220e-01
  8.3722532e-01
  3.5708282e+00
  1.4113494e+00
  2.0656572e-01
  7.0883548e-01
  5.0603857e+00
  8.8277653e-02
  6.4657307e-01
 -7.8065145e-01
 -4.2954445e+00
  8.0272455e+00
  2.1098831e-01
  3.6648557e-01
 -2.3184106e+00
  1.0472893e+00
 -2.4665058e-02
  6.0066825e-01
  1.6142249e+00
 -4.1704464e+00
  1.4669895e+00
  2.5895703e-01
  7.4319279e-01
 -4.3529436e-02
  3.3160865e+00
  4.0040565e-01
 -1.3544325e+00
 -6.6749430e-01
  5.5800714e+00
 -2.4258949e-01
  3.2720193e-01
  1.4100404e+00
 -2.4499435e+00
  7.1569580e-01
 -2.1479645e+00
 -6.4334309e-01
 -3.4502895e+00
 -7.1520489e-01
 -1.6910507e-01
  1.0643113e-01
  8.9231566e-02
  3.4310657e-01
 -6.9522262e+00
 -5.8728355e-01
 -2.5076106e+00
  2.6022093e-02
 -4.2788072e+00
 -6.2053218e-02
 -1.7490580e+00
 -3.3626917e-01
 -4.2060974e-01
  3.6221623e-01
 -6.3514686e-01
 -9.7638339e-01
 -3.6822383e+00
 -9.6676064e-01
  4.2076024e-01
  9.2518806e-02
  2.7957778e+00
 -1.8946704e+00
  3.4973831e+00
 -2.6114684e-01
 -2.1273544e+00
 -1.7343955e+00
 -8.5916507e-01
  4.9205828e+00
 -1.8820922e+00
 -5.0229681e-01
 -2.2931288e-01
  8.0159605e-03
  1.0228088e-01
  2.0564590e+00
  3.7416701e+00
 -1.4785870e+00
 -3.4464544e-01
 -6.2655258e+00
 -1.3087132e+00
 -4.9417779e-01
 -6.5950716e-01
 -2.1000183e+00
 -1.2307111e+00
  2.2437136e+00
 -4.2476988e+00
 -2.0369339e+00
 -1.3085597e+00
 -6.2175055e+00
  7.1427238e-01
 -1.9488839e+00
 -2.1718683e+00
  3.5811090e+00
 -8.8367432e-01
 -2.6183602e-01
 -5.8659382e-02
 -1.6818448e+00
 -4.9406853e+00
  1.6543859e-01
 -2.4642611e-01
  6.7574501e-01
  1.5781748e-01
  3.4004864e-01
 -3.3142676e+00
  2.8202829e+00
 -3.9815288e+00
  3.3091245e+00
 -2.6325667e+00
  4.7892520e-01
 -1.4830750e+00
 -1.6842900e-01
 -3.3290565e+00
  4.5578572e-01
 -8.6585492e-01
 -3.5861254e+00
  3.9468057e+00
 -1.3890032e+00
 -8.6097372e-01
  6.3199240e-01
  4.5374079e+00
 -8.1796551e+00
 -2.4555204e+00
  2.8479292e+00
  8.0176407e-01
 -3.9006715e+00
 -2.1936750e+00
 -2.0145001e+00
 -8.4821773e-01
  2.5099242e-01
 -2.3856554e+00
  3.1853712e+00
 -7.6473635e-01
  4.9584670e+00
  1.6283898e+00
  1.8786074e+00
  4.6039975e-01
 -1.6262491e+00
  1.8413643e+00
  3.5191984e+00
 -2.6375017e+00
  8.1754904e+00
 -1.6208561e-01
 -3.0357280e+00
  4.7334986e+00
  3.8795784e-01
  2.7495973e-02
 -2.0831845e+00
 -1.4591202e+00
  2.8056934e+00
 -4.6679029e+00
  1.5026970e+00
 -1.7418174e-01
 -9.8320568e-01
  7.1567106e+00
  1.8826920e-01
  4.4136088e-02
 -1.4807694e+00
  4.7090623e-01
 -4.1930485e+00
  2.1962216e+00
 -1.2149817e+00
  1.4443152e+00
  5.9230399e-01
 -2.1347199e-02
  1.9548074e+00
 -1.1747979e+00
 -9.3402453e-02
  3.1254807e-01
 -4.8029917e-01
 -6.2534511e-01
  1.5789760e+00
  3.6268884e-01
 -9.1281587e-01
 -6.8755937e-01
  3.5050154e-01
  2.3690872e+00
  2.2596495e+00
 -1.1584581e+00
  2.2433177e-03
  3.7481420e+00
 -2.5516441e-01
 -1.3163681e+00
  4.8426762e-01
 -1.5772446e+00
 -3.5007140e-01
 -2.2799547e+00
  1.3996397e+00
 -1.2029731e+00
 -3.1599340e+00
  5.0411422e-02
 -1.0079778e+00
 -1.1074817e+00
 -7.9974800e-02
 -1.2729570e+00
  1.2673968e-01
 -5.1561099e-02
  1.1346427e+00
 -8.2884806e-01
 -7.0236456e-01
  4.1388851e-01
 -1.6861242e+00
 -3.5253627e+00
  1.9506678e-01
 -2.9199076e+00
 -1.3973564e+00
  1.5274643e+00
  6.1886168e-01
 -4.6153522e-01
  7.3445648e-01
 -2.8167365e+00
 -1.1931351e+00
 -5.5571351e+00
  2.5398770e-01
  9.0106434e-01
  2.0107422e+00
  5.8276200e-01
 -1.3390902e+00
  9.0221620e-01
  1.0563954e+00
 -3.9924765e-01
 -3.6224039e+00
  7.0145807e+00
 -1.0708897e+00
 -2.8233716e-01
  8.1680310e-01
 -3.5085294e+00
  8.7341986e+00
 -6.3848476e+00
 -6.3806927e-01
  1.3972855e-01
  1.9494615e+00
 -8.3205765e-01
  2.9714208e+00
  7.3736387e-01
 -2.0427257e-01
 -2.9652991e+00
 -6.1293584e-01
  1.6382903e+00
 -1.4392062e-01
  2.3536161e-03
  4.0855077e-01
  1.6713065e+00
  3.1614399e+00
  1.4173613e+00
 -7.5516953e+00
  1.5803361e+00
  7.3995858e-01
 -3.8994482e-01
  8.6479199e-01
  6.2773263e-01
 -2.6934118e+00
 -1.5874681e-01
  2.4311037e+00
  2.9395761e+00
 -2.7287751e-01
  2.2527649e+00
 -4.1044388e+00
 -9.7463691e-01
  3.3182547e+00
 -4.8858729e-01
 -9.2132086e-01
 -2.5140269e+00
 -1.6881261e+00
  1.3996842e+01
  1.0803159e+00
 -4.9771452e-01
 -3.3652382e+00
 -2.1032106e-02
  6.1701453e-01
 -1.3512098e+00
  3.0928259e+00
  2.7459437e-01
  2.3283157e+00
  1.1353290e+00
  7.9032284e-01
 -1.9302662e-01
  1.5011852e+00
  3.9684420e+00
  2.0573750e+00
  1.7762650e+00
  2.8648779e+00
  3.0828614e+00
 -3.6547787e+00
  4.0360224e-01
  5.2468252e-01
 -1.8152355e+00
  1.7624847e+00
  4.0144587e+00
 -1.1090893e+00
 -3.5708642e+00
 -2.6843551e-01
  1.7317207e+00
 -8.7823975e-01
  1.8095962e+00
 -3.9448979e+00
 -8.7529004e-02
 -1.8412315e+00
  8.5699767e-01
  2.7307429e+00
 -2.4900593e-01
  5.3146350e-01
  1.6066508e+00
 -1.5022807e+00
  5.2877030e+00
 -2.4005377e+00
 -2.9328418e-01
  6.9702947e-01
  1.7566096e+00
 -7.5692260e-01
 -9.6290052e-01
 -1.3701652e+00
  2.6272325e-02
  1.1784176e+00
  1.9532607e+00
 -3.7428765e+00
 -2.5823057e-01
  1.2994833e+00
 -1.8355678e+00
  1.0702913e+00
  1.7799557e+00
 -2.4889545e+00
 -6.2658849e+00
  1.6850382e-01
  6.8604499e-01
  5.1792419e-01
  1.0848988e-01
 -1.7113783e+00
  5.5194604e-01
  2.0932093e+00
 -1.9349223e-01
  3.2705824e+00
 -8.3264083e-02
 -1.4717606e+00
 -7.2600532e-01
 -7.2163005e+00
  8.4434241e-01
  2.3071873e+00
  4.6864367e+00
  4.9350057e+00
  2.4481878e+00
 -2.0303521e-01
 -8.8444251e-01
  6.5809327e-01
 -2.7076728e+00
 -8.5190398e-01
  4.7062001e-01
 -6.7088385e+00
  2.5266244e+00
 -7.2930682e-01
  1.5402138e+00
  1.2018783e+00
  2.2235498e+00
 -3.4809072e+00
  8.0703259e-01
  8.9910078e+00
 -6.4543319e-01
  4.5559341e-01
  5.8940113e-01
 -2.2263460e+00
 -1.1335794e+00
 -4.5590067e-01
  2.5765381e+00
  1.4527819e+00
 -7.6517305e+00
  1.3587272e-01
 -2.6685822e-01
 -6.2318621e+00
 -2.4790437e+00
 -5.1862901e-01
  3.6857164e+00
  3.0779487e-01
  6.5674400e-01
  4.6386414e+00
  1.0904561e+00
 -1.3804436e-01
 -8.2272911e-01
 -1.1959606e+00
  5.6691283e-01
  3.5317411e+00
  9.5284424e+00
 -7.4646068e-01
 -5.8972087e+00
 -2.4954891e+00
  1.1104168e+00
  4.0726528e-02
  5.1529938e-01
 -9.3618488e-01
  1.6811485e+00
  3.1783826e+00
 -4.4772935e-01
  8.6134940e-01
 -2.7647220e-02
  1.2770195e+00
  2.4678874e-01
 -2.0288575e+00
 -3.5423979e-01
 -1.7114678e-02
  1.9445760e+00
 -8.5852585e+00
  2.1092401e+00
  8.6180121e-01
 -1.8813078e+00
 -3.2835629e+00
  4.1519470e+00
  1.0124082e-01
 -1.2857203e+00
 -5.5174810e-01
 -1.1088836e+00
 -4.5941157e+00
 -1.2950729e+00
  5.9562135e-01
 -2.3013386e-01
 -8.8754070e-01
 -1.6762235e+00
  2.8559690e+00
  4.5682135e+00
 -3.5464511e+00
 -3.3176407e-01
 -5.1317030e-01
 -1.1057457e+00
  2.8734818e+00
  6.2498460e+00
  2.2978692e+00
  6.9860804e-01
 -1.2404763e+00
 -7.1357030e-01
  7.4239153e-01
  8.1843936e-01
  2.0594854e+00
 -3.0377585e-02
  2.6789980e+00
  4.1337159e-01
 -9.6548462e-01
  2.8838112e+00
 -4.1279864e+00
 -3.7636358e-01
 -1.4548855e+00
  1.5527428e+00
  2.0311530e+00
  3.9045866e+00
 -9.2400879e-01
  2.8166208e-01
 -5.9969401e-01
 -2.0672359e+00
  2.0124104e+00
 -1.7506644e+00
  2.8530984e+00
  4.5387392e+00
 -1.7516775e+00
 -7.5114334e-01
 -1.0536012e-01
 -4.3266850e+00
 -1.1518202e+00
  3.1234674e+00
 -7.3850036e-01
  4.8062720e+00
 -7.1810603e+00
  5.2239213e+00
  6.7823732e-01
  1.7062161e+00
 -4.9065995e-01
  4.7383463e-01
 -1.2091413e+00
 -1.6593344e+00
  2.1815116e+00
  1.7634432e+00
 -3.8483766e-01
 -1.3752475e-02
 -1.5002106e+00
 -1.9083028e+00
 -7.3033202e-01
 -3.5403189e-01
  1.7614827e+00
  9.1742218e-02
  2.0901995e+00
 -2.1028191e-01
 -3.1371295e+00
  1.0348480e+00
  1.1631937e+00
 -3.4645063e-01
  3.8141057e-01
  1.8035424e+00
  1.1894801e+00
  5.4550853e+00
 -2.1046751e+00
  1.8154186e+00
 -2.6754260e+00
  7.1515745e-01
  8.2191801e-01
  1.6077917e-02
 -1.2004102e+00
  1.9751127e+00
 -1.6255818e-01
 -8.8171279e-01
 -3.6453001e+00
  1.4225109e+00
 -7.4797535e-01
  6.7140400e-01
  1.9873897e+00
 -4.1030398e-01
 -7.1596336e-01
  8.9318144e-01
 -1.5403510e+00
 -6.2136203e-01
  4.5388645e-01
 -1.4392475e+00
  7.5436908e-01
 -3.7159714e-01
 -5.0760520e-01
  7.2092171e+00
 -6.5388352e-01
 -3.6368203e-01
 -1.6280264e+00
 -2.1637529e-01
  3.2783656e+00
 -3.1162256e-01
 -8.7944615e-01
  2.0997322e+00
  2.1874285e+00
  1.2398640e-01
  3.1984932e+00
  1.2945098e+00
 -1.9141948e+00
 -1.2944502e-01
  2.9703814e-01
  5.9819407e+00
  1.1727189e-01
 -1.9706742e+00
 -3.4423256e+00
 -6.9487047e-01
  5.0388658e-01
  5.9527248e-01
  1.6799562e+00
 -1.1737749e+01
 -6.6106162e+00
 -2.6627815e-01
 -4.5434251e-01
  9.3445361e-01
  2.1093411e+00
  3.2064919e+00
 -2.2145278e+00
 -3.7212367e+00
  2.8268847e-01
 -1.1870462e+00
 -1.2466601e+00
  4.6604252e+00
  2.8495541e+00
  7.3047084e-01
 -1.0695490e+00
  5.0422810e-02
 -1.0493828e+00
 -8.5726780e-01
 -7.6789248e-01
 -2.1698964e+00
  9.2650175e-01
  1.7523090e+00
  5.6715322e+00
  8.6795444e+00
 -1.5590502e-01
 -1.8983407e+00
  2.5766985e+00
 -4.3566599e-01
  4.4406605e-01
  1.6075188e+00
  1.0349472e+00
  1.0021402e-01
  9.0035278e-01
 -3.2011759e+00
  1.5757799e+00
 -6.9499087e-01
  1.1658777e+00
 -5.8079910e+00
 -2.2592154e+00
  1.1777396e+00
  3.0351214e+00
 -3.7322104e-01
  5.9373178e+00
 -4.2412357e+00
  7.2294116e-01
  3.5243869e+00
 -2.9446616e+00
 -6.0223532e+00
 -2.7783889e-01
  3.1276290e+00
 -5.6333524e-01
 -1.3933936e+00
  1.6215152e-01
 -2.2915417e-01
 -1.7540865e-01
 -5.3984221e-02
 -1.8544244e+00
 -7.3455907e-02
  8.7669115e+00
 -2.4197626e+00
  1.3281726e+00
 -2.9816428e-01
  1.7799305e+00
 -1.3386808e-01
 -1.0552258e+00
  6.5956650e+00
  4.4713454e+00
 -1.9775903e+00
  1.6028041e-01
  3.8490291e+00
  6.4103651e+00
  3.7619793e+00
 -7.9491591e-01
  1.9721873e-01
  2.9751623e+00
  1.8302384e-01
 -4.6647396e+00
  5.0265491e-01
  6.3136238e-01
  7.7764759e+00
  1.5413996e+00
  6.9875865e+00
  3.3613048e+00
 -3.4252577e+00
  4.7333603e+00
  1.0958526e+00
  4.1085038e+00
  3.2037129e+00
  4.0048876e+00
  7.5375691e-02
  2.5918573e-01
 -1.3689258e+00
  1.0067874e+00
 -3.7566829e-01
  3.5339060e-01
  3.1830284e-01
 -8.8468248e-01
  1.0847380e+00
 -1.5227859e-01
 -6.1745853e-03
 -2.1850156e-02
  4.6269247e-01
  3.6831226e+00
  1.1737934e-01
  1.5425124e+00
  9.4915950e-01
  2.9934292e+00
 -2.0884972e+00
  3.4714055e-01
 -2.3377119e-01
 -1.8228258e+00
 -1.0552781e+00
  7.8094617e-02
 -1.9071028e-02
 -1.2782738e-01
  2.9755719e+00
 -4.2146983e+00
  1.9654014e+00
 -1.2618264e+00
 -1.2394153e-01
 -1.3179220e+00
  1.7910650e+00
  2.0324323e+00
  5.7450980e-01
 -1.8728259e+00
  5.1852021e+00
  1.5000238e+00
  1.9064522e-01
  2.4309480e+00
 -2.8464043e+00
  2.3776524e+00
 -8.1771338e-01
  8.2604468e-01
  1.3666317e+00
  7.4732888e-01
  3.9754341e+00
 -4.0103906e-01
  7.8895354e-01
  5.0533504e+00
 -1.0945719e-01
  3.1951993e+00
  1.0752840e+00
 -1.1037964e+00
 -9.1401748e-02
 -4.6070948e-01
 -1.7152648e+00
 -2.0128155e+00
 -1.7225090e+00
  3.3306701e+00
 -2.8767616e-01
  1.3362417e+00
 -1.0380797e+00
 -1.1687598e-01
 -5.6393141e-01
 -4.6179757e-01
  2.1934936e+00
 -2.9112169e-01
 -3.3178043e+00
  2.2246873e+00
 -1.1599073e+00
  3.3974936e+00
  6.8841517e-01
  5.8299370e+00
  2.7581289e-01
  3.9875104e+00
  5.4456120e+00
 -1.6371948e+00
 -7.7145183e-01
 -9.0310973e-01
  5.4312521e-01
 -2.0581174e+00
 -4.4741848e-01
  1.5429785e+00
 -8.1727457e-01
  1.0379320e+00
  8.0861568e-01
  9.8186607e+00
  1.0563860e+00
 -5.9906542e-01
 -2.0846775e+00
 -2.9567289e-01
  4.4364047e-01
  1.6317366e-01
  3.9544849e+00
  4.7356339e+00
  4.6281809e-01
 -1.8947897e+00
 -1.5200814e+00
  5.1404667e-01
 -6.3114613e-02
  4.7335276e-01
 -7.1064478e-01
  1.0723482e+00
 -8.9771533e-01
  1.1423020e+00
  3.5980294e+00
  6.9678073e+00
 -2.6553205e-01
  5.3999031e-01
  3.6776488e+00
 -2.7964647e+00
 -1.1309631e+00
  5.3079772e-01
 -1.3463410e+00
  2.0512569e+00
  1.3623571e+00
 -5.9166026e-01
  2.8516212e-01
 -1.2885758e+00
 -1.9374653e+00
  5.3027183e-01
  3.1316619e+00
  1.4951332e+00
  1.1964023e+00
 -4.7149096e+00
  1.4565011e+00
  2.8587077e+00
  4.3862611e-02
 -8.2411802e-01
 -5.3864574e+00
 -1.7271584e+00
 -1.2910110e+00
 -1.1717138e+00
  9.3475425e-01
 -8.0460796e+00
 -8.9706957e-01
  8.8430661e-01
 -7.9037178e-01
  1.0751163e+00
  5.2905184e-01
 -4.0720612e-01
  3.0499986e-01
 -6.3204545e-01
 -9.0984052e-01
 -2.9661635e-01
 -1.8470433e-02
  6.4532337e+00
  3.5748768e-01
  4.3581848e+00
  6.5043986e-02
 -7.3550922e-01
  1.3490686e+00
 -4.4235778e-01
  3.5214813e+00
 -1.6804877e-01
 -1.4144309e+00
  1.5793017e+00
  2.3462636e+00
  4.7379740e-02
 -1.0462530e+00
 -2.4880524e+00
  7.6985687e-01
  5.4193854e-01
 -3.3898859e+00
 -2.0751061e+00
 -5.3454411e-01
  1.0055574e+00
 -6.0942821e-02
  6.7965121e+00
 -3.7350550e-02
  1.4509755e+00
  1.4218719e+00
 -1.0938009e+00
  1.3895651e-02
  2.3546836e+00
 -8.5422647e-01
 -1.0256804e+00
 -1.9874158e+00
  2.3693423e+00
 -4.0280545e-01
 -8.9977014e-01
  4.5515493e-02
 -4.2958355e+00
 -5.8094847e-01
 -2.9642670e+00
  2.5348631e-01
 -2.4647261e-01
 -4.6280205e-01
 -3.1997187e+00
 -2.7813702e+00
  1.1422291e+00
 -3.5245583e+00
  4.1953140e-01
 -7.9797797e+00
 -1.7152504e+00
 -4.6737504e-01
  6.4738792e-01
  4.5099363e+00
 -5.2732968e-01
 -6.0657449e+00
 -1.1836133e+00
 -8.0647886e-01
  9.0916795e-01
  2.4871500e+00
 -5.0314116e-01
 -6.7445713e-01
 -2.5642231e+00
  3.6393806e-01
  2.7830005e-01
  6.6888762e-01
 -4.2985353e+00
 -9.6582472e-01
 -1.2751138e+00
 -2.2568316e+00
  5.9790976e-02
 -3.0069318e+00
  1.9638891e+00
 -1.5552621e+00
 -7.4676639e-01
  3.2106893e+00
  7.4131057e-02
 -6.8013134e+00
  3.1845394e-01
 -1.7837483e+00
 -4.9628468e+00
  5.1303065e-01
