nep4 3 B C N 
cutoff 8 4 414 46
n_max 8 8
basis_size 12 12
l_max 4 2 0
ANN 50 0
 -7.3884499e-01
 -1.7048026e+00
  3.7826524e+00
  4.8263683e+00
 -5.0000768e+00
  1.1338074e+00
 -1.9305241e-01
 -4.5970354e+00
  9.8446760e+00
 -2.6469560e+00
 -1.6958302e+00
 -1.8098135e-01
  2.6225641e-01
 -1.4507550e+00
  8.1160218e-01
  2.3380075e+00
  2.0471551e+00
 -3.3547382e+00
  3.9409227e+00
  5.2491722e+00
 -8.4825599e-01
 -1.0739075e+00
 -8.8988829e-01
  2.1035318e+00
  3.6021438e+00
  1.7830286e+00
 -1.3506290e-01
 -9.5716876e-01
  2.5493431e+00
 -1.7386481e+00
  6.9667211e+00
  1.2559751e+00
 -2.5191841e+00
  2.9273028e+00
 -2.1276212e+00
 -1.6749053e+00
 -8.8801491e-01
  4.0837278e+00
 -2.0223901e+00
  3.3378875e-01
 -5.6201398e-01
  4.0445277e-01
  1.1065515e+00
 -1.7830312e+00
  8.7312108e-01
 -1.1925790e-02
 -4.5283322e+00
 -1.5903124e+00
  1.8086948e-01
  9.3418613e-02
  1.0677637e+00
  1.1735780e+00
  2.4335833e+00
 -3.1961724e-01
  1.6398101e+00
  3.6647942e+00
  1.1559565e-01
  2.1346242e+00
  9.9838525e-02
  3.6930435e+00
 -2.4594390e+00
 -2.3149629e-01
  3.1207299e-03
 -4.7790504e+00
 -1.7078068e+00
 -1.3496653e+00
  3.4631982e-01
 -1.1820620e+00
 -2.6345932e+00
 -5.8728065e-02
 -2.3177071e+00
 -6.9671106e-01
  7.9740196e-01
  2.7025443e-01
  2.3756104e-02
 -1.1983657e+00
 -6.0994363e-01
 -2.2260773e+00
 -2.0563895e-02
  2.2616126e-01
  2.8760174e-01
  1.3203251e+00
  1.7994793e-01
  3.3528164e-01
 -9.0255350e-01
 -4.1646380e-02
  1.0671986e+00
 -5.8331788e-01
  2.0406827e-01
 -1.8287370e+00
 -7.3887509e-01
  1.6728708e+00
 -2.4684269e+00
  6.5545368e-01
 -2.3489675e-02
  2.2917652e+00
  3.0189569e-03
  1.3159963e-01
  2.1292125e-01
 -1.8907326e+00
 -1.2621365e-02
  1.4891416e-01
 -5.6847864e-01
 -1.9808982e-02
  1.4963990e-01
  9.3889059e-03
 -9.2991972e-03
 -1.1640756e+00
 -1.9879323e-01
 -2.9660499e-01
  3.0963084e-02
  1.6338531e-02
  6.3240004e-01
  1.3880712e-01
  2.0924475e-02
 -2.2532330e-03
  8.4655527e-03
  4.2166552e-01
 -1.6747817e-02
  4.9958774e-04
 -5.2381326e-03
 -1.4561316e-02
  6.8431824e-01
  1.8369583e-03
 -6.7801015e-03
 -1.2005789e+00
  3.4015775e-02
  6.8011694e-03
  4.5549569e+00
 -4.3003079e-03
  9.4234338e-03
 -4.2635828e-02
  1.6052253e-04
  1.6219951e-03
  3.5037179e-03
 -2.1715760e-03
  3.6758620e-02
 -2.9792064e-03
  4.5390744e-03
 -2.8342696e-02
  1.2961226e+00
 -5.4604304e-01
  2.8987101e-03
 -1.2525291e-02
  2.8674128e-02
 -1.0327404e-02
 -5.8666030e-03
  1.0779942e-04
 -1.4078675e-02
  4.6548259e-02
  2.1853063e-02
 -6.2872171e-02
 -5.4125778e-02
 -8.7395180e-03
  7.3350645e-03
  4.3769169e-04
 -2.5956528e-04
 -3.9547947e-03
 -5.8528190e-03
  6.3314033e-03
  2.8720003e-02
 -3.8247056e-02
 -7.3854774e-01
 -4.5470390e+00
 -6.1457464e-04
  3.2330219e-02
 -3.8626313e-01
 -2.1701457e-01
  1.9611024e+00
 -1.1695660e+00
 -6.2141899e-02
  5.3024802e-02
  7.4834533e-02
 -2.5723314e-01
 -3.1874653e-02
 -7.1689659e-01
  5.9989405e-01
 -4.9034185e-03
 -1.7383188e-02
 -1.8627975e+00
  1.5934703e+00
  7.1336246e-01
 -1.3380167e-02
  3.8749222e-02
 -3.0354240e-03
  2.1984446e+00
 -1.3730917e-03
  3.0697273e-02
  3.9349359e-01
  1.4039782e+00
  8.2502311e-01
 -5.4965663e-01
  2.3064418e+00
 -1.0294237e+00
 -1.8680371e+00
  1.1172350e-01
 -3.9380360e-02
  5.5368006e-01
  7.2899096e-02
 -2.8538975e-01
 -3.8667511e-02
  8.5523903e-01
 -5.1664966e-01
 -2.5873680e+00
  1.5143767e-02
  3.2426986e-01
  4.1716453e-02
  1.2813827e-03
  5.5241544e-02
  2.7558398e-01
 -6.5352249e-01
 -1.1055388e-02
  6.7455637e-01
  1.6176365e-03
 -3.8422024e-01
 -3.4293674e-03
  1.7414207e+00
  3.0348675e+00
  1.5806542e-01
  3.6418223e+00
 -1.4449404e+00
  1.4340440e+00
  1.9889103e-01
  4.6110947e-02
 -2.2749689e+00
  1.6569728e-01
  6.3465774e-01
  1.3585430e-01
 -4.3956372e-01
  1.6752089e+00
  2.1054857e+00
  2.8455253e-03
  8.2485393e-02
 -1.5425493e+00
  3.4778380e-01
  1.6831691e+00
 -9.4160170e-04
 -7.0617414e-01
  6.0337859e-01
 -1.6475669e+00
  4.6250401e-03
  9.1245246e-01
 -3.0535769e-02
  1.4969261e+00
  2.5070522e+00
 -1.8750276e-01
 -9.0337330e-01
 -3.3899096e-01
 -4.7981444e-01
 -3.5648108e-01
 -8.4342128e-01
  7.3304236e-01
 -1.4637865e-01
 -3.9581701e-01
 -1.5271288e-01
 -9.3142116e-01
 -1.7264757e-02
 -7.5659633e-02
  2.0192629e-02
  1.1506438e-01
  1.4066658e+00
 -2.1152340e-01
 -8.4948504e-01
 -1.3400313e+00
 -2.2415577e-03
  4.7982536e-02
 -6.1823338e-01
  8.5482723e-04
  7.9890293e-01
 -4.7919406e-03
  3.2058170e+00
  1.1751609e+00
  3.1817999e-01
  1.6974500e+00
  1.0973798e-02
  1.5414462e+00
  1.1357726e+00
 -1.1137478e-01
 -1.0947982e-02
 -2.0515297e-01
 -7.9885414e-03
 -2.5907731e+00
 -4.4191079e-03
 -1.1085047e-03
 -6.6734266e-01
  9.1178638e-01
 -3.5915317e-03
  3.1378200e+00
  2.4192823e-02
 -2.2555443e-03
  1.1587337e-02
 -1.1567844e-01
  4.2564335e+00
  3.6263211e+00
 -7.8811496e-03
 -9.6267071e-03
 -2.8636605e-02
 -1.0129105e+00
 -2.2816384e-02
 -2.6188523e-03
 -9.1127867e-01
  3.2506508e-03
  3.1593359e+00
 -2.2507094e-02
 -6.1556965e-01
 -1.8905482e+00
 -4.9508247e+00
 -2.3920183e-01
  1.2698443e-02
 -5.8666354e-01
 -7.7451696e-05
 -1.4654213e+00
  2.6908269e-02
  2.0030632e-03
 -1.7434632e+00
  5.5798725e-03
 -3.7177721e-01
 -2.4389662e-03
 -2.4438334e-01
  3.1735078e-02
  5.8075752e+00
 -1.3158185e-04
  5.4950160e-03
 -4.4164755e-03
 -2.0696812e+00
 -2.1354768e+00
  1.7036572e+00
 -2.0281616e-01
 -1.6213408e+00
 -2.1816986e+00
  8.5095197e-01
  2.1991721e-01
  1.9288284e+00
  3.3059914e+00
 -1.2696515e-02
 -1.2395664e-01
 -1.1706905e+00
 -1.0252617e-01
  9.2795414e-01
  1.5062186e+00
  1.8313773e+00
  4.0459952e-01
  2.0398784e+00
  9.9718887e-01
  1.9573423e+00
  1.3365247e+00
  2.7915831e+00
 -4.3140692e-01
  3.5840826e+00
  1.3278892e+00
 -3.1334212e-01
  1.5679495e+00
 -1.7218627e+00
 -1.2231885e-01
  5.4070997e+00
 -4.9415973e-01
 -4.6150365e-01
  3.1848242e+00
 -1.7664742e+00
  1.6007698e+00
  4.8114944e+00
 -6.8737097e-02
  7.5089413e-01
 -1.4570248e+00
 -3.0403719e+00
 -1.3086087e+00
 -6.8961102e-01
  3.8964996e-01
  2.8198025e+00
 -4.0499052e-01
 -6.1334391e+00
 -3.9235065e+00
  1.2397712e+00
  5.3493662e+00
 -9.0068203e-01
  1.0979496e+00
  5.5856390e+00
 -1.9314686e+00
 -3.2445393e+00
 -9.8968954e+00
 -6.5374293e+00
 -1.9060561e-01
  6.9006592e-02
  5.6690149e+00
  3.6206720e+00
  3.2398897e-01
  3.9703246e-02
 -4.2821234e-03
 -7.8707067e-03
 -4.2628814e-03
  2.5242625e-03
  9.1339496e-04
 -6.9305226e-02
  1.4030193e-03
  3.1500366e-03
  5.2253376e-03
  2.2819338e-02
 -1.2297833e-02
  2.1826268e-04
  5.0720526e-03
 -7.6078571e-02
 -1.5134910e+00
  4.0997174e-03
  8.6151417e-03
  1.0110545e-03
 -1.6929505e-02
 -3.3596788e-02
  7.0275250e-04
 -2.1197494e-02
  1.0030524e+00
 -5.4133558e-01
  2.0889201e+00
 -1.1272877e-02
  9.5889503e-03
 -2.0370442e-02
 -1.5108730e-02
  1.9453986e-02
  3.0200027e-03
  1.9553224e-02
  1.0246962e+00
  4.0980838e-02
 -3.4910861e-02
 -2.8227769e-02
  4.0317863e-02
 -2.2470150e-03
  5.3243525e-02
 -1.1598116e-03
  7.9426225e-03
  1.9403375e+00
  2.2520220e-03
  8.2465755e-03
 -6.1992626e-03
  5.5436976e-06
  1.8355500e-02
 -2.1179337e-03
  8.8443682e-03
 -1.3179740e-02
  2.2945063e-02
 -2.5372370e-03
 -7.6212111e-04
  3.9010413e-04
 -8.0779688e-03
  4.7293208e-03
 -4.5214426e-03
 -2.5170380e-03
 -1.6502267e-02
  2.3962772e-03
  5.1936246e-03
  1.0126861e-01
 -2.5155582e-02
 -1.0490515e-03
 -1.5622387e+00
 -2.1679619e-02
 -2.0048356e-02
  2.2932505e-02
 -1.4718169e-02
  5.1557757e-03
  8.8565741e-03
 -8.5846409e-03
 -9.5119514e-03
 -4.6656141e-03
 -1.3314826e-02
 -4.0003154e-03
  4.1641584e-03
  5.0539859e-03
  4.5998963e-03
  4.3229079e-03
  3.4718825e-03
 -1.2218136e-02
  1.2897323e-02
 -3.0821224e-03
  1.0999490e-02
  3.7925621e-03
  8.4025087e-04
  1.7298188e-02
  2.6705121e-03
  1.3283999e-02
  2.4643710e-03
  2.1061288e-02
  1.3999854e-02
 -3.9647557e-02
  3.7974931e-02
 -8.6485352e-03
  6.8037985e-03
 -3.5161979e-02
 -6.2864488e-03
 -1.1227620e+00
  2.0754085e+00
  3.8261551e-01
  9.2624016e-03
  4.2571244e-03
 -8.8583642e-01
  3.5842937e-01
  3.3918887e-01
  3.4261215e-03
 -1.4629190e-01
  1.3583659e+00
 -1.1813568e-02
 -5.1267218e-02
 -2.3980203e+00
  1.1576588e+00
 -1.9149715e-01
  8.3352551e-03
 -2.1859527e+00
 -1.6824195e-02
 -1.2495035e+00
 -1.9781390e-02
 -1.0529030e-01
 -1.9044872e-01
  1.9626953e-01
 -1.4359219e-02
 -8.6749655e-01
  3.5817502e-03
 -1.3705460e+00
  1.6032657e-02
 -3.6304008e-02
 -3.8361731e-01
  2.2843671e+00
 -2.3625956e+00
  1.3710009e-01
  3.8324276e-03
  4.5852214e-01
 -3.2909252e-02
 -4.5156494e-02
  2.0498014e-03
  1.9898492e-01
 -5.0471779e-02
  8.3162361e-01
 -3.8493117e-03
 -5.6203883e-03
 -1.0054728e+00
 -7.2775804e-03
 -2.7756947e-03
  1.3050705e-02
  3.0862207e-03
  1.3904948e-02
  2.0140140e+00
 -1.4119194e-03
 -6.8314620e-03
 -7.9475325e-03
 -1.5539147e+00
  8.7754793e-02
 -3.8288727e-02
 -8.1402314e-01
  6.9377798e-01
  6.1778229e-01
  3.3085173e-01
 -8.3080418e-02
 -2.3676751e+00
 -1.3348835e-02
  4.2775244e-01
 -7.5800605e-02
 -3.0623641e+00
 -9.5377285e-03
  5.8617038e-01
 -6.5819868e-03
 -1.0107988e+00
  2.7507848e-01
 -1.0247401e-02
  6.6613113e-03
  2.2946075e-01
 -2.4332909e-01
 -3.8084451e-03
  7.5537884e-03
  1.7504448e+00
  3.0090618e-01
 -7.3464625e-02
 -1.3985140e-02
  2.2019085e-02
  1.4534692e-02
 -2.3278069e-02
 -2.0611635e-01
  6.4241832e-01
  5.6598999e-02
 -1.1037594e+00
 -4.1800380e+00
  4.2428155e-03
  5.0855768e-01
  3.6571372e-01
 -7.5848818e-01
 -3.0679393e-01
  5.9873527e-01
 -2.4687393e+00
  3.0902335e-03
 -5.9085459e-01
  2.6285335e-02
  1.7839808e-02
 -1.6347082e-02
  2.8618881e-03
 -5.0287745e-03
  7.8283989e-01
  1.1472815e-02
 -2.3924741e-04
  3.5382342e-03
  6.2853229e-01
 -6.7831933e-01
 -1.1687028e-01
 -2.3042479e+00
  2.7871783e+00
 -2.7824745e+00
  1.0021667e+00
 -2.8261878e-02
 -8.6211342e-01
  8.4322162e-02
  1.0653034e+00
 -7.4559011e-02
 -5.6860489e-01
 -2.6579916e-01
  5.2146399e-03
  1.9585325e-01
 -3.0384696e-01
  1.5231566e-01
  2.2897087e-02
  6.7736429e-01
  4.2836568e-01
  3.3939147e+00
  1.3743463e-01
  1.8119457e+00
 -1.1047037e-02
  9.6570265e-01
 -2.4109132e+00
  1.7122310e-01
  2.2157578e-02
 -8.2815665e-01
  1.3576000e+00
 -2.1341681e-01
  8.7533045e-01
  4.0652290e-01
  1.3525139e-01
  2.7664351e-01
 -5.0135627e+00
  1.8134919e-01
  2.4674158e+00
 -2.0221327e-02
 -1.0058460e-01
 -4.3425226e-01
 -1.2737436e-03
 -5.7571817e-02
 -7.3569953e-02
 -2.5602744e-03
 -1.4977314e-02
 -1.5187323e-02
 -7.8394106e-03
 -4.1132248e-03
 -7.3243648e-01
 -1.1691539e-02
  9.3443161e-03
  6.3040755e-03
  7.0087576e-01
  2.5980890e+00
 -3.2177029e+00
  5.7159007e-01
  6.2214451e+00
  1.2260196e-01
 -1.9864823e+00
 -2.3951573e+00
 -9.3240917e-02
 -4.1088929e+00
 -1.1106347e+00
  1.8184040e+00
 -3.6904302e+00
 -1.0140435e-01
  3.5769075e-01
  1.8456520e-01
  3.0399351e+00
 -2.9396978e-01
  4.8883200e+00
  2.6794038e+00
  1.6002547e+00
 -4.0595074e+00
 -2.6038008e+00
 -2.3565445e+00
 -1.3651903e+00
  1.8727020e+00
 -2.8867610e+00
  7.8085858e-01
  1.6022284e+00
 -6.0897346e+00
 -3.0035499e-01
 -4.4223225e-01
  2.9669089e-02
 -4.6343374e+00
  2.3778176e+00
  9.0757561e-01
 -1.1251082e+00
  2.4903729e+00
  9.2784464e-01
 -1.3321952e+00
  5.2427950e+00
  1.7133723e+00
  5.8760185e-02
 -4.7325459e+00
 -1.5498483e+00
 -2.5298895e-02
 -1.1127652e+00
 -2.3526223e+00
  2.1501770e+00
  1.6603285e-01
 -5.0518231e+00
  2.1964200e+00
 -1.8571136e+00
 -1.6550621e+00
 -1.3607303e+00
 -4.2981955e-01
 -5.8301803e-02
 -6.7028326e-01
 -6.1888111e-01
  4.8961493e-01
 -4.9615887e-01
 -6.7510831e-01
  3.4451473e-01
  1.2508069e-01
  5.1301774e-03
  1.4158656e-02
 -2.1767907e-01
 -5.4417628e-01
  1.3524578e+00
 -8.2885874e-03
 -1.9889092e-01
 -9.6949506e-01
  1.1575663e+00
  2.3951392e+00
  8.4579643e-03
  6.8053204e-01
  8.8691395e-03
  3.9904163e+00
  2.7923270e-03
  6.2840796e-01
  5.4483509e-01
 -1.0204089e+00
 -2.3387428e-03
 -4.8666350e-03
 -3.7355511e+00
 -3.9917472e-01
 -8.8536423e-01
  2.3583327e-01
 -3.7266737e-01
  5.5416518e-01
  1.3426889e+00
  1.6250710e+00
  1.0031209e-02
  9.1444083e-02
 -2.6006404e-01
 -4.4677308e-01
 -4.6195583e+00
 -3.0059216e+00
 -3.5690209e-01
  8.3067706e-03
 -1.6223612e-03
  4.2281440e-01
 -9.7454423e-03
 -3.8108095e-03
 -3.7525493e-01
 -1.6939903e-02
  1.3319966e-02
  1.5191127e-01
 -7.4330860e-01
  1.8063194e+00
  7.9607540e-01
  6.8183053e-01
 -8.3883071e-01
  2.7463667e+00
 -9.9544770e-01
 -1.6287512e+00
  4.4569083e-02
  1.3016714e-01
 -1.0005565e+00
  2.4153836e+00
 -3.8224746e-02
  1.3337196e+00
 -2.4444716e+00
  4.0737376e-01
  1.2460658e-01
  6.0408604e-01
 -1.6600665e+00
 -1.1847399e+00
  4.4488724e-02
 -5.3695636e+00
  5.0915164e-01
  2.5078075e+00
 -3.4571567e-03
 -3.4139153e-02
  1.1481686e-03
  7.4193668e-01
 -4.5482591e-02
  7.4096036e-01
 -7.7190089e-01
 -2.4946320e-03
  1.1863683e+00
 -1.6126126e+00
 -2.3142840e-03
 -3.1456015e-01
 -5.7897139e-03
  1.2072726e-01
  2.1182492e-02
  5.0907719e-01
  7.4945980e-01
  4.6524208e-02
  1.1893975e-03
  5.6817089e-03
 -1.5432622e-01
 -2.3141336e-02
 -1.2784526e-02
 -1.9899854e-01
  3.5291739e-02
  6.4625144e-03
 -6.1624069e+00
 -1.9511189e-02
 -1.5339179e-02
 -2.5348494e-02
  9.1968083e-01
  4.0960848e-02
  7.9897785e-01
 -3.7015212e+00
 -7.3291636e-01
 -1.0841727e+00
  2.8299825e+00
  4.2966528e+00
 -3.5031885e-02
  1.2896807e+00
  1.6997938e+00
 -4.1401863e-01
  5.8765185e-01
 -1.4846853e+00
 -1.2663059e-01
 -3.6149702e+00
 -4.8291740e+00
 -9.8213382e-02
  1.3077661e+00
 -4.0848894e+00
 -1.5436183e+00
  3.0360031e-01
  9.2977427e-02
  7.1224275e+00
 -2.4444828e+00
  1.1408409e-02
  1.3296336e+00
  9.3396127e-01
 -5.8916742e-01
  8.4697080e-01
  2.1917255e+00
  1.7276257e+00
 -8.8099472e-02
  5.5514612e+00
  8.0676121e-01
 -2.6353369e+00
  2.4156079e+00
 -2.2025855e+00
 -1.2304288e-01
  6.6895223e+00
 -1.1268096e+00
  1.4878299e+00
 -5.5223775e+00
  7.5808654e+00
 -1.7179625e-01
  2.5973678e-01
  8.4165916e-02
 -8.7230979e-04
 -8.1858812e-03
 -6.8108514e-02
  4.7123370e+00
 -3.3766964e-01
 -1.5770961e-01
 -4.6619668e-04
  3.4997730e+00
 -6.3919578e+00
 -3.0187497e+00
  2.9626400e+00
  1.3635274e+00
  1.6932613e+00
  4.4800329e+00
 -2.6730278e+00
  4.0920653e+00
 -2.8322848e-02
  1.3229001e-01
 -7.3323518e-01
  6.1784321e-01
  1.9480081e+00
 -1.0728131e-01
 -7.0470930e-03
  1.3464543e+00
 -1.0803246e-01
  7.3688906e-03
  4.2410504e-02
 -3.0160074e-03
 -1.1188341e+00
  4.2731494e-01
 -6.2509127e+00
  5.8944696e-01
  1.8054759e-03
  2.1631679e-02
 -5.7463509e-01
 -1.1488739e+00
  1.0928971e+00
  9.1365397e-02
  4.4442835e+00
 -5.7191521e-01
  6.7698991e-01
  1.9112846e-02
  8.0324417e-01
  5.3356833e+00
  9.3548703e-01
  7.8197420e-02
 -1.5244378e+00
 -1.6649369e+00
 -1.9533689e+00
  1.3680232e-02
  1.4095309e+00
 -5.4653406e-01
 -6.6783302e-03
  1.7787444e-03
 -9.3493089e-03
 -1.3609387e-02
 -1.2269498e-02
 -4.2858543e+00
  2.2261741e-02
  2.4646768e-02
  9.8926984e-03
  6.5810275e-03
 -5.6423731e-03
 -2.2586442e-03
 -1.5856186e-02
 -3.8258615e-05
  2.9732361e-02
 -4.6127201e-03
 -2.4506836e-03
  6.8327188e-03
  1.0916622e-02
 -2.7718600e-03
 -2.2820928e-03
  2.0313694e-03
  4.9292622e-03
  1.9603590e-03
  1.0312928e-02
 -3.0809845e-04
 -2.4898115e-03
 -6.1734432e-01
  6.6767610e-03
 -9.8829772e-03
  3.5733569e-02
  4.0496495e-03
 -5.2007157e-01
  6.4321412e-03
 -1.3737584e-02
 -2.4905032e-03
  3.0304133e-03
  3.4756496e-04
 -2.1303900e-02
 -3.6047772e-04
 -1.4842302e-03
  1.9968364e+00
 -8.1863344e-01
  7.0588258e-03
  3.5465369e-03
 -2.9654084e-03
  4.2706663e-03
 -4.0331725e-03
 -1.0991587e-02
  2.4313016e-03
  1.0886188e-01
 -4.3321922e-03
  4.8781750e-03
 -5.7321666e-03
 -1.6251180e-02
  3.8413126e+00
 -3.0112609e-02
  2.1237731e-03
 -2.4327258e-02
  2.5310828e-03
 -5.7629393e-03
 -1.7537394e+00
  8.2622347e-03
 -3.3642527e-01
  4.0293074e-01
  3.3011347e-01
 -7.7637476e-01
  3.6323118e-01
  7.3216617e-01
 -3.5945007e-01
  1.8292231e-02
 -3.3205244e-01
  1.7944375e-01
 -5.0738033e-02
  2.5864313e+00
  5.1959598e-01
  3.6127153e-01
 -5.4307377e-01
  6.8140902e-02
  5.6284588e-02
  3.0156957e-02
  1.0388581e+00
  1.8148571e-02
  1.7244746e-01
 -4.1507202e-01
 -6.9403546e-03
  3.3308569e-02
  2.2450246e-02
  1.4682987e+00
  1.1037805e+00
  5.1468134e+00
  1.7850296e-01
 -1.7469949e+00
 -3.4498131e+00
 -2.4683461e-01
  2.5643966e-01
 -9.3783110e-01
 -8.8832194e-01
  2.3428418e-01
  4.3083029e-03
 -2.6980039e-02
 -1.0306959e-01
 -3.8049087e-01
 -5.6152575e-02
 -4.4801310e-01
  1.3315872e-02
 -1.1024256e-03
  9.0224482e-03
  7.2011543e-03
  4.4406164e-03
 -8.3911363e-03
  1.4262964e-01
  2.3471115e-02
  1.4647535e+00
  6.2817302e+00
 -9.2126029e-03
 -2.2778496e-02
  8.4840631e-01
 -1.6053439e+00
 -2.5251236e+00
 -1.6023221e+00
  1.0441438e+00
 -4.0871570e-01
  3.8204007e+00
 -8.7708986e-01
 -6.8911284e-02
 -2.4683800e-02
  1.1434983e-02
 -2.4407017e-03
  1.7992087e-02
  1.0377060e-01
 -1.0661057e-02
 -1.2502082e-03
  2.8606636e-02
 -4.9242291e-01
  7.7459537e-03
 -2.5688392e-01
  9.9313632e-03
  1.1703193e-03
  9.3714160e-01
  2.7336484e-01
  5.1085008e-03
 -4.2077142e-04
  1.5252649e-02
 -3.5264129e-03
  1.6506713e-02
 -3.9105364e-03
  2.0561588e-03
 -3.2200018e-01
 -3.4080684e+00
  1.4541498e-01
  6.9690607e-03
 -2.0350403e-01
  3.1744540e-02
  5.1739924e-02
  4.8832959e-03
  1.4775645e-03
 -2.2205537e-02
  6.4701262e+00
 -2.8263794e-02
  3.3747038e-01
  2.2965996e-04
  2.4874192e-03
 -4.0979066e-04
  6.2923128e-04
  7.8239443e-04
  2.1395689e-02
  6.4067170e-02
  6.0053142e-03
 -1.9184543e-02
  4.8295358e-01
  1.8707620e-02
  1.7835446e-02
  1.2377784e-02
 -1.6797770e-02
  1.4706057e-02
  6.2324975e-02
  1.5466051e-02
 -2.3624915e-01
 -9.4912788e-03
  5.3974637e-04
  9.3862711e-04
 -1.5874973e-02
 -1.3043816e-03
 -3.2668777e-02
 -4.9053407e-03
  4.6614833e-02
 -9.6356981e-03
 -4.3304414e-03
 -1.2013401e-02
 -3.5971692e-03
 -4.1113431e-03
 -7.1301432e-03
 -3.1203894e-02
 -7.8284368e-03
 -4.7703721e-03
 -1.5694508e-03
 -2.9233413e-02
  2.8411828e-02
  7.7000465e-03
 -3.7705593e-04
 -2.0700183e-03
  1.9257038e-03
 -1.6591108e+00
 -9.6739875e-04
 -2.6653386e-03
  2.8151155e-02
 -6.5147756e-03
 -5.8557866e-03
 -5.8635222e-03
 -1.4619796e-02
  4.2785596e-02
 -8.5030067e-01
 -3.7172120e-03
 -1.1574865e-02
  5.3212615e-03
  8.2165551e-01
 -5.2020834e-03
 -1.3706060e-03
 -5.7398300e-03
 -1.8211184e-02
  1.7045246e-03
  6.1513293e-03
 -6.3209631e-03
 -5.9983199e-03
  1.6919022e+00
  7.7119827e-02
  5.6641215e-01
  3.2250053e-01
  2.1063538e+00
  3.2659414e-01
 -1.4687440e+00
 -2.1541588e+00
  1.6393427e+00
  3.0943044e-02
 -3.9023455e-02
  1.2342784e-01
  1.3303806e-02
  8.2516074e-01
  8.5641788e-03
 -3.4532766e-03
 -6.6002756e-03
  4.0519786e-01
  2.9057749e-03
 -1.4305598e+00
 -1.1769600e-02
 -1.0213629e+00
 -1.2064207e-01
 -1.6791707e-01
 -1.6030844e-01
  8.4136255e-02
 -4.9237877e-02
 -1.0043769e+00
 -2.5907260e-01
 -8.7813014e-04
 -1.3993380e+00
 -4.4409090e-01
 -3.1412607e-01
 -1.6530868e-01
 -6.9037243e-03
 -4.9932986e-02
  1.6755989e-02
  1.1124413e+00
  5.6207639e-01
 -7.5714717e+00
  1.3563730e-02
 -3.7383741e-01
 -6.7972438e-04
  5.4796147e-01
 -8.1217647e-01
  3.3902073e-01
 -5.2789655e-03
  1.3376785e-02
 -9.7532244e-03
  2.2741431e-02
 -9.1785926e-01
 -3.1704638e-02
 -5.7928520e-03
 -3.9151366e+00
  1.2625375e+00
 -5.2375019e-01
 -2.4554117e-01
  6.6631514e-01
  1.0573407e+00
 -1.7221151e-02
 -2.7841160e-01
 -1.2344638e-01
 -1.1346199e-01
  3.2106429e-01
 -3.1364217e-01
  1.8917386e-01
 -2.2983134e-02
 -1.1599499e+00
 -7.0728809e-01
 -1.5205315e-03
 -1.2607767e-01
 -5.5056546e-02
 -3.1031302e-01
  1.2983658e-02
 -3.5036091e-02
 -3.5420412e-01
  3.7441964e+00
  2.8804272e-01
  7.6736319e-01
  6.6638750e-01
  4.9238924e-02
  2.7639320e+00
  2.0381132e-02
  9.1010594e-01
  1.7328564e+00
 -1.3097194e+00
 -1.9996779e+00
 -1.7526746e-01
 -1.3732156e-02
 -1.0760539e+00
  4.0911141e-01
 -7.0656069e-02
  8.8237888e-01
 -6.4685655e-01
  6.7194331e-01
 -1.5485260e-02
  1.6719568e-01
 -5.8298516e-01
  1.6537938e-01
  4.8998706e-03
 -3.8332951e-01
 -1.0327728e+00
  1.6295310e+00
 -3.6334870e-03
 -2.8550858e+00
  3.7661955e-02
  1.4337529e-01
 -5.5624723e-01
 -4.1676231e-02
  5.7628021e-02
  3.7728855e-01
  2.2192406e-02
 -5.0288713e-01
 -5.9137630e+00
  6.2256842e+00
  4.5694141e+00
  2.8442512e-03
 -7.6216673e-03
 -4.3065338e-03
 -6.7981821e-04
 -4.5045717e-03
 -2.4375236e-03
  3.0804526e-02
  8.5265124e-03
 -1.5946473e-03
  8.9576067e-03
  6.6450927e-03
 -3.2288797e-02
 -8.7640069e-02
 -5.3577914e+00
  3.2349504e-03
 -2.1934710e+00
 -1.2819496e-02
 -5.8905035e-03
 -6.8994891e-03
  2.7512906e-03
 -3.5248883e-03
  3.4706125e-03
  1.7269924e-03
  4.6414332e-03
  1.2932835e+00
 -3.2049555e-01
  8.4377909e-03
  8.1362780e-03
  2.2838136e-02
 -1.8145718e-02
 -1.4246807e-03
 -1.2438153e+00
 -6.3601751e-03
 -2.1917646e+00
 -5.5719241e-03
  2.6610401e-03
 -9.4659235e-03
 -4.1203637e-02
  1.8036216e-02
 -3.1432016e-03
 -9.4203465e-04
  2.2297978e-02
  4.6012573e+00
  1.3574287e-02
  2.2511652e-02
 -8.7362556e-03
  7.5465522e-04
  1.4244090e-02
 -2.1915840e-02
 -1.3645947e-02
  8.5658897e-03
  1.7053427e-02
  1.4111297e-02
 -2.1392880e-03
 -1.1673070e-02
  5.1644887e-03
 -6.8036709e-03
  4.1912883e-04
  2.7569162e-02
 -6.5364344e-03
  3.6814641e-03
 -2.9554693e-03
  1.5600031e-04
 -1.3470192e-02
 -2.3214421e-03
 -4.2144321e-03
  2.4804261e-03
  2.4011550e-03
 -2.9165142e-03
 -1.5092952e-03
 -2.9686632e-02
 -4.2784815e-03
 -5.4105460e-03
 -1.8914423e-03
  2.5077835e-02
 -1.2576247e-03
 -1.5117671e-02
 -3.5289722e-03
  1.2422633e+00
  1.0099485e-02
  3.6099583e-03
  1.2897383e-02
 -8.8646570e-03
 -8.8295192e-01
  5.6149242e-03
  9.3185036e-03
  1.0670993e-02
  3.1999445e-01
  3.0646229e-03
 -1.2549439e-03
  1.3101844e-02
  1.5360598e-02
 -5.4910984e-03
  4.6009541e-02
 -7.7712410e-03
  1.5711877e-03
 -2.6635079e-02
 -1.4198932e-02
  5.7727089e-03
 -2.8823784e-03
  3.2513100e-01
 -2.2841759e-01
 -1.2039404e-01
 -1.4152915e+00
  4.2265362e-01
 -3.3350927e-01
  3.1121378e+00
 -3.4148280e-02
 -1.5433794e+00
  1.5706761e+00
 -1.4746006e-02
  4.1130632e-01
  5.9771076e-02
 -5.3977132e+00
  1.9558911e-01
  5.0523151e-03
 -6.4414871e-01
  9.9742573e-01
  1.3113086e-01
  5.2357167e-01
  9.1609758e-01
  2.4360986e-02
  1.8532119e+00
  1.0223321e-01
  3.9817546e-02
 -5.1234069e+00
 -1.5295763e-01
  1.3860545e-02
 -3.6568475e-01
  1.5148076e+00
 -9.9296647e-01
  1.1303908e+00
 -6.0001385e-01
  2.7027026e-01
  6.3983107e-01
  1.1114848e+00
 -1.6061468e-02
 -1.6288716e+00
  1.5007094e+00
 -5.9671426e-01
  3.6944357e-01
  4.0921706e-01
  7.0982493e-02
  7.3905951e-01
  1.7225917e-02
 -1.5349863e-01
  4.8230374e-03
 -5.2856261e-01
  7.1837741e-01
  1.3241348e-02
 -1.0011894e-01
  1.7186262e-02
  8.5749310e-01
 -3.8028312e-01
  2.8674448e-01
 -1.5176743e-01
  7.9742365e-02
 -1.1421270e-01
  3.1782249e-01
  9.6924961e-01
  1.9423385e+00
  1.0247505e-01
  6.7276031e-02
  3.6011951e+00
 -2.4049208e+00
  1.0145119e+00
  9.2353094e-01
  5.9645391e-01
  6.2380147e-01
  2.5793438e+00
 -1.5146601e+00
 -7.7859885e-01
  4.4616270e-01
 -2.8838174e+00
 -5.3370655e-02
 -4.2905493e+00
 -1.7696645e+00
  6.5086496e-01
 -7.0617992e-01
 -1.3335830e+00
  7.9055357e-01
 -6.3036579e-01
 -1.2939209e+00
  5.8194792e-01
 -1.1585834e+00
 -1.5354148e+00
  2.6209274e-01
 -5.8519334e-01
 -1.8209194e+00
 -9.1153041e-02
 -1.4040102e+00
  5.1096201e+00
 -7.3023272e-01
 -1.3693140e+00
 -7.7331275e-02
 -1.8727733e+00
 -2.6911411e-01
 -5.4010124e+00
  9.5085639e-01
  2.8350156e-02
  6.9991547e-01
 -7.0153093e-01
  1.1737925e-02
  8.7887626e-03
 -5.2153605e-01
 -1.4099857e-02
  3.6357641e-02
 -1.1036064e-01
 -3.3921750e+00
 -2.8040819e+00
  1.4085780e+00
 -1.1722857e+00
 -2.2523873e+00
 -1.7086060e+00
 -8.6064631e-01
  2.8286932e+00
  8.2846159e-01
  6.8639152e-02
  9.6006823e-01
  3.3079739e+00
 -1.4931964e+00
  1.7973500e+00
 -1.6993042e+00
  2.7032456e+00
 -1.6146932e+00
  3.7919927e-01
 -4.7265501e+00
 -2.8224785e+00
  2.8283651e+00
  3.3981502e+00
  2.6598415e+00
  2.3028221e+00
 -3.8750000e+00
  3.0660221e-01
  7.3399258e-01
 -1.6718000e+00
 -1.6775106e+00
  1.4705198e+00
  1.6640583e-01
 -1.1454017e+00
  1.3566279e+00
 -7.1655173e+00
 -1.9670178e-01
  4.0190217e-01
  9.5632464e-01
 -5.6553779e+00
  8.7035114e-01
 -1.1821027e+00
 -1.9892637e-02
 -2.3671298e+00
  7.3552809e+00
 -1.5802896e+00
  2.7075839e+00
 -1.0351885e-02
 -1.8591460e+00
  1.1427639e+00
  1.2092453e+00
 -9.6689642e-04
  3.2760496e+00
 -2.6053967e+00
 -3.8601670e+00
  7.5752121e-01
  2.7802761e+00
  5.5389600e+00
 -1.1318280e+00
 -1.0701556e+00
 -1.6932717e-01
  1.2874535e+00
 -2.2416701e+00
  1.2825009e+00
 -6.3296652e+00
  2.3486669e-01
 -1.4927210e+00
  1.1602980e-01
 -2.9435938e-03
  9.4447862e-03
  9.3504536e-01
 -2.2428434e-03
  5.8344364e-01
 -4.5044433e-02
  6.1277669e-02
  3.2661450e-01
  3.4868106e-02
  1.7727495e+00
  8.7719932e-03
  3.1365759e+00
  1.5788900e-02
  2.1518360e-01
  4.1093564e-01
  2.9092752e-03
 -1.2253771e-01
 -2.8580534e+00
 -2.4390737e-02
  1.7440444e+00
 -3.3039829e-01
 -3.6038394e+00
  1.0006498e+00
  5.1735628e-01
  1.7771898e-01
  1.5173308e+00
  1.6641653e-01
  1.4953727e-01
 -3.4212375e-01
  9.4849312e-01
 -4.5085844e-01
  4.2373300e+00
 -8.1163794e-02
  5.0059054e-04
 -4.9174954e-03
  5.3324915e-02
 -1.6121088e-02
  2.7156943e-02
  3.0094011e+00
  1.1068737e-02
  2.6593568e-02
  4.3263700e-02
  8.0505639e-02
 -2.3585401e-01
 -2.7633006e-02
 -9.5118856e-01
 -6.7849553e-01
 -1.6633054e+00
 -1.5763019e+00
  9.2000806e-01
 -4.9721161e-03
 -4.8454550e-01
  2.0447723e-03
  2.3185764e-04
  2.5394086e-02
  7.9883039e-03
  3.5492675e+00
  7.0340443e-01
 -7.6511339e-04
  4.5248711e-01
  1.4722811e+00
 -1.7180590e-02
  6.2387309e+00
  1.1141383e-01
  9.7697219e-03
  8.3189768e-01
 -1.3543890e-01
 -2.0125249e-02
 -4.9966201e-03
  1.4427106e-04
 -3.2947189e-03
 -2.0250319e-01
  1.5196158e-01
  6.1670172e-01
 -2.2355952e+00
  2.2420269e-03
 -1.1988221e-02
  9.9718571e-01
 -3.5210019e-01
 -5.7867008e-01
 -6.6212593e-03
 -3.1667907e-02
 -1.2942030e-03
 -2.6202619e+00
 -2.8910027e-03
 -8.6315470e-03
 -5.8710976e-03
 -8.8161166e-04
  7.8668371e-03
 -1.5065867e-02
 -2.8325496e-03
  2.0864790e-03
 -1.0669323e+00
  3.7092464e-03
 -4.0575406e-03
 -5.3825043e-03
 -3.1493437e+00
 -3.9687634e+00
  4.2688704e+00
 -3.3814371e+00
 -6.4278162e-01
  4.7498178e-01
  2.6791015e+00
  6.3557816e+00
 -7.9991543e-01
 -2.2098908e+00
  1.2070429e-02
 -2.3273518e+00
  3.6134630e-01
  2.9801020e-01
  1.3004183e+00
 -1.2828759e+00
  6.0985714e-01
 -1.1287745e+00
 -2.7969303e+00
  6.7937601e-01
 -1.1950687e-03
  3.9934134e-03
  2.6699182e-02
  4.7814026e+00
 -2.5618657e-02
  1.5507821e+00
 -4.3135289e-02
  8.0955494e-03
  1.6641023e+00
  4.0844567e-02
  3.5613775e+00
 -1.1183387e+00
 -3.6472428e+00
  8.4001551e+00
 -6.6434885e-03
 -3.9958789e+00
 -1.2744820e+00
  3.3012674e+00
 -1.7475486e-01
 -2.2587195e-01
 -1.3377564e+00
 -3.1274220e-01
 -1.9318613e+00
  2.2736514e-01
 -2.7063761e+00
  1.3574817e-02
  2.4077781e-03
  3.8986169e-02
 -2.5608225e+00
 -5.0232839e-03
  2.0626168e+00
 -1.1487045e-02
 -1.4497610e-02
  1.1517569e-01
 -3.6093760e+00
 -1.4915129e+00
  9.9277622e-01
 -4.1893616e+00
  2.9932256e+00
 -2.5816629e+00
 -3.1464801e+00
  2.5194170e+00
  4.9259729e+00
 -8.3726418e-01
  4.9594736e-01
  1.0339706e-01
  2.9666600e+00
 -6.3616323e-01
 -4.8612280e+00
 -2.6005673e+00
 -1.4169498e-01
 -1.5095104e+00
  5.0206780e+00
  1.8613138e+00
  4.8456991e-01
 -1.1536541e+00
  2.8193456e-01
  2.8202460e+00
 -1.6630408e+00
 -7.7286428e-01
 -3.6837344e+00
  1.8309483e-01
 -4.0853378e-01
 -5.2755874e-02
  1.0927156e+00
  2.9383066e+00
  1.2215407e+00
  2.3162253e+00
 -4.1767278e-01
 -7.7187842e-01
  5.6265335e+00
  1.3187045e-01
  2.9559731e+00
 -1.4640896e+00
  4.3695897e-01
 -1.3988969e+00
  1.5358837e+00
 -5.0782447e+00
  1.8005984e-02
  2.5542425e-02
  2.4697450e-03
  1.0961351e+00
 -1.7124669e-01
 -3.9197040e-01
 -1.9041141e+00
 -3.1919703e-02
  2.0357382e-02
  7.1747992e-03
 -1.1249567e+01
 -9.4975924e-01
  6.6721743e-01
 -4.5340834e+00
 -1.2622152e-02
 -2.6728782e-01
  9.1073596e-01
  1.0845526e+00
  7.0517164e-01
 -1.5364768e-02
 -8.2349498e-03
  2.1673674e-03
 -1.7447878e-02
  1.0621322e-02
 -1.0827845e-02
 -1.0095614e-01
  3.8816989e-03
  6.3911247e-01
 -3.1413813e-03
 -7.4152392e-04
 -5.6701498e-03
  1.5167563e-03
  7.6934826e-03
  8.6446743e+00
  1.1733967e-02
 -1.0950422e-02
 -2.2502437e-02
  1.6894048e-01
 -1.6957384e-03
 -8.3419159e-03
 -1.9701542e-03
 -2.0507395e-02
 -6.2933189e-01
  1.0959203e+00
  1.7110215e-02
 -8.6717242e-03
  1.2872074e-02
 -3.1862443e-03
  1.0081053e-02
 -3.9891470e-03
 -5.1032417e-02
  2.3375599e-02
 -1.6167942e-02
 -1.2521405e-02
 -3.3120019e-03
 -6.8965065e-04
  4.0720150e-02
  1.2652355e-02
  1.4287895e-02
  3.6193529e-01
 -3.9812443e-03
 -3.1029856e-01
  6.5277470e-03
 -1.3766787e-02
 -1.9758400e-03
 -1.7719630e-02
  2.3902312e-03
 -1.1718660e-03
 -7.9908047e-04
 -1.5597858e-02
  4.2168897e-02
  7.7624181e-03
 -1.6515110e-02
  2.0853824e-03
 -3.3062518e-02
  9.7001325e-03
 -3.8010612e-02
 -1.4547714e-03
  1.5149777e-03
 -4.4014789e-03
  9.9053641e-04
 -4.7515328e-03
 -6.9467337e-03
 -3.2096771e-03
 -1.4546731e-02
  2.4071831e-02
 -1.1988227e-02
 -3.7636713e-03
  6.0644154e-03
 -4.1993083e-03
 -3.9104247e-03
 -1.0602688e-03
 -3.5828184e-03
 -2.0500228e-03
 -2.3048746e-03
  1.8427968e-03
 -7.4261034e-01
  1.3944454e-02
 -1.1014834e-02
 -5.0694449e-03
 -2.4012867e-02
 -8.6301100e-03
 -9.5868122e-04
 -1.2154033e-02
 -1.3331372e-02
 -7.6649469e-01
  2.0953355e-02
 -7.0952624e-03
  3.3815220e-02
 -4.6108137e-03
  1.8470181e-02
  3.2588469e-03
 -4.8716799e-03
 -1.5083222e-02
  3.3162272e-05
  7.4466974e-03
  8.1466995e-03
  8.4758708e-03
 -6.6909676e+00
 -1.0488575e+00
  2.6097570e-02
 -2.8287557e-01
 -1.2112051e-02
  7.7230889e-01
 -1.9011515e-01
 -1.0538628e+00
 -3.8905580e-02
 -2.6954314e-02
  1.0862793e-02
  4.0802781e-02
 -5.6355083e-03
 -1.7362746e-03
 -2.4179628e-03
  3.4509166e-03
 -4.7665980e-02
 -4.0821643e-03
 -1.1069176e-04
 -1.5448410e-03
 -1.6123282e-03
  1.9791888e-02
 -3.1828042e-03
  8.1784524e-02
  4.5095179e-03
  1.5131034e+00
 -3.9708777e-04
  5.1244389e-04
  6.4443402e-02
 -3.1081486e-02
  1.3576742e-02
 -3.2878413e-03
  6.3187444e-01
  3.3844027e-01
 -4.6649980e-03
 -4.3214668e-02
  7.1516493e-03
  2.1627776e-03
 -1.4730225e-02
 -2.0088510e-01
 -3.8647927e-02
  3.0004900e+00
 -2.8705008e-02
 -5.4433676e-03
  3.9783493e-03
  4.3615787e-03
 -9.8013192e-02
 -2.5978321e-02
  3.7534183e-03
 -1.7888555e-02
  1.9819224e-03
 -1.0238990e-02
 -7.5014126e-03
 -1.2887806e+00
  6.2753297e-02
  3.5703278e+00
 -4.5852000e-01
 -3.7071986e+00
 -2.6786716e+00
  4.7681351e+00
  3.7770116e+00
  1.2121919e+00
  1.9200586e+00
  1.4214965e+00
 -2.0714746e+00
  3.4836158e-02
 -1.2033204e+00
 -2.0691462e+00
  2.4121633e+00
  5.0006312e-01
  8.2618266e-01
  9.9029362e-01
  2.7400889e+00
  2.3296821e+00
  8.8862171e-03
 -3.4882575e-01
 -1.6131635e+00
 -7.7833128e-01
  8.8573509e-01
  2.0361183e+00
 -1.5915061e+00
 -2.3314686e-02
  9.5055795e-01
 -1.7781785e+00
  2.9112437e+00
 -1.3382566e+00
  5.0426918e-01
 -2.5098033e+00
 -2.6852696e+00
 -5.4833302e+00
  5.7127447e+00
 -7.8697633e-03
  9.5582128e-02
 -1.3593973e+00
  1.3136251e+00
 -1.1092948e+00
  1.7391594e-01
 -2.7842770e+00
  3.3858607e+00
 -8.7857068e-02
 -2.9538574e+00
 -1.3330854e+00
 -1.4181411e-01
  3.8953522e-01
 -2.6743946e+00
  1.5740007e-02
  1.2834715e+00
 -3.1850681e-02
 -4.8792139e-03
  7.3556388e-03
  4.2136807e-02
 -1.4631216e-02
  1.4389154e-02
  2.8989946e-03
 -5.1745614e-03
 -8.8073807e-03
 -1.5799662e-03
  1.0486418e-02
  6.6755675e-03
  3.9337387e+00
  6.8199807e-03
 -1.1749522e-02
  1.1682121e-01
 -2.2720383e-02
 -5.1466161e-03
 -1.7321361e-02
  2.5752211e-02
 -7.9181953e-04
  3.4411561e-02
  8.2296261e-04
  5.7443348e-03
  7.4426504e-03
  1.0488138e-01
 -2.6241140e-03
 -8.5438462e-03
  1.1748836e-02
  1.6648805e-02
 -6.1058914e-03
  6.3058658e+00
 -3.2552373e-02
 -2.7935050e+00
  2.5461800e-02
 -1.2073782e-02
  1.3627398e-02
  9.8467960e+00
  1.3454420e-02
  1.3012438e-02
 -2.5946239e-03
 -2.3584647e-01
  3.7367146e-03
 -1.9082327e-01
  4.8134285e-03
 -5.7424665e-03
 -1.2741982e+00
 -1.0541460e-04
 -2.3858160e-02
  1.0472034e+00
 -1.0086521e-02
 -2.3284285e+00
 -2.3886831e-03
  1.1967270e-02
  7.7520632e-03
 -1.2986552e-02
 -3.1625740e-03
  1.3861582e-03
  1.6271345e-02
  3.8666081e+00
 -5.7596182e-03
  4.3797325e-03
 -1.5684187e-02
 -5.0036062e-04
 -1.5104052e-02
  8.7090870e-03
  6.8077277e-03
  1.6560307e-02
  2.8045235e+00
 -8.3847117e-04
  8.7617673e-03
  4.3141861e-03
 -3.6043428e-02
 -9.9182744e-03
 -2.8813479e-02
  6.6206767e-03
 -1.3665808e-03
  1.7650314e-02
 -4.6731241e-02
  9.7766775e-04
  3.3150506e-03
  1.3598423e-02
  5.6699561e-03
 -2.0470155e-02
 -4.3009124e-03
 -7.4585997e-03
 -9.6353777e-03
 -1.7724668e+00
 -8.7268883e-03
 -1.5594196e-02
 -1.0237549e-02
 -4.6367655e-03
 -2.3322363e-04
  3.3349562e-02
 -1.1698443e-02
  5.2536651e-03
 -5.2202981e-02
 -2.3903190e-03
 -2.9157186e-03
  1.7012401e-02
  6.6801541e-02
  3.0458149e-02
  1.6591478e-02
  2.0715434e-03
 -1.1880548e-02
 -2.4160150e-02
  6.5794992e-03
 -7.8333914e-03
  8.3024986e-03
  4.0263004e+00
  1.5850728e+00
  3.5438120e-01
  7.5215416e+00
 -2.3253436e+00
  8.0011530e+00
 -2.6096072e+00
 -4.8252497e+00
  5.0703039e+00
 -6.9881552e-01
 -4.5054555e+00
  2.6191745e+00
  9.1312826e-01
  2.0510583e+00
  7.1964204e-01
  4.2744074e+00
  3.7298856e+00
  1.9755498e+00
 -1.2526400e+00
  4.2327185e+00
 -3.1817403e+00
 -4.6733155e+00
 -2.2997901e+00
  3.3968952e+00
 -1.7754645e+00
  1.6765910e+00
  8.1065285e-01
  8.1414680e+00
  9.4047565e+00
 -5.0246224e+00
  2.7064548e+00
  3.4681461e+00
  8.0376303e-01
 -1.2917895e+00
 -6.5842214e+00
 -1.1371610e+00
  1.5470763e+00
  6.9916372e+00
 -6.3006425e+00
 -3.0973833e+00
 -1.6330329e+00
 -1.3130115e+00
 -1.9333427e+00
 -3.5189793e+00
  1.5112283e+00
  5.4288322e-01
 -4.1134272e+00
  1.0813950e+00
 -1.6536798e+00
  2.9331904e-02
 -1.9418808e+00
 -1.3197580e-02
 -1.2171436e-02
  2.3282619e+00
  2.9355316e+00
 -5.3461617e-01
  3.0981350e-01
  6.1184627e-01
  6.1049140e-03
 -2.3287125e-03
  3.8223867e+00
 -4.7663717e+00
 -7.9148971e-03
  5.2296575e-03
  1.2197969e-03
 -5.6465212e-03
  8.0154836e-03
  9.7179804e-03
  2.0169638e-02
  3.7889712e-02
  9.7102383e-03
  5.2733542e-03
  1.0083477e-02
  1.3558833e-02
 -8.1371679e+00
  1.9410511e-02
  2.3303071e-02
  3.4616543e-03
 -5.2998285e-03
  6.0240765e+00
 -9.1424491e-03
  4.6992796e-03
  7.8990953e-03
  1.0947134e+00
  7.2145495e-03
  9.3606049e-03
 -4.0890753e-01
  3.5458665e-02
  2.4623042e-03
  1.6364887e-02
  8.4756771e-03
  2.1354621e-02
  6.3485741e-03
  6.6360920e-03
  3.5465425e-03
  6.8569016e+00
 -8.7371338e-03
  9.1685252e-03
  4.1538337e-03
  9.6032367e-04
 -3.7446994e-02
  2.5544355e-02
  1.1843357e-02
  2.1531291e-03
  5.2958779e-04
  3.2405525e-02
 -1.0795909e-04
  1.4671927e-03
 -5.0456193e-03
 -2.4441531e-02
 -4.6021575e-03
 -4.6235574e-03
 -8.5628182e-03
 -3.6311583e-03
 -1.9221285e-02
 -1.7074086e-03
 -2.8599058e-03
  2.2940483e-02
 -9.1130205e-04
 -2.9181868e-03
  1.3137257e-03
  3.2315090e-02
  7.8672320e-03
 -1.6361794e+00
  7.9305854e-04
 -3.4120714e-03
  3.0700024e-03
 -2.2753647e-02
  2.5802035e-02
 -5.7267004e-01
  1.4875911e-03
  2.5517438e-03
  1.1834737e-02
  1.9857543e-02
 -1.1371829e-02
 -4.0945155e-03
  1.7624367e-02
 -3.2645411e+00
  1.0364290e-02
 -1.8224085e-02
  1.9759364e+00
  7.6590762e-03
  5.6106807e-03
  1.4252436e-02
  5.6804582e-03
  6.2973616e-03
  6.4875409e-03
  1.1407250e-03
 -4.0305252e-03
  4.4359580e-02
  5.2115102e-03
 -1.3185262e-03
 -3.5717746e-03
 -1.6514953e-02
  4.3512292e+00
 -2.0694495e-03
 -6.0234341e-04
 -2.5065990e-02
  1.6387235e-02
  1.3613760e-02
 -4.5040306e-03
 -5.2839075e-03
 -6.0025822e-02
  1.8302783e-01
  7.8717120e-02
  1.4627506e-01
  2.8537817e-03
 -1.6769272e+00
  7.0980775e-01
  4.9018705e-01
 -1.1381244e-02
 -2.9675081e-01
  6.1431765e-03
 -3.7835255e-01
 -2.3904090e-01
  5.6078266e-02
 -3.5104883e-01
 -1.6576910e-02
 -1.1623515e-01
  1.5122700e-01
  4.0994906e-01
  1.1046163e-03
  3.7530470e-03
  2.0669142e-03
 -1.2106495e+00
  2.9042202e-01
  5.3807563e-04
  1.6953122e-02
 -6.5040089e-02
  1.3778076e-02
 -3.9332843e-01
 -2.2735471e-02
 -9.6203096e-02
  4.9632888e-02
  1.1312091e+00
 -8.1643783e-02
 -3.4755644e-01
  5.9356678e-01
 -8.8102004e-04
 -9.1950369e-01
  8.0878800e-03
  1.7048151e-03
 -1.6794628e-02
  3.0711105e+00
 -5.1291801e-02
  1.5896738e-02
 -7.9467110e-03
  2.1464429e-03
  7.7686660e-02
  1.1957698e-03
 -5.3109210e-03
 -1.0175652e-02
 -4.0875292e-01
 -2.5236506e-02
 -9.4515095e-03
  1.1526234e-02
 -1.6946955e+00
 -1.4709739e-01
  1.3642928e-01
 -7.4351721e-02
 -8.6416370e-01
  9.2727649e-01
 -4.2555371e-01
 -3.3622390e-01
 -2.7314320e+00
  5.2952142e-03
 -1.8896504e-01
 -1.0833278e-01
 -3.3278565e+00
 -1.1004715e-01
  1.4821973e-01
 -8.4631436e-02
 -6.1947066e-02
  7.4021757e-01
 -9.2747456e-01
  1.2411674e+00
 -1.6683794e-04
 -6.5441221e-02
  3.8530567e+00
 -1.3044964e+00
 -6.7147510e-03
  6.0235765e-03
  1.8804698e-01
  3.1574104e+00
  2.3890996e+00
 -6.3360828e-01
 -2.2855954e-01
 -3.0512670e-01
  4.2295912e-01
 -6.7841828e-01
  3.0634878e+00
 -2.0327027e+00
  3.8206581e-02
  2.2198890e-01
  1.1397893e+00
 -1.2035627e+00
  2.5098421e-02
 -3.8813290e-01
 -5.3813112e-01
  8.1091183e-01
  6.6358657e-03
  3.9923068e-02
  9.1640325e-03
  1.3177466e-02
 -6.8848515e-03
 -1.4479463e-02
 -1.4933500e+00
  4.1644376e-02
  1.4506273e-03
  1.9510568e-04
 -2.1489257e-02
  9.0909135e-03
 -1.3783620e-02
 -8.3747786e-04
  1.9280478e-02
  2.2898734e-02
  1.8049476e-03
  1.1884528e-02
 -2.7362071e-04
  4.4399500e-03
  5.5541685e-03
  4.8675910e-01
  4.9312068e-03
 -1.1650097e-02
  1.3414924e-03
 -2.1130303e-03
  3.1231733e-03
 -4.4544158e-03
  3.1351414e-02
  1.5258324e-02
 -4.7312537e-04
  6.7913765e-03
  1.7286694e-02
 -1.4141724e-02
 -3.3324704e-02
  2.5513610e-03
  1.2505258e-03
  9.6819969e-03
  3.6821268e-02
  1.0199211e-02
 -7.4502727e-04
  8.3071943e-03
 -1.6088334e+00
  1.6973061e-03
  1.0501452e-02
 -5.1690168e-03
 -1.1841745e-02
 -1.4780701e-02
  1.0945477e-03
  3.1575724e-03
  3.5227262e-03
 -7.4290082e-02
 -1.0861946e-02
 -7.0988450e+00
 -1.4736271e-03
  2.1318891e-03
  1.8911990e-03
 -6.9751292e-03
  3.3090413e-03
 -2.4341377e-03
  3.9606329e-02
 -3.2602914e-04
 -3.1738116e-03
 -4.3190215e-03
 -2.6999695e+00
 -1.8703595e+00
 -3.0079859e-01
  7.4736792e-01
 -9.4135278e-01
 -2.7128663e+00
 -3.6657717e+00
  2.5687973e+00
 -2.6500292e+00
  3.9118883e-01
 -7.1424371e-01
  2.4068795e-02
  4.3056197e+00
  4.2962569e-01
  2.3300107e+00
 -1.0016655e+00
 -1.0752543e+00
 -2.6312733e-01
  2.1601388e+00
 -7.3520625e-01
  5.9025019e-01
 -2.6585124e+00
  1.1260035e+00
  2.0849540e+00
  7.9017097e-01
  2.0860732e+00
  5.0974363e-01
  6.3484544e-01
 -1.4025223e+00
  1.2698690e+00
 -6.0580587e-01
 -1.9247271e+00
 -1.9402690e+00
  3.3019266e+00
  8.8397443e-01
  3.6593192e+00
  7.4343520e-01
 -4.4371023e+00
 -1.6338242e+00
  1.4665161e+00
  1.7162769e-01
 -1.9947962e+00
  9.7014880e-01
  2.3302011e+00
  6.4589745e-01
 -3.6349848e-01
 -2.1130683e-01
 -3.6946896e-01
  6.4534845e+00
  2.2702588e-01
  1.2986003e+00
  3.4948518e-03
  2.3282993e+00
 -2.3180122e+00
  2.9133246e-03
  9.5741153e-03
 -8.4885359e-03
  1.4265026e-02
 -5.7912152e-03
  4.2660380e-04
  4.9041142e-04
 -1.1188805e-02
 -1.5822660e+00
  2.5177961e-03
  7.4407505e-03
  1.6190981e-03
  4.0365558e-02
  5.5515155e-02
  1.4587456e-03
  2.0833476e-02
 -1.0100709e-02
  7.9438239e-03
  1.8428748e-02
  4.1396562e-03
 -2.0320144e-02
  1.0247028e-02
  4.3888763e-03
  2.5160190e-02
  4.1571590e-03
  3.9206212e-03
 -1.4886236e-02
  7.4012680e-03
  1.9998011e-01
 -1.0353224e-02
  1.0899630e-02
 -2.4045067e-04
  5.4880196e-01
 -1.2582829e-02
 -1.2595179e-02
  2.2863210e-03
 -1.0664054e-03
 -3.5042590e-03
  9.1270357e-03
  2.5008020e-03
 -1.2982238e-02
  2.8826587e-05
 -8.5488358e-04
  7.0631844e-01
  2.7360131e-03
  3.1619510e-03
 -5.1673613e-03
 -7.0026366e-04
 -2.3007896e-03
  2.7126321e-03
  1.3098168e-03
  8.4386859e-04
  4.9881567e-04
 -1.0630039e-02
 -2.2339129e-01
 -1.3436304e-02
  6.5520899e-03
 -2.2007104e-02
 -1.2589816e-02
 -1.1674339e-02
  4.7499046e-01
  4.6568648e-03
 -1.7192145e-01
 -7.7749183e-03
 -9.2704389e-03
  1.5080779e+00
 -4.0237238e-03
 -1.9207396e-01
 -9.9319570e-02
 -1.5618766e-02
  2.4942087e-02
  1.0685548e-02
  2.7215823e-03
 -3.8997459e-03
 -1.3283221e-04
  5.3827646e-03
  1.6139201e-03
  3.1756106e-01
  5.3069117e-03
 -2.6926888e-02
 -4.0451080e-02
 -7.1429240e-04
 -1.1513716e-02
  9.2487456e-03
  1.9000147e-01
  1.1864608e-02
 -3.6166053e-02
 -7.7406792e-03
 -1.2851384e-02
  1.7448550e-02
 -4.1986252e-03
 -2.7437149e-02
 -1.0179292e-02
  1.1334397e-02
 -2.4508918e-03
  3.2483491e-03
 -1.8583832e-02
 -1.5380470e-02
  2.0479642e-02
  7.2703650e-03
 -3.5491658e-03
 -5.1543815e-03
 -4.8056589e-03
  3.2302318e-03
 -5.5766143e-03
  1.1651521e-03
 -1.5483032e+00
 -1.3942567e-03
 -1.9371811e+00
 -4.4781804e+00
  4.4787726e+00
  8.4527647e-01
  2.0469213e-04
 -1.2867523e+00
  4.2118559e+00
  6.3366628e-01
 -6.9349670e-01
 -1.1602540e+00
  4.0709928e-02
 -4.1543650e-03
  2.2251597e-03
 -2.4237490e+00
 -4.5685731e-03
  6.2529738e-03
 -6.9776386e-02
 -1.3822833e+00
 -3.3001855e-02
  9.5214667e-03
 -2.1690236e-02
  2.3526362e-01
 -5.6198542e-03
 -1.9698968e+00
  1.8384249e-03
  1.3384264e-02
  6.2052244e-03
  2.2158809e-03
 -6.7986352e-03
  2.0775313e-02
  2.0144792e-02
  8.3209783e-01
  2.5664032e+00
 -1.7327812e-02
 -4.2211462e-02
  3.9902985e-02
 -1.7892738e-04
 -2.8279552e-04
 -1.7737025e-02
 -1.0130998e+00
  2.1729827e-01
 -2.3587275e+00
 -4.9204226e-03
  8.9771159e-02
  3.6640145e-02
  1.1201110e-04
  1.7545559e-03
 -1.0317967e-02
 -3.2958665e-03
 -3.2750594e-03
 -1.0129827e+00
  4.7723809e-03
  7.1689966e-03
  7.5814454e-03
  5.6592071e-01
  1.8785031e+00
 -9.5794123e-01
 -1.7921464e-01
 -7.4688746e-03
 -5.9919429e+00
 -6.1345403e-03
 -3.8711214e-01
  1.2031977e+00
  1.0019357e+00
  1.5716599e-01
  6.2059158e-01
  2.8328228e+00
  8.6550415e-01
  7.4975389e-01
  1.2260902e-01
  8.6152881e-01
  3.3205891e-01
  2.9587746e-03
 -1.4563223e-02
  3.9193374e-03
  3.7735976e-02
 -4.8307635e-02
 -1.1313335e+01
  1.7418677e-02
 -1.9520898e-03
 -2.1008989e-02
  1.3915591e-01
 -1.3182841e-01
 -1.0007093e-02
 -3.8176072e-01
 -4.0526457e+00
  2.1103249e+00
 -6.9205925e-02
 -2.2169672e-02
  1.0241303e-02
  4.2008406e-01
  3.2779083e-02
  6.5168119e-03
  1.8277725e-02
 -3.9400477e-03
 -3.4483342e+00
 -8.1778944e-02
 -2.0687236e-04
 -3.1343028e-01
 -1.9260384e-03
  1.4539361e-02
 -6.8494924e-03
  3.2081832e-03
  2.6591860e-03
 -5.8436549e-01
 -3.0083957e-03
  1.3071222e-02
  2.1740398e-03
  1.8644841e-02
  6.5431559e-01
  3.5008885e-02
  6.4058304e-01
  1.7805709e-01
  6.9381282e-02
 -9.3857497e-01
  1.1924020e+00
 -1.7712905e+00
  1.6797999e+00
 -9.9226229e-02
 -1.9111013e-03
  2.5290066e-02
 -5.1588511e-01
  6.9612972e-03
  5.1697916e-03
  1.5167186e-01
  2.4229801e+00
 -9.2274463e-03
 -7.0849083e-02
 -2.0432457e-02
 -5.0616848e-01
 -2.5483482e-03
 -5.0399774e-01
 -5.6509274e-01
 -6.0051841e-01
  5.8641960e-03
  5.5031371e-01
  5.8765540e+00
  2.7217588e-03
 -4.3338552e-01
  1.2464965e-01
 -6.7587527e-03
 -1.4990605e-01
 -1.2943211e-02
 -2.0914810e-02
  3.0314738e-02
  1.3821302e-02
 -3.7104946e-01
 -2.1019323e+00
  2.1739624e-01
 -3.7311059e-01
  1.0638121e-03
 -2.2045097e-01
  2.9173794e-01
 -8.1540737e-03
  4.7155607e-02
 -6.0968857e-02
  1.2340323e-02
  3.7544600e-03
 -2.7138287e-01
 -6.3397130e-04
 -1.3429662e-02
 -2.3218904e-02
  2.1728092e-01
 -1.7677447e+00
 -1.7306510e+00
  1.1952628e+00
 -5.2724576e-01
 -1.2302070e+00
 -6.5208986e-02
  5.5638385e+00
  1.6593784e+00
 -1.8510829e-01
 -1.7333472e+00
  4.9457235e+00
 -1.9618231e+00
  1.9594864e+00
 -2.5758915e+00
  2.7128086e+00
  1.8197033e+00
 -2.2488222e+00
 -2.3493874e+00
 -5.5847187e+00
  1.7803470e+00
 -4.2989159e+00
 -3.3075356e-01
  7.0991385e-01
 -1.7369114e+00
  1.1378566e+00
 -4.1429558e+00
  7.0402867e-01
  2.6157262e+00
  6.6218483e-01
 -5.9943175e-01
  2.6499243e+00
 -4.1797991e+00
  1.7151946e+00
 -3.1131456e+00
 -1.5418820e+00
  4.6161065e-01
  1.6645364e+00
 -4.6325961e-01
  7.2001138e+00
 -1.6818680e+00
 -6.3247216e-01
 -2.2279122e+00
  1.6369697e+00
 -5.1739532e-01
 -3.4716170e+00
  2.4972823e+00
  1.7374717e+00
  2.0870841e+00
 -3.1754947e+00
  2.0559187e-01
 -1.8159193e-01
  4.5745316e+00
 -6.3811457e-01
  6.3333827e-01
 -2.3001556e+00
  2.6615736e-01
  1.0543279e-01
 -1.3057611e-02
 -2.7216997e+00
  3.1238577e-01
 -9.2734569e-01
  1.7144784e-01
 -7.2837883e-01
  1.0872139e+00
 -8.7496005e-02
  1.0267807e-01
  2.9654648e+00
  2.6138752e+00
  1.2698467e+00
 -1.6294564e+00
  4.1454520e+00
  4.3355599e-01
  1.5678953e-02
  5.6257850e-01
  9.1373020e-01
  4.8480825e+00
 -3.0710849e-01
 -1.0557816e+00
  4.9229416e-01
 -1.8749764e+00
 -6.7590147e-02
 -1.3958794e-01
 -5.2802455e-01
  4.5760894e+00
  1.4230368e-01
 -4.4284064e-02
 -5.3156787e-01
 -5.2393031e-01
  1.2129300e-01
  7.4838471e-01
 -1.9098767e+00
  3.4020710e-01
 -9.4078797e-01
  2.8849813e-01
  2.4518969e+00
 -5.4812616e-01
 -1.8732494e-02
  1.6641079e+00
  1.1548419e+00
  1.2257271e-02
 -4.3005962e-03
 -5.8841049e-03
 -1.3952992e-02
  4.7385991e-02
 -4.4284691e-03
  3.3749141e-02
 -4.5150926e-04
  1.0862604e-03
 -2.2678222e-03
 -1.0225190e-02
 -1.8042568e-02
 -1.5243854e-01
  5.0882115e-03
  2.2469191e-03
  8.0056963e-03
  3.9958600e-03
 -1.7205494e-02
  1.1376792e-02
  4.0230518e-03
  7.5552799e-04
  2.5169742e+00
 -3.7080217e-03
 -1.7075654e-03
 -1.4083468e-02
  2.0093035e-02
  9.0860128e-03
 -7.2301552e-03
  1.9079678e-02
 -1.3088926e-03
  3.7672827e-03
  1.1412199e-02
  5.1978755e-01
  5.3522019e-03
 -4.0669800e-03
 -3.5646134e-03
  1.4085351e-03
 -2.2979166e-02
  2.0577611e-02
 -1.3973040e-02
  1.5819846e-02
  7.7651893e-03
  1.4427077e-02
  1.2428526e-02
  8.0030262e-01
 -8.6154500e-03
 -3.0342890e-03
 -3.2680579e-03
 -1.2329889e-02
  2.6614023e-03
  4.3707299e-03
 -1.6052818e-03
  1.4058890e-02
 -3.3536078e-03
  2.7977109e-01
 -1.6301057e+00
 -2.1909811e-02
 -1.9119589e-01
  8.1330222e-01
 -3.3579147e-01
 -2.9170230e-01
 -5.8114505e-01
 -2.0423289e-01
 -3.5949312e-02
  6.5402510e-03
 -9.0406412e-01
 -4.0153706e-01
 -1.9683474e-01
 -2.9087038e+00
  7.3619723e-01
 -2.4022973e+00
  4.4685796e-01
 -3.3804336e-01
  1.3448030e-02
  9.9866137e-02
 -4.0590334e-01
 -5.0633946e-03
 -6.6773373e-01
 -6.9818348e-01
 -2.8967061e+00
  1.0778077e+00
  2.6689035e-01
 -5.1921928e-01
  1.0747960e+00
  1.4059639e+00
 -6.6670281e-01
 -6.0025132e-01
  1.7997464e+00
 -3.6166120e+00
  5.7987899e-01
  2.0583508e+00
  3.2114443e-01
  3.5500464e-01
 -1.6021996e+00
  3.1919986e-02
 -4.4370046e-01
 -1.9596906e-01
  4.0192742e-02
 -4.4249121e-02
 -4.4295576e-01
  1.5117056e-02
  1.9829749e+00
 -4.7304177e+00
  1.7585845e-03
 -4.5436302e-01
  3.2909883e-03
 -1.3644402e-01
 -1.7515374e-02
 -5.3136174e-02
 -5.1441148e-04
  9.3782246e-03
  8.0840420e-03
  9.0541625e-01
 -4.2375890e-03
  1.1528644e-02
  1.3608259e-02
  4.4289813e-03
  1.5307692e-03
  2.2791401e-02
 -5.7496153e-02
  1.0209225e-02
  2.1931348e-02
  1.1562763e-02
 -1.6056856e-02
 -1.1374796e-02
 -6.5913168e-03
 -1.0382079e-02
  1.3591140e-04
 -4.7010430e-03
  1.0541140e-03
  1.8967755e-02
 -6.9874017e-03
  2.6859093e-02
 -1.5324438e-02
  9.5408708e-03
  1.0463063e+00
  2.2622166e+00
  1.3983720e-02
  1.3644673e-04
  1.2081126e-02
  1.1968120e-01
  9.7844727e-02
 -1.3035902e-02
  5.9269434e-03
  5.8308467e-03
  3.5749814e-03
  1.0935010e-02
 -1.4942335e-03
  7.5281120e-04
  4.4446614e-02
  3.2105520e-03
 -4.9680332e-04
  8.3205234e-03
  4.0873163e-04
  3.7474506e-02
  8.6348308e-03
  8.1831506e-03
  4.8907315e-03
  2.4182886e-02
 -1.3896246e-03
 -9.2253112e-04
  4.4387188e-03
  5.8925778e-01
 -8.5675064e-03
 -8.5985303e-01
 -1.1655585e-01
  8.8909984e-01
  4.6064001e-01
 -1.6768988e+00
 -3.1137410e-01
  2.3456544e-01
  6.3623804e-01
 -2.5379744e+00
  1.1196985e+00
  1.4235012e-01
 -4.0496367e-01
  1.9497964e-01
  1.1346314e+00
 -4.6421048e-01
 -4.4275036e-01
 -1.0860497e+00
 -1.2560582e+00
 -1.3871250e+00
 -1.0482262e-01
  5.5364203e+00
  4.4132119e-01
 -3.8613439e-01
  2.1729383e+00
  2.1946647e+00
  1.5884705e+00
 -4.7923395e-01
 -1.3791023e+00
  2.4545441e+00
 -4.1371131e+00
 -3.8592224e+00
  3.5618274e+00
  2.7273288e-01
 -1.7526835e+00
 -4.1652799e+00
 -6.5425771e-01
 -8.6205140e-02
 -9.8585653e-01
  2.0828156e+00
  1.0468826e+00
 -4.4510436e+00
  6.3497788e-01
  3.5506308e+00
  4.7311723e-01
 -4.2769857e-02
 -9.5873398e-01
  6.1050248e-01
 -2.2969414e-03
 -1.1929536e+00
 -2.4077365e-02
  2.0910716e+00
  2.1893113e+00
 -2.0025405e-01
  1.0509976e+00
  2.0478528e+00
  2.7882507e-01
  8.8887054e-01
  1.0454164e+00
  5.2676886e-01
 -2.1511404e-01
  6.7598212e-01
  1.1827311e-02
  5.7644004e-01
  2.6932934e-01
  5.6439985e-02
  1.3147973e-02
  4.5624366e+00
 -1.7209934e+00
  6.5652591e-01
 -1.2994643e-01
  7.9834402e-01
 -2.2155585e+00
 -4.4233724e-01
  4.3168921e-02
  1.5682898e+00
 -5.9166002e-01
  1.5146186e+00
  4.2350903e+00
 -3.9696906e+00
  1.1415546e+00
 -4.8094049e-02
 -1.4715682e+00
 -9.3140823e-01
 -1.5265064e-01
  2.1181808e+00
 -1.9054065e+00
  9.2669308e-01
 -2.0866840e+00
 -1.5274589e+00
  2.6607299e+00
 -5.7159430e-01
  5.5281436e-01
  1.4039909e+00
 -2.4340584e+00
  2.2762407e-01
 -5.5312338e+00
  2.1785066e+00
  1.7550243e+00
 -9.4182259e-01
 -3.5388932e+00
  5.6127005e+00
  6.7510009e-01
  2.2922640e+00
  5.0204652e-03
  6.2431665e-03
 -2.7030867e-02
  7.4646831e-02
 -1.6834977e+00
  6.6200411e-01
 -2.0666261e+00
  2.9151535e+00
 -7.0237559e-01
  3.4215087e-01
  1.0470358e-01
 -3.8655794e+00
 -1.0449013e+00
  2.8051217e+00
  1.4473456e-01
 -4.5825801e+00
  1.8928592e-01
 -3.9720196e-01
 -3.9445388e-01
 -1.5116469e+00
  1.6002406e+00
  4.6311224e-01
 -3.1902573e-01
 -1.9476417e+00
 -3.8645899e-01
 -9.9595249e-01
  5.4675889e+00
 -4.5739034e-01
  4.5029003e-02
  1.7609427e-02
 -1.8043681e+00
 -1.3993979e+00
 -3.1800549e+00
 -1.6970295e+00
  3.1233456e+00
  3.3017256e+00
  4.6446389e-01
  3.2013768e-01
 -3.2653424e-01
  1.0513965e+00
  7.2458869e-01
  4.4880900e+00
  2.9898517e+00
 -3.0888239e-01
 -2.0144488e-01
 -7.3497784e-01
 -3.3535137e+00
  2.4057439e-02
  1.3642799e+01
 -1.2418224e-02
  1.2296873e-01
 -1.4469509e-01
  6.1671817e-05
 -1.1569424e-02
  1.3431828e-03
  4.1967593e-02
 -3.3629376e-01
 -3.3862848e-02
  8.7388186e-04
 -2.0062339e-02
 -3.4438141e-03
  7.0253575e-01
 -2.9793158e-03
  2.3706304e-02
 -1.5879618e-01
  4.0025719e-02
 -9.6537154e-03
  9.2535038e-03
  1.2159388e-02
 -3.2515347e-02
 -2.1544509e-03
  1.2482521e-02
 -2.9876356e-03
  5.3875404e-03
  7.5144805e-03
 -1.6835800e-03
 -7.7551231e-05
  1.2843257e-03
  9.6549140e-04
 -9.2187442e-04
  4.6622436e-03
 -2.2715782e-03
 -2.1581559e-02
  1.3050077e-02
  6.7311204e-03
  2.5091510e+00
  9.8688295e-03
 -1.3465722e-02
  2.2503849e-02
  1.0301609e+00
 -2.8711660e-03
 -4.4910321e-03
 -1.3393540e-02
 -5.3259935e-03
  2.3788651e-02
  5.6475531e-03
 -8.6793257e-03
 -1.8009385e-02
  1.1888704e-03
 -4.1001439e-03
 -1.2211994e-02
  6.5690093e-04
  1.3482689e-03
 -1.0026742e-03
 -4.8250705e-02
 -1.9062057e-02
  2.8782837e-02
  1.0993749e-02
 -8.2939193e-03
 -5.0348390e-02
 -2.5966847e-02
  2.6881298e-01
 -2.0117340e+00
  1.8752000e-01
 -8.7838180e-02
  1.4948238e+00
 -1.2897568e+00
 -8.4831470e-01
  3.0262226e-01
  4.6960664e-01
  2.3950803e+00
 -6.5898031e-02
 -3.5781085e-01
  2.1815801e-01
  9.8778844e-01
  2.1913993e+00
 -8.0679959e-01
  3.5445752e+00
 -8.8547003e-01
  1.9236757e+00
 -2.9065492e+00
 -2.1586106e+00
  4.0025415e+00
 -1.1158197e+00
  3.0606456e+00
  4.7884316e+00
 -4.3838806e+00
 -3.4402864e+00
  9.0696001e-01
 -1.3162729e+00
  1.2074611e+00
 -9.1496849e-01
 -9.2201257e-01
  3.0234319e-01
 -7.7772999e-01
  8.1705701e-01
  1.7904212e+00
 -4.2380980e-01
 -1.5078095e+00
 -1.1233523e+00
  3.8851359e+00
  3.4858935e-02
  1.6228184e+00
  1.3575435e+00
 -3.1797752e+00
  1.7125896e+00
 -8.5677185e+00
 -3.9885864e+00
 -3.1351020e+00
  7.9940977e-03
  2.6381662e-01
  3.7696271e+00
  1.4513073e+00
  4.5705862e+00
  8.8630028e+00
  2.8893086e-01
 -2.8878448e+00
  2.7854869e+00
  2.2436528e+00
  1.4336667e+00
 -3.6715325e-02
  1.3898195e+00
 -7.1983461e+00
 -6.5851455e+00
 -2.0757456e+00
 -3.3018584e+00
 -2.8314614e+00
 -7.6396089e+00
  1.9665678e+00
 -3.2365921e-01
 -2.2664411e+00
 -7.3801028e-03
  6.0167367e-05
  2.1721270e+00
 -9.4243325e-02
  5.0597835e+00
  1.4765668e-01
  7.8337336e-01
  2.0612996e+00
 -7.2207535e-03
  1.0800971e-02
  2.0388551e+00
  1.5298221e+00
  6.1722493e-01
 -8.7844002e-01
  1.3885589e+00
  1.5877796e+00
 -2.2125077e+00
 -4.8488316e-01
 -2.7158512e-02
 -2.2903602e-01
  8.4778881e+00
  2.5303409e-01
 -1.6442752e+00
  3.9623613e+00
 -1.1124053e+00
  7.1421105e-01
  8.1828898e-03
  1.4275435e-02
  9.0507352e-01
 -1.1792494e-01
  4.1133636e-01
 -4.8622295e-02
 -8.5145459e-03
 -8.7808853e-04
  7.4281625e-02
 -2.0143618e-03
  4.7177052e+00
  6.2058275e-03
 -6.4624823e-03
  4.1924086e-03
 -2.0226754e-02
 -9.0824388e-02
  2.6084340e-01
  2.5833300e-03
  2.4303040e-03
 -8.0910251e-03
  3.6636446e-02
 -3.2274164e-03
  2.2607686e-02
 -1.8998884e-02
  9.9917296e-03
 -3.3377167e-03
 -9.3298936e-03
 -4.6446235e-03
  3.6541887e-03
  7.3292889e-03
  4.4284021e-03
 -6.9329711e-03
  1.6098687e-03
  7.5230619e-04
  1.4955202e-03
  1.6730418e-02
  1.1790889e-02
 -2.4760952e-03
  3.5460687e-03
  2.7956475e-02
  1.2212704e-02
  2.1423921e-02
  4.5994096e-02
 -1.1414075e-02
  8.5176325e-01
  2.4935821e-02
  2.6366828e-02
  1.9529799e-02
  1.7774884e-03
  7.0918226e-03
 -1.5583657e-02
  2.2489095e-02
 -1.5774975e-02
  1.2604156e-02
  1.0218736e-03
 -3.0555178e-03
  1.4155797e-02
  1.9598866e-02
  1.1587118e-02
  2.9470876e-04
  1.7643210e-02
 -2.6926924e-02
  3.5277712e-03
  6.1740996e-03
 -3.0824473e-02
 -2.8429126e-02
 -7.7627590e-03
  2.3581693e-04
  5.3781044e-04
  1.6466905e-03
 -9.2302486e-03
  1.2273580e-03
 -3.9652558e-03
 -7.7387346e-03
 -1.2828048e-01
  4.2927475e-03
 -5.2676003e-02
 -2.7277909e-02
  1.5930554e-02
  4.6621589e-04
 -2.4807276e-02
 -1.2240998e-02
 -1.8100801e-03
  3.2263896e-03
 -1.5931904e-02
 -8.5901003e-05
  2.8118372e-03
 -1.3439708e+00
  1.1895578e-02
 -9.3307802e-03
 -1.8048848e-03
  9.6581172e-04
 -8.6411359e-03
  8.1563229e-03
  1.6968996e-03
 -1.5524236e-02
  1.8727442e-02
  7.9868054e-03
 -1.3523899e-01
  1.3578673e-03
  1.5425952e-02
 -1.2611928e-02
 -4.0283240e-03
 -2.8823058e-03
 -6.6521349e-03
  3.8899708e-04
  2.0322232e-02
  4.9268487e-03
  2.1936307e-03
  3.1171355e-02
 -7.2994502e-03
  2.2194276e-03
 -1.8384968e-04
  1.9512413e-02
  2.1200940e-02
  1.4079218e-03
  1.1143630e-02
 -5.5377251e-03
  3.7522109e-03
  6.6584058e-04
 -2.4124324e+00
 -5.9882406e-02
 -8.8168830e-01
 -1.6275523e+00
 -2.1016800e+00
  5.1142997e-01
  1.0571729e+00
  2.5151336e+00
 -5.2874093e+00
  4.0657873e+00
 -2.2521243e+00
 -4.6305585e+00
  1.0294511e+00
 -2.3265106e-03
 -4.3266001e+00
  3.1197138e+00
  2.2107775e+00
 -4.3766694e+00
 -1.9402754e+00
  2.4146938e+00
  2.0803568e+00
 -4.6039481e+00
  8.0813684e+00
  9.0698328e+00
  1.3519716e+00
 -1.8325728e+00
 -1.4269268e+01
  1.4551077e+00
  3.1538906e+00
  2.1514652e+00
 -7.2303314e+00
  4.4498219e+00
  1.6516693e+00
 -7.2202425e+00
 -1.7643465e+00
 -5.0886779e+00
  2.0870533e+00
  7.2474790e-01
  2.9931347e+00
 -2.2430124e+00
  2.6884074e+00
 -6.0104507e-01
 -3.2155700e+00
  4.9091887e+00
 -1.6582921e+00
 -2.5949986e+00
  1.6385119e+00
 -7.9074030e+00
  7.9196143e+00
 -1.0057371e+00
 -1.9617372e+00
  1.5780638e-03
  7.2582031e-04
  1.2566572e+00
 -6.0034567e-03
  7.0925793e-03
 -1.4120655e-04
 -2.2996450e-03
  1.6809348e-02
  6.8434137e-03
  9.0897537e-04
 -3.7373981e-04
  4.4512991e-02
  1.0513177e-02
  1.0241160e-02
  1.1132808e-02
  2.3905927e-02
  2.2595346e-03
  9.7242156e-03
 -1.3372065e-03
  2.3751281e-02
  1.0149642e-02
 -6.1743142e-04
 -1.2919531e-02
  7.5147781e-03
 -3.9282823e-03
  2.6280232e-02
  1.0993353e-02
 -2.8257772e-02
  1.1719602e-02
  8.8353613e-03
  9.5925229e-03
  6.6569477e-02
 -3.9634663e-03
 -6.1948830e-04
  4.1359980e-03
  1.1363615e+00
  1.1696672e-02
 -1.2268647e-02
 -1.8096552e-03
 -5.3980742e-03
  3.2522897e-03
  1.0355585e-02
  4.8505729e-03
  5.3970749e-04
  2.4415094e-02
  1.8514158e-02
  2.9283846e-03
  1.8788904e-02
  1.6445071e-02
  3.8864452e-04
 -7.8307400e-03
  1.2749324e-02
 -4.5084730e-03
  5.5541350e-03
  1.1114159e-02
 -4.2063156e-03
 -2.1576263e-02
  1.4289033e+00
 -4.5529552e+00
  3.8242510e-01
 -1.2813783e+00
  1.8278192e+00
  2.0509846e+00
  3.4404022e-01
 -2.3113930e+00
 -2.6381853e+00
  4.0902340e-01
  1.3389466e+00
  9.9984413e-01
 -1.4037431e+00
  1.7585444e-01
 -1.5694296e+00
  1.1573862e+00
  3.8654860e-02
  1.3826538e+00
  5.6302438e+00
  1.4008569e+00
 -4.3403187e+00
 -2.0178025e+00
  2.6781690e+00
  1.7386326e+00
  2.2634611e+00
 -1.0844364e+00
 -1.5274477e+00
  2.9101615e+00
 -6.3322306e-01
  1.6902497e+00
 -1.6488063e-01
 -3.6077886e+00
  4.1738653e+00
 -2.3747239e+00
  2.4026797e+00
 -3.8171508e+00
  2.7043216e+00
 -2.1927047e-01
  8.3338636e-01
  1.3737276e+00
 -3.5601232e+00
 -3.0114477e+00
  1.2592329e+00
 -9.4716377e+00
 -7.4322635e-01
 -4.5337086e+00
 -1.2709049e-02
 -6.2650011e-04
 -1.6403617e+00
 -3.8336891e-01
  3.7682644e-01
 -5.7198513e-01
 -1.2204916e+00
  6.0961163e-01
  2.1418563e-01
 -1.0439994e-01
 -1.3978633e-01
 -6.3666958e-01
  3.6050811e-01
 -7.4338400e-01
  2.0243289e-01
 -1.0542396e-01
 -5.5558777e+00
 -5.5371177e-01
 -6.1995097e-02
  1.1078358e+00
 -1.8183938e-01
 -2.0576730e+00
 -1.2126409e+00
  5.3035785e-03
 -1.5250860e-03
 -5.5445556e-02
 -1.4489199e+00
  1.7217530e-01
  2.2877126e-03
 -2.0270133e-02
  1.5215537e-01
 -5.2424716e-03
 -8.9420485e-01
 -9.9940211e-01
  3.1078461e-01
  7.4209219e-01
  6.5010756e-01
 -5.2746303e-02
  2.2558658e+00
 -9.7988963e-02
  7.9329625e-02
  6.2687188e-01
 -4.3834534e-02
  2.2691494e-02
  5.0807428e-01
  4.4590507e-02
  6.0850210e-02
 -6.7058555e-03
 -2.2337423e-01
 -1.6454197e+00
 -4.2458465e-03
 -1.4190269e-02
  3.4428615e-02
  3.4164340e+00
  5.7311794e-03
  6.6317230e-01
  7.2824311e-01
  4.2471448e-03
 -2.2002386e-01
 -2.0617004e-02
  4.7384733e-03
  2.0180201e-02
 -3.7576066e-04
 -5.5679320e-03
 -3.1238873e-03
  1.1255142e-02
  1.6866681e-01
 -6.1965804e-03
  1.1291926e-02
 -8.6192563e-03
  1.2590449e-01
  1.2389964e-03
  5.8745565e-03
  1.3976000e-02
 -1.9857083e-03
 -1.7968562e-02
 -4.7274800e-03
 -9.0588322e-03
  3.5095161e-03
  1.0989356e-03
  1.1587050e-04
 -2.0043444e-04
  1.9603435e-02
  9.4195548e-03
 -1.2297940e-02
  5.8179321e-03
  4.4257077e-03
 -4.3584700e-04
 -1.5508946e-02
 -6.9616996e-03
  1.4464971e-02
 -9.5113006e-04
 -6.8748542e-03
  2.4733797e-02
  2.6498699e-01
  1.2170446e-02
  8.4858015e-03
  2.4915326e-02
  3.0208812e-03
  1.9739480e+00
  2.1031115e-02
 -1.0182685e-02
  3.7098220e-03
 -2.6459482e-03
  7.3662968e-03
  7.7734292e-03
  3.4219102e-04
  7.7465846e-04
  3.5940213e-03
  3.0364466e-03
  5.5877715e-03
 -1.3078660e-03
 -1.7193733e-03
 -5.4877102e-03
  1.3050763e-02
 -5.6578093e-03
 -5.0737578e-03
  8.4325336e-03
 -6.6392035e-03
 -1.4583324e-03
  5.2487397e-01
  2.5845032e+00
  3.0511025e-01
 -2.1585710e-02
 -1.2812738e-03
 -5.2349718e-04
  7.2685089e-03
  5.6014791e-02
  1.6939111e-02
 -5.5021448e-03
  1.5862325e-02
  1.5734223e-03
  5.4636388e-04
 -1.1533732e-02
 -4.2017978e-03
 -1.8933592e-02
 -1.2622125e-03
  2.0703644e-02
 -2.9191753e-01
 -8.8480106e-03
  2.3438718e-02
  7.6423869e-03
 -4.1456766e+00
  1.2381438e-02
  1.7601867e-01
  2.2913389e-02
 -8.7225009e-03
  2.4747320e-02
  3.2093477e-01
  4.4981027e-03
  1.5364236e-02
  4.8040813e-03
 -3.0064607e-02
  3.9384626e-03
 -1.0573547e-03
  1.0943670e-02
  6.3179508e-03
  9.8576983e-03
 -5.7187886e-04
 -7.5463802e-03
 -7.1674334e-03
  2.1046784e-02
  9.4575137e-03
 -1.4756879e-02
  1.6895434e-02
  1.2517164e-02
 -7.8871669e-03
  4.1846568e-03
  2.9455835e-03
 -4.7851908e-03
 -1.4648160e-02
  2.1884940e-03
  7.3425770e-03
 -5.3559751e-03
 -1.5149148e-01
  1.9475936e-03
 -5.4492727e-03
  3.6117449e-02
 -6.6987318e-03
  7.3620942e-03
  4.9921558e-03
  4.7329091e-03
  8.9922147e-03
  1.9772416e-03
  3.2875020e-02
  7.6122880e-03
 -8.3579617e-03
 -2.5161613e-02
  7.3849261e-03
 -1.6435125e-01
 -1.9514855e-02
 -9.9838294e-02
  1.1740633e-02
 -9.7372364e-03
  1.2471068e-02
  2.1220767e-05
 -1.1784811e-02
  1.6428672e-02
 -8.1033371e-02
 -3.1431797e-03
  1.6724545e-03
  1.7589855e-03
 -7.7682638e-01
 -2.8743343e-02
  1.5905214e-02
 -9.2188977e-03
 -2.2100848e-03
  2.7879239e-03
  7.5212773e-04
 -2.7436819e-03
 -2.1882517e-02
 -2.2518214e-02
 -1.9076933e-03
 -5.3179385e-03
  1.9220801e-03
 -2.0102009e-03
 -2.4630090e-02
  2.3274894e-03
  3.8686721e-03
  2.6486025e+00
  1.3275729e-02
 -3.4384648e-03
  1.2968734e-03
 -1.4495321e-02
 -1.7677342e+00
  5.6334949e-01
 -2.4749870e+00
 -1.5755734e+00
  7.4129313e-01
  8.6410522e-01
 -9.3751866e-01
  1.3270771e+01
  2.6045749e-01
 -3.2318285e-01
  4.4670305e+00
 -3.4046853e+00
  1.0552326e+00
 -3.9474979e-01
  3.6624355e+00
  3.4399140e-01
 -3.0768327e-02
  4.7660533e-01
  2.2391512e+00
  2.4620247e+00
 -4.8334527e-01
 -3.4914775e+00
  2.0494895e+00
 -5.1048017e-01
 -1.9532363e+00
 -4.4331611e-03
 -4.1652017e+00
  2.0295744e+00
 -7.3006904e-01
 -4.2969680e+00
  1.3592207e+00
  6.5346780e+00
 -3.7001035e+00
  5.6408730e+00
 -4.1368869e-03
  8.3599911e+00
  3.6151090e+00
 -1.8682321e+00
 -3.1360898e-02
  2.1430426e+00
 -6.3327065e+00
 -2.3105876e+00
  1.0015302e-03
 -7.3866402e-03
 -1.5842941e+00
 -5.2958623e-02
 -2.2184087e-02
  1.6669072e-02
 -1.4148385e-02
 -1.1427916e-02
  2.7344456e+00
  2.0392697e-02
  6.9220578e-03
  9.3038781e-03
  7.7306002e-01
 -3.6315110e+00
  2.1905656e-01
  7.5583503e-02
  1.7866918e+00
 -5.3732104e+00
 -9.8074728e-01
  3.2089243e+00
 -1.4368507e+00
 -2.8100715e+00
  1.2096117e-01
 -4.7195175e-01
 -2.0245712e+00
  3.0640569e-01
  7.8052938e-02
  8.2213459e+00
 -6.8004310e-01
  5.3470960e+00
 -3.7152090e+00
  1.3349211e+00
  4.4082069e+00
  1.2243185e-03
 -1.1328076e+00
  9.5962250e-01
  5.5670476e-01
 -1.4425711e-01
  1.2536941e-02
 -4.9602909e+00
 -2.8143241e+00
 -5.6212741e-01
  2.2716150e+00
 -3.0577922e+00
  5.6300479e-01
 -1.0561910e+00
 -3.3706949e+00
  2.9612455e+00
  1.4942757e+00
  3.9270380e+00
 -2.2671323e+00
 -3.9025290e+00
  1.8963772e+00
  1.0302151e+00
  5.0210661e-01
 -2.2328076e+00
 -8.4424847e-01
  6.5936537e+00
  2.8580585e-03
 -2.2827435e+00
 -3.3515778e+00
 -6.5922926e-05
  3.1398308e-02
  1.0630633e-02
  1.1978117e-02
 -5.6706104e-02
  9.2778085e-03
  3.6119660e-03
 -6.2774238e-04
 -5.9460020e+00
  1.4107868e-01
 -3.7655976e+00
  8.0121644e-03
 -1.4841716e-03
 -1.2867402e-03
  3.2401315e-03
  1.3103869e-03
 -3.7081096e-02
  2.2689300e-02
 -5.4426044e-03
 -6.8981834e-03
  1.2707175e-02
  4.5481138e-04
 -3.7900504e-02
 -2.3653631e-03
 -9.6438290e-04
 -3.9111637e-03
 -3.0934964e-03
  1.2081198e-02
 -9.7951181e-03
 -2.3384034e-03
  6.4041661e-03
  1.4260065e-02
  1.5471315e-03
  3.7346311e-02
 -1.1872883e-02
  2.0699361e-03
 -1.3339065e-02
  1.7981915e+00
  1.8789154e-02
  6.8534678e-04
 -6.8554645e-03
 -4.4353064e-03
 -5.9748854e-04
 -4.6953340e-03
  6.8703205e-03
  2.5752855e-03
 -9.5875468e-05
  6.5767113e-03
 -3.4995840e-03
  7.3261568e-03
  9.0421783e-03
  2.3008212e-02
 -1.5459512e-02
 -1.9785896e-02
  1.9099522e-02
  2.1221628e-02
 -1.9741815e-03
 -9.8527800e-03
  1.7068602e-02
  2.9815325e-01
 -1.0132560e-01
 -7.1471107e-01
  6.2466121e-01
  2.7188361e+00
 -9.8746592e-01
 -1.3739426e+00
  8.4056631e-03
 -3.1409783e+00
  2.0069299e-02
  2.4137025e+00
  7.6952755e-02
 -2.4447153e+00
  2.4960451e-01
  2.7348003e+00
  1.8876412e+00
  7.8716761e-01
 -5.6746572e-01
  4.2849261e-02
 -2.3249848e+00
 -6.1580992e+00
 -9.7519302e-01
 -1.3276182e+00
  6.4784038e-01
  1.4713472e+00
  4.9589767e+00
 -2.3168538e-02
 -3.1754451e+00
 -2.0880499e+00
 -6.0816351e-03
  3.9066517e+00
  6.5909824e+00
  2.0387621e+00
 -4.1077099e+00
  1.4550219e+00
  5.8276206e-01
  3.0444760e+00
 -1.7607597e-01
 -1.2336257e+00
 -1.5072511e+00
 -6.6159326e-03
 -1.7523427e+00
  2.3643610e+00
 -8.2224065e-01
 -3.3941492e-01
 -2.1573238e+00
  1.1028749e+00
  1.8207805e+00
 -1.5020408e-01
  1.8996771e-03
  7.0097023e-01
  1.8042365e-02
  6.5654598e-02
 -1.8941416e-01
 -2.9266921e-01
 -1.1016792e+00
  3.2428496e+00
  8.5814381e-01
  3.8528852e+00
  2.4662305e-01
 -5.4666090e-01
 -3.9898896e+00
  5.7258124e+00
  1.3940130e+00
  1.5247082e+00
 -1.8853887e+00
  3.0757401e+00
 -1.8768568e+00
 -7.2820640e+00
  1.9151931e+00
 -1.1718966e+00
 -1.0096767e+00
  2.7719641e+00
  1.0224487e+00
 -5.0314837e+00
  1.9519323e-01
 -1.8905295e+00
 -3.4207077e+00
 -1.2541214e+00
 -6.7710443e+00
  1.0664219e-01
 -3.8644147e-01
 -2.3547397e+00
  2.5045279e-01
 -7.7220540e+00
 -3.1296840e+00
  2.6711342e+00
 -8.0153332e+00
  2.5338910e+00
  3.0335209e-01
  3.5378172e+00
 -1.0035259e+00
  6.9393657e-02
 -1.0137279e+00
 -1.0299638e-01
  1.8257619e+00
 -1.6258079e+00
 -1.2335285e+00
 -2.8301880e-01
  3.0953808e+00
  6.7907842e-03
  4.3141012e+00
  2.5804567e+00
 -2.2485456e-01
  8.3026332e-01
 -4.9040145e-03
 -2.5293906e+00
 -7.4252748e-01
 -2.3936104e-02
 -5.6747900e-04
 -1.4890599e-02
 -5.4170620e-03
  2.6919740e-01
 -2.6175352e-03
  1.6011864e-02
 -2.0368002e-01
  3.5429376e-01
  1.0700911e-02
  1.1047376e-04
  3.2111488e-02
  4.8950780e-02
  4.4556749e-03
  9.9586330e-02
 -1.9734856e-02
  3.0017607e-02
  5.4059704e-03
  6.0470076e-03
  8.2703065e-03
  1.0723913e-02
  4.3571447e-03
  1.6691420e-02
  1.1224865e-01
 -3.9901962e-03
  4.8901271e-02
 -8.3033247e-03
 -5.1138038e-04
  4.9651104e-01
  3.2998748e-02
  2.6052186e-02
  1.3436075e+00
 -1.3688259e-01
  1.1671925e-01
  3.3345909e-03
 -6.1018597e-03
  2.0176349e-02
  1.7025826e-02
  1.1981862e-02
  2.1104200e-02
  3.5632052e-02
  8.3696723e-02
  2.1426629e-02
  8.9680236e-03
 -6.0774409e-03
 -1.8191476e-03
 -5.8303894e-03
 -3.9576087e-03
 -8.0809165e-03
 -2.5606221e-03
 -3.2158031e-03
 -4.7220052e-03
  8.3348120e-04
 -3.1735358e-04
  2.1936395e+00
 -1.6312350e+00
  2.3706477e+00
  4.5696753e-01
 -4.2060113e+00
 -1.9765627e+00
  8.5731387e-01
  7.1167177e-01
  3.4583960e+00
  1.0269868e+00
  4.8782131e-01
 -2.7745757e-01
 -3.2692342e+00
 -2.8974453e-01
 -1.3158170e+00
 -1.1029435e+00
  4.2932072e+00
 -3.0766861e+00
  3.5705738e+00
  9.8804288e-02
 -2.9585922e+00
  1.1742301e+00
 -1.7233049e+00
  2.9306090e+00
  4.3241698e-02
  2.8412130e-01
  1.4245281e+00
  1.9644380e+00
 -1.6066040e+00
 -4.2137504e+00
  6.3482982e-01
  1.8505206e+00
  3.5711393e+00
  2.1029234e+00
  3.3255885e+00
 -4.1112843e+00
 -6.3109045e+00
 -6.0184205e-01
  1.1651869e+00
  3.3502296e-02
  9.5686847e-01
  2.0203505e+00
 -1.8081344e-03
  8.8457596e-01
 -1.3071222e+00
  8.8051075e-01
 -3.1341818e-01
  6.2628871e-01
  2.1411026e+00
  1.1812563e-03
  7.7932680e-01
 -1.0221202e-02
  1.9573279e-02
  1.8489210e-02
  1.1418449e-02
 -4.8711328e-03
  1.1831819e-02
  2.0027350e-01
  3.9180103e-01
 -4.7691236e-04
 -7.5910449e-02
 -1.2078053e-02
 -4.7840938e-02
 -8.9206100e-02
  7.2196727e-03
 -1.3115241e-03
 -9.0192147e-03
  6.6991313e-05
 -1.3356229e-02
  2.9042835e+00
 -7.6072118e-03
  2.7308175e-02
 -1.6577328e-02
 -3.0567260e-03
 -8.2638877e-04
  1.0443425e-03
 -9.1360761e-03
 -1.4260619e-02
 -2.4488315e-03
 -1.4702625e-02
  2.1374363e-02
  1.1728902e+00
 -6.0828170e-03
 -2.3420045e-02
 -6.8522728e-04
 -1.9291665e-02
 -2.4866501e-02
 -1.8319309e-03
  1.1937172e-03
 -2.9107628e-03
 -1.0119514e-02
 -1.8604197e-02
  2.3027424e-02
 -1.3594773e-02
 -2.5393143e-03
 -2.1362022e-02
  1.5159557e-02
 -2.9733442e-02
  7.5021358e-03
  1.1775955e-03
 -7.8834809e-04
  1.1329850e-02
  2.6045512e-02
  6.3627891e-02
 -1.3581273e-02
  3.6598768e-03
 -5.7890522e-03
 -5.5920891e-04
 -1.5103319e+00
 -1.2449148e-01
 -1.2100186e+00
 -1.4283214e+00
 -1.9637779e+00
  5.3463155e-01
 -1.2825553e+00
 -7.6139498e+00
  2.1403956e+00
  2.0330860e-01
 -3.6700949e-02
 -7.9056853e-01
  1.0039327e+00
 -9.0249136e-02
 -3.8498265e-01
 -8.5195247e-03
 -6.6606140e-01
 -1.1957818e-01
 -8.2521260e-01
 -2.0038848e-01
 -1.5591295e-01
 -6.7199075e-01
 -6.5642864e-01
 -1.0227369e+00
 -1.1593639e-02
  4.9752515e-02
  2.6806889e-02
 -3.3165846e+00
 -3.3049351e-01
 -1.7605531e+00
  9.9959977e-02
  2.4224815e+00
  4.1872616e+00
  1.3643003e+00
 -5.7253295e-05
  5.2599609e-01
 -2.9524865e+00
  3.0552154e-02
 -4.1232405e+00
 -1.1535230e-01
 -4.2324901e-02
  8.3018190e-01
 -4.1562570e-03
  1.3678410e+00
  8.4610768e-03
  1.5236391e-02
 -1.3578983e-03
  3.0862367e+00
 -4.4031426e-01
 -1.8616764e-02
 -2.0778537e-02
 -4.6969382e-03
  2.7185660e-02
  1.6741761e+00
  4.2581840e+00
 -2.3879991e+00
 -3.6059555e-01
  4.3436594e+00
  7.1716875e-01
  5.3311090e+00
  4.5286436e+00
 -3.6643090e+00
  3.1089485e+00
  2.6389520e+00
  2.8456552e-02
  1.8350028e+00
  1.6416414e-01
  4.1662897e-03
  2.0252140e+00
  5.0634599e-01
  1.4883975e+00
 -2.5565829e-03
  2.1569862e+00
 -1.2379987e+00
  4.2974210e-01
  4.2815909e+00
  1.0528804e-01
 -4.5393472e+00
  4.5511026e+00
  2.5687330e+00
  2.7340429e-03
  4.5341706e+00
 -1.6176079e-01
  2.8157282e+00
  1.7132701e-01
 -6.9854202e+00
 -1.6085735e-01
 -1.1340321e+00
  1.9059054e+00
  3.0320897e+00
 -1.2976159e+01
  1.3285936e+00
 -5.8103740e-01
  6.4964175e+00
 -3.2621319e+00
  1.7231122e-01
  1.4376343e+00
  5.1703614e-01
  6.0620368e-01
 -3.1097617e-03
 -4.3352949e-03
  7.7027250e-03
 -2.3564436e-02
  4.8636580e-03
 -1.1722912e+00
 -2.0732688e-02
 -8.7250955e-03
 -4.0995744e-03
 -2.3887429e+00
  4.0455544e-01
  1.8999864e+00
 -5.3591037e-01
  6.8489707e-01
 -1.1537621e+00
 -2.3444152e+00
 -5.7008028e-01
 -1.0371103e+00
 -2.5095584e-02
 -7.2715437e-01
  4.6250969e-01
 -1.0835751e-02
  1.1737285e-03
 -2.7809136e+00
  2.2828262e-02
 -6.2965918e-01
 -4.9344962e-03
 -1.2739572e-01
 -1.2565029e-01
  3.8892454e-01
 -2.6999996e+00
 -2.3509870e-01
  9.9926814e-02
  3.2147036e-03
 -1.0966070e+00
  2.7830088e-01
  2.4020472e-01
 -2.0392952e+00
  7.0465291e-01
  5.7527723e+00
 -1.2742610e+00
  8.0563359e-02
 -6.3650727e-01
 -5.1351941e-01
  1.1223450e+00
 -1.8069280e-02
  3.5306460e-03
 -3.8402286e-01
 -2.3390486e+00
  1.7485206e-01
 -5.3078085e-01
 -2.6200520e-02
  1.9140588e-01
  6.5895403e-03
  4.4837472e-01
 -6.5295817e-03
 -3.6896922e-02
  7.0116341e-01
  3.5544338e-03
  1.0346337e-02
  7.7813203e-03
 -2.4285471e-02
 -1.7738262e-02
 -5.4516788e-03
  2.4235859e-03
  1.8967463e-02
 -6.0727587e-03
 -3.3233024e-02
 -1.9076909e-04
 -9.5905503e-03
 -6.9964887e-03
 -3.7152688e-03
  2.0831714e-03
 -2.9322770e-03
 -4.0987022e-03
 -1.8094188e-02
  1.6548897e-03
 -6.4762123e-03
  2.7553728e-03
 -6.9301641e-03
  9.4319659e-04
  8.1009157e-03
  5.2452683e-03
  2.6246647e-03
 -6.8847043e-03
  5.9487675e-03
  7.6345508e-03
  1.0631665e-02
  1.2187680e-02
  4.1671139e-03
  2.7960697e-02
 -2.9223314e-02
 -1.6990325e-03
 -1.9772204e-02
 -4.2542554e-02
 -1.2108563e-01
 -1.4972658e-02
  5.2708127e-03
 -1.7222069e-02
 -4.3415044e-02
 -8.8948840e-03
 -4.2217281e-02
 -4.2435116e-04
 -8.7658465e-03
 -1.8039925e-02
 -6.8622315e-03
 -1.4178847e-03
  1.3354085e-04
 -6.0335646e-04
  2.0080595e-03
 -1.1483244e-02
  1.1123106e-02
 -6.8671415e-03
 -4.7024372e-03
  1.5908381e-02
 -1.1158788e-03
  7.1055396e-03
  8.1822641e-02
 -8.9351851e-03
  2.0485129e-02
 -5.3559444e-03
 -8.2653143e-02
  1.3272529e-02
 -4.7297572e-04
  1.2325691e-01
 -1.8837811e-02
 -2.8866499e-03
  4.6996954e-03
  4.2864773e-03
 -3.0751843e-03
  2.2309436e-02
  5.0127124e-03
 -3.6327704e-03
 -1.0648719e-03
  3.8046488e-03
 -1.4480889e-02
 -6.1138282e-03
 -1.1786078e-03
 -7.8709815e-03
 -5.3124537e-04
 -1.1688046e-02
 -4.2077820e-03
  1.7269136e-02
  2.4864569e-03
 -1.3191411e-03
 -2.5339673e+00
  8.7454226e-03
 -3.9311573e-03
 -9.5470920e-03
 -2.6680124e+00
 -2.0285064e-02
 -9.6374634e-04
 -3.3556256e-02
 -1.8897967e+00
  1.6356926e-02
 -3.8755655e-03
 -7.3897988e-03
 -4.1520214e-03
 -4.4216122e-03
 -2.0890288e-02
 -2.6396776e-03
 -1.3687381e+01
 -3.9124731e-03
  9.7065568e-03
  8.4714387e-03
  6.8074511e-03
  5.3876587e-03
 -5.2891718e-03
  5.1406026e-02
 -3.7294177e-03
 -7.4523375e-03
 -1.4577707e-02
  1.6796705e-03
  1.0747229e-03
 -3.6833046e-03
 -1.0287006e-02
  5.6391973e-03
  8.9734535e+00
 -2.1705924e-02
 -8.6061686e-05
 -6.1153295e-03
 -3.8427389e-03
 -3.0941067e-03
  1.4280959e-03
 -3.7185343e-03
  6.3278031e-01
 -1.0520703e-02
 -4.4410271e-03
 -8.1235897e-03
  3.6304306e-02
 -8.5284626e-03
 -3.7895676e-03
  2.0180887e-02
  8.0906888e-03
 -5.7000536e-03
  7.0094732e-03
  1.3214942e-02
 -6.7843059e-03
 -2.3393135e-03
  2.4045098e-01
  1.0144390e-02
  1.9971829e-02
 -2.3135035e-03
  7.4047786e-03
  2.3369391e-02
  1.4986771e-02
  2.3110149e-02
  3.0177378e-03
  3.4321225e+00
  2.1394780e-02
 -2.2379905e-03
 -2.2491906e-03
  2.3698010e-02
 -1.8074759e-04
  1.9997988e-02
  8.0218408e-03
  2.1988435e-02
  3.0394872e-03
 -1.7681945e-02
  3.2320709e-03
  9.7908061e-03
  2.0899145e-02
  1.7831840e-02
 -6.6917571e-03
  2.5409602e-02
  1.2305443e-03
  1.8663144e-03
  2.5644815e-03
 -1.6416174e-03
 -8.2009882e-02
  1.7107604e-03
 -3.3663607e-03
  1.1135068e-02
 -8.8308603e-03
 -3.8856636e-03
  1.8273327e-03
  2.3786849e-03
  2.3659846e-02
 -3.0633636e-02
 -4.4681854e-04
  1.3840583e-02
  6.4679573e-04
  1.8621554e-03
 -6.5517247e-02
 -4.1378653e-03
  6.5746752e-04
  1.1521082e-02
 -8.9508062e-04
 -2.6810514e-02
 -6.2461770e-03
 -1.6775925e-02
  8.2006846e-03
  5.7434551e-03
 -9.6700914e-02
 -1.2040659e-03
 -9.5977597e-03
 -1.5931092e-02
 -8.9355165e-01
 -5.7986872e-03
  4.6332148e-03
  7.8623975e-03
 -2.2181377e-02
  4.8622712e-03
  1.3979855e-03
 -1.1396987e-03
  1.2146357e-02
  4.6128873e-03
 -7.2265612e-03
 -1.1330897e-03
  5.0134803e-03
  1.5337626e-02
 -4.0968219e-03
  1.3965674e-02
  1.4489206e-02
  1.8405998e-02
 -7.6334639e-03
  4.3202811e-03
 -2.0719494e-04
  5.2859881e-03
 -1.2453720e-02
  1.2440849e-03
 -7.7500544e-04
 -7.5911568e-03
 -8.1461537e-01
  3.1479504e-02
  1.5804698e-03
  3.7849998e-01
  1.2098150e-03
  1.4480501e-03
  1.7206660e-02
 -6.2143221e-03
 -1.9511052e+00
 -3.4059475e-03
  8.5493494e-03
 -1.2387808e-02
  1.3033669e-02
  9.2540741e-01
 -2.8224070e-02
  2.6101442e-03
  3.5750843e-04
  1.2474477e-02
 -2.2278696e-03
  1.5663215e-03
  4.3887496e-03
 -6.0668667e-03
  2.7020555e-03
 -3.6446387e-03
 -3.8214663e-01
  1.3849136e-03
 -1.3110848e-02
  1.7852972e-04
 -5.7830739e+00
  3.2689471e-03
  3.5733458e-02
 -2.4311837e-02
  8.1039490e-03
 -4.7924914e-03
  4.4090077e-03
  8.5314276e-04
  1.3496242e-02
 -1.9522963e-02
  1.9530835e+00
  3.3482634e-03
 -1.2650930e-02
 -1.7475993e-03
 -5.4442505e-03
  3.1793313e-03
 -3.8797278e-03
 -1.6019348e-02
  3.3219285e-02
 -1.6119669e-04
  9.2146127e-03
 -1.6990030e-02
 -3.2364082e+00
 -7.7248693e-01
 -2.4522312e+00
 -4.3876605e+00
 -6.8477073e+00
  6.1530441e-02
  1.1363871e+00
 -3.7961376e+00
 -2.0239086e+00
  2.3774428e+00
  3.8578063e-02
  2.5729434e+00
 -5.9405440e-01
 -4.2661510e+00
  6.1322870e+00
  2.3153052e+00
  1.8463365e+00
 -1.8563054e+00
 -5.0187993e+00
  6.9960570e-01
 -4.1443896e+00
  4.5030616e-02
  2.8579307e-01
  2.0983167e+00
  3.8785273e-01
  3.2105517e+00
  3.4849725e+00
  7.0839894e-01
 -1.6280390e+00
  2.2555523e+00
 -1.0455322e+00
 -3.5215470e-01
 -2.2573088e-01
 -4.6611896e+00
  9.1910243e-01
  6.1061186e-01
 -1.2447776e+00
  6.1259979e-01
  5.9652867e+00
 -2.5948048e+00
  1.4274586e+00
 -2.0484109e+00
  5.2631009e-01
 -4.1195542e-02
 -1.0147224e-02
  4.9925828e-03
 -2.3552572e-02
 -2.2218320e+00
  3.4566398e+00
  1.6739607e-02
  8.5902697e-04
  1.4065383e-02
  2.0567654e-02
  7.0179906e-04
  2.6553571e-01
  2.0509017e+00
 -6.3155544e-01
  4.1077453e-01
 -1.4331925e+00
  1.9417799e+00
  1.0702381e+00
  1.6115917e+00
  1.1689314e+00
 -2.4464151e-01
  5.3561193e-01
  2.5979730e-01
 -7.5919718e-01
 -1.7699838e-03
  1.0128525e-01
 -1.6522290e-01
 -2.0606334e+00
  1.0278127e-02
  3.7934819e-01
  6.0011572e-01
  7.2692204e-01
  1.7234763e+00
 -1.5730509e+00
 -1.9560614e+00
 -1.2594231e+00
 -7.2992802e-01
  3.8144121e+00
  1.2898467e+00
  2.2768655e+00
  4.2232909e+00
 -1.5781792e+00
  1.5874676e+00
  4.8613567e+00
 -1.1435704e+00
 -1.0020661e+00
 -1.0759936e-01
  3.9358833e+00
  2.0121975e+00
 -1.5894993e-01
  3.4070485e+00
 -2.1609879e-01
  9.5397377e-01
  9.7350252e-01
 -9.8078692e-01
  1.5085706e-02
 -6.2560773e-01
  3.0790466e-01
 -2.8937843e-02
 -3.4212358e+00
 -1.1868358e-02
  3.3935118e-02
 -3.9733187e-03
  1.0390562e-01
 -7.4645230e-03
  1.1988394e+00
 -1.7168077e+00
  4.1718855e+00
 -1.4727060e+00
  7.8773516e-01
  7.8839993e+00
  3.4731894e+00
 -2.1906872e+00
 -4.2450352e+00
  1.4414084e-01
  1.9326452e+00
  4.5036736e+00
 -2.7802508e-02
 -1.4959973e+00
 -1.9098084e+00
 -3.6030692e-01
  1.4595987e+00
  6.6127068e-01
 -5.2005816e+00
  1.1226203e-01
 -3.7313643e+00
 -1.2690039e+00
  1.8955784e+00
 -2.0436788e+00
 -2.5860758e+00
  6.6452753e-03
  4.5573255e-01
 -2.3141670e+00
  7.4061017e+00
  9.3509567e-01
  1.5171613e+00
 -2.6974979e-01
 -5.1902494e+00
 -1.6516927e+00
  6.9670095e-03
  5.5834311e-01
 -4.0954533e+00
 -3.4118715e-01
  4.7730985e+00
  5.1988727e-01
 -3.5786220e-01
 -4.8341651e+00
  7.8212144e-04
  1.6031286e+00
  1.1448988e+00
  2.5718467e+00
 -2.6783371e-02
  3.4255533e+00
  2.7494249e+00
  4.5813732e-03
 -9.2710350e-03
 -2.3927063e-02
  1.4039468e-03
  1.6255748e-02
  1.0304950e+00
  2.4115222e+00
 -2.6611069e-01
 -8.1167690e-02
 -4.8496113e+00
 -1.9620088e+00
  5.3401029e-01
 -9.0845454e-01
  9.2921267e+00
 -4.5093751e+00
  5.5592575e+00
  3.6770409e-01
 -2.3866861e+00
  1.6973369e+00
 -1.6887473e+00
  2.1261148e+00
 -9.0983333e-03
  2.8486600e+00
 -3.0742710e+00
  2.2158616e+00
  3.6616805e+00
  2.3992262e+00
 -4.3967152e-01
 -8.9619551e+00
 -1.0109473e+00
 -4.1343689e+00
  4.8014203e-01
 -5.2014251e+00
  2.3733420e+00
 -6.0447421e+00
  1.3250297e+00
 -9.2675247e+00
 -1.1367565e+00
  1.2330753e+00
 -4.0057602e+00
 -6.8200982e-01
 -9.9663985e-01
 -3.7292862e+00
  1.1712424e-01
 -9.4964609e-02
 -1.8156047e+00
 -2.7765589e+00
  2.8259897e+00
 -1.9528811e+00
  2.4123101e+00
 -2.5186698e+00
 -5.8902299e-04
  1.2629294e+00
 -3.2848761e+00
  1.4358279e+00
  2.0653680e-03
 -8.7494904e-05
 -8.6876106e-01
 -6.0724479e-04
  1.9343867e-03
  9.5938863e-03
 -8.7178135e-03
 -1.0254218e-02
 -1.9357659e-01
  8.2059605e-03
 -9.9648964e-03
  4.8705512e-03
 -3.9000340e-02
  9.5244087e-03
 -1.7812926e-02
 -4.2862617e-03
 -8.5889073e-03
  3.1669780e-03
  6.6566914e-03
 -1.3093468e-02
  9.9842204e-03
 -3.6847845e-03
 -2.5058404e-02
  2.1893455e-02
 -1.8993840e-02
 -1.2993229e-02
 -9.8025752e-03
  2.9929580e-02
 -7.2245457e-06
 -5.0009466e-03
 -2.3212614e-02
 -5.8622696e-02
 -4.6679828e-01
  3.6713667e-03
  4.8260354e-03
 -1.8676501e-02
 -1.0702069e+00
 -4.5789432e-02
 -4.3660910e-03
  9.8774964e-03
 -4.1708318e-03
 -7.9203537e-04
 -1.3581299e-02
 -3.7052191e-04
 -2.1081857e-02
 -4.0135435e-03
 -4.6474878e-02
  8.9789480e-03
 -2.2308417e-03
 -2.6082192e-03
  3.4001884e-03
  6.9307107e-03
 -2.1074232e-02
 -3.1284383e-03
  1.5824428e-02
  5.8578933e-03
 -3.0446406e-03
 -2.8039200e-02
  1.1202368e+00
  6.5989614e-01
  2.9016705e+00
  2.9931420e-01
  2.4632113e+00
  5.1178603e+00
  1.7596568e+00
  1.0582696e+00
 -6.3742561e+00
  6.0867375e-01
  5.2368004e-02
  1.7356485e+00
 -5.0425977e-02
  3.7422851e-01
  2.0080288e-01
  5.0218158e+00
  1.7852925e+00
 -2.2788064e+00
  8.7897682e-01
 -3.7774360e-01
  3.7033775e+00
  1.0371341e+01
  4.9970436e+00
  3.0961080e+00
 -3.6629326e+00
 -1.3746952e+00
 -1.0291074e+01
  1.0164179e+00
  2.5231044e+00
  5.4823732e+00
  4.5770335e-01
  9.6824491e-01
 -1.3205471e+00
 -5.1054225e+00
  3.1593459e+00
 -6.1386150e-01
  1.2578452e+00
  7.3592877e-01
 -4.5881770e-03
 -4.4370136e+00
  1.2147193e+00
 -8.0909830e-01
 -4.3553886e+00
 -9.9269730e-01
  3.3938956e-01
 -1.6733679e+00
 -2.9145388e-02
  7.8761719e-02
  8.9808065e-01
 -1.7616179e+00
  9.7498965e-01
  8.3323754e-03
  1.7777160e+00
 -5.7009333e-03
  7.9057083e+00
 -1.8850704e+00
 -3.2623143e+00
 -3.0973049e-02
  1.6176064e+00
 -7.4123945e+00
 -1.1873810e+00
  9.3859738e-01
  3.4754142e-01
  1.5686758e-02
 -3.5656244e-01
  9.6925870e-02
 -6.5894705e-01
 -2.4949005e-02
 -3.0397894e+00
 -2.1545777e+00
 -1.3647996e+00
 -3.9225903e+00
 -2.8870163e+00
 -2.0739099e-01
 -3.7756141e-02
 -2.3167403e-01
 -1.3435207e-01
 -2.4238099e-01
 -3.4560204e+00
 -6.1663947e+00
  9.1482991e-01
 -3.6647594e+00
  4.4335611e-02
  1.4165449e+00
 -8.7821126e-01
 -2.3950684e+00
 -3.0134258e-01
 -5.6061548e-01
 -9.7780645e-01
 -5.6926680e-01
  2.2908583e+00
 -8.7513728e-03
  1.4861229e-01
  2.6006932e+00
 -9.4728881e-01
 -4.6730989e-01
 -1.6001402e-01
  1.5666457e+00
 -3.7653916e+00
 -2.4205442e-01
 -1.3317659e-02
  3.5019419e+00
 -1.2566175e+00
 -7.9920009e-02
 -6.8208136e-02
 -2.6859853e-02
 -1.5971310e-02
  8.6933363e-04
  8.3826454e-03
 -2.4028515e-02
 -6.0552664e-02
  1.8318840e-03
  3.3842722e-01
  2.7180645e-03
  2.4640566e-02
 -2.3985596e-02
  1.1255116e-01
  8.7218583e-03
 -2.1897625e-02
  1.5489343e-03
  1.0232038e-02
  6.0564396e-03
  3.7176728e-02
 -1.7293352e-03
  2.7766339e-02
 -2.1339485e-02
  2.9900344e-03
 -3.6690249e-03
 -5.7400845e-04
 -5.3093610e-03
  6.5612614e-02
 -1.6402497e-03
  3.6020692e-02
  3.5992661e-03
  4.2324606e-03
  1.7518735e-02
  1.1366481e-02
 -4.6783214e-04
 -1.2827162e-03
  4.3626418e-03
  1.5818458e+00
 -1.1603660e-02
 -6.0767182e-03
 -1.2672515e-02
  2.1840627e-03
  2.9342799e-03
  1.3923528e-02
  4.3880931e-01
 -2.3876235e-03
  6.1851591e-03
 -5.8260295e-03
 -3.7534500e-03
 -5.7050753e-03
 -1.3947230e-02
  2.9469436e-02
  9.7063584e-03
  2.3787173e-03
 -4.1291048e-03
 -1.1072445e-02
 -1.0274365e-02
  5.2628499e-03
 -8.7619983e-03
  1.7363153e-02
 -4.4736385e-04
 -1.8769342e-02
 -2.7550161e-03
 -1.5009874e-01
  7.8188712e-03
  7.0587131e-03
  1.8248886e-02
 -1.4596119e+00
 -5.2744769e-03
 -1.2932049e-02
 -1.0433995e-02
  3.6578856e-03
 -2.1841508e-04
 -1.3995329e-02
 -1.5643029e-04
 -2.6432643e-02
  2.1350186e-02
 -1.9237876e-02
  4.0551071e-04
 -9.9547475e-04
 -2.1373153e-02
 -5.6444144e-01
  1.5782516e-02
 -6.4542787e-03
  3.7084084e-03
 -2.8821789e-03
 -2.1387404e-02
 -6.3270919e-02
  1.0059533e-02
  2.3173198e-02
 -1.3595716e-02
 -1.2689657e+00
 -4.0729180e-02
 -2.9495634e-02
 -9.4154608e-03
 -9.1185914e-03
 -3.2079604e-02
 -2.0292605e-04
 -1.2815781e-02
 -8.2367063e-03
 -2.8452317e-03
  3.0085624e-03
 -3.8535122e-03
  2.2665339e-02
 -5.6941193e-03
 -2.3133999e-02
 -3.0533441e-03
  1.0931784e-02
 -7.5824838e-03
  2.3401477e-03
 -3.3029377e-02
  1.0604324e-02
  2.1264893e-03
 -2.2212105e+00
 -5.9300077e-01
 -4.8423734e-01
 -3.7625406e+00
 -3.0103347e-01
  4.1749854e+00
 -5.2755980e+00
  6.9791108e-01
  8.3041048e+00
 -1.9134638e+00
  1.6917485e+00
  2.3067689e-01
  2.5878689e+00
  2.8749350e-02
  2.4935660e+00
  1.7931335e+00
 -4.0585790e+00
  2.1429093e+00
 -3.1997102e-01
 -3.9934434e-02
 -1.6180290e+00
  8.2702541e-01
  4.3297093e-02
  5.5033827e+00
  3.2764561e-02
 -4.0792075e-01
 -7.8943178e-02
 -3.2427604e+00
  7.6851430e+00
  3.9547641e+00
  2.6316535e+00
 -1.3527479e+00
 -5.2801208e+00
  1.9472656e-01
  1.8343169e-02
  1.1000779e-01
 -8.8468752e+00
 -1.3123405e-02
  1.7544131e+00
 -2.3364620e+00
 -3.6019559e+00
 -1.4289153e+00
 -6.4077065e-03
 -3.1682566e-01
 -1.0900927e-02
 -2.0308305e-01
 -6.5052980e-03
  5.0222412e-02
  1.5638970e-02
 -2.2981714e-02
 -7.6944202e-01
 -6.9583654e-03
  4.4167060e-03
 -5.1660314e-03
  1.2108068e+00
  6.1971658e-01
  4.2053565e-01
  2.3641961e+00
  2.0022309e+00
  9.3090647e-01
 -1.4767079e+00
 -1.0085402e+00
  6.7326283e-01
  3.0721352e+00
  3.8978538e-01
 -1.0608234e+00
  2.0905004e+00
  1.3029305e+00
  5.7263179e+00
  2.2040582e+00
  1.9984517e+00
 -4.3789086e+00
  2.1455300e+00
 -2.0489843e+00
 -6.5603800e+00
 -2.8764322e+00
 -2.6791525e+00
  7.0275335e+00
  1.2896803e-01
 -2.9536989e-01
 -1.9578400e-01
 -5.1759219e+00
 -5.5069432e+00
 -1.6083128e+00
 -1.2271985e+00
  3.9894903e+00
 -5.1710570e-01
 -3.3170173e+00
  5.6141174e-01
  9.7639990e+00
 -2.1181557e+00
 -1.7748396e+00
 -8.0024166e+00
  2.6968699e+00
  1.5800086e-01
  3.3166227e+00
  5.6648049e+00
  1.5876704e+00
  4.7757735e+00
 -1.9844856e+00
  8.1072712e+00
  3.1685252e+00
 -1.2596376e+00
 -1.8652764e-01
  3.2939994e+00
 -8.4364098e-03
  9.5633194e-02
  3.1201398e+00
 -2.8034346e-02
 -5.7992577e-03
  1.3561891e+00
  6.4051072e-03
 -3.8140821e-01
 -1.2947069e-02
  1.8721516e-01
  5.2782349e-02
  2.9093101e+00
 -5.3685308e-01
 -1.5625698e-02
 -2.0483535e-02
 -1.0562913e-02
  5.0428603e-03
  1.3769186e-02
  5.6164837e-03
 -7.0325425e-03
  1.0592829e-02
 -3.6015347e-02
  1.4822198e-03
  1.3110599e-02
  1.9472120e-02
 -3.2519821e-02
 -1.9638820e-03
  1.3687572e+00
 -2.8802261e-02
 -1.7516671e-02
 -5.3679254e-03
 -7.4165314e-01
 -6.9637876e-03
  7.7755302e-03
 -3.6207855e-02
 -1.3415034e+00
  1.9439785e-03
 -3.1973994e-03
 -5.5753808e-03
 -5.5545410e-03
 -3.4560263e-04
 -2.6732998e-04
 -3.1458205e-03
 -1.4869474e-02
  5.3235525e-03
  3.7521613e-03
 -1.2457736e-03
 -1.0743078e-02
  2.1219924e-03
  2.5985723e-03
  4.5266524e-03
  1.3075218e-02
  1.2976484e-02
  3.1561812e-03
  4.4400911e-03
  5.9944168e-03
 -1.4203231e-02
 -1.0567962e-01
 -4.2971554e-03
  1.4406226e-03
 -6.8202041e-02
  1.6567547e-02
 -8.9581814e-03
  3.5155997e-01
  2.1311178e+00
  2.8567907e-01
 -1.8340809e-02
 -1.6309356e-04
 -9.5053846e-03
 -1.5880304e-03
  9.2304242e-04
  1.4568218e-03
 -2.7100819e-03
 -3.9417729e-02
  2.6953847e-03
  4.0974868e-03
  6.1703715e-03
  3.6254790e-02
  7.9014748e-01
  4.2315427e-02
  9.8542623e-02
  9.8831328e-03
  2.0231411e-02
 -7.6929713e-04
  1.4036057e-02
 -6.4537406e-01
  2.7478517e-03
 -2.0507560e+00
  7.2994143e-01
 -5.7840381e+00
 -2.9409541e-02
  3.8555192e-03
  7.1238796e-04
 -3.9265331e-02
  5.1147942e-03
  5.4297363e-03
  1.0665930e-01
  2.0176193e-02
  8.9822352e-02
  1.3729629e-02
  2.6337877e-02
  2.4037991e-02
  5.7011750e-04
  9.2084557e-03
 -1.6642885e-02
  6.3050180e-03
 -3.8872596e-02
 -3.7837822e-02
 -3.7936682e-03
  1.2692636e+00
  6.8441359e-03
  1.2120370e+00
  1.0656958e-02
  1.4066565e+00
  1.8583056e-01
 -7.2358912e-01
 -1.4707748e+00
 -1.2731918e+00
 -6.9408426e+00
  2.3769827e+00
  4.6361842e+00
 -2.1477551e+00
 -3.3695481e+00
  2.7546530e+00
 -7.0348287e-01
  3.0418596e-01
  6.1561670e+00
 -7.5963295e-01
  3.7421362e+00
  1.0155396e+00
  2.5210805e+00
 -2.5082488e+00
 -2.4394796e+00
 -1.4795303e-02
  1.3593875e+00
  1.6821194e+00
  2.6767075e+00
  5.4801197e+00
 -3.3572845e+00
 -9.7545862e-02
  1.2272152e+00
 -1.4768602e+00
  2.4727771e-02
  2.3739125e-01
 -9.6837533e-01
  3.2806702e+00
 -2.5627275e+00
 -7.4760449e-01
  1.0756025e+00
  6.0174429e-01
 -1.0239437e+00
  2.5450497e+00
 -3.0709059e+00
 -8.8970655e-01
 -2.4185225e-01
 -1.4130799e+00
 -3.3283334e+00
 -1.1240850e-01
  6.8856150e-01
 -4.9335356e+00
  1.0093642e-02
 -2.9942298e-01
  1.0340742e-02
  1.2468594e-01
 -4.2770668e-03
 -3.9228518e-02
 -5.5909193e-01
  5.4502553e-01
 -4.7314444e-01
  3.4975767e-02
 -1.3575042e+00
  1.5579291e-01
 -1.6179949e-01
  3.2240458e+00
  2.1433318e-03
 -5.8893561e-03
  1.3304040e-03
 -1.6820902e-01
  1.6105527e-02
 -7.1015162e-03
  9.2203412e-03
 -4.0395323e-02
 -1.5350028e-03
 -4.3290351e-02
  2.3649873e-03
 -4.4942111e-02
  4.8124567e-03
  2.5921068e-04
  8.3012182e-01
  1.9811310e-02
 -3.6971415e-03
 -2.4812031e-03
 -9.2611514e-02
 -6.4730179e-01
 -1.6705038e-01
  2.5594792e+00
 -4.6382371e-02
  7.4770749e-02
 -7.7175394e-02
 -3.4880547e-03
 -2.9829308e-02
 -4.1056145e-03
 -3.5307292e-02
 -3.4219582e-02
  5.5672032e-01
  9.8016173e-02
 -2.6192162e-02
 -1.0195272e-01
  5.2419084e-01
 -5.1592657e-04
 -5.6144982e-03
  1.1084761e-02
  3.0840589e-03
  1.2297497e-02
 -3.8166931e-03
  1.7739080e-02
 -8.5692927e-03
 -3.4750362e-03
 -9.2127854e-03
 -1.8189813e+00
 -6.2362486e-01
 -7.6792860e-01
  4.8015907e-02
 -7.1386617e-01
 -7.6762313e-01
 -3.5031562e+00
 -5.8151406e-01
  2.1769869e-01
 -8.3729755e-03
  1.1818844e+00
 -1.4954125e+00
  3.3396938e+00
  5.9980799e-02
 -9.9885803e-01
 -3.4678897e-01
 -7.2183657e-01
  4.7593551e+00
 -2.3769705e+00
 -1.7966782e-03
 -2.0183022e-01
 -3.5338018e+00
 -7.7207291e-01
  1.8797914e+00
 -1.1640816e-02
 -1.6253415e+00
 -7.7302381e-03
 -6.2716899e+00
 -1.0783079e+00
  2.1000884e-02
 -2.3925546e-01
 -2.0864451e+00
 -1.3069112e+00
  1.9573070e+00
 -9.5153415e-01
 -1.3074783e+00
 -7.3353142e-01
  1.7943356e-02
 -3.1874821e-01
 -1.4205670e+00
 -1.2777050e+00
  1.6593841e+00
 -2.3487285e-01
 -1.0312629e-02
 -3.3663946e-01
  6.2046235e-04
  3.7032474e-02
 -5.4291440e-03
 -6.9461691e-01
 -3.2041100e-01
 -7.8823346e-01
  1.4170820e-02
  5.7108146e-03
  2.2127309e+00
 -2.2056878e+00
  2.3478553e+00
 -2.7953105e+00
  5.1475126e-01
 -9.8324662e-01
 -1.5160616e-01
 -2.6053028e+00
  4.5338812e-01
 -8.6892527e-01
 -3.6271443e+00
  3.9329515e+00
 -1.3770041e+00
 -2.6629879e+00
  6.4489454e-01
  1.9488139e+00
 -3.8293936e+00
 -3.2909265e+00
  3.3459826e+00
  8.3471304e-01
 -3.8810716e+00
 -3.3803699e+00
 -1.9456007e+00
 -7.9995179e-01
 -6.7907177e-02
 -2.3419104e+00
  3.0428987e+00
  6.0136646e-01
  4.9567690e+00
  1.5293539e+00
  3.2721517e+00
  1.9896845e+00
 -3.6847746e+00
  3.4151552e+00
  2.7003461e-01
 -2.6532114e+00
  7.9817123e+00
 -2.3321138e-01
 -2.9912755e+00
  3.3205969e+00
  3.3569250e-01
  1.5562174e-02
 -2.9054236e+00
  2.6780450e+00
  2.8150530e+00
 -4.6702862e+00
  3.6378298e+00
 -1.9326308e-01
 -9.0026182e-01
  5.2427607e+00
  1.2672623e-01
  4.8991639e-02
 -1.4815639e+00
  4.7594079e-01
 -4.1937075e+00
  2.1993949e+00
 -1.2131717e+00
  1.4465510e+00
  5.9350157e-01
 -2.5074249e-02
  1.9554408e+00
 -1.1802200e+00
 -9.2833161e-02
  3.1630832e-01
 -4.7700334e-01
 -6.2809306e-01
  1.5810446e+00
  3.6575603e-01
 -9.1527033e-01
 -6.9030166e-01
  3.5134637e-01
  2.3715365e+00
  2.2606485e+00
 -1.1566914e+00
  4.6678670e-03
  3.7503486e+00
 -2.5588307e-01
 -1.3108478e+00
  4.8140350e-01
 -1.5807210e+00
 -3.5263115e-01
 -2.2821801e+00
  1.4022733e+00
 -1.2034733e+00
 -3.1647580e+00
  5.5324681e-02
 -1.0149393e+00
 -1.1096926e+00
 -8.2583986e-02
 -1.2746009e+00
  1.2469376e-01
 -5.6149416e-02
  1.1376815e+00
 -8.3347589e-01
 -7.0709693e-01
  4.1745907e-01
 -1.6880580e+00
 -3.5256453e+00
  2.0318748e-01
 -2.9235566e+00
 -1.4004927e+00
  4.9162996e-03
  4.3720829e-01
  2.4564685e-01
  8.6787924e-02
 -6.6677296e-01
 -7.8459438e-03
  2.7848276e-01
 -1.2433439e-02
  2.7711579e-01
  1.2914650e-03
  7.4495645e-03
 -1.5468567e-03
  1.6261930e-02
  5.0079171e-04
 -1.2971770e-02
 -1.2241237e-02
  1.1972249e-02
  8.9192076e-04
  2.3621808e-04
 -1.6989296e-02
 -6.2193838e-05
 -3.1226363e-03
 -8.0312490e-03
 -1.0028679e-02
  2.7489476e-04
  1.4200199e-02
  9.9992938e-03
  9.2835248e-01
  1.7526411e-03
 -1.1150131e-02
 -1.3603327e-02
  1.2017244e-02
 -1.9822379e-04
  1.5975925e-03
  4.7591129e-01
  6.7502782e-03
 -1.2309023e-02
 -7.0441831e-03
 -1.6517781e-02
 -2.2187484e-02
  3.7569581e-03
 -3.5176700e-04
 -3.2067690e-02
  2.7852613e-02
  9.8238233e-04
 -1.3119747e-03
  1.1180463e-02
 -2.1974973e-02
 -2.9377034e-02
 -1.1685055e-02
  3.5875786e-02
 -6.0317758e-03
 -4.1531841e-03
 -2.4784403e-03
  7.7095819e-03
 -4.0284497e-01
 -1.8672619e-03
 -5.3254533e-01
  1.3991297e+00
 -2.0246384e-01
 -6.9110477e-03
 -5.6944452e-03
 -3.6325297e-01
 -3.4014452e-02
  2.9590625e-02
  1.0968135e-03
 -1.5848863e-03
  1.0203460e-02
  2.5014775e-03
 -2.5002602e-03
  2.0596351e-02
 -1.8720837e-02
 -8.6171553e-05
 -1.3557421e-02
 -4.8259972e-03
  3.7818797e-02
  5.2117486e-03
 -3.5904139e-01
 -2.5285953e-03
  4.8930664e-03
 -1.8256796e-03
 -3.2312438e-01
 -5.2921955e-02
  7.2763395e-03
 -6.6635855e-02
 -1.1412286e-02
  5.5607349e-02
  1.0333706e-03
  1.8295828e+00
  2.2945870e-02
  9.8918076e-04
 -8.4827915e-03
 -6.1747571e-03
  3.1653937e-02
 -1.9591536e-02
 -2.3344012e-03
 -2.8985739e-02
  1.3144644e-02
  2.0714338e+00
  4.9195485e-03
 -4.0260199e-03
 -7.2901011e-03
 -1.3558419e-02
 -2.4065768e-02
  9.6119354e-03
 -1.2545997e-02
  7.9600764e-03
 -2.7501048e-04
  2.0662053e-02
 -1.4053080e+00
 -4.6725897e-03
  1.5958948e-02
  1.1341721e-03
 -7.2581852e-03
 -1.8493092e-02
  1.4013967e-03
 -2.0403118e+00
 -4.5996564e-03
  3.7789810e-03
  9.5995935e-03
  6.3920766e-03
 -6.7041456e-03
  3.4431769e-03
 -1.1810724e-02
 -1.1347321e-02
  7.1974384e-04
  2.6691919e-02
 -1.5409054e-02
  7.9060029e-03
  4.0520364e-03
  4.9759401e-03
 -4.9166707e-03
  4.6539796e-03
  4.1798054e-04
 -3.5816343e-03
 -6.6218674e-02
 -7.4486337e-03
  8.0059218e-01
  2.7367724e-03
  4.9055079e-03
  4.0234279e-04
 -2.0283493e-03
 -3.4558269e-01
  9.6980296e-03
 -3.1296094e-03
 -4.8082275e-03
 -9.6001336e-03
  4.3702360e-02
  9.0325961e-04
  9.9431642e-04
  2.9917203e-03
 -5.7482114e-03
  3.9705388e-02
  7.5552552e-03
  4.8406813e-03
 -1.3296212e-02
  3.5014693e-03
  3.7031062e-02
 -1.7404832e-02
 -5.4501775e-03
 -1.4949284e-02
 -5.5340272e-03
 -4.9190274e-03
 -6.7034608e-01
  6.5586157e-03
 -2.4527304e-02
 -1.3250776e-02
  1.5874823e+00
  1.2452038e-03
  4.6170852e-03
 -1.2058659e+00
 -1.6024357e-02
 -4.3564602e-03
  5.7494559e-05
  1.6966332e-03
  3.7015430e-03
 -4.4327113e-05
  8.0120750e-03
  1.0572341e-02
 -1.0799243e-03
 -1.7365729e-02
 -5.6788232e-04
 -1.1433224e-03
 -5.2886717e-03
 -4.4770665e-03
 -1.3377819e-03
 -1.5690152e-02
  7.1232775e-03
  2.5907853e-03
 -8.2412444e-02
 -1.6411985e-03
 -7.2835274e-03
  1.3089410e-03
  1.3150962e-02
 -1.0466281e-03
 -3.3944692e-03
 -4.4399068e-01
  8.4456755e-03
  1.0892495e-02
 -3.1295794e-03
  3.4719971e-03
 -6.2789838e-03
 -1.0581841e-03
  4.1590452e-02
  4.2038071e-03
 -1.8897440e-02
 -2.7232366e-03
 -1.6299440e-03
 -1.6462767e-02
 -5.5743959e-03
 -6.7531283e-04
  1.7181749e-03
 -3.9082458e-03
 -2.9531015e-02
  3.2323129e-03
  6.4967154e-03
 -2.0374737e-03
  4.1260719e-01
 -6.5672830e-02
 -4.6412442e-02
 -2.2139058e-03
  7.8947282e-01
  3.7053126e-01
  6.0513115e-01
  1.0377308e-01
  2.2601858e-02
 -1.4356358e-03
  4.5821234e-03
 -1.3794882e-02
  6.3464507e-02
  2.0144922e-03
 -4.8277015e-03
 -1.4183141e-02
  1.9218805e-03
 -2.2212747e-03
 -1.4246847e-02
 -2.5752738e-01
 -2.6975054e-02
 -2.1124527e-02
 -1.2325722e-02
  3.5680197e-03
  8.8057260e-04
  3.8213639e+00
 -1.9795263e-02
 -7.1315123e-03
  4.6762303e-02
  8.0787111e-04
 -2.3005605e-03
 -5.7363342e-03
  1.5117157e-02
  1.5376858e+00
  4.2997533e-03
  1.1398630e+00
 -1.4278905e-01
 -1.3823043e-02
 -3.1262908e-02
  1.8095618e-02
  5.9356042e-03
  3.0980143e-04
  5.9968472e-01
 -8.3489181e-04
 -1.9262610e-02
 -5.8103297e-03
 -2.9788294e-01
 -7.1797650e-03
  4.9466253e-03
  4.7352806e-02
 -8.9318017e-03
 -8.2535855e-03
  2.8597465e-02
 -4.8849607e-01
 -4.8321698e-02
  3.2479441e-01
 -2.6547158e-01
  3.5900655e-01
  1.4459147e+00
  1.3456419e-01
  9.5549542e-01
  1.3775065e+00
  2.1082542e-03
 -8.2646936e-01
  9.8925012e-01
  5.0988656e-01
 -4.5928009e-02
 -7.2567254e-01
 -2.7091560e-01
 -8.2872733e-02
 -4.4309506e-03
 -1.1984724e-01
 -6.1970312e-02
 -3.1508490e-01
 -1.6464910e-01
 -9.5854308e-03
  6.5106623e-02
  2.3302495e-02
  2.6696682e+00
  7.0738560e-01
 -9.6959841e-01
 -5.6310928e-01
  1.1469682e-02
  1.8667598e+00
 -2.0902729e+00
 -1.6858673e+00
 -9.0723711e-01
  2.2344317e+00
 -2.8974134e-01
  7.7695751e-01
  9.1259736e-01
  8.4851533e-02
 -9.4887275e-01
  2.0944719e+00
 -2.6695106e-02
 -1.2104144e+00
 -2.3821735e-01
  5.2309620e-01
 -3.4709975e-01
  1.4715177e+00
  7.1061927e-01
 -6.7148246e-02
 -1.9250879e-01
 -2.1253121e-03
  7.0019299e-03
 -2.3873165e-02
  4.4482085e-03
 -1.2316218e-03
 -4.4572387e-02
  5.1001613e-03
  6.0399282e-03
 -2.9723036e+00
 -6.0769860e-03
  1.1437789e-03
  5.6533869e-03
  1.1053643e+00
  8.3761876e-03
  9.6700685e-03
  6.9826092e-03
 -1.3392902e-04
 -2.3995214e-03
  3.3537273e-03
  2.2513002e-02
  5.3673191e-04
 -5.8899443e-03
  2.3798251e-03
  4.9354788e-03
  6.0328571e-03
  2.1429539e-02
 -1.5853419e-03
  5.7032087e-04
  1.7274872e-03
  2.7422218e-03
  5.2395924e-03
  7.6826899e-03
 -3.6223882e-03
  1.8794272e-02
 -8.1988210e-03
 -4.7204625e-03
 -1.1748083e-02
 -8.1297588e-03
 -7.0676990e-03
 -1.2386320e-02
 -1.2528198e-04
 -1.2072872e-02
 -3.6187295e-03
 -6.3933544e-03
 -7.2846888e-03
 -2.2287395e-02
 -1.4134629e-03
  1.2009992e-02
  1.1349678e-02
  4.8301909e-03
  2.7880385e-03
  5.7483635e+00
  1.3086214e-03
  3.2534259e-03
  7.9532759e-03
  3.0363165e-03
 -4.6915930e-02
  9.0129487e-03
  3.5242248e+00
 -5.2128786e-01
 -8.7835652e-01
  2.5974065e-01
 -1.0635592e-01
 -9.7280346e-02
 -1.8008582e-01
 -3.1972000e-01
  7.4178472e-02
  3.8798738e+00
 -2.0035348e+00
 -8.6096209e-03
 -7.3887840e-02
  1.0249697e+00
  8.5891858e-03
 -7.6884955e-01
  5.8612685e+00
  4.5437846e+00
 -1.0419726e+00
 -2.0050390e+00
  2.6813271e+00
  2.0650005e+00
 -1.0130844e+00
 -1.0455521e-02
  9.1566211e-03
  3.0673242e+00
  8.7161474e-03
 -2.5088551e+00
 -1.1904784e-01
  1.5971197e+00
 -5.3919241e-02
  1.5248126e+00
  4.5177884e+00
  1.7868439e+00
 -3.1045139e+00
 -4.5972681e-03
 -4.3870811e-03
  3.0273623e+00
  4.1384525e+00
  1.0728562e+00
  1.9358568e-01
 -1.9335714e-03
  3.0696578e-03
  1.5065163e+00
  2.9330634e-02
 -2.4835873e-02
  1.3059024e-02
  3.7810400e-02
 -1.5784647e-02
  3.6407954e-01
 -2.7803639e-03
  3.4329388e-03
 -8.0740927e-03
  6.9664698e-03
  1.9760395e-03
  5.1539028e-01
  2.4711518e-02
 -5.3552436e-03
 -1.8374805e+00
 -5.9657972e-03
 -2.0609612e-02
 -1.0364671e-03
  9.1352934e-01
  1.1969429e-03
 -3.4408334e-03
 -6.9009373e-05
  5.0940865e-04
  1.3769218e-02
  2.6243021e+00
  2.9403244e-03
 -1.3851672e-02
 -4.3244092e-03
  2.5976158e-03
 -2.2616975e-03
 -4.6774372e-04
 -3.0713210e-02
 -3.2877731e-03
  1.2656890e-03
  1.6074136e-03
  7.6810491e-01
 -2.9542729e-02
  1.0193235e-03
 -5.2166125e-03
 -1.5768824e-02
 -1.2588901e-03
  2.7539762e-02
 -9.8853596e-03
 -2.9912123e-02
  6.5596867e-01
 -8.6977100e-03
  3.6149170e-02
  1.1252354e+00
 -7.4958461e-03
  1.1189103e-02
 -7.0249881e-03
 -3.2367106e-03
 -1.3353250e-03
  6.9899005e-03
  5.6530042e-03
 -4.2266888e-03
  1.9933254e-02
 -1.4433118e-02
 -6.1757630e-03
 -4.8052650e-03
 -1.0114663e-02
  1.3774175e-03
 -1.1147022e-02
 -3.1352881e-03
  4.3550696e-02
 -1.8797274e+00
  1.3802919e-01
  3.1819699e+00
 -8.3576280e-01
  1.0115846e+00
  5.4452401e-01
  4.1033044e+00
  1.1548368e+00
  5.1763266e-01
 -4.0868443e-01
  7.8383915e-02
  8.9999819e-03
  6.0697742e-02
  5.8585629e-03
  1.3053016e-01
  1.1067031e-02
  2.1190137e-02
 -2.3056019e-02
 -1.8263861e+00
 -8.7002227e-03
  6.4085252e-03
 -1.3773450e-02
 -1.1430256e-02
  1.7946692e-02
 -9.4028845e-02
  9.0982113e-03
 -1.5148285e-01
 -2.1589619e-01
  1.5959572e-02
  1.7431006e-03
 -5.7110798e-01
  7.8979162e-03
 -1.1955586e-02
  1.2731322e+00
 -1.1313263e+00
 -2.2228040e-02
 -1.7363845e+00
 -1.0713812e-01
  5.6223807e+00
 -3.2276660e-02
  9.7659506e-02
  1.3338254e-02
 -1.1893795e+00
  2.2340392e-01
 -6.8964185e-03
 -7.5888685e-03
  5.6915004e-03
  3.6510117e-03
  2.8823432e-02
 -4.3451693e-03
  2.5239434e-02
 -1.6934647e-03
  2.6386932e-02
  1.0905609e-02
 -1.6534196e-02
 -6.0311570e-03
  3.5146198e-03
 -6.2859459e-03
  2.5487831e-04
 -3.0748706e-02
 -4.8960363e-03
 -4.7161436e+00
 -3.4298862e-03
 -1.6828293e-02
 -2.0686438e-02
  1.4924633e-02
 -7.4410909e-01
 -4.3941401e-03
  6.2254458e-03
  1.9281862e-02
 -3.1549396e-04
 -2.4573668e-04
 -1.6160103e-02
  1.1224395e-02
  1.7414406e-02
  2.5636989e-03
  8.8598747e-03
  4.5453897e-03
 -3.5973329e-03
  7.1123280e-03
  1.8090341e+00
 -8.6163552e-03
 -2.6475156e-02
  4.6417471e-03
  2.0001770e-03
 -2.4682735e-03
 -1.4176643e-03
  8.6051393e-03
  1.9605972e-01
 -1.6530378e-02
  9.1561880e-03
 -4.0791910e-03
 -3.0003209e-04
 -4.5663882e-03
 -3.1408616e-03
 -1.7667547e-02
 -1.9875698e-02
 -8.9096688e-03
 -1.5433873e-02
 -2.8162252e-02
 -9.2740627e-03
  7.6749837e-03
 -1.0518119e-02
 -7.5648273e-03
  2.2668417e-03
 -2.5029838e-02
 -4.5592198e-03
 -8.4247673e-01
 -1.0198270e+00
 -2.0017436e+00
  2.3696930e+00
 -4.0361091e-01
 -9.2488390e-01
  6.7567758e-02
 -4.0462317e+00
 -5.7684177e-01
 -1.2671143e+00
 -1.0280170e+00
 -6.6861570e-01
 -7.2867888e-01
 -3.2061753e+00
 -2.0702000e+00
  1.1862102e+00
 -3.4533832e+00
  4.4306335e-01
 -5.2968993e+00
 -1.8065963e+00
 -9.0242654e-02
  1.1468610e+00
  3.8840787e+00
  5.4461610e-01
 -5.3708520e+00
 -1.4103462e+00
 -1.3287615e+00
  7.9270083e-01
  2.5483289e+00
 -3.9257890e-01
 -8.2250589e-01
 -2.5080142e+00
  4.4554430e-01
  5.0645541e-02
  6.7493623e-01
 -3.6211903e+00
 -9.6575350e-01
 -1.5878631e+00
 -1.1345763e+00
 -2.8076899e-01
 -1.9543848e+00
  9.3966480e-03
 -1.4676884e+00
 -2.9452053e-01
  1.4531087e+00
  2.0855853e-01
 -4.3103876e+00
  6.9002301e-01
 -1.3544086e+00
 -3.8379097e+00
  2.0748358e-02
