nep4 3 B C N 
cutoff 8 4 414 46
n_max 8 8
basis_size 12 12
l_max 4 2 0
ANN 50 0
 -9.0663588e-01
 -6.5005940e-01
  6.9025421e+00
  2.9879262e+00
 -1.7812457e+00
  5.1771176e-01
  9.0231514e-01
 -1.8724735e+00
  7.6655679e+00
 -3.4352012e+00
  3.2154348e+00
  4.6496543e-01
  1.3070716e+00
 -3.5554872e+00
  1.2308757e+00
  7.5538292e+00
  9.1608219e+00
 -1.5580113e-01
  6.3011417e+00
  4.3555536e+00
  2.6998627e+00
 -2.9976585e+00
 -1.3275115e+00
 -9.1165066e-01
  1.0495934e+01
 -5.1519070e+00
  5.8012098e-01
 -2.2841640e+00
 -7.6157589e+00
 -3.7204187e+00
 -1.2079911e+00
  2.0044346e+00
 -2.8771193e+00
 -3.8337760e+00
 -7.7538404e+00
 -5.9138961e+00
 -2.6695306e+00
  1.2751077e+00
  3.3959897e+00
  7.4455204e+00
  7.4588161e+00
  1.7787150e-01
  7.2597589e+00
 -1.8319851e+00
  1.4788110e+00
 -2.5396256e+00
 -1.2677299e+00
  4.5239825e+00
  5.9680182e-01
  2.8749173e+00
 -4.7200670e+00
 -4.6378489e+00
 -9.5974598e+00
 -2.1490040e+00
  3.0217819e+00
  6.0817285e+00
 -8.6745012e-01
  4.1106896e+00
 -1.0526199e+00
  7.6044116e+00
 -6.7302613e+00
 -7.8127980e-01
  1.9547873e+00
 -9.0497799e+00
 -6.8438715e-01
 -1.1276256e+00
  1.1825532e+00
  3.3569055e+00
 -2.8678982e+00
 -3.4621592e+00
 -2.2324243e+00
 -5.2204113e+00
 -2.6037662e+00
 -1.1035627e+00
 -2.2346897e+00
  3.6391265e+00
 -8.3896059e-01
 -2.4933782e+00
  4.3605381e-01
  7.7627033e-01
 -2.7805338e+00
 -1.0748304e+00
  1.1051267e+00
  1.8900197e+00
  3.5222769e-01
  9.1619658e-01
  1.0975957e+00
 -1.5221115e+00
 -1.3298072e+00
 -7.9007912e+00
  4.5004267e-01
  4.1812577e+00
  4.7069830e-01
  3.1443772e+00
 -3.4618912e+00
  3.6109371e+00
  2.3415678e+00
  3.8871450e+00
  3.0263329e+00
 -3.6154893e-01
 -2.6136181e+00
 -1.0448176e+01
 -2.0800114e+00
 -3.2775967e+00
  7.0697629e-01
  4.3993020e-01
 -2.7992373e+00
 -3.1243205e+00
  1.5055175e+00
 -6.3253007e+00
 -2.7506647e+00
 -6.8453711e-01
  4.8997178e+00
 -1.6647567e+00
 -9.0128222e+00
 -8.4905374e-01
  5.0921798e+00
 -3.2841449e+00
 -2.4149451e+00
 -4.8500996e+00
 -1.0473655e+00
  2.7999928e+00
 -3.7437254e-01
 -3.0757537e-01
  9.5601857e-01
 -9.9457639e-01
  6.7425995e+00
 -9.2582893e+00
  3.7580497e+00
  7.9846630e+00
 -1.5851330e+00
  2.2079575e+00
  2.0860927e+00
 -7.7353315e+00
 -1.9611232e+00
 -3.6538258e+00
  2.2331619e+00
 -5.7743776e-01
 -3.3488698e+00
 -1.8615694e+00
  3.9821227e+00
 -7.7040285e-01
  4.2619905e+00
  2.0083866e+00
  2.5270619e+00
 -2.0058802e-01
  1.4506859e+00
 -5.3142629e+00
  3.5914505e+00
  3.4927871e+00
  2.8579948e+00
 -8.9174881e+00
  7.1388674e+00
 -1.9676206e+00
 -2.9146409e+00
 -5.2284718e+00
  9.2063427e+00
 -3.8214500e+00
 -1.4503162e+00
  7.1466669e-02
  7.8754735e-01
 -3.6951996e-02
 -1.3589686e+00
 -6.5749083e+00
 -3.4100637e+00
  2.5985992e+00
  1.0043346e+00
 -6.8027825e+00
 -2.7908196e+00
 -2.0606809e+00
 -2.6763186e+00
  4.3837495e+00
 -1.5913404e+00
 -3.2978952e-02
  2.7814558e+00
  7.0118195e-01
 -8.2611618e+00
 -1.3610873e+00
 -1.0279180e+01
 -5.3801913e+00
  4.1078730e+00
  3.5509505e+00
  9.6710949e+00
  1.0099642e+00
 -1.6784711e+00
  5.5352559e+00
  3.0360832e+00
 -7.4352294e-01
 -4.6755695e+00
 -6.1735660e-03
 -7.0644798e+00
  1.2118747e+01
 -7.2958288e+00
  8.3649322e-02
 -3.5238876e+00
 -8.7747663e-01
 -8.5289106e+00
 -6.4948783e+00
 -8.1250019e+00
 -8.2903490e+00
 -3.9305382e+00
  7.5144881e-01
  3.5833397e+00
 -5.9780211e+00
  4.4495549e+00
  4.4391246e+00
  2.0517440e+00
 -6.3380480e-01
  1.1766162e+00
 -3.9725748e-01
  8.8422626e-01
  1.3329481e+00
 -5.1099892e+00
  3.8054562e-01
  2.6834080e+00
 -6.1073928e+00
 -3.0803733e+00
  4.2363081e+00
  9.5791063e+00
  2.7405112e+00
  2.1421499e+00
  1.7257426e+00
  3.6989546e+00
 -3.5258448e+00
 -9.2153578e+00
  1.8340078e+01
 -5.6843829e-01
 -6.5923899e-01
 -5.8622565e+00
  1.4637431e+00
  8.0849257e+00
 -1.3194804e+01
 -3.4593914e+00
 -5.5583587e+00
 -2.3231740e+00
 -4.2463188e+00
  1.4952288e+00
 -3.0753717e+00
 -1.8740129e+00
 -1.0441432e+01
 -2.1448150e+00
  6.0068908e+00
 -2.9058862e+00
  1.5561411e+00
  1.2571073e+00
 -3.8043749e+00
  7.1480322e+00
 -5.9516788e-01
  2.7117157e-01
  8.0059737e-01
  4.4127264e+00
 -8.5445938e+00
  5.1900659e+00
 -5.6173348e+00
  6.7469859e-01
 -2.3687243e+00
 -5.8223081e+00
  2.4099739e+00
  5.1134419e-01
  5.1419334e+00
  2.6276979e+00
  7.0827675e-01
  2.8367355e+00
 -4.5944052e+00
 -4.9842629e-01
  4.2673006e+00
 -1.8674060e+00
  8.2703078e-01
  1.9500595e-01
 -3.5650473e+00
  9.5234680e+00
  9.3084812e-02
 -4.9369268e+00
 -7.0695400e-01
 -3.3583047e+00
 -3.2916899e+00
 -4.8717701e-01
 -1.2587667e+00
  2.5891614e+00
 -1.7925467e+00
  5.3053827e+00
 -6.0253534e+00
 -5.5440907e+00
  1.6114635e+00
 -7.1314675e-01
  8.1060070e-01
 -5.0603147e+00
 -1.9720935e+00
  3.9362795e+00
 -4.1597857e+00
 -3.2293739e+00
 -1.3976140e+00
  3.7792001e+00
  4.8611884e+00
 -3.7052784e+00
  3.0283096e+00
 -5.4620051e+00
 -4.7350402e+00
 -5.7838655e+00
 -5.7548370e+00
 -5.0307298e-01
 -8.0528641e+00
  2.8783889e+00
 -4.6645856e+00
 -1.2074614e+01
 -5.0585330e-01
 -7.3584933e+00
  7.6898599e+00
 -3.3380032e+00
 -1.2475351e+00
 -4.2487431e+00
 -3.2746778e+00
 -1.4396710e+00
 -2.2472196e+00
  6.6337862e+00
 -6.3721347e+00
 -5.4191536e-01
  4.5625296e+00
  3.8986037e+00
  1.3256534e+00
  3.9707496e+00
 -1.0492799e+01
 -4.1040931e+00
  9.5687084e+00
 -2.1821749e+00
 -2.0419693e+00
  1.4561697e+00
 -4.1277474e-01
 -1.4484054e+00
 -2.3968379e+00
  5.1529694e-01
  6.0217619e-01
  1.9218367e+00
  3.3759003e+00
  1.0921004e+00
  2.3494235e-01
 -1.1936808e+00
  7.1046732e-02
  6.8404388e-01
  3.5596962e+00
  4.4804925e-01
  1.2328596e+00
  2.7183940e+00
  1.3575535e+00
  2.5884066e+00
  3.0312753e+00
  4.0093102e+00
 -4.9517545e-01
  4.9814548e+00
  2.2096300e+00
  1.1211737e+00
  7.6692504e-01
 -2.6913283e+00
  3.2218943e+00
  2.6070726e+00
 -1.4153581e+00
 -3.5306165e-01
  2.3969004e+00
  1.5510887e+00
  6.5147889e-01
  5.2240009e+00
  6.8687451e-01
  2.3261764e+00
 -1.2860934e+00
 -3.5445991e+00
 -1.2361240e+00
 -5.2850044e-01
  4.0112394e-01
  4.8799267e+00
  6.5239143e+00
  2.9902673e+00
 -4.8632727e+00
 -5.4828982e+00
  1.4350501e+00
 -1.0785574e+00
 -4.1500216e+00
  8.1352587e+00
 -1.0405082e+00
 -4.0817118e+00
 -1.0409346e+01
 -6.3389130e+00
 -8.0926585e-01
 -1.3856859e+00
  9.6141434e+00
  5.8358073e+00
  2.5641277e+00
  1.1748130e+00
  2.2131479e-01
 -1.4752578e+00
  7.2655401e+00
 -2.9391675e+00
  4.5666695e+00
  4.5848622e+00
 -6.2363930e+00
 -7.9581661e+00
  1.1310949e+00
  3.5332708e+00
 -3.9651659e+00
  4.4213295e+00
  1.4334852e+01
  6.0681171e+00
 -3.0535920e+00
  9.6884012e+00
 -5.1382513e+00
  5.6077113e+00
  1.5785964e+00
  6.3941679e+00
  1.3986833e+01
 -7.0914154e+00
  3.9931188e+00
 -1.0771124e+00
  1.0036575e+01
  1.2104023e+01
  3.5267355e+00
 -1.3942905e+01
 -2.1798224e+00
 -8.2187283e-01
 -8.2493478e-01
 -3.2794766e+00
  2.7382948e+00
  5.8037367e+00
  3.8604727e+00
 -9.4840050e+00
  3.4884694e+00
 -5.3404360e+00
  2.6738381e-01
 -4.4644284e+00
 -4.2083936e+00
 -7.5125155e+00
 -7.8710979e-01
  6.0300231e+00
  5.7532492e+00
 -8.5589037e+00
  6.0134835e+00
 -4.1854358e+00
 -8.7636197e-01
  1.5859418e-02
 -5.5888450e-01
  2.4335700e-01
 -9.7924489e-01
  8.6879075e-02
 -4.4947877e+00
 -8.5699806e+00
 -3.7379107e+00
 -9.8746210e-01
 -3.7266004e-01
  1.7103611e+00
 -3.6220238e+00
 -1.2707410e+01
 -3.6544997e-01
  2.0839102e+00
 -5.8762875e+00
 -2.1766078e+00
  1.9378871e+00
  2.8757138e+00
 -1.7844064e+00
 -9.8818409e-01
  1.0105607e-01
  9.9930964e+00
 -1.2689817e+00
 -4.2728553e+00
  2.5431104e+00
  9.4081029e-02
 -1.6898181e+00
 -3.2110054e+00
  2.9437277e-01
 -2.4380832e+00
  1.6786387e+00
 -2.7458684e+00
 -9.8446140e+00
 -4.4436188e+00
  4.8036933e+00
  1.1097814e+00
 -4.9041131e-01
  4.9081039e+00
  8.2790631e-01
  8.0631094e+00
  5.4398060e+00
 -7.7422559e-01
 -1.9430887e+00
 -2.2829163e+00
 -5.4532647e+00
 -3.4354692e+00
 -1.8005357e+00
  1.1169900e+01
  3.7935030e-01
 -2.8689280e+00
 -1.7556235e-01
  1.1062679e+00
 -3.7031200e+00
  1.3578976e+00
 -8.8719457e-02
  7.1528306e+00
  2.3002968e+00
  1.0864718e+01
 -7.9868847e-01
 -6.4550772e+00
  4.6702948e+00
 -4.0514526e+00
 -1.6442597e+00
  6.9582109e+00
  4.3131886e+00
  8.7598443e-02
 -1.7392895e-01
  2.3693030e+00
 -2.7374923e-02
  3.9346125e+00
  4.4564894e-01
  5.5449018e+00
 -8.9016991e+00
 -7.3718557e+00
 -2.3121955e+00
 -5.8638325e+00
 -1.3634218e+00
  2.9531541e+00
 -9.5409077e-01
  4.8073564e+00
  3.6103082e+00
 -1.1086590e+01
 -8.9079952e+00
  9.8693115e-01
  6.1288204e+00
 -2.3852980e+00
 -1.4543507e+00
  3.1356366e+00
  6.2154031e+00
 -2.8982196e+00
 -2.7347569e+00
  3.0562410e+00
 -2.1561689e+00
 -1.2233121e+01
 -1.4012672e+00
 -2.2209685e+00
  6.4481721e+00
  8.3245456e-01
  3.5830534e+00
 -2.2866728e+00
  4.1568737e+00
  1.0460790e+01
 -7.8940096e+00
 -6.1493855e+00
 -1.1452497e+00
 -3.0864270e+00
 -6.4224571e-01
 -3.3743777e+00
 -3.9653928e+00
  5.2047024e+00
 -5.8813701e+00
  2.4668324e+00
  6.4675398e+00
 -1.8809753e+01
 -2.5544438e+00
 -1.0724968e+00
 -8.2028208e+00
  6.8289771e+00
  1.4040816e+00
  1.1049130e+00
  6.3867742e-01
 -9.4318314e+00
 -3.3794949e+00
  7.6721587e+00
  4.4373775e+00
  1.0325693e+01
 -7.0964348e-01
  4.2038884e+00
  2.0218462e+01
 -1.1121407e+01
  6.5946765e+00
  5.1143761e+00
 -7.8191838e+00
 -9.8245561e-01
  2.7696710e+00
  3.1231632e+00
 -1.3503718e+00
 -7.8146887e+00
 -4.3632941e+00
  2.3342161e+00
 -3.0975637e-01
 -9.7590017e+00
  1.7530339e+00
  9.6496844e-01
  1.2874492e+00
 -2.6476245e+00
 -2.5723770e+00
 -2.2370198e+00
  4.5569067e+00
 -5.8631289e-01
 -8.9064324e-01
  4.2440090e+00
 -4.2163997e+00
  3.7756352e+00
 -8.7596531e+00
 -9.2574573e-01
  5.0896150e-01
 -1.1489382e+00
  3.6885295e+00
 -2.1646543e+00
  6.6552329e+00
  7.6895700e+00
 -2.5153239e+00
 -2.5031946e+00
  2.8328629e+00
 -4.8317161e+00
  6.9558878e+00
  2.5869887e+00
 -2.5187390e+00
 -9.8043764e-01
 -4.1373262e+00
  3.1946322e-01
 -2.3113856e+00
  9.6220131e+00
 -6.3196588e+00
  8.6281669e-01
  2.8626530e+00
  4.9009752e+00
  6.0075946e+00
  3.7584269e-01
 -1.0957015e+00
 -7.6730328e+00
 -5.5185676e+00
 -7.4133658e-01
  8.2960682e+00
 -5.3050685e-01
 -9.3038540e+00
 -8.2498044e-01
 -1.2578613e+00
 -5.4531562e-01
 -2.0372889e+00
  5.4996781e+00
  1.2363543e-01
 -1.4698174e+01
  1.6298803e+00
  3.8046491e+00
 -2.0896606e+00
  3.7028050e-01
 -1.1802828e+01
 -1.0444560e+01
  4.2002039e+00
 -6.3923316e+00
 -9.2856616e-01
 -3.7106318e+00
 -6.6793733e+00
  4.5365934e+00
  1.2538931e+00
 -3.6400661e-01
  3.7826544e-01
 -3.6489916e+00
  1.2434075e+00
  4.9244723e-01
  2.6736500e+00
 -2.5082624e+00
 -4.9690631e-01
  6.4348512e+00
 -2.0030510e-01
 -1.0321258e+00
 -2.2837996e+00
  3.7053183e-01
 -4.4211202e+00
 -1.9530739e+00
  3.3598652e+00
  1.8337214e-01
 -2.2313156e+00
  2.6092465e+00
  2.6793377e+00
  5.7796025e+00
 -1.3504652e+00
  6.3934255e+00
  1.0622478e+01
  1.7695260e+00
 -3.2474477e+00
 -7.4352794e+00
 -2.3198307e+00
  1.1875684e+00
  2.0972455e+00
 -8.5488486e-01
  1.0990998e+00
  1.1188647e+00
 -8.8954420e+00
  3.1660028e+00
  3.5743124e+00
 -9.4203483e-03
 -6.4522257e+00
  2.7524011e+00
  1.5811415e+00
 -1.7335360e-01
  1.5101774e+00
 -3.3942161e+00
 -9.9546039e-01
  1.9243679e+00
  2.0988021e+00
 -1.3270016e-01
 -5.0425773e+00
  1.5282189e+00
  3.1127665e+00
  1.7029625e-01
 -7.7319390e-01
  1.5818754e-01
 -2.8698459e+00
 -4.9688859e+00
 -4.3120461e+00
 -5.4483891e+00
  4.8462377e+00
 -1.6035414e+00
 -4.9249563e+00
 -2.9458718e+00
  8.1032333e+00
 -2.8401749e+00
 -3.1106808e+00
  6.0022078e+00
 -4.6389637e+00
 -2.0090857e+00
  1.6502255e+00
  1.2559768e+00
 -4.6767340e+00
 -3.7709024e+00
 -3.4759867e+00
  3.1380520e+00
 -2.5394752e+00
 -3.8687968e+00
  3.8918075e-01
 -3.2357137e+00
  1.5027831e+00
  1.4767875e+01
 -1.1190302e+01
 -3.9832625e+00
  2.7106688e+00
 -3.5840042e+00
 -3.2015991e+00
  5.4962511e+00
 -1.0365738e+00
 -1.7903266e+00
  2.1358981e+00
 -2.8252375e+00
 -6.5237564e-01
 -1.2488526e+01
  8.7588823e-01
 -1.1414475e+01
  7.1812959e+00
  3.4805000e+00
 -5.1902828e+00
 -1.9309444e+00
 -4.5471978e+00
  1.6294553e+00
  1.6594005e+00
 -7.6299086e+00
 -4.3437948e+00
  4.1672578e+00
 -5.4586285e-01
 -5.5252881e+00
  2.1830764e+00
 -4.2505240e-01
  5.9946952e+00
  1.1464013e+01
 -9.2044964e-02
 -5.7774201e-02
  3.0960567e+00
  2.5206010e+00
  9.1438407e-01
 -1.3233212e+01
  5.6055460e+00
  1.4179765e+00
  1.2473505e+00
  6.0827989e-02
 -6.8735723e+00
 -2.8179836e-01
  2.5708258e+00
 -4.2501483e+00
  7.4857125e+00
 -3.2885826e+00
  4.5301473e-01
  2.6339147e+00
  7.0479238e-01
  8.5273647e+00
  9.7487173e+00
 -8.7105191e-01
  3.3122938e+00
  2.4380486e+00
 -6.8029904e+00
 -1.5040678e+00
  1.5563319e+01
 -2.4866261e+00
 -1.6895535e+00
  4.6854830e+00
 -4.7083302e+00
 -6.7910767e+00
 -1.2090095e+01
 -7.5590920e-01
  9.1315622e+00
 -2.0477177e-01
 -2.1484761e+00
  4.6554432e+00
  3.6785221e-01
 -2.9312468e-01
 -5.3554356e-01
 -6.7109861e+00
 -1.0952346e+01
  6.2888920e-01
  2.0903368e+00
 -2.5635486e+00
 -1.7774516e+00
 -1.8403627e-01
  1.8523672e+00
  6.2825503e+00
  2.7433989e+00
  3.5670445e+00
  5.5369940e+00
 -6.3439813e+00
 -1.1704855e+00
 -3.7834487e+00
  4.7304600e-01
  1.2337697e+00
  3.6728871e-01
 -1.8604948e-01
  2.5763968e-01
 -3.4409457e-01
  1.0348785e+00
  1.6835630e+00
  3.6657929e+00
  5.6921296e-02
  1.8677737e-01
  2.2107666e+00
  6.7093092e-01
 -4.3620425e-01
 -4.5884709e+00
 -1.0133661e+00
 -5.4222727e+00
 -3.0927656e+00
  4.3127737e+00
 -1.9541510e+00
 -6.1157422e+00
 -7.6202707e+00
 -2.6708355e+00
 -4.7127390e+00
  6.7423391e+00
 -1.5375531e-01
  6.6147280e-01
 -5.8316901e-02
  4.2561083e+00
  4.3391538e-01
 -4.3629212e+00
 -7.7291021e+00
  4.0198002e+00
 -1.9168861e-01
  4.6728239e+00
  6.0410595e+00
 -8.3595257e+00
  1.4171808e+00
 -9.6929235e+00
  3.6548319e+00
  6.8532023e+00
 -9.7189111e-01
  2.1448450e+00
 -7.9023972e+00
  1.0090075e+01
  6.7345481e+00
  6.3660556e-01
 -1.4579437e+00
  6.2643337e-01
 -3.8209586e+00
  1.1805959e+00
  5.3784299e+00
  4.6390648e+00
  3.3447354e+00
  7.4559774e+00
  3.6060641e+00
 -6.2192669e+00
 -5.7373962e+00
  3.3769262e+00
 -4.4754815e+00
 -1.4603896e-01
  5.4029174e+00
  2.5412869e+00
  1.6854751e+00
 -3.3505316e+00
 -3.2735872e-01
 -5.3607383e+00
  4.2638901e-01
 -1.9223138e+00
 -1.6025460e-01
  1.5933584e+00
  1.1591524e+00
 -6.7020969e+00
  5.0640802e+00
  5.0326471e+00
 -1.2621273e+00
 -6.1933522e+00
  9.7833800e-01
 -5.7354965e+00
 -8.1138748e-01
 -2.7375364e+00
 -1.4342989e+00
  4.8922219e+00
 -1.1852741e+00
 -2.8726399e+00
  3.4727807e+00
 -2.6185307e-01
 -5.6892353e-01
  1.3343228e+00
  1.4781357e+00
 -2.8457274e+00
  1.2692399e+00
  4.1856136e+00
 -6.5430613e+00
 -1.6217580e+00
 -5.0500438e-02
 -1.0784264e+00
 -2.4475287e-01
 -6.8801761e-01
 -1.0589272e+00
 -2.7506781e+00
 -3.8406079e+00
 -2.5435085e+00
  5.6957321e+00
  1.1744213e+01
 -3.7784390e+00
  1.3233511e+00
 -4.4823068e-01
  3.3315620e+00
  9.0769024e+00
 -7.8646284e-01
  2.0511231e+00
  2.6379671e+00
  6.3239875e+00
 -8.7977260e-01
 -1.6641145e+00
 -2.3129086e+00
  5.9824400e+00
  4.6153636e+00
 -3.9340796e+00
  8.1050854e+00
 -4.1082840e+00
  4.3017201e+00
  2.6956666e-01
 -3.2157722e+00
  1.2631908e-01
  2.7626901e+00
 -1.0139027e+00
 -1.9619498e+00
 -4.1019382e+00
 -2.6113477e+00
 -5.4164491e+00
 -1.3650981e-01
 -2.5121162e+00
  6.8248529e+00
 -2.2219352e-01
  2.0641983e-01
 -2.8278389e+00
  7.2351580e+00
  1.9540697e-01
  3.2445699e-01
 -1.3299969e+00
 -2.2674642e+00
 -4.5210919e+00
  7.2026527e-01
  3.0139027e+00
  1.0525413e+00
 -5.8538957e+00
 -1.1119397e+00
  9.0108900e+00
  2.2501845e+00
 -4.7717957e+00
  1.6324617e+00
  3.8303761e+00
  5.4118047e+00
  7.7052755e+00
  6.3166485e+00
  1.5469015e+00
  1.1259625e+00
 -1.5214169e+00
  5.9808588e-01
 -3.4317355e+00
 -7.4558705e-01
  5.9638114e+00
  2.1706703e-01
  4.7156534e+00
 -6.0001721e+00
 -7.2237782e+00
  3.9699512e+00
 -1.6249685e-01
 -5.6316490e+00
  7.2626815e+00
 -1.0558186e+00
  1.1146046e+01
  7.0245755e-01
  3.2120421e+00
  4.5729628e+00
  3.8018067e+00
  6.8193469e+00
 -9.4087124e+00
 -8.2939968e+00
 -7.4412842e+00
  2.7079413e+00
 -1.2806691e+00
 -6.3745689e+00
  2.6848288e+00
  3.5101793e+00
 -6.8835044e-01
  2.9810231e+00
  2.5880547e+00
  8.8858242e+00
  4.9904447e+00
 -1.4928613e+00
 -4.8985815e+00
 -3.1557579e+00
  2.6769123e+00
  4.5837584e+00
  1.1785607e+00
  5.7347755e+00
  3.7254767e+00
 -1.8061413e+00
 -3.1180596e-01
  9.7086644e-01
  6.9683080e+00
  6.8553549e-01
 -1.9558629e+00
 -3.0213058e-02
 -5.8368716e+00
  1.8047730e+00
  3.5128469e+00
 -6.6142697e+00
 -2.7463108e-01
  1.0099276e+01
 -1.5927573e+00
  1.1366330e+01
  7.8576469e-01
 -1.9148846e+00
 -3.7369463e-01
 -7.6951814e-01
 -3.4076834e+00
 -1.0018795e+00
  1.0009659e+01
 -4.0009184e+00
  1.0055264e+01
 -6.1515865e+00
  1.9960692e+00
  5.2199750e+00
 -3.8734510e+00
 -1.1780730e+00
  7.6161486e-01
  4.3631382e+00
 -5.6776042e+00
 -2.3265316e+00
 -4.0133924e+00
 -4.3858390e+00
  5.2120247e+00
 -1.2172049e+00
  2.5473022e+00
  2.1829016e+00
  1.0825908e+00
 -8.8353658e-01
 -3.2938929e+00
  1.7613978e+00
  2.4415550e+00
  5.8660159e+00
 -1.6504877e+00
 -6.9538159e+00
  1.6342038e+00
 -1.2637954e+00
 -2.7478361e+00
 -1.9699668e+00
 -3.8572359e-01
 -5.0256772e+00
  3.2470140e+00
  7.5387297e+00
  3.4073968e+00
 -1.5812373e+00
 -2.6496508e+00
  7.5849314e+00
 -6.1395484e-01
 -3.4826543e+00
 -4.3277497e+00
 -2.2844031e+00
  2.4871876e+00
  6.4378917e-01
 -5.8284450e+00
 -2.6307049e+00
  1.1287322e+00
 -1.5862639e+00
  3.8196080e+00
  2.4891040e+00
  1.9771538e+00
  4.6083555e+00
 -4.7757369e-01
  1.7641492e+00
  4.8183255e+00
  2.6634734e+00
 -2.9479408e+00
 -1.4893184e+00
 -1.2766364e+00
 -1.5403597e+00
  8.9595306e-01
 -7.8733644e+00
 -7.8164206e+00
 -4.7815380e+00
 -6.6786259e-01
  6.0669222e+00
 -3.6389530e+00
  4.2814851e-01
  4.3663511e+00
 -3.9289222e+00
 -2.3160930e+00
 -2.7495699e+00
  3.9689970e+00
  1.7401080e+00
  2.4372470e+00
  1.9516220e+00
  4.2121310e+00
 -1.6248107e+00
 -2.6269813e+00
 -5.1226740e+00
  5.5902348e+00
 -4.6330805e+00
 -7.0226216e+00
 -1.1955618e+00
 -6.3340406e+00
  1.4642811e+00
 -1.9111876e+00
  1.5864971e+00
 -4.9566946e+00
  1.6563029e+00
 -1.5316119e+00
 -1.5552701e+00
 -1.2173475e+00
  1.1386293e+01
  7.5225425e-01
  5.4637700e-01
  4.5553017e-01
  3.8369355e-01
 -7.4122393e-01
 -2.2722051e+00
 -3.1894245e+00
  8.5028019e+00
  1.4462836e+00
  1.2439364e+00
  3.2089760e+00
  5.8629870e+00
 -3.7547321e+00
  2.7009699e+00
 -3.5943329e+00
 -1.2289065e+00
 -1.1259221e+00
 -2.6557658e+00
  5.5281529e+00
  7.0000172e+00
  5.2137990e+00
  8.8812370e+00
 -3.8397279e+00
  5.9820318e+00
 -8.7497158e+00
  5.0242343e+00
 -3.9248290e+00
 -1.0311825e+01
  4.2454939e+00
 -2.7411778e+00
  1.3947939e+00
  3.4586316e-01
  9.1679707e+00
  1.0964070e+01
 -5.3528633e+00
  7.9185905e+00
  1.3235809e+00
 -3.2441804e+00
 -6.6742034e+00
  3.7522252e+00
  1.9531115e+00
  6.0045725e-01
 -2.5083455e-01
 -3.2226321e-01
  9.3920338e-01
 -9.0677633e+00
 -3.0249727e+00
  6.4577169e+00
 -2.7269435e+00
 -1.3394120e+01
  1.2901185e+00
  3.9327102e+00
  2.0695362e-02
 -3.1795022e+00
  5.2700222e-01
  5.2562410e-01
  3.7341106e+00
  3.9077210e-01
  3.5189074e-02
 -7.4545603e+00
  2.2421658e+00
 -4.0398149e+00
 -2.8988271e+00
 -4.6148896e+00
  1.1784741e+01
  3.6995945e+00
  2.9651305e-01
 -2.6486223e+00
  6.8887919e-01
  3.7262244e+00
 -1.0174023e+00
  1.3316059e+00
 -6.7612052e+00
 -3.7334785e+00
  4.5037336e+00
  1.1314290e+01
 -5.2110515e+00
  4.2331898e-01
 -1.6658757e+00
  1.2217865e+00
 -3.8748107e+00
 -3.9579389e+00
  1.3308902e+00
  5.7287860e+00
  1.8898468e-01
 -4.0773869e-02
  4.0175033e+00
 -4.2080493e+00
 -8.5673511e-01
 -2.3691787e-01
 -4.7744803e+00
 -2.6244352e+00
  6.5200295e+00
  4.8422260e+00
  1.7475150e+00
  5.8485045e+00
 -6.2922031e-01
 -2.2801909e+00
 -4.0459061e-01
 -4.3216887e+00
 -8.1774575e-01
  9.0988655e+00
  4.4009109e+00
 -1.0828327e+00
  2.7550569e+00
  4.0929529e-01
 -6.4072323e-01
  9.8145590e+00
  2.1886077e+00
  4.2804627e+00
  5.5188475e+00
 -4.2930832e+00
 -1.3485102e+01
  3.6946418e+00
 -1.2919544e+00
 -2.1824839e+00
 -5.2566280e+00
 -2.1964961e-01
 -2.7216339e+00
 -2.6622963e+00
 -7.0406872e-01
  9.9664992e-01
 -6.0007195e+00
  4.3283286e+00
  4.3964834e+00
  8.8131838e+00
 -8.7831497e-01
 -2.1324191e+00
 -4.0092072e+00
 -3.8894877e+00
  1.2085196e+00
 -7.7059298e+00
 -8.2214236e-01
 -5.0449312e-01
  3.0948815e+00
  1.3250039e+00
 -6.0978837e+00
  5.2137332e+00
  5.6690459e+00
 -9.7365503e+00
  3.8835230e-01
 -4.3763328e+00
  3.1317189e+00
 -3.6779187e+00
 -9.5127831e+00
 -4.3521814e+00
 -2.9558861e+00
 -2.6947162e+00
 -4.4094494e-01
 -2.6609049e+00
  1.3804568e+00
 -6.5129085e+00
 -4.7430778e+00
 -2.3754624e-01
  3.6702433e-01
 -4.8806996e+00
  8.7155081e-02
 -4.6164818e+00
  5.7467766e+00
 -4.4905233e+00
 -2.8040719e+00
 -7.4321575e+00
  2.3088298e+00
 -1.1783129e+00
  4.4454041e+00
  2.9328600e-02
  1.8605787e+00
  6.8748837e+00
  5.1840715e+00
 -1.1184302e+01
  5.1529984e+00
 -2.9125450e+00
  2.6340642e+00
 -1.6875024e+00
 -6.4992175e+00
 -5.5765157e+00
 -1.1426080e+01
  5.2842629e-01
 -2.0828474e+00
  2.5747745e+00
  1.2633941e+00
 -4.5915854e-01
 -3.4496212e-01
  4.7668430e-01
  1.3938317e+00
  3.2058337e+00
  1.5925761e+00
  5.0039506e+00
  7.2191362e+00
  1.2192453e+00
 -1.2566947e+01
 -1.1144938e+00
 -6.9412112e-01
 -4.0777140e+00
  6.1985288e+00
 -4.2280445e+00
  5.6243935e+00
  4.8662943e-01
  2.0733080e+00
 -6.1069846e+00
  8.0831728e+00
  5.8555388e-01
 -8.7876296e-01
  1.0178206e+01
  6.1325336e-01
  7.5702972e+00
 -4.9766448e-01
 -3.1050849e+00
  1.2240020e+00
  1.3251305e+00
 -4.8160332e-01
 -1.1786354e+00
 -9.3656647e-01
  3.0359883e+00
 -7.5363058e-01
  5.2362094e+00
  3.7120481e+00
  7.1324139e+00
 -6.4819992e-01
  2.3946037e+00
  1.4873165e+00
 -6.3472176e+00
 -1.8019389e+00
  5.6080980e+00
  1.1208782e+01
  2.7645719e+00
  1.4938384e+00
 -1.6411399e+00
 -5.9472480e+00
 -1.4974630e+00
 -3.6610656e+00
 -1.5452216e+00
  5.3969879e+00
  4.6123896e+00
  1.0765672e+00
  1.3141539e+00
 -4.7234201e+00
  4.1224861e+00
  4.0061126e+00
 -5.3867679e+00
  2.5936656e+00
  2.0823467e+00
 -3.2279792e+00
 -1.7870876e+00
  2.6061183e-01
  8.6434374e+00
 -3.5702450e+00
 -2.7565520e+00
 -3.8986828e-02
  2.9194295e-01
 -9.1423076e-01
 -6.4379067e+00
 -2.2729268e+00
 -5.6859249e-01
  5.8297026e-01
 -4.3961692e+00
  5.7934866e+00
 -1.6665071e+00
 -7.0559254e+00
 -3.4043133e-01
  3.8194995e+00
  2.5268495e+00
  1.2324668e+00
 -5.6320748e+00
 -4.7869987e+00
  5.8847504e+00
 -1.7467991e+00
 -3.0975902e+00
  1.2904874e+00
 -1.0599059e+01
 -1.5174812e+00
  1.9231980e+00
 -2.0286548e+00
 -8.3501081e+00
 -4.7370286e+00
  1.2085097e+00
  3.5888057e+00
 -3.0461345e-03
 -1.6803201e+00
 -4.3441463e+00
  5.6502741e-02
  1.0158256e+01
  3.2469118e-01
  7.1877475e+00
  4.2160172e+00
  1.6316520e-01
  9.6727953e+00
 -1.4671748e+01
  2.9164317e+00
  1.9873970e+00
  6.1288385e+00
  9.3626299e+00
  7.6664805e+00
 -7.4096918e-02
  5.9195751e-01
  3.6998339e+00
 -2.5966964e+00
  7.7917724e+00
 -5.5641907e-01
 -1.8299832e+00
 -4.3189228e-01
 -3.2995617e+00
 -8.2237571e-01
  1.4414564e+00
 -3.3950572e+00
  4.7063403e+00
  3.7451765e-01
  1.3029770e+00
  1.3615606e+00
  9.9264736e+00
  5.2629662e+00
 -1.8525232e+00
  8.6908493e+00
 -5.5629654e+00
 -8.5344877e+00
  6.1205089e-01
 -4.4394155e+00
  1.0024907e+01
 -5.7460752e+00
  2.0101695e+00
 -4.7547140e+00
 -7.5369048e-01
 -7.8435555e+00
 -9.9805856e-01
  8.5690212e-01
  1.9954836e+00
  1.2012658e+00
  2.7514784e+00
 -4.4161347e-01
 -2.2428687e+00
 -2.2607114e+00
  1.3602105e+00
  5.9874516e+00
 -1.5786443e+00
 -3.5403860e+00
 -2.8111188e+00
  3.5824472e-01
 -1.6995600e+00
 -3.3486466e+00
 -1.8274570e+00
 -8.5553193e-01
  3.4060740e+00
  6.1534250e-01
 -1.5983580e-01
  1.0013621e+00
  2.8621771e+00
 -2.0967820e+00
  1.6059223e+00
 -3.1419106e+00
  7.9086256e+00
 -1.8444114e+00
 -3.9698675e-01
 -5.6165237e+00
 -4.7944994e+00
  1.1029134e+01
  1.7980309e+00
  4.3691368e+00
  1.9870843e+00
 -7.2601271e+00
  2.5709057e-01
  4.3359473e-01
 -2.6614161e+00
  2.9535612e-01
  2.4606305e-01
  2.2349632e+00
 -2.5598471e+00
  1.3894019e+00
 -8.3355618e+00
 -2.2359333e+00
  4.5182481e+00
  5.4819494e-01
 -2.7387469e+00
 -2.8170931e-01
  1.9653597e+00
 -3.8052824e+00
 -2.5034449e+00
  9.5059977e+00
 -1.4755038e+00
  3.0195780e+00
  2.6675036e+00
 -2.8000469e+00
 -1.2362959e+01
 -3.8327193e+00
  4.2781930e+00
  3.6036890e+00
 -8.3365135e+00
 -4.4651837e+00
 -1.1745381e+01
  2.8138893e+00
  6.9085727e+00
 -3.1632733e+00
 -3.3998060e+00
  1.3367064e+01
  3.6295006e+00
  4.8800759e+00
  3.1881526e+00
 -8.9310064e+00
  8.1741786e-01
 -3.5064306e+00
  1.4031059e+00
 -3.3814981e+00
  2.5056307e+00
  9.2719179e-01
 -4.4039946e+00
  3.0880897e+00
  2.3940189e+00
  9.6934360e-01
  9.6142523e-02
  3.6342672e-01
  2.6363878e+00
  4.8904977e+00
  2.8479459e+00
  2.3687305e+00
  4.1903763e+00
 -2.0930440e+00
  6.6313577e+00
 -1.6379639e+00
 -4.0192552e+00
  3.9297163e-02
 -1.5987798e+00
 -8.1236792e-01
 -9.5124979e+00
 -4.3050170e-01
 -3.9998064e+00
 -5.4896295e-01
 -4.4184966e+00
 -6.5328474e+00
 -3.4048493e+00
  2.7989485e+00
  5.5933762e-01
 -5.2764521e+00
  4.8182015e+00
 -8.1862583e+00
  3.9737661e+00
  2.0721231e+00
 -2.1838930e-02
 -1.4241779e+00
  9.7538298e-01
 -2.0888789e-01
 -2.3013747e+00
 -1.8095345e+00
 -1.9473724e-01
 -1.0941111e+00
  1.0502065e-01
  3.9601626e+00
  6.7623329e+00
  1.6258434e+00
  1.1268127e+00
 -3.4781971e+00
 -6.5620770e+00
 -1.8594033e-01
 -1.4770799e+00
  7.6436648e+00
 -3.0863333e-01
 -2.1181524e+00
  2.2133651e+00
  5.4668088e+00
  1.0480114e+00
  4.9072819e+00
  3.5285356e+00
  6.9379454e+00
 -2.1241364e+00
  8.0944853e+00
  2.5183690e+00
 -1.0441914e+00
  1.8754980e-01
 -1.3547910e+00
  1.3515941e+00
  2.3103745e+00
 -1.2943122e-01
 -6.0301847e+00
 -3.2333837e+00
 -4.4920120e+00
  8.0452652e+00
 -3.1019492e+00
 -9.8046436e+00
  6.3288383e+00
 -1.5705906e+00
  1.1284622e+00
  2.1974955e+00
 -1.4695474e+00
  8.0512774e-01
 -7.3510474e-01
 -2.7215009e+00
  7.2601709e+00
 -3.2299254e+00
  6.2140341e+00
  4.2549148e+00
  1.2710323e+00
  1.4860458e+00
 -2.7036462e+00
  2.5910926e-01
 -2.3189604e+00
  7.4749312e+00
  7.4020786e+00
 -1.6688952e-01
 -1.1010868e+01
 -6.7345266e+00
  2.2069285e+00
 -1.6065475e+00
  9.5318115e-01
  6.2808661e+00
 -4.7767315e+00
  1.6630451e+01
 -8.7548703e-01
 -1.5899807e+00
 -1.8309879e+00
 -2.6884098e+00
 -6.7912898e+00
 -3.5672092e+00
 -3.5898325e+00
  7.4177444e-01
  7.8836465e-01
  7.0935621e+00
 -8.2546055e-01
 -8.6477190e-02
  2.7123114e-01
 -5.5132942e+00
 -3.0073819e+00
  7.7272210e+00
  2.7888374e+00
 -4.7551327e+00
 -1.3088653e+00
  3.6170447e-01
  2.6596491e+00
 -4.2043962e+00
 -3.8765612e+00
 -4.9686832e+00
 -2.4180276e+00
  8.6896935e+00
  1.8342872e+00
  1.9465725e+00
  2.9137754e+00
 -1.5545098e+00
 -1.0183301e+01
  3.5671288e-01
  2.7078819e+00
 -5.2527013e+00
 -2.5949430e-01
 -4.7307773e+00
 -7.7008457e+00
 -3.5681453e+00
  1.2477224e+00
  1.4588196e+00
 -6.3380241e+00
 -2.8113935e+00
 -4.4106796e-01
  2.7465966e+00
  3.3687660e-01
  3.5824509e+00
 -4.0642986e+00
 -1.4433445e+00
  2.1473524e-01
 -5.6547284e+00
  2.4178927e+00
 -3.0092025e+00
 -3.1310763e+00
  5.2673823e-01
  3.9803126e+00
 -3.9219978e-01
  5.3039126e+00
 -2.6716182e+00
  5.5355558e+00
 -1.4599924e-01
 -5.2619486e+00
 -3.6606274e+00
 -4.5873961e+00
  4.4415226e+00
  1.5253092e+00
  8.2136955e+00
 -1.6765290e-01
 -1.2411658e-01
 -6.4832826e+00
  2.4549353e+00
  1.8310670e+00
 -2.6853347e+00
  4.9400532e-01
 -4.5840812e-01
  3.7261169e+00
  3.9292023e+00
 -3.7128139e+00
  5.5391541e+00
  1.2823218e+00
  1.8452011e+00
 -1.5646428e+00
 -2.0098917e+00
  2.9629223e+00
  6.2851615e+00
  1.4979345e+00
 -2.9490051e+00
  2.1684818e+00
 -1.3142211e+00
  2.4735287e-01
 -4.2445841e+00
 -3.5315030e+00
  2.4896979e+00
 -2.0423874e-02
  1.3306860e+00
 -3.1743999e+00
  4.8434525e+00
 -1.3742733e+00
  1.0901148e+00
 -2.2566329e-01
  3.2582581e+00
 -1.1075132e+01
 -1.0791743e+00
  3.2765224e+00
 -5.2524705e+00
 -1.8618436e+00
 -1.9127294e+00
  8.4659851e-01
  5.3149980e-01
 -1.2074770e+00
 -6.6078968e+00
 -1.0596101e+01
 -2.7305348e+00
  3.9116724e+00
 -6.4674604e-01
 -8.2420540e-01
  3.5902436e+00
 -1.5282929e+00
  2.1819977e-01
  7.2449577e-01
  7.4888692e+00
  9.1294473e-01
  9.8510647e-01
  7.9561825e+00
  1.0292543e+01
  1.0887579e+00
 -2.5553300e+00
 -9.0047097e-01
  8.0581874e-01
 -8.3192978e+00
  8.9657230e+00
 -1.3754210e+00
  7.3197448e-01
 -3.2880414e-01
 -6.6128101e+00
  1.9641850e+00
  9.2277384e+00
 -3.8131695e+00
 -2.6824055e+00
 -3.4965184e+00
 -4.2225766e+00
  1.7611506e+00
 -2.3166984e-01
  4.0511403e+00
 -3.7281218e+00
 -2.7585490e+00
 -5.8479398e-01
  2.4810703e+00
  7.5176582e+00
 -1.2932494e+00
 -8.9439982e-01
  1.7646692e+00
  1.6038272e+00
  5.1108205e-01
 -1.9978101e+00
 -8.5250521e+00
  2.4133661e+00
  5.1038069e-01
 -7.5476325e-01
  1.3985995e+00
 -2.4928160e-01
  1.3127627e+01
  7.1299095e+00
  2.9102125e+00
 -3.4682231e+00
  8.8475313e+00
 -2.7003546e+00
 -1.1993906e+00
 -8.0975647e+00
 -9.7158937e+00
  2.9828405e+00
 -1.7668732e+00
  2.2290797e+00
 -4.1605048e+00
  8.4866416e-01
 -9.3464839e-01
 -1.0635541e+01
  4.1246879e-01
  7.9944096e+00
 -2.0476487e+00
 -6.3959527e+00
  2.7294726e+00
  9.8676367e+00
 -2.2456381e+00
  8.4299132e-02
 -6.6264117e-01
 -4.2075844e+00
 -2.6837678e+00
  1.7264959e+00
  4.1255159e+00
 -9.1800928e+00
  3.5464075e+00
 -1.2787361e-01
  6.5494972e-01
 -4.7264495e+00
 -4.6285853e+00
 -8.0524998e+00
 -3.8052843e+00
 -8.4329052e+00
 -1.2715148e+01
  2.1723215e-01
 -3.8503172e+00
  4.3266959e+00
  5.3178620e-01
 -2.2607462e+00
  2.4109197e+00
  9.4972153e+00
 -2.9398379e+00
 -1.2244298e+01
 -7.9292483e+00
 -1.1568501e+00
 -9.3478054e-02
  1.5452923e+00
  5.3256437e-02
  4.3691713e-01
 -3.4549606e-01
 -1.8344436e+00
  5.0041037e+00
 -7.0944381e+00
  1.9295014e+00
 -1.9088396e+00
 -1.1066718e+01
  6.5516953e+00
 -4.5371377e-01
  2.4803724e+00
 -2.0919683e+00
 -5.8502684e+00
 -7.4062057e+00
 -3.2770021e+00
 -7.8413696e+00
  1.4530307e+00
  4.6050078e-01
  1.4574663e+01
  1.9496558e+00
  1.4568481e+00
 -8.7178582e-01
  2.0525520e+00
 -7.4348674e+00
 -4.0173411e+00
 -2.1790900e+00
  6.4146624e+00
  6.3665023e+00
 -1.7557070e+00
  1.0967603e+00
  3.8036437e+00
  5.2231674e+00
  3.8161683e+00
 -1.2051276e+00
  1.8561369e-01
  6.1611527e-01
  3.3448839e+00
  1.0139397e+01
  2.0389707e+00
  8.3560014e-01
 -2.2228642e+00
 -7.7064257e+00
  8.7261877e+00
 -3.4446592e+00
 -4.0478210e+00
 -9.3819147e-01
  2.4683660e-01
 -5.1952877e+00
 -1.5702820e+00
 -4.6680522e-01
  3.1391535e+00
 -1.4799393e+00
 -5.8929739e+00
 -2.1526105e+00
  3.6052549e+00
  4.3911061e+00
  4.2395806e+00
  1.9963555e+00
  3.6414928e+00
  1.5729715e+00
 -5.3280129e+00
  1.0431349e+00
 -1.6586963e+00
  2.3084202e+00
  7.9911336e-02
  8.9907032e-01
  5.8956399e+00
 -1.4586784e+00
 -2.1739430e+00
 -7.6112336e-01
 -4.1780033e+00
 -2.4766786e+00
 -1.2354949e+00
 -2.3330069e+00
 -1.8765534e+00
  5.8115602e+00
  4.3220921e+00
 -2.4682393e+00
  9.4449925e-01
  1.4715165e+01
  4.6339440e+00
  2.7034262e-01
 -1.4407988e+00
 -2.9881737e+00
  6.1235352e+00
  5.7859159e+00
 -5.9413733e+00
 -2.9080567e+00
  2.7582262e+00
 -3.5942349e+00
 -1.8844076e+00
 -1.1825329e+00
  8.5676122e-01
 -6.8626318e+00
 -6.0801454e+00
 -2.1634226e+00
  6.4909554e+00
 -2.9897299e-02
  4.6311015e-01
 -3.1385527e+00
  2.2212968e+00
  1.6459778e-01
 -4.7968173e+00
  3.1319532e+00
 -1.9872932e+00
  4.9334879e+00
  5.1337771e+00
  3.1132853e+00
  8.9142447e+00
 -7.5752181e-01
  1.0044696e+00
 -2.4006119e-01
 -1.7153287e+00
 -4.6745703e-02
  3.7985642e+00
  3.5895140e+00
  8.4758025e-01
 -8.2888803e+00
  6.8843360e+00
 -4.6694608e+00
 -4.6968514e-01
 -2.6880381e+00
 -4.5618658e+00
 -8.3461151e+00
 -6.8134236e+00
 -2.5347931e+00
 -1.0508924e+00
 -4.3298149e+00
 -7.7645893e+00
 -7.3383312e+00
 -4.0873814e-01
 -4.4782324e+00
  6.9980240e+00
  9.9468641e+00
  1.7427195e+00
 -3.0522702e+00
 -1.7473688e+00
 -2.1156701e-01
 -7.3208982e-01
  1.0321239e+01
 -8.1720090e-01
 -2.9717555e+00
  1.1777098e+01
 -9.5134401e-01
  8.9284813e-01
 -4.8571444e+00
  4.7297521e+00
  2.5083977e-01
 -5.1998568e+00
 -2.5040760e+00
  3.8317876e+00
  4.1666198e+00
  7.7938423e+00
 -3.0898676e+00
 -4.3373251e+00
  1.7039793e+00
  1.1745070e+00
 -2.3745298e+00
  1.5956110e+00
  5.5414357e+00
 -1.1377904e+01
  6.2641058e+00
 -3.3233099e+00
 -2.8248802e-02
 -9.0149899e+00
 -4.7508864e+00
 -4.6757889e+00
 -3.7770081e+00
 -3.4581614e+00
 -3.5142970e-01
  2.6478393e+00
 -3.5502777e+00
 -8.2782054e-01
 -1.0540204e+00
  1.9444314e+00
 -5.3880296e+00
 -3.3338037e+00
 -9.3527727e+00
 -9.5325112e-02
  9.3236542e-01
  2.7021451e+00
  5.0099139e+00
  5.7016149e+00
  7.6285702e-01
  3.8465521e+00
  5.3879366e+00
  3.4250104e-01
  6.3985505e+00
  4.5199513e+00
 -3.1423352e+00
 -3.2713385e+00
  2.8923719e+00
  5.1399570e+00
 -6.6614902e-01
  3.6230438e+00
 -1.3645521e+00
  5.0014687e+00
 -3.3938079e+00
 -4.2837648e+00
 -3.6289637e+00
  6.5053253e+00
  9.0995872e-01
  3.2613189e+00
  4.4235148e+00
 -3.3087959e+00
 -1.1133187e+00
  1.5807405e+00
 -4.0130734e+00
 -2.3274398e+00
 -1.0609701e-01
  6.0520501e+00
  3.5208893e+00
  9.3031335e-01
 -4.7520471e+00
  1.3349080e+00
 -9.5168459e-01
  5.6643558e-01
 -3.0631366e+00
  3.9688246e+00
  5.4971075e-01
 -4.1298118e+00
  3.9828043e+00
  5.2346663e+00
 -2.6032510e+00
  1.9018941e+00
 -1.3600769e+00
  6.8283939e+00
  1.1014168e+00
  4.7248502e+00
  4.2499943e+00
  2.1343899e+00
 -3.7616069e+00
 -7.6427603e+00
  4.9246690e-01
  2.3205011e+00
 -1.6206427e+00
  7.0994693e-01
  3.8862090e+00
  8.6423550e+00
  1.0972232e+01
  3.0461615e-01
  3.5526888e+00
 -3.4343786e+00
  3.4383605e+00
 -3.3040581e+00
 -1.0200077e+01
 -1.1274227e+00
  2.4031834e-01
 -1.6967986e+00
 -5.6554117e+00
  1.4104586e+00
 -1.2005474e-01
 -1.6183521e+00
  3.4047434e+00
  4.5578208e+00
  1.6043661e+01
 -3.1923696e-01
 -1.5890461e-01
  2.9353929e+00
 -5.7721605e+00
 -5.2748638e-01
 -7.7657819e+00
  7.6160135e+00
 -1.5767431e+00
 -1.5838949e-02
  3.0090816e+00
  1.0633463e+00
  1.3093562e+00
  4.2423835e+00
 -3.2615225e+00
  1.9529866e+00
  4.5748425e+00
 -6.2238455e+00
  4.7137308e+00
  1.9096063e-01
 -1.7880030e+00
 -3.6885667e+00
 -5.4796872e+00
 -2.3609657e+00
 -4.2084584e+00
  2.7848801e-01
  1.7266291e-01
  2.1554050e+00
  5.2093368e+00
  5.5948007e-01
 -6.9723210e+00
  2.5464811e+00
 -1.5077991e+00
 -2.1323836e-01
  2.9566321e+00
  7.5392513e+00
 -2.0415342e+00
  1.0219497e+01
  7.2816402e-01
  5.1265049e+00
  1.6203701e+00
 -4.8998094e+00
 -2.1835980e-01
  5.1449847e-01
  1.2255806e+00
 -3.2380826e+00
 -5.4155765e+00
  6.7272079e-01
  1.3323379e+00
  9.5191994e+00
 -1.2575841e-01
  8.7319355e+00
  6.9221210e-01
  5.5995202e-01
 -4.6744528e+00
 -4.4016705e+00
 -8.6357599e-01
  5.0211172e+00
  1.8436494e-01
  1.1636984e+00
  1.8900515e+00
 -2.7351964e+00
  2.8066328e+00
 -2.5136082e+00
  8.4083757e+00
  2.8661485e+00
 -3.2445524e+00
 -1.4334995e+00
  1.9629163e-01
 -4.4324050e+00
  3.3133154e+00
 -7.6666236e-01
 -4.7934356e-01
  5.4375281e+00
  1.9157455e+00
 -1.6711779e+00
  1.4834816e+00
 -2.2524307e+00
  4.0244169e+00
 -2.0792155e+00
  3.1676412e+00
 -8.7826812e-01
  5.3360586e+00
 -3.4482551e+00
 -9.3210280e-01
 -9.7795928e-01
  5.8682370e+00
  3.4104061e-01
 -8.3992386e-01
 -2.8241971e+00
  8.7383556e-01
  2.2533801e-01
 -3.8030133e+00
 -8.3654547e+00
 -8.2998915e+00
  1.0001987e+00
  3.0936954e+00
  3.6500970e-01
 -5.3612862e+00
 -6.5975528e+00
  4.6303901e-01
 -2.0971529e+00
  6.1473885e+00
 -1.0715264e+00
 -1.6703277e+00
  3.7638338e+00
  3.1976492e+00
  4.7724962e+00
  1.0787066e+00
  1.1106288e+01
  4.7291474e+00
 -2.5263801e-04
 -4.2156134e+00
 -7.1316447e+00
  4.0478239e+00
  1.3568025e+00
 -8.5899668e+00
 -1.2917263e+01
  1.3506277e+00
 -3.4871311e+00
 -6.3015599e+00
 -3.4796572e+00
 -1.6224397e+00
  4.3191162e-01
 -1.6132345e+00
 -6.4893141e+00
  2.1898353e+00
  1.1882337e+00
  1.5838609e+00
 -3.5273404e+00
  1.0394557e+01
 -1.2582085e+00
  1.6227566e+00
 -2.2140695e-01
 -1.0890743e+00
 -7.6350775e+00
  1.1312609e+01
 -4.7816267e+00
 -2.8258722e+00
  1.5440804e+00
  2.0070593e+00
 -1.9184225e+00
 -5.3034773e+00
  2.7374523e+00
 -2.6455078e+00
 -1.3843403e+00
 -1.0730485e+01
  1.1801468e+00
  7.0270901e+00
  2.4251289e+00
 -6.1110628e-01
  3.3359597e+00
 -1.5971493e+00
  2.8654122e+00
 -9.2999411e+00
 -1.5728705e-01
 -4.6122417e+00
 -5.7818823e+00
  3.6981993e+00
  8.7622662e+00
 -2.0943801e+00
  2.8109156e-02
  3.2406216e+00
 -4.0398293e+00
 -1.1478630e+00
  6.3921986e+00
  3.4922007e-01
 -3.5999441e-01
  4.2254987e+00
 -1.5062376e+00
 -1.0940756e+00
  2.2736013e+00
  6.8852693e-01
  9.5268259e+00
  1.0931333e+00
  8.6798096e-01
 -1.2264844e+00
  9.4587255e-01
 -3.7289498e+00
  5.9693346e+00
  3.6893327e+00
 -3.6395960e+00
  9.2904562e-01
  5.2134533e+00
 -4.1661668e+00
 -2.4768608e+00
 -2.5413868e+00
  1.9874713e+00
 -5.8017826e-01
 -2.2209392e+00
 -2.8865519e+00
 -1.0655344e+00
 -1.6503741e+00
 -8.3053291e-01
  6.6944733e+00
  2.2660885e+00
 -2.9857213e+00
  3.5779518e-01
  1.5107663e+01
  1.6856430e+00
 -4.2648907e+00
  4.3017344e+00
 -1.5307937e+00
  4.2541289e+00
  8.9548988e+00
  1.6782110e+00
  2.8867574e+00
  6.0579739e+00
  1.3865087e+00
  1.1834517e+01
 -1.3083401e+00
  2.7533541e+00
 -3.4880278e+00
  1.6152105e+00
  4.6649208e+00
  2.3337843e+00
  5.4256773e+00
 -4.1305418e+00
  6.8023844e+00
 -7.2580886e+00
  3.1831473e-02
  1.4761447e+00
  4.7644944e+00
  2.0747632e-01
 -1.0420640e+00
 -4.6344483e-01
 -1.6449586e+00
 -3.0824587e+00
 -1.7067486e+00
  7.6476736e+00
  8.0504221e-01
 -4.7081089e+00
  1.9076264e+00
  5.9010024e+00
  7.0750260e+00
 -3.3879530e-01
 -2.6371460e+00
 -1.4796131e+00
 -4.2989402e+00
 -7.8923721e+00
  5.2615161e+00
  2.4127064e+00
  1.1008494e+01
  8.2885528e-01
 -1.2827566e+00
  6.3563900e+00
 -6.9281955e+00
  6.3780642e-01
 -8.0507571e-01
  1.4191493e+00
  4.4085431e+00
 -9.4355386e-01
 -1.3108276e+00
  2.2985911e+00
 -3.8368442e+00
  9.0380764e-01
 -8.3443661e+00
 -5.6818466e+00
 -2.9587152e+00
  7.4040065e+00
  7.0682807e+00
 -1.8790078e+00
 -6.8224829e-01
  8.8594446e+00
 -2.5513134e+00
 -9.2624277e-02
 -6.9877945e-02
 -4.6152382e+00
 -6.0628161e+00
 -6.1203413e+00
 -6.1335588e+00
  9.2680402e-02
  7.4133438e-01
  1.9286698e+00
  2.5870198e-01
  1.0045417e+01
 -8.3805996e-01
 -4.5374780e+00
  2.0376668e+00
 -1.1402561e+01
 -2.8638480e+00
 -1.6218743e+00
 -4.4913799e-02
  4.3133302e+00
 -4.3866839e+00
 -3.3959329e+00
 -4.5571351e+00
  2.3865438e+00
 -1.9122075e+00
  2.2139671e+00
 -9.7399020e-01
 -1.9315178e+00
  1.0272415e+01
  1.8175335e+00
  4.3070087e+00
  7.9418534e-01
 -1.2596768e-01
 -1.5385419e+00
  5.5448833e+00
  4.3841499e-01
  7.0101771e+00
 -6.0590196e+00
  1.7136083e+00
  2.6143103e+00
  3.9644322e+00
  6.7408042e+00
  9.5702767e-02
  1.6745496e+00
  1.6849805e+00
 -1.0045704e+00
 -2.2201803e-02
  6.8661153e-01
 -2.0763538e+00
  7.7378172e-01
 -5.4688053e+00
 -1.6721432e+00
 -1.9201364e-01
 -9.1441381e-01
 -5.4432096e+00
  5.8626170e+00
 -1.0006678e+01
 -2.0644343e+00
 -1.8240092e+00
  4.3028803e+00
  4.8010426e+00
  2.0744348e+00
 -2.8983064e+00
 -2.3770532e-02
  2.2947388e+00
  6.1774640e+00
  1.6399467e-01
 -6.6414814e+00
 -9.6094173e-01
  1.1242043e+01
 -5.4961908e-01
  2.5961840e+00
 -2.8671060e+00
 -5.1989937e+00
  2.9712594e+00
 -3.5603886e+00
  2.2049069e+00
 -2.5877681e+00
 -3.4440758e+00
 -1.3227440e+00
  4.2711693e-01
 -9.7101698e+00
 -4.4776926e+00
  3.8245635e+00
 -2.0524583e+00
  7.0570903e+00
 -3.9934595e+00
 -1.4587023e+00
  8.7576160e+00
 -3.4227380e-01
 -2.0098639e+00
 -7.9290743e+00
 -3.5178285e+00
  4.2036986e+00
 -4.5391698e+00
  1.5175554e-01
 -1.6422019e+00
  1.9320395e+00
  2.7293482e-01
 -6.3483305e+00
  2.7598674e+00
 -6.1355996e-01
  6.0458679e+00
  8.1729829e-01
  2.7706795e+00
 -1.6582251e-02
 -2.3267982e+00
 -5.1375847e+00
  3.9435437e+00
 -5.6185179e+00
 -2.2130380e+00
 -2.6973004e+00
  2.3203626e+00
  5.9298795e-01
 -1.2549441e+01
 -5.0743384e+00
  1.9568597e+00
  1.7999017e-01
 -1.1268243e+01
  2.9722979e+00
 -7.1596284e+00
  4.5300779e+00
  3.4338763e+00
  4.0778131e+00
 -7.9019179e+00
  4.6923923e+00
  4.6150813e+00
 -2.0020406e+00
  2.7055321e+00
 -6.1043200e+00
 -2.0043418e+00
 -6.0782480e+00
  1.4319625e-01
 -3.7015715e+00
  1.1920212e-01
  3.4115026e+00
  7.8260201e-01
 -4.2331867e+00
 -2.0281429e+00
 -5.5431643e+00
 -1.6895211e+00
 -1.9392146e+00
 -1.3970926e+01
 -4.1127712e-01
  5.0028267e+00
  9.1284537e-01
  4.2294957e-02
 -4.6683736e+00
 -8.1800241e+00
 -1.9621586e+00
  2.2283077e+00
 -1.2508597e+00
  1.9915531e+00
 -2.2971978e+00
  3.9468799e+00
 -8.1124169e-01
 -1.3832417e+00
  1.2969322e+00
 -9.7255421e-01
 -4.6902795e+00
 -1.9326320e+00
 -2.2159867e+00
 -1.1689803e+01
 -2.9474846e-01
  3.5685058e+00
 -3.1670845e-01
  6.8392100e+00
 -7.5909443e+00
  3.0870793e+00
 -1.7792022e+00
 -3.6271732e+00
 -6.6038412e-01
  3.7492251e+00
  2.7917221e+00
  2.1008718e+00
 -6.4514122e+00
 -1.5487471e+00
 -2.4225562e+00
  5.2868587e-01
 -3.3763358e-01
  3.5128436e+00
  7.9836875e-01
  6.5042024e+00
 -2.5551265e-01
  3.0576205e+00
 -1.3636905e+00
 -3.5251126e+00
 -3.0467805e-01
 -2.4157003e-01
 -2.1291894e-01
  6.7460489e+00
  1.3810823e+00
 -9.8719950e+00
  8.5187044e+00
  2.4339030e+00
  4.8072772e+00
 -1.1320971e+01
 -4.1428688e-01
 -1.0732212e+00
  1.5733465e+00
  7.0144253e+00
  4.3865175e+00
  1.7354439e+00
 -1.3475549e+00
  9.7079265e-01
 -1.1585846e+00
 -3.8143096e+00
 -2.2900095e+00
 -1.1520499e+00
  1.8701359e+00
  2.2383811e+00
 -3.5593586e+00
  4.3713417e+00
 -4.6072569e+00
 -7.1886311e+00
  5.0442779e-01
  9.6396189e+00
 -4.4939194e+00
  4.4882259e-01
  1.6194865e-01
 -1.5835349e-01
 -1.8351746e+00
 -1.5333067e+00
  1.2096686e+00
  2.0638683e+00
  1.5681509e+00
 -1.7597668e+00
 -1.2812994e+00
  2.3962872e+00
  3.6572762e+00
 -3.4571769e+00
  2.3289642e+00
 -1.1446289e+00
  3.1779623e+00
  8.0236590e-01
  6.9842219e-01
 -4.4830826e-01
 -2.2700107e+00
  5.3951979e+00
 -1.2343082e+00
  4.0348582e+00
  9.5742011e-01
 -5.8948454e-02
  5.2978647e-01
  4.4839721e+00
 -1.2745337e+01
  2.1507728e+00
  4.9754448e+00
  9.3088732e+00
  9.4222343e-01
 -3.7563667e+00
  1.2289395e+00
  4.6785922e+00
  3.5950679e-01
  4.6083622e+00
 -1.3860536e+01
 -3.4714289e+00
  3.1213698e+00
 -5.1972656e+00
 -1.6578676e+00
  1.0614017e+01
  2.9788966e+00
 -6.6481624e+00
 -7.1912971e+00
  1.6263943e+00
  1.5914613e-01
  1.1704993e+01
 -2.0690517e+00
 -4.5044322e+00
  3.1604321e+00
  4.2125888e+00
  3.6898663e+00
 -4.8000998e+00
 -1.7521977e-01
  4.2591829e+00
  9.0850925e+00
  8.7985640e+00
 -1.2525936e+00
  3.4931958e-02
 -1.0837902e+00
 -4.0306263e+00
  2.0014121e-01
  1.9558689e-01
  1.2641919e+00
 -2.2190011e-01
  1.1018414e+01
 -7.2067291e-01
  4.0425631e-01
 -5.0127993e+00
  1.4763355e-01
  6.3870341e-01
 -1.3141946e+01
 -2.4625807e+00
  3.6447847e+00
  4.6750829e-01
  3.5074844e+00
  3.3440676e-01
  5.0499325e+00
 -8.8559341e+00
 -2.3928421e+00
 -4.2039999e-01
 -3.8155329e+00
 -4.7869716e+00
  7.1008358e+00
 -7.3827153e-01
  2.7975717e-01
  4.6860313e+00
  7.7797136e+00
 -1.6867726e+00
  8.7664551e-01
  6.2086207e-01
 -4.1051493e+00
  3.4283412e+00
 -1.2039869e+00
  5.6912894e+00
 -4.2390714e+00
 -1.6050775e+00
 -4.9462253e-01
  1.2213932e+01
  4.4832368e+00
 -2.6381626e+00
  1.4123321e+00
  1.5756203e+00
 -5.5494981e+00
 -8.4284248e+00
 -2.5225906e+00
  8.5813975e-01
 -1.9923342e+00
 -2.9463012e+00
 -3.5233312e+00
  5.3719201e+00
  6.4676290e+00
  1.1185863e+00
  8.2488241e+00
  4.3580465e+00
  8.4983835e+00
 -1.2759438e-01
 -2.6224971e-01
 -7.1545355e-03
  2.3160362e+00
 -7.0016283e-01
 -2.3696587e+00
  2.9653735e+00
  2.9876051e+00
  4.6954837e+00
 -1.7908103e+00
 -7.3312223e-02
  4.6860166e+00
  7.8889618e+00
 -1.3234879e-01
 -3.2719389e-01
  3.2022755e+00
 -2.0383224e+00
  1.6279945e+00
  8.6086279e-01
  2.8349199e+00
  3.0664423e+00
 -2.8945782e+00
 -1.1281404e+00
 -4.6754570e+00
  8.8205433e-01
 -4.2169447e+00
  3.7961204e+00
  1.0897447e+00
 -2.6243174e+00
  3.4590232e+00
 -1.9206947e+00
  7.1681154e-01
  2.3073120e+00
  1.0023535e+00
  3.3669040e-01
  2.6649623e+00
 -4.6730108e+00
 -3.1801808e+00
 -1.2283190e+00
 -1.2894129e+00
  2.5408223e+00
  7.0486772e-01
 -8.7837327e-01
  7.7768555e+00
 -8.5365021e-01
 -2.4726562e+00
 -1.9757298e+00
  4.7019863e+00
 -5.3151858e-01
 -5.8355188e+00
  7.1236510e+00
  1.1632547e+00
  2.4880705e+00
 -8.7441444e+00
  1.9326307e-01
 -1.7733718e-01
  4.5913687e+00
 -6.4872622e-01
  5.9536922e-01
 -2.3025608e+00
  2.5950903e-01
  1.1035670e-01
 -4.1788097e-02
 -2.7411871e+00
  3.3813909e-01
 -9.3682969e-01
  1.6325608e-01
 -7.4647003e-01
  1.0965420e+00
 -7.5690344e-02
  1.0010201e-01
  2.9866388e+00
  2.6010413e+00
  1.2914575e+00
 -1.6356149e+00
  4.1448030e+00
  4.1928127e-01
 -8.5623488e-02
  5.7722098e-01
  8.9137948e-01
  4.8593802e+00
 -3.1228855e-01
 -1.0760399e+00
  5.0499654e-01
 -1.9107556e+00
 -8.3192959e-02
 -1.3278370e-01
 -5.5969030e-01
  4.5743356e+00
  1.3912322e-01
 -4.7804810e-02
 -5.2386570e-01
 -4.2491761e-01
  9.9913575e-02
  7.3729634e-01
 -1.9053894e+00
  3.3864641e-01
 -9.9695975e-01
  2.9414055e-01
  2.4757113e+00
 -5.5503017e-01
 -9.0344716e-04
  1.6353544e+00
  1.1805333e+00
  5.3496617e-01
 -2.4190562e+00
 -7.1430111e+00
 -5.5745339e+00
  2.1509533e+00
 -9.4358845e+00
 -3.6767180e+00
  2.1931787e+00
  2.3868978e+00
 -7.0320883e+00
 -1.3899203e+01
  6.8550038e+00
 -7.5350780e+00
 -1.2462442e+00
 -6.9323242e-01
 -7.6473749e-01
  1.7556367e+00
  6.5216231e-01
 -1.6813313e+00
 -5.2804098e+00
  3.3058479e+00
  2.8375485e+00
 -2.6829214e+00
  2.3498588e+00
 -1.1993862e-01
  5.4936004e+00
 -8.7123003e+00
 -2.0676330e-02
  9.1568422e+00
  3.2565789e+00
 -1.8963792e+00
  6.0174197e-01
  1.9394286e+00
 -1.6964637e+00
  5.6886774e-01
  3.1686182e+00
 -1.4358678e+00
 -7.1951246e+00
  1.4804876e-01
 -6.8908005e+00
 -2.7147381e+00
 -2.2163548e+00
  3.1345897e+00
  1.0725633e+00
  1.6441008e+00
  6.0126152e+00
  6.4359536e+00
  1.1726352e+00
 -1.4973042e+00
  4.9420137e+00
 -9.8554754e-01
  3.2941243e-01
 -3.0020239e+00
  1.2285429e+01
 -2.0120606e+00
 -3.7977252e+00
 -1.9420651e+00
 -1.8656746e-01
 -3.5727851e+00
  6.9161493e-01
  1.2334200e+00
  2.1370904e-01
 -4.6613469e+00
 -2.2254474e+00
 -2.2768605e+00
 -8.4139767e+00
  4.4766513e-01
  1.2746259e+00
  4.1861854e+00
  6.1011624e-01
 -9.0834427e-01
 -2.8495603e+00
 -2.5728736e+00
  1.7434363e+00
 -1.8702627e+00
  1.1044382e-01
 -3.2654500e+00
  3.2021325e+00
 -1.9226238e-01
 -6.2640352e+00
 -2.4886672e+00
 -2.2897632e+00
  1.2728378e+00
 -2.7491682e+00
 -2.4084213e+00
  2.3982079e+00
 -1.0488240e+01
 -2.1126980e-01
 -6.5702810e+00
  7.9217095e+00
  3.6412673e+00
 -3.9524722e+00
  9.8577149e-02
  1.6786268e-01
 -2.0996110e+00
 -1.7824922e+00
  4.2249503e+00
  8.2743925e-01
 -8.0665083e+00
 -5.8489448e-01
 -5.7312196e-01
  7.4070997e+00
 -3.0194731e+00
  5.1500583e+00
 -3.4904926e+00
 -4.1975470e+00
  1.4471353e+00
  6.4038450e-01
 -4.5366436e-02
  8.0624037e+00
  1.7472684e-01
  3.0278155e-01
 -7.8876877e-01
  3.9615808e+00
 -8.7492905e+00
 -1.7413356e+00
  6.3704205e-01
  2.6213689e+00
  3.4448225e+00
 -1.3121123e+00
  8.2031403e+00
 -3.3746467e+00
 -1.3757550e+00
  1.1202424e+01
 -2.6735024e+00
 -1.7879735e+00
 -7.8479064e-01
 -4.7380185e+00
 -7.0236602e+00
  2.6729045e+00
  2.9628291e+00
 -3.5212641e+00
  4.0227747e+00
 -3.9533756e+00
 -1.9585214e+00
  2.6229713e+00
 -2.4448609e-01
 -5.3338799e+00
 -1.9697297e-01
  4.4310517e+00
  8.9130700e-01
  3.7943301e+00
 -2.6498415e+00
  2.2479393e+00
 -2.5604829e-02
 -3.1813781e+00
  1.1165353e+00
  1.5166396e+00
  7.3139606e+00
  1.7952135e-01
  7.4704952e+00
 -4.5174160e+00
  4.2807455e+00
  3.4976251e+00
  7.7310162e+00
 -2.8782008e+00
 -4.2142863e+00
 -6.7510829e+00
  1.3110193e+00
  6.2205915e+00
  1.9828850e+00
  1.5193460e+00
  6.5952430e+00
  1.3883617e+00
 -3.4001784e+00
 -4.0987973e+00
 -5.8454475e+00
 -2.2279942e+00
 -7.4163467e-01
  5.6163688e+00
  3.4471779e+00
 -1.3112069e+00
  1.4419553e+00
  3.5012946e+00
 -2.9867167e+00
  2.4342756e+00
 -3.8376424e+00
  7.5436707e+00
 -4.8188967e-01
 -4.0912881e-01
  1.0820563e+01
 -5.0399084e+00
 -4.9791322e+00
 -8.0813236e+00
 -1.5576372e+00
  5.1016498e-01
  9.4803400e+00
  6.0335129e-01
  4.2122068e+00
 -1.9599770e+00
 -4.2578392e+00
 -3.1500130e+00
 -1.1592124e+00
 -1.3212636e+01
 -6.3499489e+00
  5.3377068e-01
 -1.9950079e+00
 -4.5058789e+00
 -3.1401384e+00
  1.5892639e+00
  2.5112793e-02
 -1.3535683e+00
 -1.5630722e+01
 -4.2991920e+00
 -7.5207472e+00
  3.9250102e+00
  5.0592723e+00
  4.0288272e+00
 -7.5177021e+00
 -8.1870260e+00
 -4.2982225e+00
  1.2060497e+00
  7.2697363e+00
  3.8974876e+00
  1.9612275e-02
 -1.1348225e+01
  3.0548459e-01
  5.3494227e-01
 -6.3618407e+00
  1.0780707e+01
  1.0910560e+01
  4.6470947e+00
  1.4543151e+00
  8.2124310e+00
  8.0144119e-01
 -6.6480980e+00
  9.5480341e-01
 -2.7875917e+00
 -2.0852427e+00
 -7.2573271e+00
  4.3581696e+00
 -2.3838451e+00
  1.4579481e+00
 -4.4518700e+00
 -1.9936454e+00
 -2.9242291e+00
 -3.4412749e+00
 -6.2799749e+00
 -8.7018499e+00
  3.2910419e+00
 -6.8584418e-01
  9.1604829e-01
 -2.5527103e+00
  3.7326024e+00
  5.2421898e-01
  3.0833306e+00
  1.9529701e+00
 -1.7137870e+00
  1.1326869e-01
  2.8193719e+00
 -5.5537448e+00
  2.8350785e+00
 -4.6433842e-01
  3.0320597e+00
  5.8398089e+00
  1.1954029e+00
 -4.1626339e+00
  3.2143424e+00
 -3.9327638e+00
 -7.5713592e+00
  6.5087237e+00
  4.5673923e+00
  3.5280852e+00
 -2.1121535e+00
 -1.8648747e+00
  5.6305969e-01
  2.7811086e+00
  5.4129851e-01
  1.4084013e+00
 -3.1608396e+00
  2.6708198e-01
  4.9242816e+00
 -6.7016006e-02
 -4.4775591e+00
 -1.3240492e+00
 -2.7922688e+00
  3.0683212e+00
 -7.9228435e+00
 -1.6914947e+00
 -1.3999329e+00
  9.8510379e-01
  9.7453749e-01
  4.2172246e+00
  3.3212858e-01
 -1.2886363e+00
 -2.4527961e-01
  4.4268246e+00
  1.2846474e-01
 -3.3839138e+00
  3.4051237e+00
  2.2179337e+00
 -1.5862294e-01
 -9.6050483e-01
  6.5788264e+00
 -6.0980213e-01
  5.2786118e-01
 -6.5687351e+00
 -9.2297989e-01
  1.3476881e+00
 -3.3777142e+00
  1.0847604e+00
 -4.8388749e-01
  2.2347059e+00
 -2.3451855e+00
 -1.9972596e-01
 -1.0343703e+00
  7.9309840e+00
  6.0433817e-01
  4.5520062e+00
  6.2095803e-01
 -2.0527992e+00
 -9.5358992e-01
 -1.9982799e+00
 -5.9989991e+00
  1.2861682e+00
  1.4762977e+01
  2.4519670e+00
  1.2778858e+01
  7.7412724e-01
  6.5929298e+00
 -2.7619834e+00
 -1.2913300e+00
  3.6497767e+00
 -4.1772132e+00
 -2.5010395e+00
  3.8140466e+00
 -7.6093411e+00
  5.0408500e-01
  7.0228200e+00
 -1.3965411e+00
 -1.4077969e+00
  2.1021829e+00
  2.1613722e+00
 -3.9263203e+00
 -1.2399424e+00
 -2.3652175e-01
  1.1149713e+00
  2.7559319e+00
  1.3902221e+00
  1.4356914e+00
 -1.3133649e+00
 -1.0144790e+00
  2.2994766e+00
  3.7175658e+00
 -1.1766604e+00
 -5.0576062e+00
 -2.9928359e-01
 -3.3100250e+00
 -1.6221210e+00
 -7.0905733e+00
 -3.7466421e+00
 -5.1236229e+00
  4.6251896e-01
 -1.6774296e+00
  2.1992745e+00
 -5.7711225e+00
  6.3532820e+00
  1.0084124e+00
 -7.1008164e-01
  1.2983825e+00
 -2.2840151e-01
 -2.9654930e+00
 -2.5789847e+00
 -1.8233982e-01
  1.4052360e+00
 -1.1109488e+00
  6.5091860e-01
 -1.8634531e+00
 -3.8688786e+00
  9.5800676e+00
  7.4066788e-01
 -2.9494245e+00
 -4.5495234e+00
 -2.9846203e+00
  4.2247638e-02
 -3.3841896e+00
 -1.0698785e+00
 -6.4622986e-01
  1.8659280e-01
 -2.0479219e+00
  1.9846469e-01
 -2.1368100e-01
  1.4977373e+00
 -1.2034730e+00
 -8.1596172e-01
  4.5111412e-01
  4.3010563e-01
  2.5860767e+00
  1.3966371e-01
 -2.1025364e-01
  3.0028251e-01
  1.1356901e+00
  1.5517024e+00
 -8.3854789e-01
  3.9307685e+00
 -7.7592546e-01
  1.8270677e+00
 -2.7795582e+00
 -2.1264467e+00
  4.1675768e+00
 -2.4649227e+00
  3.0166206e+00
  4.6686993e+00
 -5.0196204e+00
 -4.1864748e+00
  1.0099660e+00
 -1.3395063e+00
  1.3613055e+00
 -1.0499804e+00
 -1.1229521e+00
  2.7323583e-01
 -6.7704499e-01
  9.6401763e-01
  2.0719633e+00
 -5.0684190e-01
 -8.9449090e-01
 -1.2135613e+00
  3.8949225e+00
  7.7860379e-01
  2.2090909e+00
  1.8240705e+00
 -2.9578426e+00
  1.9932680e+00
 -9.0270367e+00
 -4.4079814e+00
 -2.2316790e+00
 -5.9597152e-01
 -1.1415769e+00
  3.3230181e+00
 -1.0519477e+00
  2.5039773e+00
  1.0393987e+01
 -2.2354274e+00
 -8.8973961e+00
 -8.2103097e-01
 -2.4751744e-01
  1.3988503e+00
  2.3673797e+00
  1.6175508e+00
 -8.8110905e+00
 -6.8411541e+00
 -5.9576079e-02
 -2.9748404e+00
 -2.0500085e+00
 -8.2585983e+00
 -9.3835658e-01
 -6.9123616e+00
 -3.8746245e+00
 -3.8648050e+00
  5.9806747e+00
  4.1332045e+00
  4.8413032e-01
  3.3867984e+00
  2.5316093e+00
  8.0833063e+00
  3.8661113e+00
 -5.7871097e-01
  5.9788418e+00
  3.5064888e+00
  2.7618899e+00
  6.0986626e-01
 -2.6711090e+00
  3.4165521e+00
  3.9243448e+00
 -2.6312206e+00
 -9.3035173e-01
 -9.0869942e+00
 -2.3629646e+00
  5.9813660e-01
  4.0098071e+00
  1.2601450e-02
  3.0728934e+00
 -4.8327604e-01
  5.9861898e+00
 -4.1217427e+00
 -1.5434059e+00
  8.5627804e+00
 -1.5901721e+01
  8.9253483e+00
 -2.1684046e+00
 -4.0951414e+00
 -7.0785487e-01
 -6.7037416e-01
  8.6204451e-01
  8.3308477e+00
  7.0969849e+00
  1.7930623e+00
 -3.8697436e+00
  3.7813802e+00
  7.5513870e-01
  9.6562977e+00
 -4.6570483e-01
  4.2082028e+00
  3.1879427e+00
 -4.0206628e+00
 -5.5415440e-01
 -2.0415506e+00
 -5.3773737e+00
 -7.4686861e+00
  3.5222392e+00
 -1.9931650e+00
  2.9511766e+00
  2.7263076e+00
  3.6695509e+00
 -2.7836266e+00
  4.6977172e+00
  5.3396611e+00
 -9.9155741e+00
  1.0868490e+01
  3.5909784e+00
  3.6044021e+00
  8.8409643e+00
 -3.4109536e-01
 -3.0976152e+00
  4.2398214e+00
 -1.6864687e-01
 -9.8875165e-03
  3.0679705e+00
 -2.6996262e+00
 -4.5638919e-01
  2.4197912e+00
  2.8868244e+00
  1.3836973e+00
  2.2566586e+00
  3.3672819e+00
  1.1139065e-02
  2.0803068e+00
  4.0836134e+00
  2.0747178e+00
 -2.9618363e+00
  3.2327914e+00
 -2.8566875e+00
  6.4162388e+00
  2.5693820e+00
 -1.8347876e+00
 -2.2744126e+00
 -8.4629717e+00
  5.2904063e-01
  1.1153673e+00
  2.3689861e+00
  1.6331765e-01
 -6.0333502e-01
  3.3974686e+00
 -1.8152083e+00
 -9.1793699e+00
 -1.1507499e+01
 -1.9615891e+00
 -3.7333480e-01
  7.8188610e-01
 -1.1353972e+00
  8.7505617e+00
 -2.2789552e+00
 -7.8115759e+00
  2.4460409e+00
  1.0212057e+00
  2.8812666e+00
  4.6158109e+00
  1.2602270e+00
 -2.3639758e+00
  6.4709887e-02
 -7.6080971e+00
 -5.1227264e+00
  1.7848378e+00
  4.0631113e+00
  1.9545017e+00
 -1.9854552e+00
  5.8329338e-01
  1.7215315e+00
 -3.3458510e-01
  2.4626552e-01
 -1.2495311e+00
  1.8717898e+00
 -4.0866551e+00
 -1.2162918e+00
 -5.4952178e+00
 -6.9681782e-01
 -3.1104860e+00
 -1.0546399e+00
  1.9943764e+00
 -4.9034004e+00
 -2.7543705e+00
 -7.7738175e+00
  1.7526224e+00
  1.0932332e+00
  1.9407861e+00
  6.3452806e+00
 -6.0284014e+00
 -2.3364491e+00
  9.9885635e+00
  2.1528010e+00
 -8.7064629e+00
 -5.6872764e+00
  2.0895169e+00
  6.2318544e+00
 -3.1441896e+00
 -2.0594159e-01
 -1.2793207e+00
 -2.9058132e+00
 -2.1539042e+00
 -1.8621302e+00
  8.8036489e-01
  2.1392066e+00
 -5.2430444e+00
  4.1420774e+00
  4.6767488e-02
  7.5564057e-01
  1.0890584e+00
 -3.5217047e-02
 -4.5219765e+00
  1.6350294e+00
  4.9737034e+00
 -4.4321971e+00
 -1.6107906e+00
  2.5573535e+00
  3.8754995e+00
 -4.7582645e+00
  1.9591513e+00
  9.6121759e+00
  1.4548674e-01
 -1.2286060e-01
 -1.4323971e+01
  1.5549794e+00
  2.9926817e+00
  2.0123849e+00
 -7.4782376e+00
  4.9329953e+00
  1.7651684e+00
 -6.7395182e+00
 -5.7915573e+00
 -5.8105102e+00
  3.2606931e+00
  5.9742904e-01
  1.7545024e+00
 -1.4041715e+00
  1.5065407e+00
 -2.1482878e+00
 -1.6103579e+00
  3.2390240e-01
 -3.2222636e+00
 -1.9043187e+00
  6.7872210e+00
  6.2165058e-01
  1.0665873e+01
 -5.0753522e+00
 -3.0150473e+00
  2.0045960e+00
  1.0378152e+00
 -3.0919464e+00
 -5.0161762e+00
  9.2062193e-01
  2.4833293e+00
 -1.6200333e+00
  2.5415900e+00
  1.9524485e+00
 -9.6326661e-01
  5.7525258e+00
 -5.0141129e+00
 -8.4653578e+00
 -4.7877827e-01
  8.6668438e-01
  1.5292321e+00
 -1.6141884e+01
 -1.7675205e+00
  3.7677491e-01
  5.3574815e+00
 -7.5206041e+00
  5.4802895e-01
 -2.8294148e+00
  4.6814436e-01
  7.5273619e+00
  9.8735356e-01
  1.5020213e-01
 -5.4563284e+00
 -2.3511722e+00
 -3.0725932e+00
  3.9941382e-01
  3.2404554e-01
 -2.7377338e+00
 -5.2164369e+00
  2.1133800e+00
  2.6492968e+00
  7.5636821e+00
 -4.5256075e-01
 -1.9812242e+00
  6.3002100e+00
  4.9109621e+00
  3.2956638e+00
 -1.0110068e+00
 -1.8459471e-01
  3.2662004e-01
  9.5811911e+00
 -5.2724260e-01
 -4.3749499e-01
  1.0581527e+01
 -1.6376253e+00
  3.3024142e+00
 -2.0954430e+00
 -2.5978172e+00
  3.7435577e+00
 -8.5560697e-01
 -4.2406502e+00
  5.3102851e-01
  1.2570822e+00
 -5.0067606e+00
  9.0233368e-01
 -8.6801273e-01
  1.9125439e+00
  1.7904559e+00
  2.7552968e-01
 -2.6662455e+00
 -2.6961935e+00
 -1.8034223e+00
 -2.5514409e-01
  1.7260495e-01
 -1.7655916e+00
  5.1600832e-01
 -1.9135154e+00
  2.7452860e+00
  2.9393896e-01
 -1.2887489e+00
  6.2745285e+00
  1.7079558e+00
 -5.0140777e+00
 -1.9667662e+00
  2.6737025e+00
  1.2624710e+00
  5.8266172e+00
 -1.7417969e+00
  2.1128795e+00
  2.4479668e+00
 -4.9982378e-01
  2.4812155e+00
  7.2470568e-02
 -2.5269880e+00
  4.1779785e+00
 -2.3119638e+00
  3.5770357e-01
 -3.0727079e+00
  2.3300817e+00
 -1.5242460e+00
 -1.3587031e-01
  1.7020299e+00
 -3.8613372e+00
 -4.0554719e+00
  1.9653494e+00
 -1.0850850e+01
 -8.3655381e-01
 -3.7422919e+00
  3.5491652e+00
 -1.4223621e+00
 -2.0822153e+00
 -3.6907601e+00
  3.4010866e-01
 -7.0492053e-01
  1.3603233e+00
  3.3071792e+00
 -1.5579945e-01
  7.5747094e+00
 -8.8342762e+00
  3.1577249e+00
 -9.3680143e+00
  1.1398154e+00
 -6.0649967e+00
  2.5739568e-01
 -6.6089935e+00
  1.0298137e+01
 -1.5525190e+00
  4.4189772e-01
 -3.6725585e+00
  3.7100801e+00
 -4.8903608e-01
  3.9784257e+00
  2.0864644e+00
  1.0183476e+00
  3.6398425e+00
  3.7773373e+00
  1.0223743e+00
  6.5351301e-01
 -1.9130268e+00
  3.4105523e+00
 -3.7322819e-01
  7.1061678e+00
 -1.3144059e+00
  7.6716967e+00
  5.5228872e+00
 -1.5193741e+00
 -5.6094174e+00
 -2.0377796e+00
 -1.1833043e+00
  7.5960529e-01
  2.3619933e+00
 -5.9772801e+00
 -6.1521554e+00
 -1.2741892e+00
 -3.1969576e+00
 -3.6454153e+00
 -1.0992019e+00
 -5.6062508e-01
 -8.0238848e+00
 -5.0682445e+00
 -6.2249527e+00
  5.4972658e+00
 -3.4573572e+00
 -3.2859945e+00
 -6.2501826e+00
  2.8838921e+00
 -8.4988194e+00
  6.0797987e+00
 -2.6551196e-01
  5.3003473e+00
  1.1287308e+00
  1.5725375e+00
  9.6822109e+00
  5.4016967e+00
  4.3615362e-01
 -6.8456697e+00
  1.5296685e+00
  1.0085776e+00
 -4.0219002e+00
 -9.6999764e-01
  7.8046494e+00
  5.9666700e+00
  2.6153737e-01
  4.2236093e-01
 -1.1051022e+00
 -1.6299692e+00
 -1.9661115e+00
  1.5831270e+00
 -9.1769254e-01
  7.3874006e+00
 -7.9883146e+00
 -2.3182414e+00
 -1.3179294e+00
 -9.9075425e-01
 -3.8890402e+00
  1.0809420e+01
  5.5579853e+00
  4.9369388e+00
 -1.4829352e-01
  2.8398266e+00
 -3.6751456e+00
 -8.9113388e+00
  4.7758055e-01
  5.8270521e+00
  1.2689425e+00
  7.0378923e-01
 -5.8618155e+00
  7.2986202e+00
  2.9469088e-02
 -2.4318452e+00
  9.1804371e+00
  3.9651906e+00
  1.4049267e+00
  3.9637933e+00
  1.5958856e-01
 -9.1529627e+00
  1.5759873e+00
  2.9942327e+00
  4.3423805e+00
 -2.5112541e+00
  1.1481308e+00
  9.8029900e+00
  2.2964525e+00
  1.2718542e-01
  9.2176163e-01
 -7.3527122e+00
 -2.4223356e+00
 -1.5686167e+00
 -2.3034780e+00
  5.0457511e+00
  2.0067177e+00
 -6.9614468e+00
  5.1572881e+00
  3.2352097e+00
  2.9478333e+00
 -7.6397138e+00
  2.2141657e+00
  2.4677277e+00
  1.3340889e+00
  1.1243753e+00
  2.3188031e+00
  1.9769942e+00
  9.7350049e-01
 -4.5431604e+00
 -1.9626204e+00
  1.0807376e+00
 -7.3840863e-01
 -1.7740483e+00
  4.2523355e+00
 -3.1213255e+00
 -3.0398955e+00
 -2.9192495e+00
 -3.1505008e+00
  3.8912370e+00
 -2.4024382e+00
 -2.9438856e+00
 -6.3011843e-01
  1.8429922e+00
 -1.0619642e+01
  1.9009795e+00
  3.9799764e+00
  2.0774937e+00
  3.3185277e+00
  1.2321308e-01
  6.5507865e+00
 -1.0215387e+00
 -1.5776441e+00
  1.5049577e+00
  2.3881200e-01
 -2.0917816e+00
 -2.7447112e+00
 -1.3857623e+00
 -1.0028272e+01
  1.9748155e+00
 -6.6094489e+00
  7.7705763e-02
  3.6253469e+00
 -2.5315437e+00
 -2.3821297e+00
  2.6201722e-01
  2.7465489e+00
 -1.3193452e+00
 -1.4487220e+01
  4.7300386e+00
 -5.3221062e-02
 -2.2084625e+00
 -2.0143397e-02
 -4.5670857e+00
 -2.3488221e+00
 -3.6569309e+00
  4.3890877e+00
  3.1393449e+00
  3.9306933e-01
 -2.7815983e+00
  6.0826950e+00
  1.8329021e+00
 -7.5329626e-01
 -3.9834099e+00
  4.5821872e+00
 -2.3093483e+00
 -8.2404643e-01
 -3.6592968e+00
 -3.9548450e+00
 -5.7909431e+00
  5.3856268e+00
  2.5797658e+00
  3.2316878e+00
  1.4807074e+00
 -8.4632617e-01
 -4.7607436e+00
  2.5555341e+00
 -1.3387423e+00
 -2.3256409e+00
  6.1448698e+00
  3.5107512e+00
  5.2128134e+00
  1.9072518e+00
 -9.1568810e-01
 -8.1807842e+00
  3.2443337e+00
 -2.2359688e+00
 -2.4902166e-01
  4.8259945e+00
  2.1400661e+00
 -1.3957125e+00
  5.1399887e-01
 -5.2782983e-02
  3.2235937e+00
  4.4358554e+00
 -5.3998857e+00
 -5.1887274e+00
 -3.2822258e+00
 -4.2527199e+00
 -4.4270903e-01
 -5.2995162e+00
 -8.0550164e-01
  9.5832294e-01
 -3.8173196e+00
 -2.4931214e+00
  1.2839745e+01
  9.3688339e-01
  1.9566097e+00
  4.5159578e+00
 -1.2188259e+00
  5.6063378e-01
 -2.7125213e+00
  4.6619854e+00
 -7.8153056e-01
 -2.6066017e-01
 -1.1616743e+00
  4.1118731e+00
  6.9647357e-02
  2.1578426e+00
 -8.9332743e+00
 -6.2445891e-01
 -2.2451320e+00
  3.5532744e+00
 -4.5209374e+00
 -1.9559100e+00
  1.8402390e+00
 -1.0262411e+00
 -5.6530142e+00
  3.3402958e+00
  8.5085640e+00
 -3.6979840e+00
  9.0878811e+00
 -4.5952764e+00
  2.7651436e+00
  1.5918267e+00
 -1.0921233e+01
 -5.6159371e-01
  4.8813939e+00
 -2.9264970e+00
 -9.6753645e+00
 -3.9530599e+00
  2.6720142e+00
 -5.6061292e+00
 -1.2940662e+00
 -2.2582400e+00
  2.4143677e+00
  2.9667907e+00
  8.5067934e-01
  1.0578421e+01
 -4.8497474e-01
 -8.9925718e+00
  4.1842108e+00
 -2.7051172e+00
 -1.7105347e+00
  1.8731937e+00
 -2.2694554e+00
  2.1233995e+00
 -5.6184220e+00
 -5.0302482e-01
  2.4998853e+00
 -2.0560572e+00
 -2.6934972e+00
 -3.6462533e+00
 -1.2845585e+00
  7.2322112e-01
 -2.0398409e+00
  4.9999572e-02
  1.1435377e+01
 -8.1121960e+00
  1.5042585e-01
 -5.3642788e+00
  1.5979409e+00
 -1.0274717e+00
 -8.9780104e-01
 -1.9617087e+00
  4.2755089e+00
 -2.6722357e+00
  8.4628135e-01
  4.5844979e+00
 -5.0791168e+00
 -2.4136579e+00
 -1.1379665e+00
  6.1092420e+00
 -2.3296018e+00
  1.5587887e-01
 -1.1915671e+00
 -6.6490555e+00
  7.0517612e+00
  1.4353833e+00
  6.6146603e+00
  7.5738275e-01
 -4.8465018e+00
  2.6669555e+00
  1.8383321e+00
 -8.1736636e-01
  2.5403826e+00
 -1.3279833e+00
 -2.2472933e-01
 -8.9023819e+00
 -2.9485452e+00
  7.0204550e-01
 -2.5660284e+00
 -1.6486744e+00
 -9.4403648e-01
  8.6073178e-01
 -1.7662967e+00
  4.9365032e-01
  2.2281952e+00
  2.0461080e+00
 -4.8267393e+00
  1.6322110e+00
 -2.2019606e+00
 -3.9746087e+00
 -1.5892001e+00
  1.5450283e+00
  9.9361286e+00
  7.9072642e+00
 -4.9301729e+00
 -1.8904351e+00
 -7.9240603e+00
  4.8878241e+00
  3.1498790e+00
  8.8889575e-01
  7.0718331e+00
  7.3190880e+00
  3.8629241e+00
 -3.0592826e-01
  3.7952616e+00
  2.5776329e+00
 -2.7359731e+00
  2.5988843e+00
  2.8457326e-01
 -4.9764819e+00
  1.5953044e+00
  1.8607097e+00
  6.1033959e+00
 -3.7813625e+00
  2.2396228e+00
  4.1138315e+00
 -1.6140772e-01
 -4.2708001e+00
 -6.1561913e+00
 -5.1775284e+00
 -4.9346581e+00
 -8.7287741e+00
  2.3098722e+00
  1.1887602e+01
 -9.7360582e+00
  3.2293853e-01
  7.6502550e-01
 -8.4414685e-01
 -8.2060218e-01
  2.3344725e-01
  1.6336770e+00
  4.3941660e+00
 -3.2862079e-01
 -1.5133996e+00
  2.1428595e+00
 -3.6885846e+00
 -5.1299829e+00
 -1.3008819e+00
  2.5337908e+00
 -5.6041978e-02
 -1.7212094e-01
  4.8666086e+00
 -5.4240603e+00
 -2.2637012e+00
  9.1790318e-01
 -7.7067633e+00
  6.8346901e+00
 -6.1950412e+00
  3.5033615e+00
  5.6084433e+00
  2.8447838e+00
 -6.8857856e-02
 -2.6919289e+00
 -3.8755617e-01
  1.3736184e+00
  5.1118836e+00
 -5.2479315e+00
 -3.4008796e+00
 -8.8540143e-01
 -4.3640585e+00
  2.9470136e+00
  2.1202202e+00
  7.1598749e+00
  8.3328021e-01
  1.5918068e+00
  1.0724910e+00
  2.2969759e+00
  6.5379014e+00
  6.3167267e+00
  2.2159824e+00
 -9.8187590e-01
 -6.3821640e+00
  1.3424327e+00
  2.8072092e-01
  1.8715360e+00
 -8.1094265e+00
 -1.4175788e+00
 -1.1711468e+00
  6.9203153e-02
  8.9991646e+00
  1.5883100e-01
  9.3873543e-01
 -6.4913630e+00
  2.8738043e+00
  6.2783575e+00
  1.0703885e+01
  3.1622678e-01
  7.1443433e-01
  5.3921694e-01
 -8.8660812e+00
  1.2468430e+00
 -3.2214313e+00
  4.2991266e+00
  4.3709550e+00
 -3.6190016e+00
  3.6548138e+00
 -2.4478223e+00
  8.6581004e-01
 -5.1906052e+00
  4.4956012e+00
  5.6075913e-01
  1.4323754e+00
 -1.8675110e+00
 -2.0722179e+00
 -8.5364294e+00
 -6.5837407e+00
 -2.3979537e+00
  1.8645638e+00
  3.4528055e+00
  2.3528497e+00
  1.6965170e+00
 -2.9118493e+00
 -2.2286768e+00
 -7.3452592e-01
  4.4274311e+00
  6.1250248e+00
  7.4768329e-01
 -6.6059356e+00
 -5.6578093e+00
 -2.2676256e+00
  2.1437180e+00
 -7.7666931e+00
 -8.9178103e-01
  2.8254704e+00
 -7.8214655e+00
  1.2905263e+00
  3.6501215e+00
 -1.3638427e+00
 -4.1017728e+00
  7.2449398e-01
  5.4991822e+00
  4.4139165e-01
 -1.9879335e+00
 -1.7525890e+00
 -4.8034158e+00
  8.4173268e-01
  7.0467525e+00
 -1.5541468e+00
 -1.2867111e+00
 -8.0059242e+00
  2.0296416e-01
  9.2500722e-01
 -8.7251671e-02
 -4.9958310e+00
 -3.7317419e-01
  3.0260262e+00
 -2.2963116e-01
 -9.3250774e-02
 -8.4389076e+00
  2.5629988e+00
  1.4725925e+00
 -4.5719213e+00
  1.1595679e+01
  1.2029785e+00
 -5.9693899e+00
  6.2128067e+00
 -1.1602848e+00
  4.8027176e-01
 -6.2272453e-01
  1.1432431e+01
 -1.8261099e+00
  2.1707497e+00
 -8.8405600e+00
 -6.3653145e+00
 -2.2062340e-01
 -9.1101235e-01
  1.8452005e+00
  2.9346141e-01
  1.2732131e+00
  8.7028112e+00
 -8.9731866e-01
 -1.5053655e+00
  3.0923277e-01
  2.6506469e+00
  4.0352006e+00
 -8.4618053e+00
  3.8450333e-01
  1.1423866e+00
  5.8590331e+00
 -4.7441735e+00
 -1.0881774e+00
 -3.2828798e+00
  2.0102444e+00
  1.5604897e+00
 -5.3812127e+00
 -6.3626342e+00
  4.5763177e-01
  3.3283327e+00
 -4.7344807e-01
 -3.4225914e+00
  8.0247192e+00
  1.7749273e+00
 -3.1042695e+00
  3.8495598e+00
 -1.3154243e+01
  2.5198257e+00
  3.1803560e+00
 -4.2134438e+00
 -4.9595551e+00
  3.1532583e-01
 -1.7009952e+00
 -2.5616840e-01
 -2.5506637e-01
 -3.7486799e+00
 -7.8407145e+00
  2.9483134e-01
 -1.5511160e+00
  3.8029962e+00
 -5.4201379e+00
 -2.6712054e-01
 -4.8066425e+00
 -1.1664740e+00
 -9.1973934e+00
  4.7315088e-01
 -2.2204261e+00
  1.3440423e+00
 -3.7248161e+00
  1.2435155e+00
 -7.7670345e+00
  3.6093774e+00
  6.2834001e+00
 -5.3791165e+00
  2.3487725e+00
  1.7600076e+00
 -6.0640392e+00
  1.0262907e+00
  1.6501129e+00
 -3.7370615e+00
 -3.8157547e+00
  5.6260118e+00
  2.4272275e+00
  4.8890471e+00
  3.3245835e+00
 -1.1610546e+00
  1.5758581e+00
 -1.0620996e+01
  3.4788458e+00
 -5.5889883e+00
  2.7893667e+00
 -2.6731269e+00
  1.5634878e+00
 -1.2690517e+00
 -3.1603117e+00
  4.3112296e-01
  5.3844534e-02
  1.4254072e+00
  3.7508151e-01
  2.0595405e+00
  2.3980277e+00
 -1.1997930e+00
  5.1052008e+00
  5.1674366e+00
 -6.4495387e+00
  2.9904673e+00
  2.7985320e+00
  3.2711203e+00
 -4.9305129e-01
 -6.3240595e+00
  5.4226522e+00
 -3.1093874e+00
  8.6764145e+00
  1.6383410e+00
 -1.4382054e+00
 -1.9616804e-01
 -1.4281152e+00
  4.7282758e+00
 -1.2553813e+01
 -1.8042452e+00
  8.1878719e+00
 -1.9183495e+00
 -7.7333701e-01
 -2.8560245e+00
  4.4880241e-01
 -3.7124686e+00
  7.1713843e+00
 -1.2685947e+01
 -2.0268090e+00
 -6.4600855e-01
  7.8992076e+00
  6.6372137e+00
  1.6038846e+00
  1.4427894e-01
 -6.9206548e+00
 -7.6109290e+00
  1.4424515e+00
 -4.3187819e+00
 -2.8330672e+00
 -4.6818957e+00
 -7.2288361e+00
  6.4673698e-01
  1.0372089e+01
 -4.9464390e-01
 -6.4862418e+00
 -5.7834846e-01
  5.0995522e+00
  2.1257095e+00
 -1.4247824e+00
  7.9752655e+00
 -4.1333337e+00
 -2.6599386e+00
 -4.5058063e-01
  1.2341177e+01
  3.4596205e+00
  7.2734594e+00
  2.9371433e+00
 -5.6774654e+00
 -2.5912974e+00
 -6.3206801e+00
  3.5391457e+00
 -3.0458052e+00
 -1.5990275e+00
  1.4143723e+00
  2.6521385e+00
 -6.5070620e+00
 -9.3013372e+00
  7.3285098e+00
  8.3722076e+00
 -6.0305327e-01
 -4.2023458e+00
 -1.8160093e-01
 -9.2294812e-01
  1.5061351e+00
  2.9043779e+00
 -3.6588109e-01
  2.9724569e+00
  2.1521142e+00
 -2.9574637e+00
 -8.3887615e+00
  2.4231470e+00
 -1.2027429e-01
 -1.6240674e-01
 -5.6307846e-01
  2.0929024e+00
 -3.1742065e+00
 -1.1180877e+01
  1.2926121e+00
 -2.4792576e+00
  5.8615047e-01
  2.7873416e+00
  3.0468099e+00
  1.8035015e+00
 -4.7300148e+00
  9.9994397e-01
 -2.4736073e+00
  3.7736714e-01
  1.7026275e+00
 -1.4197619e+00
  6.7721188e-01
 -8.4136009e-01
 -4.4420218e+00
  1.9471608e-01
  5.4160318e+00
 -4.6617465e+00
 -2.2272747e+00
  2.5652676e+00
 -1.9178068e+01
 -1.1721486e+00
 -3.5594714e+00
  8.8150129e+00
  2.9670928e+00
  3.6766639e+00
  1.0165832e+01
 -2.4435430e+00
  8.7754269e+00
  3.8167698e+00
  5.9258175e-01
  5.4975915e+00
  5.3002934e+00
 -2.1836627e+00
  3.9462416e+00
 -4.3263497e+00
 -1.4478462e+00
 -3.2675471e+00
 -3.0019588e+00
 -2.6846974e+00
  4.7320671e+00
  6.7714977e-01
  4.2057991e+00
  7.4406415e-02
  2.3081522e-01
  1.6425281e+00
  2.8844316e+00
  4.6499419e+00
  3.4524720e+00
 -4.2715173e+00
  2.6416402e+00
  2.9050913e+00
  1.3603186e+01
  4.9520721e+00
 -6.2779731e-01
  2.3458579e+00
  8.0164254e-01
 -7.6743007e+00
 -2.8536671e-01
 -1.9038104e+00
  6.4587135e+00
  3.3446629e+00
 -1.3723244e+01
  1.0253605e+00
 -7.3386807e+00
  8.9499397e+00
 -5.9232292e+00
 -1.6297210e+00
  5.9905562e+00
  1.4808877e+00
  1.5671722e+00
  1.6675500e+00
  7.2228396e-01
  1.7666956e+00
 -2.7614315e+00
 -4.0180473e+00
  6.4678044e+00
  5.8486443e+00
  1.3004967e+00
 -3.5122263e-01
 -3.5311699e+00
 -4.5523038e+00
  1.5188894e+00
 -6.6698084e+00
  1.3442979e+00
  3.3491211e+00
 -1.1500542e+00
 -4.4052806e-01
 -3.2350490e+00
 -2.3373437e+00
 -2.2340395e+00
  1.9336261e+00
  1.2481337e-01
 -2.7107978e+00
  6.5923947e-01
  2.0763104e+00
  5.1720948e+00
  1.4564565e-01
 -1.0007613e+00
  5.1983318e+00
 -3.4468517e+00
 -5.8931208e+00
 -2.0728009e+00
 -2.2122836e+00
  7.1479044e+00
  1.2597387e+01
  4.0943952e+00
  5.6285076e+00
  8.5496342e-01
 -5.7117481e+00
  5.0076070e+00
 -2.9362059e+00
 -3.5988018e-03
 -1.3404258e-01
 -7.5609255e+00
 -6.2399983e+00
 -7.2949517e-01
  4.0067096e+00
 -2.4449301e+00
 -9.7256193e+00
  8.5144049e-01
  1.6727328e+00
 -4.2520165e+00
 -2.6514046e+00
 -1.2849953e+00
 -2.2440126e+00
 -1.4049672e-03
 -1.3653834e+00
 -8.3265424e-01
 -3.0844975e+00
 -2.6827157e+00
  3.7929740e+00
  1.1407340e+00
 -1.8072866e+00
  3.3859212e+00
  2.7029195e+00
 -1.8849488e-01
  2.7548404e+00
 -5.8089846e-01
  4.1336503e+00
 -1.6222162e+01
  4.1121440e+00
  7.7975589e-01
  3.6780281e+00
 -1.2649014e+01
 -2.1844733e+00
 -1.0675423e+01
  5.5082951e+00
 -1.2102047e+00
 -5.4803860e-01
  2.3791080e+00
  8.4353418e+00
  7.1633368e+00
  4.7802696e+00
 -1.5283559e+01
  8.5847086e-01
  2.0146759e+00
  3.3799257e+00
 -1.4188557e+00
 -1.0961952e+00
 -9.1886379e-02
 -2.2836205e-01
  7.8703517e-01
  2.1322842e+00
 -4.9973035e-01
  7.3854893e-01
 -1.1495676e+00
  1.1395524e+00
  7.5238585e-02
 -5.9317451e+00
 -8.8471122e-02
  3.2415016e+00
 -4.3017502e+00
 -2.3672009e+00
 -1.8364122e+00
 -1.1545469e+01
 -9.8387775e+00
 -1.9245064e+00
  4.7638011e-01
 -1.2507151e+00
 -1.3826497e+00
 -2.2552099e+00
 -5.9013166e+00
 -2.7693813e+00
  6.2589407e+00
  1.0349350e+00
 -2.6581395e+00
 -4.0078025e+00
 -8.0929853e-02
  9.8176450e-01
 -6.2685504e+00
 -4.5609894e+00
  9.8200697e-01
 -2.5789833e+00
 -4.0557189e+00
  2.7580211e+00
  2.7686234e+00
  4.6505742e+00
  1.8117204e-01
 -3.5041676e+00
  7.5766861e-01
  3.2080560e+00
  2.3769295e+00
 -2.7678373e-01
 -2.4353209e+00
 -4.1786504e+00
 -8.6892366e+00
  7.2151718e+00
 -2.4503858e+00
 -1.0742292e+00
  5.5423260e-01
 -1.2970330e+00
 -5.8983774e+00
  9.1077042e-01
 -1.0461981e+01
  3.4844964e+00
 -3.2730658e+00
  1.6609763e+00
  7.2773409e+00
 -7.3387474e-02
 -5.2211437e+00
 -2.9808444e-01
  7.1074824e+00
 -4.4377761e+00
 -2.7811430e+00
  1.7446016e+00
 -5.3851886e+00
  6.5670043e-01
  4.4333646e-01
 -8.2689959e-01
  5.3632283e+00
  2.8475540e+00
 -1.0769864e+01
  3.4753742e+00
 -6.3037109e-01
  1.7733036e+00
 -6.8698082e+00
 -5.3883142e+00
 -9.2409503e-01
  7.0090227e+00
 -7.8515625e+00
 -1.4105940e+00
 -7.6410460e+00
  8.9415789e+00
  5.8386922e+00
  4.6470695e+00
  1.5912431e+00
  1.4318550e+00
  8.3925438e+00
 -1.5862149e+00
 -2.4277046e+00
 -8.4781799e+00
 -2.4580271e+00
 -4.2625141e+00
 -6.6089363e+00
  6.9320140e+00
  4.7492960e-01
 -1.9490011e+00
 -1.0992298e+00
  2.6688044e+00
 -2.2908745e+00
  1.6287220e+00
 -6.6610513e+00
 -2.4656985e+00
  3.8704425e-01
 -6.2821522e-02
  1.1130143e+01
 -4.3585652e-01
 -7.9708028e+00
  3.6152360e+00
 -4.0013570e-01
 -4.0430365e+00
  9.4424838e-01
  1.7772732e+00
  1.0144179e+00
 -4.1589922e-01
  7.8205376e+00
  1.7965273e+00
 -9.0851152e-01
  3.4963739e+00
 -5.9796748e+00
  6.1833568e+00
  8.6761494e+00
 -6.0864049e-01
 -2.2921140e-01
 -2.8137224e+00
 -1.0137126e+01
 -1.8276405e+00
  1.6964422e+00
  1.8475546e+00
 -3.5139551e+00
  1.3944390e+00
 -2.1714990e+00
 -9.9531722e-01
 -1.8848344e+00
 -3.1384397e-01
 -5.9988332e+00
 -1.3762373e+01
 -6.6579962e+00
 -3.3991613e+00
  3.9369316e+00
 -1.3332670e+00
 -1.8833070e+00
  4.4164262e+00
 -1.6703303e+00
  7.7904910e-01
 -4.1671214e+00
 -3.2414491e+00
  4.4983349e+00
 -2.1558046e+00
  1.8189060e+01
 -4.2175226e+00
 -1.6350406e+00
  7.7748871e+00
  2.6872718e+00
  7.5746709e-01
  9.0320539e+00
  3.1350462e+00
 -1.1694964e+00
 -1.0797166e+00
 -2.8420591e+00
 -8.0944281e+00
  2.4104452e+00
 -3.1850650e+00
  1.1289946e+00
 -8.9870554e-01
 -6.2770772e+00
  5.5248446e+00
 -1.9490252e+00
 -1.0105616e+01
 -5.6786938e+00
  1.5085142e+00
 -2.0737233e+00
 -1.2661747e+00
 -2.4794266e+00
 -3.7034816e-01
 -4.7014565e+00
  6.0422134e+00
 -4.0465283e+00
  2.4807262e+00
 -4.2432461e+00
 -7.0389371e+00
  1.4760629e+00
 -7.7796254e+00
 -1.5424097e+00
 -5.7429976e+00
 -1.1756875e-01
  6.8794215e-01
 -4.3777709e+00
  5.1128106e+00
  8.2229767e+00
  1.7878443e+00
  3.4086144e+00
 -4.0109649e+00
 -5.5544748e+00
  1.1913343e+01
 -5.0672817e+00
  2.8194699e-01
  2.1714003e+00
  2.6779916e+00
  7.2030491e-01
  5.3396730e+00
 -1.5529208e+00
 -5.7070148e-01
 -3.1039615e+00
  2.1607342e+00
 -8.4574693e-01
  1.0139676e+00
  1.6013609e+00
 -4.0284958e+00
  4.1178548e-01
 -2.0823092e+00
 -2.7241611e+00
  3.1804414e+00
  3.3267567e+00
  7.1554632e+00
  1.3228490e+00
 -3.6673126e+00
  6.4283848e+00
  2.3615017e+00
 -5.2614510e-02
 -7.3817778e-01
 -9.2134476e+00
  2.1726787e+00
  2.1644762e+00
 -1.0851902e+00
  4.2075462e+00
 -1.5013341e+00
  4.5429277e+00
 -1.6675587e+00
 -5.9564862e+00
  8.8979614e-01
  1.9604832e+00
  3.2153103e+00
  7.1945052e+00
  2.1383057e+00
 -2.8998964e+00
 -2.7703483e+00
  2.4563648e-01
  3.4773023e+00
 -1.3770586e+00
  1.4659666e+00
  3.2420070e+00
  5.5095286e+00
 -2.2423732e+00
 -9.1856712e-01
  3.5220325e-01
 -4.9670405e+00
 -6.9942346e+00
  1.4495639e+00
  5.3807247e-01
 -5.8112259e+00
 -3.1750939e+00
 -3.0267973e+00
 -1.2031454e+00
 -2.7480248e-01
  1.8526188e-01
  4.9524455e+00
  1.9911797e+00
  2.7433929e+00
  7.8607998e+00
 -3.3977991e-01
 -8.4645033e+00
  7.2557616e-01
 -1.9327735e+00
  5.4195404e+00
  5.5499682e+00
 -4.0376320e+00
 -4.8854403e+00
  1.6958493e+00
  3.4406044e+00
  2.7052538e+00
 -2.7807269e+00
  2.8319054e+00
  1.8165081e+00
 -3.7086153e+00
 -1.8157667e-01
 -5.7127528e+00
 -5.2775493e+00
  8.5996408e+00
 -1.7984286e-01
 -1.0045611e+00
  1.4197666e+01
 -9.4553244e-01
 -5.0161425e-02
 -6.5471773e+00
  3.7331078e+00
 -1.9037784e+00
 -2.0978732e+00
 -8.9611731e+00
  2.9263978e+00
 -1.4757435e+00
 -9.5420160e+00
 -5.8465633e+00
 -5.4292927e+00
  4.8179531e+00
 -5.7220697e+00
 -1.6395843e+00
  5.4766111e+00
  4.1364822e-01
  4.8483983e-02
  2.6163819e+00
 -1.8981012e+00
  3.5804834e+00
 -2.8583856e+00
  8.8860291e-01
  6.2417078e-01
  4.0275675e-01
  7.0018749e+00
 -1.4882566e+00
 -2.0089474e-01
  8.2182989e+00
 -3.5619655e+00
 -1.0378823e+01
 -3.8296702e+00
  6.2548882e-01
 -1.5401257e+00
 -9.1536226e+00
 -3.5656016e+00
 -1.0659734e+00
 -5.4270663e+00
 -1.0127699e+01
 -2.0282927e+00
  6.4971447e+00
  4.6087637e+00
  2.4697824e+00
  3.9474466e+00
  7.6714349e+00
  1.0303471e+00
  5.4001790e-01
  4.2658243e+00
  6.6620970e-01
 -2.3518746e+00
  4.1622946e-01
  2.2589290e+00
 -9.8911715e-01
  2.6134992e+00
 -8.1364374e+00
  5.1441506e-02
  3.6910911e+00
 -4.4879565e+00
 -3.4361842e+00
  6.2220640e+00
 -1.6554022e+00
 -1.7943605e+00
  1.1381458e-01
 -2.3414750e+00
  6.7585611e+00
  1.2677205e+00
  8.3842030e+00
  3.5004389e+00
  5.1601176e+00
  4.9436510e-01
 -2.9213812e+00
  2.5431032e+00
  1.2960908e+00
  1.0895625e+00
  8.9817076e+00
  2.8277886e+00
 -2.9030514e+00
 -4.3701677e+00
 -3.0534205e+00
 -7.4408312e+00
 -2.4396682e+00
 -6.0918169e+00
  1.5187393e+00
  1.9230584e+00
 -5.4377933e+00
  5.3552694e+00
 -5.0485325e+00
 -7.1923280e+00
 -2.1060014e+00
 -4.8282817e-01
 -3.7229438e+00
 -5.7661972e+00
 -5.2993922e+00
 -5.1342702e+00
  2.5220098e+00
 -1.6676782e+00
 -3.0255296e+00
  7.6898451e+00
  2.7162235e+00
  5.8216339e-01
 -6.3868076e-01
 -5.4740009e+00
 -2.1451600e+00
 -7.1259940e-01
  4.8338008e+00
 -3.2176564e+00
 -3.7796299e+00
 -2.7482727e+00
  2.2171128e-01
 -1.7402339e+00
 -5.5461197e+00
 -3.5747061e+00
  5.9673352e+00
 -7.3340714e-01
  2.1749969e+00
 -6.6364269e+00
  1.0404295e+01
 -1.0054238e-01
 -1.7615651e-01
  1.8429184e+00
 -1.2999750e+00
  3.4257712e+00
 -3.1574503e-01
  4.8469911e+00
  8.9580405e-01
 -1.6620986e+00
  6.1490331e+00
 -5.3957257e+00
 -3.1546283e+00
  1.0284065e+00
 -1.7156650e+00
  1.0078751e+01
 -1.8459967e+01
  1.3617029e+01
 -1.2665557e+00
 -4.3593087e+00
 -1.3867224e+00
  3.0945008e+00
  2.5233951e+00
  2.5545114e-01
  8.6420336e+00
 -1.0397803e+00
  1.8740598e+00
  3.5824864e+00
 -2.4911373e+00
 -1.5379250e+00
 -5.7659445e+00
 -4.6958528e+00
 -4.0168431e-01
 -1.0138711e+01
 -3.2572482e+00
  2.3784769e+00
 -6.3343692e+00
  8.6273342e-01
 -1.1759483e+01
 -7.9697573e-01
 -1.5524499e-01
 -4.7519708e+00
  1.1957779e+00
 -3.8403854e-01
 -4.3089404e+00
 -1.1289426e+00
  4.8564391e+00
 -9.3981588e-01
 -4.6879525e+00
 -6.6678792e-01
 -3.7492411e+00
  4.0320572e-01
  1.3163505e+00
 -1.3926557e+00
 -2.5758049e-01
  7.8079593e-01
  3.2842784e+00
  5.7865256e-01
 -4.2576697e-01
 -1.1883651e+00
 -8.2394145e-02
  7.1111524e-01
 -2.0950322e+00
 -1.0696895e+00
  1.9125944e+00
 -3.5882101e+00
  3.2169797e+00
 -1.9729061e+00
  8.8189220e-01
 -3.9621098e+00
 -4.2481380e+00
  1.2222208e+00
 -1.2100242e+00
 -5.9508699e-01
 -4.2348337e+00
 -2.0609398e+00
 -7.4283180e+00
 -1.0758058e-01
  3.0410833e+00
  5.3403759e-01
 -5.2347612e+00
 -7.9653370e-01
  4.6975464e-01
  2.0306263e+00
 -7.0034474e-02
  6.2652159e+00
 -1.0320171e+00
 -2.6476972e+00
 -1.5048065e+00
 -4.3640056e+00
 -4.9903202e+00
  1.3871235e+00
  4.4635475e-02
 -2.2408998e+00
 -6.9047265e+00
 -5.6371603e+00
  2.2504246e-01
  3.4822950e-01
  1.8261527e-01
  1.2385122e+00
 -3.0029750e+00
 -8.4701395e+00
 -2.1084917e+00
 -1.0582061e+00
  3.0375926e+00
  3.4260345e+00
 -8.6381712e+00
  1.0520529e+01
  1.2327288e+00
  5.9397635e+00
  3.6724231e+00
 -1.1732291e+00
  6.0996056e+00
 -8.7517204e+00
  7.6789176e-01
  8.2751864e-01
  2.4654975e+00
  4.0140109e+00
  1.5765345e+00
  2.5229540e+00
  5.3126526e+00
  1.8575455e+00
  1.2411977e+00
 -6.1744742e+00
  6.7567295e-01
 -2.8917974e-01
  1.1614577e+00
  2.1714696e-01
  4.2337308e+00
 -2.8586891e+00
  5.3579903e+00
  4.7047935e+00
 -3.1196311e+00
 -2.1090157e+00
 -2.2970505e+00
  3.2768629e+00
  1.4208237e+01
 -1.2042370e-01
  2.5964143e+00
 -1.6357302e+01
 -7.9529762e+00
 -7.7689738e+00
 -1.0965233e-01
  2.9137573e+00
  6.4885049e+00
 -4.4521159e-01
 -1.1316059e+00
 -1.3003316e+00
 -5.0290747e+00
  1.6703655e+00
  3.5571069e-01
  8.6051300e-02
 -1.2883353e+00
  1.5622376e+00
 -3.2969196e+00
 -1.1750025e+00
  1.4931495e+00
 -2.0502346e+00
 -1.0386592e+00
 -8.8649601e-01
 -2.0031934e+00
  1.0765345e+00
 -6.7601857e+00
  1.4043354e+00
  5.2076702e+00
  4.1801915e+00
  7.7119751e+00
  4.2149305e-01
  1.6856667e+00
  1.2931606e+01
 -4.0251333e-01
 -3.0929081e+00
 -4.0401392e+00
 -1.4039840e+00
 -2.8986764e+00
 -3.0783377e+00
 -2.0999327e+00
  1.1629252e+00
  1.1628032e-01
 -7.6019535e+00
  5.4437475e+00
  1.5001421e+00
  3.0665615e+00
 -2.5835278e+00
 -3.1965140e-01
  7.0773244e+00
 -4.3696990e+00
 -1.0133735e+01
 -5.3346157e-03
  5.3200731e+00
  3.5424191e-01
  5.0951490e+00
  6.6579133e-01
  2.9541616e+00
 -1.3500973e+00
  2.5996711e+00
 -3.1774333e+00
  1.3944958e-02
  6.2804538e-01
 -4.7986326e+00
  2.2801275e+00
  7.3350483e-01
 -7.6886851e-01
 -3.2751377e+00
  8.4478509e-01
 -2.8659291e+00
 -4.7148687e-01
 -1.6445160e+00
 -3.7035391e-01
  3.3259044e+00
 -3.1310561e+00
 -9.7548527e-01
  3.1626961e+00
 -6.1249094e+00
  5.1393661e+00
  6.0082378e+00
 -4.1136341e+00
  7.7444315e-04
 -1.3892723e+00
  7.0424998e-01
  2.4373307e+00
  3.1342568e+00
 -1.1689769e+00
  3.8564618e+00
  8.8516515e-01
 -5.2764654e+00
 -3.0192320e+00
 -1.4795663e+00
 -7.4869647e+00
  1.0911342e+01
 -6.7010159e+00
  4.4899297e+00
  1.5154719e+00
 -5.4627910e+00
 -2.0097830e+00
  5.4701915e+00
  4.4655585e+00
  2.4347585e-01
 -1.0926640e+00
  1.0877535e+01
 -3.6336195e-01
 -1.8874103e+00
  7.5220782e-01
  7.6609981e-01
  1.2242136e+00
  3.3283503e+00
  7.3850875e+00
 -7.2410030e+00
  6.4096832e-01
 -6.5622044e+00
  1.0464622e+01
  3.3780212e+00
 -3.9041026e+00
 -3.8539643e+00
  2.3389003e+00
  2.9920797e+00
  5.1184583e+00
  1.9394791e+00
  2.5774243e+00
 -2.6124985e+00
 -7.4700727e+00
  6.4002557e+00
  2.1284707e+00
  6.1294332e+00
 -1.5110143e+00
  2.5378795e+00
 -2.5555155e+00
 -7.6325852e-01
  5.2711511e+00
  6.2299566e+00
 -3.7499144e+00
  8.0338365e-01
  2.4741774e+00
  5.1744266e+00
  4.1185230e-01
 -3.6494365e+00
  1.3120461e+00
  1.5891191e-01
 -7.2064102e-01
 -1.6947590e+00
 -5.3323364e+00
 -3.1709857e+00
  5.4976434e-01
 -2.0274632e+00
  3.0801463e-01
 -2.4457397e+00
 -2.2812614e-02
 -1.5232682e+00
  3.3394265e+00
  5.5063329e+00
 -6.7023726e+00
 -4.6570486e-01
 -2.0023601e+00
 -9.6760011e-01
 -3.8547866e+00
 -4.2478919e+00
 -1.4947047e+01
 -8.9138956e+00
  8.8500279e-01
 -4.0524888e+00
 -1.0058811e+01
 -1.1303586e+00
 -5.5050383e+00
  1.1232972e+00
  1.8951561e+00
 -2.3229074e+00
  7.3819265e+00
  2.7996257e-01
  4.0429199e-01
 -4.1180813e-01
  1.6866646e+00
 -1.1658974e+00
 -6.7954721e+00
 -4.4144492e+00
  4.4554620e+00
 -1.0470953e+01
 -1.2509160e+00
 -9.2641306e-01
  2.7418786e-01
 -8.1540608e-01
  4.2510982e+00
 -9.6115959e-01
 -1.8111705e+00
  2.1780822e+00
 -2.6404688e+00
  9.8388214e+00
 -5.9637322e+00
  1.8418703e+00
  2.7425363e+00
 -1.1316341e+00
 -8.1210737e+00
 -3.9182222e+00
 -3.5584064e+00
  2.3617194e+00
 -4.6779790e+00
 -7.1026546e-01
  4.7539411e+00
 -4.0156541e+00
  7.8117329e-01
  7.8388329e+00
 -6.7901707e+00
  7.4403310e+00
 -2.7264299e+00
  2.3024201e+00
 -9.8828802e+00
 -7.8032601e-01
  6.4956570e-01
 -8.3809576e+00
 -8.3410758e-01
  5.3307519e+00
 -1.2848802e+00
  1.0660266e+01
  2.4457066e+00
 -2.7765632e+00
  7.1003275e+00
 -2.3833275e+00
 -7.9206343e+00
  6.7720995e+00
 -2.7888877e+00
  7.6377015e+00
  7.4234343e-01
  3.0507407e+00
 -9.1329682e-01
 -5.4628382e+00
  2.6791722e-01
 -5.1683021e-01
 -2.2532246e+00
 -8.8136787e+00
  9.0372086e+00
  2.0449305e+00
 -4.6917605e+00
 -5.2438135e+00
 -7.0361149e-01
 -4.9027658e+00
 -4.6833941e-01
  1.0025486e+00
  3.7824271e+00
  5.7273680e-01
  9.3606436e-01
  1.7462895e+00
 -5.5992287e-01
  4.0526271e+00
  1.1392230e+00
 -3.2425656e+00
 -4.1252446e+00
  2.2557738e+00
  6.5948194e-01
  8.5507536e-01
  3.3520765e+00
  1.9582794e+00
  2.1545720e+00
 -1.1550764e+00
 -9.6661705e-01
  5.7296646e-01
 -1.7103648e+00
  1.2140704e+00
 -4.5283256e+00
  5.8675251e+00
  2.7678216e+00
  5.4031119e+00
  6.8832767e-01
  2.8064673e+00
  4.3796358e+00
  3.7190242e+00
  9.8898992e-02
 -3.5120940e+00
 -1.7123739e+00
  1.1732249e+00
  5.7702127e+00
  1.6644729e+00
 -1.8714937e+00
 -1.9438010e+00
 -6.0792670e+00
 -5.5542860e+00
 -9.4996917e-01
 -2.0275977e+00
  4.1852846e+00
 -5.6414819e-01
 -2.7420254e+00
  3.4736903e+00
  7.1668315e+00
 -3.1553659e+00
 -1.5497191e+00
 -3.2717342e+00
  2.0662982e+00
  7.8410983e-02
  5.4139438e+00
  4.7598081e+00
  3.9337041e+00
  3.6408951e+00
 -2.2310982e+00
  5.1013527e+00
  8.2814436e+00
  1.9374918e+00
 -4.0015548e-01
  3.6841488e+00
  1.4519808e+00
 -4.6208863e+00
  7.0601959e+00
 -1.5973716e+00
 -2.6881161e-01
  5.9686607e-01
 -5.3907933e+00
 -2.0191479e+00
  1.3640627e+00
  1.5057099e+00
  5.0078616e+00
  9.9719839e+00
 -6.4713502e+00
 -2.7195102e-01
  2.6596034e+00
  1.0273228e+00
  3.6115127e+00
 -2.4162667e+00
  4.9020777e+00
  4.2568011e+00
 -2.3855824e+00
 -3.6461682e+00
  2.8421600e+00
  4.4343538e+00
  3.1713526e+00
 -1.3200833e+00
  2.0256426e+00
  8.5538143e-01
  1.1155284e+01
 -5.0338016e+00
  5.7392864e+00
 -2.0911818e+00
 -4.7231159e+00
  1.4687891e+00
  7.6759672e+00
 -1.3670628e+01
 -4.1013079e+00
 -3.0509586e+00
  7.9063821e+00
 -6.0671502e-01
 -1.4582256e+00
 -2.8335857e+00
 -2.5184774e+00
  8.8964462e-01
  1.3450222e+00
 -3.8788559e+00
 -3.2694936e+00
  4.3160397e-01
 -5.7293477e+00
  2.9805465e+00
 -9.7931129e-01
 -4.3348136e+00
 -4.4079411e-01
 -1.8910043e+00
  4.2923880e-01
  9.0713406e+00
 -1.0177086e+01
 -3.1974187e+00
 -5.9351683e+00
 -6.8450561e+00
  5.6844234e-01
  2.9968538e+00
 -1.7709695e+00
  4.9112570e-01
 -7.8328216e-01
 -3.5990355e+00
 -1.3179953e+00
  7.1310687e-01
 -1.4088044e+00
  3.7762392e+00
  8.2175922e-01
  4.1068859e+00
 -2.5222025e+00
  3.9311343e-01
 -2.1326623e+00
  5.6751790e+00
  3.0951807e+00
 -1.8034316e+00
  6.6401803e-01
 -2.0170178e+00
 -1.1169993e+01
 -4.8159871e+00
 -2.3320096e+00
  1.9917635e+00
 -3.4930539e+00
 -1.7875164e+00
 -5.1697750e+00
 -4.4131036e+00
  1.1060963e+00
 -8.5691147e+00
  1.1101966e+00
 -2.7257953e+00
 -4.0147996e+00
 -1.9722098e+00
 -8.3513993e-01
 -5.3069010e+00
  1.2966545e+00
  8.0629482e+00
 -6.5410299e+00
 -4.1758078e-01
 -2.0855428e-01
  4.9923844e+00
 -7.1599946e+00
 -1.3589218e+00
 -1.3232380e+01
  5.9883660e-01
  1.3006213e-01
 -3.2123301e+00
  3.4594774e+00
  4.3752766e+00
 -6.3558555e+00
 -2.6775608e+00
  3.7078360e-01
 -5.5767341e+00
 -4.5641599e+00
  1.0625961e+01
 -4.7284603e-01
 -2.6240740e+00
 -1.1737363e+01
  1.2515891e+00
  8.5316095e+00
 -1.6161889e+00
 -7.8005552e+00
  1.2499088e+00
  2.3652377e+00
 -8.0231041e-01
  5.5613770e+00
 -5.2577724e+00
  3.6173968e+00
 -3.7593191e+00
  5.6052822e-01
 -3.9862790e+00
 -1.9125059e+00
 -7.9451313e+00
  5.8494172e+00
  2.3193330e-01
  2.9726608e+00
  6.8519254e+00
 -6.4714489e+00
  3.3935697e+00
  3.6739926e+00
 -1.1254006e+01
  1.4942017e-01
  4.5743747e+00
 -1.1169571e+00
 -8.3937931e-01
 -1.2472429e+00
 -5.7218285e+00
  1.8042650e+00
  5.3631406e-02
  2.5684540e+00
  6.9764547e+00
 -2.2657444e+00
 -6.2643418e+00
  2.8921781e+00
  3.9389119e+00
  1.9086818e+00
  3.6260626e+00
 -6.0155356e-01
  6.1085663e+00
  2.9271650e-01
 -2.3930521e+00
 -3.8135729e+00
  6.0446081e+00
 -1.0675836e-01
 -2.3878224e+00
 -1.4606992e+00
  4.8427781e-01
 -1.4779665e+00
  3.2679782e+00
 -2.1223733e+00
 -1.2757955e+01
  5.9649830e+00
  9.6269913e+00
 -6.8634677e-01
  5.1583946e-01
  6.7963352e+00
  8.2654268e-01
 -3.0597883e-01
 -8.2588062e+00
  5.1691313e+00
 -1.1330584e+00
  8.2238541e+00
 -4.7128973e+00
  1.7047828e+00
 -1.7741266e-01
 -2.0694530e+00
 -1.6832736e+00
  4.5613551e+00
  9.2641449e-01
 -1.5371591e+00
  9.3216240e-01
 -4.4901853e+00
 -3.9490964e+00
 -1.2766483e-01
  7.1130234e-01
  2.7916272e+00
  5.6098425e-01
  3.6326311e+00
  6.7501497e+00
  9.5640068e+00
 -1.0067744e+00
  1.4003974e+01
  1.1000957e+00
  4.1157761e+00
  2.5033855e+00
 -5.7257380e+00
 -3.6870377e+00
  1.0723915e+00
  1.4142075e+01
  3.2438669e+00
  4.0687525e-01
  8.1497473e-01
 -7.8742366e+00
 -7.6983094e-01
 -7.7125412e-01
  1.6558242e+00
 -3.4032395e+00
  7.7002988e+00
  5.8074489e+00
  2.0972469e+00
  6.7981601e-02
  9.7695976e-01
 -1.5428363e+00
 -1.3213423e+00
 -4.3644662e+00
  2.6320388e+00
  4.2324603e-01
 -2.8321629e+00
  3.5851631e+00
 -2.1140652e+00
  2.9163473e+00
 -1.3364609e+00
  7.6952939e+00
 -1.7753345e+00
 -2.6473136e+00
 -4.1372709e+00
 -9.9031121e-01
 -3.4754746e+00
 -2.3010352e-01
 -6.5700107e+00
 -2.9315734e+00
 -3.3687418e+00
  3.6665838e+00
 -4.4602847e+00
  3.4732831e+00
 -7.6534462e+00
 -5.6602898e+00
 -8.1688938e+00
  5.2854238e+00
  2.8723438e+00
 -1.0642493e+00
  2.4775596e+00
 -6.3435054e+00
 -5.9183949e-01
 -2.6847577e-01
 -7.1698618e+00
  1.1640890e+00
 -4.4868236e+00
 -3.6119046e+00
 -4.2187762e+00
 -3.2988725e+00
  7.2908010e+00
 -4.4811530e+00
 -1.1894628e+00
 -5.0289531e+00
 -3.8046157e+00
 -5.7379901e-02
  2.5494893e+00
  3.3139443e+00
 -2.6085732e+00
 -1.9981312e+00
  2.8026724e+00
 -3.1768844e+00
  9.9207103e-01
 -8.8685980e+00
 -1.3884220e+00
 -3.3061726e+00
 -7.0318937e-01
  2.6624009e-01
  4.5042539e-01
 -1.1110259e+00
 -2.3154526e+00
  4.5709319e+00
 -1.3729463e+00
 -5.4358420e+00
  5.9699929e-01
  3.5699198e+00
 -7.2116232e+00
 -7.7623811e+00
  4.6380424e+00
  7.4549747e-01
 -4.0200458e+00
 -2.6510246e+00
 -3.3160710e+00
 -1.1873028e+00
  3.3500733e+00
 -1.9607635e+00
  1.1265515e+00
 -8.8289475e-01
  5.2207003e+00
  1.5433670e+01
 -9.6659787e-02
  5.6530094e+00
 -1.7902904e+00
  2.5557411e+00
  4.0920506e+00
 -2.4847891e+00
  1.0179570e+01
 -1.3148829e-01
 -3.1728568e+00
  1.9633183e+00
  3.5131803e-01
  8.9309365e-01
 -1.2637484e-01
  1.4307948e+00
  2.8110445e+00
 -4.5189943e+00
  2.8777045e-01
  3.1758046e-01
 -1.0165747e+00
  1.4495225e+01
 -3.3224037e-01
  8.6564280e-02
 -1.4856938e+00
  4.8263580e-01
 -4.2167463e+00
  2.1989381e+00
 -1.2009053e+00
  1.4653239e+00
  5.7329923e-01
 -1.0325573e-02
  1.9741973e+00
 -1.1948351e+00
 -7.6633379e-02
  3.1299797e-01
 -4.5606294e-01
 -6.3269585e-01
  1.6008247e+00
  3.6149999e-01
 -9.2449039e-01
 -6.9400567e-01
  3.8192829e-01
  2.4140081e+00
  2.2655199e+00
 -1.1442392e+00
 -5.3951181e-03
  3.7831492e+00
 -2.6418063e-01
 -1.3097616e+00
  4.8332289e-01
 -1.6016814e+00
 -3.6519006e-01
 -2.2990687e+00
  1.4042810e+00
 -1.2375330e+00
 -3.1921086e+00
  6.6843159e-02
 -1.0268582e+00
 -1.1249459e+00
 -6.0376387e-02
 -1.2962382e+00
  1.1619988e-01
 -6.2334429e-02
  1.1379333e+00
 -8.5294205e-01
 -7.1599877e-01
  4.3366209e-01
 -1.7096947e+00
 -3.5409617e+00
  2.0146157e-01
 -2.9429018e+00
 -1.3977233e+00
  2.5035393e+00
  2.9910371e+00
 -6.8193448e-01
  1.5270129e+01
  1.1851147e+00
  4.4814980e-01
 -1.3496042e+01
 -1.9999585e+00
  1.7856772e+00
  1.8758247e+00
 -8.3753805e+00
 -1.5736525e+00
 -2.5583938e-01
  4.5643201e+00
 -1.5364509e-02
 -7.1365252e+00
  1.0097692e+01
  1.3914169e+00
 -2.0606065e+00
  8.2409182e+00
  3.1420834e+00
  1.1545044e+01
 -4.6585879e+00
 -5.1559720e+00
 -2.1382735e+00
  9.7294194e-01
  3.5946932e+00
 -2.8218226e+00
 -5.5429034e+00
 -1.1202772e+01
 -1.3283905e+00
  1.4356469e+00
  9.9556618e+00
 -6.7441039e+00
 -2.1966407e+00
 -2.4613855e+00
  3.8905141e+00
 -1.0567412e+00
 -4.6784955e-01
 -1.4123044e+01
 -3.5825610e+00
  6.0171789e-01
  5.9719729e+00
 -4.3588722e-01
 -1.0229235e+01
  6.0204279e-01
  4.6392698e+00
  2.6588061e+00
 -3.8935164e-01
 -1.5769843e+00
 -3.6374953e-01
  4.8947563e+00
 -3.0372477e-01
 -2.0773476e-01
  2.1536842e-01
 -2.1755555e+00
 -3.6527493e+00
 -4.8707700e-01
  1.6048611e+01
  3.7018788e+00
 -6.7748089e+00
 -5.4524994e+00
  2.6982377e+00
  3.2004933e+00
  1.6803132e+00
 -5.6648622e+00
  1.8088932e+00
  5.6505948e-01
  2.6579957e+00
 -3.7204593e-01
  2.5915403e+00
  4.2085590e+00
 -8.5361138e-02
 -3.6672685e+00
  9.8614292e+00
  1.0691143e+00
  7.0478415e-01
 -2.6261938e+00
 -3.0461652e+00
 -7.5894481e-01
 -6.1100011e+00
 -1.1810669e+01
  2.8867731e+00
 -4.8300421e-01
 -2.6768448e+00
  3.8897009e+00
  2.1985738e+00
  3.1462419e+00
  1.4264452e+00
 -3.6452806e+00
 -2.1768262e+00
 -6.4896977e-01
 -6.1750263e-01
  3.2993054e+00
 -1.0532641e+00
  1.3687568e+00
  1.9645978e+00
 -1.9482563e+00
  6.4614592e+00
 -1.4775895e+00
 -7.8334990e+00
  4.9547348e+00
  1.1033817e-01
  6.5272552e-01
  5.2724986e+00
 -2.5794694e+00
 -4.4712427e-01
 -1.4249277e+00
 -5.3994399e-01
 -1.4902068e+01
  5.5898976e+00
  4.5687313e+00
 -5.1202731e+00
  2.7909098e+00
 -1.3872170e+00
 -1.1106238e+01
 -4.8062534e+00
  1.6168015e+00
 -9.8500557e+00
  5.2597966e+00
  2.5221391e+00
 -7.4777675e+00
  3.5655260e+00
  2.1738532e+00
 -5.0657582e+00
 -2.1382077e+00
 -3.2381282e+00
  7.2847395e+00
  1.2898042e+00
 -6.5666580e+00
 -1.0504560e+01
  5.9410399e-01
  4.9812961e+00
  6.6759391e+00
  5.9217972e-01
  2.5596321e+00
 -1.4357660e+00
  9.4732122e+00
 -8.4140415e+00
 -1.4568400e+00
  9.4199228e+00
 -7.5560560e+00
  3.0374916e+00
 -2.6830988e+00
  1.6384330e-01
 -1.0737118e+00
  2.3501801e+00
 -2.9627559e-01
 -1.8573012e+00
  1.0816936e+01
  2.8830457e+00
  2.0222080e+00
 -4.0852280e+00
  5.8721814e+00
  3.4632940e+00
 -1.6224980e+00
  2.1196938e+00
  1.2897307e+00
 -4.9325743e+00
 -3.9775517e+00
  1.9285327e+00
 -4.8259115e+00
  3.1915820e+00
 -6.8393078e+00
  5.9140210e+00
 -4.7567730e+00
  3.5882604e+00
  9.9087772e+00
 -1.7012938e+00
 -4.4796224e+00
 -5.2964950e+00
 -2.8772383e+00
  2.4297684e-01
  4.3949904e+00
  9.5916300e+00
 -2.6054540e+00
 -2.5423410e+00
 -1.5263168e+00
 -2.4039755e+00
  9.9787271e-01
  7.2561235e+00
  8.7973893e-01
  2.0122659e+00
  1.6234816e+00
  8.6346072e-01
  1.9094351e-01
 -6.1573231e-01
  2.6137242e-01
 -6.1126733e-01
 -1.1494969e+01
  3.3096950e+00
 -2.1063402e+00
  3.8897276e+00
 -8.3921766e+00
 -3.3330154e+00
  1.7267367e+00
 -9.4717522e+00
  3.8008590e+00
  4.1082306e+00
 -4.1395750e+00
  4.1148663e+00
 -5.5753627e+00
  1.7944009e+00
  2.9087381e+00
 -3.4305522e+00
  1.5928177e+00
  3.5811678e-01
  4.5753407e-01
  1.5931489e+00
 -5.8991921e-01
  7.6758976e+00
 -2.9489565e+00
 -9.9617267e-01
 -3.7794828e+00
  1.3757732e+00
  1.7090448e+00
  4.2477589e+00
  1.7581837e+00
 -5.9331471e-01
 -7.0569682e+00
 -3.3851042e-01
 -6.7818470e+00
 -9.8502512e+00
  1.7540720e+00
  4.4296536e+00
 -2.2740335e+00
 -1.4461771e+00
 -5.3315794e-01
  6.7494407e+00
 -5.9200363e+00
  3.8736475e+00
  3.2195783e+00
 -2.1188125e-02
  2.5989513e+00
  3.6532218e+00
  1.6063231e-01
  5.5795634e-01
 -7.8576679e+00
 -2.9920559e+00
  5.4919987e+00
 -2.8508894e+00
  6.7088342e+00
  5.0013881e+00
 -1.7118648e+00
  3.3459733e+00
 -5.4929442e+00
 -4.4954500e+00
 -3.5626173e-01
  9.2016659e+00
  2.1430278e-01
  3.8550713e+00
 -1.0165824e+01
  5.5595212e+00
  2.5631354e+00
  2.9585788e-01
  8.3044752e-02
  2.5676408e+00
 -9.3021917e-01
 -7.0179963e-01
  2.3018684e+00
 -1.1824442e+00
 -1.5930272e+00
 -3.3628151e-01
 -1.3096499e+00
 -7.2925835e+00
  1.7275306e+00
  2.0528542e-01
  4.9002919e+00
 -5.1525011e+00
  1.8130131e+00
  6.0527215e+00
  1.8938176e-02
  1.0904574e+00
  3.6175365e+00
 -6.0969907e-01
 -5.7927313e+00
 -3.3016765e+00
 -1.8160929e-01
  7.7524524e+00
 -6.0757661e-01
  1.7556943e+00
  2.1756055e+00
  9.4376928e-01
  5.3223815e+00
  3.3779712e+00
  3.9861804e-01
  2.8919122e+00
 -2.7119648e+00
 -1.7762942e+00
 -5.4316807e+00
 -6.8894763e+00
 -6.1730534e-01
 -2.7133551e-01
 -5.7122564e-01
  8.0736189e+00
  4.9710479e+00
  3.8832445e+00
 -1.1961231e+00
  4.0035567e+00
  1.3536258e+00
  3.6794391e-01
  3.5879552e+00
 -3.1021912e+00
  1.4867588e+00
  6.6064763e+00
 -2.0722048e+00
 -3.8322389e+00
  2.5556846e+00
  4.6866527e+00
  4.8794613e+00
 -3.3845229e+00
 -2.3345215e+00
  3.7903521e+00
 -1.2305028e+00
  4.9525404e+00
  2.5391202e+00
  2.7732627e+00
  1.5299819e+00
 -3.6614206e+00
  4.7387753e+00
  1.1758353e+01
  6.3175535e-01
 -1.6841190e+00
  1.7259758e+00
 -2.5865350e+00
  1.8007361e+00
 -8.5933691e-01
  2.4267900e+00
 -1.0665281e+01
 -1.0948793e+01
 -2.9485199e+00
 -3.8972433e+00
 -1.9926445e-01
  3.3234942e+00
  2.6537645e+00
 -3.1715348e+00
 -4.3635786e-01
 -2.5329107e-01
  1.4711066e+00
 -6.0884446e-01
  6.1667314e+00
  9.1124697e+00
  1.2841791e+00
 -4.9825778e+00
 -6.8805039e-01
 -1.9620334e-01
  3.5058515e+00
  4.7690034e+00
  1.6204159e+00
  2.3799734e-01
  5.5472531e+00
  7.8080382e+00
  7.4152360e+00
  3.2223032e+00
  6.2615395e+00
 -2.7027166e+00
  2.1082754e+00
  5.6285582e+00
 -7.8030968e+00
 -1.2878771e+00
 -3.9714944e-01
 -3.5698123e+00
 -4.9431648e+00
  4.3845963e+00
  2.8978837e+00
 -7.3329597e+00
 -7.4330682e-01
 -6.1053014e-01
 -7.0364678e-01
  2.4896195e+00
 -8.5967665e+00
  5.6344743e+00
 -6.6429195e+00
 -3.0115604e+00
 -4.6644382e+00
 -3.0312619e+00
 -6.9118309e+00
  3.6796079e+00
  3.0579181e+00
 -1.0913306e+00
 -1.9933006e+00
  1.2455145e-01
 -5.7597804e-01
 -1.7985204e+00
  4.8051186e-02
 -4.5311046e-01
  9.2638224e-02
  4.3191118e+00
 -9.6460953e+00
  6.0233879e-01
 -1.6095957e-01
 -6.0707073e+00
  3.1956470e-01
 -2.2250156e+00
  5.7532673e+00
  1.8137039e+00
  2.7151012e-01
  5.8122716e+00
  6.1512742e+00
 -2.1764150e+00
  4.2647643e+00
  3.2251127e+00
 -2.0472138e+00
  5.6928992e+00
  1.2101659e+01
  1.3603603e+00
  7.6886797e-01
  1.0127467e+01
  1.7081787e+01
  3.5951855e+00
  4.1323690e+00
  2.8131902e+00
 -4.2575579e+00
  1.0211223e+00
  7.1050876e-01
  3.6002042e+00
 -7.1867375e+00
  3.3878100e+00
 -1.8661762e+00
 -2.8843260e+00
 -6.2619925e+00
 -1.7192823e+00
 -2.3963773e+00
  6.3638300e-01
  2.2684085e+00
  1.7146519e+00
  4.0882736e-01
  2.6773193e-01
 -7.9868803e+00
 -3.2298498e+00
 -3.5935302e+00
  6.8155217e+00
 -5.1489439e+00
  4.6449394e+00
  8.2935047e+00
  6.8908362e+00
 -1.4082059e+00
 -2.6263201e+00
 -5.1147423e+00
 -7.0950031e+00
 -1.1448894e+00
  9.4884434e+00
  5.9346738e+00
  4.9195486e-01
 -6.0687752e+00
  5.9098887e+00
  1.6088822e+00
  1.8848723e+00
  8.3267555e+00
  1.0543349e+00
 -3.7803861e-01
  5.1729017e-01
  9.5113236e-01
  3.3222265e+00
 -1.1721528e-01
  2.8852434e+00
 -1.1937637e+00
  2.3761802e+00
  2.1464086e+00
  7.2184854e+00
 -3.1145463e+00
 -5.0228205e+00
  5.3082019e-01
 -9.1272688e-01
  4.9167967e+00
  1.3567213e+00
  9.7149044e-01
  3.8729916e+00
 -1.5741473e+00
  3.0209715e+00
  7.0638146e+00
 -1.2040792e+00
  1.2103593e+01
  6.6765385e+00
 -2.6959491e+00
 -2.0157661e+00
  1.9422491e+00
  2.0726533e+00
  9.9723148e-01
 -3.1690350e+00
 -1.0956134e+01
 -2.0907529e-01
  1.0654785e+01
 -1.6996048e+01
 -1.3941782e+00
 -2.8587348e+00
  2.6941187e+00
 -1.0790006e+00
 -2.6255937e+00
  3.6833496e+00
  1.6841137e+00
  3.4696784e+00
 -9.6923083e-01
  4.0209479e+00
  8.9245348e+00
 -3.5254481e-01
 -3.2452581e+00
  3.9469543e+00
  9.5576894e-01
 -3.6104867e+00
  4.6633220e+00
 -3.8808935e+00
  2.5693491e+00
 -1.4534185e+00
  1.3942201e+00
  1.0216522e+01
 -7.1241379e+00
 -1.3234528e+01
 -3.1554893e-01
 -1.0535858e+00
  2.1684294e+00
  1.3260530e+00
  4.3081160e+00
  4.0838342e+00
 -3.5527706e-02
  6.6461051e-01
 -1.2394650e+00
  3.1106699e-01
  1.9329817e+00
  2.6833949e+00
  4.2111168e+00
  7.8180909e-01
 -2.9584801e+00
 -2.7585359e+00
  4.3463378e+00
  7.1809988e+00
 -4.0827556e+00
 -6.5205283e-02
  5.1664538e+00
 -1.4609195e+00
  1.0126700e+00
  7.7677069e+00
 -2.2276909e+00
  2.6538646e+00
  2.9435339e+00
 -6.2067499e+00
 -6.1335292e+00
  3.1403389e+00
 -8.9087540e-01
  8.1119132e-01
  3.0183611e+00
 -8.9149284e+00
  6.8895444e-02
 -5.4737506e+00
  8.2247889e-01
  3.0733440e+00
  6.3552799e+00
 -4.6118212e-01
 -6.6561790e+00
 -2.3354876e+00
 -1.3386034e+00
 -3.7810121e+00
 -5.7654142e+00
 -9.8497953e+00
  4.4882207e+00
  5.3578720e+00
 -8.0737619e+00
 -1.6101336e+00
  7.5463152e+00
 -1.5879111e+00
  4.5278764e+00
 -1.2827744e+00
  4.1042805e+00
 -5.2775726e+00
 -1.8381907e+00
  5.5549674e+00
  1.8029910e-01
  3.5382538e+00
 -5.5820971e+00
  4.8463182e+00
  1.9823251e+00
  1.0435428e-01
  1.1177347e+01
  2.6457996e+00
 -1.9203727e+00
 -3.6170250e-01
 -1.8618330e+00
 -8.1696141e-01
 -5.7894387e+00
 -1.7273048e+00
 -4.5073688e-02
 -3.5620496e+00
 -4.3123851e+00
 -2.0247767e+00
  8.3438730e+00
 -1.1587456e+00
 -1.2127602e+00
  6.4595709e+00
 -5.1246554e-01
 -2.8141708e+00
  4.6357293e+00
 -4.2137662e-01
  2.5517955e-01
 -3.4396987e+00
 -7.9697883e-01
 -9.3912327e-01
 -1.9366696e+00
  2.3329439e+00
 -4.4210732e-01
 -9.1427076e-01
  2.6680425e-01
 -4.7795429e+00
 -6.1141783e-01
 -2.5489414e+00
 -8.1544143e-01
  1.0575410e+00
 -6.1268874e-02
 -2.2876039e+00
 -5.7182903e+00
  1.2721258e+00
 -3.3053041e+00
  4.6273762e-01
 -9.7013302e+00
 -4.2471504e+00
 -1.1483072e+00
  5.0439775e-01
  5.6141434e+00
 -2.0800562e+00
 -1.1118041e+01
 -1.3284416e+00
 -5.4173765e+00
  1.1665223e+00
  3.7270765e+00
 -1.4826944e+00
 -7.4154305e-01
 -2.5041034e+00
 -1.0127469e-01
  4.7226071e-01
  5.9364855e-01
 -8.6583920e+00
 -1.4453427e+00
 -2.0271907e+00
 -1.7261986e+00
 -1.9021491e+00
 -3.7383192e+00
  2.8622537e+00
 -1.8952678e+00
 -6.8385381e-01
  3.8923786e+00
 -4.8960078e-01
 -9.7465038e+00
  2.9360623e+00
  3.9070585e+00
 -9.6968040e+00
  3.6770554e+00
