nep4 2 Mo S 
cutoff 5 5 26 26
n_max 8 8
basis_size 12 12
l_max 4 2 0
ANN 50 0
  1.6684795e-02
  4.8965063e-02
  4.7925574e-01
 -6.4546716e-01
  2.8176627e-01
  5.1002806e-01
 -1.5938157e+00
 -1.3677669e-01
 -1.0709551e-02
 -1.7801102e-04
  1.7991178e-03
 -4.1062940e-05
  1.4958238e-03
  1.7229123e-03
  2.0611944e-04
  2.0754591e-03
  6.2861748e-04
  8.4969908e-01
 -3.0801579e-01
 -3.5782287e-01
 -1.7030169e-03
 -1.7146814e-03
 -3.6326107e-01
 -4.4368657e-01
  6.6644669e-01
 -2.2773486e-01
  1.0121027e-03
 -1.6232237e-04
  3.2038528e-02
  1.0724118e-04
 -3.1372885e-05
 -3.5224363e-01
 -2.3343875e-01
 -8.1119195e-02
 -1.4684727e+00
  1.2177892e-04
  6.9314344e-03
 -4.0244684e+00
  3.2791096e-01
 -8.4670348e-05
  1.1269097e-01
 -1.6559729e-01
  6.2680203e-01
  6.8165541e-01
  1.4714111e+00
 -4.7970883e-04
  4.1231689e-01
 -1.9713296e-01
  1.0595405e-04
 -1.2093140e-04
 -4.1835185e-02
  7.6652528e-03
  2.5459528e-01
  1.8527223e-01
 -1.8054010e-01
  2.9221794e-01
 -1.9027194e-01
 -3.4104802e-02
  5.6568593e-01
 -2.6544499e-01
 -1.4606221e-01
  9.1414750e-01
 -2.0278099e-01
 -3.7129034e-04
 -2.1593757e+00
 -3.5332486e-01
 -1.3596972e-03
 -1.1494223e-04
 -2.0890486e+00
  2.6404274e-01
  9.5904820e-02
 -7.5545585e-01
  1.9533549e-01
 -9.8137975e-01
 -4.6682414e-02
 -7.4201298e-01
 -5.6266755e-01
 -5.0232184e-01
 -1.1343703e+00
  2.0676661e+00
  2.8620636e-01
 -1.1594942e+00
  3.5081640e-01
 -5.7729203e-01
  9.0252233e-01
 -3.6871940e-01
  2.0398071e-02
  7.7532285e-01
  8.7777573e-01
 -2.3623586e+00
 -1.8837129e-01
 -1.5317206e-01
 -4.5064026e-01
 -1.4692980e-01
 -1.0615766e+00
  4.5717198e-01
 -2.2996190e-01
 -5.6953162e-01
  1.2959178e-01
 -5.1458061e-01
  5.0075269e-01
 -4.5719132e-02
  6.3470519e-01
 -5.1089072e-01
  3.2946438e-01
  2.1279709e-01
 -4.9619880e-01
  1.1085801e-01
 -1.3377193e+00
  3.7802824e-01
 -1.0299687e+00
  9.0664399e-01
  5.6275178e-02
  1.5678986e+00
  4.9053511e-01
 -1.5995185e-01
  5.6026411e-01
 -1.0267775e-05
  1.3797162e-02
  1.3878186e+00
 -4.6448305e-04
  7.6121939e-03
 -4.7371731e-04
  4.3802779e-02
  9.7085461e-03
  5.4134566e-01
 -4.9071074e-02
  5.2650891e-02
  1.7443622e+00
 -6.8748933e-01
 -8.6381799e-01
 -5.5595028e-01
 -1.4796765e-01
  7.7321839e-01
 -5.8210701e-01
  1.0072731e+00
 -1.5027394e+00
  2.4683386e-01
  1.6745329e-02
  1.5617164e+00
 -1.2898085e-01
  6.5569271e-05
  4.2019007e-01
 -4.8701382e-01
 -1.0472990e+00
  4.4757623e-02
 -6.4242727e-01
 -4.1443948e-03
  3.2190585e-01
  1.3964320e+00
 -9.9600029e-01
 -4.2022565e-01
  1.0782682e+00
 -1.4093997e-03
  1.1630288e+00
  3.9708576e-01
  8.6823697e-05
  2.8447187e-02
 -6.4158630e-01
  8.4294486e-05
  1.3802628e-01
 -3.0451924e-01
 -3.7233151e-02
  2.6276047e-04
 -5.2560549e-02
 -2.1089081e-01
 -1.8488753e-01
 -6.1796262e-04
 -1.1908441e-03
 -7.6968642e-04
 -5.9510821e-05
  5.4068427e-04
 -1.0069155e-03
  5.5889686e-04
 -6.8051522e-05
  3.3604671e-04
 -2.4236484e-04
  5.3557253e-04
  4.4714401e-05
  5.6624187e-05
  7.3202426e-04
  6.0290069e-05
  1.1564197e-01
 -3.9652464e-04
 -2.2518078e-03
 -2.1751139e-02
  2.0773475e-01
 -2.0288047e-03
  1.7486239e-04
 -5.4370792e-04
 -9.1334962e-04
  1.5137006e-02
  2.0930034e-03
 -6.4209057e-04
 -2.3213019e-04
 -1.7692173e-04
  2.3311258e-03
  1.3506640e-03
  7.8635945e-05
 -4.6447237e-04
  1.9038517e-04
 -2.1391595e-04
 -4.8472543e-04
  6.0423539e-04
  9.3227631e-05
  1.6017868e-03
  4.5402630e-05
 -4.2022119e-04
 -2.3995021e-04
  1.6356762e-04
 -2.5369876e-05
 -4.2096948e-05
 -3.8084670e-04
  8.0166705e-04
 -4.0502902e-04
 -6.2975049e-04
  5.1589298e-01
  5.2587527e-01
 -2.2763772e+00
 -1.1119886e-01
 -1.5317798e-01
  2.9725650e-01
 -7.7612078e-01
  5.4856306e-01
 -6.2401269e-02
  5.3294306e-04
 -8.6181879e-01
 -6.2360086e-02
 -7.2269788e-04
  1.7880739e-03
 -6.1815348e-03
 -9.0408176e-02
  1.7235067e-02
  1.4775524e+00
  2.1169298e+00
  3.9822072e-01
  8.1826991e-01
 -7.6475530e-04
  1.3989943e+00
  3.9140242e-01
  8.6993955e-02
 -1.3891986e-01
  2.3725476e-02
  3.4514374e-01
  1.0795735e+00
  3.6437184e-02
  5.4907552e-05
  5.3440789e-03
 -2.7080336e-01
 -2.1787949e-03
  1.4675493e+00
  2.4918584e-02
 -2.7771640e-01
  4.5885865e-02
  4.6450150e-01
  5.8059470e-04
  2.8015631e-03
  7.8680736e-01
  1.1264242e+00
  1.4991473e+00
  9.4271517e-01
 -3.3628076e-02
  2.4880187e-01
 -8.4425807e-01
  1.3099161e-03
 -1.0989043e+00
  1.3860965e+00
  4.6032257e-04
  3.4017657e-04
 -1.3712475e+00
  2.6047313e-01
 -7.6625794e-02
 -3.5250787e-02
 -4.3353796e-02
 -1.0604297e-01
 -1.8457448e+00
  5.0895277e-02
 -5.8996938e-02
 -2.6223475e-01
 -4.0214574e-05
  4.1569332e-03
  1.4488099e-02
 -7.5297190e-05
 -1.2176881e+00
  7.3183846e-04
 -1.2166736e-04
 -1.3578228e+00
 -7.8203207e-01
  1.1453535e-02
  5.7607675e-01
  6.7047411e-01
 -2.5198031e-03
 -7.7585153e-02
  2.7465957e-01
 -1.7498834e-01
  1.7131085e-02
 -5.7164592e-01
 -4.2196846e-01
 -6.2753713e-01
  8.1886315e-01
  3.2000644e-03
 -1.4323799e-03
  3.5573795e-01
  2.2804135e-04
 -1.2898277e+00
 -5.0128013e-01
  5.3233629e-01
 -4.4997323e-01
  4.6342958e-02
  2.2487266e-03
  3.5152328e-01
 -3.6335993e-01
 -1.7760222e-01
  5.5619878e-01
 -1.8278683e-03
  1.3320982e-01
  4.3769017e-01
 -5.2915782e-01
 -4.1811871e-03
 -9.1463476e-02
 -9.3185067e-02
  2.3852631e-01
 -4.2088752e-05
 -1.1569977e-01
  9.4313025e-02
 -2.6521412e-01
  9.7823656e-01
  6.9125342e-01
  4.5269296e-01
  2.4662504e-01
 -2.1981166e-01
  2.3079243e-01
  3.5408595e-01
 -6.5790780e-05
  1.7852840e-04
  3.0883681e-04
 -1.2930386e-03
  8.2947267e-04
 -2.0322156e-04
  7.6492428e-04
  1.4023045e-03
  3.3972148e-04
 -3.0987490e-02
  2.6052248e-02
 -6.5144825e-01
  2.8902376e-03
  7.6820252e-05
 -4.4158390e-01
 -3.2351503e-01
  3.4285307e-01
 -5.7346433e-01
 -7.5340354e-01
  5.9615529e-01
 -2.3216368e-01
  3.4913106e-04
 -5.4665650e-03
  7.1371376e-04
  1.8947480e-04
 -7.7052158e-01
  1.3724081e-01
 -9.2005414e-01
 -1.1884006e+00
 -5.5510838e-05
 -2.4091324e-03
  7.3097687e-04
 -6.3704602e-02
  3.1134662e-01
 -2.2128128e-02
 -5.4403156e-01
  1.9763485e-03
 -4.8910570e-04
  1.1002260e-03
 -3.4526784e-05
 -1.9293904e-04
 -8.9915597e-01
 -3.5234567e-04
 -1.9290233e-04
 -7.1590100e-03
 -1.4781680e+00
 -1.7956228e+00
 -4.1488056e+00
 -1.7676543e+00
  4.0515308e+00
  5.3768525e+00
  1.0923813e-01
 -9.5231801e-01
 -1.2131152e+00
  4.2114928e-02
  1.8036990e-04
 -4.5827177e-01
 -1.2477176e-03
  1.3548770e-04
 -2.2418792e-03
 -1.1596987e-03
  2.6780425e-04
 -2.3382450e-02
  3.2818133e-01
  8.5099238e-01
 -9.3755126e-01
  9.0804446e-04
  3.3821175e-01
 -6.5502858e-01
  3.1179389e-01
 -1.4781175e+00
  3.7308433e+00
  6.7379069e-01
 -1.5885255e+00
  9.4409084e-01
  6.0940907e-05
 -2.1064863e-01
 -2.7073315e-01
 -3.0865389e-01
  2.5525647e-01
  1.4945104e+00
 -6.7051589e-01
 -4.3705088e-01
  1.1308132e-05
 -2.4303874e-01
 -2.1056546e-01
  9.8950362e-01
 -3.4757930e-01
  3.8576238e+00
 -9.2807722e-01
 -4.3168254e+00
 -1.1745440e-02
  3.5184026e-01
  2.1087860e-01
  1.0840835e-01
  1.9973544e+00
  2.4275003e-02
 -1.1362158e+00
 -1.5044934e+00
 -1.2028664e+00
  2.8138521e-01
  1.9216361e+00
  1.1776683e+00
 -7.5259782e-02
 -5.1900280e-01
 -4.6284279e-01
 -4.1043514e-01
 -6.6810840e-01
 -2.2633944e-03
  2.6979160e-01
  1.8650797e-01
  2.3234854e-04
 -1.8604106e-01
  6.4424751e-03
  5.4422283e-01
  8.0211164e-04
  7.3375806e-05
 -1.5026620e-01
 -1.3697027e+00
 -2.0824668e+00
 -5.4613900e-01
 -1.4021883e+00
 -7.0203936e-01
  4.4592237e-01
  1.6129289e+00
 -1.4809581e-02
 -2.6141737e+00
 -5.0967234e-01
 -8.6395019e-01
  5.5123807e-04
  1.5860389e-01
 -1.9865046e-01
  5.3993151e-02
 -2.5023448e-01
 -1.3927040e-01
  3.6146837e-01
  2.7273670e-01
  1.4910834e-01
 -9.6467072e-03
  2.1140724e-01
 -5.8304280e-01
  5.4225777e-05
  2.0283008e+00
 -1.0263703e+00
  2.1784870e-01
  2.1252537e-02
 -9.3509227e-01
  1.4802619e-04
  3.2363182e-01
  5.1795316e-01
  1.1555688e+00
  1.0743152e-05
 -2.1980713e-01
 -6.4095455e-01
 -4.2392164e-01
 -4.6257785e-01
 -8.8722128e-01
  4.3762374e-01
 -2.3112065e-01
 -9.8188065e-02
  7.9656774e-01
 -6.2371701e-01
  8.9059817e-04
 -9.8596165e-06
 -1.1174340e-04
  5.3068233e-04
  7.1458949e-04
 -2.0012816e-03
  6.0068816e-01
 -9.4711264e-05
 -3.5802241e-05
 -5.1480120e-01
 -9.6676564e-03
  7.5051343e-01
 -9.5305437e-01
 -3.7725702e-01
 -1.0093319e+00
 -1.1626964e-03
 -1.7056454e+00
  4.6125436e-01
  3.6215417e+00
 -6.3640398e-01
  1.5897062e-04
  9.2824614e-03
 -7.5976454e-02
  3.0107757e-01
 -4.8014103e-04
  1.8057989e-02
 -5.6184746e-02
 -1.0111465e+00
 -4.0757409e-01
  1.2296394e+00
 -1.0534752e-03
  4.9258633e-05
 -7.9352480e-01
  7.9688453e-04
  1.3330978e-01
  1.6110960e-01
 -8.1593794e-01
  3.0481035e-01
  5.8266687e-01
 -4.9473991e-05
  4.6838098e-04
  7.6994997e-01
  1.2874844e-03
  2.1504266e-04
 -1.9804330e-01
 -1.7328287e+00
 -4.0433624e-01
 -7.1873412e-02
  8.4137285e-01
  1.5293579e-01
 -9.4698586e-02
 -4.4588229e-01
  2.7017236e-01
 -7.9697752e-01
 -5.9356220e-04
  1.6829427e+00
  4.9958858e-01
  8.5785077e-04
  9.5918840e-01
 -2.1844530e-03
  9.4965547e-01
  4.7382174e-04
 -1.1909152e-01
 -1.1039009e+00
  6.4754516e-01
 -1.5015612e+00
  1.7002650e-01
 -5.6691688e-01
 -1.5758965e+00
 -4.6104741e-01
  9.8389453e-01
 -1.4260463e-01
 -1.2466244e+00
  6.4517277e-01
  4.8034638e-01
 -5.1304251e-01
  1.1531188e+00
  2.3216641e-01
 -9.6845692e-01
  2.8474482e-02
 -2.0995858e-01
 -1.6924307e-01
  4.9364862e-01
 -4.3457267e-01
 -2.5316927e-01
  9.9558842e-01
  2.0939241e-01
  4.1443069e-04
 -1.1797740e+00
  1.5311664e-01
 -4.5832492e-02
  5.9169757e-01
 -9.8816431e-01
  1.9185769e-04
  6.2400501e-02
 -1.0301679e-01
  1.1684681e-01
  4.0500498e-01
 -3.4779966e-01
 -1.1235319e-01
  1.3894439e+00
 -3.0765021e-01
 -1.3968952e-01
 -4.3483597e-01
  3.2357615e-01
 -1.5254756e+00
 -1.0496840e+00
 -3.6969185e-03
 -6.7831919e-04
  2.3929746e+00
 -8.0716389e-04
 -2.2605788e-03
  6.9121388e-03
 -5.6221539e-01
 -9.2305327e-03
  1.6443110e+00
 -1.5066359e+00
 -2.1652520e+00
  1.1729264e+00
  1.0736858e+00
 -3.8981947e-01
  6.7946070e-01
 -4.3596399e-01
  1.4443858e-01
 -5.4583777e-02
 -5.8711268e-02
  1.1240213e+00
 -8.2996106e-01
  7.8640836e-01
 -3.1858313e-04
 -6.1420316e-01
 -3.0050686e-02
  1.8822210e-01
  2.8811378e+00
  3.0556931e+00
  1.8746206e-01
  1.0961766e+00
  1.3288018e-01
 -3.1122653e-04
  2.4502403e-01
  4.3377489e-01
  1.9948418e-01
 -1.0629647e+00
  2.8342074e-01
  7.2974026e-01
  5.1761967e-01
 -6.6400641e-01
 -2.1565836e-03
  6.8185616e-01
  3.5560304e-01
  8.2285994e-01
  1.4710247e-03
 -4.6613106e-01
 -2.0487168e-01
 -3.4734285e-01
  3.3905110e-01
 -4.9094695e-01
 -4.6835989e-01
  3.3033833e-02
 -2.1456261e+00
  3.5337895e-01
 -1.3157154e+00
  5.9734733e-04
 -1.2516657e-02
 -3.4588703e-04
  1.4521205e-04
 -3.4805489e-04
  4.3930160e-04
 -1.5887879e-03
  1.5308009e-04
 -3.1703000e-04
  3.9941427e-01
 -1.6911881e-02
  2.1710567e-01
  1.0438397e-03
  5.6336063e-01
  5.7023811e-01
 -3.6937308e-01
 -1.0721402e+00
  1.3829700e+00
  1.0609690e-03
  8.4391106e-03
  4.2089564e-01
  4.9410224e-01
 -5.8935761e-02
  8.4912229e-01
 -8.2035258e-05
 -2.9483182e+00
  5.0473171e-01
 -1.9024813e-01
 -1.5273849e+00
 -3.0450702e-03
 -7.1954681e-05
  9.9567673e-04
 -2.1072188e-03
 -5.4848254e-01
  4.9797748e-03
  1.1469117e+00
  8.1629533e-01
 -6.8002534e-01
 -1.2666577e-02
  5.6733814e-04
 -1.2310767e+00
 -1.0701969e+00
 -1.0667131e+00
  4.3834388e-04
 -4.2402688e-01
 -1.9683325e-01
 -1.1438127e+00
 -5.3382341e-02
  6.1511946e-01
  4.4956568e-01
 -5.0121170e-01
 -1.8670542e-02
 -2.7912615e-02
  1.2539160e-01
  1.4212386e-01
  5.9366989e-04
  3.6067021e-04
 -1.3433585e-04
  5.5363239e-04
  2.2037138e-04
 -3.8857800e-01
  6.1945848e-06
  8.4344670e-04
  1.8956482e-01
  1.3321191e-02
 -2.1210413e-01
  9.7214794e-01
 -4.2739505e-01
  5.7090390e-01
 -1.6804677e-01
 -3.0911595e-01
 -5.1074356e-01
 -5.2138329e-01
  1.3304260e-01
  5.4585993e-01
 -9.4131641e-02
  6.2323785e-01
  4.8644044e-02
  9.8540634e-02
 -2.0946616e-01
 -8.6515201e-03
  6.0711779e-02
  1.7277007e-01
 -1.3089556e-03
 -2.3346895e-02
 -1.0516973e+00
 -1.8455446e-01
 -1.5234375e-01
 -1.5276846e-02
 -1.2817266e+00
  2.4978645e-01
  8.3679982e-02
 -5.1540059e-01
  3.9026956e-03
 -1.2040828e-01
 -2.5884271e-01
 -1.2772935e-02
 -9.1901803e-01
 -2.1343167e-01
  2.7814569e-04
  1.2335781e-04
 -1.0998794e-04
  1.3865397e-03
 -5.9004797e-04
 -5.2617898e-04
 -2.5412193e-04
 -2.1890891e-04
  2.1724717e-04
  1.2542125e-04
 -1.3278892e-04
  2.9747331e-04
 -2.6061834e-04
  9.9174511e-05
  5.1824562e-04
 -2.5085770e-04
 -6.0950860e-04
  3.5317137e-04
  5.1681057e-04
 -5.3292385e-04
 -3.1591062e-06
  3.5009536e-04
 -1.2569373e-03
 -9.8047580e-04
 -6.4677064e-04
  5.5166613e-04
  5.7511439e-04
 -1.8225525e-03
 -1.5711497e-03
 -6.6573688e-05
 -2.2314631e-04
  2.3545492e+00
 -3.1856151e-04
  7.6456106e-04
 -8.0144778e-04
 -7.4519060e-04
 -1.1697897e-03
  7.7886379e-04
 -5.4590513e-05
  3.7113079e-04
 -8.1079872e-04
  1.6902442e-05
  5.9136283e-04
 -7.6420436e-04
  3.7400480e-04
 -4.5724039e-04
 -1.7351913e-04
 -6.7270047e-04
  2.1867832e-04
 -4.6891661e-04
  2.0763651e-04
  3.7678424e-04
 -5.4234022e-04
  2.3485745e-06
 -1.4342595e+00
 -9.2175418e-01
  3.2788691e-01
  4.1605255e-01
  4.2078087e-01
  1.0887575e+00
  5.5505681e-01
  1.1097566e-01
  7.3227912e-01
  5.1898332e+00
 -7.4233861e+00
 -2.5953233e+00
 -1.1854018e+00
  2.0250585e+00
  1.0827171e+00
  2.5321374e+00
  1.0795939e+00
  2.2448344e+00
 -5.7658583e-01
 -3.1610927e-01
 -5.4060036e-01
 -2.2176104e+00
 -1.2235231e+00
  4.3128422e-03
  1.0573754e+00
 -1.2815261e+00
  7.6703405e-01
  1.6248651e-01
  1.2899502e-01
  7.4842453e-01
  9.6873230e-01
 -1.1360348e+00
 -1.0657935e+00
  4.8702285e-01
 -6.8979412e-01
  1.2086153e+00
  5.7186842e-01
  2.0119238e-01
  2.8363544e-01
  2.0061157e+00
 -4.7502124e-01
 -7.9433876e-01
 -1.1833831e+00
 -1.1830781e+00
 -5.3267735e-01
  3.5859630e-02
 -2.5437528e-01
  3.2813898e-01
 -1.6375159e+00
 -5.6187630e-01
  2.1332636e-01
 -8.1910258e-03
 -2.4028674e-01
 -7.7780791e-02
 -1.0873579e-01
  1.4423623e+00
  7.0042871e-02
  2.0042074e-01
 -3.6345267e-01
 -1.9912766e-01
  3.0493101e-01
  3.8937047e-01
 -1.0389905e-01
  1.4971931e-02
  1.2123342e+00
 -1.0483589e+00
 -2.9899852e-04
 -1.4353124e-04
 -7.7945113e-01
 -1.0320070e+00
  1.5645200e+00
  7.1437138e-01
 -2.0726791e-01
  2.8027334e+00
  2.8292432e-01
  9.8158532e-01
 -1.1310934e+00
 -6.5398878e-01
  4.1047856e-01
 -8.8154770e-02
 -1.4222962e+00
 -6.5023667e-01
 -3.7746608e-02
  3.6112103e-03
  4.3024173e-01
 -3.7764225e+00
  2.7402824e-01
  4.1286916e-02
 -1.2939665e+00
  1.4539392e-01
 -3.7009582e-01
  1.6543254e-01
  4.1629377e-01
  4.9387072e-03
 -4.1615753e-04
 -5.3684078e-02
 -7.3487061e-01
 -8.0950069e-01
  1.0844190e-01
 -2.7714921e-02
 -1.8174659e-01
  1.7429070e-01
  9.3629134e-01
 -1.5323799e+00
  1.3713665e-01
  1.9779623e+00
 -1.3214721e-04
 -3.4522787e-02
 -5.3122002e-01
 -5.7790166e-01
 -8.2190000e-02
 -9.0398893e-02
  9.1243222e-02
  2.3551252e-01
 -3.4188107e-02
  7.6411605e-01
 -8.9456573e-02
  8.0873474e-04
 -2.8709299e-04
 -1.3887314e-03
 -1.1016132e-03
  3.5704272e-03
 -1.4793764e-04
 -1.6653104e-05
 -1.0720242e-04
  1.2007955e-03
 -2.1651874e-03
 -3.5060897e-05
 -2.6680866e-01
 -1.8262939e-04
  8.5453436e-02
  6.8500996e-02
 -2.3810045e-01
 -1.9943081e-04
 -2.4983032e-02
 -1.8480187e-04
  1.1660114e-01
 -1.4444420e-05
 -3.5213667e-04
 -2.7025890e-04
 -8.1050050e-05
  3.9432041e-04
 -6.0073808e-02
  5.7529105e-04
  1.0786356e-03
 -7.0551686e-02
  3.5512221e-01
 -3.3266755e-04
 -2.8803109e-04
 -2.6720471e-04
 -1.5033803e-04
 -1.4673865e-03
 -3.0610621e-01
  7.2492427e-01
  6.1217774e-02
  4.0970155e-04
  1.6157365e-03
 -1.0634420e-04
 -1.8238252e-01
 -1.5501778e-04
  1.6326370e-04
 -4.8831117e-04
  1.2354718e-01
  2.3959564e-04
  2.3090015e-01
  2.1408449e-04
  5.7008129e-01
  2.9461198e-05
  4.7889774e-04
  2.3904223e-04
  2.7697422e-02
  2.8119225e-04
 -6.3746731e-05
  2.3744209e-04
 -8.5937674e-04
  1.1255201e-04
  2.9615639e-04
  4.2034459e-04
 -6.6184223e-04
  4.3481513e-04
  2.0952565e-04
 -1.5202353e-03
  5.1013239e-06
 -4.7978506e-06
 -2.4741891e-04
 -9.4274624e-04
 -5.2329618e-04
 -8.9294983e-05
 -6.5084494e-04
 -4.4547414e-04
 -4.7837043e-01
  4.0492811e-04
 -1.7507156e-04
  2.4729487e-04
 -4.0493731e-04
 -1.1950756e-04
 -1.5626005e-03
 -9.8532089e-04
  1.7867300e-05
 -8.5723311e-02
 -2.7091679e-04
  7.7907817e-04
  1.0772871e-03
 -6.4696948e-04
  5.2015297e-04
  1.3783748e-03
 -5.7843764e-04
 -6.0724444e-04
 -7.1268616e-04
 -6.6922873e-04
  9.2603924e-04
  3.6351141e-04
  1.1042335e-05
 -1.0589756e-03
 -8.8912772e-04
  9.4793642e-05
 -4.2373800e-01
  2.6595908e-01
 -2.0068780e-01
  5.8847502e-02
 -7.4631494e-01
 -1.8824936e-01
  2.0059404e-01
  1.3744736e-01
 -6.7303196e-02
 -1.2663122e-03
  1.3126720e-01
  2.0489810e+00
  2.1870602e-03
  1.5573732e-04
  2.1725310e-02
  6.3632540e-03
 -5.6357396e-01
 -7.2723866e-01
  1.5051742e+00
 -1.3834119e+00
 -5.6951553e-01
 -3.6998753e-02
 -2.0928365e-01
  1.2238340e+00
  5.2103982e-03
  1.0912567e-01
  8.7022968e-02
 -3.1148443e-01
  5.9716702e-01
  1.1211357e-02
  8.4302031e-02
  1.5660486e-01
  1.0799463e+00
 -7.6342702e-01
 -2.6404476e-01
  2.3751433e-03
  2.4084023e-01
  3.7195447e-01
 -2.8615708e-02
 -2.7752960e-01
  4.7417668e-01
 -5.5600926e-02
 -2.6625656e-03
  7.7479416e-01
 -2.2785564e-01
  5.9637266e-01
 -2.0952421e-04
 -6.2948775e-01
 -6.5464890e-05
  1.6518138e-01
 -4.5840740e-01
  2.0193921e-02
  8.4660547e-03
 -2.6295960e-01
  6.6681159e-01
 -4.4084105e-01
  2.9535422e-01
 -3.7150678e-01
 -1.9186558e-02
  8.4848410e-01
  2.7357665e-01
 -1.1666790e-01
  5.4330993e-01
  2.4183574e-03
  1.4859444e-01
 -3.2002922e-02
 -4.3287565e-04
  7.6842302e-04
 -4.1420749e-01
  9.8574534e-03
 -2.1426500e-01
 -3.3714142e-02
 -2.7272007e-01
  7.7296697e-02
  6.3294387e-01
 -1.9621731e-01
  9.1689813e-01
  2.1481597e+00
 -9.5498025e-02
  1.5972228e-01
  1.4898790e-01
  1.7013328e-01
  1.8874609e-01
 -3.6218265e-01
  7.9582212e-04
  6.3195664e-01
  9.8651253e-02
 -5.1656938e-01
  2.0455377e-01
  3.0505434e-01
 -4.0357819e-01
  3.9073798e-01
  3.0197927e-01
  2.8346071e-01
  8.3137318e-05
  5.0695717e-01
 -1.1343696e+00
 -3.6223871e-01
  5.3050566e-01
 -1.1191542e+00
 -5.1100940e-01
  2.5853945e-02
  2.7183481e-04
 -3.4651706e-01
  3.9545831e-01
  1.5810083e-01
  2.2209659e-01
  1.4055001e-02
 -3.3279724e-04
  2.9673340e-04
  1.7447158e-04
  6.4335123e-04
 -6.8220484e-01
 -1.7838833e-04
  8.0124958e-04
  3.8531464e-02
  3.0281497e-04
  2.3853025e-04
  7.9853846e-05
 -5.9264427e-04
 -9.3663315e-05
 -1.0921562e-03
  4.5987024e-05
  2.0741492e-05
  1.5968378e-04
 -7.2851946e-04
 -3.5861880e-04
 -9.9156619e-05
  6.5687328e-04
  1.9688292e-04
 -1.2485322e-03
  1.2121773e-03
  7.8472780e-04
 -1.3735185e-04
 -1.1855836e-03
  3.3081317e-04
  7.7329911e-05
 -1.0243966e-04
 -3.9956238e-04
  2.1618931e-04
  2.5718549e-04
  7.1478571e-04
 -4.1250777e-04
  1.3583811e-03
  1.1735083e-04
 -4.3988385e-04
  4.1624039e-04
 -5.9346465e-04
  2.9127719e-04
 -3.8524563e-04
  1.9526661e-04
  1.7741932e-04
 -4.8261045e-05
 -3.6825673e-04
 -2.1829148e-05
 -2.2747758e-05
  1.1391146e-03
 -2.8895866e-04
  1.6791082e-04
  5.9756741e-04
 -4.4012579e-04
 -1.0913253e-03
  1.2169275e-01
 -6.5472588e-02
 -4.5356399e-01
 -1.7949973e-01
 -1.4607665e-01
 -1.8212949e+00
  1.2372191e-01
 -7.0647776e-02
 -9.1780722e-01
 -9.5925802e-01
 -6.2088013e-02
 -5.0439239e-01
 -1.2456607e-03
  1.0959997e-03
 -2.8479968e-03
  7.8146780e-01
 -4.1012534e-01
  1.3252224e-01
 -4.8769392e-02
 -2.0147344e-01
 -2.7876657e-01
 -2.1103822e-02
 -2.8019154e-01
  5.5747020e-01
 -2.4223951e-01
  1.9468006e-01
  8.1120974e-01
 -2.1563661e+00
  1.3222766e-01
 -1.8025762e+00
 -9.8632285e-03
  1.6355044e-01
  3.1939289e-01
 -1.4963739e-01
  8.9261818e-01
  3.2397640e-01
 -6.7677952e-02
  1.8879347e-02
 -1.1355455e+00
  6.1057889e-01
  3.4860644e-01
 -8.4702693e-02
  8.5375018e-02
  2.5644314e-01
 -3.2333532e-01
  5.4994327e-01
 -2.6432025e-01
 -9.1403946e-02
 -2.6931934e-02
 -1.8972397e-02
 -3.0853799e-01
 -4.5603593e-03
  4.7253326e-01
  4.2648834e-01
 -4.6984755e-02
 -3.5289267e-01
  2.0822197e-01
  5.6566608e-01
  1.1279938e-01
 -2.5362164e-01
 -8.6284690e-02
 -1.8277842e-01
 -1.9571041e+00
 -4.8007083e-04
  3.9030096e-01
  1.3352300e-03
  2.7358605e-04
 -2.1326696e-04
  8.4115600e-05
  1.6687776e-05
  1.6987829e-04
 -6.9570849e-03
 -7.2818764e-02
  3.0027124e-01
  1.7167756e-03
 -2.3139089e-02
 -2.1062979e-02
 -2.2562376e-01
  4.3955788e-02
 -4.0701917e-01
  2.4225670e-01
  2.5996602e-01
 -1.5244014e-02
  5.3172056e-02
  2.7165242e-04
  7.3614204e-04
 -1.4774934e-03
  7.0954021e-04
  5.8879443e-03
  2.3977114e-03
  2.4570879e-03
  1.1173108e-01
 -5.2199694e-03
  9.0973973e-02
 -6.5345876e-02
  6.2542081e-02
 -2.3774199e-02
 -2.5280240e-01
 -6.4375543e-04
  9.9145336e-06
  2.2118632e-04
 -5.9406586e-02
 -2.0991481e-04
  2.7786084e-02
 -8.5866503e-02
 -2.4047845e-04
  8.4398192e-04
 -1.2497522e-02
  4.4017239e-03
  2.0596966e-01
 -3.7522912e-01
 -1.7760195e-01
  3.4901220e-01
 -7.4007285e-01
  3.9725196e-01
 -9.5230892e-02
  6.2806857e-01
  3.4415549e-01
 -1.3474168e+00
 -1.4165581e-03
  1.3084931e-04
  2.5644699e-01
 -2.0159924e-04
  4.2672697e-03
  3.3188045e-01
  6.5609211e-01
 -1.0278010e+00
 -2.9083265e-03
 -1.1889656e+00
  1.5532782e+00
  8.6477107e-01
 -8.4485978e-01
 -8.6127275e-01
 -1.0741640e+00
  5.5085117e-01
 -1.4188892e+00
 -7.7194554e-01
 -1.1510456e-01
 -1.2733713e-01
  4.4468910e-02
 -1.0648520e+00
  2.4982290e-01
 -4.1534474e-01
  3.6310714e-01
  7.6292032e-01
 -2.2394452e-03
  3.7270734e-01
 -9.3198454e-01
 -5.2130973e-01
 -6.5154099e-01
  1.2979491e+00
 -1.3148779e+00
  1.4705980e-01
 -1.3618127e+00
  4.9181810e-01
 -2.4621887e+00
  8.8092813e-04
 -3.3639735e-01
  2.1832211e-01
  6.5301746e-01
  1.2537909e-03
 -1.9800686e+00
  9.3665645e-02
  4.4835612e-01
  1.3342284e+00
  3.5064086e-01
 -6.9769345e-02
  7.6714224e-01
 -5.8416128e-01
 -5.7707202e-01
 -1.7164540e-01
 -1.2107855e-03
 -7.7362143e-05
 -3.8322960e-06
  6.3647551e-04
 -1.9787231e-02
  7.2957844e-01
  2.0009553e+00
 -1.4477359e+00
 -4.1096903e-02
 -2.3241840e-01
  4.6823394e-01
  1.4417338e+00
  2.8528017e-01
 -4.8920351e-01
  1.9822071e-01
  1.3025337e-02
  4.5321059e-01
 -1.6713645e+00
  1.0845670e+00
 -6.9143897e-01
  6.4905828e-01
 -3.7160737e-04
  6.2024611e-01
  7.3966712e-01
 -6.1588280e-02
  2.7856305e-01
 -1.7749807e-01
 -7.7504110e-01
 -1.2867111e-01
  1.1050330e-01
 -4.9217135e-01
  6.8927652e-01
  1.6619418e-02
  3.9377061e-01
  1.1205235e+00
 -9.4059080e-01
  9.7763360e-01
  8.0605602e-01
 -7.2048143e-02
 -1.7350467e-03
  7.7048548e-02
  6.3648230e-01
  5.7878280e-01
  2.3679036e-01
 -9.5226757e-02
  2.5369337e+00
  1.0475354e+00
 -7.5857723e-01
  3.8481075e-01
  3.6101589e-01
  4.9527574e-01
 -9.6519887e-01
  4.7039038e-01
  1.0538665e-01
  6.5898035e-05
 -7.0660031e-01
 -8.1223284e-04
 -3.3487609e-05
 -8.7976005e-05
  1.1955372e-03
  7.5572566e-04
 -7.1739702e-04
 -4.9818951e-05
  9.2305893e-01
 -1.2249511e-04
  1.2009562e-01
  3.0180096e-04
  8.4103541e-03
  7.3161542e-01
 -1.1991255e-04
 -1.1426422e-04
 -2.1901050e-01
 -2.7392368e-04
 -3.2911205e-01
 -1.7900864e-04
 -3.4388626e-04
  9.8432764e-02
 -7.3977403e-02
 -1.8821286e-01
  1.1721326e-01
  3.0904231e-03
  2.9678455e-01
  7.4764729e-01
 -2.3893525e-03
 -1.9612134e-04
 -5.4608354e-05
  6.3116506e-02
 -1.6154005e-03
  1.2453003e-03
  4.6683770e-01
  3.5558399e-02
  8.3158468e-04
 -6.4880133e-02
  2.5615349e-04
 -2.5359241e-04
 -5.9149629e-03
 -5.4490613e-03
 -4.9557298e-04
 -3.7957409e-01
 -2.2775303e-01
 -6.1496645e-01
  1.4799599e-01
 -1.5330968e-03
  6.7412370e-01
  3.8182732e-01
  1.2367151e+00
 -3.5296580e-01
 -1.1109976e-01
  2.2613663e-04
  5.9644720e-03
  4.5567952e-04
 -6.6384193e-05
 -3.1929731e-04
  1.2543706e-03
 -2.3373778e-03
  1.3503536e-03
  1.1754943e-04
 -8.8319355e-01
  2.9637234e-04
  3.1017560e-01
 -1.7053289e-04
 -7.2027886e-01
 -3.2742208e-01
  5.9569851e-03
 -4.4759517e-03
  4.2661867e-01
 -1.6495800e-01
  1.0822053e+00
 -4.3587465e-04
 -2.3420769e-04
  5.6680763e-01
  4.6764183e-04
 -8.3092391e-04
 -8.3286899e-01
 -9.9860691e-03
  1.0058697e-01
 -6.0722613e-01
 -4.6426011e-04
  1.0783470e-01
 -3.5712961e-05
  6.7402226e-01
 -5.0581899e-03
 -2.2395599e-05
  4.2263344e-01
  1.1216638e+00
  2.2900393e-03
  4.5586387e-03
  4.3048967e-05
 -3.9287192e-05
 -3.6396191e-02
  1.3319238e-02
  1.6520546e-04
 -2.4694949e-01
 -1.0917473e-04
  2.9706574e-04
 -9.3262352e-02
 -3.5284707e-01
 -5.7816159e-02
  2.5220913e-01
 -2.6533453e-04
  3.3329241e-04
  3.9400287e-02
 -3.1947176e-04
  1.5178670e-03
  1.3630687e-03
  2.9728591e-04
 -2.3049171e-05
  5.1539473e-04
 -1.7446325e-04
 -1.3904706e-04
 -2.4627716e-06
 -3.2892189e-05
 -1.7230939e-04
  5.6054157e-01
 -1.5613680e-01
 -9.1677648e-05
 -2.2111337e-03
 -1.2365235e-04
  7.8833703e-04
 -9.7190397e-04
  6.0279277e-04
 -8.6645028e-05
  1.4338634e-03
  2.9418265e-04
 -1.8565936e-03
 -1.9863441e-04
  6.7152898e-05
 -2.3886409e-04
  1.2628243e-03
  1.0898758e-03
  2.6809308e-01
  2.4342139e-03
  4.2282735e-04
 -1.0060243e-03
  1.8651431e-04
 -1.1892761e-04
 -2.4023943e-06
  2.9356534e-02
 -3.8356584e-04
 -7.9761003e-04
  1.4620100e-04
  1.3913075e-02
 -1.4250616e-03
  2.8461639e-03
  1.9673175e-04
 -2.9235019e-04
 -4.4628407e-04
  6.7522459e-02
 -2.2458707e-01
 -3.0314457e-02
 -6.6080704e-02
  5.1831905e-02
 -4.3202680e-01
  3.3468077e-01
 -1.4982650e-01
 -3.6058772e-02
  5.9273267e-01
  5.9054154e-03
 -2.5118586e-01
  1.0414784e-04
  1.7574276e-01
 -2.4657550e-01
 -3.5735551e-01
  2.4025980e-02
  9.5626765e-01
 -1.0272923e-01
 -6.0200012e-01
 -1.9091409e-01
 -2.8143907e-01
 -7.8258163e-01
 -8.1744350e-02
 -1.8727270e-01
 -7.7325249e-01
 -7.6475680e-02
  2.8858373e-01
  2.9991548e+00
 -3.2141307e-01
 -3.6064605e-04
  2.4386015e-02
 -1.2322005e+00
 -4.5958298e-01
  1.2500277e-01
  3.9083409e-01
 -5.8828515e-01
  6.3926712e-02
  5.0969487e-01
  1.7447487e-01
  4.4888464e-01
  7.1903729e-01
 -1.1544273e+00
 -4.3228856e-01
  2.9995689e-01
 -1.2830390e+00
  4.9612814e-01
 -6.3102692e-01
  4.3093238e-02
 -1.3141795e-02
  3.0655593e-01
 -7.2215000e-05
  1.5217469e-02
 -5.8791926e-04
  8.7788887e-02
 -3.7070675e+00
 -3.4441385e-01
  5.2381450e-01
  1.7320533e+00
 -3.2146752e-01
  1.3423142e+00
  1.0508568e+00
  7.4570030e-01
 -3.9684288e-03
  4.4783540e-02
  1.6708728e+00
  2.4050739e-04
  7.9809159e-01
  1.0593372e-02
 -8.3236332e-04
  5.2459610e-01
 -9.8343611e-01
  7.3793650e-02
  4.9680176e-01
 -5.7241535e-01
 -8.5774517e-01
 -3.3101025e-01
 -1.0661721e+00
 -4.8773822e-01
 -8.2310003e-01
  5.1296508e-01
 -9.3839478e-01
 -2.5461715e-01
  1.1423484e+00
 -4.8352827e-04
  9.5586604e-01
 -9.6781415e-01
 -1.8757852e+00
  1.4295429e+00
 -1.4190046e+00
  2.4342788e-03
  5.6674528e-01
  1.8196169e-01
  4.9641976e-01
 -7.2642282e-02
 -1.0026132e+00
 -5.8871105e-02
 -3.4854868e-01
 -3.7861362e-01
 -6.5314057e-03
 -5.2727365e-01
 -6.5014696e-01
 -3.7699920e-01
 -1.4843156e-03
  4.9640957e-01
 -4.2975354e-01
  1.0360395e-04
 -8.3274072e-01
 -8.5905623e-01
 -1.1595529e-01
  3.7014869e-01
 -1.2735441e-01
 -1.8783139e-01
  1.6647437e+00
 -6.2814215e-03
  3.9800134e-01
  3.5548395e-01
  1.4948685e-03
  4.5113170e-01
 -3.1581637e-02
 -3.9421278e-03
  1.0322519e-01
 -1.9528404e-03
 -3.8202736e-03
  4.8806304e-03
  8.5294334e-05
 -4.7487256e-01
 -9.2314549e-05
 -3.4671286e-01
 -1.2643191e-04
 -7.2797641e-02
 -2.2003718e-01
  6.2142435e-04
 -2.9146459e-02
  5.6491315e-01
  1.4718260e-02
  5.3978914e-01
  8.9191496e-02
  7.0271519e-04
  3.9841440e-01
  2.6290016e-02
  1.4075157e-01
 -3.9711088e-01
 -2.5282271e+00
 -3.6695614e-01
 -5.9408081e-01
 -2.1610457e-02
  4.3294555e-01
 -4.0705168e-01
  1.7266594e-01
  2.4182181e-04
 -1.7716321e-01
  2.3433151e+00
  5.3174520e-01
 -1.6477811e-01
  2.0610022e-04
 -3.4802614e-04
  4.1371414e-01
 -5.9243754e-02
  5.3543043e-01
  8.8265224e-05
  4.7056284e-03
  6.2020463e-01
  3.5145918e-01
 -1.1782703e+00
  5.0057903e-02
 -5.7298772e-02
 -5.5071205e-01
 -2.0736473e+00
 -1.6799580e+00
  2.5355861e-01
 -2.1834890e-03
  1.3134977e-03
  2.0717416e+00
  3.7675742e-03
 -1.2333933e+00
 -6.6164905e-01
 -2.1021322e-03
 -4.5494437e-01
 -2.2391913e+00
 -3.0254548e+00
  7.4043578e-01
 -8.8697350e-01
 -1.7501126e-01
 -2.9360712e+00
 -1.2222254e+00
  2.1943371e+00
 -3.9866611e-01
  1.7010088e+00
 -1.3100772e-01
 -7.4771486e-02
  1.6288511e+00
 -7.6514024e-01
 -8.1699353e-01
  8.3733082e-01
 -1.4302545e+00
  4.5763659e+00
  6.0636245e-02
  1.5744833e+00
  2.9273936e-01
 -1.6443524e+00
  5.9008425e-01
 -2.5480729e-01
 -9.7863287e-01
 -4.4799247e-01
  9.6793908e-01
 -1.8352139e-01
  3.7562997e+00
 -1.6781405e+00
  2.1478328e-01
  1.2555429e-01
 -1.5624386e+00
  9.5468104e-02
 -9.9705148e-01
 -9.9993549e-02
 -5.8879483e-01
 -1.7360484e-04
 -1.1709094e-03
 -4.3389277e-04
  1.3479809e-04
 -3.1145144e-05
  7.1503508e-01
 -3.2395674e-04
  8.1239146e-04
 -1.0065031e-03
  6.2746066e-04
 -1.4141847e-04
  1.6440198e-04
 -1.4152135e-03
  3.3788825e-04
  1.8222316e-03
 -4.5161828e-04
 -6.2601895e-05
  7.6066982e-04
 -1.8177681e-05
 -1.7826844e-04
 -2.9177722e-04
  1.2666590e-03
 -5.6941067e-06
  1.7533320e-04
 -3.8892604e-04
  1.5016829e-04
  4.5591217e-04
 -3.5839566e-05
  3.0803049e-04
 -1.8473467e-04
  1.7687835e-06
 -1.4180398e-04
 -2.2916578e-05
  2.0856947e-04
 -1.7050414e-03
 -2.7487258e-04
  3.3122106e-04
  5.4312684e-04
  2.5805022e-04
 -2.5990716e-04
  8.0742029e-06
  5.8281697e-05
  6.6178764e-04
  5.6665973e-04
 -4.4247322e-04
 -4.3893884e-05
  1.1624013e-04
  4.8214354e-04
 -1.0934806e-04
 -5.7636504e-04
 -3.5131627e-05
  7.7599508e-04
 -1.1960373e-04
 -1.3736220e-03
  1.8739058e+00
 -4.8307750e-01
 -1.1764997e+00
  1.0711060e+00
  3.3549714e+00
  2.8950891e+00
  2.2125940e-01
 -1.9487440e-04
 -1.0397012e+00
 -1.6618811e-05
  2.0197270e-04
  8.7551722e-05
 -2.1502131e-04
 -2.9933261e-04
  5.3354132e-04
  1.7987670e-03
  3.2780496e-05
 -2.4222909e-03
 -4.9284088e-05
 -5.5313454e-04
  5.2899495e-04
  7.0483750e-04
 -4.0440788e-04
 -4.4834017e-04
  1.5956591e-04
 -1.1948043e-04
 -2.7946825e-03
 -1.3582159e-03
 -1.1962654e-02
 -1.6058459e-03
 -1.1951464e-04
  1.2735196e-03
 -4.9830666e-03
 -2.6493691e-04
 -2.3355685e-01
 -2.6602953e-04
 -1.2565470e-04
 -1.0617694e-01
 -3.0189630e-04
  6.4341689e-04
 -8.2438893e-04
  2.5471341e-04
 -3.4028583e-04
 -7.2215067e-04
 -5.1621610e-04
 -2.7542532e-04
 -2.4257827e-04
 -2.5753077e-04
 -9.1550802e-04
 -8.6260683e-05
 -5.9734455e-05
 -3.2171758e-04
  5.6996800e-05
  3.7771839e-04
 -2.3497440e-01
  4.2792358e+00
  4.9108710e-02
  8.0758780e-01
  2.5208232e-01
  7.9038751e-01
 -2.3040748e-01
 -1.0808849e+00
  1.4969222e-02
 -7.9534971e-04
 -4.8729762e-01
  1.5127089e+00
  3.8672376e-01
  2.1064386e-01
  6.2523770e-01
 -1.2409973e-03
 -1.2199228e+00
 -1.2386242e+00
  9.4118136e-01
  6.9842160e-01
  1.1149737e+00
  2.2455080e+00
  8.4694844e-01
 -9.8385787e-01
 -2.3292572e+00
 -7.1766227e-01
 -5.4248432e-03
  2.1108527e+00
  1.6261855e-01
  1.6249634e-01
 -7.0682484e-01
 -1.6322347e+00
  5.1267558e-01
 -6.8860829e-01
  1.2872615e+00
 -6.2806904e-01
  3.2074687e-01
  5.4788224e-02
 -9.5105663e-02
 -1.7027526e+00
  1.9094244e-01
  2.2006945e-01
  7.6290439e-03
  9.8753637e-01
  1.8317547e-01
 -1.1660730e+00
 -8.1405729e-02
  3.8331816e-01
  4.1416963e-04
  1.6086826e-01
  1.7325668e+00
 -4.5007461e-01
 -2.2122033e+00
 -4.3983463e-02
 -6.9518479e-05
  8.9217765e-06
 -1.2636821e-04
 -1.8918172e-04
  9.2383897e-01
  2.1170904e-03
 -3.5219212e-04
  1.0423764e-04
  1.4694959e-03
 -5.1696657e-04
 -1.6966539e-04
 -1.3537565e-04
 -2.8612968e-04
 -2.1198116e-01
  6.5218000e-04
  3.0978481e-06
 -1.4286269e-04
 -4.9236737e-04
  7.0565421e-04
  5.7045580e-04
 -1.0965372e-03
  6.0172693e-04
 -9.2826883e-04
  8.1279536e-04
  4.2510277e-04
  8.8943198e-04
 -1.4451849e-05
 -5.1312250e-05
 -6.0508843e-05
 -1.1901307e-03
  1.4137483e-04
 -4.4026368e-04
  7.3102902e-04
 -1.3006041e-04
 -1.0477514e-03
 -8.7674242e-05
 -3.7520487e-04
  1.1309830e-03
  9.6296950e-05
 -1.4563733e-03
 -3.2046442e-05
 -9.6209551e-05
 -1.1200320e-03
 -6.5735199e-05
 -4.1079448e-04
 -7.3608186e-05
  9.4088282e-05
 -8.2716171e-05
  6.8277004e-04
  1.4442650e-03
 -6.1173306e-04
  1.1496242e-03
 -7.1259507e-05
  4.3522872e-04
 -2.7738672e-01
  1.1706562e+00
 -6.6042554e-01
  1.8366330e+00
  7.2115630e-01
 -2.8734092e-02
  9.6272928e-01
 -1.1681768e+00
  5.3254396e-01
 -1.0251334e-03
 -9.2682072e-05
 -1.4584548e-04
 -1.8417260e-04
  4.2385294e-04
 -4.9999892e-04
  1.0192420e-04
  5.5380758e-02
 -3.9570569e-03
 -2.9016200e-01
 -4.8462975e-01
 -8.5457492e-01
  1.9515639e-04
 -4.2053536e-01
 -5.8099180e-01
 -5.1115906e-01
 -2.4164431e+00
 -6.1172324e-01
  6.2016284e-01
  1.4969398e+00
  1.1782842e-03
 -5.9449428e-04
  1.7886915e+00
 -1.1714891e-02
  2.3268624e-04
 -1.0574235e+00
 -9.8869038e-01
 -2.4032837e-02
  3.7450504e-01
 -1.1362644e+00
 -2.2289774e-01
 -1.4942178e-02
 -1.4404537e-01
  1.3109852e-03
 -1.2330041e-01
 -1.9679588e-01
  1.5346513e-03
  3.5778197e-04
 -6.2810898e-01
  4.6960349e-04
 -1.3865047e-04
 -1.9146273e-02
 -2.3273447e-01
  6.5253880e-05
  8.8937092e-01
 -3.3619266e-04
 -3.4398976e-04
  1.0493956e-04
  1.1028416e-03
  1.4204839e+00
 -4.8611610e-04
  3.3269584e-04
 -1.7476268e-06
  4.5971974e-06
 -1.2716585e-04
 -2.2070184e-04
 -4.9263665e-01
 -3.3821297e-04
 -1.0450335e-03
  2.3852801e-04
  1.2785732e-04
 -2.4246934e-05
  3.2968972e-05
  1.8832253e-04
  1.5526905e-03
 -1.7277106e-03
 -1.2154424e-03
  2.0648847e-06
 -7.9775396e-05
 -1.9258814e-04
  7.5996271e-05
  8.6192810e-04
  6.1540946e-04
 -2.5028439e-04
 -2.9808568e-04
 -2.6166794e-04
  1.1384179e-04
 -1.1275270e-03
 -1.2933534e-04
 -1.0484052e-03
  4.9275044e-05
  9.0976886e-05
  1.2736201e-04
 -2.0778629e-04
  1.7463717e-05
  2.0305545e-04
  6.5553817e-04
 -2.1494415e-02
  1.9972511e-04
  6.2166579e-04
  1.9071806e-04
 -8.0967584e-05
  1.0439634e-03
  2.3483114e-04
  9.6176977e-05
 -1.8401148e-03
  6.8984000e-04
  2.1453260e-04
  7.3873030e-04
 -1.2032418e+00
  2.9021290e-01
 -9.2522353e-01
 -6.7329812e-01
 -3.3669837e-02
  1.8679906e-01
  4.9007073e-01
  7.9350829e-02
 -2.9773891e-01
  5.1174229e-01
  2.4502132e+00
  5.8512911e-02
  8.0046970e-01
 -1.3445364e-01
  1.8510476e-03
 -1.3973196e+00
 -6.5005028e-01
  1.6472265e-03
 -5.4075265e-01
 -7.8754671e-02
 -3.0426839e-01
 -4.2512551e-02
 -5.7953209e-01
  5.7119453e-01
  1.7560735e-01
  3.9089435e-01
  1.8719748e-01
  1.2956303e+00
 -2.0976281e-01
 -4.0001965e-01
 -5.3478760e-04
  1.3346176e-01
 -7.2238791e-01
 -4.5328408e-02
  1.0315487e+00
  9.6272171e-02
 -6.0296766e-02
 -8.6258044e-03
  7.9920441e-01
  1.5184905e-01
  8.0002010e-01
 -5.1078039e-01
 -9.4743824e-01
 -7.3305555e-02
 -1.0427570e+00
 -1.0678105e+00
  4.0774213e-04
  1.8978243e-03
  8.0130738e-04
 -8.4183335e-02
 -6.9903052e-01
 -2.0691627e-01
  1.3483988e-01
 -9.8235078e-02
  3.2151768e+00
 -1.9990097e+00
 -3.9898700e-01
 -1.3325830e+00
  2.4858749e+00
  9.1327977e-01
  8.7876171e-01
  1.0827767e+00
  2.6249150e-03
  2.6133826e-01
 -6.4587162e-04
 -2.4540137e-01
  1.9596973e-04
 -2.9004999e-03
 -1.7924573e-04
 -4.0375222e-03
  6.4194059e-01
  1.3949171e-03
 -3.7153035e-01
  1.6221619e+00
  1.8011767e-01
  1.1913369e-03
  1.4493626e-01
 -1.4918965e+00
  3.0909038e-01
  2.6175970e-01
 -7.6082355e-01
 -1.2060223e+00
  2.1121833e+00
 -2.4896872e-01
 -2.7860180e-01
 -9.8307222e-01
  5.4756129e-05
  2.1157153e-03
 -5.2135235e-01
  2.8867595e-05
  6.3132638e-01
  7.8918952e-01
  3.4667927e-01
 -5.8134817e-02
 -7.2279237e-03
 -1.1943325e+00
 -3.7998550e-03
  2.0891159e+00
 -6.9975895e-03
 -9.5333499e-01
  2.0085867e-01
  1.0469927e-01
  1.2068099e-03
  1.8594248e-02
  3.1350863e-01
  7.3791998e-06
 -2.3502975e-03
 -6.3417894e-01
 -2.4316823e-02
  2.3971614e-03
  5.6894153e-02
 -1.2928438e-01
  1.1841629e-01
 -3.6772877e-02
 -2.6535266e-03
  4.1104516e-04
 -1.3399341e+00
  2.7003308e-04
  3.1713708e-04
 -1.1788490e-04
  1.4589709e-05
  1.0370763e-05
  6.2393595e-04
  2.4040762e-04
 -8.0902496e-04
  8.7575067e-04
  4.7140213e-04
  6.0155487e-04
 -4.6652058e-04
  4.2175426e-04
 -3.0294340e-04
  9.0149741e-05
 -1.0575288e-03
 -4.1647172e-06
  3.1927094e-04
  6.7725268e-05
  3.9924434e-04
  4.6311563e-04
 -1.1849944e-03
  1.2492561e-03
 -9.0124762e-05
 -1.7773833e-04
 -2.7744452e-04
  8.1916421e-04
  1.8351473e-01
  4.9462825e-02
  2.2829247e-03
 -2.2534296e-04
  1.5363689e-04
  1.6571709e-03
  4.1533809e-04
  2.5050354e-04
  5.2170514e-04
 -2.2023763e-05
  3.3925704e-04
  3.1972767e-04
  6.2065269e-04
 -3.3044725e-04
  5.3060922e-04
 -7.3019473e-04
 -2.2235804e-03
 -1.3138977e-03
 -4.4885769e-01
  9.0217984e-01
 -2.6470357e-01
 -4.7974733e-01
  1.9399580e-02
  3.7957898e-01
 -8.9670426e-01
 -7.9554236e-01
 -8.0809452e-02
  2.8650794e-02
 -5.4689897e-03
 -1.1670870e+00
 -6.2640593e-03
  7.2349560e-01
 -2.8772153e-02
 -1.2916408e-01
  6.2266856e-01
  8.8825631e-01
 -3.2231908e-02
  1.0282176e+00
  3.6418598e-02
  6.2144344e-04
 -6.7083246e-01
  4.2324554e-02
 -1.9463025e-03
 -9.3862019e-02
 -6.9472611e-02
 -1.3702575e+00
 -9.1374141e-01
  2.8474501e-04
 -5.8612711e-04
 -1.1940859e-01
 -7.5521040e-01
 -3.3019000e-01
 -8.7881923e-01
 -9.7187407e-02
 -5.1549459e-01
  1.1030864e+00
  3.8258974e-02
 -9.1236376e-04
 -1.3899145e-01
 -2.3475142e-01
  3.5813406e-01
 -1.9062544e-01
 -6.4767087e-01
  2.3791429e-03
  1.0223862e+00
 -2.5675914e-01
 -1.4615292e-03
 -2.1070709e-02
  5.9387110e-02
 -7.3574297e-02
  2.9304350e-04
 -8.3647016e-03
 -4.9770775e-01
  9.9565101e-01
 -1.5603467e+00
 -7.2342455e-02
 -7.7403176e-01
 -3.4086266e+00
 -9.1689014e-01
  4.1087082e-01
 -1.1295233e+00
  1.5340352e-01
 -1.0126517e-03
 -3.6530285e-03
  2.1260804e-03
 -9.4635080e-04
 -8.9616820e-05
 -3.5270568e-04
 -1.3378874e-03
  6.2696664e-03
  3.8669249e-01
  2.0734837e+00
 -1.7967546e+00
  7.7607900e-01
 -3.1799480e-02
  2.3076651e-01
 -5.0685841e-01
  1.0176170e+00
 -1.3545990e+00
 -1.9679661e-01
  1.8318378e+00
  1.5037844e-01
  2.1300238e-04
  1.4441498e-01
 -5.5961066e-01
  1.4669745e-04
  3.2362890e-01
 -8.3905077e-01
  3.6376607e-02
 -2.4781826e-01
  1.8882893e-02
 -3.9313212e-02
  1.3204122e-01
  1.7212999e-01
 -1.6113642e-01
 -2.6389986e-01
  5.4928046e-02
 -6.6736805e-01
  2.6878533e-01
 -1.2855762e+00
  1.1649159e-04
 -3.1129587e-01
 -2.1753221e+00
 -4.8458028e-01
 -2.8371939e-01
  3.5801861e-02
 -2.9216170e-01
  3.0812140e+00
  8.6354387e-01
 -1.8798422e+00
 -2.2020206e+00
  6.0321927e-01
 -4.8351741e+00
 -1.0412371e+00
 -3.3620265e+00
  3.3900564e-04
 -1.7884713e-04
  1.8758628e-01
  5.7038298e-04
  1.1474000e-04
  1.9272571e-05
 -4.2953816e-05
  1.0262893e-03
 -9.6703559e-04
  1.8232048e-01
  1.5585598e+00
  1.3758500e-04
  2.9112602e-04
 -7.9385847e-02
  2.7707776e-02
 -3.4511116e-01
  2.2360821e-01
  6.4069152e-01
 -1.4175473e-01
  1.0248909e+00
  1.8435858e-01
  4.3844161e-04
 -2.4775945e-04
  7.2190203e-05
 -9.3114068e-04
 -7.1748525e-01
 -7.1339750e-01
  3.6282110e-01
 -7.9084736e-01
 -2.3342155e-02
  2.3653045e-04
  2.0285428e-05
  3.1674835e-01
 -2.7115613e-03
  6.6993541e-01
  7.7153277e-01
  7.6701574e-02
 -2.3840554e-03
  1.3426805e+00
  3.3225887e-02
 -4.1776234e-03
 -3.4231591e-05
  5.4567028e-04
 -8.6971262e-04
 -9.9385483e-03
  5.7560569e-01
 -4.7552088e-01
  2.9458592e+00
  5.4715949e-01
 -1.5754755e+00
 -3.4323838e+00
  3.6756808e-01
 -1.0274429e+00
  4.0321997e-01
 -5.4239556e-03
 -1.0346664e+00
 -5.1376154e-04
  1.3401145e-04
 -2.0352949e-03
  6.9894979e-04
 -5.1836709e-05
  2.3747570e-04
 -8.0898024e-02
 -4.4627583e-01
 -3.0235392e-01
  1.3437350e-01
  1.0699572e-03
  7.9232490e-01
  1.6622056e-01
 -1.8580211e-04
  9.2456229e-02
 -1.1969097e+00
  7.2558527e-04
  2.0586936e+00
 -4.7940735e-04
 -7.6194451e-04
  7.5420958e-01
 -4.4111073e-01
  1.7297544e-04
  9.1566181e-01
 -1.7464174e+00
 -5.6788386e-03
 -1.0539302e+00
  1.2282117e-05
 -1.7612057e-03
 -1.4486974e-01
 -3.5637322e-01
  1.5676789e+00
 -7.6932293e-01
 -2.7055570e-04
  1.3535008e+00
  1.2205326e-03
 -7.4474722e-01
 -9.7301527e-05
  4.0133400e-03
 -1.8117896e-01
 -8.4987664e-01
  6.3957187e-04
 -1.5188722e-01
 -3.6818630e-04
  5.8106643e-01
  4.0917936e-01
 -1.9028083e+00
 -8.4595644e-01
 -8.2030147e-01
 -1.2582430e+00
  1.1643637e+00
  6.6654611e-01
 -8.6636610e-05
  2.8019297e-01
 -1.8463781e-04
 -1.7708601e-04
 -1.1644099e-03
 -1.1386148e-03
  1.0199808e-03
 -2.5777277e-04
  7.9395261e-04
 -5.0791538e-01
  9.0459651e-01
 -3.7462538e-01
  9.4394013e-04
  4.0869520e-04
 -2.4324558e-03
 -5.4008216e-01
  5.4794975e-04
  1.1994356e+00
 -1.2448331e-01
 -3.1013876e-01
  1.9316733e-01
  6.0841657e-04
  1.9154619e-05
  2.6826594e-05
  1.2292809e-02
 -1.7582737e-01
 -6.9632012e-01
 -4.5741180e-01
  3.2537383e-01
 -1.2301154e-03
  1.3678358e-03
  3.3540088e-03
  2.9301476e-03
 -6.2343507e-04
 -3.4399322e-01
 -8.4843361e-01
  1.4071116e-01
  2.5588294e-04
 -3.1917140e-01
 -6.8578367e-05
  2.4946321e-02
 -6.2050903e-01
 -2.4498040e-03
  1.0727077e-04
  1.0578831e-01
  1.5521798e+00
  2.7537954e-01
 -3.9273581e-01
 -4.9604955e-01
 -4.8797911e-01
 -1.5676174e+00
 -1.2808943e-01
 -1.0391054e-03
 -9.9903077e-02
  1.0627931e-03
 -4.9765088e-04
  2.0005796e-04
 -1.7058682e-04
 -2.8754072e-04
  3.9428556e-03
  1.9480597e-04
  7.1576746e-05
 -4.4989651e-05
  4.8103121e-01
  5.9889525e-04
  8.9654267e-02
  1.0603476e+00
  4.2698357e-01
 -3.4938464e+00
  4.2524275e-01
 -4.2515501e-04
 -1.6466086e-01
  1.1374905e+00
  4.6159837e-02
 -9.7762817e-04
 -1.2343812e-04
  3.8356650e-01
  5.8829290e-04
 -2.6412209e-04
  7.3862904e-01
  1.3633642e-02
  1.3463745e-01
  2.8686267e-01
 -1.2271385e+00
 -3.7755305e-04
 -4.0381712e-01
 -3.5150823e-01
  2.8066416e-04
 -5.3367591e-01
  3.2736573e-02
  1.3491182e+00
 -5.9863444e-02
  1.2069576e-01
  4.4822964e-04
 -1.2818824e-01
 -5.9188507e-02
  1.9827294e-05
 -4.2607495e-01
  3.7898517e+00
  9.1556110e-04
 -8.7594479e-02
  8.8371105e-02
  2.6215276e-02
  8.4960572e-02
 -4.5906704e-02
  3.2709244e-01
 -1.0299794e-03
 -2.9858875e-01
  3.9081115e-04
 -1.0104486e-03
  3.0695787e-04
  5.9767568e-04
  7.4106408e-04
 -5.8175711e-04
 -8.6385198e-04
  2.0870891e-04
  8.3924126e-05
 -3.9662682e-03
 -1.3336220e-03
 -2.2393799e-01
  7.7076437e-04
  2.7339229e-05
  2.2714452e-01
 -5.8018214e-01
  1.3684212e-03
 -8.4218442e-02
  7.3707020e-06
  2.2448392e-01
 -7.3776353e-04
  6.9693339e-01
  4.7616247e-04
 -3.3346165e-04
  1.0957205e-03
 -6.3339262e-03
 -6.4768468e-04
  2.5289794e-03
 -8.2042646e-03
 -1.4252101e-04
 -1.6314468e-04
  2.3389859e-05
  3.0363101e-01
  2.4559249e-03
  1.0558010e-04
 -1.6467226e-03
  2.8485624e-02
 -1.3300524e-03
 -1.9989755e-02
 -1.5672836e-04
  4.3340304e-05
 -1.1032175e-01
 -3.8361279e-04
  8.8513910e-04
 -1.8496859e-01
 -1.0817338e+00
  5.4342051e+00
  3.7146086e-01
  2.1378635e-01
  4.2572057e-01
  4.0314808e+00
 -7.3790026e-01
 -2.5069137e+00
 -2.3509800e+00
  5.0180301e-04
  2.0796891e-01
 -3.2782904e-04
  3.3028072e-04
  7.5614644e-04
  1.1857094e-03
 -1.3016064e-03
 -4.0764031e-03
 -1.9349966e+00
 -5.4903172e-02
  1.5497940e+00
  1.1755548e+00
  2.5804627e-03
  1.1251112e+00
  3.7349930e-01
 -2.3816718e-01
  3.4673259e-04
 -9.8622817e-01
  6.3010561e-01
  4.0291986e+00
 -1.0985744e+00
  9.6304878e-04
 -2.1494370e+00
  3.5822740e-01
 -3.0419773e-03
  1.6354589e-01
  3.8882041e-01
 -1.3748891e+00
 -9.5265788e-01
  1.2939850e-04
  6.6669163e-04
 -5.6995228e-02
 -3.8088220e-01
 -3.1365573e-01
  1.3911365e+00
  5.2823532e-01
  1.1388360e-01
 -7.9661578e-01
 -2.2011964e+00
 -4.9168902e-05
 -6.5415847e-04
  1.3628879e-04
 -5.8640748e-02
 -6.7630386e-01
 -7.3230013e-02
 -3.1687137e-01
  8.7071204e-01
 -4.2192578e-01
 -1.8280174e-03
 -5.6797230e-01
 -3.1786453e-02
 -1.4410346e-02
 -3.5810170e+00
 -2.7212375e-01
  1.2015786e-02
 -1.6722897e-01
  3.0006330e+00
  1.2638982e-01
 -4.0135187e-01
  1.7303018e-03
  1.3842351e+00
 -1.4353478e-01
  3.9283384e-02
 -1.4098317e-04
  4.8616153e-01
  7.4248761e-01
 -1.2501518e-03
 -1.3431051e-01
 -2.0911928e-01
 -1.4796869e-01
  2.0558465e-01
 -2.4096547e-02
 -3.5567039e-01
 -2.3153890e-04
  7.0347327e-01
  6.2338692e-01
  9.3888097e-02
 -1.2887713e-01
 -3.4271769e-04
  2.3936582e-01
  7.9046404e-01
 -1.9274719e-04
  2.6215201e-02
 -6.6569446e-06
 -1.0296547e-01
 -4.1199487e-02
 -5.1272293e-03
  2.4667063e-01
  3.6222708e-01
 -7.7291858e-01
  6.3287318e-01
  1.0609596e+00
  2.1756519e-01
  2.7289992e-04
 -2.9442099e-01
 -6.8384123e-01
  4.7027609e-01
  4.7426561e-01
  2.7372276e-02
 -7.0797153e-02
  2.7095369e-01
 -4.4530194e-02
 -9.3470335e-01
  1.1319636e+00
 -1.1115216e-01
 -8.9642340e-01
  9.5046115e-01
  1.7951182e+00
 -4.7788933e-01
  1.0358503e-03
 -9.1242409e-01
  1.5521674e-01
 -4.9125340e-02
  3.0955855e-02
  1.6461471e-01
 -2.4898882e-01
 -1.2984842e-02
 -4.8387060e-01
  5.0865716e-01
 -3.6263070e-01
 -3.1815451e-01
 -1.4094116e-01
  8.2367845e-02
  1.7455569e-02
  1.5992504e-01
  6.2884951e-01
 -1.7706223e-01
  2.3257868e-01
 -1.5807793e-03
 -6.0405121e-03
  5.6074882e-01
 -9.9021080e-04
  1.5429360e-01
  8.1435300e-02
  2.0642501e-01
 -5.6344819e-01
 -3.7799668e-02
 -1.2320267e-01
  9.5512170e-01
  9.8925221e-01
 -1.2801379e-01
  2.9799214e-01
 -1.3487132e-01
 -4.4304229e-02
  8.1428349e-02
  2.3561528e+00
 -3.2981098e-01
  1.4445873e+00
  1.1854185e-01
 -1.5750738e+00
  2.2012001e-01
 -2.1444843e+00
 -1.1221501e+00
  1.4604909e+00
  6.9355947e-01
 -7.1826857e-03
  9.6538925e-01
 -2.2768030e-02
 -3.8843632e+00
  1.2577918e+00
 -3.2598321e+00
  6.4561743e-04
 -2.6054597e-01
  5.9602934e-01
 -4.8771310e-01
 -7.7566200e-01
 -1.1133456e-04
 -1.9161838e+00
  4.4350085e-01
 -2.1457155e+00
 -1.5244320e-01
 -2.8093083e-02
 -1.0899692e-01
 -2.7108607e+00
  1.9563239e+00
  2.2576892e-01
 -1.9309349e+00
  6.9361460e-01
  2.2080452e-03
  1.3400997e+00
 -3.2579154e-01
 -3.3220330e-01
 -8.1905141e-02
 -3.6731094e-02
 -5.7487679e-01
 -2.4844000e-01
 -7.0423675e-01
  1.7907858e+00
 -6.1736941e-01
  9.3711835e-01
  3.0768549e-04
 -8.5975521e-04
 -2.0916183e-01
 -9.6952951e-01
 -2.7298706e+00
 -7.8568988e-02
  1.0573454e+00
  2.4717487e-04
 -2.5023546e-03
 -2.2483459e+00
 -7.2770810e-01
  3.2547587e-01
 -6.6584688e-01
 -1.5383691e+00
 -1.0762175e+00
 -8.3564061e-01
  1.8711015e+00
  1.0851074e+00
 -4.5732054e-01
  3.0244756e-01
  1.5662469e+00
  6.4665610e-01
  5.0008714e-01
 -1.2493722e+00
 -2.5622582e+00
 -7.0554650e-01
 -2.8251603e-01
 -2.6418665e-01
 -7.6395333e-01
  4.3948168e-01
  7.7032715e-01
 -4.2617714e-01
 -2.6334682e-02
  1.8107137e-01
  2.1253407e+00
 -2.4484839e-02
  2.1209781e+00
  1.9632382e+00
 -1.7641330e+00
  2.7633466e-02
 -3.1724867e-01
 -4.9093515e-03
 -5.9824491e-01
 -1.4210199e+00
  1.5954743e-01
  1.0699548e+00
  1.4658111e+00
  6.6941237e-01
  4.3496078e-01
 -1.1249057e+00
 -7.7726561e-01
  2.5069878e+00
  1.0766646e+00
 -5.1153487e-01
  4.8291194e-01
  5.3491030e-02
 -2.0569399e-01
 -1.3700753e-03
 -1.4659317e+00
  8.9449227e-01
 -9.5935774e-01
 -1.5471096e-04
 -2.9734572e-02
 -1.0781866e-01
  8.0011941e-02
 -5.7695431e-01
  1.1518432e-01
  2.0313770e-02
 -3.2602155e-01
  4.7033140e-01
 -4.5135430e-01
 -5.2055544e-01
 -1.6757294e-04
 -2.0356372e-01
  1.0302832e-02
  1.2368692e+00
 -4.7511810e-01
  4.8428800e-04
 -1.0474815e-03
  6.0808781e-04
 -1.5048516e-01
  8.4615523e-01
  1.1217211e+00
  7.7716798e-02
 -9.4380729e-02
 -2.3114936e-01
 -1.8845725e-01
  2.8329945e-01
 -7.8678176e-02
  9.0576822e-01
 -6.3158353e-05
  2.6381369e+00
  6.0203448e-02
  5.2444172e-01
 -9.8675007e-01
  3.1119329e-01
 -5.0913269e-04
  9.2328590e-01
  3.1225830e-01
  3.4733531e-01
  1.7571804e-01
 -5.0058872e-01
  1.1722073e-01
  2.7722082e-01
 -2.5326177e-01
  1.7191307e-01
  1.2664592e-01
  2.9795030e-01
  8.3809602e-04
  6.6452613e-04
 -1.8535163e-01
 -5.4531138e-05
  2.7356161e-02
  1.4167805e-01
 -9.2754131e-03
 -3.2492343e-02
  6.8463385e-05
  1.0463684e+00
  6.5792698e-01
  7.0104820e-01
 -7.3602110e-02
 -4.9386093e-01
  1.3789538e-01
 -8.0280817e-01
  3.7540874e-01
  1.1839548e+00
  8.4017384e-01
  2.3934436e+00
  4.6098316e-01
  2.4173479e-01
 -1.7739154e+00
 -5.7036799e-01
 -2.4846716e+00
 -4.2678899e-04
 -1.1408883e+00
  5.6751484e-01
  2.3069770e+00
 -1.0124505e+00
  1.6460619e+00
  2.7526953e+00
 -4.5588988e-01
  2.7287588e-01
 -6.5195936e-01
 -1.5181340e+00
  3.4990463e-01
 -7.8038454e-01
  5.4514343e-01
 -3.6845985e-01
  1.4668927e+00
  9.5549518e-01
  3.5974428e-02
 -2.2673340e+00
  8.6329192e-01
  6.1732525e-01
 -5.4140025e-01
 -1.2142976e-01
 -1.2061023e+00
  6.9884878e-01
 -1.4282905e-01
 -4.8222563e-01
 -1.7947712e+00
 -4.3253466e-01
  2.2289473e-04
  1.6409232e-03
  4.2781207e-01
 -4.1252781e-05
 -4.3580550e-04
 -1.9559684e+00
 -1.2744337e-01
 -6.5246009e-04
  4.5687615e-04
  1.2654546e-01
 -5.7815063e-01
  4.8993409e-01
  7.0007853e-03
  2.5823134e-01
  1.0451874e-01
  1.3301904e+00
 -4.0074387e-01
 -8.5806705e-02
 -3.0751844e-04
 -7.6364532e-02
 -3.8794221e-04
 -1.3661380e+00
  2.6735526e-01
 -2.9664624e-01
  1.3326883e+00
 -2.2576116e-03
 -1.4550777e-01
 -5.0553036e-01
  2.9179856e-01
 -7.1096218e-01
 -4.3978885e-01
  1.1743540e-01
  1.5568707e-02
 -1.2603431e+00
 -7.1363233e-04
  3.6174968e-01
  1.8805470e-01
 -1.2634773e+00
  1.7808739e-02
 -4.7049674e-01
 -2.8483535e-03
 -5.9647739e-01
  2.5285333e-01
  1.8507104e-01
 -5.9805149e-01
 -5.5887741e-01
 -7.8089702e-01
  7.8243411e-01
 -6.8905973e-01
 -1.6393183e-02
 -3.0932388e-01
  5.8459415e-04
 -8.7708488e-02
 -2.2759112e-02
  9.0301901e-02
  1.2602411e-04
 -2.2549880e-01
  3.3186825e-03
  8.9609367e-01
 -3.5143215e-03
  6.8309134e-01
  1.5953177e-01
 -1.5533878e-04
  1.9088848e-01
 -5.5579460e-01
 -1.7550813e+00
 -5.2367900e-02
  2.3733181e-01
  2.5090581e-01
  2.8082404e-01
  2.6294726e-01
  3.5606396e-01
  5.1031101e-01
 -1.3796901e+00
 -2.2403433e+00
 -5.8003321e-02
  3.5391145e+00
 -1.5718584e+00
  4.8675713e-01
  1.5580337e+00
 -8.8591069e-01
 -1.0312353e+00
 -1.5516008e+00
  1.2036675e+00
 -2.5069327e+00
 -9.1135055e-02
 -7.5922018e-01
 -1.7573642e+00
 -2.0570440e+00
 -8.9545989e-01
 -1.1947097e+00
 -1.2523050e+00
 -6.2933570e-01
  1.3586763e+00
 -6.2938857e-01
 -3.4960791e-01
 -1.0990455e+00
 -1.9083233e+00
  8.9986777e-01
  4.6870291e-01
  1.7747387e+00
 -1.7317446e-01
 -2.5790479e+00
  4.1704733e-02
  1.0425140e+00
 -1.3250712e+00
 -1.6467707e-01
 -5.1351792e-01
 -2.4753980e-01
 -8.9881426e-01
  4.6202502e-01
  3.1298835e+00
  1.5837325e+00
 -6.6698402e-01
  1.5425088e+00
 -7.0888239e-01
 -3.4035411e-01
 -3.0798572e-01
 -1.9906820e-01
  2.9758286e-01
 -2.2363678e-01
 -3.4392315e-01
 -1.8812516e+00
  1.2385580e-01
  1.2159153e+00
  9.2373759e-01
  2.6591963e-04
  7.1066082e-01
 -5.2099156e-01
  1.1777749e-02
 -2.2645086e-01
  5.7879728e-01
 -1.7717780e-04
 -3.1658695e-03
 -3.8991556e-02
 -4.1782204e-02
  2.9100990e-04
 -1.4982516e+00
  2.2833138e-03
 -1.4060016e-01
 -3.3836538e-01
 -3.8810575e-01
  3.9232452e-04
  2.4413145e-03
  3.4961430e-04
 -6.0203600e-01
  3.3170938e-02
  2.5365284e-01
 -1.5939885e+00
 -6.1973536e-01
  2.9470983e-03
 -1.6410224e-01
  9.2523858e-02
 -1.4017537e-03
 -1.7026044e-01
  3.6819305e-02
 -8.0418643e-03
  1.0081341e-03
  3.3888629e-01
  1.3227087e-04
 -7.3252910e-01
  2.3228945e-01
 -4.7313725e-04
  3.8523868e-02
 -2.0409741e-03
  2.0380071e-04
  2.5591701e-01
  4.9965438e-01
  6.4852554e-03
  1.6995154e-04
  3.5393140e-03
 -1.1185758e-03
  4.0828512e-04
 -4.2493170e-04
  7.6248159e-04
  1.0505215e-03
 -3.3110590e-04
  1.0354741e-04
  2.2485724e-03
  5.5974734e-04
  3.5215178e-04
  2.7047013e-04
 -2.4530536e-04
  1.4638979e-04
  3.9567842e-04
  5.5413955e-04
  1.2620020e-04
 -2.6366062e-04
 -3.3903442e-04
 -1.3123300e-04
 -4.8631331e-04
 -5.5306789e-04
 -2.7874985e-04
 -7.5206328e-05
 -5.0607906e-04
 -3.7277860e-05
  1.7115141e-05
 -2.3645203e-04
 -4.6229159e-04
  5.2232493e-04
 -2.0241112e-05
 -2.1028289e-04
  6.6313171e-04
  1.3711499e-03
 -1.0939139e-03
 -4.3663782e-05
  1.8379766e-04
  3.1773344e-04
  9.3921706e-05
 -5.7697255e-04
 -4.6850674e-04
 -4.0960309e-04
  6.4296939e-05
 -2.0346875e-04
  1.6267525e-04
  3.9743050e-04
 -2.5229692e-04
 -3.3019629e-04
 -9.5421710e-05
 -1.8179540e-03
 -6.8459238e-05
  1.6509570e-04
 -6.0353923e-04
  1.3594353e-04
 -5.1196624e-04
 -4.5814189e-01
  4.7634235e-01
  7.2603785e-03
 -3.0665945e-03
  3.4394318e-01
  1.0162804e-02
  3.5208784e-02
  2.3981319e-03
  1.8352087e-01
  1.6248094e-04
  2.7131650e-04
  3.7683919e-04
 -1.1090031e-04
 -5.9296737e-05
 -5.5899547e-04
  1.6593220e-04
 -2.1624017e-04
  1.2007316e-04
 -5.7393478e-05
  1.1604211e-02
  7.4354014e-03
 -1.1080028e-03
 -1.5013511e-02
  2.8797379e-01
  2.5528274e-04
 -1.3999292e-02
  1.1348425e-03
  2.6273925e-03
  6.2611501e-04
 -2.6239804e-03
  6.8800995e-04
  7.1354007e-05
  4.1315008e-02
 -8.5325306e-04
  8.2339358e-04
  5.3846173e-04
 -8.0715381e-03
  3.7734171e-05
 -2.3180801e-02
 -2.8878783e-03
 -7.7364348e-02
  2.5503800e-04
  1.7773947e-01
  5.9315132e-04
 -1.5370123e-02
  1.5138174e-04
  1.5601414e-04
 -2.8249455e-04
  1.0131293e-03
  1.2793658e-04
  4.7551122e-04
 -2.0172091e-03
 -1.6536284e-04
  1.1618219e-04
  1.1820208e+00
  2.2917957e+00
  4.8407528e-01
 -1.5908109e+00
 -9.4662748e-02
 -9.9787968e-01
 -3.2722327e-01
 -4.5865417e-01
 -9.9520802e-01
  9.4798100e-01
  2.2088475e+00
  2.7951260e+00
 -4.1023454e-01
 -5.0336423e+00
  1.8992740e+00
  1.5380532e+00
 -3.4357157e-02
  3.0155096e+00
  1.1670316e+00
  2.7089145e+00
 -1.0276315e+00
  1.6208003e+00
 -4.3054557e-01
  1.6858933e+00
  1.9494606e+00
  2.1337724e+00
  1.5234311e+00
  1.9152957e+00
 -2.5228419e+00
  4.0468940e-01
  1.5689626e+00
  2.1272354e+00
  6.9256490e-01
  2.5390851e+00
 -2.7843922e-01
 -1.6304781e-01
 -9.4244748e-01
  9.0030938e-02
  8.0981046e-01
  1.6831518e+00
  3.6397848e-01
 -1.0308554e+00
  1.2516513e-01
  1.5424221e+00
 -4.3966997e-01
  1.5664601e-01
 -5.8976477e-01
 -8.8982362e-01
 -7.0078611e-02
 -1.3953156e+00
 -8.4608386e-04
 -2.6818960e+00
 -8.7718111e-01
  4.5273882e-01
 -4.9698335e-01
 -2.8898721e+00
 -4.2303172e-01
  6.3769682e-03
 -1.7298406e-01
  5.8016606e-02
 -6.7022043e-01
  4.7973859e-01
 -1.1393038e+00
 -6.7450637e-05
  5.1228679e-04
  1.7350537e-03
 -1.1248925e-02
 -4.1187173e-01
 -1.7662022e-02
 -8.7641573e-01
  1.7610684e-05
 -1.1285225e-02
  2.7980283e-01
 -1.2273836e-02
  2.0562641e-01
 -4.3355802e-04
 -7.8949364e-05
 -1.0016330e+00
  8.4115481e-03
  2.7254180e-04
  7.8189478e-04
 -1.4800144e-03
 -1.9546362e+00
 -1.9554164e-01
  5.8794117e-01
  7.6988757e-02
  1.7293262e-01
 -3.4248605e-04
 -1.1033496e+00
 -1.2278119e+00
  1.2303387e-04
 -3.5191450e-02
 -1.4178951e+00
  5.2860093e-01
  1.3345993e-01
  1.1415259e+00
 -2.2144729e-01
 -2.0180137e-01
  5.4342739e-02
  1.1063570e-04
 -5.7901046e-04
 -2.0647875e-04
  1.7819786e-03
  1.5249136e-01
 -1.3300888e-03
  1.9808372e-03
  1.2926419e-03
 -8.1700674e-04
  1.0952414e-02
 -5.4108747e-05
  1.3719733e-04
 -6.0996955e-04
  5.7243224e-04
 -3.3789314e-02
  1.0890710e-02
  1.0557985e-03
  1.0319835e-03
 -1.6122571e-01
  6.2618527e-04
  2.6035035e-04
  7.0635998e-04
  3.7448724e-05
 -5.8350893e-04
 -6.4394891e-04
  6.0077575e-05
 -1.2980275e-04
 -1.1409274e-03
  3.8338508e-06
  3.0343133e-05
  1.8600155e-04
 -6.3865131e-04
 -4.3609517e-04
  1.3621859e-04
  5.6581707e-06
 -2.7815296e-04
 -1.6717684e-04
  1.2377954e-05
 -7.9706488e-06
 -1.8967272e-04
  3.5229741e-04
  4.7550106e-04
 -3.8060505e-04
 -3.4463985e-04
 -1.6233986e-05
  1.4264922e-03
  2.3205833e-04
  1.7716608e+00
 -1.0414926e-03
 -2.4161209e-05
  1.9341985e-02
  2.6118534e-03
 -8.4200426e-04
  8.6276836e-05
 -1.0594182e-03
  1.3534541e-04
  8.4224768e-05
  6.9850117e-05
 -1.5864125e-03
 -5.3667434e-04
 -1.1777996e-04
 -1.3275814e-03
  4.9194542e-04
 -1.6782850e+00
 -2.9942897e-01
 -2.6207477e-01
  7.8293639e-01
  2.8963503e-01
 -5.5185556e-02
  1.7904388e+00
  8.1149739e-01
 -3.0900249e-01
 -6.4482081e-01
  1.0676448e+00
 -3.1526806e-04
 -1.0822965e+00
  3.2193668e+00
  5.8714300e-01
  5.3936279e-01
 -1.2395656e+00
 -1.1365987e+00
 -2.7368038e+00
 -3.9889082e-01
  1.7863500e+00
  2.5902089e-04
  1.2098013e+00
 -2.3023160e+00
  3.2867688e-01
  1.6537467e+00
  1.3138556e-03
  1.0171070e+00
  6.3903272e-02
 -1.2348728e+00
 -9.4784003e-01
  2.0031445e+00
  2.1833394e+00
  9.7929597e-02
 -7.9458040e-01
 -2.2389519e+00
  1.0293686e+00
  1.5768094e-01
 -9.0489900e-01
 -1.3331850e+00
  1.1995620e+00
 -1.3047744e+00
 -3.1037345e+00
  1.1851573e+00
 -8.9853175e-02
 -8.9714217e-01
 -1.7465660e-04
 -2.3677156e+00
  9.1901970e-01
  5.9723032e-01
  7.2757490e-02
 -1.2092822e+00
  2.3280170e-02
 -1.3334616e-02
  5.0922585e-01
  3.3215114e-01
 -4.5167398e-01
  3.4821296e-01
  2.7821338e+00
 -1.5138409e-01
 -1.9512078e-02
  2.9721695e-01
 -9.0574145e-02
 -1.0842944e+00
 -1.9658859e-01
 -7.6610750e-01
  2.3687373e-04
 -6.0412884e-01
  6.4635621e-03
 -5.3716036e-03
  2.5049332e-05
 -9.2980915e-01
  5.1460408e-02
 -1.1373841e+00
  6.9639605e-01
 -8.7514955e-01
  3.6981738e-01
 -3.5582271e-01
 -5.7810569e-01
 -2.0239252e-01
 -3.0683926e-01
 -2.6464410e-02
 -3.1794783e-02
 -2.8969720e-01
 -9.2687793e-02
 -8.1095740e-02
 -4.1002068e-03
 -4.0375467e-02
  8.5752231e-01
 -1.2413610e-01
  2.0870927e-03
  2.8597275e-04
  8.2072866e-01
  1.3079160e-01
 -2.6268712e-01
  4.1404390e-01
 -4.6115094e-01
 -5.9092289e-01
 -1.0201846e+00
  4.8564643e-01
  6.6902775e-01
  3.5186234e-01
 -8.8773444e-03
  2.8483994e-02
 -8.6381555e-01
 -8.2368976e-01
 -5.3512208e-02
 -2.9804669e-03
 -4.7717586e-01
  7.4786043e-01
  7.4498847e-02
 -9.2661306e-02
 -1.8657500e+00
  3.9051227e-02
  3.7317330e-01
 -4.6165090e-04
  8.9605525e-02
 -1.3387777e-04
  9.7597338e-02
 -2.1045862e-01
 -9.3970722e-01
 -1.8201564e-02
 -1.1909761e-02
  7.2734737e-01
  1.3579234e-03
  5.0268197e-01
  1.8184687e+00
  8.9322507e-01
 -4.5709509e-02
  4.2723033e-01
  1.8248042e-01
  1.4219634e-01
 -2.9426372e-01
  1.2815605e-01
  2.5468907e-01
  2.9647273e-01
 -4.8383102e-02
  1.7253236e-03
 -1.0762939e+00
 -1.5943877e-02
 -9.7433221e-01
 -5.2152127e-02
  1.0168988e+00
  6.4197308e-01
 -2.8905118e-04
 -3.4031329e-01
  8.1913096e-01
 -8.7283742e-01
  3.3009022e-01
  9.1623765e-01
 -6.6191168e-03
  5.2430570e-02
  1.3423267e-01
 -5.1486380e-03
  1.7657152e-03
  9.3241054e-01
  6.7186677e-01
  5.4633486e-01
  1.2108777e+00
  2.2497725e-02
 -1.1112483e-04
  5.4180092e-04
  3.8925353e-02
  4.6788621e-01
  6.0687590e-02
  1.8834305e-01
  5.0085899e-03
 -5.8758980e-01
 -5.3992003e-01
 -3.8825479e-01
  5.1936138e-01
  8.0538768e-01
  6.5207845e-01
  3.9669243e-01
 -1.7310539e-04
  3.7518695e-02
 -2.0661387e-01
 -4.5145774e-05
  6.6991127e-04
  6.2392336e-01
  1.6944500e-04
 -2.3246089e-01
 -6.0565495e-01
 -2.6123428e-01
 -4.3875974e-02
  2.9178210e-02
 -1.6016815e-02
  1.7162440e-03
 -9.5481545e-01
 -9.4894832e-01
 -3.8590033e-03
  2.9027137e-01
 -4.6400201e-01
  3.1773326e+00
 -1.6197586e-01
 -5.0365174e-01
 -1.7115201e-01
 -3.4667602e-01
  2.1999136e-01
 -2.3035544e-03
  9.2471254e-01
 -1.1813453e-01
 -9.0862021e-02
  3.3124149e-02
  1.6406076e-01
  1.3067146e-01
  3.9384043e-01
  4.2777977e-04
 -1.2559196e-04
  6.8835013e-02
  6.2688506e-01
 -8.9272738e-01
 -5.4846460e-01
 -4.2556778e-02
  2.3610343e-03
  4.5111738e-04
 -4.3470630e-01
  4.3034083e-01
 -5.5179626e-01
 -4.2290896e-01
  1.0042188e+00
  8.9234674e-01
  8.3403444e-01
 -3.6984402e-01
 -1.5211552e-01
 -7.9297906e-01
  5.4509866e-01
  1.6836387e+00
  1.1811940e-01
 -6.4465094e-01
 -4.4649026e-01
  3.4880154e-02
 -6.1758256e-01
 -3.7695315e-01
  9.8374463e-04
  1.8879851e-02
  1.0160271e-02
 -2.8556125e-04
 -1.0291247e-01
  5.9731930e-01
 -1.1187452e-01
 -9.6444547e-02
  1.1595179e+00
 -6.2348688e-01
  5.3246653e-01
 -2.5071526e-01
  5.0162345e-01
 -2.7481353e-01
 -2.1850736e-01
 -4.5387622e-02
 -2.0987056e-01
  2.0667896e-01
 -1.1713355e+00
  1.4910172e+00
  1.6679224e+00
 -4.5474672e-01
  7.7287406e-01
 -2.7613381e-01
 -1.1845788e+00
  1.5820063e+00
 -1.0898397e-01
  3.2110087e-04
  5.5499762e-01
 -7.1856642e-01
  1.7206990e+00
  1.2045799e+00
  1.1741669e+00
 -4.0688072e-03
  2.0973195e-01
  2.2598878e-02
  5.9826964e-01
  9.8584169e-01
 -8.5560787e-01
 -5.4727338e-02
 -4.6912941e-01
 -3.6435148e-01
 -1.6735722e-01
  2.6134732e-01
  7.1831620e-01
  1.3909742e+00
 -2.2219443e+00
 -1.4558642e+00
 -1.5475932e+00
 -1.9777115e-01
 -8.6227208e-01
  2.4058185e+00
 -5.2492414e-03
 -2.8395846e-01
  1.4991419e+00
  2.5752778e+00
 -9.3740565e-01
  1.6132663e-01
  3.3808148e-01
  2.2292576e+00
 -2.9868409e-01
 -4.5783323e-01
  1.3813577e+00
 -6.0441452e-01
  3.9247873e-01
  5.4286194e-01
 -4.2576319e-01
  1.1157269e+00
  3.7397280e-01
 -2.2596946e-02
  5.3508580e-01
  3.9503074e-01
 -1.8108723e-01
  6.1854213e-01
  3.3273515e-01
 -3.1789097e-01
 -1.5213738e-01
  8.8971394e-01
 -3.3333227e-02
 -9.4280708e-01
 -1.8106173e-01
 -9.9646562e-01
  1.3764846e-03
 -2.7589881e-01
 -4.7323787e-01
  7.2393655e-03
 -1.5903697e+00
 -1.8732824e+00
  1.2777511e-03
  8.6246544e-01
  1.9786024e-01
  1.0360079e-01
  6.1810319e-03
 -3.1198528e-01
  6.8365354e-03
 -1.9471492e-01
  1.0542111e-02
  3.3809771e-03
 -1.2862726e-02
  4.6606109e-04
  6.6941822e-05
  8.0362975e-04
  1.9351601e-04
 -1.8098978e-04
  7.6210400e-04
  1.3927952e-04
  2.7967908e-05
  5.5590604e-04
  6.8359281e-05
  5.8350433e-04
  1.3177325e-04
 -2.4573819e-04
 -7.0824591e-04
  2.8088671e-04
 -7.7554974e-04
 -3.8488468e-04
  8.8393492e-01
  5.2685617e-04
 -4.6076888e-01
  9.6617630e-05
  2.8324702e-01
  1.3117701e-03
 -4.1820601e-02
 -1.8054679e-04
  3.0836422e-04
 -5.0938535e-02
 -1.2916979e-01
  5.3383741e-05
 -5.1256275e-04
  5.2993302e-04
  8.4093675e-02
  1.1019747e-01
  4.2192234e-05
  1.3686472e-04
 -1.5586715e+00
  1.1308340e-03
 -5.5585628e-05
 -3.5835098e-04
  1.7631032e-04
 -1.5328460e-03
  1.5291672e-04
  3.6371613e-04
 -1.3061272e-03
  1.1271922e-04
  5.0625525e-02
  6.5511078e-01
 -9.9959850e-02
 -1.2455374e-01
  3.7611973e-01
 -2.9099191e-02
  5.6109563e-02
  7.0110887e-01
 -1.0610917e+00
  7.4295174e-05
  8.6540282e-01
 -4.3515058e-04
  1.8592508e-01
  1.9577785e-01
  4.5562533e-01
 -4.5156682e-01
 -9.4441891e-02
  7.6201397e-01
  2.6343390e-01
 -5.4630792e-01
  1.0148963e-01
  8.9781458e-04
  5.1024628e-01
  2.2211922e-03
 -2.5880401e+00
  3.4597248e-04
  2.1962994e-01
  2.6399890e-01
  9.3806005e-01
  8.1042349e-02
  4.1543115e-02
  7.3754475e-02
 -4.5950919e-02
 -2.5870174e-01
  5.0479673e-02
  9.1472989e-01
  8.7449384e-01
  5.0530839e-01
 -2.4775589e-01
 -1.0708281e-01
 -6.2212211e-01
 -2.9718416e-02
  4.6420479e-01
  3.3153614e-01
  6.2393457e-01
 -6.1032835e-02
 -1.4175191e-03
  9.9287964e-03
  3.0321199e-03
 -2.6918212e-02
 -1.3703078e+00
 -1.4173485e+00
  9.3173154e-04
  6.0535681e-01
 -2.9720820e-02
 -7.5560701e-01
  4.5215169e-01
  9.6501559e-01
  5.0904524e-01
  6.8135932e-02
 -2.5370824e-01
 -1.0973972e-01
  8.2500689e-02
 -8.2004346e-02
  1.6077319e-01
  1.7512882e-01
  7.8678298e-01
 -9.9447620e-01
 -3.1985185e-01
  1.2611884e-01
 -5.5389518e-01
  7.5390860e-02
  3.2094643e-01
  1.2062380e-01
 -3.4926450e-01
  7.1813285e-01
 -1.0331140e+00
 -3.5018209e-01
 -8.4582970e-02
 -7.5503713e-01
  1.6522449e-01
  2.0581059e-01
  1.2719525e+00
  8.6946860e-03
  2.7610245e-04
 -9.7048253e-01
 -2.8899729e-01
 -7.9303145e-02
  1.1533047e+00
  1.4167418e-01
  2.8016439e-01
  5.7436895e-01
  4.4779137e-01
  1.9380982e-01
  2.3379883e-01
  1.1380009e-01
 -3.6896849e-01
 -7.6703358e-01
 -2.2315401e-01
  1.8873068e-03
  3.7492566e-05
 -2.2042375e-03
  6.4706936e-02
 -2.9564372e-01
  3.0470982e-01
 -1.4739114e-01
 -1.1153520e-01
  4.6890611e-03
  2.8215788e-04
 -1.8749908e-04
  3.5042324e-04
  1.9321124e-04
 -1.9464624e-01
 -3.1529335e-04
 -1.9623231e-04
  2.4899200e-04
 -1.0321775e-04
 -5.7523878e-04
  2.8852400e-04
 -3.1974130e-05
 -6.3084488e-05
 -5.9461273e-04
  8.9595420e-04
  5.2182611e-05
  5.3678523e-05
 -8.6823478e-04
 -3.0363095e-04
  6.0069986e-04
 -2.6166621e-03
  1.9101673e-04
  6.2569825e-04
  3.0180137e-04
 -1.9646301e-03
 -1.7904656e-04
  6.3669577e-05
 -2.9740494e-04
 -4.3226453e-04
  1.2208283e-04
  3.6894580e-05
 -3.4013423e-04
 -5.5221381e-04
  1.7376174e-04
  4.7985470e-04
 -7.0385885e-04
 -2.3214224e-04
 -1.4077313e-03
 -3.3233009e-05
 -1.6392251e-03
  8.9248334e-04
  8.8293637e-05
  3.9902887e-05
 -1.4314328e-04
  3.1415836e-04
 -3.2032732e-04
 -4.3912750e-04
 -6.4376864e-04
 -2.4156162e-04
 -1.1322676e-04
 -1.0760623e-03
  2.8695419e-04
 -5.3334393e-04
  4.9734808e-05
 -2.7730143e-01
  8.0644631e-01
  1.2905456e-01
 -4.5517247e-02
 -3.4872556e-01
 -1.0434541e+00
  4.6846792e-01
 -7.0121264e-01
 -1.5375523e-01
  1.7127690e-04
  5.6160608e-04
 -1.8400895e-05
 -4.0276453e-04
  6.0030964e-04
  2.1785784e-01
 -4.2504323e-01
 -1.9810560e-04
 -3.7349216e-04
  9.3782978e-04
 -1.6180123e-04
 -1.6599065e-01
 -1.2995021e-03
  1.4070798e-04
 -5.7160849e-04
  4.7654205e-05
 -1.8587385e-04
  2.0658549e-04
  9.3394285e-04
  1.4698971e-02
  1.1312084e-03
 -9.0438960e-05
 -1.2452194e-03
  1.3796500e-03
 -7.5010606e-04
 -8.5401807e-05
  1.1660228e-04
  2.7728808e-04
  6.3714589e-04
  5.8064159e-02
 -8.7806577e-05
 -4.9440667e-01
 -1.7590563e-01
 -1.1523991e-03
  1.3563960e-03
  7.5571388e-02
  2.8799966e-04
 -1.4222906e-03
  1.0015367e-04
  8.9402354e-05
 -8.6765474e-04
  7.5791677e-06
 -1.4492245e-05
  2.4460457e-04
 -3.9021112e-04
 -8.7394929e-01
  2.4122019e-01
  7.3126242e-02
 -2.3047959e-02
  1.9961124e-02
 -4.8164302e-01
  2.9955927e-01
  7.6566839e-01
  3.6630836e-01
 -9.2606485e-04
 -5.1779475e-04
  7.2698963e-01
 -1.3408349e-03
  7.7553345e-03
  1.2143768e-01
  1.5464109e-05
  6.7231234e-04
  2.2420794e-01
  4.2962071e-01
  1.1912019e+00
  3.5039596e-02
  5.6159675e-01
  7.2211528e-01
  7.7500331e-01
  2.8251871e-01
  3.3262072e-04
  1.6137537e-02
  8.9976966e-01
  1.1855265e-01
 -4.6562206e-02
 -2.4324660e-03
 -2.7781050e-03
  1.1610320e-02
 -3.3917984e-01
  3.8990161e-01
  2.3201779e-01
  1.0448595e-01
  9.8923527e-02
  8.2959449e-01
  3.3056814e-02
 -5.0237719e-03
 -1.5681902e-01
 -1.3790196e-01
  3.1681055e-01
 -5.8375388e-01
 -4.1902901e-04
  1.2703772e-03
  3.6781761e-01
  1.9871256e+00
 -6.2529652e-05
  7.0925617e-01
  4.9309838e-05
  2.1706472e-04
  1.8155740e-01
 -5.0721761e-02
  1.4234853e-01
 -5.1324546e-02
  5.3931866e-02
  1.7618102e-03
 -7.8831869e-01
 -4.4550993e-02
 -1.9757858e-01
 -1.3666110e-01
 -2.4157381e-04
 -4.9910764e-04
  2.0358920e-04
  1.8955780e-04
  3.5087872e-04
 -2.3853027e-03
  1.3772721e-02
  1.3540188e-05
  1.2718384e-03
 -1.0898139e-03
  2.5564566e-05
 -9.9749921e-04
 -1.2294685e-03
  1.6043251e-04
 -1.2396413e-03
 -1.7441099e-03
 -2.4124893e-04
  5.7515845e-04
  1.4525837e-04
  1.4000320e-01
  9.4705046e-04
  8.2868716e-04
 -9.4332080e-03
  8.8960654e-04
 -1.5523785e-04
 -3.8201659e-04
 -4.3879822e-03
  2.2028645e-03
  1.6685536e-04
  5.8732112e-06
 -7.3717069e-03
 -1.1284938e-01
 -1.5975082e-01
  7.9241000e-02
  3.4394603e-02
  9.2357546e-03
  1.1857097e-04
  2.5039766e-04
  3.8047807e-04
 -2.1182684e-06
 -7.6744723e-04
  3.8688144e-04
 -2.0178546e-04
  1.0693772e-04
  1.4729836e-03
 -1.3140883e+00
 -6.9797015e-01
 -2.2101896e-01
 -2.5868592e-01
  2.5547794e-01
  4.3317109e-01
 -1.1869659e-01
 -8.7953699e-01
 -2.1406680e-02
  7.4486574e-04
  4.6529443e-05
 -1.0392560e-03
  2.7500631e-03
  1.2324332e+00
  4.1743430e-01
  2.6341194e-01
  3.6973917e-04
  3.8604510e-03
  2.4934768e-04
  5.3302129e-04
  2.8040320e-02
 -1.0298780e-04
 -2.3056950e-01
 -4.9857315e-02
 -9.9121518e-03
  7.6785276e-05
  1.0730762e-01
 -1.1572414e-03
  3.2530490e-01
 -1.2770638e-01
 -2.1422982e-01
 -5.5988252e-02
 -8.6508828e-01
  5.3523844e-01
 -6.8403852e-01
  2.6618615e-02
 -5.5589840e-02
 -2.8683683e-01
 -4.4110397e-01
 -1.8512025e-01
  1.9081613e-01
 -4.5841273e-02
 -3.3093622e+00
 -2.0060347e-01
  1.7047706e+00
  4.1746545e-05
  3.7048652e-04
 -1.4645549e-03
  1.1234813e-04
  2.3028536e-03
  6.2328269e-04
 -8.1599457e-03
  1.9165062e-03
  3.3373886e-04
 -6.3509691e-01
  4.4191372e-01
  1.3561168e-01
 -1.3399620e+00
 -1.8619610e+00
  1.4112858e-01
  1.8816742e+00
 -8.4405291e-01
  3.1983733e-02
 -2.8990308e-04
  6.6505902e-04
 -6.4708879e-03
  5.4499137e-01
 -6.4247526e-02
  6.1180019e-03
  1.5252916e-03
  1.2401314e-04
 -1.5772436e-02
 -1.8387722e+00
 -2.6930499e-04
  1.0395713e+00
 -1.2082148e-03
 -1.0853900e-04
  6.8719238e-02
 -5.1357520e-01
 -1.3749194e-02
  4.1033006e-01
  8.2991374e-01
  3.2623321e-02
 -2.9224253e-01
  6.5814488e-02
 -3.2526517e-01
 -1.0736353e+00
  3.4207132e-04
  2.8066176e-01
  1.0669835e+00
  1.4117449e-04
  9.9055451e-01
 -2.4203822e-01
  1.3484013e-01
  1.5490938e+00
 -1.5733847e-02
 -6.0130882e-01
 -1.1637338e+00
 -9.5405823e-01
  3.0360112e-03
  1.6064200e-03
 -1.8133415e-01
 -1.5969058e-03
 -2.8945770e-02
 -1.0746222e-04
  1.8089665e-04
 -3.7076682e-04
 -3.4262965e-04
  5.0779897e-01
  4.5790091e-02
 -1.9777161e+00
  1.4353052e+00
 -6.0688000e-02
 -9.1008760e-02
  9.6780288e-01
  4.1724890e-01
  1.5630310e+00
 -2.9845631e-01
  3.0382425e-01
  1.2411234e+00
  7.5660694e-01
  3.0712888e-01
 -1.8382290e-01
  2.0485606e+00
  4.1763784e-04
  1.1195297e+00
  7.6139015e-01
 -7.8654742e-01
  1.5229832e-01
 -9.6203148e-01
 -1.9751510e-01
  3.5870554e+00
  7.6137573e-02
  2.8868867e-02
  1.1332794e-04
 -5.8354169e-01
 -4.8620448e-01
 -2.9707569e-01
  6.4777976e-01
  4.4592658e-01
 -1.5521972e-01
  6.0314111e-02
  1.5754605e-02
 -5.0482798e-01
 -5.4886621e-01
  5.5442756e-01
 -8.3021975e-01
 -2.8117113e+00
  1.6826174e+00
  4.4792584e-01
 -7.7654392e-01
 -1.1762326e+00
 -1.6053870e+00
 -9.2550695e-02
 -1.1371049e-03
 -3.0098900e-01
  5.0428836e-05
  6.1851548e-04
 -2.8951681e-01
 -3.2037742e-02
  1.5740702e-01
  3.2049665e-01
 -1.2760230e+00
 -1.0355236e-01
 -3.6221907e-01
 -1.5478467e+00
 -7.4789830e-02
 -1.5040541e-01
  4.7086710e-01
 -2.3022567e-01
 -2.3274423e-01
  9.5548773e-01
  5.5278093e-01
 -8.1778911e-05
  7.4610198e-01
 -7.4268037e-01
  6.2752195e-02
 -1.1269932e+00
 -2.8719546e-04
  2.6095648e+00
  3.7005016e-01
 -1.9765101e-01
 -4.3244609e-01
 -6.5883897e-02
 -3.5893777e-01
  9.9290085e-01
  1.1564696e-02
  6.7505598e-02
  1.1622039e+00
  7.6337814e-02
 -1.9528071e+00
  1.2986985e+00
  7.4104160e-01
 -3.2497439e-01
 -6.6380632e-01
  3.6946818e-01
  4.7542807e-01
  5.3568125e-01
  3.2738801e-02
 -1.4659905e+00
 -3.7140775e-01
  6.2084323e-01
 -1.3335241e+00
  4.7169700e-01
 -2.6692197e-01
  2.9847351e-01
  1.3473356e+00
 -3.4758112e-01
 -1.4415757e-05
 -8.4671986e-01
  8.9174777e-01
 -3.6436746e-01
 -6.8581730e-01
  2.0983543e-01
 -5.2294862e-01
  4.4846907e-03
  2.6782665e-01
 -1.2776418e+00
 -8.5472506e-01
 -4.3945055e+00
 -7.7965623e-01
  1.2876676e+00
 -2.8360784e-01
  1.2978905e+00
  8.9787620e-01
 -1.3938366e-01
 -1.8483585e-04
  3.4945985e-04
 -1.1561235e-04
  9.1857272e-01
 -2.8621464e+00
  7.5084023e-04
  1.7495757e-04
 -2.6819673e-03
 -1.7308064e+00
 -1.7667358e-03
  3.3693390e+00
 -1.8082999e-04
  2.8867157e-02
 -1.3356748e+00
 -4.7284324e-04
 -3.1329289e-01
 -1.9366907e+00
 -5.0497675e-01
  1.4672618e-02
  6.7800641e-01
  7.5333780e-01
 -5.1570040e-01
 -1.4866623e+00
  1.6913611e-03
 -1.4998691e+00
 -2.4750229e-04
  8.7482655e-01
  5.3702915e-01
  4.4853997e-01
  8.1656599e-01
 -6.5510100e-01
  3.2072857e-01
  1.1256398e-02
 -1.0304279e-03
  2.2029347e+00
 -5.6554591e-06
 -9.8276330e-05
  5.6253112e-04
 -3.5943414e-04
  6.2238454e-04
 -1.2256803e-03
 -2.6749585e-06
 -4.0307879e-03
 -1.2643178e-03
 -2.4144021e-01
 -3.5038298e-01
 -2.2300723e-01
  2.9391798e-01
 -1.7479694e-02
  1.8547828e-01
 -1.9293702e-01
  1.1538631e+00
  1.3483683e+00
  4.4640974e-04
 -6.0167199e-04
 -1.1663631e+00
 -5.0214148e-04
 -6.6638368e-01
 -4.7215559e-02
 -9.4772243e-01
 -1.5784941e-03
 -3.0912313e-01
  1.5426396e-02
 -4.6829188e-01
 -5.9045468e-02
 -9.9501085e-05
  3.4189618e-03
 -1.5877502e+00
  5.2994472e-01
 -1.8708319e-04
 -7.6199422e-04
 -2.9219818e-04
 -9.4446009e-01
  7.3506641e-01
  1.1761264e+00
  3.9403807e-02
  1.8562438e+00
  6.1640698e-05
 -1.4278281e-01
 -1.2579898e+00
  4.8317698e-01
  1.0854615e-01
  3.3832857e-01
  2.1112392e+00
 -8.7928504e-01
  2.1730967e-01
  2.8736249e-05
 -1.3122094e-01
  6.2797773e-01
  1.5324196e-04
 -1.9115064e-04
 -2.4571060e-01
 -1.4524085e-04
  5.2479472e-02
 -6.6763896e-01
  3.5752487e-01
 -3.2175609e-04
 -2.6375137e-04
  3.8339704e-01
  1.2653985e-02
 -1.5637319e-01
  7.7087593e-01
  4.1298455e-01
  2.0145288e+00
 -1.5605234e-01
 -3.8162464e-01
 -2.1557775e-01
 -1.9164381e-04
 -1.0032961e-03
 -7.3563545e-03
 -5.8184695e-01
  1.0366321e+00
 -1.5269548e-01
  1.5965974e+00
  3.8914584e-02
  9.3674630e-01
  1.0379478e-01
 -7.6654716e-03
  1.4419150e-01
 -3.4985107e-05
 -2.4732058e-01
 -8.9442928e-04
 -3.9648616e-01
  1.7069440e-01
  7.9345626e-01
 -7.8825057e-02
 -3.5042858e-01
  4.1861996e-01
 -8.8324773e-01
 -1.4163874e+00
  1.7317151e+00
  1.0533297e+00
 -2.0330543e-02
 -5.9918410e-01
 -8.8890541e-01
 -2.6064167e+00
 -7.6258099e-01
 -1.5525293e-01
  4.0110433e-01
  1.3310078e+00
  4.0864080e-02
  5.7953703e-01
  6.7675984e-01
  2.4429715e-04
  2.5651284e-04
  3.8852872e-04
  1.1937711e-03
 -7.6429866e-04
  6.0927152e-04
  1.2444576e-03
  5.4476556e-04
 -6.0581177e-04
 -1.2601868e+00
 -4.0323767e-01
  1.3638370e+00
 -2.3327766e-01
 -1.9801348e-01
 -2.3815386e-01
  3.0023405e-01
  2.1797558e-02
  1.6203172e+00
 -3.0920485e-01
 -2.1581723e-01
  8.4659976e-01
 -7.6392585e-01
 -9.5901954e-01
  1.5217876e+00
 -5.7623996e-03
  1.1054488e+00
  7.1628505e-01
 -1.2807645e+00
  1.1521258e+00
 -2.0841157e+00
  2.0087123e+00
  8.2481396e-01
  1.5825539e+00
  4.0065122e-01
 -1.2121999e-03
 -1.3423537e+00
  3.6570931e-05
 -7.2221053e-01
  5.2362531e-01
 -8.3080554e-01
  1.6643825e-01
 -1.0028633e+00
  2.7578997e-03
  6.1641887e-02
 -3.2361979e+00
 -1.1387255e+00
 -1.3807271e+00
  1.7179002e+00
  4.2916265e-01
  8.2409400e-01
  1.1019627e+00
 -4.0688255e-01
 -1.2671309e+00
  1.1982076e+00
  8.2336285e-04
 -1.3391207e-01
  1.6885731e+00
  2.7352408e-01
  5.2700434e-02
  7.4641797e-04
  2.0947015e+00
  1.9264688e-03
 -1.7808294e+00
  1.9775158e-01
 -1.5172872e-01
  5.4204382e-02
 -2.0836051e-01
  1.3828588e-01
 -2.4911627e-02
 -9.8592681e-01
  1.8991393e-01
  8.4356032e-02
 -3.7465617e-04
  3.4262098e-03
  2.9138385e-04
 -5.5786478e-03
 -8.4108450e-03
  6.9926173e-04
  3.4969041e-04
 -7.1080268e-04
  2.3330303e-04
 -5.7531823e-04
  3.5907477e-04
  4.7839640e-04
 -1.6115687e-04
 -1.4172144e-01
  1.9392369e-03
  9.3510898e-05
  7.6179262e-05
 -1.2279001e-01
  1.7038364e-02
 -3.5399601e-03
 -3.2002650e-02
 -1.3795457e-04
  1.0917889e-01
  2.5720045e-04
  1.1185664e-02
  2.8929286e+00
  2.4336271e-01
 -2.9273829e-04
 -2.3072295e-02
 -6.3266717e-02
  6.2474899e-04
  4.6597220e-02
 -7.9203613e-02
 -3.5361394e-03
  9.0402178e-02
  1.1237714e-04
 -1.8030175e-03
 -1.1187396e-04
  3.5749280e-01
 -2.5470700e-04
  4.4844553e-04
  7.2399765e-01
 -3.3394544e-04
  9.3868613e-04
  4.2833533e-05
  1.2398454e-01
 -1.3535886e-01
  2.9661274e-01
 -3.5770810e-01
  9.9015214e-02
  2.0759408e+00
 -1.8712114e-01
 -8.9072657e-01
  2.9378346e-01
  3.5956103e-04
  5.2688967e-02
 -2.2623657e-01
  1.3937294e-03
  1.4059699e-01
  1.1005031e-04
  8.9693069e-04
 -3.6828572e-04
 -1.7903541e-01
 -4.3015690e-03
 -4.4637550e-02
 -7.9604730e-02
 -1.8483865e-01
  3.8698252e-02
 -3.9108127e-01
  4.5296900e-02
  1.7654326e-02
  3.7341312e-01
  4.2856610e-01
 -4.5091036e-01
  7.1161622e-01
  2.1936782e-03
  6.1926198e-01
  8.4182306e-04
 -9.1632035e-05
 -3.0580077e-03
  3.3127490e-02
  7.5330358e-04
 -3.5081792e-01
  4.7923711e-01
 -1.8772022e-01
 -8.0383733e-02
 -6.3955709e-02
  6.3303715e-01
 -1.2018265e-02
  8.1478525e-03
  1.3021256e-03
  1.8145175e-01
 -3.2986605e-01
 -5.0368125e-04
  1.0992622e-02
 -3.1669618e-04
  7.8798749e-02
 -4.2730707e-04
  2.0775218e-04
 -1.5969015e+00
 -1.1828104e+00
  8.5700095e-01
 -1.0153829e-01
 -6.0122076e-02
  1.2883180e+00
  5.8637798e-01
  1.3194883e+00
 -2.0330118e-01
  2.5758467e-04
 -2.8877366e-01
  1.0479711e+00
  6.4290193e-04
  6.0932136e-01
 -9.7949989e-02
  3.0783847e-01
 -4.1310659e-01
  1.6097721e+00
 -2.5195336e-01
  3.7590960e-01
 -4.0274626e-01
  1.8261708e-02
  1.3592786e-01
  7.2557408e-01
  6.9949049e-01
 -5.9374392e-02
  4.7837478e-01
 -4.2051751e-02
 -2.3519735e+00
 -4.0515280e-01
 -4.8690557e-01
 -7.4165779e-01
 -8.0592638e-01
 -4.2274576e-01
  2.3150613e-04
 -1.3200231e-01
  3.2747451e-02
  2.5390995e-01
  4.9300116e-01
  5.1163685e-01
  4.0105250e-01
  3.2310387e-01
  2.3018789e+00
 -4.9069503e-01
  7.8638405e-01
  2.7018620e-04
 -1.2038698e-03
 -1.2925090e-01
  3.6443478e-01
 -1.2994889e+00
 -6.4592028e-01
 -2.6951770e-03
  1.3054195e-03
  4.2844223e-04
 -1.2151864e-04
 -4.9099728e-04
  1.0327991e-03
 -6.1325531e-04
  6.4585911e-06
  2.1741593e-04
 -7.2597657e-05
 -2.3552633e-04
  2.0157374e-03
 -6.9419715e-05
 -1.7505951e-04
  1.2865088e-04
 -7.1578455e-05
 -1.2219948e-03
  4.6642432e-03
  8.2811347e-04
 -1.1204052e-03
 -2.0990053e-03
  2.6719691e-04
  1.4510489e-03
  2.2096322e-04
 -1.3290657e-04
 -3.3678283e-04
 -6.5556393e-05
  1.0947790e-04
  5.2533345e-04
 -1.2916347e-04
 -3.2182582e-04
 -3.3476684e-04
  4.5215320e-06
 -5.8028661e-04
  1.6412433e-04
 -7.0865390e-06
 -5.5924081e-04
 -2.4984902e-04
  5.2390467e-05
  1.5451355e-04
  5.3122366e-04
 -3.8249684e-05
  7.7965431e-04
  3.9236457e-04
  3.2560395e-03
 -2.0220895e-04
 -1.5725433e-03
 -3.0649288e-05
  7.9629198e-02
 -2.4325306e-04
 -1.0972798e-03
  6.1254977e-05
  6.4993597e-04
  1.1082435e-03
 -3.9491622e-04
 -5.0930399e-04
  1.6737878e-05
  4.6834850e-01
 -3.7014167e+00
  1.2222352e+00
  3.0439162e-01
 -1.2079425e-03
 -4.8705214e-01
 -5.3547091e+00
 -1.3857464e+00
  9.7530395e-01
 -1.5796730e-04
 -2.2852194e-04
 -4.8418887e-04
  9.9316449e-04
  4.7771284e-01
  6.9893914e-04
  3.4608189e-03
 -1.1560342e-03
 -7.7407509e-05
  6.2629039e-04
 -2.0412052e-04
  5.4545165e-04
 -1.1077118e-03
  7.9672553e-02
 -3.0538812e-04
  9.2840179e-05
  8.1549824e-04
 -2.5556615e-04
  1.3282959e-03
  1.3299822e-04
  2.5717940e-04
 -4.2705503e-04
 -4.3355164e-04
  8.5731894e-01
 -1.0157742e-03
  3.7113280e-04
 -4.0054802e-06
 -9.2395989e-04
 -1.7696763e-04
 -6.6235970e-04
 -2.1970120e-06
  5.9053278e-01
  5.9079040e-02
  1.2815606e-06
  3.1170514e-01
  1.6428257e+00
 -2.0992191e-04
 -1.5400862e-04
  1.1541185e-03
  3.4265008e-04
  2.0787471e-03
  1.2378191e-03
  1.8236535e-03
  4.9717445e-04
 -4.4291408e-04
 -6.7006550e+00
 -8.7082357e+00
  1.3084650e-01
 -1.5282247e+00
 -5.7656235e-01
 -2.4361777e+00
 -8.5193419e-01
 -1.5938072e-02
 -3.0451295e+00
 -5.9085333e-01
 -4.6203569e-02
  3.1261745e-01
  4.0143201e-01
 -1.0612556e+00
  3.3614447e+00
  9.6142401e-05
  9.3329861e-04
  1.7832792e+00
 -3.7107059e-01
  6.8147490e-03
  1.6783537e+00
  8.1103414e-02
  2.2857397e+00
  4.2147732e-01
  2.6190307e+00
  1.2069284e+00
  9.6861291e-01
  6.0797340e-01
 -2.3918116e-02
 -8.7311810e-01
 -1.4866520e+00
 -1.0436468e+00
 -7.2154504e-01
  2.0101635e-01
  1.5415351e-03
  5.9651315e-01
 -1.0697950e+00
  1.0437689e-01
 -7.4322742e-01
  4.2577819e-03
 -7.8973806e-01
  1.3465057e-01
 -9.2534918e-01
 -2.3430711e-01
 -2.5225098e+00
 -1.4313813e-01
  4.5030651e-04
 -1.7582507e-01
 -3.9600658e-01
  5.5252150e-02
 -2.3735359e-01
  1.5777599e-03
 -1.3801901e-04
  5.9463239e-01
 -6.6557580e-01
 -1.4294962e-02
  1.4067101e-03
 -2.8734622e-04
 -1.1864264e-05
  5.0386298e-04
 -4.5541319e-01
  5.1759428e-04
  1.6365200e-03
 -3.6952895e-04
 -1.0137138e-04
 -1.2676970e-03
  2.5814626e-04
  1.0301678e-04
  4.4899108e-04
  3.1318795e-04
  9.8589994e-04
 -6.6168321e-04
  1.4040081e-04
 -9.7819557e-04
 -1.7101587e-03
 -1.4443511e-04
  9.2199174e-05
  7.3368305e-05
 -8.3165593e-05
 -6.6541537e-04
  2.8598930e-03
 -5.4750458e-04
  1.2916746e-03
  4.1231826e-05
  4.0359932e-04
 -2.0006677e-05
 -4.6206458e-04
  3.2163970e-04
 -5.3914671e-04
  4.7430192e-05
  5.2927335e-04
 -1.9908734e-03
 -6.8502047e-04
  4.0228819e-04
  9.2823122e-04
 -1.0449690e-03
  5.6594156e-04
  9.8041224e-04
 -3.0679291e-01
  6.6826050e-04
  9.5243042e-04
 -1.9281519e-04
 -4.2345247e-04
 -1.6384042e-03
 -4.8176778e-04
 -1.2088855e-05
  8.0757141e-05
 -6.1317126e-04
 -4.9752578e-01
  4.7263065e-01
  1.0362832e-01
  8.3595395e-01
 -7.9907501e-01
 -2.0974685e-01
  1.3110337e-01
 -7.3548579e-01
 -7.6279260e-02
 -1.9564878e-04
 -5.3499418e-05
  3.4407692e-04
 -3.4842484e-02
 -3.5130280e-01
 -5.4752439e-01
  1.8796557e-01
 -5.0644163e-04
  3.3545361e-03
 -8.0105492e-05
  3.4627834e-01
  1.3844324e-02
  1.8858041e-03
 -5.9580809e-04
 -6.9312146e-04
 -2.1086294e-02
 -2.0943459e-03
  2.4392804e-02
 -2.3507309e-01
 -8.8337092e-03
 -5.2316242e-04
 -6.2115842e-01
 -1.4107826e+00
  4.6768403e-01
  7.3502803e-01
 -2.8620477e-04
 -8.8633460e-01
 -6.6609699e-01
 -6.8483502e-01
  3.0523437e-01
 -1.5302576e+00
  2.9147926e-01
  3.2583730e+00
  1.4075147e-01
 -4.6687834e-03
 -8.8775150e-02
  3.9325358e-05
 -7.0155482e-04
  1.2535363e-03
 -1.5782152e-03
 -1.7701212e-03
  1.7813258e-01
 -3.4523872e-03
 -5.8528071e-04
 -4.8312420e-04
  2.2216101e-01
 -6.3093819e-02
  3.2594793e-02
  2.1250122e+00
  4.5838702e-01
 -3.7280522e-02
  7.0196196e-02
 -5.2159030e-02
  2.8131010e-03
  4.1330929e-04
 -2.1397669e-04
  6.4373657e-04
 -1.0833420e-03
  1.0527535e-01
  8.7727455e-04
 -1.1966060e-05
 -1.9790006e-03
  1.5561271e-03
  1.4055442e-03
  1.8763553e-01
 -1.7238486e-01
  5.3850141e-05
 -1.7529042e-01
 -3.2692980e-05
  1.3301258e-01
 -8.9050923e-03
  4.7527992e-05
  1.3761361e-01
 -1.9382663e-01
 -2.7606092e-02
 -4.8925653e-03
  1.3779827e-03
  7.5461514e-02
  2.8791823e-03
  8.1636220e-01
  3.6306763e-03
 -7.4077642e-04
  1.7456161e-03
  4.9216336e-01
  6.3789316e-02
 -3.0521708e-02
 -2.2908816e-01
  1.2702907e-03
  1.0067365e-02
  8.8835470e-02
 -1.3019883e-03
  5.0164773e-03
 -3.6882043e-02
  3.7593600e-05
  3.2742802e-05
  1.7141586e-04
  3.1821762e-04
  6.8246550e-04
  3.0779303e-03
 -1.1299336e-03
  2.7287200e-05
  6.3344909e-05
  3.0889289e-04
  1.5739450e-04
 -5.0632248e-04
 -1.4897822e-05
  5.4657558e-04
  4.5853401e-05
 -1.1432969e-03
  2.1665111e-05
  4.1507842e-04
 -4.9583246e-05
  3.9954868e-04
 -4.0079260e-04
  4.2815786e-04
 -2.8474253e-04
 -2.1290595e-03
 -3.3944854e-04
 -1.1743391e-03
 -5.5905152e-04
 -2.1362394e-02
 -1.2360797e-04
 -2.7675726e-04
 -4.6352186e-04
  5.8005840e-05
  2.8523447e-03
 -2.4600007e-04
  1.5059192e-04
  1.1178798e-03
 -3.7437346e-04
 -2.2935968e-04
  3.6683990e-04
  4.4417284e-05
  3.2056586e-04
 -2.5310670e-04
 -2.7466120e-04
 -2.5974969e-06
  5.0388488e-05
 -2.7604105e-03
  8.3346781e-04
 -7.5296767e-04
  6.0362916e-04
 -6.2525755e-04
  1.7058740e-03
 -2.7386480e-04
  3.4899444e-05
  6.2064466e-04
  2.6992966e-06
 -1.7369096e-04
  1.1548143e-03
 -7.4347707e-05
  4.8203863e-05
 -2.5781139e-04
 -2.9447430e-01
 -1.1078537e+00
  3.7262134e-02
 -1.3477103e+00
 -6.0116440e-01
 -2.0365057e+00
 -1.0859716e+00
 -5.2979499e-01
  2.6755044e-01
  4.3620515e-01
  9.5368952e-01
 -1.5782182e+00
 -1.0441701e+00
 -1.2842507e+00
 -2.3451290e+00
  5.0591153e-01
 -1.3261430e-01
 -5.4958847e-04
 -1.8067379e-01
 -8.2010716e-02
 -1.1705045e+00
  1.4101568e+00
  1.6769511e-01
 -3.7017398e-02
  1.6810838e+00
  1.3213243e+00
 -3.7886553e-02
  1.6023615e-01
 -8.5794702e-02
  7.3879147e-01
  8.7877870e-01
  4.2607445e-01
 -1.3570002e+00
  1.2402682e+00
 -1.2324122e+00
 -5.5454779e-01
  4.0935379e-01
  7.2531646e-01
 -2.6469645e-01
 -4.5881593e-03
 -3.3790182e-02
  5.1176643e-01
 -1.0521555e-01
  9.4811067e-02
 -1.9596361e+00
  1.8891140e-05
  1.6340424e-01
  7.6370376e-01
  3.6573838e-04
  1.7002643e+00
 -7.0449859e-01
 -5.4559024e-04
  5.7238784e-02
  3.3710599e-01
 -9.2387445e-02
  1.0439119e+00
  1.7851936e+00
  1.6714560e+00
  1.1373323e+00
 -4.6363655e-01
  1.1278106e-01
  5.6665081e-01
 -1.3978615e+00
  1.5509284e-01
  1.1680585e-03
 -1.1727570e+00
 -3.4433231e-01
  2.9281947e-01
 -1.2029095e+00
 -1.7650841e+00
  1.3649695e+00
 -2.1612473e-01
 -2.6056654e+00
  8.8632703e-02
 -1.7153685e-01
  1.9416255e+00
  8.3704734e-01
 -7.8017432e-03
 -1.5542384e+00
  4.0263280e-01
 -2.6439682e-01
  2.4528573e-03
 -1.1837386e-01
 -1.2530780e+00
 -1.1133480e+00
  7.4833864e-01
  1.7296915e+00
  7.1280003e-01
 -9.4573522e-01
 -6.9624387e-02
  4.7443825e-01
 -4.0917310e-01
  9.7967878e-02
 -2.0428899e-01
  4.6936586e-01
 -7.2418563e-02
  3.0798510e-01
  1.4338512e+00
  2.7641362e-01
  5.1324749e-01
  1.8382593e-04
 -4.6776056e-01
 -7.6036882e-01
  1.0423077e+00
 -8.8166237e-01
  6.6812128e-01
 -4.7912586e-01
 -3.5695553e-01
  9.5665824e-01
  3.7575093e-01
 -4.2559803e-01
  8.4148459e-02
 -2.9473075e-01
 -1.1114250e+00
 -1.2484169e+00
 -3.0797333e-01
 -6.3278711e-01
 -4.7933999e-01
  4.2057037e-04
 -8.5694164e-02
  8.1770070e-04
 -4.4244692e-02
  7.5200981e-01
 -1.2117836e-02
 -6.0449401e-04
 -3.8213307e-01
 -3.2931256e-01
 -7.0903373e-01
  7.4652308e-01
 -6.2478542e-01
  1.3378572e+00
 -5.9650743e-01
  2.8386723e-02
 -1.5734117e-01
 -4.1928113e-01
 -1.0991462e-01
 -4.0218285e-01
 -9.4817497e-02
  6.4879799e-01
 -2.1418190e-01
 -1.5085627e+00
  1.1872880e+00
 -2.0559679e-03
  3.9563599e-01
 -5.9993482e-01
 -8.7469918e-01
  6.5385610e-01
 -1.3210130e-01
  4.9130273e-01
  2.2375707e-01
 -6.3907337e-01
 -1.2491996e+00
  1.1907542e+00
  1.6520061e-03
 -6.3073920e-04
  2.0149068e-04
 -3.9838818e-03
  1.1999205e+00
 -3.3980295e-02
  1.7008676e-01
 -2.7182247e-03
  3.5056745e-04
  4.2613677e-04
  5.0329138e-04
  3.3861263e-05
 -4.4645512e-05
  4.2235429e-04
  1.2773442e-03
  1.4952461e-03
 -2.6321078e-03
  2.9293422e-04
 -2.2971344e+00
 -1.5456573e-04
  1.1250240e-03
  1.3051578e-03
 -4.9116724e-04
  6.7221193e-04
  1.4172711e-03
 -1.0914162e-03
  1.3794750e-04
  4.6436142e-04
  4.7109774e-05
  9.5660589e-04
 -4.1918643e-04
 -2.2200972e-03
  1.6863250e-04
  1.8454461e-03
  4.3610580e-05
 -1.4235757e-03
  1.5764553e-04
 -9.4118375e-05
 -1.2296300e-04
 -1.5048425e-03
  5.8812737e-05
 -1.6182718e-04
  4.7757631e-04
 -1.5859780e-04
  3.8598093e-05
 -3.1866573e-04
 -2.3580149e-04
 -3.2565222e-04
  1.2321445e-03
  5.2474387e-04
  1.1743396e-04
  3.3308581e-05
 -1.4105446e-03
  1.2873566e-04
 -9.7647787e-04
 -1.4010060e-04
 -1.0564388e-03
 -6.2293484e-04
 -2.6992566e-03
 -9.8684992e-05
 -2.6518927e-04
  8.2531740e-04
 -4.9920807e-05
  2.3311528e-04
  2.6469469e-02
 -3.2448699e-04
 -1.1863287e-03
 -2.8049253e-04
 -2.1595821e-01
 -2.0966893e-01
  4.7350011e-04
 -7.0418201e-02
 -1.3835273e-04
  1.5129317e-03
 -2.8315655e-04
 -1.5705582e-04
 -9.7395713e-04
 -2.1115227e-03
  3.4933782e-04
 -5.9658676e-05
  1.0065444e-04
 -3.3944796e-04
  1.2846488e-03
 -3.9044066e-04
 -7.4846757e-05
  6.1192183e-04
  4.9192884e-05
 -4.7820137e-04
  2.2467463e-04
 -2.1981848e-04
 -7.8411092e-04
  5.4370666e-05
  3.1330329e-04
  6.3971966e-04
  7.3997894e-06
 -3.5590676e-04
 -1.0770084e-04
 -7.3869160e-05
 -1.3601748e-04
  3.1276522e-06
 -1.0731127e-04
  1.3869676e-04
 -1.5008476e-04
 -1.1059176e-04
 -4.1885625e-04
  1.4434069e-01
  5.2151451e-04
  6.3088920e-04
 -1.9117020e-04
  3.8682405e-04
  9.5165212e-04
 -1.3728106e-05
 -9.9712677e-05
 -6.9252687e-04
 -6.6393771e-04
  4.5078777e-04
  3.9991573e-04
 -8.5002340e-02
 -9.2872836e-02
 -1.4160475e-01
  3.5319202e-02
  1.5661742e-01
 -1.6945887e-02
  1.4090689e-01
  5.6488304e-03
 -2.2305725e-02
  4.1952770e-04
  9.5181822e-06
  5.3426798e-02
  2.1888869e-02
  8.2773907e-04
 -4.0270116e-02
  8.8375129e-02
 -4.8393154e-04
  2.9370777e-02
 -5.8829505e-04
  2.3176745e-01
  9.9076575e-04
  1.0104618e-02
  5.7619113e-02
  4.1936912e-02
  1.0031356e-02
 -5.4592529e-04
  1.1933203e-02
  4.0918089e-02
  2.7625382e-01
  6.9499295e-03
 -3.0726252e-02
 -2.6384939e-02
  7.3546320e-02
 -2.4499721e-03
  4.2602757e-04
  1.0424426e-02
 -8.0958067e-05
  2.2735388e-03
 -1.0488419e-03
 -8.0095306e-02
 -1.3942967e-01
 -7.9844989e-02
 -9.6493633e-05
  4.8369449e-03
  9.2477631e-03
 -1.2465277e-03
 -7.1936593e-05
  2.3521751e-03
  7.7540308e-01
 -1.0735366e-04
  1.2892878e-02
 -3.0832456e-02
 -2.2334422e-04
  6.5355040e-02
  7.2822672e-01
  5.6485331e-01
  6.7101228e-01
 -1.7658586e-02
 -2.5135478e-02
 -5.4890490e-01
 -9.6693933e-01
  6.9874689e-02
  5.9527767e-01
  4.2931398e-04
  7.3608793e-03
 -9.1106829e-04
  6.6359705e-01
  1.0750918e+00
  7.9234302e-01
 -3.5379019e+00
  1.1321664e-03
 -2.1511526e+00
  1.5704140e-01
  6.5707527e-02
  7.2129583e-01
 -1.2708555e+00
 -1.7956555e-01
  6.3874942e-01
 -1.9481884e-01
 -5.9618950e-01
  2.3122691e-01
  1.0217123e-01
 -1.5987895e-01
 -1.4572404e-01
 -1.4877297e-02
  1.3219552e+00
  1.8899316e-01
 -5.5689746e-01
 -4.4420606e-01
  4.6232453e-01
  2.0575114e-04
  6.6330588e-01
  4.8408219e-01
  1.2238103e+00
  8.6340290e-01
 -1.2934000e+00
 -1.4815953e+00
  5.4583877e-01
 -2.0007305e+00
  4.9332692e-03
 -1.4400222e-04
 -2.1381578e-01
 -2.9814860e-01
 -1.4554070e+00
  3.0750597e-01
 -8.6617273e-01
 -1.2160925e-03
 -1.2337374e-01
 -1.0631030e+00
 -5.0750673e-01
 -3.1893840e-01
 -2.9262621e-02
  9.2199326e-02
 -2.0523593e-02
  1.4241585e+00
  1.1729102e-04
 -1.0135753e-01
  1.0749640e+00
 -1.0602752e-01
 -1.9314016e-03
 -3.6296420e+00
 -1.3413179e-01
  1.9940378e-01
 -3.9965129e-03
  1.7805415e+00
  3.2601103e-02
 -2.2501859e-03
 -6.3311762e-01
 -8.5137814e-01
  9.2004187e-04
  2.4019467e-02
 -7.0927627e-02
  2.0971043e-02
 -2.3249693e-01
  3.2683876e-01
  1.6854039e-01
  4.5332021e-01
  2.3592112e+00
 -4.8627645e-01
 -1.6916390e-01
 -7.5399481e-02
  3.8856226e-01
  5.4445859e-02
 -4.7730163e-01
 -1.0141860e-03
 -1.8887893e+00
 -3.6263194e+00
  3.1792058e-04
 -1.8977749e+00
 -1.3855295e-01
  3.3669141e-01
  6.9358498e-02
  2.0511134e-01
 -7.2648126e-01
  4.1704028e-05
  6.5894586e-05
 -6.8759019e-03
 -1.2743621e-01
 -9.3894553e-01
  2.9619248e+00
  8.9494526e-02
  2.2290757e-01
  6.0415518e-01
 -1.8459384e-01
  2.3060398e-01
  4.7023472e-04
  7.0626944e-02
  1.5185174e-01
 -2.8745372e-02
  5.1632253e-03
 -7.5660890e-01
 -5.7408440e-01
  5.0949585e-01
  8.6174108e-02
  2.8326695e+00
 -2.3918365e-01
 -2.4814239e-02
  1.1527452e-01
  1.9983061e-01
 -1.5838062e-03
  1.4821232e-02
  8.0167584e-02
  4.2893600e-02
  8.1422579e-01
  4.1007735e-02
  1.5589108e-01
  2.0246121e-01
 -8.6206965e-02
  8.8362165e-02
  9.8249041e-02
 -3.6322279e+00
 -5.1908664e-02
  2.4255645e-01
 -1.3840598e-01
 -6.1647752e-03
 -6.2977210e-02
 -2.4004476e+00
 -1.9963384e-02
 -8.8611394e-02
  1.4967811e-01
  4.1976413e-03
  1.0191904e+00
 -1.3470644e-01
 -5.6017730e-02
 -4.3499866e-03
  7.0454464e-03
  1.2604161e-01
 -1.0718703e-01
  3.2087743e-01
 -5.5476749e-01
 -8.6554205e-01
  1.6911591e+00
  2.2532053e+00
 -7.4319279e-01
 -7.7987057e-01
  4.9565876e-01
 -7.7014887e-01
 -1.2755820e+00
 -4.0093231e-01
  3.4178383e+00
  3.6896191e+00
  1.8943548e+00
 -3.9248545e+00
  5.7778845e+00
 -3.5574862e-01
  1.2122873e+00
  1.5849251e+00
  3.5391462e+00
  1.1905034e+00
  5.8804429e-01
  4.3673748e-01
 -3.0166605e+00
  2.4952164e+00
  5.1282978e-01
  5.0886798e-01
  3.2639043e+00
  6.6809314e-01
 -1.1844156e+00
 -4.7345626e-01
 -3.5407427e-01
 -2.3845589e+00
 -9.7870970e-01
 -1.2473041e+00
  2.2867064e+00
  6.9044286e-01
  2.0743203e+00
 -2.1892431e+00
  2.1982031e+00
  2.4163749e+00
 -4.1619164e-01
 -1.5194749e+00
 -3.1472020e+00
 -2.6529998e-01
  2.0340555e+00
  1.7837064e+00
 -5.6599884e+00
 -1.3096255e+00
  9.4891238e-01
 -1.4149096e+00
  1.2101026e+00
  1.7456926e-01
 -2.9329391e+00
  9.7324210e-01
 -1.8072157e+00
  4.4121096e-01
 -1.0923811e+00
 -6.6593403e-01
  7.3587579e-01
  6.9613403e-01
 -2.0814872e+00
  3.6999777e-01
  1.1648804e+00
 -3.1374388e+00
 -1.1759388e-01
  2.0104406e+00
 -2.1795483e-01
 -7.3328793e-01
 -3.3734021e-01
  1.6407025e+00
  1.8112409e-01
 -5.8188140e-01
 -3.3427696e+00
  4.6729822e+00
  8.3782607e-01
 -6.4024723e-01
  1.8770964e-01
  1.3118755e+00
 -5.2597508e+00
 -1.4040174e+00
 -3.8671484e+00
  1.4817698e+00
 -1.2313635e+00
  1.2047403e-01
 -1.1615218e+00
  1.0172974e+00
  3.5562015e+00
  1.2452382e+00
  2.2976837e+00
  3.5369307e-01
 -8.9383021e-02
 -8.0844289e-01
  5.0407004e+00
  2.5618922e-02
  1.6047702e+00
 -1.7030746e-01
  3.1431456e+00
  1.5514596e+00
  1.7643273e+00
  1.7524281e-01
  1.2051252e+00
 -2.6640851e+00
 -2.6988575e+00
  5.4930091e-01
 -5.3014314e-01
  1.1114477e+00
 -2.3867388e+00
  2.2414184e+00
  8.4356421e-01
 -1.8525265e+00
  5.2325815e-01
 -2.7660439e+00
  9.8650932e-01
  7.2896304e+00
  4.0284128e+00
  2.9095633e+00
  5.8135736e-01
 -3.7663949e+00
  1.5552723e+00
 -1.0324850e-01
 -3.7197046e-02
  9.6025312e-01
  2.1958418e-01
  2.0773196e+00
  3.5243297e+00
 -2.0828943e+00
  9.6128517e-01
  1.1498815e+00
  5.0958643e+00
  3.1345463e-01
  5.7506913e-01
  7.1246552e-01
 -4.9202930e-02
  3.6329086e+00
 -2.0944521e+00
  5.0732908e+00
  3.9146575e-01
 -2.2032017e-01
 -8.9176595e-02
 -4.4961020e-01
  2.0507216e+00
  1.6041423e+00
 -1.1067269e+00
  3.2546346e+00
  2.2053948e-01
 -2.9173961e-01
  2.2166109e-01
 -1.5945674e+00
  6.2702727e-01
 -1.1987401e+00
 -1.8258045e+00
  2.3903100e+00
 -1.2109568e+00
 -7.0724010e-01
  1.0545313e+00
  4.9714366e-01
 -3.5755002e+00
  4.1600779e-01
 -3.3386672e-01
 -2.6595392e+00
 -2.1630050e-01
 -1.8351607e-04
  1.8278854e+00
  2.7802002e-02
  2.5441103e+00
 -3.4721365e+00
 -8.2392204e-01
 -1.8041562e+00
 -4.2949600e+00
 -5.3730303e-01
 -2.4907506e+00
  5.4397243e-01
  2.2005349e-04
  1.5981379e+00
  2.1987560e+00
 -1.1141841e-01
 -1.6149207e+00
  3.2863915e+00
  1.3115203e-01
  1.1774142e+00
 -1.0320599e+00
  3.5397363e+00
 -5.5056057e+00
 -1.3064872e+00
 -4.3062820e+00
 -5.9821639e+00
 -4.9427292e-01
 -1.5401829e+00
  1.8144075e+00
 -1.6231353e+00
  9.5175159e-01
 -5.2844244e-01
  2.3713458e+00
 -8.8216007e-02
 -4.5812135e+00
 -1.2354083e-01
 -3.2519712e+00
 -3.0742722e+00
  1.2732558e+00
  3.7843153e+00
  1.6478202e-01
  1.2818319e-02
 -3.2904631e-01
  3.0835106e+00
 -1.6704555e+00
  1.0785137e+00
 -9.4774300e-01
  1.2899396e+00
  4.8696814e+00
  1.2557495e+00
  1.8834101e+00
  1.0182420e+00
 -4.0328309e-02
 -7.6955743e+00
 -1.4883598e+00
  2.7083662e-01
  3.3558302e+00
  2.2456632e+00
 -2.3915479e-01
 -2.4758904e+00
  9.3879776e+00
  3.1851740e+00
  3.1753213e+00
 -4.5122275e+00
  4.0348813e-01
 -7.6005203e-01
  3.1089568e-01
 -6.5148407e-01
 -6.1176521e-01
  3.5495198e+00
  9.2604572e-01
 -1.1568313e-02
  2.3291719e+00
  9.7569875e-02
  5.0753541e+00
  1.4722574e+00
  2.1248314e+00
 -1.1380006e+00
 -8.4025466e-01
 -1.0953392e+00
 -2.1288764e-01
 -5.3772454e+00
  1.4675851e+00
 -8.2543707e-01
 -9.8642212e-01
  3.0355222e+00
  9.7667143e-02
  7.9089218e-01
 -1.2834336e+00
 -1.5031154e+00
 -1.4061184e+00
  1.6300023e+00
  3.2085948e+00
  9.5866406e-01
  2.3184524e+00
  1.1658167e+00
  1.4635776e-01
  1.4462274e+00
  1.7587950e+00
 -6.4471209e-01
  1.2602262e+00
 -1.0051074e+00
  5.2351329e-02
 -1.7392470e+00
  1.0692602e+00
 -2.3525187e-01
 -7.4286765e-04
  2.7283391e-01
  4.0716511e-01
  2.6458299e-01
 -3.2398283e-01
  9.2025715e-01
 -6.0188627e-01
 -2.6016986e+00
  1.2194444e+00
 -1.2841544e+00
  1.7672211e+00
 -1.1728681e+00
  1.3344559e-01
  3.8572058e-02
  5.0584313e-02
 -2.1873422e+00
 -2.5536634e-03
  3.6285722e-01
  2.6355460e+00
  9.3365771e-01
 -1.6684773e+00
 -6.0692644e+00
  7.4657393e-01
  2.4058626e+00
 -4.2849308e-01
 -1.4358579e+00
  1.3926946e+00
  2.1610363e+00
 -1.8129480e-01
 -1.1228353e+00
 -9.3380201e-01
 -1.7886438e+00
 -1.8364661e+00
 -7.2763795e-01
  1.5566370e-02
 -3.1438444e+00
 -2.0905786e+00
 -6.7297709e-01
 -9.1352105e-02
 -2.1580696e+00
  4.1766578e-01
 -1.7955118e+00
  4.6848109e-01
 -4.1963654e+00
 -1.1109791e+00
 -5.2541244e-01
 -5.9240782e-01
  5.4357189e-01
  1.1146827e+00
  7.0409870e+00
 -5.1422768e+00
  4.9572712e-01
 -3.2843557e-01
 -4.7303456e-01
 -1.5574003e+00
 -2.5607387e-02
  1.4434212e+00
 -2.9655693e+00
  8.9108568e-01
  2.4734569e+00
 -2.1560414e+00
  3.6990721e+00
  2.2294447e+00
 -1.8289356e+00
 -3.6538017e-01
 -2.1616437e+00
 -2.3571727e-01
 -6.9904345e-01
  1.1917555e-01
 -3.4473352e+00
 -2.4025075e-01
 -9.4676787e-01
  2.8217885e+00
 -2.9736862e+00
  1.5884833e-01
 -1.6968237e+00
  1.1607018e+00
 -3.9197288e+00
  1.8515892e-01
 -6.4827571e+00
  9.9227583e-01
 -2.8825498e+00
  6.8117255e-01
  2.5381236e+00
  3.0905802e+00
  7.5471463e+00
 -1.1251187e+00
  5.6307781e-01
  4.2492962e+00
  2.4755878e+00
 -3.7458651e+00
 -1.1443764e+00
  2.4263699e+00
  1.0427305e+00
  5.0202131e-01
 -2.0488882e+00
  3.0071387e+00
 -8.7993038e-01
  2.8329113e+00
  8.6127020e-02
  2.2170320e+00
 -4.4593458e+00
  3.4687918e-04
  6.4514210e-03
  4.7722078e-04
 -4.9335200e-01
  2.2005610e+00
 -5.2368248e-01
 -4.7674153e-02
 -8.3076668e-01
 -1.0692055e+00
  1.1390171e+00
  3.0210505e+00
  1.6111545e-01
  1.1721493e-03
 -3.9010687e+00
 -7.1735883e-01
  2.7741149e-01
 -1.3264891e+00
 -4.7963718e-01
 -1.9886940e+00
 -4.0676575e+00
  1.3314952e+00
  2.8204129e+00
  6.1355290e+00
  7.6850581e-01
  3.8787794e+00
  6.5438962e-01
 -1.5262009e+00
  8.9159924e-01
  2.3781114e+00
  7.2328441e-02
  9.0086812e-01
  6.0967100e-01
 -2.3420228e-01
 -2.7182124e+00
  1.5359250e+00
 -1.5040401e+00
  1.1563742e+00
 -1.3847860e+00
 -1.4662130e+00
 -4.0686151e-01
  2.4315491e-04
 -2.4087001e-01
 -3.5031958e+00
 -5.0409412e-01
 -1.4086399e+00
 -8.4919953e-01
  9.5539533e-02
 -1.2696967e+00
  1.4501286e+00
  1.5549867e-01
 -2.0108753e-01
  1.1559820e+00
 -1.3632311e-01
  8.0817074e-02
 -1.6616623e+00
 -2.0164615e-01
  8.8922036e-01
  4.0973061e-01
 -2.8727310e+00
  8.5594708e-01
  1.1893870e+00
  2.7411790e+00
 -1.5836229e+00
 -2.3562403e+00
  7.8189414e-04
  4.2933168e+00
  1.4930686e+00
  1.3496304e+00
 -4.3636932e+00
  8.5214174e-01
 -2.4049654e+00
 -5.9763247e-01
  6.3708687e+00
  5.0453749e+00
  1.1855493e+00
  1.8352901e+00
 -6.4558291e-01
 -1.6471769e+00
  6.0367328e-01
  3.6756447e-01
  2.6993446e+00
 -1.3870598e-01
  8.9851910e-01
  2.2758732e+00
 -1.0029554e+00
  1.2720453e+00
  5.6744494e+00
 -9.6469587e-01
 -1.2983143e-01
 -1.7426367e+00
  2.5422456e+00
  2.1933822e-02
 -2.9479029e+00
 -7.8398007e-01
 -1.1247493e-01
  2.9735072e+00
 -1.9886163e+00
 -4.0098262e+00
  1.8145025e+00
  2.6536765e+00
  8.9197868e-01
 -1.8302211e-01
  6.3555020e-01
 -6.9519991e-01
  2.6046839e+00
 -1.0977857e+00
  1.9631857e+00
 -1.0640083e-03
 -1.1182220e+00
 -7.1906452e+00
 -6.8270440e+00
  2.1603970e-01
 -4.4739981e+00
  1.1028208e+00
  1.2425805e+00
  1.5350702e+00
 -7.9093297e-04
 -1.9253871e+00
  3.4543486e+00
  2.7683493e-01
  2.2259493e+00
  1.0607690e+00
  2.4252508e+00
 -5.1195884e-01
  2.5257394e+00
  1.2266152e+00
  5.2034494e-02
 -2.4412825e+00
  1.8638889e+00
 -2.5851816e-02
 -5.1704186e-01
  5.6905103e-01
  2.3758945e+00
 -1.1012074e+00
  1.6314794e+00
  4.8279753e-01
  1.8665128e+00
  2.7038688e-02
 -2.7102947e+00
 -1.4110006e+00
  1.9242235e+00
  3.3695078e-01
  5.0056785e-01
 -1.2820704e-01
 -1.8651371e-01
  1.0663024e+00
 -1.3575562e+00
  9.6903378e-01
  4.9715212e-01
  3.1161748e-02
 -1.2698886e+00
  1.2668093e+00
  1.1588721e+00
  1.6190042e+00
  2.2826383e-01
 -3.5416222e+00
  3.8603010e+00
 -3.4969010e+00
 -3.5504417e+00
 -1.3210162e+00
 -3.8565035e+00
 -7.7697170e-01
  5.7506571e+00
  1.7949549e+00
 -2.2252007e+00
 -4.1853201e-01
  2.5464313e+00
  3.8829272e+00
 -1.3388443e+00
 -1.3818290e+00
 -2.5234616e+00
  1.1543246e-01
  2.4138942e+00
 -3.0614364e+00
  7.8713618e-02
  6.4950597e-01
  2.0212932e+00
 -4.4875832e+00
  1.2537380e+00
  1.9022670e-01
 -1.0220031e+00
  1.9542109e+00
  1.6931971e+00
  1.2870481e+00
 -3.1669357e-01
  1.8657768e+00
 -3.3282363e+00
 -7.9361701e-01
  1.3118231e+00
 -1.3682748e-01
  4.0408596e-01
 -2.3662226e+00
  4.8954585e-01
 -1.7016648e+00
 -1.6208780e-01
 -3.6696783e-01
 -2.1402469e+00
 -1.7796751e+00
 -4.9555570e-01
  4.5615617e-02
 -1.1299443e+00
  3.5966671e-01
 -1.1586502e+00
  5.2771461e-01
  5.5876408e-02
  5.6842172e-01
 -1.7839694e+00
  1.9088124e+00
 -3.2261983e-01
  1.7062689e+00
  7.4715245e-01
  4.7634318e-01
 -2.1652756e+00
  6.4451927e-01
  3.7504780e+00
  2.6131108e+00
 -1.5911894e+00
  3.9438343e-01
  2.2942672e+00
 -1.8020111e+00
  1.6015602e+00
 -1.0077080e+00
 -9.8424923e-01
  2.4973933e-01
  1.9939671e+00
  1.0497848e-01
 -3.9166813e+00
  1.4971280e+00
  1.7835033e+00
 -1.0910442e+00
  4.3884236e-01
  4.0895867e+00
  3.7993450e+00
  2.2195494e+00
 -6.6296570e-02
  1.8587075e-01
  3.2039300e-01
  2.0411499e+00
  5.7425461e+00
 -5.3968513e-01
  3.5538440e+00
  7.4620402e-01
  2.5098863e+00
 -1.5061882e-01
  3.3124361e+00
 -1.9169578e-01
 -4.4870963e+00
 -2.3207121e+00
 -1.5588109e+00
 -2.2735312e+00
 -2.4982724e+00
 -2.9943774e+00
 -5.1416028e-01
 -3.6146867e-01
 -1.5221382e+00
 -2.1901400e+00
 -8.2635307e-01
  2.9871565e-01
  3.5438460e-01
 -1.0808046e-01
 -2.2888296e+00
 -1.4955178e+00
 -3.9285724e+00
 -5.6349449e+00
  8.2841080e-01
 -9.6640360e-01
 -8.1857240e-01
 -4.0701885e+00
  4.8299482e-01
  5.2223742e-01
  3.3342540e+00
  4.7656360e+00
  3.0893023e+00
  1.5690448e+00
  2.2736003e+00
  4.6361690e+00
