nep4 3 B C N 
cutoff 8 4 414 46
n_max 8 8
basis_size 8 8
l_max 4 2 0
ANN 80 0
  3.2504335e-02
 -9.9331564e-01
 -5.5752867e-01
 -2.5409931e-02
  3.4170799e+00
 -1.4278846e+00
  8.9173633e-01
 -3.3778689e+00
  1.1994174e+00
  4.3108769e-02
 -7.1922995e-02
 -7.5526416e-01
  3.1388056e-01
  4.2952247e-02
 -3.9457759e-01
 -1.1860403e+00
  1.1848027e-01
  1.7800865e-01
 -2.4936306e-01
  6.1849886e-01
  1.4231642e-01
  9.6506894e-01
  1.6110763e-02
 -4.1505107e-01
 -1.3050463e-02
  2.0946968e+00
  7.8781450e-01
  9.0358064e-02
 -8.5896522e-01
  6.7813016e-02
 -9.4901460e-01
 -1.0331053e+00
 -7.2977370e-01
 -1.7155287e+00
  9.6889335e-01
 -1.3355248e+00
  4.4426471e-01
  9.6968105e-03
  6.2348294e-01
 -1.1123372e+00
  1.3535346e-01
 -2.5704843e-01
  4.3731127e-02
  9.6768934e-01
  2.1819362e-01
 -7.5481921e-02
 -6.6733807e-02
 -1.3441570e+00
 -1.8680681e-01
  1.9794261e-01
  2.5591135e-02
  4.0355220e-02
  5.5704546e-01
  8.9369990e-02
  1.3855699e+00
  1.5327799e-01
 -4.3542935e-03
  9.9696733e-02
 -9.7819023e-02
 -7.9337403e-02
 -1.9547774e-01
 -4.6317181e-01
 -7.3820832e-03
 -7.5426903e-03
  1.8320711e-01
  7.8783967e-02
  6.8686582e-02
  5.6340534e-02
 -4.8925525e-01
 -6.1466259e-01
  3.7044176e-01
 -1.2435368e-01
 -4.9378332e-02
  1.1102548e-02
 -2.2219673e-01
  4.3720379e-02
  1.6347554e-02
 -6.1037432e-02
 -5.1471524e-02
 -3.8245690e-01
  1.6272010e-01
 -1.1652482e-01
  2.1633622e-01
  9.8758388e-01
  1.2121733e-01
  6.4917512e-02
 -1.2650797e-01
  1.0626923e-01
 -7.4831076e-02
  2.1578643e-01
  7.0913732e-03
  4.3479197e-02
 -1.1223583e-01
 -1.2126261e-02
  3.3506083e-01
 -1.1552836e+00
 -6.5610453e-02
 -1.4946900e-01
 -1.9655069e+00
 -1.0935918e-01
 -9.7827930e-03
 -2.8435152e+00
 -1.5135981e-01
  1.6745101e+00
  2.8698139e-02
 -6.4558819e-02
 -8.2052082e-02
 -6.3471645e-03
  4.2878258e-01
 -1.0173973e+00
 -9.1219115e-01
 -8.2347319e-02
  1.2045467e-01
 -8.1871182e-02
 -1.5183941e-01
 -1.2316772e-01
 -2.7977803e+00
 -1.0228196e-02
 -2.2052050e-02
  1.7562884e-01
  1.8818603e+00
  8.0738880e-02
  1.0670823e-01
 -1.5961317e-03
 -8.6100744e-03
  3.3960977e-01
  4.9620762e-02
 -2.1231384e-04
 -2.4841742e-01
  7.6627452e-03
 -2.7795807e-01
  1.0343722e-01
  1.2741774e-01
 -2.8549755e+00
  2.1943665e-01
  1.1654312e-02
 -9.9873118e-02
 -2.7939007e-02
 -1.9293624e-01
  2.8351721e-01
  9.0717398e-02
  1.2593988e-01
  8.7103343e-01
 -1.5641376e-04
  1.3009131e-01
 -2.2963192e-01
  9.6686172e-01
  3.0841348e-01
 -1.6707332e-01
  1.4816895e-03
  1.7327768e-01
 -1.3811944e-01
 -1.7376898e-01
 -9.2329197e-03
  1.1856427e-01
  4.5175564e-02
 -1.2169147e-01
  1.0338856e-01
  1.4659472e-01
 -5.3656843e-02
 -3.2942731e-02
 -1.7221537e-01
 -3.9108841e+00
  6.7618698e-02
  1.0677532e-02
  1.2379158e-01
  2.0989025e-01
 -9.4583952e-01
  8.8870633e-01
  2.4246807e+00
 -9.1609424e-01
 -3.6276957e-01
  1.0390604e+00
  8.5447139e-01
 -1.2423492e-03
  5.0497144e-03
 -1.2762240e-01
 -1.3844037e-01
 -4.9494565e-02
  3.3640859e-01
  4.9827110e-02
 -8.0415589e-01
 -2.0195887e+00
 -3.0383199e-01
  6.7286849e-02
  3.8822353e-02
 -8.5258561e-01
 -1.1753045e-01
  3.5601166e-01
  6.1256164e-01
  3.3105358e-01
 -2.4367531e-01
 -4.8773754e-01
  8.9892846e-01
 -6.5993953e-01
 -7.3723197e-02
 -9.2497194e-01
 -1.8834685e+00
 -4.3025512e-02
 -8.4843278e-02
  5.8548748e-01
  1.5158357e-01
 -7.4725980e-01
 -9.0654626e-02
 -5.4496133e-01
 -9.7470343e-02
 -1.1065855e+00
  1.7416180e+00
 -8.9100897e-01
 -2.8247185e-02
  5.8142964e-02
  1.0711253e-01
  1.2189376e-02
 -4.1911002e-02
  4.6329707e-02
 -1.0333654e+00
  3.6924046e-01
 -6.0844374e-01
  2.4251702e-01
  3.6388388e-01
  5.9725322e-02
 -1.4704251e-01
  1.3344098e+00
 -2.4764664e-01
 -1.9052546e-02
 -1.4863399e-02
 -1.0414474e+00
  1.7755313e+00
  4.1605344e-01
  1.7895832e+00
  7.2568683e-03
  5.7836747e-01
  2.8711058e-02
  5.9502214e-01
 -1.3356708e+00
  1.1452296e-01
  3.2615483e-02
 -2.2777867e+00
 -7.4385852e-02
  2.0045884e-01
  1.4474820e-01
  2.5241164e-02
 -4.3143541e-02
 -1.1418272e-03
  1.0143715e-01
 -4.7200069e-02
 -5.7871580e-02
  2.9656959e-01
  1.7885011e+00
 -5.0033401e-03
  5.2677892e-02
 -2.9566073e+00
 -1.9212924e-01
 -2.1616450e-02
  7.0036882e-01
 -3.1457409e-01
 -1.8257457e-01
  4.0338475e-01
  2.2288732e-01
 -1.5814672e-01
  1.9756545e-01
 -6.7526087e-02
 -8.1600808e-02
 -1.2515309e-02
  8.7607771e-02
 -4.2876309e-01
  4.8942432e-02
  2.0710018e-01
  2.2629241e-02
  1.4794181e-01
 -7.6742524e-01
  7.3169452e-01
 -1.2339693e-01
 -5.9958290e-02
  1.2473778e-01
 -2.7575132e-02
 -7.3238653e-01
  5.6410104e-01
 -2.2769672e-01
  3.8327888e-02
 -2.2231954e-01
  2.8445799e-02
 -5.5102244e-02
  1.2580611e+00
  4.3656281e-01
  9.3903267e-01
 -7.4576193e-01
 -8.3939373e-02
 -8.8529028e-02
  1.1857248e-01
  1.1281404e+00
 -4.4016298e-02
  1.5440165e-01
 -9.4403937e-02
 -8.0202483e-02
 -9.0925448e-02
  7.7090040e-03
  1.0669473e-02
 -5.5883691e-02
  8.3179362e-02
  2.2397397e-01
  1.2437575e-02
 -2.5453138e-01
 -1.0968289e-01
 -1.6636475e+00
 -3.1601865e-02
 -1.1424165e-01
 -2.2660725e-01
 -4.4181177e-01
  1.4976641e+00
 -4.2957667e-01
  3.6443539e-02
 -4.3609464e-03
 -1.2464633e-01
 -3.5476276e-01
  1.8859029e-01
  2.0206772e-01
  5.8473200e-02
  7.7799015e-02
 -4.5958165e-02
 -6.8567209e-02
  3.2773316e-02
  2.9969469e-01
  3.4306958e-02
 -1.5636601e+00
 -1.3075958e+00
  2.4781737e-01
 -3.0797255e-01
 -2.2674149e-01
  4.2206299e-02
 -1.8071344e-01
 -1.2696227e+00
 -3.0486369e+00
 -7.0314325e-02
  4.5247659e-02
  4.7928795e-01
  1.6062924e-01
 -1.9083332e-01
 -4.8728395e-01
 -1.2963535e+00
  4.8588580e-01
 -2.2754023e+00
 -7.9502709e-02
  5.3054318e-03
  8.5110420e-01
 -1.2369915e+00
 -1.0163987e-01
 -5.5989314e-02
 -3.0894393e-01
 -6.9942385e-01
  5.3767782e-02
 -3.5149332e-02
  4.5177111e-01
 -1.7900865e+00
  3.9821106e-01
  6.1885220e-01
 -6.1558086e-02
 -4.7806636e-03
 -4.0109244e-01
  2.6804200e-01
  8.4490746e-02
 -1.7606410e+00
 -2.7270725e+00
  1.9300684e-02
 -2.3758487e-01
 -5.7694938e-02
 -8.3244753e-01
 -1.2632841e+00
  1.4569321e-01
 -9.4076186e-01
 -1.3819972e-02
  7.9108375e-01
 -2.5660688e-01
 -1.4212054e-01
 -1.1278822e-01
  8.9864627e-02
  4.7737209e-04
 -1.9672866e-01
 -9.3744397e-03
  5.7566617e-02
  2.2958280e-01
 -5.6965142e-01
 -1.5338567e-01
  4.5936573e-02
 -4.0372733e-02
  6.5775082e-02
 -8.9199662e-02
  7.1483493e-02
  5.7046458e-02
 -2.0566842e-01
 -1.0057586e-01
 -1.3300593e+00
  3.1883410e-01
  2.3906109e+00
  1.4710282e-01
 -1.3861945e-01
  1.8506007e-02
  2.3988622e-01
  1.6461977e-01
 -2.8044039e-02
  2.2499941e-01
  2.2401471e-02
 -3.0790123e-01
 -2.0805936e-02
  5.0880652e-02
 -2.5281551e-01
 -3.8301472e-02
  6.9797868e-01
 -2.3449577e-02
  1.0473836e-02
 -1.0927048e-02
  1.4650481e+00
 -2.8641803e+00
  4.7999740e-02
  9.4136715e-02
 -4.4039007e-02
 -8.3476238e-02
  3.0642457e-02
 -1.7131680e+00
  7.7257246e-02
 -2.4488734e-01
 -1.6164657e-01
  5.9365751e-03
  1.5233879e-01
 -2.0477036e-01
 -1.8154962e-01
 -2.0160955e-01
  6.3212007e-01
 -3.5873182e-02
  8.9930385e-02
  1.7551450e-01
  6.3156433e-02
  1.3184032e+00
  5.3257491e-02
  2.4875160e-01
 -1.6958798e-01
  2.6590519e-03
 -6.7432868e-01
  6.9514909e+00
  1.7128110e+00
 -3.7189090e+00
 -6.7213990e-02
  5.1014062e-02
 -2.8717640e-01
 -1.8076870e-01
 -6.6168988e-03
  3.6513269e-01
  9.3792463e-03
 -8.2775730e-01
  7.9501557e-01
  4.0959424e-01
 -2.4960166e-01
  1.0688946e+00
  1.0387415e-01
 -1.8467061e-01
 -8.7650016e-02
 -1.3505635e-01
 -1.5953900e+00
 -3.9941996e-02
 -1.3242739e+00
  8.7215757e-01
  3.2014194e-01
 -1.1387514e+00
  1.2142369e-01
 -3.1757741e+00
 -2.5588667e-02
  6.8394430e-03
  1.5083561e+00
 -1.2165159e-02
 -6.1001968e-01
  1.0576190e+00
 -1.6629112e-01
  2.9572550e-02
 -1.3862287e-01
  1.7083134e-01
 -2.6571661e-01
 -6.3286382e-01
 -7.3653854e-02
 -4.3878872e-02
  3.5126820e-02
 -3.6469749e-01
 -6.2587820e-02
  4.5091256e-02
  1.4932086e-01
 -2.3139682e-02
  5.1321036e-01
  1.2285259e-01
 -7.8221157e-02
 -1.2774445e-01
  2.0158581e-01
 -1.3688999e-01
 -6.5224670e-02
  1.0296680e-01
  5.5697649e-03
 -1.6442813e-01
 -5.2363807e-03
 -2.2369593e-02
 -9.3730114e-02
  2.2757372e-01
  5.6059830e-02
 -3.1178396e-02
  2.6951537e-02
  2.0749679e-01
  2.3083609e-02
 -1.4041681e-02
  2.2891708e-01
 -5.1689174e-02
  7.9619147e-02
  5.4423320e-01
 -1.7551249e-02
 -1.5654449e-01
  1.8184622e-01
 -1.3763776e-01
  1.5673466e+00
  5.3954568e-02
 -9.8697059e-03
 -1.4564054e-01
  8.1647731e-02
  1.2530452e-01
 -4.3357499e-03
  1.9771071e-01
  2.4448237e-01
 -2.0635965e-01
  2.6259729e-01
 -1.6649897e+00
  8.2448024e-01
 -1.3094259e-02
  2.4216499e-02
 -1.0914347e-01
  4.6249051e-02
 -1.0542401e-01
  5.7922695e-02
  4.0769950e-01
  1.3054079e+00
  9.9166110e-03
  8.2443543e-03
 -1.1125226e+00
  9.6276611e-02
  6.2023535e-02
  1.0191444e-01
  1.0256327e+00
 -1.5894332e+00
  1.5153747e+00
  2.9618618e-01
  9.5762029e-02
  4.6242334e-02
  3.1732397e+00
  4.4101700e-01
  3.5572886e-01
  3.4527457e-01
 -8.4791750e-01
 -5.8860916e-01
 -2.7932468e-01
 -2.0458972e-02
  8.8511032e-01
  4.3941426e-01
 -1.4591192e-01
 -7.4277472e-01
  8.0265477e-02
  7.1287386e-02
 -4.0180427e-01
  5.8774194e-03
 -1.1286289e-01
 -7.7716321e-02
  1.8683633e+00
  1.6770533e-01
  2.2019118e-01
 -1.1533489e-01
  9.6463054e-01
 -9.8900682e-01
  1.1184624e+00
 -2.3559408e+00
 -2.6990306e-02
  5.0781286e-01
 -1.1405274e-01
  1.1230574e-01
  1.5594351e+00
 -1.4736189e+00
 -7.6353148e-02
  3.2888719e-01
 -1.4627674e-01
 -2.2360464e-03
 -2.1418346e-02
 -1.6473240e-01
  6.1038252e-02
 -2.3137111e-02
 -2.9168276e-02
  1.9244790e+00
  4.1482279e-01
 -3.2673150e-02
  3.8569823e-02
  2.0910662e-01
  1.8327248e-01
  1.0990434e-01
  1.3215253e+00
  6.2438029e-01
  4.2394608e-01
 -1.0223700e+00
 -1.5125253e+00
 -3.1390824e+00
 -1.3617017e+00
  2.2788370e+00
 -1.6290287e+00
 -1.1733607e+00
 -1.0664905e+00
 -8.4807771e-01
 -1.1812185e+00
  3.7841043e-03
  1.9888456e+00
 -2.2552762e+00
 -3.3376005e-02
  1.7097325e+00
 -2.0106626e+00
 -1.3350050e+00
  2.1990886e+00
  1.1663183e-01
  1.9927637e-03
  9.3974859e-02
  1.0034528e+00
 -3.6025143e-01
 -4.7092944e-01
  9.4490772e-01
  2.4481343e-02
  7.5221950e-01
 -3.5613734e-01
  8.8380271e-01
 -4.3791923e-01
  1.1476961e+00
 -5.9823472e-02
 -1.3179363e+00
 -2.5863463e-01
 -1.5666772e+00
 -4.9410075e-02
  4.1149158e-02
  2.5746489e-01
 -1.2932415e-01
 -1.6495292e-01
  6.4153731e-01
 -2.0572410e+00
 -4.8657876e-02
  2.8270352e-01
  9.9149579e-01
  3.6004847e-01
  3.9793711e+00
  1.3950769e+00
  6.3268131e-01
  1.6131417e-01
  9.7984022e-01
 -3.7429768e-01
  5.2169669e-02
  1.3499312e-02
 -3.7553124e-02
  4.4385288e-02
 -2.0408268e-01
  1.0875347e-01
 -7.0739791e-02
  2.5057552e-02
  2.2173440e-02
  1.4441080e-01
 -1.3194649e-01
  1.5658773e-01
  3.4782305e-02
 -2.5402808e-01
  2.3987168e-03
  8.9495694e-03
 -6.4312622e-02
  1.0324287e+00
  7.8890815e-02
 -3.3137012e-02
 -2.1765752e-01
 -4.7016338e-02
  4.0952496e-02
  3.3482209e-02
  7.3117221e-04
  2.6494656e-02
 -7.1335927e-02
 -7.8030196e-03
 -7.5367510e-01
 -7.0297793e-02
  3.6205843e-01
 -1.0184929e-02
  7.1990907e-02
 -1.3529129e-01
 -2.1629829e+00
 -1.6571667e-02
  1.1750529e-01
 -2.8221500e-01
  4.0522553e-02
 -1.8099133e-02
 -4.0688142e-02
 -2.1568172e-01
  7.3748276e-02
 -2.8349150e-02
 -6.4756766e-02
 -1.2437940e-01
 -4.7818523e-02
  2.6015874e-02
 -7.8821853e-03
  1.4811403e-01
  2.0868346e-02
  6.8127379e-02
 -9.1104336e-02
  8.3295897e-02
  7.7430218e-01
  1.4417460e+00
 -1.5247098e-01
 -3.6422834e-01
 -1.5870917e-01
 -6.7789547e-02
  1.4995506e+00
 -6.7016494e-01
 -1.4906862e-01
 -8.0667533e-02
 -1.0598198e-02
 -3.3583230e-01
  7.2995305e-02
 -4.9696192e-03
  1.1934067e+00
  9.3621266e-01
  4.9042553e-01
  2.2144185e-02
 -1.6906969e-01
 -1.7249852e-01
 -5.8630831e-03
 -5.3298658e-01
 -8.9164882e-05
  4.2829993e-01
 -9.2430778e-02
 -2.0128693e-01
  2.4000952e-02
  1.4634337e+00
 -7.0182520e-01
 -5.6623474e-02
  4.6134740e-03
  3.9754680e-01
  8.6873001e-01
 -1.2315195e-02
  3.5781961e-02
  1.6125074e-01
  2.2034587e-01
  9.8728009e-02
 -1.5977785e-01
  4.3940311e-03
  2.6070553e-01
  7.9383373e-02
 -8.4564965e-03
  6.4847934e-01
 -1.7039520e-01
 -1.3771507e-02
 -7.4163064e-02
 -8.0407776e-02
  5.2711293e-02
  7.5011149e-02
 -1.4781148e-02
  5.2555710e-02
  7.0088305e-02
 -2.9519546e-01
  1.4203745e+00
 -1.1221631e-02
 -2.6481180e+00
 -5.9803504e-01
  1.9601567e-01
  2.8165561e-01
  3.2436678e+00
 -9.3079031e-01
  4.7395542e-02
 -3.0965911e-02
 -5.0997239e-01
 -2.3224314e-01
 -7.5034507e-02
  1.3198524e+00
  9.7288305e-01
 -5.9546590e-02
 -3.1780428e-01
 -1.9295253e-01
  5.2314065e-03
 -4.1320765e-01
 -5.3963032e-02
  1.4020121e-01
  6.3744769e-02
  4.1599452e-02
 -7.8310305e-01
  3.1717524e-01
 -1.0259397e+00
  3.5412807e+00
  4.4089347e-01
  3.3022225e+00
 -2.3311788e-02
 -3.7236017e-01
  5.5231315e-01
 -7.2397578e-01
 -2.2690820e-02
  3.6378706e+00
  4.1204546e-02
  1.2449365e+00
  2.4190767e-01
  1.6016372e-02
 -8.5360773e-02
  1.2693226e+00
  1.8585331e+00
 -5.4393940e-02
 -4.3056676e-01
  1.7091513e-02
  5.9492987e-01
  1.9547294e-01
 -1.6146970e-01
 -6.3207608e-01
  3.1050555e-03
 -2.0899262e+00
  1.1706170e-01
  3.1126335e-02
  3.3119347e+00
  1.3041689e-01
 -2.7693665e-01
  8.1729615e-01
 -1.2185137e-01
  6.6341424e-01
  1.1326943e-01
 -6.5183930e-02
 -6.9034398e-01
  8.2802302e-01
  4.5159236e-03
 -9.7840957e-02
 -2.3907742e-01
  5.8641333e-02
  3.5899922e-01
  3.5453714e-02
 -2.5781029e-01
 -2.1300269e-02
 -1.9562522e-02
  2.5321836e+00
  7.9678036e-02
  8.4306933e-02
 -4.4315033e-02
 -4.0727201e-01
 -4.3253545e-02
  1.5408052e-02
 -8.2476884e-02
  8.3252949e-01
  6.3224119e-01
  1.0480972e-01
 -7.3330335e-02
 -9.6038446e-02
  7.8740239e-02
 -7.3859550e-02
 -2.2069037e-02
 -1.3963656e-01
 -1.0095867e-01
  1.0092239e+00
  3.7629631e-01
  6.5663137e-02
 -1.4618014e-01
 -5.9757587e-02
  2.8567526e+00
  2.1475804e-01
 -7.9841642e-03
 -1.8056795e-01
  9.0636462e-03
 -6.6829093e-02
 -1.0346827e-02
 -8.3394991e-03
  4.9770588e-01
 -2.6602825e-02
  2.6542671e-02
 -6.2123984e-01
  2.1002583e-01
  2.3506757e-02
  9.4725236e-02
  1.1167490e+00
  1.5588989e-02
 -1.7512423e+00
  1.5065840e-02
  6.2927134e-02
 -1.4942384e-01
 -3.9693749e-01
 -1.2068794e-01
 -2.6496956e-01
 -2.3846826e-01
  1.9475879e-02
  4.3137002e-01
  1.9167295e+00
  1.3382751e+00
 -3.8278319e-02
 -5.0249226e-02
 -6.9919087e-02
  7.2375983e-03
 -3.6733445e-02
 -6.1133910e-02
  3.5573544e-03
 -5.4665232e-01
  1.2349705e-01
 -2.1997150e-03
  4.0961906e-01
 -3.3514127e-01
  5.9081995e-01
  7.3952608e-02
  4.8581060e-02
  4.7721469e-01
 -3.4705573e-01
 -1.1309781e+00
  1.9951527e+00
 -3.0721411e-01
 -9.2392027e-02
  6.9087453e-02
 -1.5440584e-02
 -6.3822240e-02
  4.7210891e-02
 -2.2484738e-02
  9.3353257e-02
  1.0511796e-01
  6.0543960e-01
 -5.0067127e-01
  9.1319427e-02
  4.5188751e-02
 -2.6492732e-02
  9.7449683e-02
  2.6533690e-01
 -3.7794888e-02
  3.4987915e-02
  2.2584809e-01
 -2.5247326e-01
  1.1134937e-01
 -3.1046569e-05
  1.9308487e-01
 -2.3444155e-01
  1.2439732e-01
  1.7486797e-01
 -6.7010887e-02
 -1.9632202e-01
  1.0740742e-02
 -6.4324462e-03
 -5.4694679e-02
 -2.9486655e-03
  9.0328515e-02
 -3.4595389e-02
 -1.0255756e-01
  8.9568093e-02
 -6.7145927e-03
  5.3326018e-02
  9.1636702e-02
 -6.3147433e-02
  1.2821937e+00
  5.9709833e-03
  4.8688287e-03
  3.5436165e-02
  1.4456546e-01
 -2.2733370e-03
 -8.7040687e-01
 -1.7240547e-02
  4.7190079e-01
  7.7336729e-02
 -1.0703859e-01
 -2.6574308e-01
  2.0105017e-02
  4.7289204e-02
  6.1810094e-01
 -3.4704800e-03
  1.4089114e-02
  6.8183348e-02
  1.3533626e-01
  2.6360944e-01
  1.7529659e-01
 -7.8817293e-02
 -1.0011148e-01
 -1.6557126e+00
  1.8428874e-01
 -4.8205584e-02
  2.0456510e-02
 -4.6954417e-01
  9.3196779e-03
  8.8043764e-02
  2.5891343e-01
  2.6154488e-01
 -1.0119843e+00
  3.6150753e-01
 -5.7537276e-03
  1.8419686e-01
  8.0948826e-03
  6.0879864e-02
  2.9726480e-03
  8.2292020e-02
 -7.5630240e-02
 -8.9484833e-02
 -4.3353987e-01
 -1.5105942e-02
  5.8315848e-03
 -1.1649056e-01
  4.4062617e-01
 -7.8648388e-02
  2.2249036e+00
 -4.7325276e-02
 -3.9607961e-02
 -1.4189149e-01
 -1.0865679e-01
  5.0298948e-02
  1.3557233e-01
 -1.4165081e-03
  2.8422905e-02
  9.6162486e-01
 -3.1213790e-02
  5.4459494e-02
  2.4006231e+00
  7.2075516e-02
  2.7013279e-02
  8.1227859e-05
  1.7658077e-01
 -1.1608627e-01
 -4.0113870e-02
  3.6470115e-01
  7.2898224e-02
  2.7862769e-01
 -1.0370138e-01
  6.9140494e-02
  1.8051667e-03
 -6.9189802e-02
  6.6836172e-01
  2.6944813e-01
  1.2950212e-02
  9.2023455e-02
  8.0115587e-01
  1.6591732e-01
 -8.2754090e-02
  9.4452065e-01
  1.1580652e-01
 -1.3768232e-01
  7.9449445e-02
 -1.1734043e-02
  5.8428156e-01
 -6.5450698e-02
 -1.5748507e+00
 -2.9183634e-02
  2.4109499e-01
 -3.6945512e+00
  1.7064849e+00
 -1.8000358e-01
 -3.8095370e-02
 -1.0544750e-01
  1.6892484e-01
  1.2051655e-01
  1.2134727e-02
  5.9036177e-02
  7.7599645e-02
  4.2024879e+00
  3.7398615e-01
 -2.6390076e-01
 -6.9567440e-03
  6.3380010e-02
 -6.9212651e-01
  8.4351227e-02
 -1.1207299e+00
 -3.2765377e-01
 -1.1901582e-01
 -6.4267057e-01
  1.7309731e-01
  1.8086371e-01
  9.6149349e-01
 -1.7098068e+00
 -8.5352406e-02
  3.2425772e-02
  2.5993135e-02
  1.4878108e-01
  2.7386117e+00
  3.7686598e-01
 -1.4615087e-02
 -6.6946365e-02
 -3.7626228e-01
  1.7730898e+00
  8.9239259e-04
  5.9595898e-02
 -3.1393242e-01
 -4.4852551e-02
  3.2956982e-03
  3.6713853e-03
 -1.0900302e+00
  1.4614201e-01
 -6.0488440e-02
  6.3445270e-02
  3.0336404e-01
 -2.3429856e-01
  1.4988495e-02
 -2.6190102e+00
  4.0792835e-01
  9.0625778e-02
 -1.5555972e-01
  5.3725415e-01
 -1.1679894e+00
 -5.8215266e-01
  2.5750461e-01
  7.7202523e-01
  3.0388287e-01
 -3.2106690e+00
  2.8434238e-01
  2.4073296e+00
  2.7569360e-01
  1.8259849e-01
 -8.1354666e-01
  8.9491588e-01
  1.1132069e+00
  9.7050780e-01
  1.3114356e-01
  4.7331014e-01
  5.2247578e-01
 -6.8408716e-01
 -7.2009794e-02
  1.5857781e+00
 -1.6147662e+00
 -1.3968850e+00
 -4.5877209e-01
 -3.7516204e-01
 -9.0206200e-01
  6.1318016e-01
  1.6527878e+00
 -1.2941800e+00
  2.5025660e-01
 -3.3857617e-01
 -7.8397894e-01
 -2.7008899e-02
 -1.6583502e+00
 -9.6996886e-01
  4.3525532e-01
 -1.2599266e+00
 -7.7138692e-01
  1.3017651e-01
  4.0554042e+00
 -2.4916623e+00
  5.7162028e-02
  1.8112227e-02
 -2.4625528e-01
 -3.3845080e-03
 -1.4301485e-01
  4.2604637e-01
 -1.3097541e-01
 -9.5604610e-01
 -2.6148283e+00
 -1.1296657e+00
  1.6672326e-02
 -3.4046125e-02
 -7.8157753e-01
  3.8209491e+00
 -1.2993677e-01
  3.0476462e-02
 -9.0844654e-02
 -1.6558830e-02
  7.8152232e-02
  5.4650489e-02
 -1.0140204e+00
 -2.8840688e-01
 -8.7172955e-02
  1.4070886e-01
 -9.0734717e-03
 -1.7527930e-02
  1.7397790e-01
 -1.8808174e-01
 -6.5238044e-02
 -1.3521160e-01
  2.3183924e-01
  2.6011026e-01
 -4.2099301e-02
 -3.1057477e-02
  3.4090430e-02
  5.8807436e-02
 -1.7904471e-01
  2.4709433e-02
 -6.4839083e-01
 -5.7845585e-02
 -1.1170029e-01
 -2.7124193e-01
  5.6640607e-01
  3.3444345e-01
 -7.2346009e-02
  9.8365523e-02
  1.9472085e-02
 -3.9284490e-03
  2.7985202e-02
  2.3942025e-01
  2.3317562e-01
  2.2835433e-02
  4.4118091e-02
 -1.4232557e-01
  5.8372572e-02
  4.1871071e-01
  1.4486828e-01
  1.5827851e-01
  6.2473744e-02
 -7.0851855e-02
  1.1013319e-03
  3.5988577e-02
 -5.4073129e-03
  8.2852769e-01
  2.0903659e+00
  4.6817470e+00
 -5.1421702e-01
 -1.3003974e+00
 -1.9775853e-01
 -8.5291654e-01
  1.0792663e+00
  2.0478120e+00
 -1.8591708e+00
  8.5479012e-03
 -2.7943082e+00
 -6.3034368e-01
  1.8964701e+00
  2.6373572e+00
  1.8934672e+00
 -1.6201856e-02
 -2.4784923e+00
 -3.5295859e-01
  1.8962837e+00
  7.4948482e-02
  1.6543074e-02
  4.6039033e-01
  3.4464517e-01
  4.3635777e-01
 -4.2406926e+00
  4.9017730e-01
  2.2046542e-01
  1.7541623e-01
  4.7453412e-01
  1.5852888e-01
  1.8374941e+00
  1.2274705e-01
 -2.3307595e+00
 -3.0023932e+00
 -1.8923445e+00
 -1.3395587e+00
  8.1652820e-01
  1.7899324e+00
 -4.2592222e-03
 -8.3374642e-03
 -7.1778364e-02
 -4.3787578e-01
 -2.9334738e+00
  9.9447882e-01
 -1.9479892e-01
  2.6991313e-02
  3.9945912e-01
  2.0730390e-01
 -2.6000333e-01
 -4.3568067e-02
  2.9513291e-01
 -1.6959856e-01
 -4.9962169e-03
 -2.7176533e+00
  1.0159900e+00
  2.4702888e+00
  7.7548248e-01
  1.6604957e-01
  2.2987053e-01
 -6.6280022e-04
  1.1792178e+00
  1.3853064e+00
 -4.5651710e-01
 -2.0127724e-01
  3.8862765e-01
 -1.3969338e-01
 -2.1869221e-01
 -1.5619549e-01
 -5.8529254e-02
 -5.7420582e-01
 -7.6518804e-01
  5.4317281e-02
  1.3096403e-01
  4.3831128e-01
  2.2705209e-02
 -1.7386702e-01
 -2.4893118e-01
 -1.7295846e-01
  9.2486537e-04
  4.8391366e-01
  1.3838659e-01
 -9.6934861e-01
  2.8152013e-01
 -1.5458746e-01
  1.8481132e-01
  4.5267474e-03
 -6.2828325e-02
  6.9185823e-02
 -1.4660767e-01
 -5.3140324e-01
 -7.2310781e-01
 -1.9499730e+00
  2.7187264e-01
 -5.7056289e-02
 -1.0006231e-01
 -1.4848670e-03
  4.5278254e-01
 -6.7072004e-01
  1.1145680e-01
 -5.0537624e+00
  9.8757401e-02
 -3.5718137e-01
 -3.5587255e-02
 -2.1483694e-01
 -2.1654320e-01
  2.5216863e-01
 -5.5342756e-02
 -1.2891444e+00
  2.4578007e-02
 -1.6736053e-01
  1.6717000e-01
  1.9542418e-02
  2.2206767e-01
 -1.6560006e+00
 -3.4607332e-02
  1.7142403e-01
  2.8566688e-02
 -3.3323346e-03
 -2.8622931e-01
  3.9265331e-02
 -8.1580162e-02
 -2.8402574e-02
  1.2504940e-01
  1.3012312e-01
  1.7198277e+00
  2.7414337e-02
 -5.2364004e-01
 -6.0327208e-01
  1.1654442e-02
 -1.5711007e-03
  6.7671798e-02
  5.1191203e-02
  1.0742559e-01
 -1.3937104e-03
 -1.8722160e-02
 -1.9737478e-02
 -1.5699650e+00
  3.5595644e-02
 -4.7125384e-02
 -1.3181320e-01
  1.0272464e+00
  3.6949709e-02
 -1.1295173e-01
 -6.8779714e-02
  9.8396845e-02
  9.8697506e-02
  1.9028138e-01
 -8.4571712e-02
 -2.1161716e-01
  9.6923536e-01
 -1.1414400e-01
  8.0820791e-02
 -1.3166723e-01
  1.0937122e-01
  5.6187145e-02
 -2.5292182e-01
  1.1981159e-02
 -5.0769770e-01
 -9.5438316e-02
 -2.2613768e-01
 -7.2444230e-02
  5.5163670e-01
 -3.0035233e+00
  6.2741238e-01
  1.2241729e+00
 -3.4781283e-01
  7.2781481e-02
 -1.6348779e-01
  9.1093935e-02
  7.0388252e-01
  1.2056780e+00
  1.5847151e+00
  1.9601104e+00
 -3.7862927e-02
  6.4144373e-02
  1.8055789e-01
  3.8777156e+00
 -7.5061744e-01
  6.2760293e-01
  1.4186318e-01
 -9.0365335e-02
  2.6448112e+00
 -1.5800826e-01
 -8.6923912e-02
  2.8353414e-01
  2.1268192e-01
  6.3197726e-01
 -1.3628467e+00
 -1.1883306e-01
  6.1379558e-01
  8.1926930e-01
  1.0098416e-01
 -4.6369711e-01
 -1.0450740e+00
  2.5935221e+00
  2.2910426e+00
  7.8577645e-02
 -3.6335662e-02
  1.0114567e-01
  5.6871605e-01
 -5.5696416e-01
  1.5069291e-02
  1.6804816e+00
 -3.4817457e+00
  1.3591295e+00
  4.4805700e-01
 -5.1054941e-03
 -1.1695910e-01
 -5.6933126e+00
  1.7608893e-01
  6.1955314e-02
  4.9708679e-02
 -1.0858411e-01
  9.8001534e-01
 -3.6441752e-01
 -4.4252905e-01
 -1.5353857e-01
  1.1472981e-02
 -7.5208289e-03
 -1.1516165e+00
 -2.2130394e-01
  1.9253349e-01
 -1.2750907e-01
 -7.7722341e-01
  2.3109887e-02
 -2.5884166e-02
 -1.2612404e-02
 -3.1446496e-01
 -2.1206105e-02
 -1.0810171e-01
 -3.1387377e-01
  1.6610617e-02
 -3.5633469e+00
  7.6696418e-02
 -4.2097771e-01
 -5.7291608e-02
  6.5788202e-02
  1.4741142e-01
 -9.9902647e-03
 -2.6589875e+00
  2.4979237e-01
 -2.4232981e-01
 -2.3335807e-01
 -6.5125686e-01
  2.6215603e+00
 -1.8306097e-02
  4.9016565e-02
  5.9924431e-02
 -2.0935846e-02
  3.3415747e-01
  5.3502727e-02
 -8.1532639e-01
  3.6554098e-02
 -1.6539149e+00
  1.1165164e-02
  2.1100721e-01
  3.0183032e-01
 -2.7633173e+00
  3.1326860e-01
  1.3180475e+00
 -3.2182012e-02
  5.6760103e-02
  3.0894288e-01
  6.6121334e-01
  2.8435271e-02
  2.3975310e-01
  6.8644211e-02
  3.7596397e-02
 -1.2385939e-02
  3.6290973e-02
  6.1764914e-01
 -8.9519471e-01
 -5.2861029e-01
  4.0182748e-01
 -5.3780269e-02
  2.8254628e-01
  7.3094308e-02
  1.5548776e+00
 -5.2112021e-02
  1.4006877e-02
 -1.5533595e-02
  2.0960990e-01
  4.8017658e-02
  2.8393097e-02
 -4.1921273e-01
  6.6600487e-02
 -2.3832351e-02
  1.7025951e-02
 -1.8689238e-01
 -1.1458877e-01
 -2.5741479e-01
  3.0507281e-02
 -2.8620541e-01
  1.2428831e-01
  3.1209162e-02
 -1.4549446e-01
  2.2825155e-01
 -1.2006428e-01
  2.0656765e-01
 -7.6913431e-02
 -1.5313372e-02
 -4.5234956e-02
 -2.4575372e-01
 -8.2105681e-02
  2.5231189e-01
  3.4133866e-01
  1.4187254e-02
  1.4918518e+00
  9.6346430e-02
  9.0254650e-02
  3.6322981e-01
  2.1455567e-03
  2.2296099e-01
  8.8570025e-03
 -7.3922530e-02
  6.8954788e-02
 -8.5306382e-01
 -3.7783012e-02
  8.2941979e-02
  2.3478439e-01
  2.1844069e-02
  2.2506062e-03
 -1.4794196e-01
  6.4998817e-01
  3.0843428e-01
 -2.8891608e-01
  4.7504032e-01
 -6.1448264e-01
  3.5741860e-01
  1.4867792e-01
  8.4205884e-01
  1.7170686e-03
 -3.7904078e-01
  1.0874106e-01
 -1.0254160e+00
 -7.7615082e-01
  1.6355705e-02
  8.6632818e-02
 -3.5703343e-01
  3.2776234e-01
  5.2154820e-02
 -6.4865947e-01
  2.0554346e-01
 -4.1098335e-01
 -2.1343851e-01
 -1.1935090e-01
  7.9388142e-01
 -1.8985135e-02
  8.2066226e-01
  3.7304708e-01
 -1.1520870e-01
 -5.4940060e-02
 -5.2150249e-01
  1.2499119e-01
  3.4387931e-01
  2.4362190e-01
 -6.3049898e-02
  4.6657631e-01
 -3.3520959e-02
  1.2424628e-02
 -2.7280438e-01
 -1.1156979e+00
  2.5262672e-01
  2.6874995e-01
 -9.2468476e-01
  7.4638873e-01
  4.5054969e-01
 -2.0836260e+00
 -4.3825963e-01
  2.3323426e-01
 -7.6848820e-02
 -1.2979394e+00
 -3.5340749e-02
  2.6775755e-02
  6.6397883e-02
 -1.7863733e+00
  7.3427215e-02
  3.3238667e-01
  7.0768937e-02
 -2.8516763e-01
 -1.3475835e+00
 -1.3594729e+00
  3.7844440e-01
  2.8092527e+00
 -3.4640834e-02
  1.1657033e+00
  1.8921164e-01
 -1.1060544e+00
  3.0592871e+00
  2.6592299e-01
  8.1152983e-02
  3.0851457e-01
  1.3127780e+00
 -6.9263291e-01
 -1.7763238e+00
  4.7424026e-03
  7.2968656e-01
 -1.6362126e-01
  4.4882390e-01
 -7.1745276e-02
 -7.9475200e-01
  2.6221380e+00
  6.3128453e-01
  1.0610488e-01
  3.6877349e-02
  8.7327456e-01
  4.6340108e-01
  1.0268781e-01
 -1.3494720e+00
  1.2406750e+00
  1.2955177e-01
 -6.7638445e-01
  1.4947020e+00
 -9.4560057e-01
 -7.2813448e-03
 -5.3214037e-01
  4.5429415e-01
 -7.4805313e-01
  2.2956337e-01
 -1.2597032e-02
  1.4862539e+00
  9.3259650e-01
  3.0047152e+00
 -1.8128527e-02
  2.2507763e+00
 -4.7981432e-01
  8.4373981e-02
 -2.6326343e-01
 -1.5262426e-01
  1.4664919e+00
  4.2492276e-01
  3.6812425e-01
  1.4039242e+00
  2.8647029e-01
  7.5463571e-02
 -2.1084735e+00
 -4.8279267e-02
 -1.4226335e-01
 -3.2610080e-01
 -3.3388269e-01
  3.2234490e-01
  2.3047624e-02
 -2.4185131e-01
 -1.4838418e-01
 -2.2896681e-02
  2.8607127e-01
 -6.2772378e-02
 -5.0063506e-02
  7.7754562e-03
  1.4692724e-01
 -5.9911545e-02
 -4.2116817e-02
 -1.9717877e-01
  5.9679246e-01
 -2.0977955e-02
  7.3652719e-03
 -3.1719048e-02
 -9.1371603e-02
  1.2466007e-01
  1.4855453e-02
  3.4615147e-01
 -3.2485917e-02
  2.8769748e+00
  1.6511224e-02
  1.4273283e-01
 -4.1664887e-02
  1.8880188e-01
 -5.6720890e-02
  1.9524851e+00
  2.0423073e-01
  2.0094740e-01
 -4.5116832e-03
  4.4933550e-02
  2.4565414e-02
  6.3244927e-01
  5.2156518e-03
 -2.2679017e+00
 -1.6645414e-01
 -2.8454283e-01
 -7.5676155e-01
 -1.7133474e-01
  5.7158705e-02
  6.3651688e-02
  4.8766315e-02
 -3.6087792e-02
  7.4259204e-01
  6.5156871e-01
 -1.8525211e+00
  6.2276796e-03
 -5.9299577e-02
 -3.9947876e-01
 -2.9888222e-01
 -3.6754078e-01
  3.2372520e+00
  2.2749645e-01
  1.8782793e-01
  2.6902828e-02
 -5.0904777e-02
  2.1092486e-01
  2.1262646e+00
 -1.0430567e+00
 -3.2894637e-02
 -4.4818759e-01
 -1.2247358e-01
  5.6202239e-03
  3.4073794e-01
 -1.0672017e-01
 -6.4977892e-03
 -6.5173708e-02
 -8.1954286e-02
 -3.5915482e-01
 -5.0769287e-01
  1.2600188e-01
 -5.2802905e-02
 -2.9310012e+00
 -3.0431116e-01
 -1.0955475e-01
  1.1446372e-02
 -1.1271343e-01
 -2.2529647e+00
  2.3507578e+00
  2.6517645e-02
 -5.2217495e-02
 -7.2088160e-02
  7.2508473e-03
  1.4042401e-01
 -9.9570453e-02
  2.5190166e-01
  1.0537221e+00
 -2.6353553e-02
  2.3391137e-01
  2.2104064e-01
 -4.7583932e-01
  2.2800674e-01
 -3.9145295e-02
  9.6409373e-02
 -4.4891912e-01
 -3.9721932e-03
  6.7262083e-02
  1.9312859e+00
 -3.3450626e-02
  1.7052517e+00
 -2.2186205e-01
  3.1423602e+00
  4.9500889e-01
 -2.4291110e+00
 -1.4525270e-01
 -1.2862071e+00
  1.4341397e+00
  1.7302875e-01
  4.9755697e+00
  3.0293264e-03
  1.7675092e+00
 -5.4846242e-02
  5.6171578e-01
 -4.6264057e+00
  4.9511945e-01
  2.2929955e+00
 -2.3579359e-01
  9.0465659e-01
  2.2101849e-01
  2.9296430e-02
 -1.0742442e-01
 -2.1301192e-01
  1.5744538e+00
  4.2777422e-01
 -2.1407376e-01
  1.7170339e+00
  2.0529190e-01
  1.1240437e+00
  4.5612037e-01
  7.6121223e-01
 -8.7717837e-01
  1.7413998e+00
 -4.3533378e+00
  6.7673042e-02
 -4.4346151e-01
  1.2053014e+00
  7.1640782e-02
 -5.5769962e-01
 -6.2485039e-02
  1.1140442e+00
  5.9984428e-01
  3.1667674e-01
 -1.4946011e+00
 -1.0200225e-02
  1.5380125e+00
 -1.8973535e-01
  1.5224675e-03
 -1.2680788e-01
 -3.5744715e-01
  3.5066180e-02
 -1.1725722e-01
  6.4933068e-01
  4.9715686e-01
 -2.3337489e-02
 -3.4410268e-02
  5.4581428e-01
  5.3600663e-01
  1.7833725e-01
 -2.1790888e+00
 -5.6438398e-02
 -3.2219902e-02
  9.5618546e-02
  5.3339001e-02
  3.1982720e-02
 -1.7742790e+00
  1.5277871e-01
 -5.6778222e-02
  3.1535172e-01
  1.7089785e+00
 -7.2845358e-01
  7.3062867e-01
 -1.5333911e+00
  1.6468000e+00
 -4.7283161e-01
  1.0492915e-01
  9.0894186e-01
 -1.9793965e-01
 -4.4164371e-02
 -4.9135652e-03
  3.6874253e-02
 -1.6370262e+00
 -3.8504791e-01
  2.3992917e-01
 -2.7824478e-02
  3.3639345e-01
 -1.5899186e-01
  3.0536974e-02
 -6.5750086e-01
 -5.9050862e-02
 -5.4973733e-01
  9.7026519e-02
  4.1546583e-02
  2.6314586e-02
 -3.3172607e-02
  1.2349818e+00
 -2.5563371e-01
  6.3006356e-02
  1.2618091e-02
  7.8688127e-01
  1.9149104e-01
 -1.3025625e-01
  1.7503971e-01
 -2.1516946e-01
 -2.8377792e-02
 -1.7756142e-02
  1.2909572e-01
  3.7399769e-02
  7.9961014e-01
 -4.7651701e-02
  2.4452137e-02
  1.2092888e-01
  1.6943535e-01
  2.8429946e-01
  1.4872414e-01
  5.1239185e+00
 -6.7651734e-02
 -6.1030451e-02
 -3.1198585e-01
  3.8509898e-02
 -7.4661911e-01
 -2.0259152e-01
 -7.7727705e-02
 -3.7931705e-01
 -6.1210780e-03
 -1.2335461e-02
  4.0269670e-01
  8.9829929e-02
  3.4818243e-02
 -7.7440664e-02
 -4.1535426e-02
 -7.1184760e-01
  7.7778578e-02
 -3.3773869e-02
  1.3326432e+00
  9.5320910e-02
  2.7549056e-02
 -1.1839064e-01
  1.2705809e-01
 -2.8296176e-01
  1.1502949e+00
 -2.8300108e-02
 -1.8970823e-02
 -2.9330080e-02
 -5.7472019e-03
 -9.6537858e-02
 -1.0157707e-01
  7.3953085e-02
  1.6863713e-01
  2.6357174e-02
 -1.1892501e-01
  1.9692086e-01
  1.7250855e-01
 -1.2717243e-01
 -3.2712860e+00
 -7.9376280e-02
 -1.3901220e-01
 -2.2215819e-02
 -2.2131027e-01
  2.4049067e-01
  1.0068804e-01
 -1.7410883e+00
  1.0840008e+00
 -1.1651480e+00
  2.8055947e+00
  2.2800820e-02
  8.3382267e-01
 -6.5843594e-01
  6.4397085e-01
  3.8662934e-01
 -2.0940495e-03
 -1.2786472e-01
  5.3093004e-01
 -1.0698564e-01
  1.1070690e-01
 -2.0252149e-01
  2.6933473e-01
  5.3034127e-02
 -2.5514188e+00
  1.9670144e-01
  1.8845243e+00
 -5.6863230e-01
  1.4231913e-01
 -1.6328167e+00
 -4.7139484e-01
 -9.8094809e-01
 -2.2713760e-02
 -4.5354314e-02
  7.0997167e-01
 -5.5865335e-01
  2.2081420e-01
 -2.6546464e+00
 -3.8766373e-02
  9.5757377e-01
 -9.3434013e-02
 -7.4268383e-01
 -2.5233071e-02
  3.7853605e-01
 -8.6771786e-02
  8.7804012e-02
  3.4876786e-02
 -1.4499182e-02
  3.8257707e-02
 -1.7748588e+00
  2.9485375e-01
  1.0931209e+00
  7.7376223e-01
 -5.2624786e-01
 -5.5867005e-02
  3.4928510e-01
  1.0216364e-01
 -5.6542862e-02
  1.9508475e-01
  7.7405483e-02
  1.7574087e+00
 -7.2301465e-01
  2.0864894e+00
  1.1442935e+00
 -3.5681760e-01
  1.0543106e-01
  5.7274157e-01
 -2.3822443e+00
 -2.7776511e+00
  5.1336205e-01
  6.3939601e-02
  2.4627694e-01
 -7.3757929e-01
  1.4763670e-01
 -4.5075810e-01
 -1.6681647e+00
 -9.6391714e-01
  1.3322275e+00
  2.9832354e-01
 -2.4479955e-01
  2.5821206e-01
 -4.4689581e-02
  3.0422997e-01
  1.0958624e-01
  4.9452049e-01
  1.6385745e+00
  6.8510599e-02
 -2.6938891e-02
  8.2499288e-02
  6.0316563e-01
 -5.8160967e-01
  7.2074091e-01
  9.5964544e-02
  1.1761062e+00
 -1.4607394e+00
  1.0173690e+00
 -5.3285817e-03
 -1.3376100e+00
 -3.3847408e+00
  8.1824416e-01
 -1.9423734e-02
 -1.0809380e-01
 -8.8549674e-01
  3.3838403e+00
  4.7884375e-01
 -1.0610867e-02
 -7.6607424e-01
  1.6306966e-03
  2.4966826e-01
  6.3834929e-01
  6.6172105e-01
 -1.1969469e+00
 -5.2613351e-02
  1.0043231e-01
 -3.0823982e-01
 -4.0942412e-03
 -2.5466399e-02
  2.3777159e-02
 -1.1716361e-01
  1.3645815e-02
  4.9021408e-02
  6.2637039e-02
  5.7145290e-02
  3.1974319e-02
  1.6686276e-01
 -3.8562916e-02
 -1.2732548e-01
  7.2512394e-03
 -1.1227270e-02
  1.1118332e-01
 -1.2967540e-01
 -1.9285429e-01
 -1.9721338e-01
 -3.9868046e-02
 -2.5065169e-01
  8.9206271e-02
  7.6520300e-01
  1.0435175e-01
 -1.8104913e-02
  4.0485915e-02
  1.9813763e-01
  2.4725482e-02
 -2.3198966e-04
 -2.0931926e-01
 -1.4855932e-01
  7.5002566e-02
  1.6201098e-02
 -1.1979752e+00
 -5.9803762e-02
  5.2848198e-02
  1.6760869e+00
 -1.0634562e-01
  6.0577523e-02
 -7.7788986e-04
 -5.0604127e-02
  6.6770440e-01
 -5.1219359e-02
  3.0296672e-02
  1.8766363e-01
 -8.3312541e-03
  1.6706463e+00
 -3.7218160e-03
 -3.8409337e-02
  7.2606362e-02
 -4.5404606e-03
  5.2116322e-03
  4.1789681e-01
  2.3164520e-02
 -2.9173103e-01
  1.2809509e-01
 -7.8293286e-02
  1.1304051e-01
  1.9029584e-02
 -1.4162175e-02
 -2.5682840e-01
 -2.0285782e-03
 -8.4978412e-05
 -1.2106122e-01
 -9.1947336e-03
 -8.8275351e-02
  1.2498618e-02
 -6.0839392e-02
 -2.1009885e-02
 -1.8622932e-01
 -6.5231342e-03
 -7.8460835e-02
  8.2728520e-02
  1.4187352e-01
  1.3392373e+00
  1.0353062e-01
 -3.4845807e-04
 -7.6811872e-02
 -2.6679888e-01
  3.2382393e-01
 -1.1628874e-01
  2.1783535e+00
  1.4964350e-01
 -8.0493569e-01
 -8.0533013e-02
  8.4357291e-02
 -4.4554168e-01
  1.6157736e-01
  4.1282454e-01
  1.3739640e-02
  2.2734034e-01
 -2.4800461e-02
  2.5686083e+00
 -7.2716899e-02
  1.4721237e-01
 -2.5827199e-02
  6.6612050e-02
  5.8021389e-02
 -7.2841302e-02
 -4.6002474e-02
  1.6237728e-01
 -6.7443475e-02
 -6.4576216e-02
  2.4897177e-03
  2.3180555e-01
  4.6349752e-01
 -4.6103486e-01
 -1.1936545e+00
  4.0895056e-02
  2.1605711e-01
  1.1769398e-01
  8.6891223e-03
 -2.0897062e-03
  2.5517333e-01
  3.5540563e-01
 -2.8408982e-02
 -1.3248217e-01
 -2.7701236e-02
 -1.0691290e+00
 -1.6301976e-01
 -5.5197865e-02
  5.7312556e-02
 -5.6987830e-02
 -1.0296010e-01
 -7.5032920e-02
 -5.0325781e-02
  2.1252709e-02
  3.3400893e-02
 -1.5908810e-01
  5.3350645e-01
 -1.0988793e-01
 -5.1217335e-01
  1.2238654e-01
 -1.3483164e+00
  8.9461215e-02
  1.3734056e-01
  9.0128702e-01
  1.2317839e+00
  2.4665721e-01
 -2.9889125e-01
 -5.3919185e-02
 -1.0402100e-01
  1.1674682e-01
  1.2152388e-01
  2.0019349e-01
  1.4026622e+00
 -1.0307813e-01
  3.5469201e-03
 -3.3829760e-02
  1.3523452e-01
  1.4204687e-01
  2.7422372e-02
 -2.6096556e-02
 -4.2023435e-02
 -2.8301921e-01
 -2.7689286e-02
  1.4398931e-01
  7.7739120e-02
 -2.2306498e-02
 -1.3055256e-01
 -5.6490477e-02
 -2.2403240e-01
  3.6464155e-01
 -9.9908608e-01
 -3.8935414e-01
 -1.1941858e-01
 -2.1524139e-02
  2.8334820e-01
 -8.7718445e-01
  5.7501807e+00
 -1.3012893e+00
  3.5907581e-01
  2.7262557e-02
  6.7655569e-01
 -2.6626796e-01
 -1.1029597e-01
 -1.5649002e-02
  6.3858789e-01
 -5.3607810e-01
 -9.1794395e-01
  4.1952822e-03
  3.5536207e-02
 -4.2938417e-01
  3.3312213e-01
 -2.7164534e-01
  5.4271463e-02
  1.8811761e-01
 -5.9880400e-01
 -3.7735909e-01
 -1.2234165e-01
  7.1361408e-02
  5.0569886e-01
 -2.0205000e-01
  5.1403310e-02
 -7.5412422e-02
  6.8709004e-01
 -9.3293250e-01
 -2.5949171e-01
 -4.1049011e-02
 -4.7081869e-02
 -3.3944529e-01
  9.8305337e-02
 -2.3638730e+00
  2.1484289e-01
  3.1462869e-01
 -5.8828179e-02
 -4.7883517e-01
 -9.3518448e-01
 -1.0643287e-01
 -1.6253840e+00
  1.5778389e+00
  6.9056444e-02
  7.3311079e-01
 -7.4282542e-02
 -2.1641862e+00
  2.5786331e-01
 -3.5576694e-02
 -2.3547414e-01
  4.1680411e-01
 -7.1127616e-02
 -1.2930113e-01
  8.5426547e-02
  2.2155543e-01
 -1.1636579e+00
 -8.3138563e-02
 -4.3699098e-01
  1.1145452e-01
  2.1170941e-01
  1.8636991e-01
  2.7097198e-01
  5.9633750e-02
 -5.3063892e-02
 -1.9288938e-02
 -1.9870602e-01
  2.5299959e+00
 -1.0306754e-02
 -3.4810284e-01
 -1.6881531e-02
  4.5517692e-03
  5.2411642e-02
  6.6321544e-02
  8.6512811e-02
  8.3758426e-01
  6.8351990e-01
 -2.3214053e-02
  1.7695792e-01
 -1.9816214e-01
 -1.1334199e-01
 -1.5695834e-01
  7.7773474e-02
 -1.2540202e+00
 -3.6888462e-02
 -2.8757339e-03
 -6.6457810e-03
 -3.3764884e-01
 -2.7545579e-02
 -4.1133976e-03
 -1.0976358e-01
 -1.1042325e-01
 -1.0187490e-01
 -1.6124299e-02
 -1.2445131e-01
 -3.2667005e-01
  7.7378966e-02
  2.2788322e-01
 -3.6714174e-02
 -1.3895263e-01
  3.8879460e-01
 -1.8147075e+00
 -3.5989277e-02
 -3.5242207e-02
 -1.4546245e+00
  1.0940436e-01
  1.6595526e-02
 -1.1239175e-01
 -5.9634086e-02
 -7.5001967e-01
  3.5738277e+00
  3.4595034e-01
 -1.4300928e-01
  1.3515918e-01
  2.6901994e-02
  1.6088312e+00
 -1.1910327e-01
 -2.8587896e-02
  1.9871968e+00
 -1.1735349e-02
 -5.3802955e-01
 -5.7097442e-02
 -4.2581627e-01
 -5.3519443e-02
 -5.4264712e-01
 -1.5056936e-01
  1.2897370e+00
 -7.1976790e-03
  3.0349958e-01
  1.0272233e-02
  1.6115386e-02
  1.5714789e-02
  4.4638626e-02
 -2.2782400e-01
 -9.0579987e-03
 -3.5820031e-01
 -2.2713976e-01
  1.2695646e+00
  6.5355718e-02
 -1.1012907e+00
 -6.3491881e-02
  1.0744574e-02
 -1.8677419e+00
  7.3569071e-01
 -1.3147558e-01
 -2.6865479e-01
 -1.3270350e-01
  4.4360313e-01
  1.0929297e-02
 -4.4768754e-02
 -2.3701713e+00
  5.3763617e-02
  1.1238015e-01
 -1.1492383e+00
  1.2811885e-02
  1.1414007e-01
 -5.2890897e-02
  7.5130498e-01
 -2.1546855e+00
 -1.6664315e+00
  2.5806680e+00
  6.9408512e-01
  8.6399734e-01
  3.1300217e-01
  7.6119053e-01
  8.6164796e-01
  1.4742142e+00
 -3.8986118e+00
 -5.7976401e-01
 -2.3596366e-01
 -2.4675656e-02
  2.0734732e+00
 -7.6127291e-02
 -3.0620071e-01
  2.0435691e-01
  1.6374758e-01
  1.1532103e+00
  2.0780749e+00
 -3.9368145e-02
  4.2240715e-01
  1.1462665e-01
 -2.9879467e+00
 -2.8919488e-01
 -1.7325518e+00
 -2.9753098e-02
 -1.0294957e+00
  3.9645991e-01
 -9.0154928e-01
  4.8071781e-01
  1.7577262e-01
  4.7488528e-01
  7.7230465e-01
  1.1958815e+00
 -2.9534335e+00
 -1.7950625e+00
  1.0831884e-01
 -1.6961457e+00
  8.5473287e-01
 -2.1361430e-01
 -1.0331560e+00
  1.7948090e+00
  8.0472690e-01
 -8.9610964e-03
 -1.0529511e+00
  9.7227246e-01
  1.6862914e-01
  3.8021874e-02
 -2.5797486e-01
  9.2931129e-02
  7.1404129e-01
  4.3876752e-02
  3.1279068e+00
  6.5412402e-01
  9.3314625e-02
  5.5809554e-02
 -9.9305622e-02
 -7.3749089e-01
 -1.2754162e-01
 -1.8684684e-01
 -2.2911701e+00
 -1.9858842e+00
 -8.5395998e-01
 -1.0007844e+00
  1.4895055e+00
 -1.4582243e+00
 -1.5552090e+00
  1.4705749e+00
 -1.3125535e+00
 -2.1890256e+00
 -1.6116837e+00
 -2.1991245e-02
  4.5361564e-02
  2.0084308e-01
  2.8346965e-01
 -5.1686049e-01
  3.9502525e+00
 -2.3555297e-02
 -9.6161765e-01
  7.3876411e-01
  4.9283491e-03
  1.0886754e-01
 -1.2305058e+00
 -6.4710188e-01
 -2.0266292e+00
 -7.6814204e-01
 -1.2473664e-01
  1.6917015e+00
 -2.5737202e-01
 -2.0611949e+00
  4.2605501e-01
  1.7745910e+00
 -8.2663423e-01
 -8.0085611e-01
  3.6657688e-01
 -2.0434361e+00
  2.5829113e-01
 -8.5286833e-02
 -1.0020690e-01
  2.5416791e+00
  1.6599045e+00
  1.8852499e-01
  2.3553671e-01
 -5.3028876e-01
  1.2418729e+00
 -4.8442878e-02
  1.7270666e+00
 -2.4850030e+00
 -1.5143426e-01
 -2.7465684e+00
 -1.7149699e-01
 -2.7708614e-01
 -2.2836554e+00
 -1.8413161e+00
  1.0694036e+00
  2.6879373e-01
  4.1668153e-01
  7.8886521e-01
  4.6847008e-02
  3.2917431e-01
  1.2166500e-01
  1.2605224e+00
 -1.0005866e+00
 -3.4185491e+00
  1.6021571e-01
 -2.8932545e+00
 -8.9853084e-01
  5.2350443e-02
  2.5741467e-01
  1.8980598e-01
  3.5717142e+00
 -3.1147662e-01
  3.4491956e-01
  2.6382910e-02
 -2.3636609e-01
 -5.4412526e-01
  4.2921734e-01
 -2.1159266e-01
  1.7949723e-01
  1.4230137e-01
 -2.4531205e-01
 -1.4818783e-01
  1.5875174e+00
  6.1894614e-01
 -1.9593761e+00
  1.0624173e+00
 -2.0404932e-01
  3.6696932e-01
  6.2947369e-01
 -1.0136158e+00
  1.2934235e+00
 -7.8766489e-01
 -1.2160793e-01
  1.5711893e-01
  1.8416750e-01
  2.3280002e-02
  3.1728380e+00
 -6.2161449e-02
  1.8054315e+00
  4.3994028e-02
 -5.9476751e-01
  3.9069656e-01
  3.6974543e-01
 -1.3576271e-01
 -3.6918554e-01
  5.5347495e-03
 -4.4417703e-01
 -6.1668102e-02
  1.4518952e-01
 -6.8068556e-02
 -2.1734725e-01
 -5.8955003e-02
  1.2230562e-01
 -4.1347165e-02
  1.0042617e-01
 -4.3732487e-02
 -6.4984167e-01
 -6.9697225e-01
  3.6989965e-02
  1.1332207e-02
 -3.9429665e-01
  1.1777530e-01
  8.3927296e-02
  3.3185579e-02
  9.8356895e-02
 -7.2809838e-02
  2.3906562e-01
  1.3426167e-01
  8.4210508e-02
 -3.7879625e-01
  1.4464937e+00
  1.0471141e-01
 -9.0776332e-02
 -1.5042605e-02
  8.3741271e-01
 -1.4267246e-01
 -4.2429052e-02
 -1.3745001e-01
 -5.0432116e-01
 -1.5370335e-01
 -3.6076784e-02
 -1.3281878e-02
  1.1315790e-01
  3.2099792e-01
  1.6571285e-01
  1.3574804e-01
 -7.0704505e-02
  3.7136117e-03
  9.3259877e-03
 -1.7418734e+00
  1.0541665e-01
 -3.3358040e-01
 -5.4209039e-02
  1.0100611e+00
  4.3215278e-01
 -4.8147429e-02
 -6.1068971e-02
 -2.8019356e-02
 -2.1468389e-01
  3.1396696e-01
  6.0358088e-02
  2.1753278e-01
  8.3880939e-02
  6.9883883e-02
 -2.4127040e-02
  2.6101805e-03
  2.1750107e-02
  9.6546926e-02
 -4.9441073e-02
  7.1106479e-02
  4.0733734e-01
 -2.6002241e-02
  4.6607102e-03
  8.9498326e-02
 -2.4486908e-01
  1.5773384e-01
  1.7205876e-01
 -1.0251960e-01
  1.1928125e-01
  4.0813532e-02
 -1.8699056e+00
 -3.7153490e-02
 -2.7619200e-03
  1.0388977e-01
 -1.3892703e-01
  2.2340256e-01
  3.5496086e-02
  3.9400719e-02
 -6.6296798e-01
 -1.4022478e-01
 -9.4149329e-02
  4.1405377e+00
 -1.9528629e-02
 -1.2348154e+00
  7.9752006e-02
  9.7659335e-02
  8.9729562e-02
 -4.4575907e-02
 -1.0577135e-02
 -8.5885003e-03
 -2.6933065e-01
  8.8763863e-02
  1.1037940e+00
  5.2206790e-01
  1.2201373e-01
  1.7667062e+00
  7.8478169e-01
 -1.2781290e+00
  2.3282328e-01
  6.3426059e-01
 -1.1290854e-01
  3.5528369e-02
  1.5181738e-01
  7.4337289e-02
  1.6426029e+00
 -3.1507123e-02
 -2.1541530e-01
 -1.2677647e-01
 -7.6331329e-03
  3.6873996e-01
 -3.9299807e-01
 -1.9208478e+00
 -2.3096880e-01
 -2.0322748e-01
  2.1208525e-01
 -4.2935800e-02
 -9.8416716e-02
  1.5241705e-02
 -2.5745884e-02
 -3.9989635e-02
  1.2357394e+00
 -1.3310575e-01
 -7.9055708e-03
 -1.1032322e-01
  1.3836166e-01
 -4.5292750e-03
 -1.0111869e-01
  7.6334208e-01
 -2.5590923e-01
 -2.7474506e-02
  1.2733834e-02
  4.7240004e-02
 -4.1612312e-01
  4.4568583e-01
 -9.3319854e-03
  1.9195659e-01
  5.5406138e-02
 -2.8427714e-01
  2.3660775e-01
 -2.4489729e-01
 -7.4560247e-02
 -7.5704873e-02
  6.9391266e-03
 -1.6252069e+00
 -1.5400569e-01
 -1.3279198e+00
 -3.7061248e-02
 -9.0565629e-02
 -2.7233186e-01
  1.6330707e-01
 -6.5777868e-02
 -3.6844846e-02
  1.6936645e-01
 -1.2093067e+00
  2.0496134e-01
  9.1151427e-03
  3.7767589e-01
  1.2986825e-02
 -1.2405386e+00
 -2.4328516e-01
 -6.4509164e-04
  4.0874693e-01
 -7.7054024e-02
 -4.3653399e-02
  2.8618194e-02
  7.8074038e-02
 -1.5390794e-01
  1.4553468e-01
  4.3822400e-02
  1.0631543e-02
 -1.0511656e-01
  3.1526688e-01
 -1.2076555e+00
 -2.5530910e-01
 -4.1455712e-02
  1.8478151e-01
 -8.5731499e-02
 -2.8855102e-02
 -1.9384895e-02
  2.0684108e-01
  6.4490922e-03
  1.5519652e+00
 -1.8820302e-01
 -8.4950083e-01
  3.1986978e-02
  4.6847999e-01
  3.2087462e-03
 -2.3436134e+00
  3.1282856e+00
  9.2396006e-02
  1.7598665e+00
 -1.1086071e-01
  2.8858902e-02
 -1.3096811e-01
  7.1591872e-01
  3.1263907e-02
  1.1470632e-01
  2.9387716e-02
  1.0886174e-02
 -3.7219543e-02
 -1.1455883e-01
 -1.9194137e-02
  9.0532398e-01
  5.1098716e-02
  9.3100630e-02
  9.4070747e-02
  1.7487545e+00
 -3.6630683e+00
 -3.1174457e-01
  1.7643529e+00
 -4.9639389e-02
 -1.2715962e+00
  6.1216027e-01
  8.0923420e-01
  2.1268556e+00
  1.0825326e+00
 -1.3803516e-02
  5.0117411e-03
 -2.2382711e-01
 -1.5395427e-01
 -6.8047326e-03
  2.9325809e-02
 -3.2403467e+00
 -1.8709263e-01
  8.9564696e-02
  4.5498812e-01
 -5.5067919e-02
  1.6865957e-01
 -2.8971821e-02
  3.7924629e-01
  5.3889990e-01
 -2.7764860e-01
  1.5065227e-01
 -4.3067038e-02
 -4.8470765e-02
  9.7754854e-01
 -9.0599620e-01
  9.7078234e-01
 -1.8530272e-02
 -2.6137686e-01
 -1.2742986e-01
  3.2144484e-01
  1.2875034e-01
 -4.6643633e-01
 -3.1006651e+00
 -3.2912448e-01
  1.7558302e-01
  7.7529716e-01
  1.4666905e+00
  5.1202297e-01
 -2.6698974e-01
 -1.3822907e-01
 -2.7939595e-02
  2.2624547e+00
 -6.9992766e-02
 -1.0326223e-01
 -1.3266042e-01
  6.3010596e-02
  1.0238929e-01
  6.2210523e-02
  5.7602978e-01
 -5.6608570e-01
 -1.0550540e-01
 -1.0681846e+00
  3.0929419e-01
 -9.9631929e-01
 -1.0397942e+00
  2.0407481e+00
 -1.0995347e+00
  8.0466098e-01
 -9.8161048e-01
  1.0278445e+00
 -1.3934002e+00
 -1.6870916e-02
  4.2794120e-01
 -6.4837557e-01
  6.7917675e-01
  1.9076617e-01
 -8.0249399e-01
  4.5995512e+00
 -1.0991954e+00
 -5.5649108e-01
  9.6217346e-01
  1.5061046e-01
 -6.0105157e-01
 -9.4137937e-01
  8.2438505e-01
 -5.4724944e-01
 -4.9227020e-01
 -2.9321170e-01
  1.6912074e+00
  4.4476104e-01
 -1.5820985e+00
 -2.3979423e+00
  4.7803324e-02
 -1.4589188e+00
  6.6144347e-01
 -2.3409646e-02
  2.2094460e-02
 -1.1805352e+00
  1.3620882e+00
 -3.1372926e-01
  4.6515778e-01
  3.0604675e-02
 -1.0496436e+00
 -3.4449476e-01
 -4.7436789e-02
  2.0471511e+00
  1.9449633e-02
  3.6513224e-02
 -1.9371563e-01
  3.2870179e-01
  6.8744141e-01
 -7.3707175e-01
 -1.9153444e-03
  1.3525660e+00
 -3.0832946e-01
  2.4207676e-04
 -4.1979916e-02
  1.2592638e-01
  1.1726621e-02
 -3.5450394e+00
  3.1598743e-02
  3.5563473e-02
 -1.4136401e-01
 -1.5459633e+00
 -1.1394089e-01
 -3.1651735e-02
 -4.3094553e-02
  7.4013934e-02
 -1.1505934e-01
  1.2860610e-01
 -5.5167045e-02
  1.8841965e-01
  1.5725499e-01
  5.0279152e-01
  9.1030998e-03
  1.2810928e-01
 -1.9022627e-01
  7.4473359e-02
 -1.4099719e-02
 -7.8363782e-01
  7.8271385e-03
  3.0383509e-01
  7.6170273e-02
 -8.4310889e-02
 -6.0638055e-02
  4.7329269e-02
  8.0942094e-02
  8.4304065e-03
  3.5802066e-02
 -9.5888883e-02
  8.9878285e-01
 -6.0679632e-01
 -2.2142871e-01
  6.4859584e-02
 -2.2776976e-01
 -4.4561498e-02
 -3.6186972e-01
 -1.2347060e-01
 -3.2535963e-02
  1.8892735e-01
 -1.3848829e-01
  5.0163645e-01
  5.2308802e-02
 -4.9903374e-02
  4.9415249e-03
  2.2358112e-01
  7.5416851e-01
 -1.3523623e+00
  2.1973129e-02
 -2.2316420e-01
  7.9008865e-01
 -1.0339122e+00
 -3.6506590e-01
 -2.8847620e-01
  2.9830483e-01
  1.0966675e+00
  1.1524769e+00
 -8.9460498e-01
  5.3755641e-01
 -4.0479712e-02
 -1.9748297e-02
 -8.4163660e-01
  1.6312365e-01
  1.6005806e+00
 -1.2407519e-01
 -1.3124861e-01
 -2.4838805e+00
 -2.4972320e-01
  3.7039059e-01
  1.9589350e-01
 -9.4796717e-01
 -2.8274078e+00
 -1.3920958e+00
 -4.5706265e-02
  9.9744499e-02
  3.4548149e-01
  2.0761101e+00
 -4.6273920e-01
  8.3103478e-02
  6.9101036e-01
 -2.9120699e-01
  2.0484966e-01
  4.4014493e-01
  5.8346231e-02
  1.8420674e-01
  8.4633738e-02
  2.8311521e-02
  3.1252682e-02
 -1.9088262e-01
 -1.6021235e+00
  5.8585644e-01
  8.6002335e-02
 -4.3749505e-01
 -1.4896935e+00
 -6.5815479e-02
  3.4257982e-02
 -3.1185675e-01
 -9.0949106e-01
 -2.9410872e-01
  5.6047004e-01
 -1.7120073e+00
  7.8359026e-01
 -1.2495086e+00
 -1.1758894e+00
 -6.1852312e-01
 -9.7889699e-02
  1.7643136e+00
 -9.0166456e-01
 -1.4563963e+00
  1.3055178e+00
  4.3663612e-01
 -1.6363178e-01
  1.3222996e+00
  8.1643361e-01
  1.1808263e+00
  4.6544951e-01
 -7.1807021e-01
 -1.7603587e-01
 -2.3554964e+00
 -2.1217895e-01
 -2.2232363e+00
 -2.4770860e-01
 -1.4252406e-01
  5.8551455e-01
  2.3439481e+00
  1.1223516e+00
  2.3239796e+00
  3.3072510e-01
 -2.2061148e+00
  8.4614009e-01
 -2.2810638e-01
  9.1674340e-01
  3.9440361e-01
  2.6726236e+00
 -1.6062427e+00
  4.9712440e-01
  3.2209154e-02
  8.5114902e-01
 -4.9513227e-01
 -1.7382912e-01
  2.0978700e-01
 -3.8453823e-01
  4.1251227e-02
  1.6528586e+00
 -2.3796592e+00
 -4.9850312e-03
 -1.5623510e-01
 -1.8885249e+00
  6.8823263e-02
  5.0674235e-03
  1.7207550e-01
 -9.4328285e-04
 -5.3379338e-02
 -1.2923968e-01
  3.5932604e-02
  1.9725603e+00
 -8.1126831e-02
  4.4286978e-01
  1.1423425e-01
  5.3895537e-02
  1.6530714e+00
 -2.3785868e-01
  4.1511562e-01
  1.4135593e-01
  2.9936242e-01
  1.2237877e+00
 -6.9299499e-03
  7.5889099e-01
  1.4145282e-01
 -3.5987065e+00
  2.9203111e-02
 -3.0672050e+00
 -2.5064906e-01
 -3.9479333e-01
  2.5222197e-01
  1.1626248e-02
  1.1493702e-01
  4.1688144e-01
  1.0476374e-01
  1.5497522e-01
 -3.3127155e-02
  2.0234324e-01
  1.1776290e-01
  2.1829742e-01
  1.6757801e-02
  2.1970139e+00
  8.7433833e-01
  1.0212591e-01
  4.7362098e-01
 -1.4594523e-02
 -8.3211474e-02
  2.6932761e-01
 -9.5734596e-01
  2.4531323e-02
  4.1342694e-02
  5.4964870e-03
 -6.3442409e-02
  9.5520103e-01
 -8.0422983e-02
  1.3327029e+00
  9.7911954e-02
  1.4142224e-01
 -1.2571172e-01
 -9.8267265e-02
  2.4381691e-01
 -1.9876127e-01
  3.0827865e-03
 -1.3062465e-01
  8.1136249e-02
 -1.3505195e-02
 -2.7412632e-01
  3.4624594e-01
 -4.2559085e-03
  2.7087219e-03
  2.1959366e-02
  9.2122786e-02
 -1.3676915e-01
  5.4887056e-02
  2.3168357e-01
 -6.4820504e-01
 -1.4033437e-01
 -9.8676749e-02
  5.7924721e-02
  1.0332523e-01
  8.1983022e-02
  2.4069989e-02
 -5.1529866e-01
  1.8431174e-02
  8.7190168e-03
 -1.0552695e-01
 -1.3866537e-02
  1.6464585e+00
 -6.1929423e-02
 -2.4207868e-01
 -4.2494591e-02
  7.8737509e-01
  9.6222484e-01
  1.2148893e-01
  2.0968307e-02
  4.1483688e-01
 -6.7941584e-02
  1.6583309e-01
 -5.4629631e-02
 -5.1820923e-02
 -7.8539151e-01
 -5.1111672e-02
  4.0246105e+00
 -3.7296444e-02
  1.4674360e-02
 -6.6071223e-03
  6.5102652e-02
 -7.9933688e-02
 -9.0252429e-02
 -5.8431509e-03
 -5.4352164e-01
 -5.5587947e-02
 -2.4250373e-02
 -1.7977330e-01
 -1.9878949e-01
  9.6203864e-02
 -1.8020947e-01
  8.1254564e-02
 -1.5358977e+00
  6.6928363e-01
 -1.0935235e+00
 -2.4469106e+00
 -6.9533652e-01
  4.0879041e-01
 -1.7639014e-01
  1.3141514e+00
 -1.0492078e+00
  1.6008042e-01
  6.5744102e-02
  7.4165449e-02
  1.1739446e-01
  2.5522951e-02
 -4.0852386e-01
  6.5002191e-01
  1.0188626e-01
 -1.4434430e-01
 -9.6432619e-02
 -7.9297863e-02
 -5.8207542e-01
  2.6136953e-02
 -2.8160453e-02
 -1.5398371e-01
 -2.1065008e-02
  3.2384065e-01
 -1.4720742e-01
 -3.4585273e-01
  4.4947228e-01
  9.9907392e-01
 -5.1003909e-01
  2.1720555e-02
 -3.0378355e-03
  4.3111190e-02
  1.0375252e+00
 -5.0138861e-01
  2.2557966e-02
  2.4664494e-01
 -2.5358777e+00
  1.5058558e+00
 -4.6534773e-02
 -2.3985858e-01
 -1.2407870e-01
  7.9936939e-01
 -3.9897206e-01
  1.4870743e-01
 -1.5302937e-01
 -1.0962470e+00
 -2.5023690e-01
 -3.3084518e-01
  4.0921021e-01
  8.0052763e-02
  3.4197298e-01
 -7.1102619e-02
 -5.7631999e-02
  1.3258821e-02
  4.4226158e-02
 -1.1899997e-02
  2.7965632e-01
  1.0602125e-02
  9.6355580e-02
 -4.0579643e-02
  1.5115498e-01
 -1.0869210e-01
  5.8600314e-02
 -1.4014052e-02
  1.7853461e-02
  1.3119754e-01
  3.7388731e-02
  2.2609305e-02
  2.6725357e-02
 -2.0248911e-01
 -1.6396931e-01
  1.0703859e-02
  4.3670833e-04
 -7.1360365e-02
  1.5899633e-01
  4.5397568e-02
 -9.5790468e-02
  2.1585619e-02
  4.4263307e-02
 -8.2493834e-02
  1.6168955e-01
 -1.9099159e-02
 -1.2476207e-03
 -1.1754045e+00
  3.1949186e-01
  1.2150968e+00
  1.7558737e-01
 -8.2818918e-02
 -3.2432463e-02
  4.8773539e-01
  1.5389146e-02
 -7.9449162e-02
 -3.2046386e-03
 -2.3882726e-02
 -3.7155277e-01
  6.3006409e-02
  1.4459948e-01
  1.0795239e-04
  6.0090303e-02
 -3.1037772e-02
 -9.4336206e-01
  2.2843897e-01
 -3.7038505e-02
  2.5126798e-02
 -3.2494339e-01
 -7.0552938e-02
 -9.0657997e-01
  8.2789935e-02
 -7.7071032e-03
  5.8875370e-01
 -1.4217035e-01
 -2.8944079e-02
 -1.2001351e-01
  2.2473605e+00
  3.2565608e-03
 -9.6573830e-03
  2.3593754e-04
 -1.7234430e-01
  1.0677186e-01
  5.1532570e-02
  1.5518515e-01
 -1.4617972e-01
 -2.4018778e-02
  1.3782388e-01
 -9.3445726e-02
  1.8468009e-01
 -5.1729664e-02
 -2.3188315e-02
 -1.6425428e-01
  2.1943998e-01
 -5.4576732e-02
  2.0123869e-02
 -2.1251373e-02
 -6.4186798e-03
  1.3099384e-02
  6.5878630e-03
  1.8750751e-02
  3.6697790e-02
 -8.2628685e-01
  3.3063561e-01
 -4.3917049e-02
  1.0435714e+00
 -1.4714066e-02
  1.0578857e-01
  5.9434362e-02
  5.9409473e-02
 -5.2274570e-02
 -1.8046704e-01
  2.5661431e-02
  2.1218998e+00
  1.1735731e-01
  5.7727206e-02
  9.1948733e-02
 -6.9638886e-03
 -1.1716584e-01
 -1.0238593e-01
  4.5089561e-01
 -2.3366939e-01
  1.2615888e-01
  3.7819168e-01
  8.3356708e-01
  2.7611434e-01
  1.1057457e+00
  1.2445282e-01
 -2.5593117e-01
 -3.7205198e-01
  1.2740679e+00
  2.3627873e-01
  8.8008547e-01
  7.3335063e-01
  3.8280722e-01
 -4.7781974e-02
  1.0669686e-02
  4.6251228e-01
 -6.9955783e-04
  6.0540494e-03
  1.1582930e-01
  5.2688422e+00
 -4.8928130e-03
 -7.9724647e-02
  2.6626560e-01
  2.9520863e-01
 -2.2635784e-02
 -3.0300224e-02
 -9.3788199e-02
 -4.3242049e-01
 -6.9329971e-01
 -2.2998680e-01
 -9.8530585e-01
 -9.2028135e-01
 -1.3395742e+00
  6.2210947e-02
  6.0323212e-02
  1.6194643e-02
 -3.0252151e+00
  9.6336335e-01
 -6.9981590e-02
 -2.5255036e-01
  1.0466180e+00
  2.3948163e-02
 -4.3647179e-01
 -3.8779527e-03
 -4.7996536e-02
 -7.7592894e-02
  2.0760785e-01
 -8.2863040e-02
 -1.7555189e-01
  4.9963343e-01
 -5.0447983e-01
  1.2468024e-01
  2.1945383e-01
 -3.6994894e+00
 -1.5977211e-02
  8.1704728e-02
 -4.5965198e-01
  3.9791310e-01
  1.8254247e+00
 -1.0217874e+00
 -1.7328759e+00
 -4.5666930e-01
 -6.5137494e-01
 -1.2918419e+00
 -2.0746106e-01
 -1.6381393e-01
 -3.6644116e-02
  1.2035797e+00
  1.0244011e+00
 -4.1695710e-02
  1.8929880e-02
  3.4162971e-01
  4.5727837e-01
 -7.7373502e-03
 -1.9397905e-02
  1.0179659e+00
 -2.1748219e-01
  9.0444946e-01
  1.3499461e-01
 -1.3393682e-01
 -2.4309901e-03
 -1.2796117e+00
 -1.1338322e-01
  1.6587568e-02
  4.6164840e-01
  1.6163489e+00
 -1.1600562e-01
 -1.3614386e+00
 -4.6000609e-01
  7.6771885e-01
  6.0170048e-01
  9.4039820e-02
  2.5659883e+00
  3.2780346e-02
 -3.9944965e-01
 -7.2557060e-03
 -2.6403749e-01
  2.3977151e+00
  1.2302811e-01
  9.8711884e-01
 -1.3073820e+00
  7.7674133e-01
 -6.8132870e-02
 -1.7102937e-01
 -1.0973839e-01
 -5.5849757e-03
 -1.8921405e-01
  4.2114690e-02
  9.7020340e-01
  1.8849182e-01
 -1.7170118e-01
  9.1044360e-01
 -1.1516232e+00
  1.3767241e-01
 -4.2112064e-01
  7.8104041e-03
 -1.5829076e-01
  7.6675899e-02
  2.8566459e-01
  3.5700968e-03
 -5.7393886e-02
  5.6082234e-03
  5.2208241e-02
 -1.6941025e-03
  2.9596224e-01
 -3.7120439e-02
  3.9010584e-02
 -2.0597786e-01
  6.3783623e-02
 -3.4334317e-02
  3.2527447e-01
 -6.6404200e-01
 -2.5035987e-02
  1.1292100e+00
  2.0982623e-02
  5.4432407e-02
  1.4900242e+00
 -4.0664941e-01
 -3.5353765e-02
 -7.9910114e-02
  5.8923495e-01
 -8.7401889e-02
  2.2113633e-01
  1.5306357e+00
  1.1882442e-01
  6.4278178e-02
 -2.4756341e-01
 -2.3838261e-03
  1.2096555e-01
 -2.2487140e+00
 -1.4829133e-01
  1.4961559e-01
 -3.0165812e-01
  9.8856241e-01
  5.5689767e-02
 -1.9310713e-02
  1.9214550e-02
  7.7842318e-02
  2.9536867e-01
  6.8016261e-02
 -4.6285100e-02
 -4.0717646e-02
  1.0542477e-02
 -6.6325462e-01
 -8.0361778e-01
 -4.9629980e-01
  1.1181866e+00
  2.0161629e-02
 -2.2393115e+00
 -1.0018605e-01
  1.2540565e+00
 -8.8631994e-01
  1.1531005e+00
  1.0556770e-01
  1.3657280e+00
  7.5999880e-01
  7.1068954e-01
  2.7533598e+00
 -6.3406295e-01
  8.0857611e-01
 -1.7345151e-01
 -1.5308754e-01
  1.6567937e-01
 -2.0395778e-02
 -1.0471197e-02
  1.5479852e-01
 -3.3863027e+00
 -1.2929565e-01
  8.7897277e-01
 -1.6393256e+00
 -4.8463032e-02
  8.0621701e-01
 -5.2305990e-01
  7.8343701e-01
  1.1792947e+00
 -8.4218717e-01
 -1.1898440e-01
 -2.6105369e-02
  7.3828578e-02
  4.7097939e-01
 -1.5690312e-05
  1.7417898e-02
 -2.0133124e-01
 -8.1182502e-02
 -8.2557335e-02
 -5.1855379e-01
 -1.0593701e-01
 -1.4195621e-01
  1.8730807e-01
  1.7897764e-01
  4.9186848e-02
 -2.2703073e+00
 -4.8282683e-02
 -2.2046074e-01
  9.9455543e-02
  2.0704802e-02
  1.0517025e+00
  1.8459097e-01
  1.1466590e-01
 -9.0850741e-01
  8.8838324e-02
 -7.6717861e-02
 -7.0409313e-02
  1.8401544e-01
  1.2777683e-01
 -4.3780339e-01
 -3.8624546e-01
 -1.4883353e-01
  9.5561042e-02
  1.6807906e-02
  7.7910817e-01
  2.0995010e-01
  9.7084099e-01
 -1.0305580e-01
  1.1121949e-02
 -2.9884065e-03
 -1.1345579e-01
 -5.6845888e-02
  1.9879581e+00
 -3.1244978e-01
  5.7287369e-02
  6.8331771e-02
 -3.4854330e-02
 -2.9708169e+00
 -1.6673138e-02
 -1.2190406e-01
 -4.8440331e-01
 -3.1246161e-01
 -5.5750263e-01
  1.0344816e-01
 -1.5066814e-01
 -1.6844906e-02
 -9.9801499e-01
  2.0502210e-01
 -3.5334623e-01
 -5.8626121e-01
 -1.3644217e+00
  5.1949609e-02
  1.9446124e-01
  5.0401814e-02
 -2.4424901e+00
  2.7493577e+00
 -2.4256311e-01
  1.6459156e+00
 -4.8547951e-03
 -4.3344140e-01
  2.5984473e-04
  6.3318349e-02
  2.1687638e-02
  8.2290903e-02
 -3.0412129e-01
 -8.0854803e-02
 -1.5855207e+00
 -5.7287651e-01
 -1.3171238e+00
 -1.5850835e-01
 -8.7140702e-02
 -1.1146911e+00
 -5.8432531e-01
 -1.0497828e+00
 -2.6382446e-01
  1.5914094e-01
 -1.5364011e-01
  7.8190386e-02
 -9.6293610e-01
  4.8718717e-02
 -2.7897713e-01
  3.7687090e-01
 -3.2605793e-02
  2.6159875e+00
  1.9662965e-02
 -1.2567410e+00
 -4.8219356e-01
  3.7123808e-01
  2.1847708e-02
  2.9539299e-01
  1.3402623e-01
 -1.7713923e+00
  6.5875554e-01
 -1.1042642e-01
  1.0332143e+00
 -1.0284812e+00
  7.6199883e-01
 -3.2468002e+00
 -6.5561396e-01
 -1.1686083e+00
 -2.4934624e-01
 -9.8556626e-01
 -1.5578969e+00
  4.7329566e-01
  5.6189761e-02
  1.9393861e-01
  2.6194608e-02
  7.5515109e-01
  1.3419775e+00
 -8.6833036e-01
  1.2493330e+00
 -1.2502216e-01
  1.7608780e-01
  4.8524152e-02
 -4.8249371e-02
 -1.8689241e-02
  2.6535217e-02
 -4.3347731e-01
  9.6144193e-01
 -8.0976766e-01
  9.2153177e-02
  3.9387460e+00
  6.0942765e-02
 -1.9407529e-01
  3.1662449e-02
 -2.7315835e-03
  1.4420342e-01
 -7.4046779e-01
  8.4953833e-01
 -2.2530844e-02
  4.5622028e-02
 -1.7989501e-01
 -9.5959283e-02
  1.5592953e-02
 -2.2031747e-02
 -1.8099520e-02
  5.8193840e-02
  4.1141484e-02
  7.9412550e-02
  4.9744330e-02
 -9.2305489e-02
 -2.7654286e-02
  1.2063617e-02
  8.3798438e-02
  2.5106199e+00
  2.4140027e+00
  1.6391771e-01
 -5.8229911e-01
 -6.2026683e-02
  1.3543358e-03
 -2.1304544e-02
  7.0608978e-04
 -4.6317916e-02
  1.7801147e-02
  1.0214098e-02
 -1.0750938e-01
 -3.5584994e-02
 -2.5615942e-02
 -6.2171561e-01
  5.9010997e-02
 -9.1420837e-02
 -2.2487167e-01
  2.8443437e+00
 -2.5504582e-02
 -1.4257967e+00
 -2.7404663e-01
  1.9875155e-01
  3.7422284e-02
 -1.4380749e-01
  1.5658510e-01
 -2.9651977e-02
 -7.6600540e-01
  1.9056537e+00
  8.3623305e-02
  1.6585326e-01
 -7.7005967e-02
 -2.9990280e-02
 -1.7908764e-01
  5.6124218e-02
  4.4097158e-01
 -1.5836103e-02
  3.7116101e-01
 -1.1122396e+00
 -8.3067678e-02
  1.2546514e+00
  4.2899985e-02
 -9.5541224e-02
 -2.8532350e-01
  8.3177507e-01
 -4.5923907e-02
  3.6180672e-01
  3.7474480e-02
 -8.5727246e-03
 -9.3936756e-02
 -3.2807022e-01
  1.6375796e-01
 -2.7652049e-02
 -3.5207825e+00
  2.4108894e-02
 -8.4414595e-01
  2.8861082e-01
 -4.8547441e-01
 -1.0783491e-01
 -5.7404333e-01
 -1.2600006e+00
 -8.7619219e-03
  3.3803892e-01
 -2.4643032e-01
  3.0580215e+00
 -1.4846195e-01
 -8.7990366e-02
  2.9153377e-02
  5.3794872e-02
 -3.8200706e-02
  6.1149631e-02
  4.6312264e-01
 -4.0177152e-02
 -2.2517417e-02
  1.0180239e-01
  3.1973977e-02
 -7.2738513e-02
  3.8210582e-02
  8.8496506e-02
 -2.3224056e-01
 -9.4136447e-02
  1.7861708e-01
 -1.3451329e-01
 -5.0914086e-02
 -5.8749479e-01
  5.5166078e-01
 -9.8899615e-01
 -1.0800933e-01
  7.2024852e-01
 -2.8425205e-02
 -1.5348886e-01
 -1.7654373e-01
  1.6300924e+00
 -1.4824125e-01
 -1.3870735e-01
  8.9639765e-01
 -2.3527466e-01
 -6.9601715e-02
 -2.3813225e-01
  1.1066078e-01
 -4.7120728e-02
 -2.8028175e-01
  8.1626195e-03
 -2.0425268e-01
 -5.8110249e-01
  3.4363100e-01
  3.8878031e-02
  1.4055105e-01
  4.7137639e-01
  1.3122599e-01
 -1.2726933e-02
  1.0998520e-01
 -1.8130115e-01
 -9.9482423e-01
 -1.9152313e-01
  5.1395285e-01
 -4.1216893e+00
 -2.1070113e-02
  1.9154519e-01
 -7.2601505e-02
  1.7556861e-02
 -1.5436882e-01
  3.5014471e-01
  2.1320869e-01
  3.1919420e-02
  1.3508281e-02
  1.6500469e+00
 -1.8097755e+00
 -1.7851280e+00
  1.9513648e-02
 -1.0080962e-02
 -2.1310766e+00
  1.3080090e-01
 -1.4969019e+00
  2.4078391e-02
  1.2359708e-02
 -8.4886581e-02
  6.9758117e-02
  1.3251852e+00
 -2.1385102e+00
 -3.6333194e-01
 -1.4976703e-01
  6.9152735e-02
  1.1543466e+00
  8.2768643e-01
  4.0666494e-01
 -9.0044647e-01
 -7.0380604e-01
 -6.4969391e-02
 -3.2732689e+00
  7.4790817e-01
 -4.3189129e-01
  5.4683615e-02
 -4.4640559e-01
  1.6306804e-01
  1.8285045e-01
 -1.2236004e+00
 -2.7279789e-04
  2.4368292e-01
  2.8828493e-01
 -3.1357244e-02
  4.3405537e-03
 -1.8044391e-01
 -9.2646375e-02
 -9.1555423e-01
 -8.3662564e-01
 -1.1272562e+00
  4.0297937e+00
 -6.5478957e-01
  4.4315822e-02
 -2.4274711e-01
 -1.9380422e-02
  1.4044098e+00
  1.4501216e-01
  1.6691512e-01
  6.0702577e-02
  1.5632920e+00
 -4.1491192e-02
 -6.5866971e-01
 -8.0949187e-01
 -1.7878383e+00
 -6.5744436e-01
  1.7216753e-02
  1.1193779e-01
  1.2135988e-01
  2.0399537e+00
 -3.6378026e-02
  2.9656804e-01
  1.4330621e-01
  3.6016431e-01
  1.3522927e-01
  2.0051487e-01
 -1.2438774e+00
  1.6142461e+00
  2.8447831e-01
  1.1493366e+00
 -9.1623616e-01
  2.4620390e-02
 -7.1734548e-01
  1.7188481e+00
  1.3627578e-01
 -6.6422671e-02
 -1.8311125e+00
  1.9369366e+00
  9.6232128e-01
 -1.6485931e-01
 -8.7903672e-01
  4.0282878e-01
 -3.3526048e-01
 -1.9916807e-01
  6.5938890e-02
 -4.8694879e-02
  3.3851347e+00
 -3.2290310e-01
  1.2368435e-01
  2.6604560e-01
  1.8401339e+00
  3.5762995e-01
  1.6712476e+00
 -6.6408753e-02
  2.4385350e+00
 -5.4824764e-01
  1.5638771e+00
  2.3035289e-01
  1.7922854e-01
  1.0496053e+00
 -2.9275704e-02
 -4.5488885e-01
  2.6974982e-01
 -1.0611318e+00
 -1.7250523e-01
  1.8938249e-02
 -1.1243580e-01
  7.1435601e-01
  1.0659329e+00
 -7.3070258e-01
  1.2178494e-01
  1.7233516e-01
 -1.7366033e-02
  1.0410513e-01
 -7.8378886e-02
  1.5961020e-01
 -1.2947108e+00
  1.5407596e+00
 -3.8229579e-01
  3.1039640e-01
  1.2665437e-01
  2.2319457e-02
  9.6449599e-02
  9.2562951e-02
  9.0749271e-02
 -5.2652460e-02
  2.4727923e-01
 -7.2305195e-02
  1.3420257e-01
 -3.1506601e-01
  1.6999960e-02
 -1.5682545e-01
  2.7484575e-03
  1.8638083e-01
  1.9790120e+00
 -1.0127690e-01
  7.6090652e-01
 -4.0806230e-02
 -1.4852342e-01
 -1.0279204e-02
 -9.4312832e-02
 -7.8469652e-01
  1.1484645e-01
 -3.2056659e-02
  4.8567068e-02
 -7.2156541e-02
  7.1703970e-02
 -5.0053185e-01
  2.8885566e-02
  4.3114498e-01
 -2.2302445e-02
 -6.1987138e-01
 -3.1413254e-01
  3.0241030e-01
 -3.6525078e-02
 -6.9662780e-02
 -3.7675032e-01
  9.7495782e-01
  1.0711853e-01
 -7.9576984e-02
  5.1763162e-02
  1.0086779e-01
  1.2293544e-01
 -1.8153441e-01
  3.5250625e-03
 -3.6717683e-02
  1.9605724e+00
  1.8908753e-01
  5.8676369e-02
 -5.3697359e-02
  2.9154602e-02
 -7.6890022e-02
 -2.3090743e-01
 -8.1232280e-02
  1.6086062e+00
  2.2737839e+00
 -4.4186693e-01
 -1.9134791e+00
  7.7767663e-02
 -6.0201626e-02
  4.1724426e-01
  4.1670761e-01
  3.7152442e-01
 -6.2574553e-01
  1.5464318e+00
  3.6554217e-01
 -3.4039950e+00
  1.8791189e-02
  3.0636358e-01
  1.2897466e-01
 -2.0281073e-01
  3.6738577e-01
  1.2240788e-01
  3.7381791e-02
  1.4951456e-01
 -5.4759692e-02
  6.5441474e-02
 -4.0280353e-03
  1.2779781e-01
  9.0455300e-01
 -2.6598418e-01
  7.2595939e-02
 -5.4282016e-01
  1.5920664e+00
  1.6806930e-01
 -1.7807601e-01
  7.8869369e-03
  1.4911489e+00
 -6.1659846e-02
 -2.1754496e-02
 -2.6672414e-01
  1.4486078e-03
 -5.6161303e-02
 -6.7494400e-02
 -1.5435939e-01
  1.1526136e+00
  1.2498166e-02
 -3.4242346e+00
  7.8029476e-02
  2.8547412e-03
  1.0093055e+00
  8.0888122e-03
  9.7148433e-02
  1.8059440e-02
 -9.1189146e-01
 -6.8408730e-03
  5.8137037e-02
  3.0047876e-01
 -3.4101081e-01
 -2.0339744e-01
  4.4073406e-01
  9.0420085e-01
 -1.5512751e+00
 -1.2211665e-01
  1.0161065e-01
 -2.0530400e+00
 -5.3918946e-01
 -3.2422522e-01
  5.5980414e-01
 -1.0163913e+00
 -1.5747783e-01
 -4.7399405e-02
 -8.5869741e-01
 -1.7868372e+00
  2.4097063e-02
 -2.4805906e-01
 -3.8968423e-01
  9.9733937e-01
  4.6707267e-01
 -4.8020549e-02
  1.0748179e-01
 -1.3477263e-01
 -1.2461982e+00
 -2.0233130e-02
  2.3822747e-01
 -2.0298499e-01
  1.3956621e-01
  7.8792739e-01
 -4.0413466e-01
 -1.2978566e-01
 -4.3743417e-02
 -1.9920712e+00
 -2.1767153e-01
  8.2129300e-02
 -2.9884422e-01
  9.8854661e-02
 -3.2589953e+00
 -9.2509061e-02
 -4.2377088e-02
 -9.6686447e-01
 -1.4426242e-01
  7.5694454e-01
  3.1234476e-01
 -6.0961090e-02
  1.0016155e-01
  6.8437725e-01
  1.9258758e-01
 -1.1996154e-01
 -1.4337882e-01
  1.6688995e+00
 -9.8493382e-02
 -2.7475093e-02
 -1.3839193e-01
 -1.3360780e-01
 -6.3938037e-03
 -3.5727394e-01
 -1.4471623e-01
  2.8465793e-01
 -2.0038431e+00
  9.9416941e-01
  1.4304873e-02
  1.4695115e-01
  2.7467825e-02
  5.9716038e-02
  2.0928556e-01
 -7.6923126e-01
 -9.5588647e-02
 -3.1798849e-01
  3.9718479e-02
 -8.5015953e-02
  1.5812571e-01
 -4.1805220e-01
 -1.2879391e-01
 -2.4932411e-02
 -5.0594192e-03
 -1.1086792e+00
 -1.8175863e-02
  1.2924001e-01
 -4.5391254e-02
  3.8626049e-02
 -1.1944713e-01
 -6.8793215e-02
 -2.8279570e-01
 -8.2722318e-01
  7.1878664e-02
  6.8754107e-02
  3.4920546e-01
  1.7795925e-01
 -2.1742452e-02
 -2.9954974e-02
 -1.4287387e-03
 -9.5295638e-02
  1.7423578e-02
 -8.3813639e-03
  1.1275391e-01
  2.8560186e-02
  1.8433537e-01
  8.7593094e-02
 -1.8532474e-01
  1.6343251e-02
  9.0784259e-02
  4.2521890e-02
  1.6321802e-01
 -7.0476815e-02
  6.9838369e-01
  3.9551940e-02
  3.4935272e-01
  1.2655199e+00
  4.5560088e-02
 -5.7721949e-01
 -7.0967562e-02
  3.9004814e-02
 -9.0414390e-02
  1.5762584e-01
 -4.1238534e-01
  4.7218561e-01
  4.4985879e-02
  5.1039505e-01
  1.9159365e-01
  3.5615405e-01
  6.0503757e-01
  1.6776893e-02
 -4.6389345e-02
  8.5042715e-02
  4.1479144e-02
 -2.3934843e-02
  2.1927640e+00
 -1.0901727e-01
 -1.4678519e-02
  4.6346363e-01
  9.0757900e-01
  1.7015055e-02
  1.2566659e-01
 -6.6439621e-02
 -1.9013393e-01
 -8.8500732e-01
 -4.1208304e-02
  2.2740477e-01
  2.5572324e-01
  3.1541145e-01
 -1.3319707e-01
 -1.9877660e-01
 -9.7839013e-02
 -5.0005827e-02
 -4.5747614e-01
 -6.2926337e-02
  8.5649779e-05
 -2.2281338e-01
  2.2580358e-01
 -2.0701665e-01
  1.1795267e-01
  3.0677941e-02
 -1.4591847e-01
  1.6035211e-01
  1.1570798e-01
 -8.6308129e-02
  1.1054547e-01
 -7.5079119e-01
 -1.0482620e-02
 -7.2711982e-02
  1.0722536e+00
 -1.1837964e-03
 -7.8717582e-02
 -4.5695183e-01
  3.0702737e-01
 -7.9355371e-01
 -1.0635387e+00
 -8.8364089e-01
  3.4343976e-01
  1.0792917e-01
  2.0914750e-01
 -1.0323575e+00
  1.8556243e+00
 -3.7306440e-01
  2.6564896e-01
  2.7253985e+00
  1.3920923e+00
 -1.5146972e+00
 -2.2513472e-02
 -4.5305029e-01
 -7.8894687e-01
  1.6400661e-02
 -5.4148465e-01
 -3.4799114e-02
  1.0000490e+00
 -9.6829486e-01
  6.7306764e-02
  8.5980874e-01
  7.7858996e-01
 -4.0231937e-01
  3.1450081e+00
 -5.0194687e-01
  2.5533244e-01
 -5.4243749e-01
 -1.1172567e-01
 -9.9414200e-02
  3.1470490e-01
 -1.5070283e+00
  7.1705550e-01
  7.5202072e-01
 -9.3995196e-01
  1.8794808e+00
  3.1569296e-01
  1.2244228e-01
 -4.2428792e-01
 -4.4602402e-02
 -1.0636339e-01
 -1.4735198e+00
  2.4368995e-01
  3.3010900e-02
 -5.4803960e-02
 -2.6235548e-01
 -8.1522506e-01
 -6.8608887e-02
 -1.4950539e-01
  2.6855488e+00
 -5.8359519e-02
 -1.8698970e-02
 -2.0577691e+00
 -7.1893811e-02
  4.8936266e-02
 -5.4196432e-02
  4.9219370e-02
 -6.2683761e-02
  9.8090088e-01
  7.0481561e-02
  8.4051527e-03
  4.5098402e-03
 -3.6360822e-03
 -3.7244957e-02
  5.1847517e-02
  2.6918921e-01
 -2.9870373e-01
  1.5984230e+00
  1.0757626e-02
 -1.6566342e+00
 -7.5150505e-02
 -5.6628354e-02
  1.6846606e-01
  3.8660860e+00
  1.1117958e-02
  5.4652758e-02
  1.1344345e-02
 -5.2059376e-01
 -3.5745990e-02
 -9.4472412e-03
 -1.5709409e+00
 -9.6530549e-02
 -3.6265019e-02
 -2.2588450e-01
 -2.5640575e-02
  1.6642193e+00
 -3.9391005e-01
  2.5057361e-01
 -7.6551057e-02
  1.1422469e-01
  3.5203777e-02
  3.1407344e-01
  4.7320213e-02
 -1.0880636e-01
  6.8321198e-02
 -9.3155903e-01
 -1.0790654e-01
  5.8409408e-02
  1.9346617e-01
  3.9368168e-02
  2.9474276e-01
  3.2983348e-02
  1.3473872e-02
 -3.7049294e-01
 -1.0648937e+00
  3.1435412e-01
  2.0248981e-01
 -8.4334448e-02
 -5.5861461e-01
 -6.3771838e-03
  4.4247037e-01
  2.2142366e-02
  4.4410009e-02
  9.9303313e-02
 -9.1874582e-01
  1.7331799e-03
 -1.7982143e+00
  3.6663654e-01
 -1.0422117e+00
 -4.0954557e-01
 -2.8811023e-03
 -2.1271659e-02
 -1.7206615e-01
 -9.7243071e-01
  4.1378909e-01
  1.7890926e-01
  1.1634269e-02
  2.0553966e-01
 -2.5297886e-01
  5.5501357e-02
 -2.5738509e-02
 -9.1393822e-01
  9.5409788e-02
  1.5671132e-03
  7.0554063e-02
 -9.1339663e-02
  2.6679805e-01
  1.1503018e-02
  7.2184458e-02
 -7.3425531e-02
  1.5306714e+00
  8.9772776e-02
  7.2995245e-02
 -5.0958946e-02
  9.0924144e-02
 -5.8637697e-01
  2.1186715e-01
  9.0107573e-03
 -3.8289197e-02
  5.7129771e-02
 -2.1481551e-02
  9.4369896e-02
 -1.1149374e-01
 -2.0694442e-01
  3.4447551e-01
  7.6604366e-02
 -5.4061025e-01
 -1.4173415e+00
  2.2502968e-01
 -2.8900020e+00
 -1.7436205e+00
  1.8111131e-01
 -6.0841596e-01
 -3.6623452e+00
  1.1373578e+00
 -3.4269676e-01
  2.0121519e-01
  8.1997402e-02
  1.9480227e-01
 -5.1321924e-02
  6.2131874e-02
  3.0850361e-03
  2.5701198e-01
  7.9702418e-03
 -2.6184186e-01
 -2.4865437e+00
 -6.8363678e-03
  7.0346260e-01
  2.7875791e-03
 -8.0905929e-02
  6.5532081e-02
  2.0905463e-01
  3.5831587e+00
 -1.3931553e-01
  8.9922443e-02
 -4.3411115e-01
 -4.5315281e-01
 -9.1275704e-01
  8.8250041e-03
  1.2168023e-01
  1.0430843e+00
  3.7089799e-02
  1.5171033e-01
 -2.3613010e-02
  1.1936714e-01
 -5.2060729e-01
  2.8423185e-02
 -7.1241848e-02
  1.1652896e+00
 -3.9183669e+00
 -3.4278054e-02
  3.0009476e-02
 -3.4052929e-01
 -8.2880318e-02
 -1.3803692e-01
  1.2499347e-01
 -3.7318861e-01
 -3.0270204e-01
 -2.4834621e-01
  7.6441444e-04
  8.1053460e-01
 -6.1673397e-01
 -1.9324782e-01
 -8.7730342e-01
  1.1430939e+00
  1.2181077e+00
 -2.3569534e+00
 -4.4867867e-03
  8.7079716e-01
  1.7046371e-02
  1.5610498e-01
  5.2933538e-01
  1.0720742e-01
  6.9438010e-01
  7.6377153e-01
 -2.1957117e-01
 -9.6344239e-01
 -2.0721583e+00
  7.8373991e-02
  2.7053449e-01
 -7.9888862e-01
  6.0372245e-01
  3.6734828e-01
  6.0050350e-01
 -8.4610456e-01
  1.2773243e+00
 -7.8313482e-01
  8.2846534e-01
  5.3818500e-01
 -6.3014247e-02
 -1.0604616e+00
 -2.2522264e+00
  7.9405046e-01
 -7.7716298e-02
 -8.1995851e-01
 -9.8274165e-01
 -6.2724346e-01
 -8.4698610e-03
 -8.6436599e-01
  3.3624956e-01
 -7.7027839e-01
 -9.3640864e-02
 -3.9998662e-01
 -2.1500243e-01
  1.2575300e-01
  5.5526859e-01
  5.3760868e-01
  5.3987551e-01
 -8.4113526e-01
 -5.0778949e-01
  1.1401633e+00
  2.8832850e-01
 -4.8878780e-01
 -9.1250592e-01
  2.3094009e-01
  1.2295691e+00
  8.0998027e-01
 -1.1197778e+00
  2.6053095e-02
 -1.4731889e+00
 -5.6177747e-01
  1.1245044e+00
 -1.8725604e+00
 -2.9587105e-01
  1.2080793e+00
 -1.1125674e+00
 -7.3785877e-01
  1.4647481e+00
 -9.3405360e-01
  1.3423231e-01
  7.0967454e-01
 -2.1106708e+00
  8.3271581e-01
 -1.9290988e+00
 -1.5098041e+00
 -7.4773231e-03
  1.0440724e+00
 -3.6386704e-01
 -9.9402361e-02
 -8.4942371e-01
  1.0877681e+00
  7.2071835e-02
 -2.0700249e-01
 -3.4799090e-01
  2.6696137e-01
  3.5784364e-01
  2.8429109e-01
  3.4800898e-02
 -7.2851509e-01
  2.7217323e-02
 -6.2386256e-01
 -9.1477835e-01
  7.8646846e-02
  5.7383311e-01
 -5.1549131e-01
 -1.1150022e+00
 -3.6576572e-01
 -4.5734170e-01
 -5.7284709e-02
  1.5728123e-01
  1.3193682e+00
 -2.5801602e-01
 -7.8713524e-01
 -4.2937487e-01
  7.3862322e-02
  6.6280621e-01
  7.5219315e-01
 -1.0644157e-01
 -7.1965224e-01
  8.2287300e-01
 -8.0595261e-01
 -1.2371474e-01
  5.6982857e-01
 -6.7045462e-01
 -2.0246720e-01
  3.8210124e-01
 -5.7659268e-01
  5.4025523e-02
 -2.5817055e-01
  2.5238220e-02
 -5.6147379e-01
 -3.1256955e-02
  1.4608988e-01
 -7.9207331e-01
  1.5615954e+00
  9.2168218e-01
  2.5404465e-01
  7.0892863e-02
 -7.1041453e-01
 -6.2272781e-01
 -5.0357264e-01
 -1.0368195e+00
 -1.6861089e-01
  3.7199619e-01
  9.8758644e-01
 -3.2239184e-01
 -1.3017596e-01
  7.7185404e-01
  5.9949324e-02
  7.1660918e-01
  3.7175897e-01
  3.8265052e-01
  1.3469988e+00
  3.6295420e-01
 -9.0681583e-01
  6.4069062e-01
  2.6879728e-01
 -1.6872818e+00
 -2.7050141e-01
 -1.1127406e+00
 -3.9131138e-01
 -1.8211019e+00
 -2.5927237e-01
 -9.8334646e-01
  1.8044463e-01
  1.3864250e-01
  9.9818528e-01
  1.4047606e-01
 -1.5791619e-01
  3.2096139e-01
 -2.1392102e+00
  2.6778656e-01
  4.7595549e-01
 -2.3360257e+00
 -1.3908632e+00
 -4.9104910e-02
  1.4276341e+00
 -3.9592735e-03
  2.5372509e-02
  5.8212206e-02
 -4.5945892e-01
  2.0365366e-01
  2.7281504e-02
  1.0008367e+00
 -5.4563224e-01
  4.9314383e-01
  5.0465602e-01
  5.5450860e-02
 -2.7049583e-01
  1.2980334e+00
  3.6069107e-01
  1.7979615e+00
 -1.9004550e+00
  1.7158431e-01
  8.4741097e-03
  6.1488318e-01
  1.0287137e+00
 -1.7152934e+00
  5.2533641e+00
 -1.5533506e-02
 -1.0250292e-01
 -1.2630568e+00
 -1.3122051e+00
 -1.6390399e+00
 -7.3916510e-02
  6.9948152e-02
  4.2893088e-01
  2.5151947e+00
  2.9084249e+00
  1.9443362e+00
 -1.1982550e-01
 -2.3386131e-01
  4.5708101e-02
 -2.6547103e+00
 -1.7353853e-02
  2.3390086e+00
  3.2729261e-02
  1.4942396e-02
 -1.7047636e-02
  1.7120994e+00
  2.2707221e-01
  2.3306489e-02
  5.6143320e-01
  6.7081356e-01
 -2.8036018e-03
  4.9173039e-01
 -1.0768076e+00
  5.1484181e-04
  1.0913732e+00
  4.8426700e-01
 -4.9303913e-01
 -2.9019980e-02
 -7.2236496e-01
 -4.4755150e-02
 -1.9919802e-01
 -3.5030171e-01
 -4.6253705e-01
  2.0227087e+00
  1.7364508e-01
  1.4976170e+00
  4.6221443e-02
  1.2281448e-01
  9.0454257e-01
  9.5061902e-03
 -1.3398473e-01
 -7.6161581e-01
 -4.0925655e-01
 -2.5759816e-01
  1.2275459e-02
  1.6987644e+00
 -1.4514160e-02
  5.4526949e-01
  2.9037496e-01
 -1.1387638e+00
 -6.5100443e-01
 -5.3936955e-02
 -2.3513487e-02
 -7.3402876e-01
  3.0934615e+00
 -7.0683509e-02
 -2.8437069e-02
 -1.4147657e-01
  1.0287048e-02
 -1.4106198e-02
 -1.2428788e+00
  4.7249518e-02
 -8.3516829e-02
  1.7616233e+00
  1.8628310e-02
  1.7400749e+00
 -2.2088493e-01
 -6.7347609e-02
 -1.3688783e-01
  3.6364591e+00
  1.8414329e+00
  1.0662153e-01
 -3.6004394e-02
  6.5187991e-02
  8.4613170e-03
 -1.1363313e-01
  2.8309152e-03
 -2.6255121e+00
 -6.1442375e-02
 -3.2333162e-02
 -1.2411565e-01
  2.3876311e-02
  2.1366882e+00
 -1.8042047e+00
  7.5094802e-03
  5.4524735e-02
  1.7041400e-02
 -5.7351726e-01
  8.7974146e-02
 -2.2073691e+00
 -1.0614394e-01
  1.4626588e+00
 -3.6440941e-03
 -7.8143299e-02
 -2.4611464e-02
  6.1588651e-01
  1.5575969e-01
  1.6797017e-01
 -2.1877098e-01
  4.8052795e-02
  4.7991360e-03
  1.0361893e-01
 -2.2046460e-01
 -4.0685067e-01
  1.9934401e-01
 -4.0112691e+00
  1.1676963e-01
 -2.3383532e-02
  1.6878784e-01
 -1.7152265e-02
 -1.5638105e+00
  4.8520118e-02
 -2.9040160e-02
  3.8641635e-02
 -2.3870450e-02
  1.3221312e-02
 -7.6625311e-01
 -5.1560140e-01
  5.5453987e-03
 -8.9905053e-02
 -1.6406750e-02
  5.3189587e-02
 -1.3052843e+00
 -5.4795399e-02
 -1.1076522e-01
  2.2750998e-01
  8.8133317e-01
  4.0887332e-01
 -1.8246553e+00
 -2.4598356e-02
  1.2741855e-01
  3.3089940e-02
 -1.2171186e+00
 -5.2778202e-01
  2.3467579e-01
 -2.8405994e-01
  8.6635053e-02
 -1.3931539e-03
  7.5801633e-02
 -8.1582524e-02
  2.4561463e-01
 -8.8869460e-02
  2.2137465e-02
 -5.0250882e-01
  1.1447519e+00
 -4.6252552e-01
  1.4218462e-02
 -1.3099334e-01
  1.1757380e-01
 -1.3584451e-01
  3.7025668e-02
  7.4800529e-02
 -1.4928365e-03
  4.1348413e-02
 -1.8529889e-01
  9.4931342e-02
 -1.7856053e+00
 -2.0650903e-02
 -1.8909425e-01
 -4.6855465e-02
  2.7273605e-03
 -7.9390839e-02
 -2.0502087e-01
  6.9799915e-02
  3.9638780e-02
  4.8211783e-01
  3.6169857e-02
 -1.2811540e-02
 -7.8028864e-01
 -1.0207085e-02
  5.7162203e-02
  9.9485755e-01
  1.1107545e-02
 -6.8624556e-02
  1.0941884e-02
  8.7929845e-02
  3.1830519e-01
  2.3185812e-02
  8.8386998e-02
 -4.1509745e-01
 -1.7329361e-01
 -5.0952876e-01
 -5.5892789e-01
  5.7890850e-01
  8.9530092e-01
 -6.8925999e-02
  2.4816158e+00
 -4.5187297e-01
 -5.9149534e-01
  1.2694489e+00
 -3.5705652e-02
  1.5429305e+00
 -2.2958419e+00
 -6.5540224e-01
 -1.1912351e-01
  7.0651937e-01
  1.5753964e-01
  2.0703609e-01
 -2.4403005e+00
 -1.6196553e+00
  3.3840783e-02
  2.4668450e+00
 -2.0121397e-01
  6.7227840e-01
  2.8140321e-01
 -2.4184696e-02
  3.0095127e-01
 -2.7185547e+00
  1.6500559e+00
 -2.2862034e+00
  3.4476781e-01
 -7.5387314e-02
  1.4028135e-01
  1.1689712e+00
 -6.3127273e-01
  3.5724619e-01
  3.1850308e-01
  1.3929202e-01
  9.5933211e-01
  2.1835728e+00
  8.2153380e-01
  1.9766746e-01
  8.8827270e-01
  1.4981571e-01
  1.1051005e-03
  1.3127501e+00
 -3.8685566e-01
  6.4290959e-01
  9.2582494e-02
 -3.0327067e-01
 -4.3600786e-01
 -5.1625323e-01
  1.2507811e-01
 -2.8095096e-02
 -1.8750799e-01
  7.3736089e-01
 -1.3619429e-01
  2.7242528e-02
  1.6837600e-01
  5.3987026e-01
 -1.7070385e+00
 -5.6141745e-03
  1.4321145e+00
  3.1594810e-01
  5.5648931e-03
 -9.9915731e-01
  2.2865884e-02
 -8.6192989e-01
  4.2643863e-01
 -1.9544154e+00
 -7.7257353e-01
 -1.1367892e-01
 -3.6283424e-01
 -8.0527514e-01
 -4.5179594e-01
 -6.1534441e-01
 -4.9165111e-02
 -3.0774161e-01
  4.6287367e-01
  1.9316515e-01
  7.7020514e-01
 -1.0249925e+00
 -2.2581092e-01
  1.2265737e+00
  5.0733030e-01
 -7.8805703e-01
 -8.7646091e-01
  4.8496625e-03
  1.0941070e+00
 -8.4431637e-03
 -3.6555079e-01
 -3.9519697e-01
  5.3735566e-03
  4.9829179e-01
 -3.9176011e-01
  6.3949779e-02
  1.2210661e+00
  1.8477651e-01
 -7.8448571e-02
  9.4171578e-01
 -8.8818067e-01
  6.9274497e-01
 -5.3267218e-02
  9.2468020e-03
  1.4399936e+00
 -8.3614588e-01
 -3.8162060e-04
 -2.0876285e-01
  5.9231628e-02
 -3.1944949e-02
  6.0753965e-01
 -1.0596341e-01
  1.4268056e+00
 -5.3271227e+00
  2.4848175e+00
 -3.5609569e-02
 -1.1288719e+00
 -3.4220309e+00
 -4.6495509e-01
 -2.3138666e+00
 -1.4036154e+00
  2.7452521e+00
  6.2541820e-02
 -4.5826113e-01
 -9.1019988e-01
  3.2955942e-01
  3.8743010e-01
 -3.6204883e-01
 -1.0994759e+00
  6.4209968e-01
 -1.7412503e-01
  1.6527949e-01
  3.8459319e-01
 -8.5983194e-02
  2.7171409e-01
  3.8484504e+00
  6.4560962e-01
  3.5584089e-01
 -1.5508490e+00
 -9.2883587e-01
  1.5767009e-03
 -2.4742491e+00
  1.0570611e+00
 -2.4518338e-01
  1.8015181e-01
  1.5435004e-01
  7.4270421e-01
  3.5414674e+00
 -7.0169365e-01
 -2.6267076e-01
  1.4524231e+00
 -9.0040207e-01
  1.3908839e+00
  8.3735079e-01
  6.5480810e-01
 -1.0354275e+00
  8.1947541e-01
 -1.8229280e+00
 -1.0062394e-02
 -1.5217675e+00
  5.9677243e-02
  4.5760222e-02
 -2.0819776e-01
  4.3433309e-01
  1.6767915e-01
  3.4593433e-01
  2.4136114e-01
  6.1567379e-03
 -3.7984036e-02
 -1.8024431e-01
 -1.7009543e+00
  1.8513197e-01
  4.0415370e-01
 -1.2305732e+00
 -1.0336449e-02
  4.5192499e-02
  3.6503166e-02
  1.4758430e-01
 -8.8552225e-01
 -2.2384662e-02
 -1.7764142e-02
  1.9414650e-01
  1.5013429e+00
  1.6824010e-01
  3.7981510e-02
 -5.4615963e-02
  2.0149355e-01
  3.6814591e-01
 -3.1873176e-01
 -2.5268760e-02
 -7.1418709e-01
  7.0283234e-01
  1.4576344e-02
  4.5951504e-01
  2.2820579e-02
 -2.5778377e-01
  7.1138903e-02
 -1.4361893e-01
 -1.6573079e-01
 -4.8842728e-02
 -5.0984100e-02
  4.2810282e-01
 -1.8550482e-01
 -3.0466601e-02
  1.7484193e+00
  7.4668750e-02
 -7.1460098e-02
  3.3784103e-02
 -1.1137705e-01
 -4.6434035e-03
 -3.6644039e-01
  4.6205074e-02
 -1.8028699e-02
  2.1576960e-02
  1.6264503e-01
  1.1544037e+00
  8.5964698e-01
 -5.5850547e-02
  2.2029789e-01
  3.9238131e-01
 -1.3160744e-01
 -2.1099329e-01
  9.2242904e-02
  6.4902534e-03
 -2.6068327e-01
  7.3839493e-02
  7.4852116e-02
  9.4759125e-01
 -6.2586367e-01
  2.8578522e-02
 -1.5666756e-01
  1.4283577e+00
 -3.1735498e-02
 -1.2502490e-01
  1.4555322e-01
 -1.8640292e-01
 -2.9014373e-02
 -1.5800802e-02
  8.1717648e-02
 -1.1038949e-01
 -4.3179575e-01
  1.8524230e-01
 -3.5123128e-01
  5.3800184e-01
  1.4164940e-01
 -1.3615092e+00
 -4.7270828e-03
  5.1565874e-02
 -1.4871818e-01
  2.1385911e-01
 -8.3409622e-02
 -1.1937750e-02
  5.5133175e-02
  1.6478693e-02
  4.5450500e-01
  1.6016630e+00
 -1.6817074e-02
 -8.0144420e-02
  4.9059398e-02
 -5.1729713e-02
 -1.2059535e-01
 -7.2101498e-01
 -1.0661087e-01
  2.1243642e-01
 -5.9570986e-01
 -5.8416158e-02
 -6.7122579e-02
 -1.9689009e+00
 -1.2555913e-02
  5.0204825e-01
 -1.1636393e+00
  1.0568139e-01
 -2.8842533e-01
 -5.0874937e-02
 -5.9444290e-01
 -6.3526849e-03
 -4.6020615e-01
 -4.2939451e-01
 -9.7897775e-02
 -5.5784672e-01
 -4.1372740e-01
  8.7492490e-01
  8.4785247e-01
  3.2491153e-01
 -3.1259315e+00
 -2.5203928e-01
 -7.8930581e-01
 -3.5262597e-01
  5.0683680e+00
 -1.3610674e-01
 -8.5332739e-01
  2.2880258e-01
 -1.5363000e-02
  6.4750093e-01
 -6.4381552e-01
  3.4142599e-02
 -1.0252231e-01
 -8.1190497e-02
  5.4525501e-01
 -4.0230675e+00
  3.2542363e-01
  4.6489105e-01
  1.0724171e-01
  6.5835994e-01
 -1.4839061e+00
 -5.9660679e-01
  2.2813421e-01
 -4.2828992e-02
  6.3504750e-01
 -4.2651755e-01
  2.7855414e-01
  1.1112330e-01
 -1.0409375e+00
  1.1239901e-01
  2.4786172e-03
  4.1581863e-01
  8.6629063e-02
 -7.4638702e-02
  2.1652928e-01
 -3.5724536e-01
  1.8542495e-01
  2.6800275e-01
 -2.5059018e-02
 -5.6717075e-02
  4.8517942e-01
 -3.4700873e-01
 -9.9504346e-01
  2.3277459e-01
  7.8653580e-01
  1.7700448e+00
  6.3093401e-02
 -7.7633776e-02
  1.4032531e+00
  5.1392972e-01
  5.8052260e-03
 -2.6364112e-01
 -3.8892996e-02
 -1.1816051e-02
 -9.0850568e-01
  3.1402297e+00
 -2.6716012e-01
 -5.2111727e-01
 -1.6105074e+00
 -6.4782190e-01
  1.0802183e-01
  2.1979828e+00
  1.6043535e-01
  1.1368294e+00
 -1.3984369e+00
 -4.8613615e-02
 -7.6949769e-01
 -3.6050729e-02
 -7.0953429e-01
 -4.7158289e-01
 -5.9005763e-02
  2.1610825e+00
 -7.8294808e-03
 -2.9101320e-02
 -3.0248746e-01
  8.4955013e-01
 -1.0333579e-01
 -8.4602050e-02
 -1.2061382e-01
 -4.1647151e-02
 -2.2217472e+00
 -1.1123601e+00
 -2.7680874e-01
  2.5313601e-02
 -2.8727195e+00
 -1.3938084e+00
  1.7531678e-01
 -1.5367811e+00
 -1.8004718e+00
 -1.6623957e-01
  4.7514071e-03
  9.6093073e-02
 -1.6880736e-02
 -2.2163760e-02
 -7.7030635e-01
  7.7460039e-01
 -1.9709268e-01
 -2.2428017e+00
 -9.0681005e-01
  1.6545556e-01
 -3.5198119e-01
  2.0188124e-01
 -3.6680698e+00
  4.2307365e-01
  3.3882377e-01
 -1.3684968e+00
  9.3999684e-01
  7.7228695e-01
 -2.9315239e-01
  7.2677636e-01
  8.0922313e-02
 -3.2935996e-02
 -7.0071936e-02
  1.4256980e-01
  2.3314540e+00
 -1.2653545e+00
 -6.9071919e-01
 -1.8431219e+00
 -5.6423551e-01
  1.4183733e+00
 -3.4485873e-02
  1.0921890e+00
 -6.5002066e-01
 -3.6985105e-01
  8.8111013e-01
 -1.5620297e+00
  9.3649127e-02
 -2.6727288e+00
 -7.2467589e-01
  1.0054474e+00
  1.8281889e-01
  4.3266770e-01
 -4.5295651e-03
 -1.2661752e+00
  3.2147115e-01
 -1.9866626e-01
  2.0975866e+00
 -9.8740403e-04
 -3.0741677e-01
 -1.0593411e+00
  1.0388755e-01
  1.0642686e+00
  6.9427347e-01
 -3.1894654e-02
  1.1750087e+00
  2.1553683e+00
  1.5338831e-01
  4.6407881e-01
  9.3524642e-02
 -2.4295644e-01
  4.5585480e-01
  2.1385187e-01
 -5.6881232e+00
 -1.2765659e+00
  1.4891796e+00
 -8.8718754e-01
 -5.6269560e-02
 -1.5355790e+00
  3.6913924e+00
  2.4963303e-02
  3.7586695e-01
  1.8750315e+00
  7.3554659e-01
 -3.4342819e-01
  3.8880053e+00
 -2.3629215e-02
  2.9768422e-02
  3.7483194e-01
  1.2243166e+00
  1.1648303e-01
  2.6961306e-02
  1.6702911e-02
 -1.2545381e+00
  1.0267338e+00
 -7.6496333e-01
  1.1976124e-01
  3.6219694e-02
 -2.2600725e+00
  2.7343699e-01
  3.9947611e-01
 -1.9302281e+00
  8.4234589e-01
  1.3554887e+00
 -1.3134121e+00
  1.3558966e-01
 -3.9108139e-01
 -2.8507867e-01
 -2.4939004e-01
 -2.3227129e+00
 -3.9592583e-02
  5.2185071e-01
  1.2369183e-01
  5.8825439e-01
  1.1242435e+00
 -7.9565197e-01
  6.3427365e-03
 -8.2475670e-02
 -4.2643851e-01
  5.9597224e-02
 -2.0704477e+00
 -3.0058263e-02
 -1.0460169e-01
  6.5786010e-01
 -2.1153158e-01
 -1.3530339e+00
 -5.5386889e-01
 -2.0483718e+00
  1.8796808e-01
  4.1398835e-01
 -6.1692792e-01
  6.6153437e-01
  1.3902441e+00
  4.4587892e-01
 -1.7938826e+00
 -6.8172425e-01
 -1.7997874e+00
 -7.4738508e-01
  1.0660815e+00
  3.0868179e-01
  7.8463924e-01
  1.1051158e+00
  2.6668830e+00
 -9.3450987e-01
  1.9222291e+00
 -5.5901843e-01
 -8.3430177e-01
 -5.8266824e-01
  2.2183109e-02
 -4.1525143e-01
  1.2094493e+00
  1.2451189e+00
 -2.5909460e-01
 -8.3282989e-01
  7.7106792e-01
  4.9837313e+00
  9.9789746e-02
  6.9893382e-02
  1.4534869e+00
  2.7412281e+00
  6.2749356e-01
  1.0823944e-03
 -1.3438070e+00
  8.4803450e-01
 -6.8343282e-02
 -9.2790395e-02
  1.1075571e-02
 -8.2894668e-02
  4.6233779e-01
  2.4609482e-01
  7.0104742e-01
  6.0581881e-01
  6.5210062e-01
 -2.4968321e+00
 -8.9970207e-01
  2.1523529e-01
  3.4814202e-03
 -9.7099811e-02
 -1.8256612e+00
 -6.4605808e-01
 -1.1579008e+00
 -1.8948843e-01
 -1.0242927e+00
 -3.3009176e+00
 -3.8877752e-01
  1.5683715e-01
 -5.3533292e-01
 -6.1611261e-02
 -6.8623734e-01
 -8.2703841e-01
  4.9566623e-02
 -3.3703007e-02
 -1.5673251e+00
  9.6935469e-01
  2.2448878e-01
  3.0242157e-01
 -2.4298351e+00
 -2.0294769e-01
 -1.9774891e+00
  1.6909586e-02
  1.1576597e-01
  1.4263977e-01
  4.2986195e-03
  9.1904283e-02
 -2.8685598e+00
  1.3838519e-01
  1.0190856e-01
  7.9045407e-02
  1.9499226e+00
  3.8649759e-01
  1.4852825e+00
 -5.4540724e-01
 -1.1131198e+00
  1.0006401e-01
  5.9443984e-02
 -1.0028600e+00
 -7.3146093e-01
  1.9659091e-02
  6.0450912e-02
 -1.8974694e+00
 -9.9723056e-02
 -2.6849550e-01
 -1.7675276e+00
 -2.0845303e-01
  5.3781039e-01
  1.3376030e-01
 -4.1841570e-02
 -1.4928713e-01
  1.2317572e+00
  4.5434991e-01
 -1.2882624e+00
  1.2696273e+00
  5.3893100e-02
  8.9803718e-02
  9.1213065e-01
  1.0694574e-02
  1.2587200e-01
  1.2359349e+00
  1.1653121e+00
 -5.0549705e-02
 -1.6012746e+00
 -1.9366434e-02
 -1.0879029e+00
  1.2066510e+00
 -2.7365801e-01
 -6.9622055e-02
  1.1722690e+00
  6.5685749e-02
  4.8215818e-02
  5.4948443e-01
  6.3308729e-03
  3.2229948e+00
  8.2607198e-01
  1.0638747e-01
  4.6229494e-01
 -1.1636661e+00
  7.4296668e-02
  4.7548157e-01
 -6.8383902e-01
  1.5336607e+00
 -2.6517531e-01
  2.4148452e+00
  1.8028141e+00
  2.2345946e+00
 -4.4686604e+00
  2.7691616e-02
  2.0647600e+00
  2.8071830e-01
  4.8465826e-02
 -2.2078483e+00
  2.7827618e+00
  4.4363201e-01
 -2.7695475e-02
 -1.2206500e-01
  4.8487779e-02
 -2.8121211e-02
 -1.2217965e+00
  4.7102373e-02
 -1.1865454e-01
 -8.6204433e-01
 -5.9554640e-02
 -4.3735869e-02
 -8.9564884e-01
  2.9082221e-01
 -1.0899416e+00
  1.6764750e-01
  1.5553719e-01
 -2.8019218e+00
  5.5109441e-01
  2.4346111e+00
 -3.6896145e+00
  4.3439966e-01
  5.7109740e-02
 -7.9674464e-01
 -6.8684572e-01
  3.1388724e-01
  1.6382674e+00
 -1.6935652e+00
 -4.7378877e-01
  1.9691265e+00
  1.4707013e+00
  5.3152597e-01
 -5.5529319e-02
 -7.2364646e-01
 -1.3515507e+00
  1.5536122e-01
 -6.4222649e-02
  5.6722397e-01
  1.6603507e-01
 -1.1325748e-01
  2.1264670e+00
 -3.0674548e+00
  8.4730124e-01
 -5.9970431e-02
 -1.1462696e+00
 -2.2433228e+00
  8.0760795e-01
  1.1443579e+00
 -1.1275809e-02
  8.6716212e-02
 -1.1660215e+00
  1.3664553e-01
 -1.7817435e-01
 -1.1219421e-01
 -4.7668447e+00
  1.1353804e+00
  2.4135489e+00
 -7.1936226e-01
 -1.7354492e+00
  6.0819846e-01
  3.2795763e-01
 -1.1067897e-01
  4.0295351e-01
  3.3504811e-01
 -8.9355335e-03
  1.2972209e+00
 -3.8036069e-01
  1.3708747e-02
 -1.0970564e-02
 -8.4143978e-01
 -1.5041190e+00
  3.7129009e-01
 -2.1667913e-01
  5.3424895e-01
 -1.3813166e-01
 -7.3275465e-01
  6.5201622e-01
 -1.8847319e+00
 -3.9702681e-01
 -6.9222808e-01
  7.2668236e-01
 -9.9193692e-01
 -5.8348417e-01
 -1.5102266e+00
  1.1263022e+00
 -2.1825907e+00
  1.1319355e+00
 -5.8198017e-01
 -6.8585128e-01
 -1.9821715e-01
 -2.5393245e-01
 -1.0187525e-01
  1.4634233e+00
  9.6330500e-01
 -8.2868123e-01
  1.0666666e+00
 -3.8617713e+00
  6.6248037e-02
  2.9324898e-01
 -2.0246339e+00
  3.1388229e-01
 -9.2192042e-01
  9.1036785e-01
 -2.0059834e+00
 -1.0609578e+00
 -6.5925342e-01
 -1.2101165e-01
  3.0113319e-01
  2.7688700e-01
  1.6893640e-02
 -5.0723183e-01
 -2.3903821e-01
  7.6707327e-01
  2.4697058e-01
 -5.4666734e-01
  2.0742485e-01
 -3.5486087e-01
 -1.0379007e+00
 -4.4790553e-03
  1.4227289e+00
 -1.3187383e+00
 -1.9520883e-02
 -7.4100375e-02
  1.6311014e-01
  5.0184146e-02
 -1.3342319e-02
  1.1517628e-01
  5.7515334e-02
  2.5435975e-01
 -4.9355585e-02
  7.5705417e-02
 -1.0967327e-01
  1.1023855e-02
 -2.9582947e-01
  1.2950150e+00
  8.7194455e-01
 -3.0916255e-02
  4.6398573e-02
 -9.9256611e-01
 -7.5711846e-02
  9.7318869e-03
 -9.1107562e-03
  3.4251094e-03
 -7.6878417e-01
  3.4917113e-01
 -1.5144655e-02
  2.6466457e-02
  2.7021271e-01
 -1.4150383e+00
 -5.6660108e-02
  1.1868501e+00
  5.8364753e-02
  7.8184128e-01
  8.1430429e-01
  5.5716896e-01
  1.3638862e-02
  6.9442816e-02
  1.0645922e+00
 -1.1104672e-01
  1.4533752e-01
  3.7232626e-02
  1.1050242e-01
  5.5255622e-01
 -9.4362825e-02
 -6.5099686e-02
 -6.1707947e-02
  1.3474691e-01
  3.2363749e+00
  1.6614819e-01
  2.5530449e-01
 -1.6811223e-01
  6.9701689e-01
 -7.7784640e-01
  8.4312417e-02
  1.4688777e+00
 -3.8801390e-01
  7.0841941e-03
  8.6050168e-02
  9.7692944e-02
  4.1544387e-01
 -2.2308624e+00
  7.6053128e-02
 -3.0468461e-01
  3.4825251e-02
 -4.9592040e-02
 -1.8116306e+00
 -1.2093971e-03
 -4.1893396e-01
  2.1094992e+00
  2.7800243e+00
 -1.5933141e-02
  2.4728158e-01
 -4.5085936e+00
 -3.1445706e-01
 -2.1301565e-01
  1.7201862e+00
 -2.5110273e+00
 -1.0022047e+00
  1.6821009e-01
  3.2869199e-01
 -1.0225326e-02
 -1.2274075e+00
  2.2218928e-02
  9.8240331e-02
 -3.1303608e-01
 -3.2585078e-01
  9.4235653e-01
  7.2845370e-02
  1.4134280e-02
  7.0833281e-02
 -1.6536915e+00
 -5.0545741e-02
 -8.5739024e-02
 -3.5043605e-02
  8.8107446e-03
  1.2492217e+00
  3.8664866e-02
  1.4985789e-01
 -1.2440291e-01
 -1.2139102e+00
 -5.8291472e-02
 -2.4651701e+00
 -4.8024490e-01
  1.8291031e-01
 -5.8403975e-01
 -8.7005079e-02
  9.5136046e-01
 -3.9984178e-02
 -2.4971979e+00
 -1.8091774e-01
  7.1624041e-02
 -7.1781762e-02
  1.7127337e-02
  6.9349933e-01
 -5.1198542e-01
  1.6884016e+00
 -5.3763871e+00
  1.2630498e+00
  4.5598084e-01
  1.5908538e+00
 -1.6967123e+00
  6.1136144e-01
  1.3946110e+00
  7.5419140e-01
 -1.6006339e-02
  2.5984070e-01
  9.6251440e-01
  1.5840558e+00
  2.7440822e+00
 -5.2170026e-01
 -7.9591805e-01
  2.8260047e-02
 -1.0392998e+00
 -8.6304396e-02
  1.5144025e+00
 -5.0648332e-02
  1.2931257e-01
  4.7232726e-01
  2.0892575e+00
  3.4708941e+00
  6.3984327e-02
 -1.4452116e+00
 -7.6909393e-01
  1.2459507e+00
 -2.2371414e+00
  3.0809945e-01
 -1.0622842e+00
 -8.1575602e-02
  1.8486230e-01
 -6.6185594e-01
  8.8023704e-01
  1.6726905e-02
  1.3010131e+00
  6.6467422e-01
  8.5480191e-02
 -4.9998337e-01
 -8.5942978e-01
 -6.1341345e-01
 -1.9156572e+00
  8.3938014e-04
  2.8300095e-02
 -9.0135008e-02
  4.3720055e+00
 -1.8708725e-01
 -2.2359100e-01
  1.8571771e+00
  1.5992336e+00
  3.0178372e-02
  1.2456360e-01
 -9.5508409e-01
  9.1423370e-02
 -1.8398251e-02
 -7.4698395e-01
  3.1818416e-02
  1.6163084e-01
  8.4924775e-01
  4.3527627e-01
 -3.9157483e-01
 -1.1095621e-01
  2.2835709e-01
 -1.3921863e+00
 -2.0602073e-01
 -1.8092968e-01
  1.0362435e-02
  8.8843808e-02
  5.1171595e-01
 -9.1523939e-01
  3.2384911e-01
 -7.8447215e-02
  2.7079213e+00
 -2.2396710e-02
  1.0381913e-01
 -7.9248857e-06
 -3.8773224e-01
 -5.1829767e-01
 -3.6401129e-03
  5.1818490e-01
 -7.4937969e-02
 -1.2215129e-01
 -1.3503376e-01
 -2.5301489e-01
 -1.1534065e+00
  5.8344454e-02
 -1.9101385e+00
 -1.8930054e+00
 -1.5558447e-01
  3.0736446e-02
  1.4230398e+00
  7.5909466e-02
  1.2627487e+00
 -5.1623643e-03
 -8.8835713e-03
 -1.0114506e+00
 -2.0559466e-01
  1.7997796e-02
  1.2453910e+00
 -7.1141708e-01
  1.5668860e-01
 -6.9826931e-01
  1.3520318e+00
  2.8855760e-02
  5.3699307e-02
  8.0144638e-01
 -4.3064871e+00
  3.3854413e-01
 -1.0398204e+00
  2.3016325e-01
 -1.7243879e+00
  2.0798948e-01
 -9.3769580e-02
 -6.0717869e-03
  4.5754846e-02
 -1.5294790e-01
 -3.4742978e+00
  8.4664243e-01
 -1.1102918e-02
  1.7274325e-01
  1.6526408e-02
  7.4361205e-02
 -4.0064592e-02
  6.1922241e-03
  7.3127717e-02
  8.2472676e-01
 -2.0460618e+00
 -6.1839484e-02
  2.9498071e-03
  4.3480177e+00
 -1.0670813e-01
  9.2654324e-01
 -4.8901516e-01
  5.9324320e-02
  1.8004057e+00
 -4.9625903e-01
  3.4915867e+00
 -1.0604264e+00
 -8.4266260e-02
  2.9866278e-01
 -1.7027590e+00
 -1.0362772e-01
  4.3555292e-01
 -1.5984209e-01
 -2.0017915e+00
 -5.2279044e-02
 -7.9011631e-01
 -5.0784808e-01
 -1.2194990e-01
  6.4043754e-01
  8.1688948e-03
  1.1688737e-02
  1.1640947e-01
  9.8355472e-02
 -9.7005129e-01
  2.0606738e-01
  2.8072432e-01
  1.4721152e-01
  1.9298260e-01
 -9.0014315e-01
  1.8898687e-01
  2.2428915e-02
 -1.0175854e-01
  5.1290107e-01
  1.7379324e-01
 -2.5033460e+00
  2.6706940e-01
 -2.0934665e+00
 -1.3417687e-02
 -7.0550153e-03
  1.8113745e-02
 -1.7880056e+00
 -1.6748494e-02
  9.2559263e-02
 -3.1935245e-01
  3.3965290e-02
  3.7080041e-01
 -2.4473467e-01
 -1.2851919e-01
 -9.1695122e-02
  1.3771696e-01
  2.0986515e-01
 -1.4444171e-01
  8.3332017e-02
 -4.5843355e-02
  1.4793256e-01
  1.5262826e-01
 -8.7269849e-01
  5.5838674e-02
 -2.6458840e+00
  8.2602836e-02
 -6.2848538e-02
  1.5124979e-02
  5.9622619e-04
  1.8461691e-02
 -2.9709589e-01
  2.2802737e-02
  1.8041445e-01
  2.3157984e-02
 -4.8655090e-01
 -6.1616812e-02
 -1.8687932e-01
 -1.8912628e-01
  2.0053932e-02
 -5.3880155e-01
  8.2114398e-02
 -4.9424265e-02
 -7.2578174e-01
  9.3561836e-02
  1.8201239e-01
 -7.1432330e-02
  4.2255059e-01
 -1.5470389e+00
 -7.6273791e-02
  1.3472064e+00
  2.0969847e-01
  1.1116806e+00
  5.2438956e-01
  1.5103252e+00
 -2.1513772e+00
  1.4075990e+00
 -2.7641872e-01
 -1.0360945e+00
 -3.7911671e-04
 -1.5357550e+00
 -9.8682892e-01
  4.0988483e+00
 -1.2554545e+00
  1.0030740e+00
  1.3979864e+00
 -8.0204183e-01
 -4.7212413e-01
 -7.2656733e-01
 -1.4442031e-02
 -5.4268986e-01
  4.1010213e-01
  4.7367923e-02
  3.2015863e-01
 -2.9204106e+00
  9.3017399e-01
  2.2926044e+00
 -1.4786210e+00
 -1.5496778e+00
 -3.2878931e+00
  2.5307916e-02
 -9.7034705e-01
  5.0476915e-01
 -2.9293820e-01
  1.3414375e-01
  1.3820821e+00
  2.5804036e+00
  2.1794667e-02
 -7.9613817e-01
 -6.8175104e-03
  1.1626546e+00
 -6.5939373e-01
 -4.2716905e-01
 -8.4330124e-01
  6.2609148e-01
  3.6969945e-01
 -1.1590836e+00
  1.7873700e-01
  8.0523539e-01
  9.3291931e-02
 -2.6806074e-01
 -6.0733628e-01
 -1.0046390e+00
  7.4900025e-01
  1.8975903e-01
  5.0969833e-01
 -6.1431420e-01
 -6.6438729e-01
  3.6510557e-01
 -1.4143641e+00
 -5.4148579e-01
  2.1339113e-02
  1.7376909e+00
  6.9986469e-01
 -1.6352244e-01
  9.1974300e-01
 -2.5595329e+00
 -7.5360161e-01
  1.3657230e+00
 -4.6450524e+00
  3.9447182e-01
  3.0607529e+00
 -2.5067848e-01
 -1.4102316e+00
 -1.1967872e+00
  1.7218200e+00
 -2.2371759e+00
  3.0320988e+00
 -8.7980890e-01
  3.0677963e-02
  2.9273129e-01
 -4.4510472e-01
 -7.4214464e-01
 -1.4868160e-02
 -5.7208383e-01
  4.1016477e-01
  1.4544466e+00
 -4.4307166e-01
  2.1373127e-01
  1.4623426e+00
  1.0549577e-01
 -1.0104529e+00
 -7.1372586e-01
  2.2422259e+00
  1.5877323e+00
  7.0026763e-02
 -6.1160201e-01
  1.3180472e+00
 -8.8069475e-01
  1.1554052e-01
  7.0974964e-01
 -2.4393611e-01
 -1.3868742e-02
  1.7783517e-01
  1.3698682e-01
 -4.0187460e-01
  1.0008579e-01
  1.6831337e-01
  1.4280241e+00
  2.7731460e-01
 -1.8939329e+00
  6.6775240e-02
  3.8585212e-02
 -6.2116480e-01
  6.4161319e-01
  1.6254839e-02
 -3.2825425e-01
  1.2998565e-01
 -2.3005527e-01
 -3.3014616e-01
  3.0889051e-02
  1.2005482e+00
  3.0952537e+00
 -5.7543123e-01
 -8.0415851e-01
 -2.3220191e+00
 -1.2526631e-01
  2.8909829e-01
 -2.9815278e+00
  5.5058856e-02
 -2.1027509e-02
  1.9298307e+00
 -2.5180322e-01
  2.4266872e-03
 -1.6273290e+00
  1.7834442e+00
 -1.3208439e+00
 -5.3448844e-01
  2.5671950e-01
  2.1226878e+00
 -1.8542751e+00
  6.4079799e-02
  3.2223368e+00
 -2.1218171e+00
 -4.8004395e-01
 -7.7082253e-01
  1.3041419e+00
  1.6831931e-02
 -3.7829898e-02
 -3.5595586e+00
 -6.9273406e-01
 -9.4340682e-01
 -1.4605169e-01
  2.1678282e-01
  9.0703078e-02
  2.4953940e+00
 -1.1620446e-01
  4.3986715e-02
  6.6909268e-02
 -2.4161375e+00
  1.0492086e+00
 -1.3448641e+00
  6.5863341e-01
  1.7506483e-01
 -4.8540604e-01
 -4.3009675e-01
  1.8633972e-01
 -3.9060137e-01
  5.9173103e-02
  4.1057086e-01
 -4.3858248e-01
 -2.8442574e+00
 -2.3363975e-01
 -5.8316416e-01
  1.1632543e+00
 -1.3749950e+00
  3.3437238e+00
 -4.3573731e-01
  1.0075419e+00
  1.4913374e+00
 -2.0783217e+00
 -5.3821975e-01
  4.1719070e-01
  5.7677966e-01
  3.4270984e-01
  6.8488926e-02
 -3.8555726e-01
  1.6396769e+00
 -4.0896592e+00
 -1.1056527e+00
  2.5752932e-02
 -6.8990993e-01
  1.1453322e+00
  2.1762779e+00
 -1.2789546e+00
 -1.0863349e+00
  6.0253525e-01
 -2.2216344e+00
 -2.4697492e+00
 -2.5595245e-01
 -4.7231936e-01
  1.8292087e-01
 -1.0239640e+00
  2.2161520e+00
  6.4031047e-01
  2.2910266e+00
 -2.2425495e-01
  1.6924350e-02
 -3.4129286e-01
 -5.1323360e-01
 -3.1218079e-01
 -3.1979433e-01
  7.1575835e-02
 -6.0359884e-02
 -2.1728349e-01
  7.7206248e-01
 -8.1344128e-01
 -1.2711730e+00
  1.2731489e+00
 -3.6449823e-01
 -9.2009902e-02
 -1.2319298e+00
 -6.9027877e-01
 -9.3076038e-01
 -2.3559552e-01
  1.6982348e-01
 -4.9860641e-02
  3.1315678e-01
  3.6189088e-01
 -6.0105902e-01
 -1.9339794e+00
  4.4166365e-01
  4.6799845e-01
 -7.1358651e-01
  1.2028284e+00
 -1.6206304e+00
 -9.7769356e-01
  8.0909260e-02
 -8.6935960e-02
  1.8293123e+00
 -8.1966966e-01
  7.5795376e-01
  6.2507343e-01
 -2.0589058e-01
 -1.9228663e+00
  7.6220626e-01
  2.2718141e+00
 -4.6126614e+00
  6.6333693e-01
 -1.4177971e+00
  1.4210559e+00
 -4.0212801e-01
  2.3178324e-01
 -1.1007609e+00
 -3.7319753e-01
 -1.5672351e-01
 -2.7116531e-01
  2.2218198e-01
  4.6009004e-02
 -1.1965744e+00
 -1.3307108e+00
  1.0735370e+00
  2.4784708e-02
  1.7299590e-01
  5.4724213e-02
  3.1915292e-01
  1.6901773e+00
 -8.1529729e-02
  2.1383612e-01
 -5.4919070e-01
 -4.6873304e-01
  4.4454390e-01
 -1.2132248e-01
  2.5177310e+00
  1.3511702e+00
  6.3606882e-01
 -8.8515401e-01
 -7.0342380e-01
  9.4895905e-01
  4.6152627e-01
 -3.9155683e-03
 -3.8234476e-02
  4.7687784e-01
  1.2157989e-01
  4.1765351e+00
  4.2665344e-01
  2.6505777e-01
 -2.7319166e-01
 -1.7307036e-01
 -5.5997270e-01
  5.6737858e-01
 -2.8259955e-02
  6.7813158e-01
 -2.2737002e+00
 -1.9355051e-02
  4.4054428e-01
  3.6719325e+00
 -2.4849187e-01
  7.6166582e-01
  5.6982189e-01
  2.9207729e-03
 -1.8999332e-01
  1.1830562e+00
 -7.5526571e-01
  6.1922061e-01
  7.7858382e-01
  2.1908164e+00
 -8.1420535e-01
  1.9434928e+00
 -8.8427806e-01
  3.3814091e-02
 -3.4391969e-01
 -7.2346640e-01
 -2.5936804e+00
 -4.6461025e-01
  4.1438625e-03
 -4.4449843e-02
 -2.3575473e+00
 -3.5044301e-02
  8.7516919e-02
 -3.8358682e-01
  3.6234844e-01
 -9.5792726e-02
  5.4935679e-02
  5.3078562e-02
  5.2046221e-01
  3.5649568e-02
  1.3054295e-01
 -6.6351408e-01
  1.0243863e+00
  7.3447593e-02
  1.6908730e+00
 -4.2368400e-01
 -4.4577459e-01
  1.0133539e-01
 -2.7442994e+00
  4.5568335e-01
  6.0775485e-02
 -1.6886579e+00
  3.6383294e-02
 -3.1094235e-01
  8.1266189e-01
  2.4686814e-03
 -3.8203292e-02
 -2.9123526e+00
 -8.5327953e-02
 -5.5280666e+00
  1.0390530e-01
  1.0040531e-02
 -2.5189754e-01
 -1.1808023e-01
 -2.6064339e-01
 -2.7138317e-01
 -4.5717907e-01
 -4.2322710e-02
  1.9151919e+00
 -7.5055830e-02
  6.9683462e-02
  4.2537332e-01
 -8.8310349e-01
  7.3496294e-01
 -2.3697019e-02
 -8.3375978e-01
 -3.4903479e-01
 -1.1208159e-01
  1.4835465e+00
  5.4447418e-01
  1.1344789e+00
 -1.6774238e+00
  1.3733374e-01
 -1.9507813e-01
  3.6600494e-01
 -6.6254660e-03
  2.6846248e-01
  6.2540181e-02
 -4.1052260e-02
 -4.4532001e-02
  2.3669259e-01
  4.4744629e-01
 -1.3089043e-01
  7.8112818e-02
 -1.2602797e+00
  1.5624413e-01
 -1.0566021e-01
  1.5735058e-01
  2.5493073e-01
  1.0664404e-01
 -4.7301657e-02
  8.3640283e-03
 -6.7380086e-02
 -5.6991524e-01
  1.2826504e+00
 -5.0666720e-01
 -2.5084624e-01
  8.9767938e-03
 -8.0660403e-02
  6.7943387e-02
 -1.9958013e-01
  5.2102250e-01
 -1.8003692e-01
  7.9221234e-02
  3.4031402e-02
 -5.8661425e-03
  6.1775032e-02
 -1.2824129e+00
 -2.4742156e-02
  7.2859985e-01
  8.6735703e-02
 -1.4417107e-01
  2.0448272e-01
  3.1778261e-02
  6.3458949e-02
 -5.3818561e-02
 -6.6528767e-03
 -2.0959973e-04
  2.3192635e-02
 -1.0787598e-01
 -4.5389086e-01
  5.4337867e-03
 -1.3202573e-01
 -4.1191529e-02
 -8.1875330e-01
 -1.6777057e-02
 -7.5981699e-02
  1.1047905e-01
  2.0368764e-01
  9.2151642e-02
  1.7060968e-03
  4.8240083e-01
 -1.8413237e+00
 -1.1111927e-01
  3.1286687e-02
  6.8280168e-02
 -1.5626687e+00
  2.8681297e-02
  4.2539038e-02
  1.8807183e-01
 -1.0801952e-01
  2.4703878e-01
  2.5007740e-02
 -6.1871178e-02
 -1.6380731e-02
 -5.2665625e-02
  2.2501437e-01
 -1.6036166e-01
  2.9137760e-02
  2.0152405e-02
  1.1019286e+00
  1.3979979e-01
  3.8553509e-01
 -1.1277650e-01
 -6.1003464e-01
  6.2254205e-02
 -3.8840041e-01
  2.6681647e-02
  9.6090265e-02
 -4.1332137e-02
  1.5542233e-01
 -1.2630358e-01
  1.6657532e+00
  8.2940912e-01
 -4.6771348e-02
  5.3705849e-02
  3.1462449e-01
  5.0585279e-03
 -2.9052664e-02
  1.8324204e-01
